svm_type c_svc
kernel_type polynomial
degree 3
gamma 0.333333
coef0 0
nr_class 2
total_sv 127
rho 2.60194
label 1 -1
nr_sv 62 65
SV
1 1:0 2:1 3:0.580294 
1 1:1 2:1 3:0.706519 
1 1:0 2:1 3:0.773732 
1 1:0 2:2 3:0.520456 
1 1:0 2:1 3:0.746792 
1 1:0 2:1 3:0.45874 
1 1:0 2:4 3:0.478288 
1 1:0 2:1 3:0.725481 
1 1:1 2:1 3:0.62471 
1 1:0 2:2 3:0.632025 
1 1:0 2:4 3:0.421242 
1 1:0 2:1 3:0.484345 
1 1:1 2:1 3:0.460631 
1 1:0 2:1 3:0.884284 
1 1:0 2:1 3:0.490666 
1 1:0 2:1 3:0.971778 
1 1:0 2:1 3:0.62577 
1 1:0 2:1 3:0.426209 
1 1:0 2:1 3:0.627957 
1 1:0 2:1 3:0.729693 
1 1:0 2:1 3:1.089752 
1 1:0 2:1 3:0.61736 
1 1:0 2:17 3:0.425321 
1 1:0 2:1 3:0.549859 
1 1:0 2:1 3:0.583517 
1 1:0 2:1 3:0.434599 
1 1:0 2:3 3:0.454212 
1 1:0 2:1 3:0.411559 
1 1:0 2:3 3:0.501527 
1 1:0 2:1 3:1.034664 
1 1:0 2:1 3:0.739305 
1 1:0 2:1 3:0.630997 
1 1:0 2:1 3:0.500736 
1 1:0 2:1 3:0.662483 
1 1:0 2:11 3:0.433988 
1 1:0 2:1 3:0.863579 
1 1:0 2:2 3:0.757853 
1 1:0 2:1 3:0.754029 
1 1:0 2:3 3:0.592882 
1 1:0 2:1 3:0.663647 
1 1:0 2:1 3:0.758036 
0.07696609246201576 1:0 2:64 3:0.750246 
1 1:0 2:1 3:0.750246 
1 1:0 2:1 3:0.481935 
1 1:0 2:1 3:0.602359 
1 1:0 2:6 3:0.621015 
1 1:0 2:1 3:0.7185 
1 1:0 2:1 3:0.430161 
1 1:0 2:2 3:0.54506 
1 1:0 2:1 3:0.572699 
1 1:0 2:1 3:0.825906 
1 1:0 2:1 3:0.450569 
1 1:0 2:1 3:0.905861 
1 1:0 2:1 3:0.81417 
1 1:0 2:1 3:0.436762 
1 1:0 2:1 3:0.66092 
1 1:0 2:1 3:0.464255 
1 1:1 2:1 3:0.613063 
1 1:0 2:1 3:0.76859 
1 1:0 2:2 3:0.474451 
1 1:0 2:1 3:1.005081 
1 1:0 2:20 3:0.469446 
-1 1:0 2:6 3:0.3411 
-1 1:0 2:2 3:0.395106 
-1 1:0 2:4 3:0.38463 
-1 1:0 2:7 3:0.387318 
-1 1:0 2:2 3:0.3844 
-1 1:0 2:3 3:0.388253 
-1 1:0 2:2 3:0.388848 
-1 1:0 2:9 3:0.384601 
-1 1:0 2:6 3:0.377959 
-1 1:0 2:2 3:0.392321 
-1 1:0 2:2 3:0.395671 
-0.6158453559865888 1:0 2:14 3:0.397196 
-1 1:0 2:4 3:0.370892 
-1 1:0 2:3 3:0.393602 
-1 1:0 2:2 3:0.39125 
-1 1:0 2:2 3:0.384716 
-1 1:0 2:8 3:0.372817 
-1 1:0 2:8 3:0.349067 
-1 1:0 2:2 3:0.394749 
-1 1:0 2:6 3:0.323517 
-1 1:0 2:5 3:0.350431 
-0.0009111907386857668 1:0 2:29 3:0.387546 
-1 1:0 2:3 3:0.344082 
-1 1:0 2:2 3:0.392482 
-1 1:0 2:2 3:0.398741 
-1 1:0 2:2 3:0.400604 
-1 1:0 2:2 3:0.401901 
-1 1:0 2:2 3:0.391879 
-0.5176639699839503 1:0 2:19 3:0.383234 
-1 1:0 2:2 3:0.388496 
-0.2284988614882182 1:0 2:36 3:0.073476 
-1 1:0 2:2 3:0.396698 
-1 1:0 2:2 3:0.408803 
-1 1:0 2:2 3:0.390631 
-1 1:0 2:3 3:0.386804 
-1 1:0 2:3 3:0.344428 
-1 1:0 2:2 3:0.38374 
-1 1:0 2:11 3:0.390006 
-1 1:0 2:3 3:0.340999 
-1 1:0 2:6 3:0.404287 
-1 1:0 2:6 3:0.386778 
-1 1:0 2:5 3:0.363387 
-1 1:0 2:4 3:0.354385 
-1 1:0 2:2 3:0.382439 
-1 1:0 2:2 3:0.385558 
-1 1:0 2:2 3:0.397743 
-0.2276084483271691 1:2 2:0 3:0.408541 
-1 1:0 2:2 3:0.401526 
-1 1:0 2:4 3:0.34711 
-1 1:0 2:7 3:0.385079 
-1 1:0 2:4 3:0.333617 
-1 1:0 2:2 3:0.408014 
-1 1:0 2:6 3:0.406614 
-1 1:0 2:6 3:0.391033 
-1 1:0 2:2 3:0.385011 
-1 1:0 2:2 3:0.381297 
-1 1:0 2:2 3:0.395396 
-1 1:0 2:4 3:0.411226 
-1 1:0 2:7 3:0.405353 
-0.4864382659373804 1:0 2:22 3:0.003448 
-1 1:0 2:19 3:0.371796 
-1 1:0 2:5 3:0.35845 
-1 1:0 2:5 3:0.3226 
-1 1:0 2:3 3:0.354952 
-1 1:0 2:4 3:0.361291 
