svm_type c_svc
kernel_type polynomial
degree 3
gamma 0.333333
coef0 0
nr_class 2
total_sv 238
rho 6.87235
label 1 -1
nr_sv 116 122
SV
1 1:1 2:1 3:0.438763 
1 1:0 2:1 3:0.580294 
1 1:0 2:1 3:0.773732 
1 1:0 2:2 3:0.520456 
1 1:0 2:3 3:0.81932 
1 1:0 2:1 3:0.746792 
1 1:0 2:1 3:0.45874 
1 1:0 2:1 3:0.668191 
1 1:0 2:4 3:0.478288 
1 1:0 2:1 3:0.725481 
1 1:0 2:1 3:0.664884 
1 1:0 2:1 3:0.581028 
1 1:0 2:3 3:0.556113 
1 1:0 2:1 3:0.8374 
1 1:0 2:1 3:1.082633 
1 1:0 2:2 3:0.632025 
1 1:0 2:1 3:0.528287 
1 1:0 2:4 3:0.421242 
1 1:0 2:1 3:0.752429 
1 1:0 2:6 3:0.475061 
1 1:0 2:1 3:0.484345 
1 1:0 2:1 3:0.502342 
1 1:0 2:1 3:1.102648 
1 1:0 2:1 3:1.102648 
1 1:1 2:1 3:0.521087 
1 1:1 2:1 3:0.460631 
1 1:0 2:1 3:0.485349 
1 1:0 2:1 3:0.884284 
1 1:0 2:1 3:0.490666 
1 1:0 2:1 3:0.971778 
1 1:0 2:1 3:0.62577 
1 1:0 2:1 3:0.426209 
1 1:0 2:1 3:0.627957 
1 1:0 2:1 3:0.729693 
1 1:0 2:1 3:1.089752 
1 1:0 2:1 3:0.493299 
1 1:0 2:1 3:0.61736 
1 1:0 2:4 3:0.473525 
0.100468152812572 1:0 2:1 3:1.131827 
1 1:0 2:1 3:0.421042 
0.3585883589771146 1:0 2:17 3:0.425321 
1 1:0 2:1 3:0.549859 
1 1:0 2:1 3:0.583517 
1 1:0 2:1 3:0.655799 
1 1:0 2:1 3:0.434599 
1 1:0 2:1 3:0.649096 
1 1:0 2:1 3:0.522076 
1 1:0 2:3 3:0.454212 
1 1:0 2:1 3:0.644217 
1 1:0 2:4 3:0.73672 
1 1:0 2:1 3:0.748939 
1 1:0 2:1 3:0.411559 
1 1:0 2:3 3:0.501527 
1 1:0 2:1 3:0.449315 
0.1484334401983786 1:0 2:58 3:0.699012 
1 1:0 2:1 3:1.034664 
1 1:0 2:5 3:0.669525 
0.9503821350357287 1:1 2:1 3:0.53007 
1 1:1 2:1 3:0.485412 
1 1:0 2:1 3:0.739305 
1 1:0 2:2 3:0.443017 
1 1:0 2:1 3:0.964285 
1 1:0 2:2 3:0.691401 
1 1:0 2:4 3:0.475437 
1 1:0 2:1 3:0.630997 
1 1:0 2:1 3:0.50443 
1 1:0 2:1 3:0.596087 
1 1:0 2:1 3:0.910336 
1 1:0 2:1 3:0.500736 
1 1:0 2:1 3:0.437306 
1 1:0 2:1 3:0.662483 
1 1:0 2:1 3:0.863579 
1 1:0 2:1 3:0.648325 
1 1:0 2:2 3:0.757853 
1 1:0 2:1 3:0.754029 
1 1:0 2:3 3:0.592882 
1 1:0 2:1 3:0.663647 
1 1:0 2:1 3:0.758036 
1 1:0 2:64 3:0.750246 
1 1:0 2:1 3:0.750246 
1 1:0 2:1 3:1.075056 
1 1:0 2:1 3:0.430645 
1 1:0 2:1 3:0.481935 
1 1:0 2:1 3:0.602359 
1 1:0 2:1 3:0.93137 
0.9243914380858577 1:0 2:6 3:0.621015 
1 1:0 2:1 3:0.638352 
1 1:0 2:1 3:0.508064 
1 1:0 2:3 3:0.686575 
1 1:0 2:1 3:0.7185 
1 1:0 2:1 3:0.430161 
1 1:0 2:2 3:0.54506 
1 1:0 2:1 3:0.992252 
1 1:0 2:1 3:0.572699 
1 1:1 2:1 3:0.486235 
1 1:0 2:1 3:0.825906 
1 1:0 2:1 3:0.522775 
1 1:0 2:2 3:0.475337 
1 1:0 2:1 3:0.839331 
1 1:0 2:1 3:0.411562 
1 1:0 2:1 3:0.450569 
1 1:0 2:1 3:0.905861 
1 1:1 2:1 3:0.456143 
1 1:0 2:1 3:0.81417 
1 1:0 2:1 3:0.570747 
1 1:0 2:1 3:0.420425 
1 1:0 2:1 3:0.436762 
1 1:0 2:1 3:0.66092 
1 1:0 2:1 3:0.486897 
1 1:0 2:1 3:0.464255 
1 1:0 2:1 3:0.538491 
1 1:0 2:1 3:0.612818 
1 1:0 2:1 3:0.76859 
1 1:0 2:2 3:0.474451 
1 1:0 2:1 3:0.653477 
1 1:0 2:1 3:1.005081 
-1 1:0 2:6 3:0.3411 
-1 1:0 2:10 3:0.245576 
-1 1:0 2:4 3:0.38463 
-1 1:0 2:7 3:0.387318 
-1 1:0 2:13 3:0.292436 
-1 1:0 2:11 3:0.253149 
-1 1:0 2:10 3:0.347839 
-0.01973685326868991 1:0 2:29 3:0.295059 
-0.7983861449840961 1:0 2:54 3:0.127216 
-1 1:0 2:4 3:0.315189 
-1 1:0 2:15 3:0.321895 
-1 1:0 2:6 3:0.287481 
-1 1:0 2:6 3:0.371101 
-1 1:0 2:5 3:0.301014 
-1 1:0 2:7 3:0.2225 
-1 1:0 2:6 3:0.285672 
-1 1:0 2:11 3:0.366876 
-1 1:0 2:5 3:0.325658 
-1 1:0 2:3 3:0.388253 
-1 1:0 2:14 3:0.393046 
-1 1:0 2:12 3:0.389762 
-1 1:0 2:5 3:0.287616 
-1 1:0 2:9 3:0.384601 
-1 1:0 2:6 3:0.377959 
-1 1:0 2:14 3:0.397196 
-1 1:0 2:4 3:0.370892 
-0.1160945401148582 1:0 2:17 3:0.143767 
-1 1:0 2:4 3:0.403815 
-1 1:0 2:14 3:0.338872 
-1 1:0 2:3 3:0.393602 
-1 1:0 2:11 3:0.380938 
-1 1:0 2:6 3:0.214656 
-1 1:0 2:4 3:0.307155 
-9.931213797261322e-05 1:0 2:33 3:0.297226 
-0.7476663566037417 1:0 2:4 3:0.310177 
-1 1:0 2:13 3:0.284994 
-1 1:0 2:7 3:0.299895 
-1 1:0 2:11 3:0.365007 
-1 1:0 2:8 3:0.372817 
-1 1:0 2:9 3:0.26544 
-0.9636023907996585 1:0 2:17 3:0.368199 
-1 1:0 2:13 3:0.408806 
-1 1:0 2:8 3:0.349067 
-1 1:0 2:5 3:0.253504 
-1 1:0 2:7 3:0.389135 
-1 1:0 2:6 3:0.215678 
-1 1:0 2:28 3:0.343908 
-1 1:0 2:6 3:0.323517 
-9.806352470623187e-08 1:0 2:22 3:0.221619 
-1 1:0 2:5 3:0.380281 
-1 1:0 2:4 3:0.321612 
-1 1:0 2:5 3:0.350431 
-1 1:0 2:8 3:0.233165 
-1 1:0 2:5 3:0.362653 
-1 1:0 2:4 3:0.355262 
-1 1:0 2:23 3:0.299886 
-0.008234082649077448 1:0 2:6 3:0.213173 
-0.0145949630989732 1:0 2:20 3:0.101488 
-1 1:0 2:5 3:0.242181 
-1 1:0 2:13 3:0.28763 
-1 1:0 2:7 3:0.261002 
-0.8889754495492646 1:0 2:9 3:0.245228 
-1 1:0 2:6 3:0.404594 
-1 1:0 2:3 3:0.385337 
-1 1:0 2:5 3:0.319254 
-1 1:0 2:4 3:0.343033 
-0.2792122750755806 1:3 2:0 3:0.380319 
-1 1:0 2:5 3:0.313566 
-0.2957144871518415 1:0 2:17 3:0.302663 
-1 1:0 2:11 3:0.361782 
-1 1:0 2:4 3:0.31273 
-1 1:0 2:13 3:0.340373 
-1 1:0 2:19 3:0.383234 
-1 1:0 2:7 3:0.369778 
-1 1:0 2:4 3:0.342269 
-1 1:0 2:10 3:0.209284 
-1 1:0 2:13 3:0.366643 
-1 1:0 2:7 3:0.232709 
-1 1:0 2:3 3:0.386804 
-1 1:0 2:11 3:0.390006 
-1 1:0 2:8 3:0.318125 
-1 1:0 2:6 3:0.208924 
-1 1:0 2:12 3:0.397391 
-1 1:0 2:5 3:0.264414 
-1 1:0 2:6 3:0.404287 
-1 1:0 2:6 3:0.386778 
-1 1:0 2:6 3:0.271521 
-1 1:0 2:5 3:0.363387 
-1 1:0 2:4 3:0.354385 
-1 1:0 2:7 3:0.296075 
-1 1:0 2:7 3:0.298112 
-1 1:0 2:9 3:0.294841 
-1 1:0 2:6 3:0.341871 
-1 1:0 2:10 3:0.286337 
-1 1:0 2:11 3:0.287473 
-1 1:0 2:4 3:0.34711 
-1 1:0 2:9 3:0.243653 
-1 1:0 2:12 3:0.23809 
-1 1:0 2:5 3:0.36988 
-1 1:0 2:7 3:0.385079 
-1 1:0 2:4 3:0.308881 
-1 1:0 2:6 3:0.347504 
-1 1:0 2:4 3:0.333617 
-1 1:0 2:15 3:0.344271 
-1 1:0 2:6 3:0.406614 
-1 1:0 2:6 3:0.391033 
-1 1:0 2:5 3:0.280167 
-1 1:0 2:6 3:0.281847 
-1 1:0 2:4 3:0.411226 
-1 1:0 2:9 3:0.33274 
-1 1:0 2:7 3:0.405353 
-1 1:0 2:19 3:0.371796 
-1 1:0 2:12 3:0.250818 
-0.3499465716121375 1:0 2:51 3:0.38229 
-1 1:0 2:4 3:0.389354 
-1 1:0 2:5 3:0.301117 
-1 1:0 2:5 3:0.35845 
-1 1:0 2:6 3:0.381554 
-1 1:0 2:6 3:0.320777 
-1 1:0 2:5 3:0.3226 
-1 1:0 2:8 3:0.266036 
-1 1:0 2:4 3:0.361291 
