svm_type c_svc
kernel_type linear
nr_class 2
total_sv 173
rho 4.46833
label 1 -1
nr_sv 86 87
SV
1 1:1 2:1 3:0.438763 
1 1:5 2:42 3:0.435796 
1 1:0 2:13 3:0.458489 
1 1:0 2:1 3:0.450133 
0.8135193784590741 1:21 2:42 3:0.440413 
1 1:0 2:1 3:0.487118 
1 1:0 2:1 3:0.430807 
1 1:0 2:1 3:0.567038 
1 1:0 2:1 3:0.581028 
1 1:0 2:3 3:0.556113 
1 1:0 2:13 3:0.48331 
1 1:0 2:1 3:0.478691 
1 1:0 2:1 3:0.528287 
1 1:0 2:2 3:0.627087 
1 1:0 2:6 3:0.475061 
1 1:0 2:6 3:0.475061 
1 1:1 2:1 3:0.494528 
1 1:0 2:1 3:0.569068 
1 1:0 2:1 3:0.502342 
1 1:4 2:1 3:0.573596 
1 1:1 2:1 3:0.521087 
1 1:0 2:1 3:0.604853 
1 1:0 2:1 3:0.485349 
1 1:0 2:1 3:0.463664 
1 1:1 2:10 3:0.484857 
1 1:1 2:2 3:0.512224 
1 1:0 2:1 3:0.493299 
1 1:0 2:4 3:0.473525 
1 1:2 2:2 3:0.546631 
1 1:0 2:1 3:0.421042 
1 1:0 2:17 3:0.616135 
1 1:1 2:1 3:0.546662 
1 1:0 2:1 3:0.583517 
1 1:8 2:2 3:0.534415 
1 1:0 2:1 3:0.596446 
1 1:0 2:1 3:0.522076 
1 1:0 2:2 3:0.569393 
1 1:0 2:1 3:0.644217 
1 1:0 2:1 3:0.48528 
1 1:0 2:1 3:0.514089 
1 1:0 2:1 3:0.449315 
1 1:0 2:1 3:0.4225 
1 1:1 2:1 3:0.53007 
1 1:1 2:1 3:0.485412 
1 1:0 2:2 3:0.443017 
1 1:0 2:4 3:0.475437 
1 1:10 2:22 3:0.454093 
1 1:0 2:1 3:0.50443 
1 1:1 2:1 3:0.52021 
1 1:0 2:1 3:0.596087 
1 1:0 2:1 3:0.553904 
1 1:0 2:1 3:0.453851 
1 1:0 2:1 3:0.437306 
1 1:2 2:2 3:0.509699 
1 1:0 2:1 3:0.521855 
0.3325374686507044 1:3 2:445 3:0.570929 
1 1:3 2:1 3:0.538738 
1 1:0 2:1 3:0.430645 
1 1:0 2:1 3:0.437272 
1 1:0 2:1 3:0.638352 
1 1:2 2:494 3:0.525389 
1 1:0 2:1 3:0.519433 
1 1:0 2:1 3:0.508064 
1 1:0 2:1 3:0.478595 
1 1:0 2:1 3:0.523713 
1 1:0 2:1 3:0.46754 
1 1:0 2:1 3:0.41311 
1 1:1 2:1 3:0.486235 
1 1:0 2:1 3:0.522775 
1 1:0 2:2 3:0.475337 
1 1:0 2:1 3:0.518854 
1 1:0 2:1 3:0.411562 
1 1:0 2:8 3:0.450569 
1 1:1 2:1 3:0.456143 
1 1:0 2:1 3:0.570747 
1 1:0 2:1 3:0.420425 
1 1:0 2:1 3:0.486897 
1 1:0 2:1 3:0.538491 
1 1:2 2:1 3:0.495198 
1 1:0 2:1 3:0.612818 
1 1:0 2:1 3:0.417953 
1 1:2 2:2 3:0.559451 
1 1:0 2:4 3:0.595757 
1 1:0 2:1 3:0.436393 
1 1:0 2:1 3:0.548405 
1 1:0 2:16 3:0.642448 
-1 1:0 2:1 3:0.411085 
-1 1:1 2:0 3:0.405731 
-1 1:0 2:1 3:0.41109 
-1 1:0 2:1 3:0.410929 
-1 1:0 2:1 3:0.411216 
-1 1:0 2:1 3:0.410934 
-1 1:0 2:1 3:0.410888 
-1 1:0 2:1 3:0.411253 
-1 1:0 2:1 3:0.411078 
-1 1:0 2:1 3:0.410934 
-1 1:1 2:0 3:0.404156 
-1 1:1 2:0 3:0.4034 
-1 1:0 2:1 3:0.411081 
-1 1:0 2:1 3:0.411042 
-1 1:0 2:1 3:0.41088 
-1 1:2 2:0 3:0.400403 
-1 1:0 2:1 3:0.410881 
-1 1:0 2:13 3:0.40965 
-1 1:0 2:1 3:0.410928 
-1 1:38 2:722 3:0.372817 
-1 1:0 2:128 3:0.409373 
-1 1:0 2:1 3:0.410891 
-1 1:0 2:1 3:0.411115 
-1 1:0 2:1 3:0.41104 
-1 1:1 2:0 3:0.408854 
-1 1:1 2:0 3:0.409564 
-1 1:0 2:1 3:0.410891 
-1 1:0 2:1 3:0.411078 
-1 1:1 2:0 3:0.407878 
-1 1:1 2:0 3:0.40821 
-1 1:0 2:1 3:0.411246 
-1 1:0 2:1 3:0.411081 
-1 1:0 2:1 3:0.410868 
-1 1:0 2:1 3:0.41107 
-1 1:2 2:0 3:0.40498 
-1 1:0 2:1 3:0.410972 
-1 1:1 2:0 3:0.401724 
-1 1:1 2:0 3:0.410742 
-1 1:0 2:1 3:0.411081 
-1 1:1 2:0 3:0.407349 
-1 1:0 2:1 3:0.410917 
-1 1:0 2:1 3:0.410955 
-1 1:0 2:1 3:0.411224 
-1 1:0 2:1 3:0.411143 
-1 1:2 2:0 3:0.39499 
-1 1:0 2:1 3:0.411114 
-1 1:0 2:1 3:0.411016 
-1 1:2 2:0 3:0.401007 
-1 1:0 2:1 3:0.411237 
-1 1:0 2:1 3:0.410955 
-1 1:0 2:1 3:0.410885 
-1 1:0 2:1 3:0.410966 
-0.1084306752882308 1:0 2:1 3:0.410839 
-1 1:0 2:1 3:0.41091 
-1 1:0 2:1 3:0.410891 
-1 1:0 2:1 3:0.410888 
-1 1:0 2:1 3:0.411215 
-1 1:0 2:1 3:0.411224 
-1 1:2 2:0 3:0.395141 
-1 1:0 2:1 3:0.410881 
-1 1:0 2:1 3:0.410966 
-1 1:0 2:1 3:0.411226 
-1 1:0 2:1 3:0.411194 
-1 1:0 2:1 3:0.411215 
-1 1:0 2:1 3:0.411246 
-1 1:2 2:0 3:0.405853 
-1 1:1 2:0 3:0.40441 
-1 1:1 2:0 3:0.41034 
-1 1:0 2:1 3:0.410885 
-1 1:0 2:1 3:0.411252 
-1 1:0 2:1 3:0.411253 
-1 1:0 2:1 3:0.410928 
-1 1:0 2:1 3:0.411253 
-1 1:2 2:0 3:0.406792 
-1 1:0 2:1 3:0.410888 
-1 1:0 2:1 3:0.410934 
-1 1:0 2:1 3:0.411037 
-1 1:1 2:0 3:0.410042 
-1 1:2 2:0 3:0.407609 
-1 1:0 2:1 3:0.411078 
-1 1:0 2:1 3:0.410833 
-1 1:0 2:1 3:0.410934 
-1 1:1 2:0 3:0.40208 
-1 1:0 2:1 3:0.411018 
-1 1:0 2:1 3:0.410872 
-0.03762617182154693 1:0 2:1 3:0.410839 
-1 1:1 2:0 3:0.40858 
