svm_type c_svc
kernel_type rbf
gamma 0.2
nr_class 2
total_sv 1781
rho -0.947139
label 1 -1
probA 0
probB 4.14863
nr_sv 1675 106
SV
0.02821332607668302 1:11 2:1 3:24.7495 4:0.465 5:1.99531 
0.01997527792814271 1:31 2:13 3:35.6277 4:0.415 5:1.97331 
0.02468592893877847 1:21 2:1 3:15.7293 4:0.508 5:1.991 
0.05065469844749976 1:15 2:51 3:32.8464 4:0.429 5:1.98005 
0.00854604200462169 1:30 2:9 3:35.2901 4:0.309 5:1.89053 
0.02602668533828763 1:8 2:32 3:7.97284 4:0.2955 5:1.84065 
0.05282440831869195 1:39 2:66 3:48.7907 4:0.441 5:1.98974 
0.0510565519999211 1:28 2:42 3:9.51028 4:0.422 5:1.97939 
0.01794390962103026 1:13 2:33 3:5.2789 4:0.385 5:1.9564 
0.001856151476173798 1:39 2:8 3:46.3841 4:0.398 5:1.96315 
0.03763812400345951 1:20 2:4 3:34.2924 4:0.346 5:1.93032 
0.02546969435255377 1:1 2:3 3:14.8739 4:0.4235 5:1.96688 
0.04003640500319461 1:27 2:9 3:50.8651 4:0.357 5:1.91236 
0.03858085507903068 1:34 2:10 3:2.80871 4:0.454 5:1.99206 
0.05248036026824171 1:5 2:42 3:0.435796 4:0.422 5:1.97857 
0.01516750417034252 1:20 2:4 3:8.40115 4:0.3705 5:1.95023 
0.0242305624134753 1:24 2:44 3:35.1267 4:0.404 5:1.96633 
0.004796650449086349 1:6 2:17 3:4.93424 4:0.4115 5:1.97195 
0.03552223003473751 1:20 2:14 3:17.4335 4:0.4065 5:1.9709 
0.01845066832838789 1:24 2:4 3:33.2464 4:0.3655 5:1.93315 
0.03617422072976673 1:23 2:21 3:13.3819 4:0.4965 5:1.99778 
1 1:1 2:13 3:0.458489 4:0.4005 5:1.96979 
0.05241542039877078 1:12 2:22 3:32.1498 4:0.3835 5:1.95891 
0.005154775542065667 1:14 2:23 3:4.12667 4:0.4175 5:1.97564 
0.008403632900018948 1:6 2:24 3:3.90663 4:0.384 5:1.95713 
0.009275987099690186 1:8 2:23 3:3.82541 4:0.4635 5:1.99108 
0.0278792691633444 1:47 2:48 3:59.1429 4:0.3835 5:1.95225 
0.01978398381164547 1:29 2:12 3:37.0157 4:0.3655 5:1.93399 
0.03442391094087106 1:9 2:1 3:27.5138 4:0.4425 5:1.98504 
0.02571562599289808 1:3 2:7 3:15.8182 4:0.2315 5:1.51227 
0.0333473667551985 1:1 2:3 3:33.4027 4:0.378 5:1.95659 
0.05282373722206568 1:29 2:2 3:153.279 4:0.1965 5:1.39689 
0.05125590116365586 1:10 2:4 3:50.3876 4:0.412 5:1.79972 
1 1:1 2:14 3:1.01783 4:0.401 5:1.79808 
0.01552931140168979 1:3 2:8 3:7.58431 4:0.4075 5:1.79908 
0.05283186262462347 1:1 2:171 3:7.58431 4:0.407 5:1.79736 
0.01447221660510624 1:1 2:4 3:16.654 4:0.4075 5:1.77442 
0.05281448758281015 1:1 2:363 3:5.04629 4:0.381 5:1.95092 
0.05282696586688013 1:43 2:37 3:6.84804 4:0.365 5:1.90807 
0.01627613754728741 1:2 2:50 3:0.656205 4:0.3635 5:1.90824 
0.05331691360423496 1:51 2:590 3:0.656205 4:0.3635 5:1.90824 
0.2384779659310955 1:2 2:47 3:1.02855 4:0.3685 5:1.9097 
0.05331719577592126 1:37 2:186 3:2.1473 4:0.3595 5:1.90065 
0.05289259509735955 1:42 2:17 3:4.64571 4:0.362 5:1.90912 
0.004493411590061613 1:2 2:3 3:17.1497 4:0.3485 5:1.89264 
0.04591557659656853 1:29 2:4 3:4.54055 4:0.6325 5:1.89584 
0.01770576537563135 1:13 2:1 3:15.8456 4:0.462 5:1.96788 
0.0235008175407856 1:9 2:1 3:15.8456 4:0.4005 5:1.96389 
0.03723133818455943 1:34 2:18 3:27.1382 4:0.547 5:1.99223 
0.03837190779135013 1:6 2:35 3:5.58653 4:0.4095 5:1.97518 
0.01204271910371977 1:11 2:9 3:5.12667 4:0.343 5:1.92179 
0.02106143324744317 1:23 2:7 3:21.423 4:0.408 5:1.97456 
0.02695459581282261 1:19 2:9 3:16.0027 4:0.344 5:1.92207 
0.005476142184679433 1:18 2:3 3:4.71995 4:0.345 5:1.92716 
0.02268711627917758 1:6 2:8 3:12.5528 4:0.3815 5:1.95845 
1 1:11 2:1 3:0.668191 4:0.5075 5:1.99362 
0.004860247266259218 1:30 2:3 3:41.0476 4:0.3545 5:1.93194 
0.05110171427011689 1:16 2:20 3:36.1005 4:0.3795 5:1.95645 
0.01316418576404141 1:22 2:7 3:40.2028 4:0.459 5:1.99486 
0.0233197491008138 1:28 2:1 3:48.5 4:0.4715 5:1.99663 
0.01536255531091884 1:24 2:48 3:44.2625 4:0.3145 5:1.85555 
0.01977275560189034 1:16 2:13 3:8.95977 4:0.3655 5:1.93596 
0.01680448604770157 1:6 2:25 3:2.29592 4:0.4515 5:1.9924 
0.01659049504189984 1:15 2:13 3:22.7057 4:0.295 5:1.85686 
0.002015826092178032 1:16 2:3 3:7.52247 4:0.3895 5:1.94007 
0.005424873283665144 1:27 2:13 3:32.1146 4:0.408 5:1.97157 
0.009280587104596286 1:11 2:16 3:4.12223 4:0.4435 5:1.97799 
0.03523657136774756 1:16 2:44 3:42.3103 4:0.437 5:1.97395 
0.04499993380327411 1:4 2:54 3:42.65 4:0.4225 5:1.98036 
0.03150971453029028 1:31 2:37 3:44.3321 4:0.399 5:1.96841 
0.001210005832806013 1:11 2:8 3:4.04081 4:0.372 5:1.95178 
0.03150208517985197 1:30 2:42 3:43.8095 4:0.3525 5:1.92915 
0.007734422693849261 1:17 2:8 3:4.10078 4:0.3595 5:1.93688 
0.05058987194977477 1:27 2:50 3:28.5168 4:0.3935 5:1.96003 
0.03618591372448878 1:18 2:1 3:22.1015 4:0.2105 5:1.74195 
0.05173017949113479 1:22 2:31 3:38.5238 4:0.4435 5:1.99064 
0.03863995278436116 1:23 2:15 3:15.497 4:0.4505 5:1.98298 
0.03731423684923635 1:35 2:3 3:28.7978 4:0.431 5:1.98621 
0.05306674011361012 1:44 2:19 3:39.7492 4:0.433 5:1.98674 
0.04163813877922098 1:8 2:15 3:13.9607 4:0.3615 5:1.94257 
0.05192254249636652 1:23 2:42 3:0.440413 4:0.409 5:1.97592 
0.01639181646767631 1:14 2:25 3:3.47529 4:0.4945 5:1.99937 
0.002695382041941712 1:8 2:18 3:9.81068 4:0.431 5:1.98448 
0.02363085234169614 1:6 2:2 3:28.4055 4:0.5025 5:1.98548 
0.02319158058439608 1:19 2:30 3:11.3593 4:0.5385 5:1.98822 
0.005774987097244593 1:1 2:1 3:10.5954 4:0.6145 5:1.95714 
0.03266944706141357 1:7 2:43 3:14.6054 4:0.6405 5:1.90632 
0.01132262268939244 1:9 2:3 3:25.5195 4:0.6395 5:1.94129 
0.001862887242703715 1:13 2:31 3:8.07152 4:0.405 5:1.97093 
0.01251232868566984 1:14 2:8 3:2.93012 4:0.353 5:1.89438 
0.03836440089757995 1:27 2:9 3:46.7927 4:0.4425 5:1.99029 
0.05239142378635307 1:31 2:26 3:20.2694 4:0.363 5:1.93879 
0.02477428851226755 1:7 2:18 3:8.84115 4:0.413 5:1.97317 
0.02130600845994701 1:13 2:8 3:25.6138 4:0.3925 5:1.9636 
0.02016416951364316 1:24 2:23 3:11.3862 4:0.361 5:1.94173 
0.05264359936775981 1:17 2:16 3:57.1468 4:0.305 5:1.87758 
0.007912498294284264 1:18 2:7 3:11.6599 4:0.377 5:1.95504 
0.03139767884861955 1:19 2:12 3:20.9255 4:0.402 5:1.94807 
0.005352753271146327 1:10 2:5 3:8.64858 4:0.397 5:1.96805 
0.0105873432215939 1:10 2:7 3:5.16863 4:0.3625 5:1.93737 
0.004289945536617337 1:9 2:20 3:5.66358 4:0.336 5:1.90317 
0.02752229505251292 1:23 2:1 3:16.0886 4:0.381 5:1.94692 
0.04097113773552956 1:22 2:1 3:49.65 4:0.344 5:1.9269 
0.003654863508178608 1:9 2:17 3:4.46757 4:0.4195 5:1.95323 
0.05242282707935711 1:22 2:2 3:57.8283 4:0.431 5:1.98506 
1 1:1 2:1 3:0.430807 4:0.362 5:1.94242 
0.00412823900484143 1:17 2:3 3:3.78938 4:0.35 5:1.93368 
0.03405940430656779 1:36 2:14 3:38.1516 4:0.3675 5:1.94455 
0.004216797363926517 1:12 2:5 3:7.80932 4:0.318 5:1.88403 
0.01261657702343448 1:21 2:6 3:28.4221 4:0.395 5:1.96676 
0.005817405054418339 1:32 2:11 3:33.5219 4:0.433 5:1.98693 
0.03337523482113913 1:20 2:38 3:36.2381 4:0.529 5:1.97889 
0.007499247251762453 1:10 2:6 3:3.22254 4:0.3685 5:1.94416 
0.01645926994840133 1:24 2:5 3:42.0476 4:0.4645 5:1.99272 
0.0522889515608484 1:22 2:61 3:14.8874 4:0.319 5:1.89948 
0.05311662726818023 1:37 2:9 3:10.9153 4:0.336 5:1.91937 
0.05052847675381443 1:15 2:50 3:7.57761 4:0.377 5:1.95415 
0.01925002930051445 1:15 2:11 3:1.71183 4:0.363 5:1.94507 
0.03006186399370309 1:14 2:13 3:0.745606 4:0.3525 5:1.93619 
0.0491690443986908 1:45 2:51 3:56.7143 4:0.3325 5:1.91424 
0.9755192191707354 1:1 2:6 3:0.679348 4:0.4075 5:1.97509 
0.01031792347040046 1:8 2:11 3:2.29716 4:0.3605 5:1.94047 
0.02009325131256035 1:3 2:20 3:9.08391 4:0.363 5:1.93868 
0.004813486392053628 1:8 2:17 3:1.47322 4:0.449 5:1.98596 
0.005677006323454581 1:13 2:21 3:7.55954 4:0.318 5:1.89703 
0.004758092577454105 1:13 2:3 3:5.68023 4:0.3555 5:1.93332 
0.01744920774144598 1:5 2:8 3:16.2347 4:0.3995 5:1.96673 
0.001786098510856933 1:9 2:3 3:9.78729 4:0.391 5:1.96163 
0.04787785868545191 1:10 2:48 3:10.1665 4:0.495 5:1.99846 
0.03556972388186087 1:1 2:9 3:12.3281 4:0.4615 5:1.99441 
0.04469429080500564 1:3 2:54 3:45.4294 4:0.473 5:1.99463 
0.05294414719355978 1:246 2:22 3:21.757 4:0.3885 5:1.94865 
0.006131117010728659 1:16 2:7 3:4.82501 4:0.4115 5:1.97586 
0.00936776869771247 1:5 2:29 3:4.66682 4:0.3005 5:1.88111 
0.006575391986449759 1:4 2:1 3:8.44904 4:0.3705 5:1.95056 
0.03265244909095116 1:7 2:45 3:14.1593 4:0.3835 5:1.94418 
0.006088244201009032 1:11 2:25 3:4.1228 4:0.4135 5:1.97463 
9.369518895038873e-05 1:11 2:1 3:39.0824 4:0.426 5:1.96225 
0.00371916094106021 1:30 2:9 3:38.5179 4:0.327 5:1.89138 
0.02815410496572435 1:4 2:11 3:10.9151 4:0.3975 5:1.94159 
0.05172950028162537 1:7 2:42 3:9.75535 4:0.335 5:1.91503 
0.0229811239688093 1:27 2:12 3:25.6364 4:0.3735 5:1.95202 
0.00564612401990938 1:10 2:12 3:5.94701 4:0.39 5:1.95605 
0.01022918463413957 1:30 2:13 3:33.7154 4:0.3285 5:1.90182 
0.02606203875024802 1:47 2:48 3:58.2381 4:0.37 5:1.9505 
0.03130680362608815 1:20 2:1 3:19.7696 4:0.3615 5:1.93084 
0.01199076142631196 1:15 2:9 3:4.62891 4:0.3595 5:1.94065 
0.0532781001281602 1:21 2:79 3:28.3886 4:0.364 5:1.92148 
0.05326321082411861 1:57 2:85 3:29.5004 4:0.3835 5:1.93573 
0.006654921165046179 1:7 2:8 3:2.78585 4:0.5395 5:1.98285 
0.0506741698710354 1:19 2:48 3:21.6546 4:0.388 5:1.95569 
0.006141859241723511 1:16 2:1 3:3.25574 4:0.468 5:1.99506 
0.01695311610389804 1:27 2:5 3:38.973 4:0.3615 5:1.94327 
0.02275527338222303 1:8 2:19 3:11.2466 4:0.6065 5:1.96132 
0.003457609593463837 1:11 2:22 3:8.8926 4:0.4295 5:1.98056 
0.02182143354043667 1:4 2:4 3:34.4419 4:0.449 5:1.98483 
0.02658143629142406 1:31 2:4 3:41.9634 4:0.37 5:1.91747 
0.02383654001206792 1:26 2:10 3:10.0226 4:0.4225 5:1.9817 
0.05161084571469815 1:37 2:41 3:22.3613 4:0.369 5:1.9483 
0.03328650360864602 1:13 2:1 3:44.2434 4:0.378 5:1.95385 
0.01160486376932052 1:10 2:6 3:7.32769 4:0.326 5:1.90807 
0.01717840450311503 1:18 2:18 3:13.9786 4:0.3765 5:1.95385 
0.002402356990307185 1:16 2:24 3:9.3609 4:0.408 5:1.96836 
0.0278541213269905 1:19 2:26 3:7.08416 4:0.3505 5:1.9338 
0.02686726586315332 1:18 2:2 3:32.1111 4:0.3685 5:1.94924 
0.02812321019843288 1:23 2:9 3:4.6623 4:0.3755 5:1.95426 
0.009086327905293103 1:22 2:13 3:23.1465 4:0.3705 5:1.93576 
0.05024959524713523 1:42 2:50 3:59.0226 4:0.296 5:1.87408 
0.05173193579848734 1:1 2:14 3:40.2381 4:0.3275 5:1.91181 
0.02942572729593668 1:20 2:14 3:27.9205 4:0.46 5:1.99406 
0.04830971234366339 1:36 2:14 3:26.1393 4:0.355 5:1.93694 
0.003157625281568744 1:12 2:17 3:7.7459 4:0.3605 5:1.94038 
0.02007553018086505 1:28 2:9 3:29.9398 4:0.4115 5:1.96807 
0.0377930457798446 1:32 2:2 3:34.9048 4:0.343 5:1.91273 
0.02677740828567055 1:15 2:2 3:34.5882 4:0.6335 5:1.92545 
0.01356548541645038 1:6 2:21 3:3.75632 4:0.3805 5:1.95686 
0.04023619341804641 1:33 2:37 3:11.7111 4:0.398 5:1.96923 
0.05280419623493887 1:39 2:8 3:59.8571 4:0.3785 5:1.95023 
0.0278011982029306 1:34 2:6 3:34.8605 4:0.3305 5:1.91487 
0.00645087595912654 1:16 2:19 3:9.08393 4:0.345 5:1.92459 
0.05222412973444331 1:22 2:39 3:24.7358 4:0.4125 5:1.97185 
0.03105765222463557 1:12 2:30 3:8.55459 4:0.379 5:1.95465 
0.01877376057006542 1:30 2:9 3:33.4399 4:0.384 5:1.95931 
0.001047388215371869 1:21 2:27 3:9.46236 4:0.4045 5:1.97191 
0.02296415284180532 1:18 2:11 3:29.6492 4:0.405 5:1.97218 
0.03666388458611552 1:20 2:35 3:11.2738 4:0.2725 5:1.84362 
0.03433265936703589 1:1 2:2 3:37.1848 4:0.4105 5:1.97012 
0.02858703055554035 1:21 2:31 3:12.5331 4:0.298 5:1.8676 
0.02743760911010234 1:21 2:24 3:12.7223 4:0.287 5:1.8615 
0.03653116268157269 1:31 2:13 3:21.7074 4:0.3215 5:1.86602 
0.03740364531689242 1:19 2:39 3:33.5238 4:0.3415 5:1.92527 
0.02987287882195722 1:6 2:5 3:25.0428 4:0.333 5:1.91667 
0.02262475418027931 1:20 2:7 3:35.6567 4:0.4205 5:1.97444 
0.05200301387879205 1:28 2:38 3:51.4599 4:0.4275 5:1.93429 
0.01002724739071019 1:21 2:5 3:14.6598 4:0.4095 5:1.96304 
0.0527062255958981 1:12 2:21 3:86.4056 4:0.401 5:1.96909 
0.03542459030237075 1:18 2:13 3:32.381 4:0.445 5:1.98329 
0.01776568752244232 1:13 2:15 3:9.1803 4:0.447 5:1.98583 
0.03778317187302006 1:10 2:34 3:7.61705 4:0.342 5:1.92429 
0.04515257502543439 1:26 2:4 3:21.5248 4:0.405 5:1.97289 
0.02837168323011907 1:28 2:20 3:9.72633 4:0.5025 5:1.99816 
0.001903740788298202 1:11 2:6 3:1.43969 4:0.553 5:1.99046 
0.03074543111632461 1:9 2:6 3:12.3864 4:0.471 5:1.97408 
0.01960841057832619 1:14 2:3 3:11.924 4:0.387 5:1.95684 
0.04350990826624087 1:26 2:22 3:8.07339 4:0.3115 5:1.86529 
0.008358365829190917 1:22 2:7 3:21.6881 4:0.4035 5:1.9725 
0.01174650654676786 1:13 2:9 3:2.61584 4:0.408 5:1.96835 
0.01506776354379046 1:20 2:6 3:2.52737 4:0.387 5:1.9616 
0.01317138468834407 1:21 2:5 3:25.2704 4:0.3715 5:1.9386 
0.0221854994833797 1:17 2:1 3:4.88339 4:0.3485 5:1.91703 
0.01757667506463978 1:14 2:15 3:3.48811 4:0.372 5:1.95134 
0.0006846357265153818 1:14 2:8 3:4.91027 4:0.4905 5:1.99798 
0.0104827539904135 1:17 2:10 3:17.7343 4:0.358 5:1.93844 
0.0007545585335880469 1:17 2:1 3:5.75467 4:0.5935 5:1.974 
0.04867121539222163 1:4 2:28 3:14.5433 4:0.4985 5:1.99361 
0.02693365790357943 1:4 2:38 3:5.94122 4:0.3845 5:1.93355 
0.001408756556334434 1:25 2:5 3:34.5901 4:0.396 5:1.94889 
0.0121016941943561 1:21 2:5 3:13.2511 4:0.4255 5:1.97927 
0.00500232501018852 1:10 2:22 3:5.83477 4:0.33 5:1.90378 
0.04331050268569105 1:23 2:5 3:46.1361 4:0.479 5:1.64512 
0.05325472079849991 1:175 2:76 3:8.98253 4:0.351 5:1.92298 
0.04858850895045491 1:3 2:8 3:29.3074 4:0.372 5:1.94397 
0.05254442368888107 1:21 2:37 3:50.0689 4:0.352 5:1.92846 
0.05065318114513706 1:20 2:11 3:48.672 4:0.46 5:1.99499 
0.002921843404380287 1:9 2:22 3:4.60249 4:0.3295 5:1.91097 
0.01353887776169083 1:17 2:7 3:23.0221 4:0.466 5:1.99039 
0.05042825662586192 1:31 2:34 3:15.4537 4:0.405 5:1.97241 
0.0114737415116322 1:12 2:3 3:17.8215 4:0.466 5:1.98481 
0.03968840773995543 1:36 2:6 3:47.7135 4:0.364 5:1.94575 
0.004001463853600245 1:29 2:2 3:36.2862 4:0.415 5:1.97867 
0.04905922681345581 1:13 2:44 3:34.1 4:0.414 5:1.97512 
0.007451644080463212 1:9 2:1 3:6.03607 4:0.328 5:1.88883 
0.01988136582916182 1:11 2:4 3:9.30113 4:0.354 5:1.93649 
0.02992737998331333 1:39 2:10 3:46.78 4:0.384 5:1.93766 
0.02181563786835583 1:23 2:4 3:15.2896 4:0.317 5:1.89679 
0.02582568129433878 1:27 2:11 3:34.1331 4:0.307 5:1.85757 
0.02155737129331627 1:31 2:31 3:44.3333 4:0.32 5:1.88987 
0.02837871177026519 1:21 2:21 3:7.8588 4:0.3035 5:1.88067 
0.05281717457059529 1:17 2:22 3:47.85 4:0.335 5:1.91963 
0.01586090016055525 1:32 2:6 3:37.9781 4:0.3425 5:1.92667 
0.03570990509741329 1:32 2:35 3:43.0476 4:0.4005 5:1.96813 
0.01249086349569356 1:9 2:20 3:7.81503 4:0.3485 5:1.92506 
0.05155036254923406 1:18 2:6 3:78.0988 4:0.341 5:1.92202 
0.01352941724218005 1:14 2:10 3:8.50874 4:0.369 5:1.90318 
0.02711728675839559 1:24 2:3 3:11.9709 4:0.3345 5:1.91707 
0.00693086002908719 1:15 2:4 3:5.23027 4:0.328 5:1.90721 
0.04271172995329276 1:17 2:16 3:16.7813 4:0.3545 5:1.9367 
0.0382047745698029 1:47 2:23 3:12.4074 4:0.392 5:1.9656 
0.003657727181998804 1:16 2:3 3:12.0833 4:0.306 5:1.88089 
0.01868613388570511 1:18 2:13 3:14.4095 4:0.2935 5:1.87287 
0.01870266365794757 1:4 2:1 3:5.24327 4:0.2975 5:1.87781 
0.0368786191246861 1:18 2:3 3:0.500595 4:0.3055 5:1.88726 
0.02889614357881684 1:32 2:1 3:40.9691 4:0.304 5:1.84849 
0.0006012127502652009 1:19 2:11 3:20.3672 4:0.421 5:1.98117 
0.01865046400718284 1:16 2:6 3:24.5867 4:0.4455 5:1.98689 
0.01678454533630532 1:17 2:15 3:9.03602 4:0.392 5:1.96547 
0.05198820347417456 1:32 2:52 3:52.5541 4:0.3825 5:1.95896 
0.002440290504441722 1:32 2:3 3:36.6682 4:0.3265 5:1.89049 
0.02753399842183285 1:20 2:4 3:27.167 4:0.3455 5:1.92236 
0.0008898401406463585 1:10 2:10 3:6.82444 4:0.3345 5:1.91561 
0.008480362615825784 1:16 2:31 3:6.43576 4:0.3325 5:1.91655 
0.01169978285004035 1:22 2:10 3:16.3576 4:0.3725 5:1.95138 
0.01299554509688041 1:13 2:24 3:7.63399 4:0.366 5:1.94614 
0.02332667031801314 1:25 2:1 3:32.8571 4:0.4145 5:1.94301 
0.01813626959009331 1:22 2:24 3:9.60919 4:0.6455 5:1.93786 
0.008865297312253913 1:18 2:11 3:6.97169 4:0.4665 5:1.98327 
0.03007078684134745 1:21 2:39 3:42.381 4:0.359 5:1.93088 
0.0147026897926338 1:10 2:20 3:12.0907 4:0.339 5:1.92362 
0.002964419435937108 1:28 2:6 3:28.7646 4:0.35 5:1.93127 
0.009861297382184386 1:12 2:21 3:8.12217 4:0.355 5:1.92583 
0.0286782530057456 1:17 2:10 3:30.4806 4:0.367 5:1.9441 
0.007214365001097871 1:24 2:11 3:10.4173 4:0.37 5:1.94737 
0.02534978476129392 1:11 2:21 3:11.0133 4:0.447 5:1.98789 
0.02075556087290724 1:26 2:2 3:43.2857 4:0.38 5:1.90742 
0.004762461787441582 1:22 2:7 3:8.57678 4:0.373 5:1.94567 
0.01824316769095127 1:11 2:12 3:10.2755 4:0.368 5:1.94284 
0.0524693174789167 1:15 2:54 3:51.1548 4:0.3505 5:1.9243 
0.05255109553968867 1:24 2:27 3:1.31323 4:0.352 5:1.92993 
0.02437319382346503 1:21 2:7 3:17.7833 4:0.509 5:1.99955 
0.02421718245908483 1:34 2:7 3:39.0372 4:0.3325 5:1.91712 
0.04560394300798526 1:8 2:23 3:15.4853 4:0.3545 5:1.93729 
0.04626068740536932 1:19 2:16 3:24.4133 4:0.328 5:1.89098 
0.007689070749053725 1:14 2:14 3:9.33427 4:0.3735 5:1.93927 
0.007290430504449001 1:12 2:20 3:5.79953 4:0.4025 5:1.96701 
0.007852311156613006 1:10 2:20 3:4.10597 4:0.402 5:1.96906 
0.02492383780858097 1:7 2:5 3:32.5212 4:0.383 5:1.93563 
0.03280046345619891 1:14 2:44 3:41.5795 4:0.4085 5:1.97497 
0.04110500190383631 1:19 2:47 3:31.2472 4:0.382 5:1.9588 
0.01240929624929267 1:21 2:27 3:11.3273 4:0.333 5:1.91787 
0.05061507044241892 1:31 2:11 3:55.5823 4:0.318 5:1.90172 
0.02252049112371279 1:4 2:40 3:5.22115 4:0.555 5:1.98213 
0.008222436722349069 1:3 2:14 3:6.28531 4:0.483 5:1.98846 
0.01893473813812557 1:9 2:7 3:24.6072 4:0.5255 5:1.98319 
0.007169120947987799 1:4 2:5 3:5.81665 4:0.525 5:1.99168 
0.009068676449403521 1:3 2:6 3:7.20438 4:0.5575 5:1.98844 
0.04713018979877279 1:36 2:30 3:39.159 4:0.4865 5:1.99675 
0.03790831964543034 1:36 2:14 3:48.2073 4:0.638 5:1.92603 
0.05279658486814215 1:17 2:3 3:83.3289 4:0.586 5:1.96652 
0.03718633893549045 1:29 2:9 3:53.1118 4:0.558 5:1.9896 
0.007581564190623543 1:7 2:5 3:8.06961 4:0.6565 5:1.85857 
0.0491921749493868 1:7 2:14 3:19.9048 4:0.615 5:1.96083 
0.04333109663063145 1:16 2:53 3:43.8571 4:0.425 5:1.981 
0.03348836382173057 1:10 2:31 3:3.95812 4:0.636 5:1.76132 
0.02603051257133141 1:9 2:1 3:37.4286 4:0.395 5:1.96433 
0.009252473415219103 1:6 2:13 3:3.14853 4:0.491 5:1.99949 
0.02314367936802522 1:22 2:5 3:42.6229 4:0.4185 5:1.97548 
0.03570480238231463 1:23 2:35 3:28.5598 4:0.56 5:1.9892 
0.04397647162382751 1:36 2:12 3:52.4286 4:0.3885 5:1.94241 
0.02861897478058266 1:10 2:7 3:30 4:0.3705 5:1.95011 
0.03942477694166427 1:31 2:19 3:9.92217 4:0.3585 5:1.93945 
0.02106442780546844 1:26 2:41 3:40.8095 4:0.3915 5:1.9643 
0.03289875601703027 1:27 2:16 3:17.2591 4:0.394 5:1.96523 
0.01098865591137609 1:28 2:7 3:31.6352 4:0.4165 5:1.9719 
0.04637002498917386 1:30 2:17 3:18.5295 4:0.4075 5:1.96907 
0.01867884934122041 1:24 2:10 3:4.31821 4:0.3775 5:1.95027 
0.02841154822807933 1:34 2:13 3:47.3353 4:0.4015 5:1.95226 
0.0462207202112892 1:28 2:31 3:22.7817 4:0.3745 5:1.90898 
0.03807951981839233 1:22 2:1 3:27.8 4:0.358 5:1.9326 
0.02868007183749961 1:30 2:18 3:27.0884 4:0.43 5:1.98423 
0.04274180666396937 1:17 2:12 3:35.2307 4:0.4045 5:1.96818 
0.04364732241551093 1:36 2:12 3:30.0898 4:0.3975 5:1.96928 
0.04757394189375436 1:23 2:51 3:30.7143 4:0.3 5:1.87395 
0.000769681668336469 1:14 2:4 3:6.16566 4:0.4 5:1.96821 
0.03151983205103934 1:18 2:7 3:29.903 4:0.4985 5:1.99955 
0.05252939744873841 1:4 2:20 3:30.4684 4:0.39 5:1.95864 
0.03453628509724196 1:30 2:20 3:7.81752 4:0.523 5:1.99345 
0.02730750148934855 1:20 2:21 3:10.9021 4:0.3875 5:1.95238 
0.05137017280651968 1:19 2:42 3:14.4509 4:0.537 5:1.99115 
0.02947281209689123 1:17 2:31 3:12.2806 4:0.418 5:1.97967 
0.0170929970199486 1:29 2:13 3:23.1228 4:0.4575 5:1.99399 
0.02236334481396596 1:21 2:4 3:22.9668 4:0.375 5:1.95133 
0.04166307199184943 1:17 2:18 3:0.946322 4:0.3365 5:1.91981 
0.008040358060346239 1:10 2:18 3:5.83941 4:0.4645 5:1.99377 
0.03226639602172504 1:12 2:5 3:35.2538 4:0.444 5:1.989 
0.03899091471893568 1:17 2:9 3:36.9048 4:0.4495 5:1.99028 
0.01179251929246983 1:9 2:1 3:23.2381 4:0.3665 5:1.94456 
0.01736367470908345 1:19 2:14 3:11.6241 4:0.5195 5:1.99653 
0.02336815718802456 1:19 2:8 3:9.32172 4:0.399 5:1.95991 
0.003447835622050197 1:13 2:16 3:5.84426 4:0.4375 5:1.98331 
0.01839525765445593 1:10 2:25 3:2.11034 4:0.3795 5:1.95357 
0.05291730731679362 1:10 2:30 3:94.1729 4:0.331 5:1.91357 
0.01810454923033438 1:13 2:6 3:25.6509 4:0.446 5:1.98718 
0.05290021859603544 1:14 2:66 3:9.8657 4:0.4175 5:1.97938 
0.03449918286223675 1:20 2:1 3:2.58109 4:0.4395 5:1.98857 
0.01459106755652306 1:18 2:49 3:44.4263 4:0.393 5:1.96324 
0.006472895369635113 1:27 2:6 3:36.3317 4:0.4935 5:1.98375 
0.01771783056189075 1:3 2:22 3:6.8344 4:0.424 5:1.9822 
0.007685973616921468 1:5 2:23 3:4.4685 4:0.4265 5:1.97537 
0.03628238685627805 1:6 2:37 3:10.4799 4:0.42 5:1.92187 
0.001644056315631065 1:19 2:13 3:14.3141 4:0.47 5:1.98848 
1 1:1 2:1 3:0.426209 4:0.523 5:1.99445 
0.01748987999742677 1:14 2:1 3:42.6289 4:0.5655 5:1.97949 
0.02090504708518484 1:1 2:3 3:22.3455 4:0.47 5:1.99739 
0.03141447577711418 1:7 2:1 3:46.1645 4:0.5655 5:1.98672 
0.0526845319639897 1:1 2:22 3:45.1553 4:0.342 5:1.92664 
1 1:1 2:10 3:0.484857 4:0.355 5:1.93838 
0.01563717348704381 1:6 2:11 3:11.8385 4:0.3535 5:1.90032 
0.02983008084289999 1:6 2:1 3:19.7215 4:0.35 5:1.89733 
0.03925886215538849 1:21 2:50 3:15.2994 4:0.4125 5:1.96047 
0.05324280539004805 1:34 2:73 3:34.1429 4:0.431 5:1.98438 
0.01215786543953274 1:25 2:10 3:36.4726 4:0.39 5:1.95525 
0.04225497194411137 1:18 2:15 3:38.65 4:0.477 5:1.99212 
0.05278616406120834 1:35 2:69 3:52.4762 4:0.385 5:1.93487 
0.01647133422195792 1:13 2:12 3:5.91275 4:0.504 5:1.99211 
0.001930716076645381 1:17 2:4 3:6.78547 4:0.3635 5:1.94144 
0.005367499264045627 1:32 2:12 3:27.5811 4:0.315 5:1.89653 
0.009279034768026481 1:17 2:5 3:2.21081 4:0.3545 5:1.90927 
0.05174776516748228 1:11 2:48 3:0.789427 4:0.509 5:1.98864 
0.01013146424217963 1:9 2:18 3:2.89028 4:0.4555 5:1.9921 
0.005272850296800136 1:11 2:26 3:6.63255 4:0.407 5:1.96895 
0.03027225555472596 1:28 2:8 3:43.0607 4:0.3835 5:1.95846 
0.006583871132891552 1:17 2:17 3:14.4713 4:0.4335 5:1.98444 
0.02232808903786121 1:27 2:6 3:28.0673 4:0.4705 5:1.98601 
0.01159070339387866 1:17 2:1 3:1.59912 4:0.497 5:1.99727 
0.02546803652969712 1:1 2:15 3:10.726 4:0.5695 5:1.87475 
0.02978574321011224 1:3 2:15 3:14.95 4:0.4465 5:1.97971 
0.02881041718631878 1:9 2:29 3:6.32233 4:0.472 5:1.99703 
0.01745951862750402 1:9 2:10 3:6.78564 4:0.435 5:1.98532 
0.02641409876336516 1:20 2:12 3:7.39022 4:0.4455 5:1.98996 
1 1:1 2:13 3:1.14 4:0.5785 5:1.98134 
0.03073821899191808 1:26 2:18 3:24.8773 4:0.396 5:1.96733 
0.03262108602124517 1:12 2:6 3:15.098 4:0.391 5:1.96014 
0.03942686356467978 1:28 2:13 3:20.2901 4:0.4145 5:1.97411 
0.0493910960124051 1:23 2:56 3:31.4301 4:0.3315 5:1.86661 
0.02697155227870796 1:23 2:1 3:32.8095 4:0.4005 5:1.96267 
0.04843202530607171 1:26 2:60 3:33.7662 4:0.3695 5:1.92814 
0.04158937504686838 1:15 2:23 3:24.7143 4:0.4395 5:1.98311 
0.05285434011551499 1:68 2:79 3:35.9908 4:0.5665 5:1.98294 
0.01171137849530128 1:14 2:12 3:11.49 4:0.5625 5:1.98541 
0.003709097631252933 1:12 2:15 3:5.66906 4:0.4365 5:1.76981 
0.05287118136937641 1:11 2:1 3:115.819 4:0.5665 5:1.96753 
0.03031394215082889 1:17 2:20 3:16.1066 4:0.4145 5:1.9761 
0.02237798950749753 1:15 2:29 3:12.6195 4:0.417 5:1.97507 
0.00216488450715594 1:21 2:11 3:34.0293 4:0.443 5:1.95836 
0.04520770268262553 1:22 2:21 3:25.6379 4:0.46 5:1.99473 
0.01131508548229595 1:23 2:7 3:25.7302 4:0.504 5:1.99972 
0.0007396951248037052 1:14 2:3 3:8.71285 4:0.369 5:1.94894 
0.003850519122561226 1:14 2:6 3:8.10647 4:0.469 5:1.99518 
0.01599664332516451 1:26 2:12 3:31.3106 4:0.4355 5:1.98757 
0.03352878745843245 1:33 2:2 3:37.8095 4:0.4115 5:1.96354 
0.02133920438434691 1:16 2:11 3:12.2562 4:0.3695 5:1.94854 
0.01637669943678527 1:21 2:18 3:6.49954 4:0.4005 5:1.96967 
0.004376196461971628 1:5 2:4 3:33.0278 4:0.527 5:1.99228 
0.03660201602188309 1:31 2:10 3:25.4692 4:0.514 5:1.99929 
0.004683186583099893 1:12 2:4 3:4.81228 4:0.412 5:1.97429 
0.05288827544959429 1:1 2:31 3:22.5055 4:0.6155 5:1.90062 
0.04868504153037462 1:1 2:1 3:63.3249 4:0.545 5:1.98294 
0.006675493557011213 1:5 2:4 3:7.49694 4:0.5235 5:1.99037 
0.0174018314051578 1:19 2:18 3:7.64508 4:0.5775 5:1.97231 
0.005103931231011383 1:1 2:10 3:6.87009 4:0.603 5:1.94147 
0.01150313626586692 1:1 2:3 3:7.97567 4:0.591 5:1.89738 
0.03023044415226106 1:15 2:12 3:20.6457 4:0.571 5:1.98347 
0.006201452721736116 1:12 2:22 3:2.83064 4:0.437 5:1.98082 
0.003698312816262253 1:16 2:4 3:6.54165 4:0.391 5:1.95801 
0.02991871466549084 1:1 2:15 3:6.60955 4:0.362 5:1.88674 
0.01302966564951485 1:12 2:11 3:7.9701 4:0.3515 5:1.93068 
0.005792303210452586 1:2 2:4 3:11.3719 4:0.403 5:1.9724 
0.02063151366897149 1:21 2:28 3:11.8007 4:0.4725 5:1.99575 
0.04184367873698053 1:1 2:5 3:69.9809 4:0.3415 5:1.92163 
0.05321511363010278 1:41 2:94 3:1.78555 4:0.3835 5:1.95888 
0.01829658708309628 1:6 2:28 3:4.89489 4:0.3815 5:1.95744 
0.05288673967433372 1:8 2:356 3:5.05908 4:0.3675 5:1.94767 
0.05291105436640792 1:1 2:163 3:2.02638 4:0.39 5:1.96398 
0.02206781292898549 1:15 2:22 3:3.63515 4:0.441 5:1.98882 
0.002453552164298597 1:22 2:8 3:32.4864 4:0.3445 5:1.92346 
0.01445911832125697 1:6 2:14 3:5.11528 4:0.3815 5:1.95626 
0.01687867195000156 1:11 2:9 3:16.6851 4:0.39 5:1.95779 
0.02169893657783922 1:32 2:11 3:39.8095 4:0.346 5:1.9269 
0.01620338298824766 1:15 2:26 3:10.0659 4:0.412 5:1.97368 
0.006062631655975415 1:13 2:27 3:6.56171 4:0.349 5:1.92842 
0.03361373200769151 1:9 2:33 3:10.6378 4:0.3095 5:1.84333 
0.01359279994189424 1:22 2:14 3:25.3709 4:0.44 5:1.98891 
0.001941554279396629 1:22 2:13 3:30.8926 4:0.4795 5:1.99564 
0.04454381333460256 1:33 2:11 3:19.1157 4:0.412 5:1.96654 
0.03085218527003249 1:22 2:10 3:37.6416 4:0.4365 5:1.96349 
0.02320595404899078 1:17 2:50 3:41.7619 4:0.4685 5:1.99082 
0.04188285758820409 1:35 2:38 3:12.9647 4:0.352 5:1.93216 
0.02443864225863899 1:30 2:4 3:29.5916 4:0.3415 5:1.9162 
0.03868677467609322 1:17 2:44 3:19.383 4:0.406 5:1.9713 
0.04068150263307735 1:25 2:54 3:33.9048 4:0.426 5:1.98411 
0.0272149719073865 1:33 2:9 3:34.6361 4:0.4115 5:1.9727 
0.04049879333223837 1:26 2:9 3:13.6915 4:0.414 5:1.97053 
0.02157230929713738 1:1 2:11 3:8.04548 4:0.3315 5:1.91607 
0.04747410653134065 1:7 2:6 3:44.0779 4:0.361 5:1.94126 
0.03357476487606428 1:17 2:28 3:7.99795 4:0.378 5:1.95415 
0.01244830688264204 1:19 2:25 3:9.6637 4:0.3315 5:1.91613 
0.01171711799020066 1:14 2:17 3:7.29089 4:0.3775 5:1.95185 
0.0113812992072792 1:24 2:6 3:24.6137 4:0.4235 5:1.9796 
0.01868184865575975 1:15 2:4 3:2.65802 4:0.3715 5:1.95102 
0.01914754282398672 1:7 2:21 3:2.15017 4:0.3425 5:1.92289 
0.01566655453817367 1:25 2:1 3:36.1441 4:0.369 5:1.94564 
0.04150366128853809 1:39 2:11 3:41.6649 4:0.343 5:1.92288 
0.03068576145238687 1:23 2:10 3:16.614 4:0.369 5:1.94493 
0.04886277940271799 1:33 2:18 3:36.589 4:0.437 5:1.98828 
0.02398358234338629 1:11 2:2 3:12.4625 4:0.5435 5:1.98702 
0.04335071163171811 1:27 2:51 3:52.0952 4:0.4285 5:1.98269 
0.01627683192712101 1:18 2:5 3:5.37779 4:0.4185 5:1.94783 
0.004958263921465151 1:8 2:1 3:7.76434 4:0.615 5:1.93502 
0.00360053037166134 1:4 2:1 3:7.76434 4:0.6155 5:1.93496 
0.01236207198927319 1:4 2:1 3:21.4552 4:0.6075 5:1.94983 
0.02033267125096837 1:2 2:4 3:34.9823 4:0.431 5:1.95588 
0.001942740145685296 1:9 2:22 3:3.1898 4:0.439 5:1.96401 
0.03042822829263881 1:6 2:3 3:15.6225 4:0.4375 5:1.96546 
0.03018320868536581 1:21 2:14 3:4.78955 4:0.4905 5:1.99589 
0.05300312545321717 1:53 2:38 3:18.4009 4:0.513 5:1.89495 
0.01379001620247787 1:7 2:19 3:1.04509 4:0.512 5:1.89546 
0.781598337967133 1:1 2:17 3:1.90619 4:0.5805 5:1.97475 
0.01465107494230981 1:16 2:1 3:1.60336 4:0.6495 5:1.93285 
0.02865096220323102 1:30 2:8 3:48.2 4:0.4455 5:1.98102 
1 1:5 2:1 3:0.421042 4:0.4895 5:1.99396 
0.05284219351282432 1:5 2:18 3:53.1414 4:0.459 5:1.99308 
0.04788762255788603 1:24 2:58 3:35.8095 4:0.3565 5:1.93814 
0.01181805084546877 1:2 2:17 3:6.90353 4:0.56 5:1.98731 
1 1:1 2:17 3:0.616135 4:0.5625 5:1.98686 
0.02195565566375606 1:24 2:6 3:38.4286 4:0.609 5:1.96257 
0.03768463267752088 1:25 2:6 3:4.1678 4:0.362 5:1.93133 
0.001192403196505632 1:12 2:5 3:25.3819 4:0.3435 5:1.90545 
0.0335824558956476 1:8 2:25 3:1.11154 4:0.4225 5:1.98161 
0.003153394181885451 1:13 2:20 3:7.26707 4:0.344 5:1.92579 
0.007374763957246795 1:2 2:9 3:14.2448 4:0.435 5:1.97457 
0.008266792939511438 1:24 2:5 3:32.2587 4:0.3675 5:1.94799 
0.008984402614879962 1:1 2:3 3:5.97187 4:0.383 5:1.95443 
0.0187300505345282 1:12 2:18 3:3.16854 4:0.35 5:1.90674 
0.01719087519010051 1:24 2:1 3:30.0183 4:0.4745 5:1.97911 
0.05102406633228684 1:24 2:42 3:8.39539 4:0.421 5:1.96979 
0.05285992120504085 1:1 2:16 3:46.7239 4:0.582 5:1.88892 
0.005024817753314294 1:5 2:2 3:10.9193 4:0.4665 5:1.99575 
0.05122565749859181 1:7 2:27 3:25.291 4:0.5005 5:1.94223 
0.01985105049400909 1:9 2:10 3:1.71763 4:0.551 5:1.9525 
0.02709429450629777 1:2 2:1 3:24.5823 4:0.543 5:1.94879 
0.05251122082221266 1:76 2:2 3:20.9634 4:0.5225 5:1.93413 
0.03817869729954346 1:8 2:33 3:16.7999 4:0.541 5:1.94846 
0.006906513244528911 1:14 2:1 3:7.60151 4:0.4075 5:1.97166 
0.006082797538818199 1:6 2:2 3:20.8128 4:0.4045 5:1.97127 
0.03824023393086252 1:15 2:27 3:1.73824 4:0.3555 5:1.93316 
0.04116724390345212 1:12 2:18 3:15.0316 4:0.4035 5:1.96185 
0.02728758117230445 1:2 2:26 3:7.08419 4:0.51 5:1.99799 
0.01103740416656951 1:24 2:9 3:41.8184 4:0.4415 5:1.98985 
0.04075025959796591 1:21 2:48 3:32.8376 4:0.4695 5:1.98059 
0.05287732757174302 1:11 2:37 3:26.8684 4:0.482 5:1.99455 
0.0158366426742893 1:1 2:20 3:5.90514 4:0.5645 5:1.98794 
0.01388255583541393 1:5 2:7 3:10.4362 4:0.502 5:1.98662 
0.03575923426378118 1:7 2:7 3:20.2231 4:0.665 5:1.91297 
0.05311705974832409 1:66 2:1 3:25.4186 4:0.5945 5:1.91866 
0.05260077242545752 1:66 2:2 3:17.6958 4:0.5995 5:1.90927 
0.03475072126291939 1:27 2:1 3:16.3956 4:0.6135 5:1.905 
0.02093829879214473 1:7 2:1 3:31.2057 4:0.6255 5:1.8924 
0.01382889156855945 1:4 2:4 3:5.78803 4:0.6305 5:1.87897 
0.005817952105376655 1:10 2:8 3:11.4546 4:0.628 5:1.88266 
0.04385311180624601 1:2 2:1 3:108.54 4:0.6225 5:1.89108 
0.05288334571750963 1:61 2:10 3:15.4605 4:0.6205 5:1.88523 
0.005947053820670067 1:61 2:1 3:15.4605 4:0.6205 5:1.89 
0.04677392206726683 1:61 2:1 3:15.4605 4:0.629 5:1.87753 
0.03027986836995572 1:3 2:13 3:36.8715 4:0.621 5:1.8845 
0.04381059652991953 1:4 2:3 3:108.54 4:0.6205 5:1.89522 
0.011073572711361 1:3 2:3 3:22.6399 4:0.622 5:1.89349 
0.0156394975551939 1:3 2:1 3:36.9493 4:0.6255 5:1.88278 
0.05264304278183179 1:237 2:131 3:36.9493 4:0.6255 5:1.88278 
0.01215986423032867 1:3 2:1 3:77.1604 4:0.6205 5:1.89088 
0.02958699239499813 1:3 2:2 3:77.1604 4:0.6205 5:1.8904 
0.05235772923324805 1:1 2:14 3:98.3742 4:0.6375 5:1.86775 
0.04749872207938344 1:1 2:2 3:98.3742 4:0.6255 5:1.87479 
0.05310105768915097 1:13 2:1 3:142.364 4:0.6385 5:1.86685 
0.003929203438634593 1:4 2:1 3:19.0121 4:0.6285 5:1.89456 
0.02512153937070116 1:4 2:12 3:19.0121 4:0.6245 5:1.89023 
0.02548408183774165 1:5 2:1 3:37.5295 4:0.6285 5:1.88301 
0.006107127805506374 1:5 2:1 3:9.03698 4:0.6275 5:1.88756 
0.007334687728836567 1:5 2:12 3:5.11833 4:0.627 5:1.87805 
0.05258037303544416 1:19 2:1 3:72.2648 4:0.6255 5:1.88148 
0.05163445835332833 1:3 2:3 3:48.3619 4:0.6245 5:1.88362 
0.052699777800576 1:7 2:1 3:137.877 4:0.62 5:1.88181 
0.02547915812043926 1:7 2:1 3:37.0645 4:0.6215 5:1.87974 
0.02693925059050446 1:5 2:9 3:19.8358 4:0.6285 5:1.86682 
0.008069206804486468 1:14 2:4 3:8.94626 4:0.6245 5:1.95206 
1 1:9 2:1 3:0.434599 4:0.5345 5:1.9771 
0.0140228487494864 1:10 2:7 3:10.4572 4:0.4245 5:1.98267 
0.04997821449981699 1:27 2:8 3:0.583347 4:0.5785 5:1.96992 
0.01568355975014668 1:4 2:1 3:17.2704 4:0.4365 5:1.98826 
0.05241913425098699 1:52 2:3 3:39.3947 4:0.4335 5:1.98605 
0.02910599564591702 1:8 2:7 3:16.2731 4:0.5265 5:1.99626 
0.02247717743777344 1:1 2:5 3:23.7532 4:0.5185 5:1.98547 
0.7337775646715026 1:10 2:1 3:1.15416 4:0.4325 5:1.98453 
0.01987317489542731 1:34 2:3 3:44.15 4:0.3745 5:1.95077 
0.04324495346991508 1:33 2:55 3:45.9408 4:0.3795 5:1.95715 
0.02298280121647936 1:22 2:12 3:35.0476 4:0.5805 5:1.97956 
1 1:1 2:10 3:0.971579 4:0.515 5:1.98267 
0.03714919500446695 1:20 2:51 3:42.7597 4:0.416 5:1.97272 
0.02383289287620213 1:10 2:1 3:39 4:0.4325 5:1.98559 
0.05022657325058571 1:35 2:36 3:24.8988 4:0.573 5:1.9738 
0.0350568308612903 1:36 2:5 3:37.8092 4:0.3695 5:1.94169 
0.01742775813337711 1:20 2:10 3:32.8525 4:0.3695 5:1.9171 
0.000796027295063173 1:11 2:17 3:6.60061 4:0.533 5:1.99281 
0.03619955141251371 1:28 2:1 3:36.8258 4:0.4655 5:1.99317 
0.01635051614411442 1:28 2:14 3:30.7746 4:0.4315 5:1.98491 
0.01128823054411202 1:24 2:13 3:28.8237 4:0.3705 5:1.93016 
0.03319394818113569 1:29 2:9 3:9.84187 4:0.422 5:1.97469 
0.05290689702867485 1:17 2:8 3:55.9079 4:0.3965 5:1.95778 
0.004554225904098644 1:15 2:5 3:5.75751 4:0.367 5:1.94582 
0.04008988801154945 1:22 2:43 3:54.1429 4:0.4455 5:1.9909 
0.03835301834627198 1:6 2:35 3:37.2 4:0.4185 5:1.97209 
0.01553685883892906 1:13 2:8 3:24.3862 4:0.3745 5:1.95036 
0.0167304263190472 1:24 2:12 3:26.2187 4:0.4025 5:1.95739 
0.05174901770486967 1:48 2:47 3:63.1139 4:0.35 5:1.93113 
0.03396749296673018 1:1 2:18 3:9.8722 4:0.4265 5:1.98039 
0.03324709482843757 1:24 2:11 3:42.1429 4:0.2925 5:1.8552 
0.02375345817430388 1:5 2:11 3:17.7201 4:0.367 5:1.93347 
0.01944233040709523 1:34 2:3 3:31.1187 4:0.3325 5:1.91494 
0.04250290040344901 1:40 2:4 3:43.8147 4:0.3635 5:1.9288 
0.04900366369767162 1:23 2:47 3:48.9717 4:0.3965 5:1.96011 
0.02764625269579607 1:19 2:7 3:37.8571 4:0.333 5:1.89634 
0.02514249057227247 1:36 2:3 3:45.4286 4:0.3565 5:1.93192 
0.03286218512100177 1:37 2:1 3:46.7039 4:0.3165 5:1.89853 
0.007819382794414549 1:31 2:8 3:29.6285 4:0.358 5:1.93848 
0.003488636364000535 1:11 2:5 3:4.59582 4:0.304 5:1.88247 
0.0430974866567229 1:33 2:31 3:42.547 4:0.357 5:1.9085 
0.05271932683768976 1:16 2:37 3:1.18558 4:0.356 5:1.93645 
1 1:1 2:1 3:0.411559 4:0.384 5:1.95816 
0.004014606578396711 1:11 2:5 3:4.70319 4:0.4025 5:1.97056 
0.005462693143941167 1:10 2:4 3:6.12322 4:0.2825 5:1.85549 
0.004449082570427453 1:14 2:19 3:5.90507 4:0.3205 5:1.89659 
0.009503231700192516 1:24 2:6 3:43.9327 4:0.476 5:1.99755 
0.03519171996438832 1:24 2:47 3:43.3333 4:0.38 5:1.95582 
0.03644718704863986 1:17 2:13 3:23.947 4:0.402 5:1.95645 
0.04628253958158146 1:37 2:35 3:45 4:0.475 5:1.99611 
0.009624349936200021 1:33 2:5 3:34.7708 4:0.3525 5:1.93384 
0.0216026003418281 1:26 2:21 3:11.1118 4:0.3115 5:1.89383 
0.02887579676858829 1:23 2:14 3:11.5128 4:0.3695 5:1.94986 
0.4038982213876889 1:1 2:1 3:0.449315 4:0.378 5:1.95094 
0.03936375780184016 1:13 2:7 3:35.0265 4:0.212 5:1.49128 
0.03771516427226537 1:32 2:10 3:3.81291 4:0.3455 5:1.9238 
0.0171262165545303 1:7 2:8 3:9.92984 4:0.3245 5:1.90739 
0.01154341468693943 1:20 2:23 3:7.50378 4:0.354 5:1.92844 
0.01908852299982669 1:6 2:24 3:13.2559 4:0.37 5:1.94733 
0.02681156660515322 1:21 2:6 3:2.58344 4:0.494 5:1.99963 
0.01267672282787648 1:29 2:1 3:43.2276 4:0.4305 5:1.97789 
0.04912398157136283 1:32 2:34 3:27.2801 4:0.5625 5:1.98867 
0.05284778411785901 1:8 2:58 3:0.699012 4:0.6055 5:1.96755 
0.05297962290543151 1:54 2:50958 3:65.1387 4:0.21 5:1.49049 
0.05283598706320486 1:1 2:3 3:180.055 4:0.2355 5:1.38621 
0.4963922180855244 1:2 2:37 3:2.04605 4:0.287 5:1.55961 
0.02062751444716077 1:2 2:43 3:4.91339 4:0.466 5:1.75879 
0.04121493551354792 1:27 2:23 3:12.5072 4:0.381 5:1.95459 
0.05241603805189982 1:55 2:19 3:25.9301 4:0.3905 5:1.96414 
0.05266130679674219 1:68 2:125 3:43.2343 4:0.4225 5:1.98176 
0.008310495497975757 1:2 2:40 3:11.4184 4:0.4105 5:1.97665 
0.03128981682252441 1:34 2:8 3:20.6772 4:0.351 5:1.93204 
0.0132932728218018 1:3 2:9 3:9.03876 4:0.4685 5:1.99676 
0.002592350369825822 1:4 2:1 3:6.84753 4:0.521 5:1.99447 
0.02062171461544719 1:11 2:9 3:10.8078 4:0.552 5:1.92523 
0.0241482832040869 1:13 2:2 3:18.718 4:0.3575 5:1.90636 
0.03629314666694888 1:35 2:10 3:46.4809 4:0.3865 5:1.95485 
0.02897571439316116 1:20 2:54 3:41.4 4:0.5005 5:1.99548 
0.01514931182916251 1:4 2:19 3:8.29263 4:0.379 5:1.95426 
0.0463985473710736 1:29 2:32 3:46.6667 4:0.3625 5:1.93148 
0.009489194359599062 1:5 2:23 3:6.34274 4:0.422 5:1.96691 
0.01251999917438164 1:12 2:29 3:5.36711 4:0.373 5:1.94645 
0.0105752941675628 1:26 2:9 3:35.6972 4:0.4325 5:1.96527 
0.02812037135431456 1:32 2:14 3:43.6746 4:0.3975 5:1.94955 
0.04550706280582166 1:26 2:13 3:6.69227 4:0.3755 5:1.95364 
0.01870983534658054 1:11 2:3 3:22.0199 4:0.368 5:1.94456 
0.03591901085631589 1:7 2:30 3:2.63418 4:0.375 5:1.95346 
0.01662865115292167 1:22 2:35 3:29.364 4:0.3685 5:1.93646 
0.05227852582118377 1:28 2:24 3:42.7143 4:0.3325 5:1.89491 
0.03947480354276556 1:8 2:19 3:14.2809 4:0.467 5:1.99658 
0.02167104515034738 1:8 2:4 3:5.81802 4:0.3225 5:1.85766 
0.008060007467899089 1:12 2:6 3:6.70981 4:0.423 5:1.98184 
0.01065098328499049 1:16 2:23 3:6.14112 4:0.4045 5:1.97307 
0.02581651404210175 1:19 2:9 3:5.66532 4:0.376 5:1.9505 
0.03155474037343856 1:15 2:16 3:27.4597 4:0.4525 5:1.97375 
0.02046531206634635 1:15 2:18 3:10.0197 4:0.327 5:1.90932 
0.02478803805428353 1:14 2:20 3:0.65898 4:0.339 5:1.92074 
0.03773629806901874 1:30 2:45 3:46.65 4:0.356 5:1.93186 
0.04831641083811206 1:25 2:42 3:52.7 4:0.329 5:1.88105 
0.04018670470800591 1:4 2:24 3:12.5754 4:0.3325 5:1.91708 
0.004760891777499649 1:29 2:2 3:47.2 4:0.385 5:1.95199 
0.0466112954674715 1:16 2:1 3:38.7309 4:0.3065 5:1.86204 
0.02964871872912111 1:26 2:6 3:44.6863 4:0.3625 5:1.9362 
0.01569247097393358 1:3 2:1 3:12.5032 4:0.3245 5:1.90827 
0.05171834118889002 1:29 2:46 3:18.2888 4:0.3345 5:1.91846 
0.05059963098420239 1:28 2:42 3:1.04736 4:0.446 5:1.97858 
0.04494990837803298 1:28 2:29 3:32.0199 4:0.354 5:1.93359 
0.05187159930889595 1:10 2:53 3:22.8507 4:0.42 5:1.97986 
0.05330933722857972 1:132 2:3 3:28.4651 4:0.4585 5:1.98616 
0.02576516697921597 1:15 2:3 3:23.4302 4:0.469 5:1.98847 
0.02353066651875012 1:5 2:19 3:5.74834 4:0.3725 5:1.94501 
0.02281063175251158 1:22 2:28 3:9.749 4:0.405 5:1.97008 
0.03483362024012215 1:35 2:14 3:34.404 4:0.383 5:1.94157 
0.01893350122698933 1:30 2:5 3:36.2274 4:0.379 5:1.95358 
0.05330780201315333 1:40 2:45 3:10.7084 4:0.4505 5:1.98964 
0.02472866646502214 1:25 2:2 3:29.2231 4:0.38 5:1.90227 
0.004146380729980802 1:11 2:13 3:5.28686 4:0.3695 5:1.94629 
0.03535854693193875 1:17 2:51 3:36.1279 4:0.372 5:1.9201 
0.03079791703183038 1:13 2:1 3:22.5844 4:0.497 5:1.98792 
0.005005862126812221 1:18 2:3 3:7.54317 4:0.397 5:1.95618 
0.008809566980191559 1:15 2:16 3:5.64264 4:0.3785 5:1.95286 
0.01203876060281012 1:29 2:11 3:41.3045 4:0.3285 5:1.9095 
0.01029017865470686 1:15 2:23 3:9.36178 4:0.3715 5:1.94556 
0.01092623648229967 1:25 2:9 3:27.4257 4:0.422 5:1.97215 
0.05290381263699208 1:29 2:26 3:0.685877 4:0.395 5:1.94997 
0.02165309829871223 1:29 2:7 3:19.4573 4:0.3785 5:1.95221 
0.0418618689437118 1:16 2:48 3:48.4223 4:0.3695 5:1.93674 
0.04004106415894321 1:44 2:1 3:10.2106 4:0.3635 5:1.9363 
0.03210200102101324 1:22 2:1 3:10.2106 4:0.371 5:1.94129 
0.0409990685003897 1:44 2:1 3:13.8446 4:0.3805 5:1.94511 
0.01032592250379049 1:13 2:5 3:4.35565 4:0.3515 5:1.93213 
0.04974861855930657 1:15 2:49 3:21.7364 4:0.29 5:1.86672 
0.03287981089244856 1:24 2:16 3:37.2983 4:0.358 5:1.92662 
0.03888843084556848 1:17 2:28 3:13.7653 4:0.387 5:1.95198 
0.001431833481082501 1:7 2:26 3:6.06001 4:0.434 5:1.9843 
0.003424981868400408 1:13 2:14 3:2.82863 4:0.471 5:1.99728 
0.0336029836968456 1:10 2:27 3:9.44869 4:0.4475 5:1.98233 
0.0181727003297783 1:3 2:2 3:30.9933 4:0.448 5:1.99065 
0.006243107502556619 1:18 2:6 3:3.6006 4:0.4165 5:1.97268 
0.03173323363651549 1:32 2:13 3:27.9698 4:0.418 5:1.98001 
0.00387392056890828 1:16 2:21 3:9.75093 4:0.368 5:1.94835 
0.04459645649756488 1:14 2:25 3:22.6184 4:0.335 5:1.9007 
0.03176187687586629 1:1 2:9 3:38.3333 4:0.5105 5:1.99903 
0.03327114776224609 1:1 2:6 3:17.1529 4:0.365 5:1.94561 
0.03469918642935466 1:40 2:5 3:51.8286 4:0.4655 5:1.99623 
0.04645544413643519 1:40 2:44 3:46.5564 4:0.365 5:1.93393 
0.04360844905496897 1:30 2:17 3:42.0652 4:0.481 5:1.9987 
0.003391027411231591 1:23 2:6 3:30.7981 4:0.39 5:1.93051 
0.05013132169209145 1:16 2:53 3:20.6473 4:0.4205 5:1.97955 
0.05254245260967688 1:37 2:30 3:32.8135 4:0.3515 5:1.92543 
0.005591904438864798 1:5 2:2 3:35.0026 4:0.5095 5:1.9908 
1 1:1 2:1 3:0.4225 4:0.4655 5:1.99529 
0.007362511363948587 1:11 2:14 3:5.8067 4:0.4 5:1.96829 
0.02196479247521282 1:24 2:9 3:39.8095 4:0.4235 5:1.97937 
0.02678195568981194 1:15 2:22 3:14.6257 4:0.436 5:1.97843 
0.03556045612511085 1:2 2:13 3:34.5211 4:0.5775 5:1.96154 
0.01726031057541474 1:32 2:9 3:38.7581 4:0.5075 5:1.99902 
0.0164153993488879 1:19 2:3 3:22.4799 4:0.641 5:1.91841 
0.002361481171183621 1:38 2:5 3:47.607 4:0.464 5:1.94606 
0.04335413866558457 1:24 2:50 3:38.4934 4:0.59 5:1.97612 
0.03520553384382503 1:6 2:9 3:66.1129 4:0.585 5:1.96641 
0.03325077602933901 1:44 2:3 3:12.1977 4:0.3455 5:1.92994 
0.05322562441817169 1:7 2:40 3:74.3159 4:0.353 5:1.93106 
0.05656383444810043 1:1 2:97 3:4.90132 4:0.366 5:1.94061 
0.01123055463663175 1:5 2:1 3:29.4116 4:0.4025 5:1.88214 
0.02366631836266868 1:16 2:26 3:4.24645 4:0.4305 5:1.75797 
0.04202905783608663 1:11 2:1 3:32.6084 4:0.4415 5:1.72324 
0.05284226217910276 1:58 2:51 3:105.178 4:0.334 5:1.90939 
0.01728686184113804 1:9 2:2 3:18.3624 4:0.4735 5:1.98529 
0.009317929127236434 1:6 2:8 3:5.74948 4:0.335 5:1.91599 
0.006116335399163841 1:8 2:7 3:4.07469 4:0.2865 5:1.84128 
0.03468188618949719 1:17 2:7 3:1.14801 4:0.3275 5:1.90889 
0.01632438905910161 1:14 2:18 3:3.78706 4:0.3085 5:1.88977 
0.04315314890009531 1:15 2:50 3:40.3568 4:0.311 5:1.8942 
0.05281084961106192 1:67 2:114 3:0.611692 4:0.3915 5:1.9584 
0.05280555650875396 1:24 2:20 3:47.0476 4:0.4455 5:1.9896 
0.04627970710033041 1:26 2:12 3:47.0619 4:0.3475 5:1.93046 
0.01434037953314316 1:1 2:1 3:12.2702 4:0.3855 5:1.95425 
0.001167020308380609 1:27 2:1 3:36.6411 4:0.441 5:1.97846 
0.04812027215912862 1:33 2:17 3:32.5063 4:0.4155 5:1.97925 
0.05269724407369986 1:41 2:1 3:63.4286 4:0.362 5:1.93706 
0.0220345448795452 1:34 2:14 3:37.1501 4:0.444 5:1.98628 
0.04221758412257208 1:17 2:5 3:18.5946 4:0.3735 5:1.93828 
0.05256282862609662 1:1 2:30 3:37.1429 4:0.507 5:1.85106 
0.005359306119811063 1:12 2:25 3:6.10809 4:0.4855 5:1.99197 
0.01323081172658145 1:10 2:22 3:7.70224 4:0.461 5:1.99005 
1 1:1 2:5 3:0.669525 4:0.619 5:1.93563 
0.01746782658707601 1:20 2:3 3:5.23494 4:0.4835 5:1.94955 
0.007920852483221467 1:3 2:1 3:26.9758 4:0.476 5:1.9867 
0.006622594433986273 1:1 2:22 3:6.26786 4:0.478 5:1.99625 
0.04696644905391012 1:31 2:25 3:38.9833 4:0.4495 5:1.9925 
0.02627011659897346 1:16 2:1 3:10.7291 4:0.459 5:1.99217 
0.01163736358078677 1:1 2:3 3:13.4591 4:0.458 5:1.98786 
0.003778420646686358 1:12 2:24 3:9.44644 4:0.4525 5:1.97861 
0.02258094000161242 1:10 2:13 3:0.969546 4:0.604 5:1.96853 
0.05195850136364079 1:9 2:52 3:28.5104 4:0.438 5:1.9861 
0.02064585345068725 1:18 2:16 3:11.2645 4:0.4485 5:1.98645 
0.3382819507027499 1:1 2:1 3:0.485412 4:0.6725 5:1.90323 
0.001502382250004145 1:10 2:13 3:6.80791 4:0.5145 5:1.99923 
0.008049795363598025 1:9 2:17 3:9.19503 4:0.4225 5:1.94856 
0.01088750733378776 1:13 2:1 3:33.1019 4:0.453 5:1.98573 
0.04093631305603695 1:42 2:3 3:8.14926 4:0.4985 5:1.99288 
0.04877096106808726 1:70 2:3 3:8.14926 4:0.4985 5:1.99303 
0.004740926265474343 1:18 2:8 3:30.5483 4:0.398 5:1.96402 
0.02076617219025672 1:26 2:5 3:13.3878 4:0.412 5:1.96846 
0.002829737820680522 1:14 2:1 3:4.42524 4:0.525 5:1.99276 
0.009529369088640827 1:25 2:2 3:43.8854 4:0.4975 5:1.99905 
0.02837675246746058 1:5 2:15 3:7.70009 4:0.567 5:1.81191 
0.02546711645355365 1:32 2:1 3:7.88201 4:0.5255 5:1.89504 
0.02100521577223229 1:1 2:1 3:5.75355 4:0.553 5:1.97472 
0.02923936533408333 1:8 2:1 3:10.9093 4:0.5515 5:1.974 
0.03761270441963982 1:25 2:30 3:31.9524 4:0.5595 5:1.98895 
0.03050977360679197 1:28 2:2 3:41.2701 4:0.5795 5:1.97036 
0.3113393963372559 1:38 2:2 3:0.691401 4:0.5705 5:1.97695 
0.05155545742691753 1:38 2:43 3:26.1834 4:0.5585 5:1.98408 
0.002663378998874752 1:3 2:1 3:6.87909 4:0.5015 5:1.64524 
0.0523736278838321 1:10 2:4 3:67.1397 4:0.5845 5:1.96561 
0.02468783658600934 1:24 2:1 3:36.9524 4:0.51 5:1.96034 
0.05058453672694307 1:14 2:35 3:19.2793 4:0.3245 5:1.88995 
0.009765847058058006 1:30 2:10 3:27.7132 4:0.366 5:1.94236 
0.01440306853424272 1:20 2:8 3:32.9758 4:0.437 5:1.98633 
0.04536423014643508 1:12 2:31 3:0.773963 4:0.4385 5:1.97767 
0.01384679848663712 1:14 2:28 3:8.01447 4:0.411 5:1.96343 
0.03337029808164094 1:26 2:9 3:4.11003 4:0.5115 5:1.99701 
0.03444370193061506 1:6 2:33 3:10.3509 4:0.5185 5:1.99884 
0.0307809793999555 1:4 2:7 3:21.8291 4:0.366 5:1.90316 
0.03916995543777139 1:1 2:7 3:22.0684 4:0.456 5:1.98603 
0.03140093963591187 1:23 2:16 3:21.4955 4:0.4255 5:1.98002 
0.02195118836524773 1:12 2:1 3:10.2501 4:0.4075 5:1.96462 
0.008582225595869228 1:23 2:24 3:10.9292 4:0.388 5:1.95888 
0.03459283721963282 1:28 2:17 3:15.503 4:0.3665 5:1.9398 
0.01979802476594129 1:12 2:8 3:18.3137 4:0.405 5:1.96773 
0.02783171309353403 1:21 2:12 3:28.0844 4:0.423 5:1.97647 
0.01130673428398228 1:12 2:11 3:3.8145 4:0.46 5:1.99171 
0.01693337547534272 1:5 2:11 3:6.1451 4:0.3675 5:1.87584 
0.009236237591601026 1:6 2:1 3:7.83215 4:0.3325 5:1.9139 
0.007953320033376024 1:7 2:20 3:6.16734 4:0.3105 5:1.88689 
0.02867289537896643 1:22 2:37 3:34.3333 4:0.365 5:1.94457 
0.0459490102059226 1:14 2:40 3:42.2037 4:0.3945 5:1.964 
0.01136046131168454 1:19 2:1 3:11.838 4:0.351 5:1.92802 
0.02247761734399595 1:28 2:19 3:26.2071 4:0.344 5:1.92466 
0.006594903016522781 1:8 2:19 3:4.71224 4:0.377 5:1.94082 
0.002681835283184928 1:9 2:22 3:5.64557 4:0.383 5:1.93448 
0.02205925248400592 1:30 2:41 3:44.95 4:0.3485 5:1.91402 
0.003130678556181593 1:1 2:9 3:9.27214 4:0.56 5:1.8604 
0.02665901193310516 1:23 2:37 3:31.2736 4:0.3935 5:1.96341 
0.04063716301177323 1:29 2:4 3:51.59 4:0.366 5:1.94568 
0.05091103213592862 1:14 2:23 3:38.15 4:0.365 5:1.94615 
0.01971873041292267 1:24 2:15 3:21.206 4:0.3405 5:1.91151 
0.03706383421382411 1:23 2:45 3:37.7143 4:0.383 5:1.95898 
0.007497612862103018 1:20 2:10 3:33.3333 4:0.4065 5:1.9725 
0.0414353145400006 1:19 2:6 3:42.2131 4:0.383 5:1.94443 
0.02661285663240276 1:28 2:3 3:48.9218 4:0.3995 5:1.92856 
0.006135440188727904 1:8 2:3 3:25.7482 4:0.39 5:1.96249 
0.008388425025237154 1:15 2:8 3:10.2287 4:0.4165 5:1.97158 
0.05241004415447481 1:29 2:58 3:38.9561 4:0.462 5:1.98775 
0.03054393949128357 1:30 2:44 3:23.5961 4:0.4515 5:1.99086 
0.05077433253974889 1:14 2:27 3:26.8289 4:0.389 5:1.96304 
0.03986069801837683 1:23 2:30 3:28.7721 4:0.408 5:1.96144 
0.168426654469798 1:34 2:2 3:2.59007 4:0.5905 5:1.89382 
0.0340544555692468 1:4 2:5 3:19.4155 4:0.705 5:1.70803 
0.004168450544407068 1:6 2:10 3:4.74347 4:0.5675 5:1.94315 
0.02490001380140224 1:22 2:1 3:6.9634 4:0.7025 5:1.67457 
0.02641522782181129 1:1 2:1 3:39.7517 4:0.701 5:1.67322 
0.02149716210633647 1:7 2:11 3:9.52741 4:0.624 5:1.9522 
0.01197830929187938 1:7 2:16 3:7.164 4:0.5895 5:1.83954 
0.05271585845786925 1:3 2:74 3:25.7071 4:0.3755 5:1.95419 
0.01526891649671688 1:24 2:14 3:30.0816 4:0.408 5:1.97499 
0.0417101411496214 1:13 2:13 3:45.3753 4:0.4655 5:1.99646 
0.003255187737652877 1:18 2:6 3:4.89248 4:0.496 5:1.99554 
0.00273558422876345 1:15 2:4 3:3.76082 4:0.3345 5:1.91741 
0.0100683879814054 1:14 2:16 3:9.64669 4:0.383 5:1.95943 
0.05236892476571692 1:12 2:49 3:45.1256 4:0.424 5:1.98075 
0.01101330167947312 1:17 2:23 3:7.49996 4:0.3675 5:1.94831 
0.05080312695457379 1:11 2:6 3:42.5649 4:0.402 5:1.97173 
0.02663692018792548 1:9 2:12 3:13.3244 4:0.4425 5:1.98891 
0.007883685891695897 1:12 2:23 3:5.94067 4:0.369 5:1.94585 
0.03932690698373986 1:16 2:13 3:43.3681 4:0.3355 5:1.89058 
0.05268754456491331 1:32 2:50 3:8.24788 4:0.373 5:1.95293 
0.05150507767603862 1:29 2:30 3:13.7377 4:0.4365 5:1.9794 
0.03765915063913518 1:9 2:33 3:18.705 4:0.4295 5:1.97895 
0.001173951101105909 1:13 2:25 3:10.1631 4:0.4035 5:1.96706 
0.02768585581992516 1:25 2:44 3:47.6153 4:0.425 5:1.98273 
0.03870333808434429 1:1 2:30 3:7.00778 4:0.4935 5:1.98996 
0.04134266967882866 1:16 2:22 3:0.454093 4:0.389 5:1.96321 
0.01923712286018434 1:17 2:8 3:19.6522 4:0.4245 5:1.97809 
0.01876790463984462 1:12 2:4 3:23.6333 4:0.4125 5:1.97209 
0.04822477444513218 1:32 2:30 3:28.4634 4:0.401 5:1.96915 
0.0366790428330327 1:33 2:1 3:29.8385 4:0.37 5:1.93799 
0.02030808399056788 1:28 2:12 3:29.7028 4:0.374 5:1.9534 
0.04345096820816552 1:20 2:57 3:40.7619 4:0.378 5:1.95451 
0.03478127269633008 1:8 2:7 3:1.14388 4:0.339 5:1.90979 
0.006234573314824388 1:18 2:17 3:8.3378 4:0.3415 5:1.91287 
0.05237426836273912 1:31 2:46 3:40.9694 4:0.3925 5:1.96349 
0.02521375390635845 1:33 2:8 3:43.1495 4:0.358 5:1.94013 
0.03326053854574029 1:36 2:12 3:40.8149 4:0.4215 5:1.97859 
0.02860811301212949 1:27 2:10 3:39.7899 4:0.303 5:1.88492 
0.01600620708562153 1:30 2:12 3:42.6124 4:0.329 5:1.91305 
0.05058430503144112 1:37 2:16 3:52.0124 4:0.337 5:1.8994 
0.01243948777862808 1:39 2:3 3:46.7686 4:0.3865 5:1.94373 
0.02647432873264301 1:16 2:32 3:6.01761 4:0.3685 5:1.94655 
0.05145024903393136 1:21 2:38 3:17.511 4:0.4025 5:1.96688 
0.0136485665842813 1:8 2:13 3:7.18942 4:0.4085 5:1.97351 
0.040623937850881 1:13 2:21 3:16.5479 4:0.399 5:1.9693 
0.04639578562592145 1:17 2:35 3:46.3141 4:0.3735 5:1.94721 
0.01597196598119276 1:27 2:7 3:36.071 4:0.3575 5:1.93599 
0.01177111534682194 1:9 2:25 3:7.71941 4:0.353 5:1.93609 
0.0418895583401005 1:24 2:20 3:16.97 4:0.3575 5:1.93982 
0.02839596862072752 1:15 2:29 3:4.68693 4:0.34 5:1.92044 
0.01046595771952642 1:13 2:1 3:8.92201 4:0.347 5:1.93016 
0.01794226228603249 1:21 2:7 3:39.8782 4:0.3285 5:1.91305 
0.01073940108340004 1:28 2:4 3:33.0765 4:0.424 5:1.97909 
0.03744708008128989 1:15 2:40 3:38.95 4:0.3695 5:1.93265 
0.01099247552114029 1:16 2:7 3:22.607 4:0.394 5:1.96409 
0.01310766724745374 1:25 2:4 3:37.3848 4:0.364 5:1.94576 
0.04677215808050422 1:22 2:35 3:42.1429 4:0.4115 5:1.97546 
0.007813796210725133 1:25 2:3 3:37.3333 4:0.397 5:1.96805 
0.05216492344646012 1:23 2:26 3:33.4553 4:0.3805 5:1.95814 
0.03637799316004492 1:11 2:7 3:31.8695 4:0.4395 5:1.9889 
0.05253769343060838 1:48 2:10 3:46.2799 4:0.3705 5:1.94968 
0.02458912775218797 1:19 2:11 3:18.2439 4:0.2815 5:1.84115 
0.02149792753609464 1:32 2:4 3:32.2876 4:0.3615 5:1.93184 
0.03464233932916842 1:6 2:32 3:4.60715 4:0.392 5:1.95241 
0.04097508634888196 1:29 2:30 3:43.5888 4:0.4555 5:1.98055 
0.03036856116816364 1:10 2:6 3:22.4555 4:0.439 5:1.96199 
0.0009781515775902506 1:12 2:8 3:4.77433 4:0.4425 5:1.98853 
0.02922674264515435 1:31 2:43 3:48.0476 4:0.4365 5:1.97809 
0.003000594712681866 1:26 2:9 3:34.7619 4:0.4005 5:1.96942 
0.006060338258870812 1:28 2:5 3:31.5819 4:0.3735 5:1.93631 
0.04469193956805212 1:26 2:32 3:27.3687 4:0.388 5:1.95257 
0.003358093575214291 1:28 2:13 3:33.5366 4:0.439 5:1.98366 
0.04261137597540332 1:25 2:41 3:45.0413 4:0.432 5:1.97778 
0.03328511438309924 1:23 2:7 3:13.5603 4:0.422 5:1.97718 
0.01636325223209906 1:29 2:4 3:36.8449 4:0.379 5:1.91514 
0.03192180177583162 1:1 2:1 3:19.7455 4:0.358 5:1.93749 
0.009937100851842989 1:3 2:17 3:7.47117 4:0.562 5:1.896 
0.005446358342481872 1:4 2:1 3:5.3383 4:0.531 5:1.95562 
0.0413605539976736 1:12 2:12 3:27.5489 4:0.3915 5:1.96094 
0.01827941759199655 1:19 2:1 3:6.81802 4:0.3945 5:1.96205 
0.03583548558147328 1:21 2:50 3:27.7265 4:0.386 5:1.96123 
0.008500013478732249 1:16 2:4 3:8.58983 4:0.3645 5:1.93665 
0.008336575600686427 1:19 2:11 3:9.37375 4:0.3205 5:1.90438 
0.004707315586092788 1:22 2:1 3:7.82576 4:0.33 5:1.88641 
0.00416208606969685 1:13 2:25 3:5.297 4:0.3885 5:1.96236 
0.03217485477385677 1:11 2:17 3:10.6875 4:0.5195 5:1.9909 
0.04270715497672348 1:32 2:43 3:50.308 4:0.5445 5:1.97989 
0.05285619601565716 1:26 2:56 3:25.6138 4:0.3525 5:1.93534 
0.01284978178748688 1:6 2:26 3:3.76881 4:0.415 5:1.97553 
0.009597552392257624 1:13 2:20 3:4.62533 4:0.4175 5:1.97545 
0.008813772390134315 1:6 2:19 3:3.12523 4:0.412 5:1.96531 
0.04983877012213545 1:8 2:28 3:29.4067 4:0.418 5:1.97928 
0.0435332217562337 1:38 2:4 3:35.1426 4:0.496 5:1.98829 
0.02017869388659394 1:16 2:16 3:2.20607 4:0.452 5:1.99316 
0.02344896092081285 1:7 2:35 3:8.45077 4:0.381 5:1.94365 
0.02728041271055037 1:22 2:8 3:26.5274 4:0.492 5:1.99258 
1 1:8 2:1 3:0.453851 4:0.427 5:1.98252 
0.04166282341422811 1:18 2:2 3:50.6667 4:0.3975 5:1.96643 
0.03864603298756056 1:3 2:18 3:12.6324 4:0.4085 5:1.97401 
0.03662398692115301 1:34 2:36 3:51.85 4:0.3655 5:1.94667 
0.002164452001818621 1:10 2:18 3:11.1088 4:0.399 5:1.9649 
0.008109770098208022 1:13 2:4 3:7.40889 4:0.3135 5:1.87258 
0.04633853734564784 1:7 2:30 3:11.9906 4:0.3915 5:1.95237 
0.05149697553083438 1:30 2:44 3:14.5348 4:0.4055 5:1.97247 
0.01311590510297913 1:26 2:3 3:30.447 4:0.353 5:1.93451 
1 1:7 2:1 3:0.500736 4:0.392 5:1.95477 
0.01894919927743982 1:23 2:9 3:30.6157 4:0.3785 5:1.95299 
0.0261496137000778 1:21 2:13 3:14.6518 4:0.302 5:1.87988 
0.007399304777580386 1:10 2:7 3:24.844 4:0.415 5:1.97286 
0.04568066125009101 1:33 2:52 3:46.6368 4:0.3275 5:1.91047 
0.03177297821466057 1:28 2:18 3:30.0515 4:0.368 5:1.94826 
0.01922685652188867 1:28 2:40 3:44.0952 4:0.345 5:1.9295 
0.005908330127513564 1:31 2:7 3:35.2793 4:0.3685 5:1.9491 
0.03347569016592561 1:22 2:26 3:7.1508 4:0.3725 5:1.94887 
0.03209969449862701 1:22 2:20 3:5.38819 4:0.3525 5:1.93585 
1 1:1 2:1 3:0.437306 4:0.3545 5:1.91618 
0.008015300083732847 1:20 2:17 3:6.23128 4:0.357 5:1.92919 
0.02078087710208877 1:15 2:1 3:43.9524 4:0.4005 5:1.97068 
0.001065731235937995 1:7 2:1 3:9.70279 4:0.319 5:1.86326 
0.02884109935640298 1:18 2:1 3:41.7143 4:0.317 5:1.87245 
0.02267876220817476 1:20 2:1 3:49.4192 4:0.355 5:1.91817 
0.0282419508635743 1:29 2:18 3:37.7157 4:0.414 5:1.97733 
0.01158201093125832 1:32 2:10 3:42 4:0.4005 5:1.96286 
0.0106547711091015 1:28 2:10 3:26.2624 4:0.352 5:1.93553 
0.03957199720365306 1:13 2:7 3:20.6755 4:0.3375 5:1.91863 
0.05101913654704365 1:33 2:41 3:40.619 4:0.488 5:1.99589 
0.01740773355818368 1:32 2:12 3:36.3748 4:0.402 5:1.96906 
0.03538654615233482 1:6 2:37 3:36.4856 4:0.417 5:1.97698 
0.04609548044164213 1:16 2:55 3:46.2087 4:0.446 5:1.98697 
0.0123170754929919 1:28 2:3 3:30.3549 4:0.4375 5:1.96452 
0.0428606327109618 1:2 2:12 3:31.4891 4:0.45 5:1.97467 
0.05169885784852665 1:8 2:39 3:40.7 4:0.483 5:1.9911 
0.01413132013692456 1:7 2:1 3:5.42309 4:0.358 5:1.9371 
0.02905967647459284 1:19 2:20 3:15.0657 4:0.4195 5:1.97635 
0.04936913459734487 1:8 2:24 3:28.8602 4:0.4975 5:1.99222 
0.001356706926783425 1:13 2:26 3:6.15025 4:0.425 5:1.97613 
0.02096065591956002 1:10 2:16 3:7.83017 4:0.3855 5:1.95992 
1 1:1 2:27 3:1.09797 4:0.3625 5:1.93577 
0.02919331086750231 1:30 2:8 3:50.5908 4:0.3145 5:1.86883 
0.05304233082525983 1:13 2:62 3:30.6604 4:0.356 5:1.9237 
0.05185551231037621 1:12 2:37 3:33.2381 4:0.4485 5:1.99107 
0.002183468635543665 1:11 2:1 3:6.14119 4:0.3305 5:1.91413 
0.05247118918479488 1:20 2:57 3:16.9425 4:0.392 5:1.93891 
0.01697279565332644 1:14 2:5 3:10.5179 4:0.358 5:1.93857 
0.04627683914836027 1:24 2:31 3:8.45676 4:0.3535 5:1.93265 
0.03403435715134666 1:13 2:6 3:1.04175 4:0.3685 5:1.94889 
0.05130050506830341 1:12 2:21 3:21.4554 4:0.2965 5:1.86664 
0.02217841081677226 1:18 2:36 3:36.3369 4:0.326 5:1.90815 
0.03758276078139744 1:34 2:27 3:41.0952 4:0.3415 5:1.92552 
0.04827531427514192 1:18 2:17 3:42.0917 4:0.406 5:1.96038 
0.02033434337182897 1:32 2:10 3:30.2113 4:0.389 5:1.96354 
0.001873575287963455 1:9 2:25 3:4.62823 4:0.389 5:1.95728 
0.02401856039295018 1:5 2:1 3:44.6497 4:0.45 5:1.99125 
0.04025619321819018 1:40 2:45 3:49.619 4:0.3935 5:1.96563 
0.002901629688500766 1:13 2:23 3:4.89602 4:0.4815 5:1.99371 
0.01660286648862262 1:34 2:2 3:42.1905 4:0.4725 5:1.99605 
0.01024037876656704 1:6 2:1 3:6.71065 4:0.552 5:1.8361 
0.0350848487504074 1:31 2:10 3:44.4403 4:0.415 5:1.97466 
0.04944048266732946 1:32 2:56 3:49.458 4:0.4435 5:1.98937 
0.006526267699003879 1:28 2:10 3:32.4621 4:0.366 5:1.94626 
0.005268110202424512 1:11 2:10 3:28.1543 4:0.344 5:1.90396 
0.02384945262350502 1:18 2:25 3:11.0097 4:0.4335 5:1.98706 
0.01468021708933554 1:24 2:10 3:28.4393 4:0.3745 5:1.95278 
0.01735902113343487 1:17 2:1 3:42.2706 4:0.3505 5:1.92275 
0.005796106716685011 1:15 2:6 3:4.14226 4:0.355 5:1.93795 
0.01095844330939433 1:15 2:12 3:2.97636 4:0.4825 5:1.99325 
0.005772938534631438 1:12 2:15 3:3.40029 4:0.4715 5:1.99447 
0.112587514945723 1:1 2:23 3:2.63409 4:0.482 5:1.98073 
0.01717647590274011 1:21 2:1 3:13.3729 4:0.581 5:1.84508 
0.004170271351070527 1:10 2:21 3:4.51841 4:0.347 5:1.91648 
0.03844619679593464 1:23 2:1 3:3.89903 4:0.3955 5:1.9365 
0.0528343820984446 1:1 2:8 3:106.38 4:0.4115 5:1.94796 
0.02450401731120015 1:8 2:1 3:44.1896 4:0.386 5:1.92892 
0.02691889879581847 1:8 2:3 3:44.1896 4:0.385 5:1.93084 
0.04739131185292778 1:4 2:1 3:97.4386 4:0.4025 5:1.93418 
0.02879466971552764 1:5 2:6 3:12.407 4:0.3995 5:1.93423 
0.03238777391428302 1:7 2:22 3:12.3279 4:0.3935 5:1.92896 
0.03425801710935522 1:3 2:29 3:0.799638 4:0.399 5:1.93451 
0.04033555029018937 1:36 2:18 3:25.4299 4:0.3955 5:1.9281 
0.01185725449219567 1:8 2:6 3:24.7932 4:0.395 5:1.92666 
0.01483168484208091 1:8 2:1 3:24.7932 4:0.3995 5:1.93451 
0.0245413491275334 1:5 2:14 3:12.407 4:0.3985 5:1.93768 
0.02430183611599833 1:5 2:1 3:12.407 4:0.4 5:1.93836 
0.05289935120166389 1:15 2:35 3:142.093 4:0.431 5:1.97657 
0.01218079198360989 1:6 2:1 3:15.7329 4:0.4815 5:1.97831 
0.01150461165253253 1:10 2:14 3:4.4394 4:0.641 5:1.93994 
0.03995430674929501 1:20 2:36 3:8.14645 4:0.5445 5:1.78762 
0.02749847539978145 1:24 2:40 3:41.75 4:0.471 5:1.99429 
0.007644995851831374 1:12 2:1 3:17.0945 4:0.377 5:1.95026 
0.01969833026380666 1:16 2:22 3:10.3797 4:0.4275 5:1.97879 
0.0007764320327958152 1:14 2:21 3:5.19913 4:0.3185 5:1.88905 
0.01210690292369438 1:30 2:11 3:29.7251 4:0.3245 5:1.90667 
0.005669444397189207 1:16 2:8 3:6.12972 4:0.336 5:1.91991 
0.01500468040138209 1:17 2:4 3:13.5306 4:0.3235 5:1.90653 
0.02269472258232933 1:20 2:12 3:10.2328 4:0.3555 5:1.9256 
0.03078197458753622 1:31 2:6 3:46.5714 4:0.3315 5:1.90938 
0.05304491332129035 1:60 2:4 3:44.8042 4:0.3265 5:1.90939 
0.05290071800407375 1:57 2:128 3:41.5256 4:0.393 5:1.96515 
0.04208958013136897 1:1 2:40 3:10.7521 4:0.3585 5:1.93532 
0.001199112665403225 1:25 2:6 3:24.4173 4:0.2915 5:1.86884 
0.02028925358618932 1:34 2:1 3:43.6283 4:0.3885 5:1.96146 
0.02496505705731212 1:14 2:14 3:43.4286 4:0.337 5:1.92097 
0.0190930794379812 1:29 2:37 3:43.1865 4:0.3575 5:1.93903 
0.05087211465837099 1:25 2:43 3:24.702 4:0.3085 5:1.88355 
0.04886511874966576 1:30 2:16 3:1.32061 4:0.3035 5:1.75448 
0.03395190198262116 1:1 2:5 3:27.3513 4:0.405 5:1.97292 
0.05271279742596285 1:18 2:66 3:2.27338 4:0.402 5:1.77339 
0.02567109616003602 1:1 2:7 3:9.35865 4:0.3815 5:1.93332 
0.05276958341234478 1:3 2:445 3:0.570929 4:0.412 5:1.76727 
0.05271882915615178 1:61 2:184 3:1.2759 4:0.253 5:1.59946 
0.03278754002962564 1:7 2:40 3:2.55032 4:0.4055 5:1.78726 
0.03217428313351428 1:3 2:2 3:43.9576 4:0.3215 5:1.80476 
0.005943926950798119 1:1 2:5 3:7.21933 4:0.3135 5:1.80105 
0.03490938881036355 1:1 2:25 3:9.4752 4:0.3155 5:1.79443 
0.03004218542197701 1:2 2:8 3:38.1648 4:0.415 5:1.78187 
0.05269767514370405 1:6 2:6 3:85.6665 4:0.3785 5:1.76323 
0.02914660059222671 1:43 2:2 3:54.45 4:0.3895 5:1.96428 
0.04980432464452589 1:21 2:28 3:26.5362 4:0.3995 5:1.96935 
0.05177114530272003 1:17 2:6 3:73.784 4:0.41 5:1.97384 
0.006706371416312563 1:26 2:9 3:27.6352 4:0.3655 5:1.9437 
0.003745189918875904 1:17 2:16 3:8.66782 4:0.336 5:1.91342 
0.0340205410645059 1:35 2:40 3:50.65 4:0.3375 5:1.88341 
0.01596855728120311 1:22 2:3 3:28.2657 4:0.332 5:1.9118 
0.02342282041604401 1:27 2:8 3:11.3155 4:0.357 5:1.93971 
0.01518317357039068 1:26 2:6 3:31.5353 4:0.269 5:1.82114 
0.02638938819212685 1:21 2:1 3:42.3333 4:0.3915 5:1.95815 
0.05296650807440806 1:10 2:45 3:29.2857 4:0.368 5:1.94624 
0.04939727231357188 1:33 2:28 3:31.5439 4:0.405 5:1.95877 
0.007144787078202985 1:18 2:5 3:8.25808 4:0.3255 5:1.90844 
0.01969695211147135 1:9 2:27 3:4.45248 4:0.3545 5:1.93464 
0.01908287214116512 1:30 2:12 3:32.6031 4:0.349 5:1.92862 
0.012281102056164 1:28 2:5 3:42.972 4:0.3705 5:1.9508 
0.003049728025322953 1:25 2:8 3:29.5531 4:0.4095 5:1.943 
0.002518545568846676 1:19 2:13 3:9.47924 4:0.365 5:1.9428 
0.02514776801973758 1:29 2:7 3:27.0488 4:0.36 5:1.93206 
0.02622175363145673 1:22 2:32 3:11.0792 4:0.441 5:1.95253 
0.04936244705839021 1:25 2:42 3:29.0691 4:0.3145 5:1.89552 
0.001780563947213542 1:8 2:26 3:4.47864 4:0.299 5:1.87307 
0.01745228983037723 1:11 2:14 3:1.97743 4:0.39 5:1.96157 
0.01791527490488018 1:16 2:1 3:7.53795 4:0.4595 5:1.98499 
0.03937579780464879 1:30 2:6 3:18.0313 4:0.3195 5:1.89946 
0.01146579381564167 1:34 2:8 3:42.2381 4:0.332 5:1.91657 
0.03310566280812066 1:28 2:15 3:33.6185 4:0.4055 5:1.96932 
0.01131051815701212 1:28 2:18 3:31.5695 4:0.424 5:1.97866 
0.01561798530456766 1:28 2:4 3:43.5951 4:0.4 5:1.96169 
0.04787766274341831 1:12 2:23 3:26.8004 4:0.314 5:1.85377 
0.05218236335943788 1:8 2:20 3:25.45 4:0.301 5:1.88123 
0.002423708854437984 1:11 2:20 3:8.72091 4:0.413 5:1.97709 
0.003401713710213317 1:17 2:17 3:7.58804 4:0.3655 5:1.93478 
0.03669042410658779 1:27 2:33 3:40.2865 4:0.411 5:1.97544 
0.05177490627824372 1:33 2:34 3:36.6872 4:0.317 5:1.87117 
0.04187752860014182 1:20 2:14 3:40.4884 4:0.4005 5:1.96976 
0.04791477825650414 1:24 2:17 3:32.9452 4:0.3395 5:1.91673 
0.008722398056781881 1:28 2:4 3:35.0189 4:0.318 5:1.90212 
0.02387837190843611 1:8 2:3 3:31.914 4:0.3935 5:1.96662 
0.04607299744257159 1:44 2:7 3:52.9181 4:0.3775 5:1.95282 
0.01912054060542011 1:30 2:1 3:43.2857 4:0.3325 5:1.91498 
0.003787492482066047 1:17 2:24 3:9.26013 4:0.324 5:1.90739 
0.01406462496867977 1:25 2:11 3:8.77013 4:0.3035 5:1.88417 
0.01346075863937215 1:15 2:9 3:10.1823 4:0.337 5:1.91683 
0.01950226901524421 1:21 2:6 3:15.9943 4:0.3355 5:1.91959 
0.05282458941940921 1:23 2:4 3:87.9876 4:0.3155 5:1.89472 
0.01274088300603142 1:8 2:4 3:9.47272 4:0.3785 5:1.95511 
0.02155445889566276 1:30 2:6 3:45.1724 4:0.383 5:1.9413 
0.001206978887197727 1:18 2:1 3:10.7823 4:0.37 5:1.94236 
0.04738081905396466 1:42 2:10 3:40.9573 4:0.3415 5:1.92316 
0.01375655884921 1:25 2:4 3:34.8445 4:0.37 5:1.94768 
0.02454544171583534 1:4 2:16 3:11.1703 4:0.4595 5:1.98108 
0.0007911726954565708 1:16 2:7 3:4.22678 4:0.358 5:1.94067 
0.03783984421942125 1:28 2:5 3:24.5727 4:0.3675 5:1.94106 
0.02959665389817796 1:12 2:28 3:2.50906 4:0.3975 5:1.94744 
0.02806640365229092 1:18 2:4 3:24.8316 4:0.2945 5:1.84823 
0.0008903746445922445 1:13 2:23 3:5.86227 4:0.346 5:1.92471 
0.05034537444850384 1:29 2:50 3:43.25 4:0.3935 5:1.96606 
0.02401022129254629 1:1 2:5 3:6.24852 4:0.32 5:1.90074 
0.01376539902014348 1:14 2:14 3:5.95002 4:0.362 5:1.9439 
0.002395161567822239 1:6 2:21 3:5.40743 4:0.3775 5:1.93817 
0.02285584553839938 1:25 2:14 3:25.1016 4:0.306 5:1.88743 
0.01813627023415076 1:14 2:19 3:12.933 4:0.3785 5:1.93502 
0.04080656330546399 1:3 2:42 3:38.4762 4:0.3285 5:1.90697 
0.01688378007844859 1:17 2:10 3:8.65957 4:0.351 5:1.93469 
0.0002877027880908863 1:26 2:7 3:35.6837 4:0.315 5:1.88877 
0.03586368013179286 1:22 2:55 3:42.05 4:0.335 5:1.89522 
0.01328707943421888 1:24 2:12 3:30.2045 4:0.334 5:1.91895 
0.01519839781610838 1:25 2:40 3:34.1226 4:0.3275 5:1.91078 
0.04902978963390076 1:18 2:43 3:33.6441 4:0.4095 5:1.96599 
0.02848167003337385 1:15 2:5 3:14.5114 4:0.4685 5:1.99634 
0.0290085054751182 1:4 2:14 3:15.8739 4:0.4825 5:1.99597 
0.05243344578007203 1:37 2:51 3:53 4:0.3895 5:1.9619 
0.01718806632666583 1:28 2:7 3:33.3861 4:0.3495 5:1.9243 
0.239383933909128 1:1 2:22 3:2.16967 4:0.407 5:1.92595 
0.02054299725282849 1:19 2:8 3:27.4691 4:0.409 5:1.9743 
0.02206031390523772 1:23 2:15 3:24.9775 4:0.316 5:1.8961 
0.5478337078544402 1:1 2:26 3:1.89433 4:0.4095 5:1.97603 
0.02387169851986226 1:27 2:10 3:23.2128 4:0.3445 5:1.89836 
0.01686816300661371 1:3 2:5 3:10.2855 4:0.5325 5:1.91065 
0.05281592004477986 1:57 2:121 3:5.5986 4:0.453 5:1.99073 
0.04289363612949165 1:1 2:1 3:55.0343 4:0.4575 5:1.9895 
0.008429060948488443 1:3 2:5 3:25.6651 4:0.46 5:1.99364 
0.01300694140890718 1:4 2:1 3:30.1689 4:0.452 5:1.98472 
0.01587330569337614 1:3 2:5 3:25.6651 4:0.4655 5:1.98716 
0.02676732609587812 1:1 2:64 3:1.474 4:0.4075 5:1.96351 
0.02935289268207802 1:1 2:64 3:0.750246 4:0.4055 5:1.96309 
0.008938343140553784 1:1 2:1 3:6.28763 4:0.42 5:1.96879 
0.05270452543886961 1:1 2:110 3:6.28763 4:0.4345 5:1.97872 
0.05258528670789792 1:64 2:38 3:52.4293 4:0.3275 5:1.89484 
0.05261696330494264 1:1 2:114 3:50.4755 4:0.474 5:1.97102 
0.003933047869660975 1:1 2:4 3:25.9956 4:0.4385 5:1.98679 
1 1:1 2:7 3:0.794574 4:0.5225 5:1.96392 
0.02523841149568323 1:1 2:9 3:5.87987 4:0.6295 5:1.95004 
0.005547891794511484 1:26 2:45 3:33.7454 4:0.6225 5:1.95439 
0.0377227876549903 1:35 2:37 3:53.5238 4:0.5585 5:1.9878 
0.03328822427944096 1:9 2:10 3:15.0803 4:0.3525 5:1.88698 
0.02048098504270845 1:24 2:3 3:41.7085 4:0.3755 5:1.95245 
0.009133019098766825 1:23 2:9 3:22.5763 4:0.3805 5:1.95734 
0.04074167825592795 1:32 2:1 3:45.8692 4:0.444 5:1.98667 
0.001524493400996796 1:11 2:11 3:6.13779 4:0.4515 5:1.99035 
0.05144865927698777 1:29 2:46 3:1.22509 4:0.381 5:1.95823 
0.01983208691056373 1:18 2:10 3:12.2742 4:0.436 5:1.98695 
0.0206577259795277 1:20 2:21 3:4.12466 4:0.41 5:1.96868 
1 1:1 2:1 3:0.430645 4:0.395 5:1.96541 
0.00949633163302626 1:16 2:6 3:11.622 4:0.352 5:1.88465 
0.01786619959842299 1:29 2:12 3:38.6913 4:0.3925 5:1.9585 
0.0007731570837816171 1:11 2:18 3:5.06967 4:0.403 5:1.96424 
0.0439417043157081 1:4 2:44 3:14.317 4:0.3505 5:1.92879 
0.02069718907411597 1:16 2:20 3:5.38903 4:0.333 5:1.9168 
0.02433270465697446 1:35 2:6 3:41.4649 4:0.3355 5:1.91666 
0.05023909096498902 1:17 2:33 3:17.6121 4:0.232 5:1.7766 
0.001953239264102291 1:28 2:5 3:30.0375 4:0.314 5:1.89223 
0.01410174904379251 1:18 2:4 3:10.1049 4:0.3135 5:1.89575 
0.0153544752207397 1:12 2:3 3:19.6537 4:0.2985 5:1.87448 
0.01347236710504088 1:12 2:1 3:7.03237 4:0.364 5:1.91691 
0.01087452439867122 1:8 2:17 3:5.66677 4:0.3025 5:1.8757 
0.01384715508647802 1:16 2:25 3:6.62802 4:0.366 5:1.94515 
0.05306626193042008 1:49 2:4 3:58.6667 4:0.351 5:1.92123 
0.01147729602523548 1:23 2:9 3:32.6409 4:0.4835 5:1.9909 
0.004528027582044798 1:19 2:7 3:12.5091 4:0.346 5:1.92922 
0.02841402320672436 1:13 2:12 3:12.5776 4:0.3165 5:1.89892 
1 1:1 2:1 3:0.437272 4:0.395 5:1.96227 
0.003486027577687712 1:9 2:5 3:4.73899 4:0.326 5:1.85398 
0.0386698264133129 1:14 2:42 3:37 4:0.3565 5:1.92582 
0.03436819909877744 1:20 2:38 3:4.79183 4:0.425 5:1.96897 
0.02482881869884765 1:24 2:6 3:28.6605 4:0.395 5:1.96655 
0.03869752526773849 1:19 2:51 3:37.0476 4:0.38 5:1.95785 
0.01498992859066161 1:15 2:21 3:7.88243 4:0.397 5:1.96913 
0.001101816279392317 1:18 2:4 3:6.93597 4:0.355 5:1.93409 
0.012857802882346 1:29 2:10 3:36.8621 4:0.3165 5:1.89225 
0.003401234112839193 1:10 2:15 3:5.27837 4:0.3365 5:1.91153 
0.02458329242374963 1:19 2:8 3:12.9084 4:0.368 5:1.94587 
0.009687059495753707 1:6 2:16 3:3.35052 4:0.3875 5:1.95029 
0.04957923272926558 1:43 2:12 3:46.5116 4:0.3115 5:1.89415 
0.05226354190224228 1:28 2:34 3:54.0171 4:0.4175 5:1.97945 
0.04182289764698347 1:22 2:9 3:43.7359 4:0.397 5:1.96894 
0.02910713975908634 1:20 2:3 3:19.3168 4:0.4545 5:1.94408 
0.04062325645389359 1:38 2:6 3:40.2125 4:0.3865 5:1.96211 
0.0385339771133279 1:12 2:4 3:27.2086 4:0.37 5:1.94542 
0.01804172810045617 1:14 2:33 3:6.52598 4:0.437 5:1.98833 
0.02982808900634826 1:37 2:7 3:43.1917 4:0.383 5:1.95975 
0.01594598491609198 1:34 2:13 3:39.8095 4:0.422 5:1.98133 
0.04638413691744481 1:27 2:33 3:33.1688 4:0.3615 5:1.94303 
0.05212686583335485 1:15 2:64 3:44.6309 4:0.4065 5:1.97296 
0.02574062335368787 1:37 2:9 3:44.7411 4:0.413 5:1.97773 
0.01403809052153298 1:29 2:3 3:30.1587 4:0.3955 5:1.96758 
0.009177591013006629 1:13 2:7 3:5.0362 4:0.4085 5:1.96536 
0.009148194057298786 1:5 2:5 3:4.69952 4:0.37 5:1.95029 
0.05289691795533674 1:1 2:27 3:71.3544 4:0.339 5:1.92293 
0.02172761516533178 1:19 2:1 3:9.80074 4:0.302 5:1.88369 
0.0103346848404402 1:21 2:16 3:5.44145 4:0.3565 5:1.92967 
0.02706420692226173 1:20 2:7 3:20.5186 4:0.363 5:1.94103 
0.04060899992423841 1:21 2:16 3:30.6796 4:0.3445 5:1.9248 
0.01072542046569162 1:18 2:7 3:20.6335 4:0.3675 5:1.94223 
0.03956483566130969 1:23 2:43 3:47.9048 4:0.392 5:1.9633 
0.01495093390668149 1:8 2:2 3:21.7106 4:0.4615 5:1.99373 
0.02921593045521603 1:24 2:13 3:13.375 4:0.343 5:1.92596 
0.001711899114716912 1:11 2:5 3:4.62432 4:0.309 5:1.8909 
0.02796954021385911 1:32 2:15 3:41.3185 4:0.3705 5:1.94691 
0.00914972298969452 1:12 2:27 3:7.50149 4:0.3505 5:1.93341 
0.05106373944779091 1:2 2:38 3:39.2857 4:0.4405 5:1.96846 
0.05184676403073801 1:39 2:16 3:35.0507 4:0.318 5:1.90042 
0.02161260724939803 1:3 2:12 3:6.5462 4:0.571 5:1.97981 
0.03138529854471513 1:13 2:9 3:13.5966 4:0.3635 5:1.94286 
0.03012123098428934 1:17 2:16 3:28.5494 4:0.4005 5:1.96424 
0.03214913205994746 1:41 2:4 3:49.4596 4:0.3485 5:1.9326 
0.01171959272216593 1:14 2:26 3:9.39275 4:0.362 5:1.92885 
0.002068847709386382 1:9 2:24 3:5.90468 4:0.43 5:1.98375 
0.01787036032783431 1:26 2:7 3:23.709 4:0.3615 5:1.91874 
0.02214929348943018 1:23 2:12 3:33.726 4:0.3975 5:1.96914 
0.01088821015813993 1:8 2:11 3:5.62534 4:0.426 5:1.983 
0.04996626355602974 1:21 2:32 3:5.84748 4:0.3345 5:1.91683 
0.02413721472322221 1:31 2:7 3:29.75 4:0.3965 5:1.96807 
0.004379233960293664 1:22 2:3 3:7.16388 4:0.399 5:1.95747 
0.03718942052647001 1:19 2:48 3:42.3286 4:0.3035 5:1.88034 
0.04612422067328992 1:33 2:5 3:20.4238 4:0.3815 5:1.95406 
0.003278912637915385 1:24 2:6 3:30.498 4:0.3505 5:1.93435 
0.01812833011413961 1:28 2:34 3:39.3333 4:0.4445 5:1.98882 
0.01262377613608239 1:5 2:16 3:4.94669 4:0.356 5:1.93616 
0.01169017373951987 1:15 2:1 3:1.38134 4:0.3825 5:1.95256 
0.04799145495520818 1:38 2:1 3:33.6658 4:0.371 5:1.95134 
0.03779766157740024 1:19 2:24 3:2.7304 4:0.3885 5:1.96246 
0.007939312006965901 1:12 2:27 3:4.62746 4:0.382 5:1.95921 
0.03146762594979598 1:7 2:14 3:1.10038 4:0.332 5:1.87371 
0.01098335864797923 1:8 2:16 3:3.43847 4:0.3665 5:1.91833 
0.002787191733604118 1:17 2:6 3:7.42494 4:0.2595 5:1.78256 
0.03787853910646355 1:19 2:35 3:37.75 4:0.3715 5:1.9518 
0.05141740143029427 1:27 2:54 3:49.1226 4:0.399 5:1.96486 
0.0124045439989011 1:10 2:10 3:3.62631 4:0.4445 5:1.98085 
0.004493531695616258 1:15 2:4 3:6.92728 4:0.401 5:1.96957 
0.04313702662540678 1:23 2:19 3:28.1416 4:0.3385 5:1.90673 
0.04430547203693751 1:36 2:8 3:23.7306 4:0.3795 5:1.90779 
0.0354306847589848 1:14 2:1 3:49.2871 4:0.3315 5:1.91503 
0.001641472860480828 1:21 2:3 3:10.2533 4:0.3735 5:1.95193 
0.004173239356593863 1:12 2:16 3:5.86812 4:0.4335 5:1.9842 
0.006653987432660703 1:15 2:1 3:9.81048 4:0.3 5:1.82893 
0.02467770910922951 1:21 2:13 3:31.3459 4:0.493 5:1.99972 
0.006562299016377243 1:35 2:13 3:40.7058 4:0.449 5:1.9895 
0.02035427719658015 1:16 2:20 3:12.0044 4:0.407 5:1.96694 
0.03283332332812174 1:24 2:42 3:36.5238 4:0.4125 5:1.97071 
0.04608827513217579 1:5 2:13 3:29.9991 4:0.446 5:1.95966 
0.004382280593387598 1:21 2:8 3:17.3277 4:0.4835 5:1.99554 
1 1:1 2:6 3:0.621015 4:0.5055 5:1.98264 
0.05110017800283911 1:45 2:5 3:48.3079 4:0.384 5:1.95856 
0.04218413418510286 1:19 2:40 3:43.3282 4:0.3885 5:1.96239 
0.02296280042576925 1:4 2:2 3:26.6349 4:0.4905 5:1.99678 
0.01831668048119317 1:21 2:10 3:21.5319 4:0.3615 5:1.90868 
0.02312745382968165 1:22 2:7 3:9.37163 4:0.336 5:1.92082 
0.001647352943858434 1:27 2:7 3:33.4517 4:0.3525 5:1.93411 
0.01062487422996652 1:42 2:9 3:46.5416 4:0.3965 5:1.9293 
0.02236750546349581 1:31 2:6 3:39.9307 4:0.3535 5:1.93386 
0.04397694864789103 1:17 2:32 3:47.2381 4:0.412 5:1.96773 
0.03958374670422415 1:26 2:36 3:39.3333 4:0.368 5:1.94236 
0.03135776580877944 1:15 2:1 3:25.5075 4:0.373 5:1.9524 
0.008268075046154098 1:17 2:6 3:9.03717 4:0.3305 5:1.90475 
0.005815063096659967 1:31 2:8 3:38.0946 4:0.386 5:1.95528 
0.04404175323121107 1:31 2:9 3:7.98493 4:0.34 5:1.92383 
0.03806631709131675 1:17 2:43 3:38.8307 4:0.368 5:1.94633 
0.02934854881733409 1:25 2:41 3:39.2142 4:0.441 5:1.97999 
0.03609001636953844 1:21 2:39 3:3.45213 4:0.2965 5:1.86304 
0.005603446025168211 1:17 2:13 3:5.99054 4:0.4485 5:1.98838 
0.01880201511970766 1:16 2:11 3:5.71673 4:0.3825 5:1.95446 
0.02113880740698319 1:19 2:19 3:11.6045 4:0.4905 5:1.99708 
0.01604739302085479 1:9 2:13 3:7.81022 4:0.4555 5:1.98131 
0.04986937255099905 1:44 2:5 3:42.4845 4:0.396 5:1.96661 
0.05295762687746725 1:1 2:16 3:23.8746 4:0.5255 5:1.98093 
0.01956571666866309 1:24 2:9 3:21.2546 4:0.4185 5:1.98033 
0.01180422917760263 1:29 2:8 3:41.0934 4:0.3555 5:1.93464 
0.02915036067846172 1:14 2:25 3:12.1413 4:0.355 5:1.92222 
0.04558207995265584 1:32 2:18 3:24.0363 4:0.3395 5:1.92351 
0.0522875115542924 1:32 2:29 3:48.9048 4:0.344 5:1.92462 
0.01432631704654497 1:33 2:12 3:33.5213 4:0.372 5:1.95137 
0.04293954771672825 1:30 2:15 3:45.5178 4:0.3415 5:1.9255 
0.0232403334075451 1:14 2:31 3:13.8385 4:0.292 5:1.86694 
0.0133017124984253 1:19 2:23 3:7.38083 4:0.3485 5:1.91988 
0.04913730852951687 1:30 2:34 3:11.4923 4:0.3725 5:1.94088 
0.0300305743943261 1:22 2:35 3:9.83183 4:0.3775 5:1.95118 
0.02815030406499209 1:32 2:2 3:7.39073 4:0.361 5:1.94088 
0.05289032794833315 1:36 2:78 3:26.6272 4:0.3695 5:1.94836 
0.05289175504962657 1:53 2:93 3:41.5149 4:0.3305 5:1.90455 
0.05079988271260916 1:15 2:47 3:14.1248 4:0.37 5:1.94576 
0.0526974010925928 1:42 2:26 3:2.63351 4:0.3925 5:1.96428 
0.05288692482610452 1:3 2:494 3:0.525389 4:0.3955 5:1.96683 
0.05314600152276355 1:17 2:1154 3:2.48804 4:0.4005 5:1.96843 
0.03250970089815871 1:24 2:26 3:9.13486 4:0.401 5:1.96911 
0.03305651473861765 1:10 2:11 3:18.8235 4:0.4355 5:1.97389 
0.005159156742728155 1:12 2:22 3:4.39959 4:0.3805 5:1.95528 
0.03762167113311032 1:17 2:42 3:18.2796 4:0.3665 5:1.94498 
0.05201942406047269 1:3 2:21 3:16.5714 4:0.3495 5:1.93073 
0.05261686132404297 1:22 2:48 3:8.69579 4:0.311 5:1.88824 
0.05198181411288312 1:27 2:24 3:18.166 4:0.3315 5:1.91556 
0.04544942356205267 1:8 2:13 3:27.8 4:0.386 5:1.92222 
0.01274405358261237 1:10 2:12 3:10.9129 4:0.3855 5:1.96031 
0.02882444707497415 1:13 2:23 3:13.3975 4:0.326 5:1.91047 
0.02384316420641 1:29 2:44 3:24.6334 4:0.3465 5:1.93059 
0.003083776281087414 1:23 2:3 3:9.16461 4:0.352 5:1.92521 
0.02961157864005404 1:42 2:5 3:53.3748 4:0.3655 5:1.94658 
0.00711634418059099 1:2 2:10 3:16.4036 4:0.328 5:1.90912 
0.03942747329614853 1:19 2:49 3:46.1429 4:0.4195 5:1.9707 
0.02571662767323042 1:15 2:1 3:32.5 4:0.356 5:1.93653 
0.03629067501062566 1:13 2:32 3:12.6925 4:0.3355 5:1.91752 
0.009941638453449086 1:2 2:10 3:19.0049 4:0.4055 5:1.91952 
0.04351883302921788 1:2 2:28 3:10.5498 4:0.4455 5:1.97341 
0.05189416967281196 1:29 2:22 3:32.3138 4:0.383 5:1.95465 
0.01646677844678885 1:24 2:11 3:36.2443 4:0.365 5:1.94461 
0.03018613939871995 1:16 2:11 3:15.407 4:0.413 5:1.97157 
0.0499317424632999 1:12 2:47 3:39.381 4:0.4615 5:1.9866 
0.02318910820185545 1:31 2:3 3:49.9167 4:0.42 5:1.97853 
0.0199302573802292 1:30 2:13 3:40.9059 4:0.38 5:1.95418 
0.002561461762505972 1:5 2:28 3:0.685149 4:0.395 5:1.96623 
0.00508042601233482 1:8 2:24 3:5.02664 4:0.3995 5:1.9684 
0.009018126549994196 1:17 2:5 3:13.2786 4:0.414 5:1.97355 
0.007870069853722345 1:9 2:1 3:7.07883 4:0.44 5:1.95252 
0.03763598520332925 1:24 2:12 3:18.969 4:0.3515 5:1.93044 
0.02681016494488314 1:9 2:4 3:28.7552 4:0.358 5:1.88965 
0.01848067500825142 1:32 2:6 3:31.8661 4:0.383 5:1.95849 
0.007327443937909706 1:20 2:7 3:34.2896 4:0.3595 5:1.94059 
0.008422304081062695 1:22 2:1 3:13.8762 4:0.3485 5:1.9086 
0.005550498450463286 1:14 2:24 3:6.93927 4:0.379 5:1.95361 
0.01247725834210519 1:4 2:24 3:5.64668 4:0.392 5:1.95178 
0.009441004819918263 1:13 2:18 3:6.95305 4:0.432 5:1.98332 
0.002612861957393173 1:11 2:26 3:4.79356 4:0.394 5:1.96498 
0.005544663737875951 1:21 2:6 3:7.29726 4:0.3725 5:1.94935 
0.03061125683422766 1:26 2:20 3:15.1377 4:0.3785 5:1.94461 
0.006754490767942319 1:16 2:8 3:10.8029 4:0.3925 5:1.96047 
0.01524334283965684 1:17 2:19 3:7.86593 4:0.326 5:1.90879 
0.01878797795846067 1:6 2:10 3:2.48378 4:0.411 5:1.97168 
0.04177580167043975 1:27 2:46 3:46.1905 4:0.425 5:1.98179 
0.02824100140797914 1:14 2:32 3:3.65931 4:0.3575 5:1.93004 
0.03399912452572001 1:36 2:7 3:32.1088 4:0.2945 5:1.87248 
0.0528741406954687 1:30 2:41 3:60.3333 4:0.3155 5:1.89216 
0.04001681588997185 1:23 2:49 3:14.663 4:0.296 5:1.85465 
0.0121936379573356 1:7 2:4 3:9.71734 4:0.428 5:1.982 
0.01238389896201403 1:20 2:23 3:3.8803 4:0.497 5:1.97969 
0.04523203243050167 1:40 2:5 3:7.4083 4:0.477 5:1.97867 
0.05288777803160788 1:20 2:1 3:115.194 4:0.478 5:1.97689 
0.007215033376189621 1:20 2:1 3:4.84783 4:0.4295 5:1.97671 
0.03347840744532569 1:20 2:1 3:32.337 4:0.487 5:1.97806 
0.05249633020714101 1:2 2:21 3:35.0515 4:0.432 5:1.97584 
0.04492733986472636 1:4 2:10 3:35.0515 4:0.464 5:1.98307 
0.02241959911152391 1:10 2:1 3:18.8649 4:0.5385 5:1.96653 
0.6367340877998172 1:30 2:1 3:0.957761 4:0.4385 5:1.97798 
0.03982980760006283 1:36 2:1 3:5.05009 4:0.5405 5:1.9642 
0.01450716517362855 1:7 2:1 3:23.08 4:0.5435 5:1.96413 
0.05291462138455211 1:216 2:62 3:23.08 4:0.521 5:1.96819 
0.05195499708959644 1:7 2:1 3:127.297 4:0.543 5:1.96436 
0.01159087359417638 1:16 2:7 3:7.22118 4:0.5345 5:1.96328 
0.01252920320264638 1:4 2:1 3:9.97212 4:0.52 5:1.97331 
0.02044716252156299 1:8 2:7 3:7.22118 4:0.5565 5:1.95308 
0.04848545653298586 1:30 2:2 3:10.5185 4:0.469 5:1.98253 
0.05264627111699904 1:30 2:2 3:96.4788 4:0.4705 5:1.98296 
0.02226672497294281 1:14 2:15 3:23.08 4:0.528 5:1.96935 
0.01700278913317255 1:7 2:3 3:23.08 4:0.5125 5:1.97847 
0.02263946463790831 1:11 2:4 3:12.9406 4:0.373 5:1.94611 
0.05189351780905621 1:32 2:40 3:36.1424 4:0.404 5:1.96487 
0.02358032657529469 1:14 2:1 3:5.32305 4:0.4215 5:1.97908 
0.02374201421425573 1:18 2:7 3:26.4727 4:0.4075 5:1.97491 
0.03308095495708747 1:24 2:17 3:38.8095 4:0.4305 5:1.98216 
0.04883415736275121 1:15 2:40 3:32.6 4:0.447 5:1.98626 
0.05222777810781282 1:7 2:51 3:45.85 4:0.402 5:1.97133 
0.01601524946519543 1:3 2:1 3:17.7913 4:0.5475 5:1.97943 
0.03185903953466061 1:23 2:4 3:3.15735 4:0.5685 5:1.91122 
0.006365605730800972 1:9 2:9 3:10.3786 4:0.474 5:1.98434 
0.03873956002009325 1:18 2:10 3:2.32655 4:0.5265 5:1.6611 
1 1:1 2:1 3:0.572699 4:0.51 5:1.70128 
0.02933670259416566 1:1 2:2 3:66.7437 4:0.554 5:1.75668 
0.0524988981777707 1:21 2:14 3:59.9573 4:0.512 5:1.99749 
0.01861735859524929 1:5 2:8 3:4.79761 4:0.635 5:1.94601 
0.01175866840939742 1:1 2:3 3:27.8508 4:0.4375 5:1.9835 
0.02980523057637775 1:28 2:1 3:46.465 4:0.341 5:1.92434 
0.0435072393254437 1:22 2:32 3:31.3803 4:0.4175 5:1.97684 
0.05288093157895707 1:3 2:17 3:83.736 4:0.3505 5:1.93425 
0.03730307847275599 1:22 2:2 3:38.6646 4:0.346 5:1.92242 
0.05284476617408707 1:45 2:3 3:35.7947 4:0.3485 5:1.92291 
0.03708926807894647 1:17 2:1 3:14.7226 4:0.3545 5:1.92887 
0.008467755376239151 1:15 2:6 3:10.9401 4:0.3675 5:1.9483 
0.001564121328974602 1:15 2:17 3:9.42564 4:0.4005 5:1.971 
0.5132137473656371 1:1 2:11 3:1.3154 4:0.3005 5:1.88166 
0.03262907099233954 1:27 2:37 3:43.9855 4:0.463 5:1.99232 
0.0127703702981571 1:14 2:7 3:7.92981 4:0.3345 5:1.91725 
0.05167485627631552 1:40 2:10 3:54.406 4:0.4125 5:1.97646 
0.04899692254583438 1:6 2:8 3:62.8204 4:0.368 5:1.94655 
0.04020162200734358 1:26 2:45 3:33.3949 4:0.381 5:1.9467 
0.03915666598866401 1:27 2:20 3:23.711 4:0.4385 5:1.98324 
0.02243377711823163 1:6 2:1 3:32.6667 4:0.4055 5:1.9708 
0.001929674402385979 1:27 2:4 3:32.3727 4:0.405 5:1.97221 
0.002469277189813473 1:18 2:8 3:7.19073 4:0.3825 5:1.94744 
0.05140821483031111 1:25 2:36 3:3.14058 4:0.3065 5:1.87788 
0.004593926464745412 1:29 2:8 3:38.8 4:0.3905 5:1.95986 
0.03224989696640295 1:26 2:15 3:29.2962 4:0.3295 5:1.91229 
1 1:1 2:1 3:0.486235 4:0.6515 5:1.81606 
0.05241174207209331 1:12 2:60 3:45 4:0.353 5:1.93608 
0.01945661273444567 1:39 2:8 3:47.6863 4:0.351 5:1.93469 
0.02135908459815269 1:1 2:14 3:9.69037 4:0.3115 5:1.88695 
0.002530277651760393 1:8 2:22 3:5.30999 4:0.487 5:1.99851 
0.02954646178507518 1:15 2:17 3:13.324 4:0.469 5:1.99605 
0.001611373570945929 1:7 2:14 3:4.18016 4:0.429 5:1.97693 
0.05162144800990068 1:10 2:52 3:2.22487 4:0.3815 5:1.94773 
0.02451667897128772 1:7 2:17 3:0.739275 4:0.4725 5:1.99257 
0.01887037531944179 1:7 2:13 3:11.517 4:0.356 5:1.93873 
0.01370151191942526 1:16 2:1 3:24.665 4:0.361 5:1.90416 
0.04258035522600095 1:1 2:7 3:68.1064 4:0.359 5:1.90285 
0.03284970883051458 1:1 2:1 3:30.4179 4:0.3655 5:1.9113 
0.005198501392998757 1:1 2:7 3:7.84932 4:0.346 5:1.88692 
0.03422595857582172 1:1 2:22 3:8.82328 4:0.3825 5:1.95575 
0.03896247321445022 1:28 2:33 3:25.0552 4:0.3335 5:1.91762 
0.02491478001379539 1:4 2:1 3:34.5861 4:0.4015 5:1.97032 
0.0218347831626511 1:23 2:11 3:9.19569 4:0.5435 5:1.98388 
0.02734262822221997 1:1 2:1 3:27.7108 4:0.3855 5:1.94718 
0.04245874516952271 1:18 2:9 3:40.4536 4:0.36 5:1.94238 
0.0461330686360355 1:2 2:38 3:13.8335 4:0.449 5:1.98948 
0.01133689174259916 1:20 2:6 3:31.6923 4:0.469 5:1.99526 
0.03266756154118197 1:20 2:44 3:38.75 4:0.435 5:1.97846 
0.05251479035693596 1:9 2:43 3:24.6867 4:0.4695 5:1.99369 
0.7910322099600464 1:1 2:30 3:2.22517 4:0.4505 5:1.97922 
0.01866046720554354 1:34 2:9 3:22.5303 4:0.407 5:1.96628 
0.001046858594878065 1:14 2:3 3:4.62275 4:0.3485 5:1.932 
0.02676859166459244 1:26 2:1 3:14.681 4:0.316 5:1.89994 
0.007135243318016796 1:2 2:19 3:6.10902 4:0.3615 5:1.92319 
0.02026497802150929 1:27 2:6 3:39.7855 4:0.36 5:1.93141 
0.01082477003808594 1:24 2:8 3:35.6598 4:0.457 5:1.98333 
0.04738988347238311 1:21 2:22 3:29.1411 4:0.4095 5:1.97378 
0.01761012515733736 1:24 2:6 3:36.1513 4:0.3255 5:1.90966 
0.03448045539631894 1:26 2:39 3:33.2381 4:0.341 5:1.91144 
0.05312368497279707 1:33 2:22 3:54.399 4:0.3665 5:1.94573 
0.00553422935873743 1:17 2:9 3:15.5742 4:0.327 5:1.91067 
0.03692126522812617 1:7 2:6 3:28.0224 4:0.379 5:1.92108 
0.04445716746405409 1:31 2:46 3:25.7117 4:0.3575 5:1.93433 
0.007773005694921857 1:6 2:6 3:6.19949 4:0.396 5:1.96288 
0.03494174311320947 1:34 2:12 3:50.0409 4:0.39 5:1.9608 
0.04207525470281598 1:260 2:2 3:3.0826 4:0.4945 5:1.90152 
0.04212319885846338 1:260 2:2 3:0.475337 4:0.493 5:1.88322 
0.03780089258118692 1:10 2:10 3:25.1298 4:0.5275 5:1.98809 
0.01475109632707649 1:26 2:9 3:32.2855 4:0.2915 5:1.85966 
0.02403555089689049 1:23 2:4 3:7.95505 4:0.426 5:1.9826 
0.04015513896404607 1:1 2:40 3:4.87454 4:0.615 5:1.95062 
0.04985971647095694 1:22 2:20 3:1.31086 4:0.5825 5:1.96614 
0.05049573250711999 1:31 2:37 3:23.7093 4:0.3375 5:1.90862 
0.0366577038114153 1:42 2:8 3:46.0318 4:0.3455 5:1.92952 
0.001478592849167588 1:18 2:6 3:7.78885 4:0.292 5:1.86742 
0.006637940875311395 1:25 2:20 3:14.2886 4:0.3505 5:1.93317 
0.008585625047063847 1:26 2:8 3:22.0804 4:0.32 5:1.90284 
0.04361541406112374 1:29 2:36 3:37.0476 4:0.3545 5:1.93729 
0.008492428209192854 1:10 2:24 3:5.59591 4:0.458 5:1.99174 
0.03125058929628836 1:15 2:8 3:15.9072 4:0.3895 5:1.96398 
0.03393896311213695 1:27 2:8 3:20.0193 4:0.444 5:1.98854 
0.0401067131052506 1:15 2:15 3:30.3392 4:0.4595 5:1.98805 
0.03260018698617877 1:14 2:16 3:24.2145 4:0.4345 5:1.98592 
0.0288246139294782 1:36 2:2 3:49.0175 4:0.355 5:1.93718 
0.0487172375506586 1:19 2:31 3:42.4369 4:0.4095 5:1.97512 
0.0236669259872971 1:1 2:11 3:10.3716 4:0.4365 5:1.97808 
0.01692007820457364 1:12 2:9 3:7.69048 4:0.38 5:1.95092 
0.02162940380748865 1:7 2:1 3:14.077 4:0.3835 5:1.95078 
0.03410245764957447 1:15 2:31 3:9.34622 4:0.369 5:1.93177 
0.002359650878751202 1:3 2:1 3:9.0225 4:0.6025 5:1.95748 
0.04055882025028129 1:26 2:36 3:34.9848 4:0.3235 5:1.87515 
0.03330244628448356 1:30 2:39 3:29.2672 4:0.4315 5:1.98626 
0.04127754251799983 1:25 2:14 3:40.9 4:0.422 5:1.98151 
0.007208323683383932 1:2 2:1 3:22.6303 4:0.4785 5:1.9765 
0.0141480773403946 1:20 2:7 3:6.21403 4:0.4365 5:1.98486 
0.02892173490354032 1:12 2:11 3:0.669724 4:0.4295 5:1.97623 
1 1:1 2:1 3:0.450569 4:0.612 5:1.94807 
1 1:1 2:8 3:0.450569 4:0.6145 5:1.86335 
0.004997195953974461 1:6 2:18 3:0.765728 4:0.5745 5:1.98128 
0.01286960720432289 1:10 2:2 3:16.1483 4:0.5815 5:1.97545 
0.0191912369219241 1:4 2:1 3:22.9377 4:0.629 5:1.83489 
0.04407834007192118 1:16 2:1 3:29.619 4:0.633 5:1.85463 
0.006153211725651475 1:11 2:1 3:6.12462 4:0.513 5:1.99156 
0.05287714039953334 1:54 2:170 3:46.3377 4:0.3795 5:1.94696 
0.02649563314919227 1:12 2:20 3:1.21285 4:0.3515 5:1.91344 
0.05213784038782493 1:11 2:1 3:125.03 4:0.365 5:1.94101 
0.02431964591913323 1:21 2:37 3:31.9524 4:0.617 5:1.95622 
0.05001472840453539 1:10 2:43 3:39.15 4:0.3305 5:1.91418 
0.01136763808422527 1:26 2:10 3:26.8861 4:0.3355 5:1.92016 
0.02468831541629105 1:26 2:5 3:11.5868 4:0.3555 5:1.92025 
0.05136840010552907 1:12 2:2 3:53.6576 4:0.442 5:1.98799 
0.05273422146319667 1:2 2:32 3:31.243 4:0.434 5:1.98486 
0.03837473969080446 1:34 2:35 3:45.5238 4:0.5045 5:1.99868 
0.02445575361003625 1:29 2:16 3:25.4793 4:0.3145 5:1.85157 
0.04376670663241067 1:23 2:37 3:44.8117 4:0.394 5:1.95223 
0.01237965017108798 1:8 2:13 3:3.55431 4:0.3625 5:1.93297 
0.01636379334375869 1:18 2:14 3:13.5004 4:0.3725 5:1.92918 
0.0367628543008118 1:4 2:44 3:36.8 4:0.4045 5:1.97018 
0.03404241319786211 1:23 2:40 3:32.6849 4:0.406 5:1.97241 
0.006831225682937861 1:1 2:1 3:8.3636 4:0.45 5:1.98441 
0.0147165365728506 1:24 2:12 3:24.0669 4:0.448 5:1.9887 
0.05271244537512709 1:25 2:280 3:1.88271 4:0.253 5:1.79675 
1 1:1 2:21 3:1.0054 4:0.248 5:1.79827 
0.01800254743711783 1:1 2:1 3:8.98663 4:0.2165 5:1.68498 
0.04599173400487198 1:26 2:15 3:44.0483 4:0.3585 5:1.93594 
0.04637172160843289 1:16 2:4 3:47.9727 4:0.3955 5:1.9645 
0.007061754312585771 1:33 2:3 3:29.1315 4:0.348 5:1.92629 
0.04850684248325282 1:34 2:1 3:54.6667 4:0.3455 5:1.92858 
0.05272339285529054 1:51 2:107 3:91.832 4:0.565 5:1.96867 
0.007176167080646918 1:22 2:14 3:21.1422 4:0.438 5:1.98879 
0.05069575709614044 1:43 2:1 3:41.8551 4:0.352 5:1.93512 
0.003122732697163403 1:10 2:8 3:2.42965 4:0.378 5:1.94934 
0.03326190679349848 1:28 2:19 3:37.25 4:0.339 5:1.9001 
0.02791898738942076 1:21 2:11 3:23.6551 4:0.364 5:1.94463 
0.0180930077079627 1:34 2:28 3:39.9307 4:0.473 5:1.99486 
0.04253436432425856 1:18 2:46 3:48.6595 4:0.286 5:1.8564 
1 1:1 2:1 3:0.420425 4:0.4505 5:1.98398 
0.01173284752880115 1:22 2:9 3:34.6807 4:0.319 5:1.90226 
0.03215347891428108 1:35 2:7 3:30.306 4:0.356 5:1.93742 
0.02843341250419196 1:4 2:28 3:7.15046 4:0.3355 5:1.91349 
0.01576702956879217 1:33 2:11 3:29.8499 4:0.431 5:1.98545 
0.0507035494809015 1:20 2:15 3:49.0964 4:0.403 5:1.96906 
0.05272411320683695 1:33 2:7 3:66.9202 4:0.4045 5:1.97128 
0.03251608739476447 1:8 2:41 3:1.08756 4:0.3665 5:1.93776 
0.04744858733193069 1:18 2:34 3:33.75 4:0.428 5:1.98143 
0.002025618323708287 1:15 2:11 3:7.10595 4:0.358 5:1.9392 
0.01378660023317783 1:11 2:7 3:2.31234 4:0.339 5:1.92163 
0.008793330361369766 1:6 2:10 3:6.06746 4:0.4575 5:1.99412 
0.02385674241224739 1:21 2:15 3:8.77794 4:0.3105 5:1.89273 
0.04050121783437571 1:6 2:41 3:36.2953 4:0.405 5:1.97113 
0.0442666581279872 1:35 2:12 3:22.1005 4:0.451 5:1.97961 
0.01933708479684124 1:17 2:14 3:6.22945 4:0.288 5:1.86567 
0.0308895299798268 1:13 2:2 3:35.7906 4:0.3115 5:1.88156 
0.006546152818259821 1:17 2:18 3:5.86467 4:0.338 5:1.91808 
0.01449389913629521 1:28 2:8 3:38.1432 4:0.3105 5:1.88775 
0.007180871075497688 1:9 2:26 3:8.56968 4:0.3995 5:1.96679 
1 1:1 2:1 3:0.436762 4:0.367 5:1.94517 
0.03742043805093207 1:19 2:49 3:27.8294 4:0.4565 5:1.98883 
0.01559159469421125 1:19 2:4 3:12.1271 4:0.433 5:1.9846 
0.009303482822195465 1:18 2:23 3:12.2668 4:0.414 5:1.97088 
0.02833880015452675 1:10 2:10 3:28.2622 4:0.3685 5:1.93663 
0.04492890177817099 1:22 2:42 3:56.8796 4:0.445 5:1.9909 
0.01261729190785247 1:19 2:1 3:13.0626 4:0.376 5:1.94716 
0.006823109828103677 1:11 2:3 3:6.42359 4:0.4175 5:1.97635 
0.01819605056738048 1:21 2:5 3:11.0105 4:0.4225 5:1.9814 
0.01680410824602075 1:18 2:22 3:4.62355 4:0.4 5:1.95495 
0.02265797966918809 1:27 2:39 3:42.1 4:0.4405 5:1.9893 
0.007862525304782368 1:23 2:11 3:23.003 4:0.3385 5:1.92001 
0.04538184813169715 1:25 2:49 3:53.1179 4:0.396 5:1.96414 
0.03544702936852309 1:26 2:4 3:16.1193 4:0.363 5:1.94434 
0.03893074121852304 1:12 2:2 3:39.6616 4:0.506 5:1.934 
0.02286855504993125 1:17 2:17 3:4.60684 4:0.623 5:1.94817 
0.02407033896886357 1:29 2:17 3:32.2457 4:0.45 5:1.99052 
0.004346903364660636 1:20 2:1 3:7.4518 4:0.6715 5:1.91254 
0.6617107331087106 1:4 2:1 3:0.486897 4:0.6135 5:1.95722 
0.04028907557678818 1:23 2:1 3:44.8 4:0.449 5:1.99122 
0.05254288765251575 1:14 2:10 3:50.0673 4:0.4365 5:1.98707 
0.01224658734954512 1:4 2:3 3:17.3158 4:0.381 5:1.95867 
0.02900205143049192 1:28 2:2 3:33.6546 4:0.434 5:1.98731 
0.006504938993605157 1:29 2:9 3:26.2711 4:0.369 5:1.9458 
0.0117073678010729 1:12 2:31 3:6.13564 4:0.341 5:1.92329 
0.005149817673433883 1:13 2:11 3:3.80256 4:0.377 5:1.93947 
0.4278447885922227 1:5 2:1 3:0.464255 4:0.361 5:1.94236 
0.00256262319365981 1:13 2:22 3:7.33013 4:0.3865 5:1.94848 
0.01207506977799468 1:21 2:7 3:7.27377 4:0.386 5:1.96214 
0.02271438524334884 1:39 2:5 3:46.3703 4:0.3115 5:1.89313 
0.04874002528282639 1:32 2:23 3:36.1421 4:0.478 5:1.99818 
0.004470989558363366 1:16 2:1 3:8.6955 4:0.341 5:1.92355 
0.02256436207116458 1:39 2:3 3:48.8371 4:0.39 5:1.96362 
0.04718462595241371 1:6 2:13 3:37.55 4:0.4515 5:1.9624 
0.0096375210879436 1:14 2:13 3:8.21022 4:0.3585 5:1.93989 
0.005432163664657506 1:32 2:8 3:41.0426 4:0.344 5:1.92335 
0.02083104442812319 1:22 2:15 3:6.3188 4:0.273 5:1.82115 
0.01565625665233897 1:7 2:6 3:3.64402 4:0.444 5:1.98766 
0.001123011126189415 1:14 2:9 3:7.21149 4:0.3325 5:1.91624 
0.02134538506448727 1:7 2:25 3:7.34984 4:0.343 5:1.91854 
0.01292558757548503 1:26 2:6 3:25.623 4:0.278 5:1.85073 
0.0294835585009768 1:11 2:24 3:10.489 4:0.4345 5:1.96441 
0.01021881109578747 1:22 2:7 3:29.8766 4:0.416 5:1.95376 
0.04504473253807861 1:13 2:47 3:9.30254 4:0.432 5:1.98447 
0.02249962648963619 1:30 2:15 3:27.0589 4:0.3915 5:1.9466 
0.0403482213696774 1:6 2:7 3:67.3825 4:0.429 5:1.98474 
0.05178907336666477 1:27 2:32 3:3.70951 4:0.4045 5:1.97303 
0.05217274484376688 1:29 2:1 3:91.4616 4:0.402 5:1.97115 
0.05227963113961927 1:19 2:51 3:4.7969 4:0.429 5:1.98499 
1 1:6 2:1 3:0.538491 4:0.576 5:1.91162 
0.0378599903964026 1:35 2:39 3:48.7619 4:0.474 5:1.99148 
0.04617099336896208 1:2 2:34 3:6.15618 4:0.4185 5:1.97993 
0.002095096622398386 1:33 2:13 3:33.0821 4:0.356 5:1.9266 
0.03627708745227914 1:33 2:4 3:50.75 4:0.3855 5:1.96035 
0.0008311023844028709 1:22 2:3 3:10.8623 4:0.3655 5:1.94678 
0.005288604050210867 1:13 2:8 3:6.23769 4:0.3745 5:1.95342 
0.03395504163749422 1:21 2:17 3:10.6864 4:0.3935 5:1.94667 
0.003673716013775876 1:28 2:10 3:28.7615 4:0.3745 5:1.93664 
0.05181577103537126 1:23 2:35 3:20.2504 4:0.4585 5:1.99145 
0.02353507006731858 1:34 2:13 3:31.8846 4:0.3635 5:1.94425 
0.01578770416652661 1:24 2:7 3:32.9891 4:0.4025 5:1.96536 
0.01123827371283191 1:31 2:7 3:34.2413 4:0.376 5:1.94943 
0.05171722345349826 1:13 2:50 3:27.6277 4:0.4255 5:1.98225 
0.006600901369388274 1:8 2:9 3:9.54613 4:0.3745 5:1.93926 
0.03888958196381631 1:1 2:11 3:18.9557 4:0.3845 5:1.95949 
0.008515672608812048 1:25 2:9 3:30.6842 4:0.3895 5:1.95381 
0.04557786992246778 1:40 2:42 3:50.4286 4:0.3985 5:1.96466 
0.02697336476467751 1:14 2:1 3:14.7501 4:0.426 5:1.98243 
0.003904449797415672 1:10 2:18 3:5.02022 4:0.397 5:1.96916 
0.03894115885790894 1:25 2:52 3:35.8688 4:0.395 5:1.96742 
0.05270845528840484 1:38 2:67 3:4.0257 4:0.444 5:1.99069 
0.0515224508828866 1:1 2:31 3:14.0653 4:0.42 5:1.97631 
0.04055474828665049 1:24 2:48 3:35.9364 4:0.4155 5:1.97431 
0.05139038702376902 1:27 2:28 3:36.1927 4:0.4265 5:1.9807 
0.04300853917680424 1:4 2:42 3:34.0476 4:0.431 5:1.97988 
0.01986804118195524 1:15 2:1 3:48.25 4:0.3805 5:1.94845 
0.01587309787165664 1:28 2:11 3:22.4145 4:0.355 5:1.93199 
0.00312287014183474 1:12 2:10 3:11.3277 4:0.4795 5:1.99252 
0.0208724185917767 1:30 2:13 3:25.4354 4:0.4265 5:1.98344 
0.00633547354579129 1:30 2:9 3:41.2818 4:0.3745 5:1.95315 
0.1747696566565607 1:2 2:45 3:2.33162 4:0.5735 5:1.98269 
0.02172509162943528 1:24 2:5 3:9.75934 4:0.503 5:1.99864 
0.004975000806645809 1:9 2:11 3:8.77778 4:0.5215 5:1.99616 
0.02907040555176851 1:23 2:4 3:23.957 4:0.4605 5:1.97604 
0.03549120962298069 1:12 2:12 3:19.5331 4:0.62 5:1.9571 
0.01722924729445921 1:5 2:26 3:7.06394 4:0.56 5:1.98368 
0.01300115490538197 1:11 2:19 3:7.92471 4:0.5645 5:1.98645 
0.05280850129284276 1:63 2:1 3:100.166 4:0.518 5:1.96718 
0.0479605760849679 1:27 2:14 3:11.0087 4:0.698 5:1.87727 
0.008828839958407074 1:23 2:11 3:9.92985 4:0.67 5:1.90457 
0.0202442131317867 1:9 2:20 3:1.77986 4:0.6355 5:1.93274 
0.05288632108701358 1:83 2:240 3:5.24645 4:0.4155 5:1.95549 
0.03520758108068421 1:18 2:14 3:3.32764 4:0.435 5:1.95325 
0.04749857661624535 1:1 2:45 3:6.98214 4:0.443 5:1.95462 
0.05273796428750072 1:46 2:12 3:4.09373 4:0.4555 5:1.94967 
0.05282587226184032 1:71 2:21 3:7.57564 4:0.4565 5:1.91508 
0.01581607411892009 1:2 2:40 3:4.11587 4:0.446 5:1.90681 
0.05284345271456814 1:171 2:58 3:3.01436 4:0.45 5:1.92774 
0.01424403387564452 1:6 2:8 3:16.781 4:0.3595 5:1.93581 
0.04845817236121436 1:1 2:14 3:93.5967 4:0.3955 5:1.82122 
0.008098848057953092 1:10 2:1 3:6.16196 4:0.53 5:1.92838 
0.05332677275858166 1:1 2:49 3:75.5475 4:0.3105 5:1.84753 
0.036634425578848 1:4 2:2 3:41.2617 4:0.438 5:1.98776 
0.006880014981010332 1:2 2:3 3:55.8566 4:0.3655 5:1.94455 
0.05256089083177473 1:6 2:1 3:148.258 4:0.427 5:1.98218 
0.002883838683915518 1:1 2:1 3:9.58804 4:0.6485 5:1.91576 
0.05326550771192268 1:1 2:470 3:0.820111 4:0.583 5:1.91031 
0.004949148340200557 1:23 2:8 3:37.9569 4:0.507 5:1.95855 
0.04749285324934666 1:29 2:15 3:4.58107 4:0.5645 5:1.96682 
0.0005960315945667722 1:6 2:6 3:5.03797 4:0.511 5:1.9835 
0.05288608520522342 1:9 2:127 3:3.81395 4:0.4865 5:1.74525 
0.05281464084023602 1:1 2:385 3:18.5196 4:0.4845 5:1.45589 
0.05758227843574132 1:5 2:85 3:0.951788 4:0.4805 5:1.45861 
0.01085822667483637 1:1 2:1 3:11.7882 4:0.486 5:1.4784 
0.02463199737731846 1:10 2:7 3:17.95 4:0.545 5:1.94148 
0.03773363907008716 1:49 2:23 3:13.1865 4:0.5145 5:1.99428 
1 1:1 2:50 3:1.37847 4:0.501 5:1.98659 
0.03631188213773117 1:1 2:1 3:77.2065 4:0.336 5:1.91731 
0.02017565545411301 1:1 2:3 3:19.6837 4:0.522 5:1.99744 
0.04906678237390238 1:68 2:1 3:5.97197 4:0.598 5:1.97095 
0.05258863031305766 1:70 2:19 3:92.4316 4:0.5935 5:1.97243 
0.05258749104333049 1:116 2:1 3:68.6115 4:0.516 5:1.99901 
0.05253932795992677 1:122 2:5 3:3.0261 4:0.5045 5:1.99986 
0.04980495360225046 1:3 2:11 3:93.3926 4:0.4775 5:1.99428 
0.03429957059188966 1:5 2:6 3:32.2386 4:0.483 5:1.98796 
0.05279387890600007 1:15 2:5 3:138.489 4:0.4735 5:1.9876 
0.05293232687911537 1:19 2:4 3:108.339 4:0.5755 5:1.96067 
0.01658070497998196 1:33 2:3 3:39.8148 4:0.329 5:1.91216 
0.04112286837576107 1:25 2:50 3:42.9712 4:0.3085 5:1.88748 
0.03846216734400729 1:37 2:9 3:49.4932 4:0.381 5:1.95568 
0.05271061455467102 1:43 2:70 3:0.564102 4:0.351 5:1.93378 
0.05059934723530179 1:13 2:56 3:21.0952 4:0.3565 5:1.93862 
1 1:5 2:1 3:0.417953 4:0.391 5:1.96543 
0.05085640339569714 1:35 2:3 3:57.8 4:0.4625 5:1.99528 
0.05271082370880142 1:37 2:46 3:30.6509 4:0.343 5:1.92669 
0.001136039763262153 1:8 2:20 3:7.48984 4:0.3685 5:1.94511 
0.04861708289069155 1:26 2:46 3:28.8785 4:0.379 5:1.95599 
0.0227522787853014 1:21 2:5 3:31.3671 4:0.4225 5:1.97996 
0.05228138597464871 1:17 2:30 3:36.6 4:0.393 5:1.9663 
0.05259771346345793 1:33 2:26 3:14.1918 4:0.34 5:1.92456 
0.02261709484430415 1:11 2:23 3:2.49032 4:0.529 5:1.98974 
0.005510032033951461 1:6 2:22 3:7.21514 4:0.46 5:1.99466 
0.02202047903161462 1:16 2:10 3:19.6825 4:0.4495 5:1.98985 
0.03629473814120273 1:43 2:1 3:55.8571 4:0.3915 5:1.96459 
0.02468112173061812 1:1 2:4 3:10.6909 4:0.3685 5:1.90857 
0.05065693861400022 1:14 2:43 3:14.328 4:0.422 5:1.9779 
0.04734435584498314 1:17 2:29 3:44.75 4:0.3635 5:1.91487 
0.03437412431756565 1:31 2:40 3:30.2358 4:0.3105 5:1.8918 
0.02390097023781784 1:1 2:3 3:66.4818 4:0.346 5:1.92399 
1 1:1 2:4 3:0.595757 4:0.3335 5:1.91225 
0.002009897355440062 1:6 2:2 3:10.3487 4:0.328 5:1.90803 
0.05248608390325166 1:1 2:1 3:135.443 4:0.3255 5:1.9058 
1 1:1 2:20 3:0.469446 4:0.3145 5:1.89332 
1 1:1 2:1 3:0.436393 4:0.3675 5:1.94224 
0.03664760447086393 1:21 2:42 3:39.9011 4:0.3805 5:1.95722 
0.001698725816078008 1:24 2:3 3:14.2439 4:0.3495 5:1.92701 
0.03777174790827829 1:34 2:1 3:50.7143 4:0.362 5:1.94242 
0.05267055070173035 1:27 2:17 3:51.6212 4:0.367 5:1.93535 
0.001063723288204255 1:17 2:3 3:9.77667 4:0.3965 5:1.96848 
0.02391688308818698 1:19 2:23 3:13.2542 4:0.3215 5:1.90423 
0.003990635701090836 1:15 2:10 3:6.16973 4:0.392 5:1.96213 
0.01740664720137597 1:22 2:13 3:20.3895 4:0.4545 5:1.98228 
0.01841904493921109 1:22 2:1 3:41.1905 4:0.406 5:1.96934 
0.008975132663054441 1:32 2:9 3:36.0189 4:0.379 5:1.95709 
0.05272059138578311 1:4 2:1 3:71.2957 4:0.4195 5:1.7551 
0.05162665271835368 1:13 2:36 3:40.0134 4:0.47 5:1.99395 
0.03331710201358154 1:16 2:9 3:23.9255 4:0.311 5:1.83797 
0.03057111155081849 1:4 2:38 3:11.2127 4:0.3245 5:1.90606 
0.00608657386374848 1:15 2:27 3:6.76732 4:0.4925 5:1.99813 
0.024700968348125 1:7 2:22 3:7.80645 4:0.404 5:1.96596 
0.05282849976378728 1:79 2:8 3:36.6714 4:0.503 5:1.89487 
0.002118773934001217 1:9 2:27 3:6.18807 4:0.445 5:1.98156 
0.004395100715223364 1:1 2:2 3:13.6119 4:0.345 5:1.92023 
0.03041536339590294 1:1 2:1 3:41.6673 4:0.4485 5:1.96464 
0.01612075354492595 1:5 2:4 3:8.97362 4:0.4815 5:1.7886 
0.008367587949105665 1:8 2:1 3:8.58108 4:0.4215 5:1.76004 
0.02887818647397494 1:2 2:10 3:15.2963 4:0.4815 5:1.99336 
0.04853151758632057 1:2 2:3 3:58.665 4:0.373 5:1.79874 
0.01347886371447393 1:10 2:1 3:9.32358 4:0.3855 5:1.83316 
0.05315036359965458 1:11 2:1 3:150.441 4:0.378 5:1.83623 
0.03977895853926781 1:1 2:4 3:54.9103 4:0.387 5:1.91535 
0.05249765347980823 1:19 2:106 3:8.76884 4:0.482 5:1.77179 
0.05278719807567189 1:2 2:68 3:6.35931 4:0.4805 5:1.74582 
0.05248308312433592 1:14 2:1 3:68.5326 4:0.476 5:1.79128 
-1 1:29 2:0 3:0.128718 4:0.557 5:1.97577 
-1 1:9 2:0 3:0.155062 4:0.4245 5:1.98036 
-1 1:0 2:27 3:0.151308 4:0.3505 5:1.93363 
-1 1:0 2:95 3:0.115767 4:0.392 5:1.96607 
-1 1:0 2:170 3:0.276684 4:0.3635 5:1.82618 
-1 1:0 2:49 3:0.261703 4:0.4155 5:1.78091 
-1 1:0 2:147 3:0.111327 4:0.367 5:1.90974 
-0.6910516509045225 1:0 2:10 3:0.347839 4:0.372 5:1.95174 
-1 1:0 2:266 3:0.06409 4:0.369 5:1.94296 
-0.8659836924158671 1:5 2:0 3:0.339869 4:0.3465 5:1.92025 
-1 1:1 2:0 3:0.408415 4:0.624 5:1.95343 
-1 1:0 2:54 3:0.127216 4:0.557 5:1.83981 
-1 1:2 2:0 3:0.375785 4:0.65 5:1.92744 
-1 1:0 2:21 3:0.112964 4:0.462 5:1.99127 
-1 1:0 2:2 3:0.401555 4:0.579 5:1.97664 
-0.9729866106394752 1:6 2:0 3:0.313897 4:0.6465 5:1.93441 
-0.9081482281432764 1:0 2:14 3:0.393046 4:0.415 5:1.97846 
-0.9473045815414973 1:0 2:40 3:0.216619 4:0.382 5:1.95896 
-1 1:10 2:0 3:0.374709 4:0.6375 5:1.89861 
-0.3649827237039254 1:5 2:0 3:0.367381 4:0.6365 5:1.90717 
-0.3644226694326291 1:0 2:12 3:0.389762 4:0.59 5:1.97631 
-0.6764269370687629 1:0 2:30 3:0.136499 4:0.387 5:1.95889 
-0.8105618284077244 1:0 2:9 3:0.384601 4:0.3825 5:1.9491 
-1 1:0 2:14 3:0.397196 4:0.633 5:1.94781 
-1 1:5 2:0 3:0.408394 4:0.581 5:1.96208 
-1 1:0 2:1 3:0.410679 4:0.523 5:1.99827 
-0.404488400065086 1:0 2:24 3:0.266348 4:0.3485 5:1.92922 
-0.3679143040789357 1:0 2:1 3:0.410299 4:0.5085 5:1.99945 
-1 1:0 2:11 3:0.365007 4:0.576 5:1.97962 
-0.04865556288557449 1:0 2:22 3:0.227231 4:0.403 5:1.9556 
-1 1:0 2:914 3:0.05161 4:0.4095 5:1.97453 
-0.4497517668646099 1:0 2:8 3:0.372817 4:0.3955 5:1.72775 
-1 1:42 2:722 3:0.372817 4:0.3955 5:1.72775 
-0.6048967449168521 1:0 2:16 3:0.331186 4:0.5205 5:1.9872 
-0.9293774577178795 1:0 2:17 3:0.368199 4:0.5615 5:1.93697 
-0.9563171742979852 1:0 2:34 3:0.019695 4:0.4845 5:1.9871 
-0.6263374477686401 1:0 2:13 3:0.408806 4:0.374 5:1.9518 
-1 1:0 2:214 3:0.249559 4:0.4065 5:1.97354 
-1 1:0 2:128 3:0.409373 4:0.369 5:1.94784 
-1 1:0 2:970 3:0.022105 4:0.368 5:1.94902 
-0.4163220106662011 1:0 2:13 3:0.33923 4:0.2115 5:1.52514 
-0.7359742066301476 1:0 2:7 3:0.389135 4:0.5405 5:1.96621 
-1 1:0 2:9 3:0.393925 4:0.284 5:1.86062 
-0.4430182025010395 1:0 2:28 3:0.343908 4:0.435 5:1.96817 
-0.4505902574839394 1:0 2:1 3:0.091518 4:0.465 5:1.26073 
-1 1:0 2:757 3:0.167816 4:0.344 5:1.90071 
