svm_type c_svc
kernel_type linear
nr_class 2
total_sv 216
rho 4.97291
label 1 -1
probA 0
probB 4.14863
nr_sv 108 108
SV
1 1:3 2:1 3:0.438763 4:1.95106 
1 1:5 2:42 3:0.435796 4:1.97857 
1 1:1 2:1 3:0.580294 4:1.97101 
1 1:2 2:2 3:0.520456 4:1.98904 
1 1:1 2:13 3:0.458489 4:1.96979 
1 1:1 2:1 3:0.45874 4:1.98283 
1 1:4 2:4 3:0.478288 4:1.99561 
1 1:3 2:1 3:0.450133 4:1.98526 
1 1:1 2:2 3:0.423262 4:1.96623 
1 1:1 2:1 3:0.487118 4:1.94426 
1 1:1 2:1 3:0.430807 4:1.94242 
1 1:1 2:1 3:0.567038 4:1.98886 
0.04305522698862038 1:4 2:1 3:0.581028 4:1.89044 
1 1:1 2:3 3:0.556113 4:1.96513 
1 1:2 2:13 3:0.48331 4:1.90051 
1 1:1 2:1 3:0.478691 4:1.97953 
1 1:1 2:1 3:0.528287 4:1.92464 
1 1:9 2:4 3:0.421242 4:1.96853 
1 1:8 2:6 3:0.475061 4:1.95983 
1 1:8 2:6 3:0.475061 4:1.95826 
1 1:1 2:1 3:0.494528 4:1.9567 
1 1:1 2:1 3:0.484345 4:1.95898 
1 1:1 2:1 3:0.569068 4:1.95232 
1 1:1 2:1 3:0.502342 4:1.9636 
1 1:4 2:1 3:0.573596 4:1.91386 
1 1:1 2:1 3:0.521087 4:1.99766 
1 1:1 2:1 3:0.460631 4:1.98811 
1 1:1 2:1 3:0.485349 4:1.95663 
1 1:1 2:1 3:0.490666 4:1.99711 
1 1:2 2:1 3:0.463664 4:1.97483 
1 1:1 2:1 3:0.426209 4:1.99445 
1 1:1 2:10 3:0.484857 4:1.93838 
1 1:4 2:3 3:0.441905 4:1.98915 
1 1:2 2:2 3:0.512224 4:1.95394 
1 1:1 2:1 3:0.493299 4:1.9585 
1 1:2 2:4 3:0.473525 4:1.95162 
1 1:2 2:2 3:0.546631 4:1.98625 
1 1:5 2:1 3:0.421042 4:1.99396 
1 1:4 2:17 3:0.425321 4:1.97664 
1 1:1 2:1 3:0.546662 4:1.97991 
1 1:3 2:1 3:0.549859 4:1.98661 
1 1:8 2:2 3:0.534415 4:1.9158 
1 1:9 2:1 3:0.434599 4:1.9771 
1 1:2 2:1 3:0.596446 4:1.97999 
1 1:1 2:1 3:0.522076 4:1.97429 
1 1:1 2:3 3:0.454212 4:1.987 
1 1:1 2:2 3:0.569393 4:1.99376 
1 1:3 2:1 3:0.48528 4:1.98548 
1 1:1 2:1 3:0.514089 4:1.95527 
1 1:1 2:1 3:0.411559 4:1.95816 
1 1:1 2:3 3:0.501527 4:1.95884 
1 1:1 2:1 3:0.449315 4:1.95094 
1 1:3 2:2 3:0.509136 4:1.91297 
1 1:1 2:1 3:0.4225 4:1.99529 
1 1:1 2:1 3:0.53007 4:1.99344 
1 1:1 2:1 3:0.485412 4:1.90323 
1 1:1 2:2 3:0.443017 4:1.97418 
1 1:6 2:4 3:0.475437 4:1.66041 
1 1:16 2:22 3:0.454093 4:1.96321 
1 1:3 2:1 3:0.50443 4:1.96008 
1 1:1 2:1 3:0.52021 4:1.97248 
1 1:1 2:1 3:0.553904 4:1.98651 
1 1:8 2:1 3:0.453851 4:1.98252 
1 1:7 2:1 3:0.500736 4:1.95477 
1 1:1 2:1 3:0.437306 4:1.91618 
1 1:2 2:2 3:0.509699 4:1.99915 
1 1:1 2:1 3:0.521855 4:1.931 
1 1:2 2:11 3:0.433988 4:1.84713 
0.226487610278955 1:3 2:445 3:0.570929 4:1.76727 
1 1:1 2:3 3:0.592882 4:1.95776 
1 1:2 2:1 3:0.594078 4:1.99018 
1 1:3 2:1 3:0.538738 4:1.9646 
1 1:1 2:1 3:0.430645 4:1.96541 
1 1:1 2:1 3:0.481935 4:1.97429 
1 1:1 2:1 3:0.437272 4:1.96227 
1 1:1 2:1 3:0.602359 4:1.96572 
1 1:2 2:4 3:0.525389 4:1.96683 
1 1:3 2:494 3:0.525389 4:1.96683 
1 1:2 2:1 3:0.519433 4:1.90756 
1 1:1 2:1 3:0.508064 4:1.98706 
1 1:1 2:1 3:0.478595 4:1.95056 
1 1:3 2:1 3:0.430161 4:1.97137 
1 1:2 2:1 3:0.523713 4:1.99872 
1 1:1 2:1 3:0.572699 4:1.70128 
1 1:1 2:1 3:0.46754 4:1.9733 
1 1:2 2:1 3:0.41311 4:1.89115 
1 1:2 2:2 3:0.471226 4:1.95124 
1 1:1 2:1 3:0.486235 4:1.81606 
1 1:2 2:1 3:0.522775 4:1.93282 
1 1:2 2:1 3:0.518854 4:1.99331 
1 1:3 2:1 3:0.411562 4:1.95988 
1 1:1 2:1 3:0.450569 4:1.94807 
1 1:1 2:8 3:0.450569 4:1.86335 
1 1:1 2:1 3:0.456143 4:1.98743 
1 1:1 2:1 3:0.570747 4:1.98988 
1 1:1 2:1 3:0.420425 4:1.98398 
1 1:1 2:1 3:0.436762 4:1.94517 
1 1:4 2:1 3:0.486897 4:1.95722 
1 1:5 2:1 3:0.464255 4:1.94236 
1 1:6 2:1 3:0.538491 4:1.91162 
1 1:3 2:1 3:0.495198 4:1.98612 
1 1:5 2:1 3:0.417953 4:1.96543 
1 1:2 2:2 3:0.474451 4:1.98315 
1 1:2 2:2 3:0.559451 4:1.93362 
1 1:1 2:4 3:0.595757 4:1.91225 
1 1:1 2:20 3:0.469446 4:1.89332 
1 1:1 2:1 3:0.436393 4:1.94224 
1 1:1 2:1 3:0.548405 4:1.93577 
-0.4399457282455533 1:29 2:0 3:0.128718 4:1.97577 
-1 1:1 2:0 3:0.405731 4:1.9928 
-1 1:1 2:0 3:0.408415 4:1.95343 
-1 1:4 2:0 3:0.397652 4:1.99574 
-1 1:0 2:1 3:0.411216 4:1.98491 
-1 1:0 2:1 3:0.411253 4:1.89751 
-1 1:0 2:1 3:0.411078 4:1.98483 
-1 1:0 2:1 3:0.411226 4:1.96296 
-1 1:10 2:0 3:0.374709 4:1.89861 
-1 1:5 2:0 3:0.367381 4:1.90717 
-1 1:1 2:0 3:0.404156 4:1.98728 
-1 1:1 2:0 3:0.4034 4:1.96402 
-7.189006649302173e-06 1:1 2:0 3:0.401381 4:1.95235 
-1 1:0 2:1 3:0.411081 4:1.9463 
-1 1:4 2:0 3:0.385749 4:1.99252 
-1 1:0 2:1 3:0.411042 4:1.97806 
-1 1:0 2:1 3:0.411216 4:1.99463 
-1 1:0 2:1 3:0.411161 4:1.98559 
-1 1:5 2:0 3:0.408394 4:1.96208 
-1 1:1 2:0 3:0.402046 4:1.87863 
-1 1:2 2:0 3:0.400403 4:1.96681 
-1 1:42 2:722 3:0.372817 4:1.72775 
-1 1:2 2:0 3:0.40704 4:1.96856 
-1 1:0 2:128 3:0.409373 4:1.94784 
-1 1:1 2:0 3:0.408339 4:1.99484 
-1 1:1 2:0 3:0.406732 4:1.99076 
-1 1:0 2:1 3:0.411115 4:1.98269 
-1 1:3 2:0 3:0.385202 4:1.97929 
-1 1:0 2:1 3:0.41104 4:1.98654 
-1 1:1 2:0 3:0.408854 4:1.9961 
-1 1:1 2:0 3:0.409564 4:1.99581 
-1 1:1 2:0 3:0.407878 4:1.96166 
-1 1:1 2:0 3:0.40821 4:1.92529 
-1 1:0 2:1 3:0.411246 4:1.96674 
-1 1:0 2:1 3:0.411081 4:1.97932 
-1 1:0 2:1 3:0.41107 4:1.9545 
-1 1:40 2:0 3:0.143553 4:1.85579 
-1 1:2 2:0 3:0.40498 4:1.93681 
-1 1:1 2:0 3:0.401724 4:1.90706 
-1 1:1 2:0 3:0.410742 4:1.99898 
-1 1:0 2:1 3:0.411252 4:1.94122 
-1 1:7 2:0 3:0.406359 4:1.99671 
-1 1:0 2:1 3:0.411081 4:1.96218 
-1 1:1 2:0 3:0.407349 4:1.93138 
-1 1:4 2:0 3:0.388698 4:1.95647 
-1 1:0 2:1 3:0.411224 4:1.97594 
-1 1:0 2:1 3:0.411237 4:1.88064 
-1 1:0 2:1 3:0.411088 4:1.98659 
-1 1:0 2:1 3:0.411148 4:1.96297 
-1 1:0 2:1 3:0.411143 4:1.90065 
-1 1:2 2:0 3:0.395664 4:1.91911 
-1 1:2 2:0 3:0.39499 4:1.99477 
-1 1:0 2:1 3:0.411114 4:1.92165 
-1 1:2 2:0 3:0.401007 4:1.97098 
-1 1:2 2:0 3:0.403939 4:1.91044 
-1 1:0 2:1 3:0.411237 4:1.97989 
-1 1:1 2:0 3:0.402461 4:1.97361 
-1 1:2 2:0 3:0.401607 4:1.8911 
-1 1:0 2:1 3:0.411235 4:1.97285 
-1 1:3 2:0 3:0.397262 4:1.99247 
-1 1:0 2:1 3:0.411235 4:1.93545 
-1 1:1 2:0 3:0.401467 4:1.94595 
-1 1:1 2:0 3:0.406425 4:1.96437 
-1 1:2 2:0 3:0.394537 4:1.98136 
-1 1:0 2:1 3:0.411216 4:1.95478 
-1 1:1 2:0 3:0.408541 4:1.94447 
-1 1:0 2:1 3:0.411215 4:1.96233 
-1 1:2 2:0 3:0.410435 4:1.95922 
-1 1:0 2:1 3:0.411224 4:1.95024 
-1 1:2 2:0 3:0.395141 4:1.9531 
-1 1:0 2:1 3:0.41106 4:1.97835 
-0.8295899200153767 1:0 2:1 3:0.411151 4:1.89271 
-1 1:0 2:1 3:0.411226 4:1.95544 
-1 1:0 2:1 3:0.411194 4:1.98917 
-1 1:0 2:1 3:0.411215 4:1.98043 
-1 1:1 2:0 3:0.402898 4:1.97829 
-1 1:0 2:1 3:0.411215 4:1.95505 
-1 1:0 2:1 3:0.411246 4:1.9574 
-1 1:2 2:0 3:0.405853 4:1.98431 
-1 1:2 2:0 3:0.408541 4:1.89888 
-1 1:1 2:0 3:0.40441 4:1.94862 
-1 1:1 2:0 3:0.41034 4:1.94107 
-1 1:0 2:1 3:0.41104 4:1.97123 
-1 1:0 2:1 3:0.411161 4:1.97079 
-1 1:0 2:1 3:0.41106 4:1.95029 
-1 1:0 2:1 3:0.411252 4:1.96786 
-1 1:2 2:0 3:0.398064 4:1.85682 
-1 1:0 2:1 3:0.411253 4:1.98029 
-1 1:3 2:0 3:0.408996 4:1.94688 
-1 1:0 2:1 3:0.411085 4:1.9634 
-1 1:0 2:1 3:0.411253 4:1.97202 
-1 1:1 2:0 3:0.406662 4:1.85978 
-1 1:0 2:1 3:0.411252 4:1.99965 
-1 1:2 2:0 3:0.406792 4:1.97213 
-1 1:35 2:0 3:0.378493 4:1.9947 
-1 1:1 2:0 3:0.410042 4:1.95092 
-1 1:1 2:0 3:0.407489 4:1.95056 
-1 1:2 2:0 3:0.407609 4:1.9388 
-1 1:9 2:0 3:0.330158 4:1.92165 
-1 1:0 2:4 3:0.411226 4:1.93832 
-1 1:0 2:1 3:0.411078 4:1.97009 
-1 1:1 2:0 3:0.40208 4:1.93804 
-1 1:1 2:0 3:0.401833 4:1.9567 
-1 1:1 2:0 3:0.409367 4:1.9929 
-1 1:1 2:0 3:0.403439 4:1.87292 
-1 1:1 2:0 3:0.40858 4:1.97348 
-1 1:5 2:0 3:0.386564 4:1.96355 
-1 1:1 2:0 3:0.408542 4:1.92913 
