svm_type c_svc
kernel_type rbf
gamma 0.25
nr_class 2
total_sv 1898
rho -0.950584
label 1 -1
probA 0
probB 4.14863
nr_sv 1795 103
SV
0.03182332833042838 1:11 2:1 3:24.7495 4:1.99531 
0.02111963011822722 1:31 2:13 3:35.6277 4:1.97331 
0.02631914020929272 1:21 2:1 3:15.7293 4:1.991 
0.04837918155034132 1:15 2:51 3:32.8464 4:1.98005 
0.01105008209174812 1:30 2:9 3:35.2901 4:1.89053 
0.0319286289059673 1:8 2:32 3:7.97284 4:1.84065 
0.004406474595520294 1:12 2:19 3:6.47891 4:1.98765 
0.04944305065719762 1:39 2:66 3:48.7907 4:1.98974 
0.04877891792344818 1:28 2:42 3:9.51028 4:1.97939 
0.01786460309426414 1:13 2:33 3:5.2789 4:1.9564 
0.0101536307461465 1:39 2:8 3:46.3841 4:1.96315 
0.0399891648607521 1:20 2:4 3:34.2924 4:1.93032 
0.02574325022165602 1:1 2:3 3:14.8739 4:1.96688 
0.04118829786438943 1:27 2:9 3:50.8651 4:1.91236 
0.0151734406933663 1:6 2:5 3:3.72995 4:1.97331 
0.01816210313468245 1:14 2:1 3:4.17879 4:1.99564 
0.03853179801800376 1:34 2:10 3:2.80871 4:1.99206 
0.04706929298024956 1:5 2:42 3:0.435796 4:1.97857 
0.01340634657454775 1:20 2:4 3:8.40115 4:1.95023 
0.0006114450105115243 1:16 2:5 3:6.14137 4:1.97709 
0.02995532274428582 1:24 2:44 3:35.1267 4:1.96633 
0.03916290008169541 1:20 2:14 3:17.4335 4:1.9709 
0.0204876287389193 1:24 2:4 3:33.2464 4:1.93315 
0.03772381274729113 1:23 2:21 3:13.3819 4:1.99778 
1 1:1 2:13 3:0.458489 4:1.96979 
0.04927546846257419 1:12 2:22 3:32.1498 4:1.95891 
0.008014240337716251 1:14 2:23 3:4.12667 4:1.97564 
0.02797110262441417 1:47 2:48 3:59.1429 4:1.95225 
0.02090019183864845 1:29 2:12 3:37.0157 4:1.93399 
0.0366031873009063 1:9 2:1 3:27.5138 4:1.98504 
0.02902488047346271 1:3 2:7 3:15.8182 4:1.51227 
0.03517778142937234 1:1 2:3 3:33.4027 4:1.95659 
0.0494293919931959 1:29 2:2 3:153.279 4:1.39689 
0.04894220789523457 1:10 2:4 3:50.3876 4:1.79972 
1 1:1 2:14 3:1.01783 4:1.79808 
0.0155728428442321 1:3 2:8 3:7.58431 4:1.79908 
0.04942345841579071 1:1 2:171 3:7.58431 4:1.79736 
0.01530636232581206 1:1 2:4 3:16.654 4:1.77442 
0.0496775688203771 1:1 2:363 3:5.04629 4:1.95092 
0.04938702270693185 1:43 2:37 3:6.84804 4:1.90807 
0.04933812810217492 1:51 2:590 3:0.656205 4:1.90824 
0.1803929490536197 1:2 2:47 3:1.02855 4:1.9097 
0.04930596232814571 1:37 2:186 3:2.1473 4:1.90065 
0.04942888260759987 1:42 2:17 3:4.64571 4:1.90912 
0.02128086212431908 1:1 2:1 3:5.31639 4:1.90621 
0.0006582072913368098 1:1 2:1 3:9.81052 4:1.89167 
0.01146645365231553 1:2 2:3 3:17.1497 4:1.89264 
0.04722348301944507 1:29 2:4 3:4.54055 4:1.89584 
0.0161431530136866 1:13 2:1 3:15.8456 4:1.96788 
0.02577232289299818 1:9 2:1 3:15.8456 4:1.96389 
0.004370550536332035 1:8 2:7 3:5.45406 4:1.9879 
0.03959231506320021 1:34 2:18 3:27.1382 4:1.99223 
0.04099366381689958 1:6 2:35 3:5.58653 4:1.97518 
0.01537676584637522 1:11 2:9 3:5.12667 4:1.92179 
0.02076738606991861 1:23 2:7 3:21.423 4:1.97456 
0.0301421540849402 1:19 2:9 3:16.0027 4:1.92207 
0.001305157110571997 1:14 2:11 3:6.9799 4:1.92973 
0.004715498200428854 1:18 2:3 3:4.71995 4:1.92716 
0.0008612439418954412 1:6 2:20 3:4.25481 4:1.90944 
0.02749791870240309 1:6 2:8 3:12.5528 4:1.95845 
1 1:11 2:1 3:0.668191 4:1.99362 
0.01239257898846012 1:30 2:3 3:41.0476 4:1.93194 
0.04863598377718004 1:16 2:20 3:36.1005 4:1.95645 
0.01393854295164745 1:22 2:7 3:40.2028 4:1.99486 
0.0009730516045598596 1:17 2:6 3:6.05171 4:1.97829 
0.02294606336665456 1:28 2:1 3:48.5 4:1.99663 
0.01934754418141216 1:24 2:48 3:44.2625 4:1.85555 
0.001660005504932211 1:7 2:21 3:4.96617 4:1.99095 
0.023640808953712 1:16 2:13 3:8.95977 4:1.93596 
0.01836052405293104 1:6 2:25 3:2.29592 4:1.9924 
0.02210666430637026 1:15 2:13 3:22.7057 4:1.85686 
0.007146338416601668 1:27 2:13 3:32.1146 4:1.97157 
0.01014084980270311 1:11 2:16 3:4.12223 4:1.97799 
0.0363382101494702 1:16 2:44 3:42.3103 4:1.97395 
0.04462852669582634 1:4 2:54 3:42.65 4:1.98036 
0.004263704699093566 1:13 2:24 3:5.33983 4:1.98672 
0.03324746211514079 1:31 2:37 3:44.3321 4:1.96841 
0.030769094303218 1:30 2:42 3:43.8095 4:1.92915 
0.01334906897554389 1:17 2:8 3:4.10078 4:1.93688 
0.04846176262866941 1:27 2:50 3:28.5168 4:1.96003 
0.03657605704823805 1:18 2:1 3:22.1015 4:1.74195 
0.04916615562957727 1:22 2:31 3:38.5238 4:1.99064 
0.0402490921760662 1:23 2:15 3:15.497 4:1.98298 
0.03538444906489857 1:35 2:3 3:28.7978 4:1.98621 
0.04932449180228199 1:44 2:19 3:39.7492 4:1.98674 
0.001126458198235894 1:29 2:5 3:36.5012 4:1.99439 
0.0416084153065563 1:8 2:15 3:13.9607 4:1.94257 
0.04909844751720677 1:23 2:42 3:0.440413 4:1.97592 
0.007703766914457691 1:16 2:15 3:5.33164 4:1.97235 
0.01746311725965049 1:14 2:25 3:3.47529 4:1.99937 
0.001653743045972472 1:8 2:18 3:9.81068 4:1.98448 
0.00701344906118483 1:27 2:15 3:29.9333 4:1.99455 
0.02846710356889381 1:6 2:2 3:28.4055 4:1.98548 
0.0280982280986084 1:19 2:30 3:11.3593 4:1.98822 
0.01065025783650173 1:1 2:1 3:10.5954 4:1.95714 
0.03420655018692526 1:7 2:43 3:14.6054 4:1.90632 
0.01478067925781298 1:9 2:3 3:25.5195 4:1.94129 
0.006077799704800947 1:13 2:31 3:8.07152 4:1.97093 
0.01175403456777357 1:14 2:8 3:2.93012 4:1.89438 
0.04128553844972529 1:27 2:9 3:46.7927 4:1.99029 
0.04962183311420315 1:31 2:26 3:20.2694 4:1.93879 
0.004706825689088376 1:17 2:1 3:9.88369 4:1.99574 
0.01574627036435588 1:26 2:8 3:22.1682 4:1.90478 
0.0264417642719943 1:7 2:18 3:8.84115 4:1.97317 
0.02144332003896929 1:13 2:8 3:25.6138 4:1.9636 
0.02626349927372542 1:24 2:23 3:11.3862 4:1.94173 
0.04939572345726656 1:17 2:16 3:57.1468 4:1.87758 
0.009029754576981599 1:18 2:7 3:11.6599 4:1.95504 
0.03222843001726695 1:19 2:12 3:20.9255 4:1.94807 
0.00789329107661927 1:10 2:5 3:8.64858 4:1.96805 
0.004846009466520726 1:12 2:5 3:3.48313 4:1.95961 
0.01315097788822723 1:10 2:7 3:5.16863 4:1.93737 
0.02898705726241013 1:23 2:1 3:16.0886 4:1.94692 
0.03897070857673551 1:22 2:1 3:49.65 4:1.9269 
0.001458970932966308 1:9 2:17 3:4.46757 4:1.95323 
0.04932341320825534 1:22 2:2 3:57.8283 4:1.98506 
1 1:1 2:1 3:0.430807 4:1.94242 
0.01220890613740332 1:17 2:3 3:3.78938 4:1.93368 
0.034762165464782 1:36 2:14 3:38.1516 4:1.94455 
0.002442860174288694 1:12 2:5 3:7.80932 4:1.88403 
0.0194534139196662 1:21 2:6 3:28.4221 4:1.96676 
0.01589244339734274 1:32 2:11 3:33.5219 4:1.98693 
0.03569608590333473 1:20 2:38 3:36.2381 4:1.97889 
0.007346116151815272 1:10 2:6 3:3.22254 4:1.94416 
0.01854074102446106 1:24 2:5 3:42.0476 4:1.99272 
0.04922549327321007 1:22 2:61 3:14.8874 4:1.89948 
0.04931584727234439 1:37 2:9 3:10.9153 4:1.91937 
0.04844291363854047 1:15 2:50 3:7.57761 4:1.95415 
0.02089340774842054 1:15 2:11 3:1.71183 4:1.94507 
0.03163053271774756 1:14 2:13 3:0.745606 4:1.93619 
0.04743211333843739 1:45 2:51 3:56.7143 4:1.91424 
0.3665021112310754 1:1 2:6 3:0.679348 4:1.97509 
0.009398997222319978 1:8 2:11 3:2.29716 4:1.94047 
0.02382201665337333 1:3 2:20 3:9.08391 4:1.93868 
0.01100405421413044 1:8 2:17 3:1.47322 4:1.98596 
0.001337080273954428 1:13 2:21 3:7.55954 4:1.89703 
0.001975067758631701 1:9 2:19 3:9.91999 4:1.92664 
0.0211486089959444 1:5 2:8 3:16.2347 4:1.96673 
0.009704910178572052 1:9 2:3 3:9.78729 4:1.96163 
0.04602109029374624 1:10 2:48 3:10.1665 4:1.99846 
0.031494893264684 1:1 2:9 3:12.3281 4:1.99441 
0.04431336929592089 1:3 2:54 3:45.4294 4:1.99463 
0.04950916590785537 1:246 2:22 3:21.757 4:1.94865 
0.002959828849654135 1:16 2:7 3:4.82501 4:1.97586 
0.01553431279897654 1:5 2:29 3:4.66682 4:1.88111 
0.03358000934123101 1:7 2:45 3:14.1593 4:1.94418 
0.008346982876065489 1:11 2:25 3:4.1228 4:1.97463 
0.003792441248721022 1:11 2:1 3:39.0824 4:1.96225 
0.007505921928177336 1:30 2:9 3:38.5179 4:1.89138 
0.03133444495697948 1:4 2:11 3:10.9151 4:1.94159 
0.04909807477596412 1:7 2:42 3:9.75535 4:1.91503 
0.02726961587524108 1:27 2:12 3:25.6364 4:1.95202 
0.001775285879665633 1:10 2:12 3:5.94701 4:1.95605 
0.01388412085129759 1:30 2:13 3:33.7154 4:1.90182 
0.02551416523394604 1:47 2:48 3:58.2381 4:1.9505 
0.03342619804029424 1:20 2:1 3:19.7696 4:1.93084 
0.01620909700536519 1:15 2:9 3:4.62891 4:1.94065 
0.04943516120784147 1:21 2:79 3:28.3886 4:1.92148 
0.04958568157041437 1:57 2:85 3:29.5004 4:1.93573 
0.01435988457510681 1:7 2:8 3:2.78585 4:1.98285 
0.0485827084270341 1:19 2:48 3:21.6546 4:1.95569 
0.001785377277960853 1:3 2:26 3:5.42162 4:1.93492 
0.008055739983804291 1:16 2:1 3:3.25574 4:1.99506 
0.01991773327562235 1:27 2:5 3:38.973 4:1.94327 
0.008329620499133312 1:12 2:24 3:6.24447 4:1.99782 
0.02619995216063597 1:8 2:19 3:11.2466 4:1.96132 
0.009126442111572122 1:11 2:22 3:8.8926 4:1.98056 
0.02131990274922713 1:4 2:4 3:34.4419 4:1.98483 
0.02782842996104995 1:31 2:4 3:41.9634 4:1.91747 
0.0255310119188613 1:26 2:10 3:10.0226 4:1.9817 
0.04917701433364713 1:37 2:41 3:22.3613 4:1.9483 
0.03284745174202794 1:13 2:1 3:44.2434 4:1.95385 
0.01535039107053283 1:10 2:6 3:7.32769 4:1.90807 
0.01937657377986515 1:18 2:18 3:13.9786 4:1.95385 
0.0327068161394342 1:19 2:26 3:7.08416 4:1.9338 
0.03195213999522204 1:18 2:2 3:32.1111 4:1.94924 
0.03172586499663854 1:23 2:9 3:4.6623 4:1.95426 
0.0146856449876907 1:22 2:13 3:23.1465 4:1.93576 
0.0479468965374214 1:42 2:50 3:59.0226 4:1.87408 
0.04876966392052468 1:1 2:14 3:40.2381 4:1.91181 
0.03288713078016565 1:20 2:14 3:27.9205 4:1.99406 
0.04748140056979039 1:36 2:14 3:26.1393 4:1.93694 
0.01111474139806953 1:12 2:17 3:7.7459 4:1.94038 
0.02205285033561889 1:28 2:9 3:29.9398 4:1.96807 
0.03638349894636361 1:32 2:2 3:34.9048 4:1.91273 
0.02870408298227195 1:15 2:2 3:34.5882 4:1.92545 
0.01006867415497713 1:6 2:21 3:3.75632 4:1.95686 
0.04077358993435654 1:33 2:37 3:11.7111 4:1.96923 
0.04943748606909881 1:39 2:8 3:59.8571 4:1.95023 
0.02946896467807802 1:34 2:6 3:34.8605 4:1.91487 
0.009111424522577396 1:16 2:19 3:9.08393 4:1.92459 
0.04931213614542246 1:22 2:39 3:24.7358 4:1.97185 
0.03096344155507093 1:12 2:30 3:8.55459 4:1.95465 
0.01996572131628844 1:30 2:9 3:33.4399 4:1.95931 
0.008988939461049051 1:21 2:27 3:9.46236 4:1.97191 
0.02790803163773692 1:18 2:11 3:29.6492 4:1.97218 
0.03782437582646096 1:20 2:35 3:11.2738 4:1.84362 
0.03539400363813407 1:1 2:2 3:37.1848 4:1.97012 
0.02877418291786251 1:21 2:31 3:12.5331 4:1.8676 
0.03199166140945886 1:21 2:24 3:12.7223 4:1.8615 
0.005690038576603128 1:15 2:25 3:8.17408 4:1.93474 
0.03877022516140988 1:31 2:13 3:21.7074 4:1.86602 
0.04122442760020073 1:19 2:39 3:33.5238 4:1.92527 
0.03235052782740522 1:6 2:5 3:25.0428 4:1.91667 
0.02597294578877873 1:20 2:7 3:35.6567 4:1.97444 
0.04907154472910169 1:28 2:38 3:51.4599 4:1.93429 
0.01409984676017719 1:21 2:5 3:14.6598 4:1.96304 
0.04945145108407006 1:12 2:21 3:86.4056 4:1.96909 
0.03898937130608687 1:18 2:13 3:32.381 4:1.98329 
0.002193731557289201 1:16 2:3 3:9.26421 4:1.93843 
0.01803228251633041 1:13 2:15 3:9.1803 4:1.98583 
0.03944560516351248 1:10 2:34 3:7.61705 4:1.92429 
0.04563688394740207 1:26 2:4 3:21.5248 4:1.97289 
0.03284381316017632 1:28 2:20 3:9.72633 4:1.99816 
0.01893455902119167 1:11 2:6 3:1.43969 4:1.99046 
0.03371340111110095 1:9 2:6 3:12.3864 4:1.97408 
0.01134006441436486 1:13 2:6 3:4.82382 4:1.98755 
0.02304920179211295 1:14 2:3 3:11.924 4:1.95684 
0.04384480043798533 1:26 2:22 3:8.07339 4:1.86529 
0.01346484280113559 1:22 2:7 3:21.6881 4:1.9725 
0.02758818646254766 1:8 2:6 3:0.475061 4:1.95983 
0.01733563025160922 1:13 2:9 3:2.61584 4:1.96835 
0.0154348041055391 1:20 2:6 3:2.52737 4:1.9616 
0.01991586172970325 1:21 2:5 3:25.2704 4:1.9386 
0.02147295963407453 1:17 2:1 3:4.88339 4:1.91703 
0.01658838335698248 1:14 2:15 3:3.48811 4:1.95134 
0.001744588919067939 1:4 2:2 3:7.22831 4:1.95955 
0.01505258544865452 1:17 2:10 3:17.7343 4:1.93844 
0.04773830721355282 1:4 2:28 3:14.5433 4:1.99361 
0.03468187710726711 1:4 2:38 3:5.94122 4:1.93355 
0.002720835553119562 1:23 2:5 3:8.28536 4:1.90032 
0.006154024064783901 1:25 2:5 3:34.5901 4:1.94889 
0.01406947157474073 1:21 2:5 3:13.2511 4:1.97927 
0.00172471789821428 1:10 2:22 3:5.83477 4:1.90378 
0.003997133944120474 1:23 2:4 3:13.5019 4:1.97356 
0.0429709419509971 1:23 2:5 3:46.1361 4:1.64512 
0.04944544895663777 1:175 2:76 3:8.98253 4:1.92298 
0.04784531903359529 1:3 2:8 3:29.3074 4:1.94397 
0.04930301916662999 1:21 2:37 3:50.0689 4:1.92846 
0.0484663670706727 1:20 2:11 3:48.672 4:1.99499 
0.01325428294943374 1:17 2:7 3:23.0221 4:1.99039 
0.04835930134604566 1:31 2:34 3:15.4537 4:1.97241 
0.01380353431753092 1:12 2:3 3:17.8215 4:1.98481 
0.03973612459532284 1:36 2:6 3:47.7135 4:1.94575 
0.01346161410873374 1:29 2:2 3:36.2862 4:1.97867 
0.04769015317344938 1:13 2:44 3:34.1 4:1.97512 
0.02124731385652604 1:11 2:4 3:9.30113 4:1.93649 
0.005632212446498121 1:15 2:8 3:8.11185 4:1.9122 
0.02825308039293826 1:39 2:10 3:46.78 4:1.93766 
0.02363082026868478 1:23 2:4 3:15.2896 4:1.89679 
0.02567396686647311 1:27 2:11 3:34.1331 4:1.85757 
0.02860664186321987 1:31 2:31 3:44.3333 4:1.88987 
0.03120568449727674 1:21 2:21 3:7.8588 4:1.88067 
0.04967320844407097 1:17 2:22 3:47.85 4:1.91963 
0.02076299206332936 1:32 2:6 3:37.9781 4:1.92667 
0.03783818693453046 1:32 2:35 3:43.0476 4:1.96813 
0.01145069924144554 1:9 2:20 3:7.81503 4:1.92506 
0.04892833635724525 1:18 2:6 3:78.0988 4:1.92202 
0.01632140627689221 1:14 2:10 3:8.50874 4:1.90318 
0.02791316844272175 1:24 2:3 3:11.9709 4:1.91707 
0.006718267256919416 1:15 2:4 3:5.23027 4:1.90721 
0.04207683917992955 1:17 2:16 3:16.7813 4:1.9367 
0.03756638332367332 1:47 2:23 3:12.4074 4:1.9656 
0.01188140719517838 1:16 2:3 3:12.0833 4:1.88089 
0.02174248450322347 1:18 2:13 3:14.4095 4:1.87287 
0.03803848963103229 1:18 2:3 3:0.500595 4:1.88726 
0.03149988165625746 1:32 2:1 3:40.9691 4:1.84849 
0.003805604342673899 1:19 2:11 3:20.3672 4:1.98117 
0.0239370296321474 1:16 2:6 3:24.5867 4:1.98689 
0.01259556285672766 1:17 2:15 3:9.03602 4:1.96547 
0.04922360680155524 1:32 2:52 3:52.5541 4:1.95896 
0.01182250009153524 1:32 2:3 3:36.6682 4:1.89049 
0.02906510623134534 1:20 2:4 3:27.167 4:1.92236 
0.006154923357067233 1:10 2:10 3:6.82444 4:1.91561 
0.01401754263521452 1:16 2:31 3:6.43576 4:1.91655 
0.01642967953019428 1:22 2:10 3:16.3576 4:1.95138 
0.0134162588397434 1:13 2:24 3:7.63399 4:1.94614 
0.02402234289259981 1:25 2:1 3:32.8571 4:1.94301 
0.02366455516963389 1:22 2:24 3:9.60919 4:1.93786 
0.01265333808888536 1:18 2:11 3:6.97169 4:1.98327 
0.03464011439004439 1:21 2:39 3:42.381 4:1.93088 
0.02061147120117086 1:10 2:20 3:12.0907 4:1.92362 
0.005661706723344753 1:28 2:6 3:28.7646 4:1.93127 
0.002596080553830295 1:12 2:21 3:8.12217 4:1.92583 
0.02701779782315537 1:17 2:10 3:30.4806 4:1.9441 
0.008745474238708962 1:24 2:11 3:10.4173 4:1.94737 
0.02538118081315544 1:11 2:21 3:11.0133 4:1.98789 
0.01908154477921577 1:26 2:2 3:43.2857 4:1.90742 
0.004017931415538812 1:8 2:18 3:6.99756 4:1.95517 
0.005374899198582273 1:22 2:7 3:8.57678 4:1.94567 
0.01343775583669999 1:11 2:12 3:10.2755 4:1.94284 
0.04921975683917157 1:15 2:54 3:51.1548 4:1.9243 
0.04932466940342339 1:24 2:27 3:1.31323 4:1.92993 
0.02632954453612215 1:21 2:7 3:17.7833 4:1.99955 
0.02739100400826169 1:34 2:7 3:39.0372 4:1.91712 
0.04523591607715571 1:8 2:23 3:15.4853 4:1.93729 
0.04581868599250266 1:19 2:16 3:24.4133 4:1.89098 
0.001787046029270586 1:16 2:18 3:6.84851 4:1.90085 
0.009121643539788404 1:14 2:14 3:9.33427 4:1.93927 
0.005708894300546738 1:12 2:20 3:5.79953 4:1.96701 
0.00116530317032793 1:34 2:14 3:34.2284 4:1.96124 
0.00518859800633004 1:10 2:20 3:4.10597 4:1.96906 
0.02660552922490267 1:7 2:5 3:32.5212 4:1.93563 
0.001398874625112905 1:11 2:3 3:5.63191 4:1.92114 
0.03517631818409846 1:14 2:44 3:41.5795 4:1.97497 
0.04195336339099598 1:19 2:47 3:31.2472 4:1.9588 
0.1290794493488138 1:4 2:1 3:0.573596 4:1.91386 
0.01171564335273231 1:21 2:27 3:11.3273 4:1.91787 
0.04810398323947906 1:31 2:11 3:55.5823 4:1.90172 
0.02736970652596965 1:4 2:40 3:5.22115 4:1.98213 
0.009091256243731999 1:3 2:14 3:6.28531 4:1.98846 
0.00436483385331459 1:16 2:10 3:14.4974 4:1.98544 
0.01395415047046648 1:9 2:7 3:24.6072 4:1.98319 
0.005295187005994116 1:4 2:5 3:5.81665 4:1.99168 
0.01731051563910815 1:3 2:6 3:7.20438 4:1.98844 
0.04604739099805464 1:36 2:30 3:39.159 4:1.99675 
0.03850486308909656 1:36 2:14 3:48.2073 4:1.92603 
0.04932212787600038 1:17 2:3 3:83.3289 4:1.96652 
0.03936066006568578 1:29 2:9 3:53.1118 4:1.9896 
0.009356912625511903 1:7 2:5 3:8.06961 4:1.85857 
0.04765965742470876 1:7 2:14 3:19.9048 4:1.96083 
0.04378162372081668 1:16 2:53 3:43.8571 4:1.981 
0.03512706988739933 1:10 2:31 3:3.95812 4:1.76132 
0.02782793374198572 1:9 2:1 3:37.4286 4:1.96433 
0.0143715633405237 1:6 2:13 3:3.14853 4:1.99949 
0.02827137698968712 1:22 2:5 3:42.6229 4:1.97548 
0.03287890860651205 1:23 2:35 3:28.5598 4:1.9892 
0.002100805634544419 1:15 2:1 3:6.01112 4:1.99268 
0.04473605061968045 1:36 2:12 3:52.4286 4:1.94241 
0.03225323688349169 1:10 2:7 3:30 4:1.95011 
0.0006711252021955882 1:24 2:3 3:15.3659 4:1.98569 
0.03948023569404929 1:31 2:19 3:9.92217 4:1.93945 
0.006891424873443686 1:20 2:16 3:8.54731 4:1.92971 
0.02236486401307208 1:26 2:41 3:40.8095 4:1.9643 
0.002699839607617672 1:5 2:8 3:3.68996 4:1.98601 
0.01541236551308039 1:5 2:17 3:4.33693 4:1.99439 
0.03576794500706104 1:27 2:16 3:17.2591 4:1.96523 
0.01540451597246757 1:28 2:7 3:31.6352 4:1.9719 
0.04581526418610316 1:30 2:17 3:18.5295 4:1.96907 
0.01903150822996258 1:24 2:10 3:4.31821 4:1.95027 
0.0323975377472534 1:34 2:13 3:47.3353 4:1.95226 
0.0449420208539284 1:28 2:31 3:22.7817 4:1.90898 
0.03704413420377956 1:22 2:1 3:27.8 4:1.9326 
0.03189006152635559 1:30 2:18 3:27.0884 4:1.98423 
0.04358011944621754 1:17 2:12 3:35.2307 4:1.96818 
0.04326615386152775 1:36 2:12 3:30.0898 4:1.96928 
0.005624924193218632 1:8 2:3 3:5.31235 4:1.99119 
0.0472475732534125 1:23 2:51 3:30.7143 4:1.87395 
0.003485159151706829 1:14 2:4 3:6.16566 4:1.96821 
0.01636462283133239 1:8 2:23 3:3.75101 4:1.92037 
0.02888979380992032 1:18 2:7 3:29.903 4:1.99955 
0.04985140189069859 1:4 2:20 3:30.4684 4:1.95864 
0.03631968813483932 1:30 2:20 3:7.81752 4:1.99345 
0.004312490230452742 1:14 2:1 3:7.29641 4:1.89378 
0.03129600873708022 1:20 2:21 3:10.9021 4:1.95238 
0.04883178439864067 1:19 2:42 3:14.4509 4:1.99115 
0.03251914333573441 1:17 2:31 3:12.2806 4:1.97967 
0.02149158993904328 1:29 2:13 3:23.1228 4:1.99399 
0.02528133590605194 1:21 2:4 3:22.9668 4:1.95133 
0.04130649564897566 1:17 2:18 3:0.946322 4:1.91981 
0.01113927104432407 1:10 2:18 3:5.83941 4:1.99377 
0.03535295870393468 1:12 2:5 3:35.2538 4:1.989 
0.04078661341573148 1:17 2:9 3:36.9048 4:1.99028 
0.01553462150895541 1:9 2:1 3:23.2381 4:1.94456 
0.02139949676203365 1:19 2:14 3:11.6241 4:1.99653 
0.02645037754845425 1:19 2:8 3:9.32172 4:1.95991 
0.005327491236311545 1:13 2:16 3:5.84426 4:1.98331 
0.02246363229714962 1:10 2:25 3:2.11034 4:1.95357 
0.04944135606496303 1:10 2:30 3:94.1729 4:1.91357 
0.0203364030938083 1:13 2:6 3:25.6509 4:1.98718 
0.00324714742268865 1:10 2:14 3:2.57861 4:1.96928 
0.04943853942874105 1:14 2:66 3:9.8657 4:1.97938 
0.03284386270933194 1:20 2:1 3:2.58109 4:1.98857 
0.02113369631073775 1:18 2:49 3:44.4263 4:1.96324 
0.01069527565409696 1:27 2:6 3:36.3317 4:1.98375 
0.02112541139100679 1:3 2:22 3:6.8344 4:1.9822 
0.01420833941862016 1:5 2:23 3:4.4685 4:1.97537 
0.0367145864038757 1:6 2:37 3:10.4799 4:1.92187 
0.004101711691966516 1:19 2:13 3:14.3141 4:1.98848 
0.02087626488527167 1:14 2:1 3:42.6289 4:1.97949 
0.01811714668252388 1:1 2:3 3:22.3455 4:1.99739 
0.01110373991091353 1:9 2:1 3:5.81052 4:1.93925 
0.0324642776700601 1:7 2:1 3:46.1645 4:1.98672 
0.0494243668781526 1:1 2:22 3:45.1553 4:1.92664 
1 1:1 2:10 3:0.484857 4:1.93838 
0.02012216514660224 1:6 2:11 3:11.8385 4:1.90032 
0.03016977135735982 1:6 2:1 3:19.7215 4:1.89733 
0.03929272809998308 1:21 2:50 3:15.2994 4:1.96047 
0.04930240916737388 1:34 2:73 3:34.1429 4:1.98438 
0.007083186253576955 1:25 2:2 3:33.9962 4:1.9882 
0.01745101370115493 1:25 2:10 3:36.4726 4:1.95525 
0.04305531745315966 1:18 2:15 3:38.65 4:1.99212 
0.04936653711538819 1:35 2:69 3:52.4762 4:1.93487 
0.01721833168242381 1:13 2:12 3:5.91275 4:1.99211 
0.01123119457720919 1:32 2:12 3:27.5811 4:1.89653 
0.005112314227833425 1:5 2:26 3:5.38945 4:1.93431 
0.01335638029038311 1:17 2:5 3:2.21081 4:1.90927 
0.04895154381642627 1:11 2:48 3:0.789427 4:1.98864 
0.005103396375180587 1:12 2:3 3:7.78922 4:1.99452 
0.01334581339744483 1:9 2:18 3:2.89028 4:1.9921 
0.003831483564275547 1:8 2:15 3:1.74382 4:1.99212 
0.003976165781952812 1:15 2:26 3:6.86197 4:1.99038 
0.007959756483920222 1:11 2:26 3:6.63255 4:1.96895 
0.0333218916644395 1:28 2:8 3:43.0607 4:1.95846 
0.01434526406578631 1:17 2:17 3:14.4713 4:1.98444 
0.02337806389710811 1:27 2:6 3:28.0673 4:1.98601 
0.001465223505631497 1:3 2:2 3:20.0575 4:1.95358 
0.02009710882743688 1:17 2:1 3:1.59912 4:1.99727 
0.02697078115514701 1:1 2:15 3:10.726 4:1.87475 
0.0311358409352942 1:3 2:15 3:14.95 4:1.97971 
0.01491988547880174 1:1 2:10 3:5.75416 4:1.9919 
0.03125018301893589 1:9 2:29 3:6.32233 4:1.99703 
0.01391202418352472 1:9 2:10 3:6.78564 4:1.98532 
0.02995558340177328 1:20 2:12 3:7.39022 4:1.98996 
0.8060703885067573 1:1 2:13 3:1.14 4:1.98134 
0.03439338725101389 1:26 2:18 3:24.8773 4:1.96733 
0.0373906861826902 1:12 2:6 3:15.098 4:1.96014 
0.04135402058957371 1:28 2:13 3:20.2901 4:1.97411 
0.04815136686371962 1:23 2:56 3:31.4301 4:1.86661 
0.02972359492450947 1:23 2:1 3:32.8095 4:1.96267 
0.04701778653220667 1:26 2:60 3:33.7662 4:1.92814 
0.04309108759786773 1:15 2:23 3:24.7143 4:1.98311 
0.0494451690336396 1:68 2:79 3:35.9908 4:1.98294 
0.01533121065457377 1:14 2:12 3:11.49 4:1.98541 
0.007242193150953341 1:12 2:15 3:5.66906 4:1.76981 
0.04937234187449102 1:11 2:1 3:115.819 4:1.96753 
0.03379857717240143 1:17 2:20 3:16.1066 4:1.9761 
0.001639237213767067 1:16 2:1 3:6.02104 4:1.95051 
0.0286544760147916 1:15 2:29 3:12.6195 4:1.97507 
0.008085237678268496 1:21 2:11 3:34.0293 4:1.95836 
0.0452805925573482 1:22 2:21 3:25.6379 4:1.99473 
0.00471729727892312 1:11 2:11 3:2.72474 4:1.97854 
0.01533240217805939 1:23 2:7 3:25.7302 4:1.99972 
0.008809490696685331 1:14 2:3 3:8.71285 4:1.94894 
0.00753385446623594 1:14 2:6 3:8.10647 4:1.99518 
0.02095474725948255 1:26 2:12 3:31.3106 4:1.98757 
0.03097851999959122 1:33 2:2 3:37.8095 4:1.96354 
0.02503481019394085 1:16 2:11 3:12.2562 4:1.94854 
0.02000150834491209 1:21 2:18 3:6.49954 4:1.96967 
0.01160232433481945 1:5 2:4 3:33.0278 4:1.99228 
0.03641864290325059 1:31 2:10 3:25.4692 4:1.99929 
0.04940198134691165 1:1 2:31 3:22.5055 4:1.90062 
0.04745515382660054 1:1 2:1 3:63.3249 4:1.98294 
0.01220666083259684 1:5 2:4 3:7.49694 4:1.99062 
0.0197334266510455 1:19 2:18 3:7.64508 4:1.97231 
0.01375239978338962 1:1 2:3 3:7.97567 4:1.89738 
0.03219009277897483 1:15 2:12 3:20.6457 4:1.98347 
0.007536327664958715 1:12 2:22 3:2.83064 4:1.98082 
0.0009720399374405947 1:16 2:4 3:6.54165 4:1.95801 
0.03300001325335419 1:1 2:15 3:6.60955 4:1.88674 
0.01572958209126926 1:12 2:11 3:7.9701 4:1.93068 
0.01081636998541999 1:2 2:4 3:11.3719 4:1.9724 
0.005410324217888853 1:19 2:6 3:7.96245 4:1.96101 
0.02417583152485812 1:21 2:28 3:11.8007 4:1.99575 
0.0421907468714649 1:1 2:5 3:69.9809 4:1.92163 
0.04973043373050656 1:41 2:94 3:1.78555 4:1.95888 
0.01554514471212127 1:6 2:28 3:4.89489 4:1.95744 
0.04941273225127996 1:8 2:356 3:5.05908 4:1.94767 
0.04943746013802092 1:1 2:163 3:2.02638 4:1.96398 
0.02374288157958655 1:15 2:22 3:3.63515 4:1.98882 
0.006822637836493986 1:22 2:8 3:32.4864 4:1.92346 
0.01839412797897955 1:6 2:14 3:5.11528 4:1.95626 
0.02262141787312762 1:11 2:9 3:16.6851 4:1.95779 
0.02676846109862927 1:32 2:11 3:39.8095 4:1.9269 
0.02072347599087277 1:15 2:26 3:10.0659 4:1.97368 
0.03715350320059074 1:9 2:33 3:10.6378 4:1.84333 
0.01908034004494638 1:22 2:14 3:25.3709 4:1.98891 
0.00757131188807043 1:22 2:13 3:30.8926 4:1.99564 
0.04535098656891096 1:33 2:11 3:19.1157 4:1.96654 
0.03392852485594686 1:22 2:10 3:37.6416 4:1.96349 
0.004372495719099149 1:2 2:14 3:6.13443 4:1.98909 
0.02908698266460375 1:17 2:50 3:41.7619 4:1.99082 
0.005493878982441666 1:19 2:24 3:9.94995 4:1.91552 
0.04110626190511368 1:35 2:38 3:12.9647 4:1.93216 
0.02550110356638304 1:30 2:4 3:29.5916 4:1.9162 
0.03885349182609749 1:17 2:44 3:19.383 4:1.9713 
0.04194567024122708 1:25 2:54 3:33.9048 4:1.98411 
0.02762238005784516 1:33 2:9 3:34.6361 4:1.9727 
0.04152598944293578 1:26 2:9 3:13.6915 4:1.97053 
0.02594932094138824 1:1 2:11 3:8.04548 4:1.91607 
0.04617790584151971 1:7 2:6 3:44.0779 4:1.94126 
0.03515933707926124 1:17 2:28 3:7.99795 4:1.95415 
0.01219360752338452 1:19 2:25 3:9.6637 4:1.91613 
0.01556681155317882 1:14 2:17 3:7.29089 4:1.95185 
0.01511979522617252 1:24 2:6 3:24.6137 4:1.9796 
0.02225722928057837 1:15 2:4 3:2.65802 4:1.95102 
0.0203608489000268 1:7 2:21 3:2.15017 4:1.92289 
0.01346847611636101 1:25 2:1 3:36.1441 4:1.94564 
0.04289879181616268 1:39 2:11 3:41.6649 4:1.92288 
0.02981216987073415 1:23 2:10 3:16.614 4:1.94493 
0.04763691856432872 1:33 2:18 3:36.589 4:1.98828 
0.005477525961649894 1:12 2:11 3:10.1651 4:1.92735 
0.02835351042142719 1:11 2:2 3:12.4625 4:1.98702 
0.04398177983541618 1:27 2:51 3:52.0952 4:1.98269 
0.01265488029348455 1:18 2:5 3:5.37779 4:1.94783 
0.01505354718492068 1:8 2:1 3:7.76434 4:1.93502 
0.0144740557678704 1:4 2:1 3:21.4552 4:1.94983 
0.00172409406629357 1:6 2:19 3:5.46603 4:1.98322 
0.02494819830398076 1:2 2:4 3:34.9823 4:1.95588 
0.01613309942625267 1:4 2:4 3:5.17218 4:1.95933 
0.005727993559455971 1:9 2:22 3:3.1898 4:1.96401 
0.03160459482548731 1:6 2:3 3:15.6225 4:1.96546 
0.03193883778482977 1:21 2:14 3:4.78955 4:1.99589 
0.04973354899201782 1:53 2:38 3:18.4009 4:1.89495 
0.00875053195860908 1:7 2:19 3:1.04509 4:1.89546 
0.5670034029526047 1:1 2:17 3:1.90619 4:1.97475 
0.03309568173699861 1:30 2:8 3:48.2 4:1.98102 
0.003380817469229249 1:20 2:1 3:9.84059 4:1.9761 
0.8416181073420491 1:5 2:1 3:0.421042 4:1.99396 
0.001535494008884447 1:8 2:22 3:7.52115 4:1.98048 
0.04943550117805373 1:5 2:18 3:53.1414 4:1.99308 
0.046832222701502 1:24 2:58 3:35.8095 4:1.93814 
0.007169059890282116 1:2 2:17 3:6.90353 4:1.98731 
1 1:1 2:17 3:0.616135 4:1.98686 
0.0252693807388206 1:24 2:6 3:38.4286 4:1.96257 
0.03986917096613097 1:25 2:6 3:4.1678 4:1.93133 
0.006070998954049437 1:12 2:5 3:25.3819 4:1.90545 
0.03319504911552346 1:8 2:25 3:1.11154 4:1.98161 
0.01158652785667889 1:13 2:20 3:7.26707 4:1.92579 
0.01814538176695245 1:2 2:9 3:14.2448 4:1.97457 
0.001956887412484302 1:17 2:3 3:6.66266 4:1.93994 
0.007993296411403488 1:8 2:30 3:3.24072 4:1.67268 
0.008421920046026276 1:24 2:5 3:32.2587 4:1.94799 
0.01005757008811368 1:1 2:3 3:5.97187 4:1.95443 
0.02048043911016081 1:12 2:18 3:3.16854 4:1.90674 
0.02271616302929163 1:24 2:1 3:30.0183 4:1.97911 
0.04879304886503383 1:24 2:42 3:8.39539 4:1.96979 
0.04916010199085635 1:1 2:16 3:46.7239 4:1.88892 
0.01295442339373212 1:5 2:2 3:10.9193 4:1.99575 
0.04879066554116346 1:7 2:27 3:25.291 4:1.94223 
0.02328833038465886 1:9 2:10 3:1.71763 4:1.9525 
0.02910654427370851 1:2 2:1 3:24.5823 4:1.94879 
0.0494094592124118 1:76 2:2 3:20.9634 4:1.93413 
0.0375253691515241 1:8 2:33 3:16.7999 4:1.94846 
0.007555084560453666 1:5 2:24 3:3.83295 4:1.99334 
0.002226607138182572 1:14 2:1 3:7.60151 4:1.97166 
0.01095660420149801 1:6 2:2 3:20.8128 4:1.97127 
0.03861330660223983 1:15 2:27 3:1.73824 4:1.93316 
0.04246856002856953 1:12 2:18 3:15.0316 4:1.96185 
0.01954611918955933 1:2 2:26 3:7.08419 4:1.99799 
0.01702491610750184 1:24 2:9 3:41.8184 4:1.98985 
0.04187873621843846 1:21 2:48 3:32.8376 4:1.98059 
0.04931338348154485 1:11 2:37 3:26.8684 4:1.99455 
0.02784327222369294 1:1 2:20 3:5.90514 4:1.98794 
0.02030898141978321 1:5 2:7 3:10.4362 4:1.98662 
0.0390865265475569 1:7 2:7 3:20.2231 4:1.91297 
0.002375640826263678 1:11 2:3 3:7.53048 4:1.97079 
0.04948169391758217 1:66 2:1 3:25.4186 4:1.91866 
0.04938848069117685 1:66 2:2 3:17.6958 4:1.90927 
0.03477244480002337 1:27 2:1 3:16.3956 4:1.905 
0.02337192187006344 1:7 2:1 3:31.2057 4:1.8924 
0.009090750086492873 1:10 2:8 3:11.4546 4:1.88266 
0.04341500290860117 1:2 2:1 3:108.54 4:1.89108 
0.04942174392450599 1:61 2:10 3:15.4605 4:1.88523 
0.004401246649901436 1:61 2:1 3:15.4605 4:1.89 
0.04504457003633039 1:61 2:1 3:15.4605 4:1.87753 
0.03499355439736768 1:3 2:13 3:36.8715 4:1.8845 
0.0433793906941391 1:4 2:3 3:108.54 4:1.89522 
0.01760908340531181 1:3 2:3 3:22.6399 4:1.89349 
0.02081748925785947 1:3 2:1 3:36.9493 4:1.88278 
0.04959411912560352 1:237 2:131 3:36.9493 4:1.88278 
0.01372593815974388 1:3 2:1 3:77.1604 4:1.89088 
0.02842988297690053 1:3 2:2 3:77.1604 4:1.8904 
0.04928596872677155 1:1 2:14 3:98.3742 4:1.86775 
0.04618079744114656 1:1 2:2 3:98.3742 4:1.87479 
0.04942088462426653 1:13 2:1 3:142.364 4:1.86685 
0.002197321026543941 1:7 2:2 3:10.5757 4:1.89084 
0.001719430194898976 1:4 2:1 3:19.0121 4:1.89456 
0.0283651828830141 1:4 2:12 3:19.0121 4:1.89023 
0.02647710508043994 1:5 2:1 3:37.5295 4:1.88301 
0.002704809228518085 1:5 2:1 3:9.03698 4:1.88756 
0.04939643862316978 1:19 2:1 3:72.2648 4:1.88148 
0.04893955418051499 1:3 2:3 3:48.3619 4:1.88362 
0.04930987375496737 1:7 2:1 3:137.877 4:1.88181 
0.0265295562082524 1:7 2:1 3:37.0645 4:1.87974 
0.03164064549789336 1:5 2:9 3:19.8358 4:1.86682 
0.002263039726380628 1:14 2:4 3:8.94626 4:1.95206 
0.00622848521279107 1:1 2:4 3:22.7839 4:1.94218 
1 1:9 2:1 3:0.434599 4:1.9771 
0.01735659960031559 1:10 2:7 3:10.4572 4:1.98267 
0.04816562533044565 1:27 2:8 3:0.583347 4:1.96992 
0.005010022455413283 1:8 2:13 3:13.3317 4:1.99125 
0.01995630448552548 1:4 2:1 3:17.2704 4:1.98826 
0.04943897884520737 1:52 2:3 3:39.3947 4:1.98605 
0.03303999873787344 1:8 2:7 3:16.2731 4:1.99626 
0.02325724445172251 1:1 2:5 3:23.7532 4:1.98547 
0.5386851627541154 1:10 2:1 3:1.15416 4:1.98453 
0.02341692416972888 1:34 2:3 3:44.15 4:1.95077 
0.04398991077767295 1:33 2:55 3:45.9408 4:1.95715 
0.02339116346074632 1:22 2:12 3:35.0476 4:1.97956 
1 1:1 2:10 3:0.971579 4:1.98267 
0.04010105710127693 1:20 2:51 3:42.7597 4:1.97272 
0.02325818627221081 1:10 2:1 3:39 4:1.98559 
0.002083005121387141 1:18 2:7 3:5.1512 4:1.97395 
0.04812138599370392 1:35 2:36 3:24.8988 4:1.9738 
0.03777338565179057 1:36 2:5 3:37.8092 4:1.94169 
0.02733095226375536 1:20 2:10 3:32.8525 4:1.9171 
0.02341018600447776 1:28 2:1 3:36.8258 4:1.99317 
0.01922196721267904 1:28 2:14 3:30.7746 4:1.98491 
0.01371774115207387 1:12 2:29 3:4.59115 4:1.93659 
0.01507862151195681 1:24 2:13 3:28.8237 4:1.93016 
0.03593298055861002 1:29 2:9 3:9.84187 4:1.97469 
0.04926783474994689 1:17 2:8 3:55.9079 4:1.95778 
0.04181561381663995 1:22 2:43 3:54.1429 4:1.9909 
0.03783872166498797 1:6 2:35 3:37.2 4:1.97209 
0.01993309378404336 1:13 2:8 3:24.3862 4:1.95036 
0.02171078111134931 1:24 2:12 3:26.2187 4:1.95739 
0.004000724623344254 1:15 2:28 3:6.49008 4:1.95204 
0.04906047273805053 1:48 2:47 3:63.1139 4:1.93113 
0.03753646759801776 1:1 2:18 3:9.8722 4:1.98039 
0.03465864396863855 1:24 2:11 3:42.1429 4:1.8552 
0.02735336195857863 1:5 2:11 3:17.7201 4:1.93347 
0.02369512186637923 1:34 2:3 3:31.1187 4:1.91494 
0.04370595970711132 1:40 2:4 3:43.8147 4:1.9288 
0.04734397204746849 1:23 2:47 3:48.9717 4:1.96011 
0.0311494312902227 1:19 2:7 3:37.8571 4:1.89634 
0.02988808916591046 1:36 2:3 3:45.4286 4:1.93192 
0.03430373889884503 1:37 2:1 3:46.7039 4:1.89853 
0.01419924817812576 1:31 2:8 3:29.6285 4:1.93848 
0.006598643208208082 1:11 2:5 3:4.59582 4:1.88247 
0.04252190376996345 1:33 2:31 3:42.547 4:1.9085 
0.04927710881239661 1:16 2:37 3:1.18558 4:1.93645 
0.004449550753425489 1:14 2:7 3:2.87269 4:1.97092 
1 1:1 2:1 3:0.411559 4:1.95816 
0.00639997556841115 1:14 2:19 3:5.90507 4:1.89659 
0.01600015899471213 1:24 2:6 3:43.9327 4:1.99755 
0.03341927405628722 1:24 2:47 3:43.3333 4:1.95582 
0.03890342283197701 1:17 2:13 3:23.947 4:1.95645 
0.04538686615404569 1:37 2:35 3:45 4:1.99611 
0.01468812013324211 1:33 2:5 3:34.7708 4:1.93384 
0.02731598037595142 1:26 2:21 3:11.1118 4:1.89383 
0.03356099091574227 1:23 2:14 3:11.5128 4:1.94986 
0.03888997662757698 1:13 2:7 3:35.0265 4:1.49128 
0.038219371941013 1:32 2:10 3:3.81291 4:1.9238 
0.01820530611726467 1:7 2:8 3:9.92984 4:1.90739 
0.01656263216591315 1:20 2:23 3:7.50378 4:1.92844 
0.02426836452521433 1:6 2:24 3:13.2559 4:1.94733 
0.02462955981062681 1:21 2:6 3:2.58344 4:1.99963 
0.005962017367943398 1:8 2:25 3:4.40938 4:1.98877 
0.01611727364804773 1:29 2:1 3:43.2276 4:1.97789 
0.04786507595931155 1:32 2:34 3:27.2801 4:1.98867 
0.04899362955133318 1:8 2:58 3:0.699012 4:1.96755 
0.04953788118597036 1:54 2:50958 3:65.1387 4:1.49049 
0.04946328715864318 1:1 2:3 3:180.055 4:1.38621 
0.3417852232761695 1:2 2:37 3:2.04605 4:1.55961 
0.03133779853139032 1:2 2:43 3:4.91339 4:1.75879 
0.04103039267135215 1:27 2:23 3:12.5072 4:1.95459 
0.04939994644145684 1:55 2:19 3:25.9301 4:1.96414 
0.04927730621648202 1:68 2:125 3:43.2343 4:1.98176 
0.0154901578463511 1:2 2:40 3:11.4184 4:1.97665 
0.03366198097204665 1:34 2:8 3:20.6772 4:1.93204 
0.02050158150877224 1:3 2:9 3:9.03876 4:1.99676 
0.007709018115513496 1:4 2:1 3:6.84753 4:1.99447 
0.01887823207697606 1:11 2:9 3:10.8078 4:1.92523 
0.02232181406062122 1:13 2:2 3:18.718 4:1.90636 
0.03678031033184603 1:35 2:10 3:46.4809 4:1.95485 
0.02125206051716959 1:1 2:5 3:5.12302 4:1.93747 
0.03303854185591321 1:20 2:54 3:41.4 4:1.99548 
0.01942394699718397 1:4 2:19 3:8.29263 4:1.95426 
0.04575450338158699 1:29 2:32 3:46.6667 4:1.93148 
0.009465346156987796 1:5 2:23 3:6.34274 4:1.96691 
0.001782722124914095 1:12 2:29 3:5.36711 4:1.94645 
0.00781533573852093 1:26 2:9 3:35.6972 4:1.96527 
0.03299672689167893 1:32 2:14 3:43.6746 4:1.94955 
0.0454389686996835 1:26 2:13 3:6.69227 4:1.95364 
0.02327602966067832 1:11 2:3 3:22.0199 4:1.94456 
0.03028367989728409 1:7 2:30 3:2.63418 4:1.95346 
0.02055966779343354 1:22 2:35 3:29.364 4:1.93646 
0.04930448172991081 1:28 2:24 3:42.7143 4:1.89491 
0.04160298269262259 1:8 2:19 3:14.2809 4:1.99658 
0.01496926262639175 1:1 2:32 3:5.42631 4:1.93944 
0.01042056581460023 1:12 2:6 3:6.70981 4:1.98184 
0.01439078675360639 1:16 2:23 3:6.14112 4:1.97307 
0.02766908550409055 1:19 2:9 3:5.66532 4:1.9505 
0.03421865630060483 1:15 2:16 3:27.4597 4:1.97375 
0.02467875065078952 1:15 2:18 3:10.0197 4:1.90932 
0.02656150992658191 1:14 2:20 3:0.65898 4:1.92074 
0.03989723455000885 1:30 2:45 3:46.65 4:1.93186 
0.04706299542374986 1:25 2:42 3:52.7 4:1.88105 
0.001443054931398402 1:18 2:9 3:2.75158 4:1.84615 
0.03889781429404254 1:4 2:24 3:12.5754 4:1.91708 
0.01122944816948607 1:29 2:2 3:47.2 4:1.95199 
0.04637125038831275 1:16 2:1 3:38.7309 4:1.86204 
0.03220624612982521 1:26 2:6 3:44.6863 4:1.9362 
0.02005684785454026 1:3 2:1 3:12.5032 4:1.90827 
0.04893163950355012 1:29 2:46 3:18.2888 4:1.91846 
0.04826930120408841 1:28 2:42 3:1.04736 4:1.97858 
0.01051775869932037 1:8 2:4 3:7.39537 4:1.93343 
0.04487082479817245 1:28 2:29 3:32.0199 4:1.93359 
0.04918845523090942 1:10 2:53 3:22.8507 4:1.97986 
0.04936204478365636 1:132 2:3 3:28.4651 4:1.98616 
0.03062714467073446 1:15 2:3 3:23.4302 4:1.98847 
0.01941218435884678 1:5 2:19 3:5.74834 4:1.94501 
0.004546991803792861 1:16 2:21 3:6.71452 4:1.94794 
0.02336269878030189 1:22 2:28 3:9.749 4:1.97008 
0.03652509193902441 1:35 2:14 3:34.404 4:1.94157 
0.02024918254032426 1:30 2:5 3:36.2274 4:1.95358 
0.04956032538326477 1:40 2:45 3:10.7084 4:1.98964 
0.023055776199539 1:25 2:2 3:29.2231 4:1.90227 
0.01512239162293346 1:11 2:13 3:5.28686 4:1.94629 
0.03663963731176755 1:17 2:51 3:36.1279 4:1.9201 
0.03464134109858941 1:13 2:1 3:22.5844 4:1.98792 
0.00904699544800415 1:15 2:16 3:5.64264 4:1.95286 
0.01612572926853569 1:29 2:11 3:41.3045 4:1.9095 
0.01522489884972633 1:15 2:23 3:9.36178 4:1.94556 
0.007803304052483974 1:25 2:9 3:27.4257 4:1.97215 
0.04926751462430307 1:29 2:26 3:0.685877 4:1.94997 
0.04242056322893217 1:16 2:48 3:48.4223 4:1.93674 
0.04102538787563964 1:44 2:1 3:10.2106 4:1.9363 
0.02797556412771043 1:22 2:1 3:10.2106 4:1.94129 
0.0409632916393925 1:44 2:1 3:13.8446 4:1.94511 
0.04797108989892473 1:15 2:49 3:21.7364 4:1.86672 
0.03406405998482715 1:24 2:16 3:37.2983 4:1.92662 
0.03947462549352027 1:17 2:28 3:13.7653 4:1.95198 
0.006816720321700363 1:7 2:26 3:6.06001 4:1.9843 
0.01007825830515576 1:13 2:14 3:2.82863 4:1.99728 
0.03274453483236471 1:10 2:27 3:9.44869 4:1.98233 
0.02297912868125112 1:3 2:2 3:30.9933 4:1.99065 
0.01155530100877297 1:18 2:6 3:3.6006 4:1.97268 
0.02960499338558547 1:32 2:13 3:27.9698 4:1.98001 
0.006791076280118037 1:25 2:8 3:28.7926 4:1.92246 
0.009734428719965001 1:16 2:21 3:9.75093 4:1.94835 
0.04490954833511207 1:14 2:25 3:22.6184 4:1.9007 
0.03124212917035313 1:1 2:9 3:38.3333 4:1.99903 
0.03475041102514341 1:1 2:6 3:17.1529 4:1.94561 
0.03623913841824017 1:40 2:5 3:51.8286 4:1.99623 
0.002374049105239352 1:5 2:7 3:3.03106 4:1.98794 
0.004687260956024983 1:2 2:26 3:6.49769 4:1.89474 
0.04562463906284634 1:40 2:44 3:46.5564 4:1.93393 
0.04350814281112903 1:30 2:17 3:42.0652 4:1.9987 
0.002654308709354625 1:23 2:6 3:30.7981 4:1.93051 
0.04829657543363508 1:16 2:53 3:20.6473 4:1.97955 
0.04918626245258356 1:37 2:30 3:32.8135 4:1.92543 
0.01249101126710883 1:5 2:2 3:35.0026 4:1.9908 
0.9569209725619945 1:1 2:1 3:0.4225 4:1.99529 
0.003310683781468462 1:16 2:15 3:8.22094 4:1.96008 
0.02525961233724278 1:24 2:9 3:39.8095 4:1.97937 
0.03170390168224585 1:15 2:22 3:14.6257 4:1.97843 
0.03740254019726391 1:2 2:13 3:34.5211 4:1.96154 
0.01732987474362868 1:32 2:9 3:38.7581 4:1.99902 
0.02181879599681406 1:19 2:3 3:22.4799 4:1.91841 
0.01062047013365933 1:38 2:5 3:47.607 4:1.94606 
0.04372713194152023 1:24 2:50 3:38.4934 4:1.97612 
0.03683955814796459 1:6 2:9 3:66.1129 4:1.96641 
0.03594688244877958 1:44 2:3 3:12.1977 4:1.92994 
0.04930223637554337 1:7 2:40 3:74.3159 4:1.93106 
0.05012889451530816 1:1 2:97 3:4.90132 4:1.94061 
0.01207969203672301 1:5 2:1 3:29.4116 4:1.88214 
0.02770727537929477 1:16 2:26 3:4.24645 4:1.75797 
0.04067801024692846 1:11 2:1 3:32.6084 4:1.72324 
0.009636444692901425 1:1 2:1 3:5.45301 4:1.75262 
0.04921858469334056 1:58 2:51 3:105.178 4:1.90939 
0.02101704895988876 1:9 2:2 3:18.3624 4:1.98529 
0.0124228292464828 1:6 2:8 3:5.74948 4:1.91599 
0.002594397215686994 1:14 2:13 3:7.70489 4:1.94522 
0.01213481088646121 1:8 2:7 3:4.07469 4:1.84128 
0.03626766384989322 1:17 2:7 3:1.14801 4:1.90889 
0.02041427509802438 1:14 2:18 3:3.78706 4:1.88977 
0.04190972622322012 1:15 2:50 3:40.3568 4:1.8942 
0.002505745050432055 1:17 2:1 3:5.96852 4:1.95317 
0.04909697941949714 1:67 2:114 3:0.611692 4:1.9584 
0.04927400751674488 1:24 2:20 3:47.0476 4:1.9896 
0.04561187921480445 1:26 2:12 3:47.0619 4:1.93046 
0.01450727445879011 1:1 2:1 3:12.2702 4:1.95425 
0.01397082344402212 1:27 2:1 3:36.6411 4:1.97846 
0.04675632205514285 1:33 2:17 3:32.5063 4:1.97925 
0.04941951951112611 1:41 2:1 3:63.4286 4:1.93706 
0.02724631933277355 1:34 2:14 3:37.1501 4:1.98628 
0.04373289323145207 1:17 2:5 3:18.5946 4:1.93828 
0.04930492833831743 1:1 2:30 3:37.1429 4:1.85106 
0.01476081980409579 1:10 2:22 3:7.70224 4:1.99005 
1 1:1 2:5 3:0.669525 4:1.93563 
0.02198568542829386 1:20 2:3 3:5.23494 4:1.94955 
0.006462986527899455 1:5 2:3 3:5.23494 4:1.94795 
0.01300375316334829 1:3 2:1 3:26.9758 4:1.9867 
0.01174853875394199 1:1 2:22 3:6.26786 4:1.99625 
0.0465723578493219 1:31 2:25 3:38.9833 4:1.9925 
0.02007651297174573 1:16 2:1 3:10.7291 4:1.99217 
0.01345298820674049 1:1 2:3 3:13.4591 4:1.98786 
0.006514212723639412 1:12 2:24 3:9.44644 4:1.97861 
0.02475484925450694 1:10 2:13 3:0.969546 4:1.96853 
0.04904909717744882 1:9 2:52 3:28.5104 4:1.9861 
0.02656340355249825 1:18 2:16 3:11.2645 4:1.98645 
0.006853206721243725 1:10 2:13 3:6.80791 4:1.99923 
0.01309727879940365 1:9 2:17 3:9.19503 4:1.94856 
0.0004950676990324121 1:8 2:5 3:3.06089 4:1.98391 
0.01665661953735853 1:13 2:1 3:33.1019 4:1.98573 
0.0009283401660108432 1:5 2:2 3:17.5897 4:1.98496 
0.04209568386978724 1:42 2:3 3:8.14926 4:1.99288 
0.0470296480702469 1:70 2:3 3:8.14926 4:1.99303 
0.0121355980159223 1:18 2:8 3:30.5483 4:1.96402 
0.0006409053958433053 1:12 2:4 3:4.78051 4:1.99929 
0.02506179708494516 1:26 2:5 3:13.3878 4:1.96846 
0.001366467706316932 1:18 2:10 3:15.6857 4:1.97103 
0.01693583299816801 1:25 2:2 3:43.8854 4:1.99905 
0.03083322981855219 1:5 2:15 3:7.70009 4:1.81191 
0.0256900768135182 1:32 2:1 3:7.88201 4:1.89504 
0.02781578052759942 1:8 2:1 3:10.9093 4:1.974 
0.04133147827735478 1:25 2:30 3:31.9524 4:1.98895 
0.03041775736639318 1:28 2:2 3:41.2701 4:1.97036 
0.2112352953354136 1:38 2:2 3:0.691401 4:1.97695 
0.04890733995208713 1:38 2:43 3:26.1834 4:1.98408 
0.009495091388424972 1:3 2:1 3:6.87909 4:1.64524 
0.04919841093457317 1:10 2:4 3:67.1397 4:1.96561 
0.02690922237621928 1:24 2:1 3:36.9524 4:1.96034 
0.04842520287512442 1:14 2:35 3:19.2793 4:1.88995 
0.01326048303267357 1:30 2:10 3:27.7132 4:1.94236 
0.01578072548665901 1:20 2:8 3:32.9758 4:1.98633 
0.04530157944429353 1:12 2:31 3:0.773963 4:1.97767 
0.02043611273000545 1:14 2:28 3:8.01447 4:1.96343 
0.03638333479898964 1:26 2:9 3:4.11003 4:1.99701 
0.03687327225177778 1:6 2:33 3:10.3509 4:1.99884 
0.03542306747573387 1:4 2:7 3:21.8291 4:1.90316 
0.006612733425116356 1:14 2:21 3:1.92253 4:1.95695 
0.004506956439413324 1:10 2:18 3:4.15573 4:1.94562 
0.03939694292348395 1:1 2:7 3:22.0684 4:1.98603 
0.02979042527930437 1:23 2:16 3:21.4955 4:1.98002 
0.02224781417408381 1:12 2:1 3:10.2501 4:1.96462 
0.008653909752163623 1:23 2:24 3:10.9292 4:1.95888 
0.01765344235364706 1:8 2:4 3:4.98671 4:1.9576 
0.03652163465101824 1:28 2:17 3:15.503 4:1.9398 
0.007201049682270588 1:11 2:28 3:7.35423 4:1.93069 
0.02440830188292917 1:12 2:8 3:18.3137 4:1.96773 
0.03102072535258679 1:21 2:12 3:28.0844 4:1.97647 
0.009846616975719735 1:12 2:11 3:3.8145 4:1.99171 
0.01560881538948312 1:5 2:11 3:6.1451 4:1.87584 
0.0180606235128894 1:6 2:1 3:7.83215 4:1.9139 
0.006381185373163473 1:7 2:20 3:6.16734 4:1.88689 
0.03378273304441187 1:22 2:37 3:34.3333 4:1.94457 
0.04593848170685594 1:14 2:40 3:42.2037 4:1.964 
0.02767515755978654 1:28 2:19 3:26.2071 4:1.92466 
0.01089219846780243 1:8 2:19 3:4.71224 4:1.94082 
0.003445558523977062 1:9 2:22 3:5.64557 4:1.93448 
0.02452993485396631 1:30 2:41 3:44.95 4:1.91402 
0.004697608096745609 1:1 2:9 3:9.27214 4:1.8604 
0.001653653024596746 1:12 2:8 3:4.3766 4:1.99651 
0.03079333662864845 1:23 2:37 3:31.2736 4:1.96341 
0.04115252168666927 1:29 2:4 3:51.59 4:1.94568 
0.04859422065372576 1:14 2:23 3:38.15 4:1.94615 
0.003075106227613089 1:7 2:16 3:5.56221 4:1.94754 
0.02254579750452558 1:24 2:15 3:21.206 4:1.91151 
0.03945440955456003 1:23 2:45 3:37.7143 4:1.95898 
0.04282069926835875 1:19 2:6 3:42.2131 4:1.94443 
0.02895691607056216 1:28 2:3 3:48.9218 4:1.92856 
0.01047131349991959 1:4 2:1 3:8.61529 4:1.98149 
0.01169532536508623 1:8 2:3 3:25.7482 4:1.96249 
0.01539353150553795 1:15 2:8 3:10.2287 4:1.97158 
0.04943158062578024 1:29 2:58 3:38.9561 4:1.98775 
0.007349876415320511 1:1 2:4 3:7.35246 4:1.9393 
0.0300631842546278 1:30 2:44 3:23.5961 4:1.99086 
0.04873878150148851 1:14 2:27 3:26.8289 4:1.96304 
0.04313341664925685 1:23 2:30 3:28.7721 4:1.96144 
0.1250524400742279 1:34 2:2 3:2.59007 4:1.89382 
0.03776689178423753 1:4 2:5 3:19.4155 4:1.70803 
0.004970772588312291 1:11 2:2 3:16.5593 4:1.6571 
0.004773410712817552 1:22 2:1 3:6.9634 4:1.67457 
0.02797884553892926 1:1 2:1 3:39.7517 4:1.67322 
0.02554018433937762 1:7 2:11 3:9.52741 4:1.9522 
0.01559621591332505 1:7 2:16 3:7.164 4:1.83954 
0.04941723634201772 1:3 2:74 3:25.7071 4:1.95419 
0.01895211910142654 1:24 2:14 3:30.0816 4:1.97499 
0.04087777276521665 1:13 2:13 3:45.3753 4:1.99646 
0.004475495852301392 1:18 2:6 3:4.89248 4:1.99554 
0.01425521593041452 1:14 2:16 3:9.64669 4:1.95943 
0.04934202286480693 1:12 2:49 3:45.1256 4:1.98075 
0.01270584568347932 1:17 2:23 3:7.49996 4:1.94831 
0.04858596731450215 1:11 2:6 3:42.5649 4:1.97173 
0.02713388148311937 1:9 2:12 3:13.3244 4:1.98891 
0.001403983435839796 1:20 2:1 3:13.5312 4:1.93397 
0.005109185090129423 1:6 2:5 3:3.21081 4:1.96289 
0.03973079737200141 1:16 2:13 3:43.3681 4:1.89058 
0.04973171842397983 1:32 2:50 3:8.24788 4:1.95293 
0.04909856888998343 1:29 2:30 3:13.7377 4:1.9794 
0.03780785506711348 1:9 2:33 3:18.705 4:1.97895 
0.00760738629739843 1:13 2:25 3:10.1631 4:1.96706 
0.03339557037756874 1:25 2:44 3:47.6153 4:1.98273 
0.04072208227411717 1:1 2:30 3:7.00778 4:1.98996 
0.006970583088793738 1:5 2:21 3:2.31109 4:1.95104 
0.04180797879970648 1:16 2:22 3:0.454093 4:1.96321 
0.02144131483070632 1:17 2:8 3:19.6522 4:1.97809 
0.02388750189991878 1:12 2:4 3:23.6333 4:1.97209 
0.04728866848140122 1:32 2:30 3:28.4634 4:1.96915 
0.03605986835885905 1:33 2:1 3:29.8385 4:1.93799 
0.02250053834900495 1:28 2:12 3:29.7028 4:1.9534 
0.04259396281091142 1:20 2:57 3:40.7619 4:1.95451 
0.01396058244776439 1:8 2:7 3:1.14388 4:1.90979 
0.00822163318481034 1:37 2:10 3:46.5781 4:1.98613 
0.006033537663460861 1:18 2:17 3:8.3378 4:1.91287 
0.001597371248455784 1:15 2:7 3:4.01912 4:1.93161 
0.04910893406216577 1:31 2:46 3:40.9694 4:1.96349 
0.02468976888410551 1:33 2:8 3:43.1495 4:1.94013 
0.03360259694664725 1:36 2:12 3:40.8149 4:1.97859 
0.03208572498606413 1:27 2:10 3:39.7899 4:1.88492 
0.02074687717849422 1:30 2:12 3:42.6124 4:1.91305 
0.04850202909141071 1:37 2:16 3:52.0124 4:1.8994 
0.01851442032884434 1:39 2:3 3:46.7686 4:1.94373 
0.02380876531955293 1:16 2:32 3:6.01761 4:1.94655 
0.04899118354657405 1:21 2:38 3:17.511 4:1.96688 
0.01675851925626315 1:8 2:13 3:7.18942 4:1.97351 
0.04165254608047864 1:13 2:21 3:16.5479 4:1.9693 
0.04563998912639794 1:17 2:35 3:46.3141 4:1.94721 
0.017795434629528 1:27 2:7 3:36.071 4:1.93599 
0.0009315588672371199 1:16 2:6 3:2.70926 4:1.96727 
0.013835081169151 1:9 2:25 3:7.71941 4:1.93609 
0.04179056880082155 1:24 2:20 3:16.97 4:1.93982 
0.03066549481868686 1:15 2:29 3:4.68693 4:1.92044 
0.01277219996492207 1:13 2:1 3:8.92201 4:1.93016 
0.023664689815998 1:21 2:7 3:39.8782 4:1.91305 
0.01536063773239362 1:28 2:4 3:33.0765 4:1.97909 
0.0398879705971652 1:15 2:40 3:38.95 4:1.93265 
0.01545564088643044 1:16 2:7 3:22.607 4:1.96409 
0.01458700266496983 1:25 2:4 3:37.3848 4:1.94576 
0.04665289277843848 1:22 2:35 3:42.1429 4:1.97546 
0.01353444142486852 1:25 2:3 3:37.3333 4:1.96805 
0.007426287614135973 1:24 2:11 3:34.5329 4:1.98999 
0.04907835032573889 1:23 2:26 3:33.4553 4:1.95814 
0.03707914755368907 1:11 2:7 3:31.8695 4:1.9889 
0.01606870517833741 1:4 2:15 3:4.74666 4:1.97338 
0.04983463117940617 1:48 2:10 3:46.2799 4:1.94968 
0.02888723441545776 1:19 2:11 3:18.2439 4:1.84115 
0.0255826166091406 1:32 2:4 3:32.2876 4:1.93184 
0.001133023115280738 1:9 2:2 3:7.55482 4:1.96589 
0.002733178562255483 1:19 2:3 3:8.48646 4:1.92421 
0.03831232292962994 1:6 2:32 3:4.60715 4:1.95241 
0.04007419310185218 1:29 2:30 3:43.5888 4:1.98055 
0.03388241723732192 1:10 2:6 3:22.4555 4:1.96199 
0.001918339012682534 1:12 2:8 3:4.77433 4:1.98853 
0.03236729375153537 1:31 2:43 3:48.0476 4:1.97809 
0.009400409644242075 1:26 2:9 3:34.7619 4:1.96942 
0.006159282702905331 1:28 2:5 3:31.5819 4:1.93631 
0.04458265659161659 1:26 2:32 3:27.3687 4:1.95257 
0.009488031281741144 1:28 2:13 3:33.5366 4:1.98366 
0.04386902337894988 1:25 2:41 3:45.0413 4:1.97778 
0.03740304488447409 1:23 2:7 3:13.5603 4:1.97718 
0.0005512334228771516 1:5 2:24 3:5.96413 4:1.92 
0.01653972053321725 1:29 2:4 3:36.8449 4:1.91514 
0.02954365361920842 1:1 2:1 3:19.7455 4:1.93749 
0.01642076913881671 1:3 2:17 3:7.47117 4:1.896 
0.04113233710008818 1:12 2:12 3:27.5489 4:1.96094 
0.02055918108156144 1:19 2:1 3:6.81802 4:1.96205 
0.03697024922640352 1:21 2:50 3:27.7265 4:1.96123 
0.009856420959769675 1:16 2:4 3:8.58983 4:1.93665 
0.01094502982225337 1:19 2:11 3:9.37375 4:1.90438 
0.01661700890886957 1:22 2:1 3:7.82576 4:1.88641 
0.03326512225214998 1:11 2:17 3:10.6875 4:1.9909 
0.04179791185814204 1:32 2:43 3:50.308 4:1.97989 
0.00169914620399525 1:10 2:21 3:5.85648 4:1.91214 
0.04939982309690683 1:26 2:56 3:25.6138 4:1.93534 
0.005878465339540977 1:14 2:1 3:6.89867 4:1.97915 
0.01623853719578688 1:6 2:26 3:3.76881 4:1.97553 
0.00793682892685596 1:13 2:20 3:4.62533 4:1.97545 
0.00727012872394743 1:6 2:19 3:3.12523 4:1.96531 
0.04789070489316255 1:8 2:28 3:29.4067 4:1.97928 
0.04423898763279149 1:38 2:4 3:35.1426 4:1.98829 
0.02630529374220788 1:16 2:16 3:2.20607 4:1.99316 
0.03035823097303436 1:7 2:35 3:8.45077 4:1.94365 
0.02898027983798943 1:22 2:8 3:26.5274 4:1.99258 
1 1:8 2:1 3:0.453851 4:1.98252 
0.04173265056289577 1:18 2:2 3:50.6667 4:1.96643 
0.04001813780201641 1:3 2:18 3:12.6324 4:1.97401 
0.0373417525837915 1:34 2:36 3:51.85 4:1.94667 
0.004774855249399024 1:10 2:18 3:11.1088 4:1.9649 
0.04617470982396083 1:7 2:30 3:11.9906 4:1.95237 
0.04888778801766347 1:30 2:44 3:14.5348 4:1.97247 
0.02088323145489169 1:26 2:3 3:30.447 4:1.93451 
0.8985755614565215 1:7 2:1 3:0.500736 4:1.95477 
0.02021948727686631 1:23 2:9 3:30.6157 4:1.95299 
0.03133843371812317 1:21 2:13 3:14.6518 4:1.87988 
0.01519740747720386 1:10 2:7 3:24.844 4:1.97286 
0.04520299006006279 1:33 2:52 3:46.6368 4:1.91047 
0.03284948505672202 1:28 2:18 3:30.0515 4:1.94826 
0.02498856072755252 1:28 2:40 3:44.0952 4:1.9295 
0.01058611974001836 1:31 2:7 3:35.2793 4:1.9491 
0.0346586899854911 1:22 2:26 3:7.1508 4:1.94887 
0.03449734011549699 1:22 2:20 3:5.38819 4:1.93585 
1 1:1 2:1 3:0.437306 4:1.91618 
0.00985786124311668 1:20 2:17 3:6.23128 4:1.92919 
0.02191531369328619 1:15 2:1 3:43.9524 4:1.97068 
0.007247752364350487 1:7 2:1 3:9.70279 4:1.86326 
0.0284289634948354 1:18 2:1 3:41.7143 4:1.87245 
0.02724668191216661 1:20 2:1 3:49.4192 4:1.91817 
0.03045691363693921 1:29 2:18 3:37.7157 4:1.97733 
0.01584694195407641 1:32 2:10 3:42 4:1.96286 
0.01219690607184973 1:28 2:10 3:26.2624 4:1.93553 
0.04118361450216736 1:13 2:7 3:20.6755 4:1.91863 
0.04886899470842791 1:33 2:41 3:40.619 4:1.99589 
0.02246400618749054 1:32 2:12 3:36.3748 4:1.96906 
0.03620195738493864 1:6 2:37 3:36.4856 4:1.97698 
0.04510225015448805 1:16 2:55 3:46.2087 4:1.98697 
0.009106732204565083 1:28 2:3 3:30.3549 4:1.96452 
0.04370289809188521 1:2 2:12 3:31.4891 4:1.97467 
0.04901254241966269 1:8 2:39 3:40.7 4:1.9911 
0.02396507798203346 1:7 2:1 3:5.42309 4:1.9371 
0.03166109556936015 1:19 2:20 3:15.0657 4:1.97635 
0.04798102593825759 1:8 2:24 3:28.8602 4:1.99222 
0.01176819693456963 1:13 2:26 3:6.15025 4:1.97613 
0.02257574802774858 1:10 2:16 3:7.83017 4:1.95992 
1 1:1 2:27 3:1.09797 4:1.93577 
0.03234513637901765 1:30 2:8 3:50.5908 4:1.86883 
0.04901053715825832 1:13 2:62 3:30.6604 4:1.9237 
0.04895970171873601 1:12 2:37 3:33.2381 4:1.99107 
0.004789274682650932 1:19 2:1 3:2.65994 4:1.95998 
0.04932772339239916 1:20 2:57 3:16.9425 4:1.93891 
0.02442099878234395 1:14 2:5 3:10.5179 4:1.93857 
0.0459303891376972 1:24 2:31 3:8.45676 4:1.93265 
0.0323815135830238 1:13 2:6 3:1.04175 4:1.94889 
0.0034809934850286 1:37 2:7 3:42.3153 4:1.88489 
0.04901844667108818 1:12 2:21 3:21.4554 4:1.86664 
0.0268408704046364 1:18 2:36 3:36.3369 4:1.90815 
0.03524884319035348 1:34 2:27 3:41.0952 4:1.92552 
0.04717471834440151 1:18 2:17 3:42.0917 4:1.96038 
0.01927720273500569 1:32 2:10 3:30.2113 4:1.96354 
0.003090834392887976 1:11 2:17 3:5.50714 4:1.9387 
0.02883471190903181 1:5 2:1 3:44.6497 4:1.99125 
0.04198529165039633 1:40 2:45 3:49.619 4:1.96563 
0.003029520362270647 1:13 2:23 3:4.89602 4:1.99371 
0.0187626210952234 1:34 2:2 3:42.1905 4:1.99605 
0.03790484777204218 1:31 2:10 3:44.4403 4:1.97466 
0.04756562499230899 1:32 2:56 3:49.458 4:1.98937 
0.0122158068851076 1:28 2:10 3:32.4621 4:1.94626 
0.01010102780683736 1:11 2:10 3:28.1543 4:1.90396 
0.02497487358383033 1:18 2:25 3:11.0097 4:1.98706 
0.02060743928469218 1:24 2:10 3:28.4393 4:1.95278 
0.0208672904661158 1:17 2:1 3:42.2706 4:1.92275 
0.009172055614806067 1:15 2:6 3:4.14226 4:1.93795 
0.01724588031249633 1:15 2:12 3:2.97636 4:1.99325 
0.007946055949175107 1:12 2:15 3:3.40029 4:1.99447 
0.2262724989889727 1:1 2:23 3:2.63409 4:1.98073 
0.01166483348706134 1:21 2:1 3:13.3729 4:1.84508 
0.005420194647699147 1:10 2:21 3:4.51841 4:1.91648 
0.03787793351515737 1:23 2:1 3:3.89903 4:1.9365 
0.04920179487234233 1:1 2:8 3:106.38 4:1.94796 
0.02521298621021156 1:8 2:1 3:44.1896 4:1.92892 
0.03141708848465535 1:8 2:3 3:44.1896 4:1.93084 
0.04612708174605612 1:4 2:1 3:97.4386 4:1.93418 
0.03015728251010752 1:5 2:6 3:12.407 4:1.93423 
0.03575317754711391 1:7 2:22 3:12.3279 4:1.92896 
0.03104992896027664 1:3 2:29 3:0.799638 4:1.93451 
0.04083431938531396 1:36 2:18 3:25.4299 4:1.9281 
0.01803012245374743 1:8 2:6 3:24.7932 4:1.92666 
0.0169569292440006 1:8 2:1 3:24.7932 4:1.93451 
0.02927116731802926 1:5 2:14 3:12.407 4:1.93768 
0.02381121616422072 1:5 2:1 3:12.407 4:1.93836 
0.04943931234821897 1:15 2:35 3:142.093 4:1.97657 
0.01605725584372986 1:6 2:1 3:15.7329 4:1.97831 
0.008061138041280263 1:10 2:14 3:4.4394 4:1.93994 
0.04129399546393436 1:20 2:36 3:8.14645 4:1.78762 
0.03268846995301589 1:24 2:40 3:41.75 4:1.99429 
0.01258662267175326 1:12 2:1 3:17.0945 4:1.95026 
0.01733685006724953 1:16 2:22 3:10.3797 4:1.97879 
0.008326757589427507 1:12 2:28 3:5.51655 4:1.95875 
0.005822210245576831 1:18 2:9 3:39.6125 4:1.90827 
0.004337113431230707 1:14 2:21 3:5.19913 4:1.88905 
0.01771843307877607 1:30 2:11 3:29.7251 4:1.90667 
0.009604927195264235 1:16 2:8 3:6.12972 4:1.91991 
0.01575447671294312 1:17 2:4 3:13.5306 4:1.90653 
0.004168436359613658 1:12 2:20 3:3.78844 4:1.8788 
0.02305887057758288 1:20 2:12 3:10.2328 4:1.9256 
0.03041424441780445 1:31 2:6 3:46.5714 4:1.90938 
0.04944949657590225 1:60 2:4 3:44.8042 4:1.90939 
0.04945201372441776 1:57 2:128 3:41.5256 4:1.96515 
0.036495096124328 1:1 2:40 3:10.7521 4:1.93532 
0.001408776855113618 1:25 2:6 3:24.4173 4:1.86884 
0.02352054423802241 1:34 2:1 3:43.6283 4:1.96146 
0.02826006589214813 1:14 2:14 3:43.4286 4:1.92097 
0.02381169082533207 1:29 2:37 3:43.1865 4:1.93903 
0.04845482668459283 1:25 2:43 3:24.702 4:1.88355 
0.04729434917039232 1:30 2:16 3:1.32061 4:1.75448 
0.03060915311034589 1:1 2:5 3:27.3513 4:1.97292 
0.0080089091144904 1:2 2:18 3:5.93417 4:1.77931 
0.04931131897519664 1:18 2:66 3:2.27338 4:1.77339 
0.02428171491189673 1:1 2:7 3:9.35865 4:1.93332 
0.04943028183087039 1:3 2:445 3:0.570929 4:1.76727 
0.04933193780180545 1:61 2:184 3:1.2759 4:1.59946 
0.03476165194697274 1:7 2:40 3:2.55032 4:1.78726 
0.03388763841089054 1:3 2:2 3:43.9576 4:1.80476 
0.01018264649964327 1:1 2:5 3:7.21933 4:1.80105 
0.03907149427375099 1:1 2:25 3:9.4752 4:1.79443 
0.02983921799786121 1:2 2:8 3:38.1648 4:1.78187 
0.04941743778956098 1:6 2:6 3:85.6665 4:1.76323 
0.0312149265095266 1:43 2:2 3:54.45 4:1.96428 
0.04817862445793836 1:21 2:28 3:26.5362 4:1.96935 
0.0493934188968474 1:17 2:6 3:73.784 4:1.97384 
0.008504129666203092 1:26 2:9 3:27.6352 4:1.9437 
0.01201763870209832 1:17 2:16 3:8.66782 4:1.91342 
0.03587961135852663 1:35 2:40 3:50.65 4:1.88341 
0.02261858187484466 1:22 2:3 3:28.2657 4:1.9118 
0.02918817458092868 1:27 2:8 3:11.3155 4:1.93971 
0.009602163292360244 1:10 2:4 3:6.29839 4:1.97592 
0.01570218427679093 1:26 2:6 3:31.5353 4:1.82114 
0.02875320906236641 1:21 2:1 3:42.3333 4:1.95815 
0.04935199983547667 1:10 2:45 3:29.2857 4:1.94624 
0.04775823097491173 1:33 2:28 3:31.5439 4:1.95877 
0.02254664701945087 1:9 2:27 3:4.45248 4:1.93464 
0.01986333661029794 1:30 2:12 3:32.6031 4:1.92862 
0.01735646748377367 1:28 2:5 3:42.972 4:1.9508 
0.003133676493136444 1:25 2:8 3:29.5531 4:1.943 
0.009337354878789079 1:19 2:13 3:9.47924 4:1.9428 
0.02642247838053864 1:29 2:7 3:27.0488 4:1.93206 
0.03102858609215206 1:22 2:32 3:11.0792 4:1.95253 
0.04799714220651941 1:25 2:42 3:29.0691 4:1.89552 
0.001685631420962591 1:8 2:26 3:4.47864 4:1.87307 
0.0007669320607902042 1:13 2:1 3:7.35802 4:1.96339 
0.01715024363884331 1:11 2:14 3:1.97743 4:1.96157 
0.02199716110508032 1:16 2:1 3:7.53795 4:1.98499 
0.03829967862813125 1:30 2:6 3:18.0313 4:1.89946 
0.01550837068984121 1:34 2:8 3:42.2381 4:1.91657 
0.01073139300586786 1:13 2:4 3:3.58043 4:1.91693 
0.0327244537803765 1:28 2:15 3:33.6185 4:1.96932 
0.01271637046282514 1:28 2:18 3:31.5695 4:1.97866 
0.01793016043638562 1:28 2:4 3:43.5951 4:1.96169 
0.04708591799539324 1:12 2:23 3:26.8004 4:1.85377 
0.04934260132265483 1:8 2:20 3:25.45 4:1.88123 
0.01186468668673288 1:11 2:20 3:8.72091 4:1.97709 
0.003573410329025029 1:17 2:17 3:7.58804 4:1.93478 
0.03532867477093345 1:27 2:33 3:40.2865 4:1.97544 
0.04914207607914306 1:33 2:34 3:36.6872 4:1.87117 
0.04270105847862543 1:20 2:14 3:40.4884 4:1.96976 
0.04722710545026078 1:24 2:17 3:32.9452 4:1.91673 
0.01255480558397839 1:28 2:4 3:35.0189 4:1.90212 
0.02851734337307482 1:8 2:3 3:31.914 4:1.96662 
0.04468656301342122 1:44 2:7 3:52.9181 4:1.95282 
0.02204127996159396 1:30 2:1 3:43.2857 4:1.91498 
0.01049115169755159 1:17 2:24 3:9.26013 4:1.90739 
0.01952672483175856 1:25 2:11 3:8.77013 4:1.88417 
0.0112820176612842 1:15 2:9 3:10.1823 4:1.91683 
0.0213225165394962 1:21 2:6 3:15.9943 4:1.91959 
0.04942518827047704 1:23 2:4 3:87.9876 4:1.89472 
0.0074446745657541 1:8 2:4 3:9.47272 4:1.95511 
0.02632496242672028 1:30 2:6 3:45.1724 4:1.9413 
0.01412148813707934 1:12 2:1 3:5.29697 4:1.8774 
0.010330966854111 1:18 2:1 3:10.7823 4:1.94236 
0.005949949060220771 1:16 2:4 3:5.34281 4:1.93903 
0.04613875575187973 1:42 2:10 3:40.9573 4:1.92316 
0.002717394250187723 1:27 2:3 3:42.4695 4:1.93306 
0.01029722449455277 1:20 2:1 3:11.2847 4:1.84655 
0.002886144309592261 1:35 2:6 3:39.1693 4:1.84337 
0.01381410041789464 1:25 2:4 3:34.8445 4:1.94768 
0.03003801593962015 1:4 2:16 3:11.1703 4:1.98108 
0.03852640799273375 1:28 2:5 3:24.5727 4:1.94106 
0.0323567063119085 1:12 2:28 3:2.50906 4:1.94744 
0.03179554640625487 1:18 2:4 3:24.8316 4:1.84823 
0.001791025972454372 1:13 2:23 3:5.86227 4:1.92471 
0.04843010973717835 1:29 2:50 3:43.25 4:1.96606 
0.003010824730372214 1:1 2:5 3:6.24852 4:1.90074 
0.007161428333032736 1:15 2:6 3:5.88787 4:1.93331 
0.01594097538992775 1:14 2:14 3:5.95002 4:1.9439 
0.007184606892743678 1:6 2:21 3:5.40743 4:1.93817 
0.02656482853898225 1:25 2:14 3:25.1016 4:1.88743 
0.002061840171618312 1:13 2:15 3:8.04717 4:1.93217 
0.02494189745348761 1:14 2:19 3:12.933 4:1.93502 
0.04162453878470196 1:3 2:42 3:38.4762 4:1.90697 
0.02107973516139944 1:17 2:10 3:8.65957 4:1.93469 
0.000853399174598584 1:26 2:7 3:35.6837 4:1.88877 
0.03690383955314326 1:22 2:55 3:42.05 4:1.89522 
0.01455918863720817 1:24 2:12 3:30.2045 4:1.91895 
0.02030258915842797 1:25 2:40 3:34.1226 4:1.91078 
0.04788361261085722 1:18 2:43 3:33.6441 4:1.96599 
0.03260657895878044 1:15 2:5 3:14.5114 4:1.99634 
0.03046386710811247 1:4 2:14 3:15.8739 4:1.99597 
0.001169434130521212 1:29 2:7 3:28.0457 4:1.95794 
0.04932986998600913 1:37 2:51 3:53 4:1.9619 
0.01559043479165585 1:28 2:7 3:33.3861 4:1.9243 
0.02535995774623568 1:29 2:7 3:19.3971 4:1.96324 
0.02374226882975006 1:19 2:8 3:27.4691 4:1.9743 
0.02287681792014795 1:23 2:15 3:24.9775 4:1.8961 
0.3355373339122828 1:1 2:26 3:1.89433 4:1.97603 
0.02448421570765586 1:27 2:10 3:23.2128 4:1.89836 
0.01832911971673978 1:3 2:5 3:10.2855 4:1.91607 
0.001820236906891759 1:3 2:5 3:10.2855 4:1.91065 
0.04943738024061079 1:57 2:121 3:5.5986 4:1.99073 
0.04175565157878519 1:1 2:1 3:55.0343 4:1.9895 
0.02982802811518087 1:3 2:5 3:25.6651 4:1.99364 
0.0155887081559098 1:4 2:1 3:30.1689 4:1.98472 
0.02555870072459965 1:1 2:64 3:1.474 4:1.96351 
0.0270709030075118 1:1 2:64 3:0.750246 4:1.96309 
0.04933990217604556 1:1 2:110 3:6.28763 4:1.97872 
0.04930883436677419 1:64 2:38 3:52.4293 4:1.89484 
0.04931197015603506 1:1 2:114 3:50.4755 4:1.97102 
0.009816608145181451 1:1 2:4 3:25.9956 4:1.98679 
1 1:1 2:7 3:0.794574 4:1.96392 
0.005022382478388598 1:1 2:9 3:5.87987 4:1.95004 
0.01854820158675475 1:1 2:9 3:5.71429 4:1.7923 
0.03799364768675491 1:35 2:37 3:53.5238 4:1.9878 
0.03701081949709245 1:9 2:10 3:15.0803 4:1.88698 
0.0008036198948324883 1:28 2:6 3:26.9069 4:1.95967 
0.02545897387986694 1:24 2:3 3:41.7085 4:1.95245 
0.01102907533173289 1:23 2:9 3:22.5763 4:1.95734 
0.04148295924021733 1:32 2:1 3:45.8692 4:1.98667 
0.004771846232438079 1:11 2:11 3:6.13779 4:1.99035 
0.04865632881886544 1:29 2:46 3:1.22509 4:1.95823 
0.02335509751591131 1:18 2:10 3:12.2742 4:1.98695 
0.0247102285246775 1:20 2:21 3:4.12466 4:1.96868 
1 1:1 2:1 3:0.430645 4:1.96541 
0.01751977332109052 1:16 2:6 3:11.622 4:1.88465 
0.02187197591185913 1:29 2:12 3:38.6913 4:1.9585 
0.003068983933389377 1:11 2:18 3:5.06967 4:1.96424 
0.04381381489600211 1:4 2:44 3:14.317 4:1.92879 
0.0216989679085588 1:16 2:20 3:5.38903 4:1.9168 
0.02852278062417809 1:35 2:6 3:41.4649 4:1.91666 
0.04829810672553369 1:17 2:33 3:17.6121 4:1.7766 
0.008089330710556737 1:28 2:5 3:30.0375 4:1.89223 
0.01556597060319783 1:18 2:4 3:10.1049 4:1.89575 
0.02033965617775277 1:12 2:3 3:19.6537 4:1.87448 
0.008837413799835492 1:12 2:1 3:7.03237 4:1.91691 
0.01194367482680304 1:8 2:17 3:5.66677 4:1.8757 
0.01610269255460361 1:16 2:25 3:6.62802 4:1.94515 
0.04929873388641592 1:49 2:4 3:58.6667 4:1.92123 
0.01279613071528601 1:23 2:9 3:32.6409 4:1.9909 
0.009574329733596031 1:19 2:7 3:12.5091 4:1.92922 
0.02894381516113263 1:13 2:12 3:12.5776 4:1.89892 
1 1:1 2:1 3:0.437272 4:1.96227 
0.003187085194380919 1:9 2:5 3:4.73899 4:1.85398 
0.04149317805354472 1:14 2:42 3:37 4:1.92582 
0.03480355882354608 1:20 2:38 3:4.79183 4:1.96897 
0.02697486195888271 1:24 2:6 3:28.6605 4:1.96655 
0.03848723046234312 1:19 2:51 3:37.0476 4:1.95785 
0.0149139114291335 1:15 2:21 3:7.88243 4:1.96913 
0.01202742316302379 1:18 2:4 3:6.93597 4:1.93409 
0.018099221638195 1:29 2:10 3:36.8621 4:1.89225 
0.01084631458295495 1:10 2:15 3:5.27837 4:1.91153 
0.02417536253457429 1:19 2:8 3:12.9084 4:1.94587 
0.01237310078559424 1:6 2:16 3:3.35052 4:1.95029 
0.04728378035125602 1:43 2:12 3:46.5116 4:1.89415 
0.04974761881239564 1:28 2:34 3:54.0171 4:1.97945 
0.04227481968210466 1:22 2:9 3:43.7359 4:1.96894 
0.03233283825204124 1:20 2:3 3:19.3168 4:1.94408 
0.04160368361119271 1:38 2:6 3:40.2125 4:1.96211 
0.03900102968504426 1:12 2:4 3:27.2086 4:1.94542 
0.02220162877747357 1:14 2:33 3:6.52598 4:1.98833 
0.03121082438012896 1:37 2:7 3:43.1917 4:1.95975 
0.02011665126561057 1:34 2:13 3:39.8095 4:1.98133 
0.04620863434222894 1:27 2:33 3:33.1688 4:1.94303 
0.04935038324274604 1:15 2:64 3:44.6309 4:1.97296 
0.02788520714226651 1:37 2:9 3:44.7411 4:1.97773 
0.01768935471476542 1:29 2:3 3:30.1587 4:1.96758 
0.0009696913162886567 1:11 2:3 3:11.1093 4:1.94048 
0.002901976002729024 1:5 2:5 3:4.69952 4:1.95029 
0.04955875983250302 1:1 2:27 3:71.3544 4:1.92293 
0.01518693473994873 1:19 2:1 3:9.80074 4:1.88369 
0.01315286240639006 1:21 2:16 3:5.44145 4:1.92967 
0.02843699692949908 1:20 2:7 3:20.5186 4:1.94103 
0.04211721497420923 1:21 2:16 3:30.6796 4:1.9248 
0.01671059289012878 1:18 2:7 3:20.6335 4:1.94223 
0.03807810615521734 1:23 2:43 3:47.9048 4:1.9633 
0.01675126844926189 1:8 2:2 3:21.7106 4:1.99373 
0.03241453942468092 1:24 2:13 3:13.375 4:1.92596 
0.03133373028022396 1:32 2:15 3:41.3185 4:1.94691 
0.0106938209961157 1:12 2:27 3:7.50149 4:1.93341 
0.04875608881600393 1:2 2:38 3:39.2857 4:1.96846 
0.04895594396122194 1:39 2:16 3:35.0507 4:1.90042 
0.02301775087824237 1:3 2:12 3:6.5462 4:1.97981 
0.03520071154022909 1:13 2:9 3:13.5966 4:1.94286 
0.03315500222512452 1:17 2:16 3:28.5494 4:1.96424 
0.03495050491182405 1:41 2:4 3:49.4596 4:1.9326 
0.008521657188145289 1:14 2:26 3:9.39275 4:1.92885 
0.006120500156049515 1:9 2:24 3:5.90468 4:1.98375 
0.02044295009055407 1:26 2:7 3:23.709 4:1.91874 
0.02100607893074208 1:23 2:12 3:33.726 4:1.96914 
0.008970886546644182 1:13 2:26 3:3.72724 4:1.95764 
0.01858289170621101 1:8 2:11 3:5.62534 4:1.983 
0.0484226197318251 1:21 2:32 3:5.84748 4:1.91683 
0.02280883735534422 1:31 2:7 3:29.75 4:1.96807 
0.002071654227505874 1:19 2:3 3:9.06889 4:1.96551 
0.01086477403410041 1:22 2:3 3:7.16388 4:1.95747 
0.03746644875913938 1:19 2:48 3:42.3286 4:1.88034 
0.04542394183933429 1:33 2:5 3:20.4238 4:1.95406 
0.007032900089677704 1:11 2:1 3:7.32391 4:1.97005 
0.02310268551715138 1:28 2:34 3:39.3333 4:1.98882 
0.02657484524548502 1:15 2:1 3:1.38134 4:1.95256 
0.001572695085479258 1:14 2:16 3:3.66724 4:1.99094 
0.04646829736961411 1:38 2:1 3:33.6658 4:1.95134 
0.03692991697451351 1:19 2:24 3:2.7304 4:1.96246 
0.02932532180331473 1:7 2:14 3:1.10038 4:1.87371 
0.01500083980831794 1:8 2:16 3:3.43847 4:1.91833 
0.008012662465866554 1:17 2:6 3:7.42494 4:1.78256 
0.03704281483265998 1:19 2:35 3:37.75 4:1.9518 
0.04865568711477114 1:27 2:54 3:49.1226 4:1.96486 
0.009704697669134899 1:24 2:6 3:31.0528 4:1.9968 
0.01213172397838227 1:10 2:10 3:3.62631 4:1.98085 
0.001445117806397848 1:9 2:6 3:3.1421 4:1.96176 
0.00809908288519692 1:15 2:4 3:6.92728 4:1.96957 
0.04492279092949109 1:23 2:19 3:28.1416 4:1.90673 
0.0432285857067127 1:36 2:8 3:23.7306 4:1.90779 
0.03355783130816758 1:14 2:1 3:49.2871 4:1.91503 
0.003313765935038404 1:21 2:3 3:10.2533 4:1.95193 
0.004072055079625451 1:12 2:16 3:5.86812 4:1.9842 
0.01275478619119402 1:15 2:1 3:9.81048 4:1.82893 
0.02739725970985398 1:21 2:13 3:31.3459 4:1.99972 
0.009040916472491944 1:35 2:13 3:40.7058 4:1.9895 
0.02519198676932877 1:16 2:20 3:12.0044 4:1.96694 
0.03473183663139759 1:24 2:42 3:36.5238 4:1.97071 
0.04606530761324651 1:5 2:13 3:29.9991 4:1.95966 
0.007937812297372256 1:21 2:8 3:17.3277 4:1.99554 
1 1:1 2:6 3:0.621015 4:1.98264 
0.04880590521065298 1:45 2:5 3:48.3079 4:1.95856 
0.04101284483984233 1:19 2:40 3:43.3282 4:1.96239 
0.02502030581522624 1:4 2:2 3:26.6349 4:1.99678 
0.02452274794117697 1:21 2:10 3:21.5319 4:1.90868 
0.02588081162399699 1:22 2:7 3:9.37163 4:1.92082 
0.006836798209396928 1:27 2:7 3:33.4517 4:1.93411 
0.01777495730942058 1:42 2:9 3:46.5416 4:1.9293 
0.02523474778005776 1:31 2:6 3:39.9307 4:1.93386 
0.04443051678155235 1:17 2:32 3:47.2381 4:1.96773 
0.04164641807401598 1:26 2:36 3:39.3333 4:1.94236 
0.02998253135104879 1:15 2:1 3:25.5075 4:1.9524 
0.01551971425271497 1:17 2:6 3:9.03717 4:1.90475 
0.008031355875654289 1:31 2:8 3:38.0946 4:1.95528 
0.0432587258138728 1:31 2:9 3:7.98493 4:1.92383 
0.04201258131130958 1:17 2:43 3:38.8307 4:1.94633 
0.0320244702002927 1:25 2:41 3:39.2142 4:1.97999 
0.03561753685312974 1:21 2:39 3:3.45213 4:1.86304 
0.01360648034094217 1:17 2:13 3:5.99054 4:1.98838 
0.01947781627905837 1:16 2:11 3:5.71673 4:1.95446 
0.02711304317935703 1:19 2:19 3:11.6045 4:1.99708 
0.01602797712964908 1:9 2:13 3:7.81022 4:1.98131 
0.04827677248908757 1:44 2:5 3:42.4845 4:1.96661 
0.04927394338562208 1:1 2:16 3:23.8746 4:1.98093 
0.02331931391366229 1:24 2:9 3:21.2546 4:1.98033 
0.01687756376639491 1:29 2:8 3:41.0934 4:1.93464 
0.03136831860658232 1:14 2:25 3:12.1413 4:1.92222 
0.04541287759375273 1:32 2:18 3:24.0363 4:1.92351 
0.0492592612128509 1:32 2:29 3:48.9048 4:1.92462 
0.009480854319265918 1:33 2:12 3:33.5213 4:1.95137 
0.0432038748299749 1:30 2:15 3:45.5178 4:1.9255 
0.02542614975573682 1:14 2:31 3:13.8385 4:1.86694 
0.01345218924346126 1:19 2:23 3:7.38083 4:1.91988 
0.04806305502017583 1:30 2:34 3:11.4923 4:1.94088 
0.0329654643357465 1:22 2:35 3:9.83183 4:1.95118 
0.0289391135903202 1:32 2:2 3:7.39073 4:1.94088 
0.04942600719923357 1:36 2:78 3:26.6272 4:1.94836 
0.04925835176778776 1:53 2:93 3:41.5149 4:1.90455 
0.04857423035793262 1:15 2:47 3:14.1248 4:1.94576 
0.04937428145840528 1:42 2:26 3:2.63351 4:1.96428 
0.04942574514091297 1:3 2:494 3:0.525389 4:1.96683 
0.04938702272135753 1:17 2:1154 3:2.48804 4:1.96843 
0.03518496130619447 1:24 2:26 3:9.13486 4:1.96911 
0.03530679255940278 1:10 2:11 3:18.8235 4:1.97389 
0.008417592542576131 1:12 2:22 3:4.39959 4:1.95528 
0.03829594395740615 1:17 2:42 3:18.2796 4:1.94498 
0.04922662837568092 1:3 2:21 3:16.5714 4:1.93073 
0.04942702774189739 1:22 2:48 3:8.69579 4:1.88824 
0.001498804306419562 1:19 2:2 3:8.38761 4:1.87916 
0.00196992907326432 1:18 2:2 3:8.50596 4:1.86709 
0.04911401329878412 1:27 2:24 3:18.166 4:1.91556 
0.04593863703562745 1:8 2:13 3:27.8 4:1.92222 
0.02004702088751961 1:10 2:12 3:10.9129 4:1.96031 
0.03223705053095161 1:13 2:23 3:13.3975 4:1.91047 
0.02632933579470857 1:29 2:44 3:24.6334 4:1.93059 
0.003895218759855089 1:3 2:1 3:5.05374 4:1.99148 
0.007869788121379957 1:23 2:3 3:9.16461 4:1.92521 
0.03380500812859905 1:42 2:5 3:53.3748 4:1.94658 
0.01848204860237734 1:2 2:10 3:16.4036 4:1.90912 
0.03866007057418253 1:19 2:49 3:46.1429 4:1.9707 
0.02805455217340683 1:15 2:1 3:32.5 4:1.93653 
0.03616048121145642 1:13 2:32 3:12.6925 4:1.91752 
0.0157829344754481 1:2 2:10 3:19.0049 4:1.91952 
0.04490765246144818 1:2 2:28 3:10.5498 4:1.97341 
0.04892903141135341 1:29 2:22 3:32.3138 4:1.95465 
0.01477746071558894 1:24 2:11 3:36.2443 4:1.94461 
0.03025533307191777 1:16 2:11 3:15.407 4:1.97157 
0.04811464076478367 1:12 2:47 3:39.381 4:1.9866 
0.02929788022398091 1:31 2:3 3:49.9167 4:1.97853 
0.02267495960942955 1:30 2:13 3:40.9059 4:1.95418 
0.02375262689829238 1:5 2:28 3:0.685149 4:1.96623 
0.004658948417995168 1:8 2:24 3:5.02664 4:1.9684 
0.005984045378133962 1:12 2:7 3:3.6898 4:1.98043 
0.00976851529304534 1:17 2:5 3:13.2786 4:1.97355 
0.04000089449383934 1:24 2:12 3:18.969 4:1.93044 
0.03291752788394436 1:9 2:4 3:28.7552 4:1.88965 
0.02448971902313319 1:32 2:6 3:31.8661 4:1.95849 
0.01049749842585703 1:20 2:7 3:34.2896 4:1.94059 
0.002490947716513607 1:10 2:21 3:3.83348 4:1.96409 
0.01624673349702667 1:22 2:1 3:13.8762 4:1.9086 
0.003298717960024321 1:14 2:24 3:6.93927 4:1.95361 
0.01048366351020606 1:4 2:24 3:5.64668 4:1.95178 
0.003784688412337269 1:13 2:18 3:6.95305 4:1.98332 
0.008054968915061413 1:11 2:26 3:4.79356 4:1.96498 
0.009205688193685913 1:3 2:28 3:6.00169 4:1.95416 
0.003829023195903156 1:21 2:6 3:7.29726 4:1.94935 
0.02972297654169848 1:26 2:20 3:15.1377 4:1.94461 
0.00852767702683598 1:12 2:3 3:5.45951 4:1.98408 
0.004474916855540464 1:16 2:8 3:10.8029 4:1.96047 
0.01735027766643574 1:17 2:19 3:7.86593 4:1.90879 
0.02703160084808972 1:6 2:10 3:2.48378 4:1.97168 
0.04287193197484257 1:27 2:46 3:46.1905 4:1.98179 
0.03275986331898893 1:14 2:32 3:3.65931 4:1.93004 
0.03515529312670111 1:36 2:7 3:32.1088 4:1.87248 
0.04909289802371924 1:30 2:41 3:60.3333 4:1.89216 
0.03931073343798569 1:23 2:49 3:14.663 4:1.85465 
0.00683130906383057 1:21 2:5 3:3.00324 4:1.99126 
0.01672815541833547 1:7 2:4 3:9.71734 4:1.982 
0.01613135057690698 1:20 2:23 3:3.8803 4:1.97969 
0.04444029408076716 1:40 2:5 3:7.4083 4:1.97867 
0.04934193003555404 1:20 2:1 3:115.194 4:1.97689 
0.01099833325260607 1:20 2:1 3:4.84783 4:1.9788 
0.03501925999621144 1:20 2:1 3:32.337 4:1.97806 
0.04925906050699558 1:2 2:21 3:35.0515 4:1.97584 
0.04557430588535477 1:4 2:10 3:35.0515 4:1.98307 
0.02321446170193397 1:10 2:1 3:18.8649 4:1.96653 
0.5603937752104695 1:30 2:1 3:0.957761 4:1.97798 
0.04382458324425237 1:36 2:1 3:5.05009 4:1.9642 
0.01500389324426993 1:7 2:1 3:23.08 4:1.96819 
0.04952933885558808 1:216 2:62 3:23.08 4:1.96819 
0.02159344963265844 1:7 2:3 3:23.08 4:1.98325 
0.04906771739254084 1:7 2:1 3:127.297 4:1.96436 
0.006344791295944104 1:16 2:7 3:7.22118 4:1.96328 
0.0005842415099787183 1:6 2:2 3:6.44471 4:1.95328 
0.01108461093750529 1:4 2:1 3:9.97212 4:1.97331 
0.02161318411729096 1:8 2:7 3:7.22118 4:1.95308 
0.009310165730269753 1:5 2:7 3:3.86174 4:1.95145 
0.0472051832766751 1:30 2:2 3:10.5185 4:1.98253 
0.0492507759437229 1:30 2:2 3:96.4788 4:1.98296 
0.02309743073275028 1:14 2:15 3:23.08 4:1.96935 
0.02626999350898801 1:11 2:4 3:12.9406 4:1.94611 
0.04905371585516495 1:32 2:40 3:36.1424 4:1.96487 
0.007538243660518216 1:14 2:1 3:5.32305 4:1.97908 
0.02808436438360601 1:18 2:7 3:26.4727 4:1.97491 
0.03269987670680052 1:24 2:17 3:38.8095 4:1.98216 
0.04765108686113138 1:15 2:40 3:32.6 4:1.98626 
0.04929562555733003 1:7 2:51 3:45.85 4:1.97133 
0.01087776242381706 1:3 2:1 3:17.7913 4:1.97943 
0.02570198242528624 1:23 2:4 3:3.15735 4:1.91122 
0.008495815223354714 1:9 2:9 3:10.3786 4:1.98434 
0.03939026538697248 1:18 2:10 3:2.32655 4:1.6611 
0.1214827189752158 1:1 2:1 3:0.572699 4:1.70128 
0.0277516490443455 1:1 2:2 3:66.7437 4:1.75668 
0.04937921013750374 1:21 2:14 3:59.9573 4:1.99749 
0.01225836159473679 1:5 2:8 3:4.79761 4:1.94601 
0.01695844033038259 1:1 2:3 3:27.8508 4:1.9835 
0.02961196902705748 1:28 2:1 3:46.465 4:1.92434 
0.04427646886871572 1:22 2:32 3:31.3803 4:1.97684 
0.04964764002449401 1:3 2:17 3:83.736 4:1.93425 
0.03905050532509928 1:22 2:2 3:38.6646 4:1.92242 
0.04928291539374857 1:45 2:3 3:35.7947 4:1.92291 
0.03850711397328485 1:17 2:1 3:14.7226 4:1.92887 
0.00289283181280636 1:15 2:6 3:10.9401 4:1.9483 
0.3203782585511007 1:1 2:11 3:1.3154 4:1.88166 
0.03359656093268365 1:27 2:37 3:43.9855 4:1.99232 
0.01004959342641633 1:14 2:7 3:7.92981 4:1.91725 
0.04922286429781197 1:40 2:10 3:54.406 4:1.97646 
0.04736933765317258 1:6 2:8 3:62.8204 4:1.94655 
0.002164606832240385 1:11 2:20 3:3.60684 4:1.99823 
0.001064826305441611 1:4 2:23 3:5.3169 4:1.93259 
0.04460257088436324 1:26 2:45 3:33.3949 4:1.9467 
0.005553266283522903 1:17 2:3 3:8.2777 4:1.90365 
0.03867728926564445 1:27 2:20 3:23.711 4:1.98324 
0.0242671554024803 1:6 2:1 3:32.6667 4:1.9708 
0.004744902554260767 1:27 2:4 3:32.3727 4:1.97221 
0.006862282032229575 1:18 2:8 3:7.19073 4:1.94744 
0.04909104487644639 1:25 2:36 3:3.14058 4:1.87788 
0.004378849432811364 1:29 2:8 3:38.8 4:1.95986 
0.02951141477569462 1:26 2:15 3:29.2962 4:1.91229 
1 1:1 2:1 3:0.486235 4:1.81606 
0.01735051903427198 1:4 2:1 3:4.78881 4:1.80978 
0.0496096130689908 1:12 2:60 3:45 4:1.93608 
0.02043202754277903 1:39 2:8 3:47.6863 4:1.93469 
0.02426126015681967 1:1 2:14 3:9.69037 4:1.88695 
0.005233648754535388 1:8 2:22 3:5.30999 4:1.99851 
0.03058284245827321 1:15 2:17 3:13.324 4:1.99605 
0.04887180456482537 1:10 2:52 3:2.22487 4:1.94773 
0.01544331223342803 1:7 2:17 3:0.739275 4:1.99257 
0.02161326873756195 1:7 2:13 3:11.517 4:1.93873 
0.01833498422312237 1:16 2:1 3:24.665 4:1.90416 
0.04241993746454453 1:1 2:7 3:68.1064 4:1.90285 
0.03377938951035178 1:1 2:1 3:30.4179 4:1.9113 
0.01213477713828995 1:1 2:7 3:7.84932 4:1.88692 
0.0133708764397754 1:2 2:25 3:5.92526 4:1.95829 
0.03462224273294334 1:1 2:22 3:8.82328 4:1.95575 
0.006287593299876784 1:9 2:5 3:3.15648 4:1.9966 
0.04118025920911378 1:28 2:33 3:25.0552 4:1.91762 
0.02542914334348428 1:4 2:1 3:34.5861 4:1.97032 
0.01746257187909682 1:23 2:11 3:9.19569 4:1.98388 
0.02794216153705176 1:1 2:1 3:27.7108 4:1.94718 
0.03883167402194568 1:18 2:9 3:40.4536 4:1.94238 
0.04527965063457184 1:2 2:38 3:13.8335 4:1.98948 
0.01483477401554723 1:20 2:6 3:31.6923 4:1.99526 
0.03529441112038426 1:20 2:44 3:38.75 4:1.97846 
0.04929443707978948 1:9 2:43 3:24.6867 4:1.99369 
0.5936112337509606 1:1 2:30 3:2.22517 4:1.97922 
0.02484170798910558 1:34 2:9 3:22.5303 4:1.96628 
0.01172830555594565 1:5 2:11 3:4.05431 4:1.9191 
0.004432143111581835 1:14 2:3 3:4.62275 4:1.932 
0.02929009792072512 1:26 2:1 3:14.681 4:1.89994 
0.02364245355250642 1:27 2:6 3:39.7855 4:1.93141 
0.0140255782528316 1:24 2:8 3:35.6598 4:1.98333 
0.04666160939106667 1:21 2:22 3:29.1411 4:1.97378 
0.005609161252019027 1:6 2:17 3:6.12982 4:1.91473 
0.02034759216525489 1:24 2:6 3:36.1513 4:1.90966 
0.03348641498219002 1:26 2:39 3:33.2381 4:1.91144 
0.04927105157376244 1:33 2:22 3:54.399 4:1.94573 
0.008933178426642777 1:17 2:9 3:15.5742 4:1.91067 
0.03926241773285576 1:7 2:6 3:28.0224 4:1.92108 
0.04396073221162716 1:31 2:46 3:25.7117 4:1.93433 
0.01386189184227684 1:6 2:6 3:6.19949 4:1.96288 
0.03785593680993099 1:34 2:12 3:50.0409 4:1.9608 
0.004437399692913551 1:1 2:23 3:5.85635 4:1.98922 
0.04183546050870923 1:260 2:2 3:3.0826 4:1.90152 
0.04194106824718979 1:260 2:2 3:0.475337 4:1.88322 
0.04002316755041824 1:10 2:10 3:25.1298 4:1.98809 
0.01707218753282692 1:26 2:9 3:32.2855 4:1.85966 
0.003008940959860859 1:14 2:3 3:6.52384 4:1.90039 
0.01878443649827793 1:23 2:4 3:7.95505 4:1.9826 
0.03420826603904852 1:1 2:40 3:4.87454 4:1.95062 
0.04771309508980232 1:22 2:20 3:1.31086 4:1.96614 
0.04869623378909321 1:31 2:37 3:23.7093 4:1.90862 
0.03201305307184387 1:42 2:8 3:46.0318 4:1.92952 
0.01369620889386403 1:25 2:20 3:14.2886 4:1.93317 
0.007679118703133049 1:13 2:5 3:7.7519 4:1.95449 
0.04427118805099899 1:29 2:36 3:37.0476 4:1.93729 
0.009985333184504458 1:10 2:24 3:5.59591 4:1.99174 
0.03433223574107236 1:15 2:8 3:15.9072 4:1.96398 
0.03438739316701017 1:27 2:8 3:20.0193 4:1.98854 
0.002727723264418772 1:2 2:17 3:6.03921 4:1.9137 
0.04107046219513882 1:15 2:15 3:30.3392 4:1.98805 
0.0326761932186269 1:14 2:16 3:24.2145 4:1.98592 
0.03384867202388869 1:36 2:2 3:49.0175 4:1.93718 
0.04739498813908194 1:19 2:31 3:42.4369 4:1.97512 
0.0260891659595226 1:1 2:11 3:10.3716 4:1.97808 
0.01853275626494072 1:12 2:9 3:7.69048 4:1.95092 
0.02562113875427008 1:7 2:1 3:14.077 4:1.95078 
0.03660612318495574 1:15 2:31 3:9.34622 4:1.93177 
0.04330783558109752 1:26 2:36 3:34.9848 4:1.87515 
0.03327507903668503 1:30 2:39 3:29.2672 4:1.98626 
0.04346987295929294 1:25 2:14 3:40.9 4:1.98151 
0.01167461996038018 1:2 2:1 3:22.6303 4:1.9765 
0.00390936874092751 1:7 2:29 3:3.49079 4:1.98646 
0.01766899510279034 1:20 2:7 3:6.21403 4:1.98486 
0.03080562562347382 1:12 2:11 3:0.669724 4:1.97623 
0.009463334436897824 1:3 2:1 3:19.2988 4:1.97187 
1 1:1 2:8 3:0.450569 4:1.86335 
0.02109647227318273 1:6 2:18 3:0.765728 4:1.98128 
0.01249686487728999 1:10 2:2 3:16.1483 4:1.97545 
0.01945701836512731 1:4 2:1 3:22.9377 4:1.83489 
0.04411793758223852 1:16 2:1 3:29.619 4:1.85463 
0.01487485002910859 1:22 2:1 3:6.12462 4:1.98317 
0.04932693227132923 1:54 2:170 3:46.3377 4:1.94696 
0.02694234908998577 1:12 2:20 3:1.21285 4:1.91344 
0.04919459763512835 1:11 2:1 3:125.03 4:1.94101 
0.02678310412827464 1:21 2:37 3:31.9524 4:1.95622 
0.04857191472240815 1:10 2:43 3:39.15 4:1.91418 
0.01524071399253965 1:26 2:10 3:26.8861 4:1.92016 
0.02631819901642651 1:26 2:5 3:11.5868 4:1.92025 
0.04888282225916657 1:12 2:2 3:53.6576 4:1.98799 
0.04923988770653048 1:2 2:32 3:31.243 4:1.98486 
0.04072616865007694 1:34 2:35 3:45.5238 4:1.99868 
0.02830496418985893 1:29 2:16 3:25.4793 4:1.85157 
0.002743162675267281 1:29 2:9 3:33.4825 4:1.94994 
0.04521336779266028 1:23 2:37 3:44.8117 4:1.95223 
0.004718646593920534 1:8 2:8 3:9.69477 4:1.98429 
0.01730346885400762 1:8 2:13 3:3.55431 4:1.93297 
0.01721525826800108 1:18 2:14 3:13.5004 4:1.92918 
0.03949062125248509 1:4 2:44 3:36.8 4:1.97018 
0.03713131542083192 1:23 2:40 3:32.6849 4:1.97241 
0.01729874297809009 1:24 2:12 3:24.0669 4:1.9887 
0.04914814251050803 1:25 2:280 3:1.88271 4:1.79675 
1 1:1 2:21 3:1.0054 4:1.79827 
0.01090292372996887 1:1 2:1 3:8.98663 4:1.68498 
0.04600387106524045 1:26 2:15 3:44.0483 4:1.93594 
0.007134884856764907 1:9 2:20 3:5.56818 4:1.95641 
0.04557642712568633 1:16 2:4 3:47.9727 4:1.9645 
0.001334692949994892 1:10 2:11 3:7.84763 4:1.98066 
0.0141678139334695 1:33 2:3 3:29.1315 4:1.92629 
0.04724275233066705 1:34 2:1 3:54.6667 4:1.92858 
0.04936276538166107 1:51 2:107 3:91.832 4:1.96867 
0.01034310188269902 1:22 2:14 3:21.1422 4:1.98879 
0.04835732615371597 1:43 2:1 3:41.8551 4:1.93512 
0.01541677952179626 1:10 2:8 3:2.42965 4:1.94934 
0.007794474918935144 1:11 2:22 3:5.98747 4:1.94851 
0.03190504877168814 1:28 2:19 3:37.25 4:1.9001 
0.0280119572427969 1:21 2:11 3:23.6551 4:1.94463 
0.02347165984114315 1:34 2:28 3:39.9307 4:1.99486 
0.04323436000496056 1:18 2:46 3:48.6595 4:1.8564 
0.00537994668185157 1:15 2:27 3:6.0069 4:1.92616 
1 1:1 2:1 3:0.420425 4:1.98398 
0.01665824761168827 1:22 2:9 3:34.6807 4:1.90226 
0.03443142164502375 1:35 2:7 3:30.306 4:1.93742 
0.02546945489047192 1:4 2:28 3:7.15046 4:1.91349 
0.02173171901991203 1:33 2:11 3:29.8499 4:1.98545 
0.04838567750865796 1:20 2:15 3:49.0964 4:1.96906 
0.04895147252121379 1:33 2:7 3:66.9202 4:1.97128 
0.03390689323717354 1:8 2:41 3:1.08756 4:1.93776 
0.04656317144982119 1:18 2:34 3:33.75 4:1.98143 
0.006040540515105774 1:15 2:11 3:7.10595 4:1.9392 
0.002153510595148902 1:17 2:10 3:19.804 4:1.96145 
0.01560810373652293 1:6 2:10 3:6.06746 4:1.99412 
0.005702174915338322 1:21 2:5 3:7.76432 4:1.94306 
0.02589642469326788 1:21 2:15 3:8.77794 4:1.89273 
0.04266466738342145 1:6 2:41 3:36.2953 4:1.97113 
0.0449676143089752 1:35 2:12 3:22.1005 4:1.97961 
0.01528815771208545 1:17 2:14 3:6.22945 4:1.86567 
0.03414353662498808 1:13 2:2 3:35.7906 4:1.88156 
0.01024073730503416 1:17 2:18 3:5.86467 4:1.91808 
0.01956670840420804 1:28 2:8 3:38.1432 4:1.88775 
0.01003703015084201 1:23 2:4 3:3.78777 4:1.94949 
0.01049789947397618 1:9 2:26 3:8.56968 4:1.96679 
1 1:1 2:1 3:0.436762 4:1.94517 
0.03786551850353054 1:19 2:49 3:27.8294 4:1.98883 
0.02011029683014903 1:19 2:4 3:12.1271 4:1.9846 
0.01610941396108428 1:18 2:23 3:12.2668 4:1.97088 
0.02900466149738056 1:10 2:10 3:28.2622 4:1.93663 
0.04410461119806947 1:22 2:42 3:56.8796 4:1.9909 
0.02226040883598913 1:19 2:1 3:13.0626 4:1.94716 
0.004623295214296273 1:15 2:30 3:7.2173 4:1.94565 
0.0194795103005778 1:21 2:5 3:11.0105 4:1.9814 
0.02275829324089114 1:18 2:22 3:4.62355 4:1.95495 
0.02744948585337875 1:27 2:39 3:42.1 4:1.9893 
0.01170359743301706 1:23 2:11 3:23.003 4:1.92001 
0.04465939825440321 1:25 2:49 3:53.1179 4:1.96414 
0.03725234253011539 1:26 2:4 3:16.1193 4:1.94434 
0.03848578497597589 1:12 2:2 3:39.6616 4:1.934 
0.006997822802733376 1:1 2:9 3:10.7999 4:1.93758 
0.02373710362126112 1:17 2:17 3:4.60684 4:1.94817 
0.02780524521488987 1:29 2:17 3:32.2457 4:1.99052 
0.005937480487656499 1:20 2:1 3:7.4518 4:1.91254 
1 1:4 2:1 3:0.486897 4:1.95722 
0.04022297647493994 1:23 2:1 3:44.8 4:1.99122 
0.04906414806748155 1:14 2:10 3:50.0673 4:1.98707 
0.01639090991633455 1:4 2:3 3:17.3158 4:1.95867 
0.02965644372974703 1:28 2:2 3:33.6546 4:1.98731 
0.01258465715679022 1:29 2:9 3:26.2711 4:1.9458 
0.01929124196102654 1:12 2:31 3:6.13564 4:1.92329 
0.01036229618913842 1:13 2:11 3:3.80256 4:1.93947 
0.01222806654433566 1:13 2:22 3:7.33013 4:1.94848 
0.002174753616290236 1:15 2:18 3:4.52558 4:1.95611 
0.0133024504147062 1:21 2:7 3:7.27377 4:1.96214 
0.0224715243712419 1:39 2:5 3:46.3703 4:1.89313 
0.04735288117118841 1:32 2:23 3:36.1421 4:1.99818 
0.02392384529209141 1:39 2:3 3:48.8371 4:1.96362 
0.04528196531334655 1:6 2:13 3:37.55 4:1.9624 
0.01082794751495565 1:14 2:13 3:8.21022 4:1.93989 
0.01216078214111191 1:32 2:8 3:41.0426 4:1.92335 
0.02223440005394806 1:22 2:15 3:6.3188 4:1.82115 
0.00216727862103258 1:14 2:18 3:5.99584 4:1.96 
0.0009607220920982211 1:7 2:6 3:3.64402 4:1.98766 
0.001025343299723813 1:14 2:9 3:7.21149 4:1.91624 
0.02150037282843336 1:7 2:25 3:7.34984 4:1.91854 
0.01868480126243924 1:26 2:6 3:25.623 4:1.85073 
0.03080270050673671 1:11 2:24 3:10.489 4:1.96441 
0.01498025031729067 1:22 2:7 3:29.8766 4:1.95376 
0.045169093419544 1:13 2:47 3:9.30254 4:1.98447 
0.02651146801567077 1:30 2:15 3:27.0589 4:1.9466 
0.04001194460798362 1:6 2:7 3:67.3825 4:1.98474 
0.04909857661629113 1:27 2:32 3:3.70951 4:1.97303 
0.04979698727851783 1:29 2:1 3:91.4616 4:1.97115 
0.04903239088013023 1:19 2:51 3:4.7969 4:1.98499 
0.7905423827018119 1:6 2:1 3:0.538491 4:1.91162 
0.003848049557935873 1:3 2:4 3:6.044 4:1.89436 
0.03739062331721721 1:35 2:39 3:48.7619 4:1.99148 
0.04345406943070945 1:2 2:34 3:6.15618 4:1.97993 
0.00836967158589476 1:33 2:13 3:33.0821 4:1.9266 
0.03736918051363079 1:33 2:4 3:50.75 4:1.96035 
0.007572529226868516 1:22 2:3 3:10.8623 4:1.94678 
0.01293433959153334 1:13 2:8 3:6.23769 4:1.95342 
0.03539890832827278 1:21 2:17 3:10.6864 4:1.94667 
0.007639527026476745 1:28 2:10 3:28.7615 4:1.93664 
0.04890336034094484 1:23 2:35 3:20.2504 4:1.99145 
0.02618280551425767 1:34 2:13 3:31.8846 4:1.94425 
0.01869334062912678 1:24 2:7 3:32.9891 4:1.96536 
0.01387422400427026 1:31 2:7 3:34.2413 4:1.94943 
0.04904634712273509 1:13 2:50 3:27.6277 4:1.98225 
0.006591985357350079 1:8 2:9 3:9.54613 4:1.93926 
0.03449853666544761 1:1 2:11 3:18.9557 4:1.95949 
0.0122874362265046 1:25 2:9 3:30.6842 4:1.95381 
0.04520929068605147 1:40 2:42 3:50.4286 4:1.96466 
0.03091691687672951 1:14 2:1 3:14.7501 4:1.98243 
0.0403489826782254 1:25 2:52 3:35.8688 4:1.96742 
0.007410736137446542 1:4 2:29 3:4.87483 4:1.92626 
0.01237119378740782 1:3 2:19 3:5.26149 4:1.94156 
0.04932720589561712 1:38 2:67 3:4.0257 4:1.99069 
0.04840317961045287 1:1 2:31 3:14.0653 4:1.97631 
0.04276825341997947 1:24 2:48 3:35.9364 4:1.97431 
0.04892212675285496 1:27 2:28 3:36.1927 4:1.9807 
0.04352599665674611 1:4 2:42 3:34.0476 4:1.97988 
0.02452390425244427 1:15 2:1 3:48.25 4:1.94845 
0.02100158463325889 1:28 2:11 3:22.4145 4:1.93199 
0.009715294578196148 1:12 2:10 3:11.3277 4:1.99252 
0.02707839492996156 1:30 2:13 3:25.4354 4:1.98344 
0.008408413182184955 1:30 2:9 3:41.2818 4:1.95315 
0.1327634940552972 1:2 2:45 3:2.33162 4:1.98269 
0.02550228472214231 1:24 2:5 3:9.75934 4:1.99864 
0.01000984168287089 1:9 2:11 3:8.77778 4:1.99616 
0.03072954254229864 1:23 2:4 3:23.957 4:1.97604 
0.03661301486487 1:12 2:12 3:19.5331 4:1.9571 
0.01902308729313105 1:5 2:26 3:7.06394 4:1.98368 
0.01039370001017241 1:11 2:19 3:7.92471 4:1.98645 
0.04943105119873575 1:63 2:1 3:100.166 4:1.96718 
0.04689143208251539 1:27 2:14 3:11.0087 4:1.87727 
0.01501079908778747 1:23 2:11 3:9.92985 4:1.90457 
0.024518468110243 1:9 2:20 3:1.77986 4:1.93274 
0.04932307042701012 1:83 2:240 3:5.24645 4:1.95549 
0.03731941888011575 1:18 2:14 3:3.32764 4:1.95325 
0.04584308223235417 1:1 2:45 3:6.98214 4:1.95462 
0.04941744481337534 1:46 2:12 3:4.09373 4:1.94967 
0.04933091752519458 1:71 2:21 3:7.57564 4:1.91508 
0.01690771426789834 1:2 2:40 3:4.11587 4:1.90681 
0.04954061167622392 1:171 2:58 3:3.01436 4:1.92774 
0.01630049562878477 1:6 2:8 3:16.781 4:1.93581 
0.04734068274773751 1:1 2:14 3:93.5967 4:1.82122 
0.01506970202948701 1:10 2:1 3:6.16196 4:1.92838 
0.005975325244465422 1:3 2:8 3:4.54945 4:1.91623 
0.04921690986872668 1:1 2:49 3:75.5475 4:1.84753 
0.03961407338009276 1:4 2:2 3:41.2617 4:1.98776 
0.01490426298763417 1:2 2:3 3:55.8566 4:1.94455 
0.04937123061085752 1:6 2:1 3:148.258 4:1.98218 
0.005734235708299819 1:1 2:1 3:9.58804 4:1.91576 
0.04938094704237073 1:1 2:470 3:0.820111 4:1.91031 
0.01105409745746866 1:23 2:8 3:37.9569 4:1.95855 
0.0467529081793582 1:29 2:15 3:4.58107 4:1.96682 
0.04937501917704096 1:9 2:127 3:3.81395 4:1.74525 
0.04990057522605762 1:1 2:385 3:18.5196 4:1.45589 
0.05068258343072396 1:5 2:85 3:0.951788 4:1.45861 
0.009308322717170877 1:1 2:1 3:11.7882 4:1.4784 
0.0275531512868409 1:10 2:7 3:17.95 4:1.94148 
0.03754264541417809 1:49 2:23 3:13.1865 4:1.99428 
0.9587401150828936 1:1 2:50 3:1.37847 4:1.98659 
0.03624273340121825 1:1 2:1 3:77.2065 4:1.91731 
0.02491653701403863 1:1 2:3 3:19.6837 4:1.99744 
0.04741283048326256 1:68 2:1 3:5.97197 4:1.97095 
0.04898908097736182 1:70 2:19 3:92.4316 4:1.97243 
0.04944898515972396 1:116 2:1 3:68.6115 4:1.99901 
0.04938075989469953 1:122 2:5 3:3.0261 4:1.99986 
0.04749099384567224 1:3 2:11 3:93.3926 4:1.99428 
0.034659682268115 1:5 2:6 3:32.2386 4:1.98796 
0.0493170623739958 1:15 2:5 3:138.489 4:1.9876 
0.04948703261480319 1:19 2:4 3:108.339 4:1.96067 
0.01575844674268452 1:1 2:1 3:7.84085 4:1.96804 
0.02344295710675233 1:33 2:3 3:39.8148 4:1.91216 
0.04188000075223956 1:25 2:50 3:42.9712 4:1.88748 
0.04053762459561533 1:37 2:9 3:49.4932 4:1.95568 
0.04978182608759313 1:43 2:70 3:0.564102 4:1.93378 
0.04820534828294926 1:13 2:56 3:21.0952 4:1.93862 
1 1:5 2:1 3:0.417953 4:1.96543 
0.04811841237460973 1:35 2:3 3:57.8 4:1.99528 
0.04930576170377476 1:37 2:46 3:30.6509 4:1.92669 
0.006708854069902682 1:8 2:20 3:7.48984 4:1.94511 
0.04776355778615426 1:26 2:46 3:28.8785 4:1.95599 
0.0260755483450829 1:21 2:5 3:31.3671 4:1.97996 
0.008597050407350919 1:11 2:4 3:4.89096 4:1.97983 
0.04940632434009884 1:17 2:30 3:36.6 4:1.9663 
0.009646342568679796 1:4 2:12 3:5.08368 4:1.99593 
0.04908577582626583 1:33 2:26 3:14.1918 4:1.92456 
0.02365084787371759 1:11 2:23 3:2.49032 4:1.98974 
0.009831789743318527 1:6 2:22 3:7.21514 4:1.99466 
0.02422209604409469 1:16 2:10 3:19.6825 4:1.98985 
0.03452946088700518 1:43 2:1 3:55.8571 4:1.96459 
0.02436460522822023 1:1 2:4 3:10.6909 4:1.90857 
0.04850375613707825 1:14 2:43 3:14.328 4:1.9779 
0.04676479763467978 1:17 2:29 3:44.75 4:1.91487 
0.03369893692480608 1:31 2:40 3:30.2358 4:1.8918 
0.005300340850061999 1:6 2:14 3:1.98492 4:1.98079 
0.006692679799583627 1:3 2:1 3:9.58816 4:1.92228 
0.0257634342714407 1:1 2:3 3:66.4818 4:1.92399 
0.001049466835737245 1:1 2:3 3:4.4602 4:1.92277 
1 1:1 2:4 3:0.595757 4:1.91225 
0.04944756603225781 1:1 2:1 3:135.443 4:1.9058 
0.007806724345839154 1:5 2:1 3:5.09677 4:1.90815 
1 1:1 2:20 3:0.469446 4:1.89332 
1 1:1 2:1 3:0.436393 4:1.94224 
0.03906193449986863 1:21 2:42 3:39.9011 4:1.95722 
0.007896210641657644 1:24 2:3 3:14.2439 4:1.92701 
0.01560223386780831 1:4 2:24 3:1.61509 4:1.99314 
0.03960561602685186 1:34 2:1 3:50.7143 4:1.94242 
0.04931643734627689 1:27 2:17 3:51.6212 4:1.93535 
0.004035277576277738 1:13 2:4 3:7.23617 4:1.94201 
0.001000436803796452 1:17 2:3 3:9.77667 4:1.96848 
0.006485566497045838 1:17 2:9 3:10.9627 4:1.96042 
0.02342326676420921 1:19 2:23 3:13.2542 4:1.90423 
0.009506262730410015 1:5 2:19 3:2.88163 4:1.97538 
0.004478879117037672 1:15 2:10 3:6.16973 4:1.96213 
0.02141263771375122 1:22 2:13 3:20.3895 4:1.98228 
0.02118875196140202 1:22 2:1 3:41.1905 4:1.96934 
0.01345088758059839 1:32 2:9 3:36.0189 4:1.95709 
0.004982517475025611 1:20 2:5 3:9.67647 4:1.935 
0.04926327450304213 1:4 2:1 3:71.2957 4:1.7551 
0.04891383068818683 1:13 2:36 3:40.0134 4:1.99395 
0.03555084309347366 1:16 2:9 3:23.9255 4:1.83797 
0.03383051314171759 1:4 2:38 3:11.2127 4:1.90606 
0.002194543154132552 1:9 2:12 3:2.05924 4:1.95696 
0.02389210163237169 1:7 2:22 3:7.80645 4:1.96596 
0.04932815719114131 1:79 2:8 3:36.6714 4:1.89487 
0.00432002498704687 1:9 2:27 3:6.18807 4:1.98156 
0.006326189025180895 1:1 2:2 3:13.6119 4:1.92023 
0.03249216494636065 1:1 2:1 3:41.6673 4:1.96464 
0.01804427471648427 1:5 2:4 3:8.97362 4:1.7886 
0.0008673615703270738 1:8 2:1 3:8.58108 4:1.76004 
0.01752940667655751 1:2 2:10 3:15.2963 4:1.99336 
0.04623631340402048 1:2 2:3 3:58.665 4:1.79874 
0.01890473171628529 1:10 2:1 3:9.32358 4:1.83316 
0.04929057227046169 1:11 2:1 3:150.441 4:1.83623 
0.03721721813776019 1:1 2:4 3:54.9103 4:1.91535 
0.04948283944416748 1:19 2:106 3:8.76884 4:1.77179 
0.04938506582706687 1:2 2:68 3:6.35931 4:1.74582 
0.04918177459153 1:14 2:1 3:68.5326 4:1.79128 
0.0006322154700849191 1:2 2:2 3:29.2635 4:1.93675 
-1 1:29 2:0 3:0.128718 4:1.97577 
-0.1964581146315318 1:9 2:0 3:0.155062 4:1.98036 
-0.9050136671269193 1:0 2:27 3:0.151308 4:1.93363 
-1 1:0 2:95 3:0.115767 4:1.96607 
-1 1:0 2:170 3:0.276684 4:1.82618 
-1 1:0 2:49 3:0.261703 4:1.78091 
-0.4668016003902693 1:0 2:7 3:0.387318 4:1.78208 
-1 1:0 2:147 3:0.111327 4:1.90974 
-1 1:0 2:10 3:0.347839 4:1.95174 
-1 1:0 2:266 3:0.06409 4:1.94296 
-0.5031019930986153 1:4 2:0 3:0.397652 4:1.99574 
-1 1:0 2:54 3:0.127216 4:1.83981 
-0.4702500693215688 1:0 2:4 3:0.408661 4:1.96375 
-1 1:0 2:21 3:0.112964 4:1.99127 
-0.6864384748473752 1:6 2:0 3:0.313897 4:1.93441 
-1 1:0 2:14 3:0.393046 4:1.97846 
-1 1:0 2:40 3:0.216619 4:1.95896 
-1 1:0 2:1 3:0.410096 4:1.99973 
-1 1:10 2:0 3:0.374709 4:1.89861 
-0.669178294728891 1:5 2:0 3:0.367381 4:1.90717 
-0.588607846340191 1:0 2:9 3:0.384601 4:1.9491 
-0.18008494048103 1:0 2:14 3:0.397196 4:1.94781 
-1 1:5 2:0 3:0.408394 4:1.96208 
-0.6030006347213993 1:0 2:11 3:0.380938 4:1.97639 
-1 1:0 2:13 3:0.40965 4:1.66404 
-0.2061533806278567 1:0 2:24 3:0.266348 4:1.92922 
-0.9097046524367367 1:0 2:1 3:0.410299 4:1.99945 
-1 1:0 2:22 3:0.227231 4:1.9556 
-1 1:0 2:914 3:0.05161 4:1.97453 
-0.3793556558546928 1:0 2:8 3:0.372817 4:1.72775 
-1 1:42 2:722 3:0.372817 4:1.72775 
-0.3332872233943371 1:0 2:16 3:0.331186 4:1.9872 
-0.9710912049922177 1:0 2:17 3:0.368199 4:1.93697 
-0.9953444380957732 1:0 2:30 3:0.136062 4:1.98239 
-1 1:0 2:34 3:0.019695 4:1.9871 
-1 1:0 2:13 3:0.408806 4:1.9518 
-1 1:0 2:214 3:0.249559 4:1.97354 
-1 1:0 2:128 3:0.409373 4:1.94784 
-1 1:0 2:970 3:0.022105 4:1.94902 
-0.1699693054380413 1:0 2:13 3:0.33923 4:1.52514 
-0.7814623773079042 1:0 2:7 3:0.389135 4:1.96621 
-1 1:0 2:9 3:0.393925 4:1.86062 
-0.7910084762263498 1:0 2:28 3:0.343908 4:1.96817 
-1 1:0 2:1 3:0.091518 4:1.26073 
-1 1:0 2:757 3:0.167816 4:1.90071 
-0.6644116255335418 1:0 2:36 3:0.297503 4:1.93127 
-0.0317323828381687 1:0 2:22 3:0.221619 4:1.93789 
-1 1:0 2:5 3:0.380281 4:1.96902 
-0.4395414485780187 1:0 2:29 3:0.387546 4:1.92158 
-0.9453116368216756 1:1 2:0 3:0.408854 4:1.9961 
-0.09333216520416077 1:0 2:20 3:0.101488 4:1.97862 
-1 1:1 2:0 3:0.409564 4:1.99581 
-0.9416016414437421 1:1 2:0 3:0.383999 4:1.52038 
-1 1:0 2:77 3:0.138336 4:1.90785 
-1 1:40 2:0 3:0.143553 4:1.85579 
-1 1:7 2:0 3:0.045139 4:1.92736 
-1 1:1 2:0 3:0.410742 4:1.99898 
-1 1:0 2:2 3:0.407618 4:1.98722 
-1 1:0 2:17 3:0.394599 4:1.94589 
-0.05660132266717095 1:0 2:19 3:0.212605 4:1.72118 
-1 1:7 2:0 3:0.406359 4:1.99671 
-0.5059005067735421 1:0 2:2 3:0.400006 4:1.99812 
-1 1:0 2:2 3:0.401901 4:1.99477 
-1 1:0 2:19 3:0.383234 4:1.96758 
-0.1039837810777925 1:0 2:36 3:0.073476 4:1.9702 
-1 1:11 2:0 3:0.013744 4:1.91822 
-1 1:0 2:86 3:0.355483 4:1.95434 
-1 1:0 2:92 3:0.352815 4:1.95639 
-1 1:0 2:314 3:0.333971 4:1.95643 
-0.7440569387909818 1:2 2:0 3:0.39499 4:1.99477 
-1 1:0 2:91 3:0.021909 4:1.97737 
-0.3168290911524991 1:4 2:0 3:0.001845 4:1.97589 
-1 1:0 2:11 3:0.390006 4:1.93449 
-1 1:0 2:26 3:0.232218 4:1.84643 
-1 1:0 2:257 3:0.273318 4:1.78909 
-1 1:0 2:58 3:0.392385 4:1.82303 
-1 1:0 2:5 3:0.363387 4:1.75586 
-0.5670520455416843 1:2 2:0 3:0.410435 4:1.95922 
-1 1:2 2:0 3:0.405853 4:1.98431 
-0.157798018594909 1:0 2:32 3:0.142724 4:1.89967 
-1 1:0 2:41 3:0.163506 4:1.95357 
-1 1:0 2:788 3:0.257843 4:1.95473 
-0.6054234200960575 1:0 2:15 3:0.344271 4:1.96755 
-1 1:0 2:1 3:0.411252 4:1.99965 
-1 1:2 2:0 3:0.406792 4:1.97213 
-1 1:0 2:2 3:0.408313 4:1.99747 
-0.5263771851043115 1:0 2:6 3:0.406614 4:1.9973 
-1 1:0 2:24 3:0.287095 4:1.99803 
-1 1:0 2:45 3:0.257854 4:1.91786 
-1 1:35 2:0 3:0.378493 4:1.9947 
-0.1064793235995364 1:2 2:0 3:0.006723 4:1.99093 
-1 1:0 2:71 3:0.397796 4:1.75456 
-1 1:9 2:0 3:0.330158 4:1.92165 
-1 1:9 2:0 3:0.199921 4:1.90736 
-1 1:0 2:7 3:0.405353 4:1.98494 
-1 1:0 2:32 3:0.308887 4:1.84107 
-1 1:0 2:20 3:0.402961 4:1.8831 
-0.03742248147040875 1:0 2:19 3:0.371796 4:1.98939 
-1 1:0 2:51 3:0.38229 4:1.98759 
-0.5180182256340661 1:0 2:5 3:0.35845 4:1.9954 
-0.1363833645041939 1:0 2:34 3:0.170573 4:1.93177 
-1 1:5 2:0 3:0.386564 4:1.96355 
-1 1:0 2:37 3:0.255872 4:1.81352 
