svm_type c_svc
kernel_type rbf
gamma 0.333333
nr_class 2
total_sv 2044
rho -0.954115
label 1 -1
probA -8.0702
probB 3.05775
nr_sv 1940 104
SV
0.03650947914733832 1:11 2:1 3:24.7495 
0.02319822464493867 1:31 2:13 3:35.6277 
0.02930874990951443 1:21 2:1 3:15.7293 
0.009391557463550804 1:22 2:1 3:3.61595 
0.04536062402524305 1:15 2:51 3:32.8464 
0.01716303920799944 1:30 2:9 3:35.2901 
0.03811576241478459 1:8 2:32 3:7.97284 
0.001109124123565484 1:12 2:19 3:6.47891 
0.04570660939237359 1:39 2:66 3:48.7907 
0.04555902698108538 1:28 2:42 3:9.51028 
0.02152907547421285 1:13 2:33 3:5.2789 
0.003522480958599383 1:3 2:2 3:6.74153 
0.01658644561774657 1:39 2:8 3:46.3841 
0.04167953794099926 1:20 2:4 3:34.2924 
0.005116637119960665 1:2 2:4 3:23.7373 
0.023974274762558 1:1 2:3 3:14.8739 
0.04232798858494208 1:27 2:9 3:50.8651 
0.0010327154388431 1:14 2:1 3:4.17879 
0.03868007990240004 1:34 2:10 3:2.80871 
0.04429309107980218 1:5 2:42 3:0.435796 
0.01308124445441298 1:20 2:4 3:8.40115 
0.003088043808031995 1:16 2:5 3:6.14137 
0.03500899010803232 1:24 2:44 3:35.1267 
0.001193427579832821 1:6 2:17 3:4.93424 
0.04187506885713577 1:20 2:14 3:17.4335 
0.02032849073227283 1:24 2:4 3:33.2464 
0.0137846179091019 1:17 2:1 3:4.43245 
0.04018672266355788 1:23 2:21 3:13.3819 
1 1:1 2:13 3:0.458489 
0.01015705372690533 1:12 2:5 3:1.09622 
0.04591345112522338 1:12 2:22 3:32.1498 
0.007648647572072361 1:14 2:23 3:4.12667 
0.01255886676675671 1:6 2:24 3:3.90663 
0.02684714531306615 1:47 2:48 3:59.1429 
0.0237277711862528 1:29 2:12 3:37.0157 
0.002762567129124037 1:25 2:2 3:30.6945 
0.03903883337794251 1:9 2:1 3:27.5138 
0.0337417281235945 1:3 2:7 3:15.8182 
0.03710557400933973 1:1 2:3 3:33.4027 
0.01507070795936803 1:14 2:1 3:3.34765 
0.04578227387289668 1:29 2:2 3:153.279 
0.04583971650301538 1:10 2:4 3:50.3876 
1 1:1 2:14 3:1.01783 
0.02146364697017314 1:3 2:8 3:7.58431 
0.04605115263912024 1:1 2:171 3:7.58431 
0.0191699710228479 1:1 2:4 3:16.654 
0.04582110886954571 1:1 2:363 3:5.04629 
0.04565579298437722 1:43 2:37 3:6.84804 
0.04594884318571069 1:51 2:590 3:0.656205 
0.1220429938669614 1:2 2:47 3:1.02855 
0.04591973356254664 1:37 2:186 3:2.1473 
0.04581568466379232 1:42 2:17 3:4.64571 
0.003846305919112334 1:1 2:1 3:9.81052 
0.01916529630116174 1:2 2:3 3:17.1497 
0.0225040657150387 1:4 2:29 3:4.64571 
0.04549196209635997 1:29 2:4 3:4.54055 
0.01887181924509914 1:13 2:1 3:15.8456 
0.02886665745856802 1:9 2:1 3:15.8456 
0.007280521569234624 1:8 2:7 3:5.45406 
0.04123662871243067 1:34 2:18 3:27.1382 
0.04174884073935758 1:6 2:35 3:5.58653 
0.01886148293324547 1:11 2:9 3:5.12667 
0.02214759506589971 1:23 2:7 3:21.423 
0.02964846652087089 1:19 2:9 3:16.0027 
0.003303487198147754 1:14 2:11 3:6.9799 
0.009738679527711638 1:18 2:3 3:4.71995 
0.0007420022343018568 1:6 2:20 3:4.25481 
0.001084657798669508 1:8 2:21 3:2.19662 
0.03234674962286076 1:6 2:8 3:12.5528 
1 1:11 2:1 3:0.668191 
0.02087058780442263 1:30 2:3 3:41.0476 
0.04574243344223465 1:16 2:20 3:36.1005 
0.01835066751286314 1:22 2:7 3:40.2028 
0.007062149176778867 1:17 2:6 3:6.05171 
0.02455748601779434 1:28 2:1 3:48.5 
0.02375677957899358 1:24 2:48 3:44.2625 
0.004668838923289035 1:3 2:1 3:10.7061 
0.02732929356041403 1:16 2:13 3:8.95977 
0.02013447144945682 1:6 2:25 3:2.29592 
0.0280238627089335 1:15 2:13 3:22.7057 
0.005714575121263714 1:16 2:3 3:7.52247 
0.01093860397794265 1:27 2:13 3:32.1146 
0.01436431715364329 1:11 2:16 3:4.12223 
0.03734570460228026 1:16 2:44 3:42.3103 
0.04351407825612813 1:4 2:54 3:42.65 
0.005188750712029172 1:5 2:19 3:2.47007 
0.03555740710252425 1:31 2:37 3:44.3321 
0.03155387202579968 1:30 2:42 3:43.8095 
0.01895295753801843 1:17 2:8 3:4.10078 
0.04571828251946969 1:27 2:50 3:28.5168 
0.03793355628953365 1:18 2:1 3:22.1015 
0.0459950929997911 1:22 2:31 3:38.5238 
0.04149423240115398 1:23 2:15 3:15.497 
0.0018528171150376 1:14 2:17 3:5.16744 
0.03298939075759146 1:35 2:3 3:28.7978 
0.04591926326268109 1:44 2:19 3:39.7492 
0.003811953260408322 1:29 2:5 3:36.5012 
0.04049934281754869 1:8 2:15 3:13.9607 
0.04578345294820944 1:23 2:42 3:0.440413 
0.0140533082228408 1:16 2:15 3:5.33164 
0.0229065359518108 1:14 2:25 3:3.47529 
0.01241319381086748 1:27 2:15 3:29.9333 
0.03243493038375442 1:6 2:2 3:28.4055 
0.006323937953962652 1:5 2:4 3:4.579 
0.03173665311126139 1:19 2:30 3:11.3593 
0.006253795304173424 1:1 2:3 3:11.1262 
0.03514347418851493 1:7 2:43 3:14.6054 
0.0156186029276314 1:1 2:15 3:5.52062 
0.01978174356336532 1:9 2:3 3:25.5195 
0.01360127644218426 1:13 2:31 3:8.07152 
0.01227196613417479 1:14 2:8 3:2.93012 
0.04293409994350549 1:27 2:9 3:46.7927 
0.04565862156369799 1:31 2:26 3:20.2694 
0.01247047329050592 1:10 2:5 3:1.42115 
0.003107262832574681 1:17 2:1 3:9.88369 
0.02949550746444851 1:7 2:18 3:8.84115 
0.02236034892568035 1:13 2:8 3:25.6138 
0.03057586605300462 1:24 2:23 3:11.3862 
0.04591828875378806 1:17 2:16 3:57.1468 
0.01427638030469375 1:18 2:7 3:11.6599 
0.0308920064251645 1:19 2:12 3:20.9255 
0.01462865023560304 1:10 2:5 3:8.64858 
0.01889359812425006 1:10 2:7 3:5.16863 
0.007621369854197442 1:9 2:20 3:5.66358 
0.003827244182243243 1:12 2:7 3:2.17226 
0.03144511358834828 1:23 2:1 3:16.0886 
0.03755329451173189 1:22 2:1 3:49.65 
0.007128033513102674 1:9 2:17 3:4.46757 
0.04591328606163358 1:22 2:2 3:57.8283 
1 1:1 2:1 3:0.430807 
0.01781052823189178 1:17 2:3 3:3.78938 
0.03584151869135808 1:36 2:14 3:38.1516 
0.006435429856511519 1:12 2:5 3:7.80932 
0.02108800229336266 1:21 2:6 3:28.4221 
0.02253991524793397 1:32 2:11 3:33.5219 
0.03870661760900768 1:20 2:38 3:36.2381 
0.004623966336542128 1:10 2:6 3:3.22254 
0.02197660171342769 1:24 2:5 3:42.0476 
0.04580206311176188 1:22 2:61 3:14.8874 
0.04581405335761324 1:37 2:9 3:10.9153 
0.04541141070675714 1:15 2:50 3:7.57761 
0.026257368679594 1:15 2:11 3:1.71183 
0.03359589234843498 1:14 2:13 3:0.745606 
0.04557694364314785 1:45 2:51 3:56.7143 
0.01470156347523177 1:8 2:11 3:2.29716 
0.02820349414844914 1:3 2:20 3:9.08391 
0.01474994972466122 1:8 2:17 3:1.47322 
0.002770146643167592 1:13 2:21 3:7.55954 
0.009657850977098394 1:9 2:19 3:9.91999 
0.0214549536475941 1:5 2:8 3:16.2347 
0.01792476757735115 1:9 2:3 3:9.78729 
0.04475016806892579 1:10 2:48 3:10.1665 
0.03193457178435962 1:1 2:9 3:12.3281 
0.04401761428142181 1:3 2:54 3:45.4294 
0.04570769460395913 1:246 2:22 3:21.757 
0.0005487308694872572 1:29 2:10 3:38.0594 
0.005481929308646678 1:5 2:29 3:4.66682 
0.007648947251604588 1:8 2:4 3:4.00303 
0.03569370220962859 1:7 2:45 3:14.1593 
0.01336049482746718 1:11 2:25 3:4.1228 
0.00817621448758719 1:11 2:1 3:39.0824 
0.01188243502383616 1:30 2:9 3:38.5179 
0.03503571293556576 1:4 2:11 3:10.9151 
0.04582020672052484 1:7 2:42 3:9.75535 
0.003552385791193329 1:12 2:7 3:4.44843 
0.03316321724210536 1:27 2:12 3:25.6364 
0.005385762282395424 1:10 2:12 3:5.94701 
0.019039451082751 1:30 2:13 3:33.7154 
0.02475116874454834 1:47 2:48 3:58.2381 
0.03501820236324833 1:20 2:1 3:19.7696 
0.0193893774907381 1:15 2:9 3:4.62891 
0.04571470064668026 1:21 2:79 3:28.3886 
0.04571221464359781 1:57 2:85 3:29.5004 
0.01490222467422477 1:7 2:8 3:2.78585 
0.04573686394765836 1:19 2:48 3:21.6546 
0.01217349296361683 1:16 2:1 3:3.25574 
0.02056307519218271 1:27 2:5 3:38.973 
0.01023339503855686 1:12 2:24 3:6.24447 
0.02955241267190113 1:8 2:19 3:11.2466 
0.01689374456365933 1:11 2:22 3:8.8926 
0.02486705966504277 1:4 2:4 3:34.4419 
0.03088778307858103 1:31 2:4 3:41.9634 
0.02941719127353554 1:26 2:10 3:10.0226 
0.04578982484368943 1:37 2:41 3:22.3613 
0.03166823061607826 1:13 2:1 3:44.2434 
0.01365303315843991 1:10 2:6 3:7.32769 
0.00746980353037463 1:13 2:2 3:9.88677 
0.02345840587899301 1:18 2:18 3:13.9786 
0.002648308679961131 1:16 2:24 3:9.3609 
0.03394626923740851 1:19 2:26 3:7.08416 
0.03570252692207154 1:18 2:2 3:32.1111 
0.03254613950547103 1:23 2:9 3:4.6623 
0.02254624625779545 1:22 2:13 3:23.1465 
0.04540632083568552 1:42 2:50 3:59.0226 
0.04560794645275668 1:1 2:14 3:40.2381 
0.03637825139457873 1:20 2:14 3:27.9205 
0.001165025020765931 1:10 2:7 3:3.57488 
0.0003755681476302584 1:17 2:10 3:7.94429 
0.04549197185608456 1:36 2:14 3:26.1393 
0.01661715683709196 1:12 2:17 3:7.7459 
0.02604528829054265 1:28 2:9 3:29.9398 
0.03694069689987406 1:32 2:2 3:34.9048 
0.03264972116049797 1:15 2:2 3:34.5882 
0.008733001279990013 1:6 2:21 3:3.75632 
0.0409590472631341 1:33 2:37 3:11.7111 
0.04567313501913511 1:39 2:8 3:59.8571 
0.03034256197833868 1:34 2:6 3:34.8605 
0.0142123371632227 1:16 2:19 3:9.08393 
0.04590069260306279 1:22 2:39 3:24.7358 
0.02976873728681666 1:12 2:30 3:8.55459 
0.02056918911596 1:30 2:9 3:33.4399 
0.01762062281876747 1:21 2:27 3:9.46236 
0.03154674963165829 1:18 2:11 3:29.6492 
0.03924418624739529 1:20 2:35 3:11.2738 
0.03677690657673291 1:1 2:2 3:37.1848 
0.03208620602313876 1:21 2:31 3:12.5331 
0.001358162321531423 1:12 2:1 3:4.84534 
0.03617480409795472 1:21 2:24 3:12.7223 
0.01018512157875373 1:15 2:25 3:8.17408 
0.0198364805659611 1:5 2:7 3:2.4687 
0.03992437497723134 1:31 2:13 3:21.7074 
0.04206638030198845 1:19 2:39 3:33.5238 
0.03552948288069864 1:6 2:5 3:25.0428 
0.02710109763791413 1:20 2:7 3:35.6567 
0.04569474164327847 1:28 2:38 3:51.4599 
0.01496551809253264 1:21 2:5 3:14.6598 
0.04544334596913135 1:12 2:21 3:86.4056 
0.04144242198997783 1:18 2:13 3:32.381 
0.007128394349820596 1:16 2:3 3:9.26421 
0.01606587466270226 1:13 2:15 3:9.1803 
0.04087201025810644 1:10 2:34 3:7.61705 
0.005679330032642092 1:7 2:15 3:4.27725 
0.04458335470005059 1:26 2:4 3:21.5248 
0.03679978635009463 1:28 2:20 3:9.72633 
0.02058440200141385 1:6 2:5 3:2.52554 
0.01119179453549463 1:11 2:6 3:1.43969 
0.03647129280170971 1:9 2:6 3:12.3864 
0.004017059913303495 1:13 2:6 3:4.82382 
0.02800368902450982 1:14 2:3 3:11.924 
0.04336178558123344 1:26 2:22 3:8.07339 
0.01757675956670335 1:22 2:7 3:21.6881 
0.004520835968083892 1:6 2:1 3:21.0729 
0.03161612580775502 1:8 2:6 3:0.475061 
0.02057527738320126 1:13 2:9 3:2.61584 
0.01901249666958933 1:20 2:6 3:2.52737 
0.02829855992961534 1:21 2:5 3:25.2704 
0.00473430553836589 1:17 2:1 3:4.88339 
0.01279870599884737 1:14 2:15 3:3.48811 
0.003653349914987554 1:4 2:2 3:7.22831 
0.02198315833280157 1:17 2:10 3:17.7343 
0.001090413605175533 1:17 2:3 3:6.41177 
0.04560784648438349 1:4 2:28 3:14.5433 
0.03733059826674046 1:4 2:38 3:5.94122 
0.009815067121943464 1:23 2:5 3:8.28536 
0.01181646145316808 1:25 2:5 3:34.5901 
0.02069320223072947 1:21 2:5 3:13.2511 
0.002725760490998822 1:10 2:22 3:5.83477 
0.01248406060362855 1:23 2:4 3:13.5019 
0.04227971475102915 1:23 2:5 3:46.1361 
0.04572016853856836 1:175 2:76 3:8.98253 
0.04589577071429152 1:3 2:8 3:29.3074 
0.04574596610881976 1:21 2:37 3:50.0689 
0.0457943373988636 1:20 2:11 3:48.672 
0.01537066369732313 1:17 2:7 3:23.0221 
0.04572593960000909 1:31 2:34 3:15.4537 
0.01828884159442268 1:12 2:3 3:17.8215 
0.0403657552898978 1:36 2:6 3:47.7135 
0.02287217511681285 1:29 2:2 3:36.2862 
0.04512762719337343 1:13 2:44 3:34.1 
0.003262019350082745 1:7 2:6 3:5.16979 
0.01964225183936961 1:11 2:4 3:9.30113 
0.009462422635449819 1:15 2:8 3:8.11185 
0.02951567539588795 1:39 2:10 3:46.78 
0.02309172121870183 1:23 2:4 3:15.2896 
0.02866387403809641 1:27 2:11 3:34.1331 
0.03387414856716375 1:31 2:31 3:44.3333 
0.03560777648472802 1:21 2:21 3:7.8588 
0.04584530777784884 1:17 2:22 3:47.85 
0.02741576705051899 1:32 2:6 3:37.9781 
0.04002044501388075 1:32 2:35 3:43.0476 
0.01423015755083446 1:9 2:20 3:7.81503 
0.04570409450295344 1:18 2:6 3:78.0988 
0.006607109254459127 1:19 2:6 3:7.44676 
0.02011481234473456 1:14 2:10 3:8.50874 
0.0309440722377442 1:24 2:3 3:11.9709 
0.004249197683790102 1:15 2:4 3:5.23027 
0.0417237835153938 1:17 2:16 3:16.7813 
0.03795449213765439 1:47 2:23 3:12.4074 
0.01874915856776817 1:16 2:3 3:12.0833 
0.02398042322148386 1:18 2:13 3:14.4095 
0.03918687161179939 1:18 2:3 3:0.500595 
0.03456346637606583 1:32 2:1 3:40.9691 
0.01187397296694053 1:19 2:11 3:20.3672 
0.03026410982451194 1:16 2:6 3:24.5867 
0.01593499203562956 1:17 2:15 3:9.03602 
0.04590530816839372 1:32 2:52 3:52.5541 
0.0198651623049218 1:32 2:3 3:36.6682 
0.02750720624118897 1:20 2:4 3:27.167 
0.004676593175569194 1:10 2:10 3:6.82444 
0.01162134738445543 1:16 2:31 3:6.43576 
0.01973116065130148 1:22 2:10 3:16.3576 
0.0140640659482835 1:13 2:24 3:7.63399 
0.02432913139261132 1:25 2:1 3:32.8571 
0.02977993178063071 1:22 2:24 3:9.60919 
0.003278372739086971 1:7 2:1 3:10.4954 
0.002104693208207575 1:27 2:18 3:24.8439 
0.02027443398512678 1:18 2:11 3:6.97169 
0.03800653797053433 1:21 2:39 3:42.381 
0.02525821090852881 1:10 2:20 3:12.0907 
0.007377545211079055 1:28 2:6 3:28.7646 
0.004901938496635852 1:12 2:21 3:8.12217 
0.02750756442687091 1:17 2:10 3:30.4806 
0.01645412079781131 1:24 2:11 3:10.4173 
0.02803677343733248 1:11 2:21 3:11.0133 
0.01802512839211534 1:26 2:2 3:43.2857 
0.00961285920396926 1:8 2:18 3:6.99756 
0.004836544079434869 1:22 2:7 3:8.57678 
0.01531528869410081 1:11 2:12 3:10.2755 
0.04583470234241233 1:15 2:54 3:51.1548 
0.0459164578965347 1:24 2:27 3:1.31323 
0.02272383853320055 1:21 2:7 3:17.7833 
0.02671609584593538 1:34 2:7 3:39.0372 
0.04386881592856047 1:8 2:23 3:15.4853 
0.04506334116753163 1:19 2:16 3:24.4133 
0.007242137319206753 1:16 2:18 3:6.84851 
0.01147131495807015 1:14 2:14 3:9.33427 
0.01168297065923573 1:12 2:20 3:5.79953 
0.01119668245373464 1:34 2:14 3:34.2284 
0.006308992094470126 1:10 2:20 3:4.10597 
0.02992677477710687 1:7 2:5 3:32.5212 
0.002998229436564097 1:11 2:3 3:5.63191 
0.03720957829976085 1:14 2:44 3:41.5795 
0.04273454664074899 1:19 2:47 3:31.2472 
0.7248905002032148 1:4 2:1 3:0.573596 
0.01465766208471422 1:21 2:27 3:11.3273 
0.04555865248014268 1:31 2:11 3:55.5823 
0.03163325821462591 1:4 2:40 3:5.22115 
0.0155962878933194 1:3 2:14 3:6.28531 
0.01313832047523931 1:16 2:10 3:14.4974 
0.00866115656208047 1:9 2:7 3:24.6072 
0.00736418422009 1:4 2:5 3:5.81665 
0.02038692907692215 1:3 2:6 3:7.20438 
0.04397186492219986 1:36 2:30 3:39.159 
0.0392835826152489 1:36 2:14 3:48.2073 
0.04573506389394733 1:17 2:3 3:83.3289 
0.04136677677180722 1:29 2:9 3:53.1118 
0.01378410030550431 1:7 2:5 3:8.06961 
0.04517044781886358 1:7 2:14 3:19.9048 
0.0434408392555547 1:16 2:53 3:43.8571 
0.0382200015157303 1:10 2:31 3:3.95812 
0.02602393914714806 1:9 2:1 3:37.4286 
0.01613225347757988 1:6 2:13 3:3.14853 
0.03241093923108707 1:22 2:5 3:42.6229 
0.02959189821858943 1:23 2:35 3:28.5598 
0.01259129743867506 1:15 2:1 3:6.01112 
0.04387775836307123 1:36 2:12 3:52.4286 
0.03568235616655385 1:10 2:7 3:30 
0.008950657721035466 1:24 2:3 3:15.3659 
0.04053503521263746 1:31 2:19 3:9.92217 
0.01427082153409755 1:20 2:16 3:8.54731 
0.0267638224514356 1:26 2:41 3:40.8095 
0.008654973292107827 1:5 2:8 3:3.68996 
0.01545221640544256 1:5 2:17 3:4.33693 
0.03754125077773234 1:27 2:16 3:17.2591 
0.02072073339575797 1:28 2:7 3:31.6352 
0.04460398198973159 1:30 2:17 3:18.5295 
0.02241450947138477 1:24 2:10 3:4.31821 
0.03627081539388366 1:34 2:13 3:47.3353 
0.04389156713836473 1:28 2:31 3:22.7817 
0.03656128897844611 1:22 2:1 3:27.8 
0.03585888906430418 1:30 2:18 3:27.0884 
0.00687352254226747 1:10 2:4 3:3.70018 
0.0435139110814674 1:17 2:12 3:35.2307 
0.04266809742481508 1:36 2:12 3:30.0898 
0.04556098920338186 1:23 2:51 3:30.7143 
0.01642033468411582 1:8 2:23 3:3.75101 
0.02856568733626252 1:18 2:7 3:29.903 
0.04589140789043317 1:4 2:20 3:30.4684 
0.002144679688795149 1:8 2:3 3:24.4286 
0.03819647577427343 1:30 2:20 3:7.81752 
0.01279879090577752 1:13 2:1 3:4.44701 
0.03600654102479882 1:20 2:21 3:10.9021 
0.04559415165839804 1:19 2:42 3:14.4509 
0.03508992996987348 1:17 2:31 3:12.2806 
0.02889510222245539 1:29 2:13 3:23.1228 
0.02998158621186275 1:21 2:4 3:22.9668 
0.04133595690857861 1:17 2:18 3:0.946322 
0.01543867768053636 1:10 2:18 3:5.83941 
0.03719740136609007 1:12 2:5 3:35.2538 
0.04174164511517975 1:17 2:9 3:36.9048 
0.02002582867757004 1:9 2:1 3:23.2381 
0.02566416965911139 1:19 2:14 3:11.6241 
0.03027176712551883 1:19 2:8 3:9.32172 
0.00971654984830499 1:13 2:16 3:5.84426 
0.02775477093213258 1:10 2:25 3:2.11034 
0.04574837661740938 1:10 2:30 3:94.1729 
0.02287713807145808 1:13 2:6 3:25.6509 
0.00741815806712621 1:10 2:14 3:2.57861 
0.00979584771911724 1:13 2:4 3:2.41643 
0.04585606273405085 1:14 2:66 3:9.8657 
0.02726150821502442 1:20 2:1 3:2.58109 
0.002403473634559178 1:15 2:4 3:10.3459 
0.02824404175169169 1:18 2:49 3:44.4263 
0.01220148528920845 1:27 2:6 3:36.3317 
0.02695132807921596 1:3 2:22 3:6.8344 
0.03810620773056163 1:6 2:37 3:10.4799 
0.00717209981723128 1:19 2:13 3:14.3141 
1 1:1 2:1 3:0.426209 
0.02467329668693297 1:14 2:1 3:42.6289 
0.02456268648898484 1:1 2:3 3:22.3455 
0.03458167708626658 1:7 2:1 3:46.1645 
0.04569050707713729 1:1 2:22 3:45.1553 
1 1:1 2:10 3:0.484857 
0.02590406941948809 1:6 2:11 3:11.8385 
0.0278327704344968 1:6 2:1 3:19.7215 
0.03937793963702146 1:21 2:50 3:15.2994 
0.04588339135465686 1:34 2:73 3:34.1429 
0.01678844120394968 1:25 2:2 3:33.9962 
0.01866096297906978 1:25 2:10 3:36.4726 
0.00120425245214201 1:11 2:5 3:2.64032 
0.04301617403417546 1:18 2:15 3:38.65 
0.04579564863300561 1:35 2:69 3:52.4762 
0.02148169530777101 1:13 2:12 3:5.91275 
0.01713976156167957 1:32 2:12 3:27.5811 
0.007327165966483107 1:5 2:26 3:5.38945 
0.01974606272793933 1:17 2:5 3:2.21081 
0.0456316545108017 1:11 2:48 3:0.789427 
0.004705609787187254 1:12 2:3 3:7.78922 
0.005938671612638446 1:26 2:6 3:38.583 
0.004686366076943449 1:25 2:49 3:52.9016 
0.01763707955288257 1:9 2:18 3:2.89028 
0.01335640595376863 1:8 2:15 3:1.74382 
0.005305462622568946 1:15 2:26 3:6.86197 
0.0136885754102343 1:11 2:26 3:6.63255 
0.03519059641599903 1:28 2:8 3:43.0607 
0.02030969126284693 1:17 2:17 3:14.4713 
0.02424702557633232 1:27 2:6 3:28.0673 
0.01252340887667525 1:3 2:2 3:20.0575 
0.02371266209836359 1:17 2:1 3:1.59912 
0.02792288678179483 1:1 2:15 3:10.726 
0.0327187712144826 1:3 2:15 3:14.95 
0.02246745827479287 1:1 2:10 3:5.75416 
0.02840764256552039 1:9 2:29 3:6.32233 
0.01950035386456364 1:9 2:10 3:6.78564 
0.03305672894025197 1:20 2:12 3:7.39022 
0.3675129699512729 1:1 2:13 3:1.14 
0.03559656670318595 1:26 2:18 3:24.8773 
0.04096369063866218 1:12 2:6 3:15.098 
0.04174588194883627 1:28 2:13 3:20.2901 
0.0453222434486189 1:23 2:56 3:31.4301 
0.03298752210247181 1:23 2:1 3:32.8095 
0.002281961739073606 1:18 2:15 3:10.9561 
0.04527415261947693 1:26 2:60 3:33.7662 
0.0436498023036791 1:15 2:23 3:24.7143 
0.04574288521903269 1:68 2:79 3:35.9908 
0.009284577211194696 1:1 2:1 3:6.87421 
0.02223888105092277 1:14 2:12 3:11.49 
0.0100070402504335 1:12 2:15 3:5.66906 
0.04591161600112875 1:11 2:1 3:115.819 
0.03629146278145905 1:17 2:20 3:16.1066 
0.03367583779721128 1:15 2:29 3:12.6195 
0.01584296249724646 1:21 2:11 3:34.0293 
0.04440696930662941 1:22 2:21 3:25.6379 
0.01278738806066588 1:11 2:11 3:2.72474 
0.01283407965756122 1:4 2:16 3:4.71739 
0.01834511466043753 1:23 2:7 3:25.7302 
0.01472195380135199 1:14 2:3 3:8.71285 
0.002545587686304246 1:14 2:6 3:8.10647 
0.02532053838880851 1:26 2:12 3:31.3106 
0.03089646312847649 1:33 2:2 3:37.8095 
0.008518845848392806 1:4 2:1 3:6.46432 
0.02947215965819422 1:16 2:11 3:12.2562 
0.02424561938768127 1:21 2:18 3:6.49954 
0.01913333264128281 1:5 2:4 3:33.0278 
0.03769339914942349 1:31 2:10 3:25.4692 
0.001285222376445839 1:12 2:4 3:4.81228 
0.04566326413492539 1:1 2:31 3:22.5055 
0.04529016705654867 1:1 2:1 3:63.3249 
0.01739874572828459 1:5 2:4 3:7.49694 
0.02273393123860072 1:19 2:18 3:7.64508 
0.0009550834870109548 1:1 2:10 3:6.87009 
0.02263888379049138 1:1 2:3 3:7.97567 
0.03482354819440675 1:15 2:12 3:20.6457 
0.01383184809729909 1:12 2:22 3:2.83064 
0.005134644177278947 1:16 2:4 3:6.54165 
0.02322182475787571 1:1 2:15 3:6.60955 
0.0006448054438172117 1:7 2:25 3:3.62819 
0.01899941303057895 1:12 2:11 3:7.9701 
0.012996912872047 1:2 2:4 3:11.3719 
0.004119417685688687 1:19 2:6 3:7.96245 
0.02590017102964498 1:21 2:28 3:11.8007 
0.04224037623461574 1:1 2:5 3:69.9809 
0.04576857333095002 1:41 2:94 3:1.78555 
0.02245516290180474 1:6 2:28 3:4.89489 
0.00316835564727964 1:3 2:3 3:4.20593 
0.04575959559620812 1:8 2:356 3:5.05908 
0.04585509152198253 1:1 2:163 3:2.02638 
0.0270905266713027 1:15 2:22 3:3.63515 
0.01402648485354939 1:22 2:8 3:32.4864 
0.02442782507145013 1:6 2:14 3:5.11528 
0.02977112038259544 1:11 2:9 3:16.6851 
0.03087812298359793 1:32 2:11 3:39.8095 
0.02508252868184817 1:15 2:26 3:10.0659 
0.005741268608595848 1:13 2:27 3:6.56171 
0.04025751053487781 1:9 2:33 3:10.6378 
0.02424802127050483 1:22 2:14 3:25.3709 
0.01273082083516517 1:22 2:13 3:30.8926 
0.04451074242809572 1:33 2:11 3:19.1157 
0.03564033674211813 1:22 2:10 3:37.6416 
0.004929583723875532 1:2 2:14 3:6.13443 
0.03493448258579818 1:17 2:50 3:41.7619 
0.01301048325402938 1:19 2:24 3:9.94995 
0.04139547491103618 1:35 2:38 3:12.9647 
0.03021643106164733 1:30 2:4 3:29.5916 
0.03886009378532868 1:17 2:44 3:19.383 
0.04214375079200633 1:25 2:54 3:33.9048 
0.02978884493204081 1:33 2:9 3:34.6361 
0.04195610132280891 1:26 2:9 3:13.6915 
0.0301363557724262 1:1 2:11 3:8.04548 
0.04436033294731886 1:7 2:6 3:44.0779 
0.03824403089581757 1:17 2:28 3:7.99795 
0.01261358370065445 1:19 2:25 3:9.6637 
0.01733451913324725 1:14 2:17 3:7.29089 
0.02309769741226898 1:24 2:6 3:24.6137 
0.01963842000332949 1:15 2:4 3:2.65802 
0.01972408253345667 1:7 2:21 3:2.15017 
0.01493895405009082 1:25 2:1 3:36.1441 
0.04317055279721238 1:39 2:11 3:41.6649 
0.02902054443130282 1:23 2:10 3:16.614 
0.04555055190428015 1:33 2:18 3:36.589 
0.01021144652139815 1:12 2:11 3:10.1651 
0.02704147653443705 1:11 2:2 3:12.4625 
0.04351438408273489 1:27 2:51 3:52.0952 
0.01410160007107669 1:18 2:5 3:5.37779 
0.009406989264732615 1:8 2:1 3:7.76434 
0.007585297191738991 1:4 2:1 3:7.76434 
0.01627884923884543 1:4 2:1 3:21.4552 
0.003289130044145003 1:6 2:19 3:5.46603 
0.02877487597889983 1:2 2:4 3:34.9823 
0.01241682050251729 1:9 2:22 3:3.1898 
0.03274096708995143 1:6 2:3 3:15.6225 
0.0334094294918033 1:21 2:14 3:4.78955 
0.04581315992399998 1:53 2:38 3:18.4009 
0.01412332596438219 1:7 2:19 3:1.04509 
0.3130344232358572 1:1 2:17 3:1.90619 
0.03672434740638487 1:30 2:8 3:48.2 
0.005358869991857928 1:20 2:1 3:9.84059 
0.04589748981762454 1:5 2:18 3:53.1414 
0.04482641695424516 1:24 2:58 3:35.8095 
0.009472078406116826 1:2 2:17 3:6.90353 
1 1:1 2:17 3:0.616135 
0.02851846034766546 1:24 2:6 3:38.4286 
0.04128066672950108 1:25 2:6 3:4.1678 
0.007125466025628656 1:9 2:8 3:2.22469 
0.002383223212553103 1:5 2:1 3:10.8172 
0.01328617697066644 1:12 2:5 3:25.3819 
0.0351682536036973 1:8 2:25 3:1.11154 
0.01157727679015239 1:13 2:20 3:7.26707 
0.02449640011145748 1:2 2:9 3:14.2448 
0.001548131553316936 1:17 2:3 3:6.66266 
0.01298550008822724 1:8 2:30 3:3.24072 
0.01552972910932344 1:24 2:5 3:32.2587 
0.008806991438860733 1:1 2:3 3:5.97187 
0.0245130792384417 1:12 2:18 3:3.16854 
0.02766360687727432 1:24 2:1 3:30.0183 
0.04608865376222954 1:24 2:42 3:8.39539 
0.04581350003424484 1:1 2:16 3:46.7239 
0.01379310014913741 1:5 2:2 3:10.9193 
0.04580834166828718 1:7 2:27 3:25.291 
0.02309807686930248 1:9 2:10 3:1.71763 
0.03224964951425252 1:2 2:1 3:24.5823 
0.04584460771331872 1:76 2:2 3:20.9634 
0.03791870295138572 1:8 2:33 3:16.7999 
0.003605759667973126 1:5 2:24 3:3.83295 
0.005205786017184591 1:14 2:1 3:7.60151 
0.01502114088214834 1:6 2:2 3:20.8128 
0.03901305920635734 1:15 2:27 3:1.73824 
0.0428876997529187 1:12 2:18 3:15.0316 
0.02651834370684983 1:2 2:26 3:7.08419 
0.02399429215955731 1:24 2:9 3:41.8184 
0.01195935258634367 1:7 2:19 3:3.52769 
0.04215167829490191 1:21 2:48 3:32.8376 
0.005341009373627325 1:15 2:5 3:7.31947 
0.04574762220532996 1:11 2:37 3:26.8684 
0.03189113259613967 1:1 2:20 3:5.90514 
0.04538112915370992 1:6 2:1 3:0.583517 
0.02686095670692539 1:5 2:7 3:10.4362 
0.04085567027952042 1:7 2:7 3:20.2231 
0.007724576588453384 1:11 2:3 3:7.53048 
0.02154842010703784 1:1 2:1 3:4.38408 
0.0458831455369561 1:66 2:1 3:25.4186 
0.04591599376548405 1:66 2:2 3:17.6958 
0.0352974206199414 1:27 2:1 3:16.3956 
0.02665338272020926 1:7 2:1 3:31.2057 
0.01230268371552184 1:10 2:8 3:11.4546 
0.04288371854166129 1:2 2:1 3:108.54 
0.04592274356888559 1:61 2:10 3:15.4605 
0.04592449498153311 1:61 2:1 3:15.4605 
0.03892662007244668 1:3 2:13 3:36.8715 
0.04342055896340452 1:4 2:3 3:108.54 
0.0227173197220605 1:3 2:3 3:22.6399 
0.004962715288604147 1:9 2:6 3:7.75483 
0.02704457252030376 1:3 2:1 3:36.9493 
0.04601157279321755 1:237 2:131 3:36.9493 
0.01667614178946092 1:3 2:1 3:77.1604 
0.02707268912676634 1:3 2:2 3:77.1604 
0.04585181091908896 1:1 2:14 3:98.3742 
0.04460693081389888 1:1 2:2 3:98.3742 
0.04574661261026441 1:13 2:1 3:142.364 
0.003279155439750504 1:7 2:2 3:10.5757 
0.008638564874847618 1:4 2:1 3:19.0121 
0.03209394520575692 1:4 2:12 3:19.0121 
0.02920472303926158 1:5 2:1 3:37.5295 
0.01172958091486174 1:5 2:1 3:9.03698 
0.04592132863377246 1:19 2:1 3:72.2648 
0.04584295233237218 1:3 2:3 3:48.3619 
0.04581705381643975 1:7 2:1 3:137.877 
0.02719337756393019 1:7 2:1 3:37.0645 
0.03686179078379231 1:5 2:9 3:19.8358 
0.002489358945438532 1:1 2:4 3:22.7839 
0.00506193697221626 1:14 2:1 3:6.53702 
1 1:9 2:1 3:0.434599 
0.02271110386523117 1:10 2:7 3:10.4572 
0.0455756102501837 1:27 2:8 3:0.583347 
0.01221584892247701 1:8 2:13 3:13.3317 
0.01572056157414046 1:4 2:1 3:17.2704 
0.04603068014490813 1:52 2:3 3:39.3947 
0.03609414144342941 1:8 2:7 3:16.2731 
0.02811802795804644 1:1 2:5 3:23.7532 
0.3219449091280573 1:10 2:1 3:1.15416 
0.02818097295179585 1:34 2:3 3:44.15 
0.04379735481257208 1:33 2:55 3:45.9408 
0.02299506766130284 1:22 2:12 3:35.0476 
0.8197624891926221 1:1 2:10 3:0.971579 
0.5065109871964913 1:1 2:3 3:0.454212 
0.0006528254549512114 1:5 2:15 3:6.08139 
0.04167926185008869 1:20 2:51 3:42.7597 
0.0242980964421333 1:10 2:1 3:39 
0.006089458410603904 1:18 2:7 3:5.1512 
0.04607073530197196 1:35 2:36 3:24.8988 
0.03861207592591653 1:36 2:5 3:37.8092 
0.02986683896495471 1:20 2:10 3:32.8525 
0.0006194539400163901 1:11 2:17 3:6.60061 
0.01681293122308283 1:28 2:1 3:36.8258 
0.02401447555235747 1:28 2:14 3:30.7746 
0.01562082226356955 1:12 2:29 3:4.59115 
0.02023478600149126 1:24 2:13 3:28.8237 
0.03831796079491065 1:29 2:9 3:9.84187 
0.04588814588537327 1:17 2:8 3:55.9079 
0.04234875967867746 1:22 2:43 3:54.1429 
0.0372765300457219 1:6 2:35 3:37.2 
0.02467571733441491 1:13 2:8 3:24.3862 
0.02797392274052246 1:24 2:12 3:26.2187 
0.00364787521404811 1:15 2:28 3:6.49008 
0.0458416507844412 1:48 2:47 3:63.1139 
0.008143567726146666 1:23 2:7 3:28.1209 
0.04047213627690444 1:1 2:18 3:9.8722 
0.03606505982179647 1:24 2:11 3:42.1429 
0.03143504278088954 1:5 2:11 3:17.7201 
0.02820871518218704 1:34 2:3 3:31.1187 
0.04306511174240879 1:40 2:4 3:43.8147 
0.04541188260660617 1:23 2:47 3:48.9717 
0.03625341789084537 1:19 2:7 3:37.8571 
0.004287310086717731 1:28 2:12 3:31.7009 
0.03479152092414899 1:36 2:3 3:45.4286 
0.03527725731768011 1:37 2:1 3:46.7039 
0.01787474400622241 1:31 2:8 3:29.6285 
0.009215379836258964 1:12 2:4 3:3.65735 
0.009659331350812313 1:11 2:5 3:4.59582 
0.04204471586071074 1:33 2:31 3:42.547 
0.04592076366643455 1:16 2:37 3:1.18558 
0.009867272427851362 1:14 2:7 3:2.87269 
1 1:1 2:1 3:0.411559 
0.006159084850991989 1:14 2:27 3:3.63283 
0.01060282838655626 1:14 2:19 3:5.90507 
0.008603263258203597 1:31 2:16 3:42.2477 
0.02412932122926043 1:24 2:6 3:43.9327 
0.03158000353340185 1:24 2:47 3:43.3333 
0.0397589413508376 1:17 2:13 3:23.947 
0.04399674426228023 1:37 2:35 3:45 
0.02135567308048848 1:33 2:5 3:34.7708 
0.03385675051742254 1:26 2:21 3:11.1118 
0.0373154361223364 1:23 2:14 3:11.5128 
0.0383887546169841 1:13 2:7 3:35.0265 
0.03836192069730796 1:32 2:10 3:3.81291 
0.02424549335205649 1:7 2:8 3:9.92984 
0.02076256143736007 1:20 2:23 3:7.50378 
0.03024912420373197 1:6 2:24 3:13.2559 
0.008368029471948507 1:18 2:25 3:7.95543 
0.01854141785212747 1:21 2:6 3:2.58344 
0.006330203868658157 1:8 2:25 3:4.40938 
0.01863500017573592 1:29 2:1 3:43.2276 
0.04564781592461366 1:32 2:34 3:27.2801 
0.04581401007144142 1:8 2:58 3:0.699012 
0.04595851852362159 1:54 2:50958 3:65.1387 
0.04597211768356019 1:1 2:3 3:180.055 
0.2008059118448529 1:2 2:37 3:2.04605 
0.03906100691741843 1:2 2:43 3:4.91339 
0.0413847678498353 1:27 2:23 3:12.5072 
0.04580642625050824 1:55 2:19 3:25.9301 
0.04578129422333038 1:68 2:125 3:43.2343 
0.02200560153606418 1:2 2:40 3:11.4184 
0.03626889697584305 1:34 2:8 3:20.6772 
0.02412315809207027 1:3 2:9 3:9.03876 
0.01710192301656734 1:11 2:9 3:10.8078 
0.02280974608268882 1:13 2:2 3:18.718 
0.03776712696871065 1:35 2:10 3:46.4809 
0.03669049574458222 1:20 2:54 3:41.4 
0.02412638797939986 1:4 2:19 3:8.29263 
0.04438402852363293 1:29 2:32 3:46.6667 
0.01295540497195479 1:5 2:23 3:6.34274 
0.01040898663147444 1:12 2:29 3:5.36711 
0.01107239431391729 1:26 2:9 3:35.6972 
0.0356898847961922 1:32 2:14 3:43.6746 
0.04445354598696966 1:26 2:13 3:6.69227 
0.03005390912914346 1:11 2:3 3:22.0199 
0.02614094387738564 1:7 2:30 3:2.63418 
0.02607495675202465 1:22 2:35 3:29.364 
0.04613011659938743 1:28 2:24 3:42.7143 
0.04265631577703354 1:8 2:19 3:14.2809 
0.01181731572208294 1:8 2:4 3:5.81802 
0.02936204296596847 1:1 2:32 3:5.42631 
0.01704194366071946 1:12 2:6 3:6.70981 
0.0198450688365092 1:16 2:23 3:6.14112 
0.02990795252092909 1:19 2:9 3:5.66532 
0.03698806380982855 1:15 2:16 3:27.4597 
0.02636010551051097 1:15 2:18 3:10.0197 
0.02779001003362756 1:14 2:20 3:0.65898 
0.04059823801668025 1:30 2:45 3:46.65 
0.04492813959450642 1:25 2:42 3:52.7 
0.01054489715258362 1:18 2:9 3:2.75158 
0.03825114129465359 1:4 2:24 3:12.5754 
0.01824883305635949 1:29 2:2 3:47.2 
0.04500390934984211 1:16 2:1 3:38.7309 
0.03511892471489619 1:26 2:6 3:44.6863 
0.02456351855162208 1:3 2:1 3:12.5032 
0.04594859927734707 1:29 2:46 3:18.2888 
0.04553337097077653 1:28 2:42 3:1.04736 
0.01265505479854192 1:8 2:4 3:7.39537 
0.0441789020275827 1:28 2:29 3:32.0199 
0.0459629092052351 1:10 2:53 3:22.8507 
0.0459372331229792 1:132 2:3 3:28.4651 
0.002292057198045983 1:2 2:1 3:18.9411 
0.0363570859493304 1:15 2:3 3:23.4302 
0.02121510140399554 1:5 2:19 3:5.74834 
0.009968558628195359 1:16 2:21 3:6.71452 
0.02486665103489942 1:22 2:28 3:9.749 
0.03188697901908186 1:35 2:14 3:34.404 
0.02354083727564785 1:30 2:5 3:36.2274 
0.003903381880630052 1:4 2:23 3:3.31428 
0.04591597039524242 1:40 2:45 3:10.7084 
0.02340523758354629 1:25 2:2 3:29.2231 
0.008610785453837921 1:20 2:7 3:27.5815 
0.01362432145597034 1:11 2:13 3:5.28686 
0.03761133413973036 1:17 2:51 3:36.1279 
0.03795946494408492 1:13 2:1 3:22.5844 
0.006544272898004053 1:30 2:10 3:40.8419 
0.008761281286944419 1:18 2:3 3:7.54317 
0.009522274891064664 1:15 2:16 3:5.64264 
0.01989828381212455 1:29 2:11 3:41.3045 
0.01948233301370944 1:15 2:23 3:9.36178 
0.01138708092383055 1:25 2:9 3:27.4257 
0.04590582852940439 1:29 2:26 3:0.685877 
0.00583739182968096 1:17 2:8 3:10.3035 
0.006531406169638336 1:20 2:5 3:27.4823 
0.001686735697381758 1:23 2:4 3:41.8791 
0.04264023724268828 1:16 2:48 3:48.4223 
0.04199181016642428 1:44 2:1 3:10.2106 
0.02534298595642656 1:22 2:1 3:10.2106 
0.0414506050413313 1:44 2:1 3:13.8446 
0.002462601632434185 1:13 2:5 3:4.35565 
0.04531462053492247 1:15 2:49 3:21.7364 
0.03426448013350886 1:24 2:16 3:37.2983 
0.04022476226011401 1:17 2:28 3:13.7653 
0.01972162254469171 1:9 2:1 3:5.12868 
0.01202235105580003 1:7 2:26 3:6.06001 
0.01920513701417816 1:13 2:14 3:2.82863 
0.0339959023454534 1:10 2:27 3:9.44869 
0.02631455001863577 1:3 2:2 3:30.9933 
0.01659471800498202 1:18 2:6 3:3.6006 
0.02861259480677118 1:32 2:13 3:27.9698 
0.006611602617662483 1:25 2:8 3:28.7926 
0.01354694556798364 1:16 2:21 3:9.75093 
0.04383252987534569 1:14 2:25 3:22.6184 
0.03075976080538488 1:1 2:9 3:38.3333 
0.001932182303530983 1:8 2:1 3:4.43087 
0.03650812477281823 1:1 2:6 3:17.1529 
0.03792116798929804 1:40 2:5 3:51.8286 
0.04428466257302704 1:40 2:44 3:46.5564 
0.03940647123403784 1:30 2:17 3:42.0652 
0.008302925502197054 1:23 2:6 3:30.7981 
0.04550630181602772 1:16 2:53 3:20.6473 
0.04582075467231017 1:37 2:30 3:32.8135 
0.01878613929966261 1:5 2:2 3:35.0026 
1 1:1 2:1 3:0.4225 
0.01149190412919571 1:16 2:15 3:8.22094 
0.004843921481459979 1:11 2:14 3:5.8067 
0.02911995122210997 1:24 2:9 3:39.8095 
0.03644596337013284 1:15 2:22 3:14.6257 
0.03949042431766042 1:2 2:13 3:34.5211 
0.021348574508579 1:32 2:9 3:38.7581 
0.02838239583679609 1:19 2:3 3:22.4799 
0.01766974511783595 1:38 2:5 3:47.607 
0.04358149979067882 1:24 2:50 3:38.4934 
0.03870194669040092 1:6 2:9 3:66.1129 
0.03823023927509167 1:44 2:3 3:12.1977 
0.04552076192859045 1:7 2:40 3:74.3159 
0.04583771374209766 1:1 2:97 3:4.90132 
0.01589050573962656 1:5 2:1 3:29.4116 
0.03059941018009787 1:16 2:26 3:4.24645 
0.03922087333444228 1:11 2:1 3:32.6084 
0.04543258597939887 1:58 2:51 3:105.178 
0.02528841182047453 1:9 2:2 3:18.3624 
0.01866428472834599 1:6 2:8 3:5.74948 
0.00330667772171951 1:14 2:13 3:7.70489 
0.01407607639473496 1:8 2:7 3:4.07469 
0.03588206786884426 1:17 2:7 3:1.14801 
0.01955195182235558 1:14 2:18 3:3.78706 
0.01013102151750261 1:2 2:32 3:3.51051 
0.04073270330360273 1:15 2:50 3:40.3568 
0.01440316485522953 1:17 2:1 3:5.96852 
0.04591927427199621 1:67 2:114 3:0.611692 
0.04576543447855624 1:24 2:20 3:47.0476 
0.04430496365576547 1:26 2:12 3:47.0619 
0.02081005911396392 1:1 2:1 3:12.2702 
0.02142831423686542 1:27 2:1 3:36.6411 
0.0451921392360316 1:33 2:17 3:32.5063 
0.04592738719452966 1:41 2:1 3:63.4286 
0.03248667473381862 1:34 2:14 3:37.1501 
0.009214273273818612 1:12 2:6 3:3.7216 
0.04326701771652841 1:17 2:5 3:18.5946 
0.04569730290532531 1:1 2:30 3:37.1429 
0.01241859763195776 1:10 2:22 3:7.70224 
0.8950434688347032 1:1 2:5 3:0.669525 
0.0043992271575275 1:5 2:3 3:5.23494 
0.02691239564860436 1:20 2:3 3:5.23494 
0.01750276918053745 1:3 2:1 3:26.9758 
0.007925823605034688 1:1 2:22 3:6.26786 
0.04502110698705952 1:31 2:25 3:38.9833 
0.02040949848941762 1:16 2:1 3:10.7291 
0.01654307189279966 1:1 2:3 3:13.4591 
0.01093791336601746 1:12 2:24 3:9.44644 
0.02688837366809003 1:10 2:13 3:0.969546 
0.04576913690695783 1:9 2:52 3:28.5104 
0.0254169430348233 1:18 2:16 3:11.2645 
0.01118502049060462 1:10 2:13 3:6.80791 
0.01960439267817033 1:9 2:17 3:9.19503 
0.008843374360311797 1:8 2:5 3:3.06089 
0.02369147274237972 1:13 2:1 3:33.1019 
0.009515438056016901 1:5 2:2 3:17.5897 
0.002710723427589009 1:14 2:5 3:2.84331 
0.04523520433912226 1:70 2:3 3:8.14926 
0.04225813050664562 1:42 2:3 3:8.14926 
0.01814156600806033 1:18 2:8 3:30.5483 
0.02975585797585339 1:26 2:5 3:13.3878 
0.008761673884171817 1:18 2:10 3:15.6857 
0.002590238303941519 1:14 2:1 3:4.42524 
0.01787403451523467 1:5 2:1 3:4.56252 
0.02269258021309589 1:25 2:2 3:43.8854 
0.0336737269277084 1:5 2:15 3:7.70009 
0.02631794309226745 1:32 2:1 3:7.88201 
0.0008022647060546841 1:3 2:1 3:10.1499 
0.007913404797003675 1:1 2:1 3:5.75355 
0.02761641126510663 1:8 2:1 3:10.9093 
0.04299386930491744 1:25 2:30 3:31.9524 
0.03052999927533991 1:28 2:2 3:41.2701 
0.1213450419846214 1:38 2:2 3:0.691401 
0.04561992412802385 1:38 2:43 3:26.1834 
0.006379386113371188 1:37 2:2 3:48.4908 
0.01075844519629389 1:3 2:1 3:6.87909 
0.04575430471742103 1:10 2:4 3:67.1397 
0.0288285886248971 1:24 2:1 3:36.9524 
0.04561604649514461 1:14 2:35 3:19.2793 
0.02038484235348348 1:30 2:10 3:27.7132 
0.01868404775113258 1:20 2:8 3:32.9758 
0.04442834858484279 1:12 2:31 3:0.773963 
0.02556067680793489 1:14 2:28 3:8.01447 
0.0385403306327699 1:26 2:9 3:4.11003 
0.03969566570224375 1:6 2:33 3:10.3509 
0.03905305021971722 1:4 2:7 3:21.8291 
0.01506898466222519 1:14 2:21 3:1.92253 
0.002007526558806883 1:10 2:18 3:4.15573 
0.04041163998335966 1:1 2:7 3:22.0684 
0.02969448697753384 1:23 2:16 3:21.4955 
0.02393458385681877 1:12 2:1 3:10.2501 
0.005253115834576202 1:12 2:19 3:7.37076 
0.01256916465746394 1:23 2:24 3:10.9292 
0.005926345883361397 1:27 2:6 3:37.423 
0.03848740253016382 1:28 2:17 3:15.503 
0.01577678598993192 1:11 2:28 3:7.35423 
0.02914308290925402 1:12 2:8 3:18.3137 
0.03515355563798253 1:21 2:12 3:28.0844 
0.008772776559906416 1:12 2:11 3:3.8145 
0.01549216342426002 1:5 2:11 3:6.1451 
0.01342461424594028 1:6 2:1 3:7.83215 
0.002668957312940699 1:10 2:19 3:3.61225 
0.01107481225365992 1:7 2:20 3:6.16734 
0.03792533635703532 1:22 2:37 3:34.3333 
0.04479065805396482 1:14 2:40 3:42.2037 
0.005710903955851387 1:23 2:10 3:33.7393 
0.03267961840641614 1:28 2:19 3:26.2071 
0.01158140115189902 1:8 2:19 3:4.71224 
0.001991081782072635 1:31 2:10 3:29.3765 
0.02584832046858376 1:30 2:41 3:44.95 
0.01208716871839915 1:1 2:9 3:9.27214 
0.0007656369013516184 1:12 2:8 3:4.3766 
0.03411155184091086 1:23 2:37 3:31.2736 
0.04106141522417034 1:29 2:4 3:51.59 
0.04562013074247047 1:14 2:23 3:38.15 
0.004150966769856157 1:7 2:16 3:5.56221 
0.02555670804950605 1:24 2:15 3:21.206 
0.0414838628155732 1:23 2:45 3:37.7143 
0.04315999735413323 1:19 2:6 3:42.2131 
0.0320953143828312 1:28 2:3 3:48.9218 
0.001589672621848645 1:10 2:5 3:2.29128 
0.01595925384290634 1:8 2:3 3:25.7482 
0.01476884150862348 1:15 2:8 3:10.2287 
0.04611205474811608 1:29 2:58 3:38.9561 
0.03016509969273792 1:30 2:44 3:23.5961 
0.04581077624172047 1:14 2:27 3:26.8289 
0.04365522254566878 1:23 2:30 3:28.7721 
0.002224812142461681 1:2 2:3 3:7.10994 
0.0806024056944814 1:34 2:2 3:2.59007 
0.04055594332746715 1:4 2:5 3:19.4155 
0.002041306377335602 1:6 2:10 3:4.74347 
0.01388561312867788 1:1 2:1 3:10.739 
0.007972728834249654 1:11 2:2 3:16.5593 
0.03168305638196461 1:1 2:1 3:39.7517 
0.02973820401098242 1:7 2:11 3:9.52741 
0.01961287932328085 1:7 2:16 3:7.164 
0.04591297986407189 1:3 2:74 3:25.7071 
0.02245180250618011 1:24 2:14 3:30.0816 
0.04052907399182504 1:13 2:13 3:45.3753 
0.003308902340431297 1:18 2:6 3:4.89248 
0.01892307384376147 1:14 2:16 3:9.64669 
0.0457038038685687 1:12 2:49 3:45.1256 
0.005049847068806546 1:8 2:2 3:6.61031 
0.01560280618954742 1:17 2:23 3:7.49996 
0.04577872604333347 1:11 2:6 3:42.5649 
0.02922875556080135 1:9 2:12 3:13.3244 
0.003608967844306032 1:1 2:26 3:4.43213 
0.002373085082742254 1:12 2:23 3:5.94067 
0.00145442465002345 1:20 2:1 3:13.5312 
0.03929701445841634 1:16 2:13 3:43.3681 
0.04589812108479419 1:32 2:50 3:8.24788 
0.04585188114139471 1:29 2:30 3:13.7377 
0.03747919016940514 1:9 2:33 3:18.705 
0.01125155256972205 1:4 2:28 3:3.23624 
0.01489417651778848 1:13 2:25 3:10.1631 
0.03629845517329068 1:25 2:44 3:47.6153 
0.04088401708545167 1:1 2:30 3:7.00778 
0.008330084713594955 1:2 2:25 3:5.27264 
0.02286818270569513 1:5 2:21 3:2.31109 
0.0414273579686289 1:16 2:22 3:0.454093 
0.02592600801319105 1:17 2:8 3:19.6522 
0.0284134427592716 1:12 2:4 3:23.6333 
0.04520464673210887 1:32 2:30 3:28.4634 
0.0355289472426273 1:33 2:1 3:29.8385 
0.02560109213245099 1:28 2:12 3:29.7028 
0.04252875518727456 1:20 2:57 3:40.7619 
0.01155822472354756 1:8 2:7 3:1.14388 
0.003554129261524649 1:35 2:3 3:29.8921 
0.01649565024851141 1:37 2:10 3:46.5781 
0.005665771114956565 1:18 2:16 3:10.5103 
0.009930501312802258 1:18 2:17 3:8.3378 
0.04588108009058622 1:31 2:46 3:40.9694 
0.02512360910971823 1:33 2:8 3:43.1495 
0.03540178617482653 1:36 2:12 3:40.8149 
0.03621438132527333 1:27 2:10 3:39.7899 
0.02501095161850492 1:30 2:12 3:42.6124 
0.0457190299154579 1:37 2:16 3:52.0124 
0.02390351610222993 1:39 2:3 3:46.7686 
0.02828434869261608 1:16 2:32 3:6.01761 
0.04584450643452415 1:21 2:38 3:17.511 
0.02356999308608553 1:8 2:13 3:7.18942 
0.04295735845078619 1:13 2:21 3:16.5479 
0.04393704214164817 1:17 2:35 3:46.3141 
0.01717080061256823 1:27 2:7 3:36.071 
0.006159650168958745 1:16 2:6 3:2.70926 
0.01832338491233014 1:9 2:25 3:7.71941 
0.004724842067004163 1:8 2:21 3:4.33679 
0.04177719176534621 1:24 2:20 3:16.97 
0.03418384197392349 1:15 2:29 3:4.68693 
0.01024242192173846 1:13 2:1 3:8.92201 
0.02581098406794612 1:21 2:7 3:39.8782 
0.01596683067339406 1:28 2:4 3:33.0765 
0.04246781962148238 1:15 2:40 3:38.95 
0.02033087360836922 1:16 2:7 3:22.607 
0.01661526559726205 1:25 2:4 3:37.3848 
0.04492789992412616 1:22 2:35 3:42.1429 
0.01932867808158429 1:25 2:3 3:37.3333 
0.01217153771744713 1:24 2:11 3:34.5329 
0.04585519418932771 1:23 2:26 3:33.4553 
0.03732534815362443 1:11 2:7 3:31.8695 
0.006429538438201366 1:4 2:15 3:4.74666 
0.04589967410059326 1:48 2:10 3:46.2799 
0.03216652380591407 1:19 2:11 3:18.2439 
0.03029249662646188 1:32 2:4 3:32.2876 
0.04124309046474156 1:6 2:32 3:4.60715 
0.03987122514500713 1:29 2:30 3:43.5888 
0.03719105349741014 1:10 2:6 3:22.4555 
0.005816617700409642 1:12 2:8 3:4.77433 
0.03611515376356331 1:31 2:43 3:48.0476 
0.0141607454596355 1:26 2:9 3:34.7619 
0.009117444935707788 1:28 2:5 3:31.5819 
0.04440887539561916 1:26 2:32 3:27.3687 
0.01490451705470274 1:28 2:13 3:33.5366 
0.04361205612575608 1:25 2:41 3:45.0413 
0.04035061997031308 1:23 2:7 3:13.5603 
0.007116689052332793 1:5 2:24 3:5.96413 
0.01726609245094158 1:29 2:4 3:36.8449 
0.029604850612403 1:1 2:1 3:19.7455 
0.02383346407855017 1:3 2:17 3:7.47117 
0.04094972556397447 1:12 2:12 3:27.5489 
0.01923977260616943 1:19 2:1 3:6.81802 
0.03849727754072263 1:21 2:50 3:27.7265 
0.0047008719291344 1:16 2:4 3:8.58983 
0.01735947776856624 1:19 2:11 3:9.37375 
0.0159381204159308 1:22 2:1 3:7.82576 
0.006201023701919897 1:13 2:25 3:5.297 
0.0188775232745478 1:4 2:23 3:4.49519 
0.03314577488400608 1:11 2:17 3:10.6875 
0.04105783437606031 1:32 2:43 3:50.308 
0.009096422009440892 1:9 2:22 3:7.11296 
0.005752091788202487 1:10 2:21 3:5.85648 
0.04604845632177962 1:26 2:56 3:25.6138 
0.01765115811403883 1:6 2:26 3:3.76881 
0.01818962928362994 1:11 2:1 3:5.02854 
0.008508067311562563 1:13 2:20 3:4.62533 
0.04520776411613198 1:8 2:28 3:29.4067 
0.04409298406311596 1:38 2:4 3:35.1426 
0.03264031000355816 1:16 2:16 3:2.20607 
0.03660570561383836 1:7 2:35 3:8.45077 
0.03039350643839559 1:22 2:8 3:26.5274 
0.8188191982525639 1:8 2:1 3:0.453851 
0.04200956578350884 1:18 2:2 3:50.6667 
0.04117310748253988 1:3 2:18 3:12.6324 
0.03813475734345276 1:34 2:36 3:51.85 
0.01081242012556101 1:10 2:18 3:11.1088 
0.04467305510378111 1:7 2:30 3:11.9906 
0.04616849684917651 1:30 2:44 3:14.5348 
0.02439163159160718 1:26 2:3 3:30.447 
0.7500824657243742 1:7 2:1 3:0.500736 
0.02377063388769945 1:23 2:9 3:30.6157 
0.03695938058744097 1:21 2:13 3:14.6518 
0.02551818704800712 1:10 2:7 3:24.844 
0.04384285935141985 1:33 2:52 3:46.6368 
0.03414496266808298 1:28 2:18 3:30.0515 
0.03217226960798736 1:28 2:40 3:44.0952 
0.01317154351173359 1:31 2:7 3:35.2793 
0.03779985380475212 1:22 2:26 3:7.1508 
0.03640742403138125 1:22 2:20 3:5.38819 
0.01343785575267426 1:20 2:17 3:6.23128 
0.02527586584336561 1:15 2:1 3:43.9524 
0.006077109394564811 1:7 2:1 3:9.70279 
0.02898382175969599 1:18 2:1 3:41.7143 
0.03099630023556216 1:20 2:1 3:49.4192 
0.030214181594094 1:29 2:18 3:37.7157 
0.02233115871308395 1:32 2:10 3:42 
0.01804031876796579 1:28 2:10 3:26.2624 
0.04211763083828285 1:13 2:7 3:20.6755 
0.04606706330215021 1:33 2:41 3:40.619 
0.02814335649374222 1:32 2:12 3:36.3748 
0.03735598316855576 1:6 2:37 3:36.4856 
0.04410181154702314 1:16 2:55 3:46.2087 
0.01525315721659769 1:28 2:3 3:30.3549 
0.04374016592142849 1:2 2:12 3:31.4891 
0.04570480629876778 1:8 2:39 3:40.7 
0.0005961831670192597 1:14 2:25 3:8.75463 
0.03438674868574848 1:19 2:20 3:15.0657 
0.04608822242964639 1:8 2:24 3:28.8602 
0.006617759620868322 1:13 2:26 3:6.15025 
0.02690556775169239 1:10 2:16 3:7.83017 
1 1:1 2:27 3:1.09797 
0.03592270142473906 1:30 2:8 3:50.5908 
0.04593517964465499 1:13 2:62 3:30.6604 
0.04583555775820609 1:12 2:37 3:33.2381 
0.002846977505387482 1:16 2:14 3:5.44081 
0.001201155393192088 1:28 2:9 3:39.7143 
0.02155216393634235 1:10 2:1 3:9.4756 
0.01374811861728412 1:19 2:1 3:2.65994 
0.04565654560590893 1:20 2:57 3:16.9425 
0.003016507851554939 1:18 2:6 3:7.75978 
0.02275737360530102 1:14 2:5 3:10.5179 
0.04486907622009112 1:24 2:31 3:8.45676 
0.0285563829135389 1:13 2:6 3:1.04175 
0.01130118210332498 1:37 2:7 3:42.3153 
0.002009462131697521 1:11 2:19 3:3.55922 
0.04559160234959564 1:12 2:21 3:21.4554 
0.03202316363090479 1:18 2:36 3:36.3369 
0.03310816696419494 1:34 2:27 3:41.0952 
0.04539939411183075 1:18 2:17 3:42.0917 
0.02038809293361269 1:32 2:10 3:30.2113 
0.00622646484230715 1:11 2:17 3:5.50714 
0.03304442456063215 1:5 2:1 3:44.6497 
0.04291191297358582 1:40 2:45 3:49.619 
0.0132690261434742 1:13 2:23 3:4.89602 
0.02302130864455126 1:34 2:2 3:42.1905 
0.009595265015670037 1:6 2:1 3:6.71065 
0.03954054701609219 1:31 2:10 3:44.4403 
0.04553074043691946 1:32 2:56 3:49.458 
0.01933011585605346 1:28 2:10 3:32.4621 
0.01566881509003497 1:11 2:10 3:28.1543 
0.02656206205600942 1:18 2:25 3:11.0097 
0.02452565264685013 1:24 2:10 3:28.4393 
0.02252817087534138 1:17 2:1 3:42.2706 
0.002399901831242926 1:10 2:6 3:1.71667 
0.01459079110482875 1:15 2:6 3:4.14226 
0.008968217279579079 1:12 2:3 3:4.45201 
0.02287885585917832 1:15 2:12 3:2.97636 
0.009500332415792904 1:12 2:15 3:3.40029 
0.1494730365319329 1:1 2:23 3:2.63409 
0.01535191086705372 1:21 2:1 3:13.3729 
0.002140064333064349 1:10 2:21 3:4.51841 
0.03296498772112347 1:23 2:1 3:3.89903 
0.04592085265700585 1:1 2:8 3:106.38 
0.02849837849438197 1:8 2:1 3:44.1896 
0.03447205823842033 1:8 2:3 3:44.1896 
0.001421098541802844 1:12 2:4 3:8.04983 
0.04482443983441209 1:4 2:1 3:97.4386 
0.03228183573542916 1:5 2:6 3:12.407 
0.03848740328705322 1:7 2:22 3:12.3279 
0.03128806676797441 1:3 2:29 3:0.799638 
0.0413991683296015 1:36 2:18 3:25.4299 
0.02581038777078931 1:8 2:6 3:24.7932 
0.02073080886868472 1:8 2:1 3:24.7932 
0.03460730867602896 1:5 2:14 3:12.407 
0.02574811538832311 1:5 2:1 3:12.407 
0.04593116872139907 1:15 2:35 3:142.093 
0.02197820935331592 1:6 2:1 3:15.7329 
0.01254862113266138 1:10 2:14 3:4.4394 
0.04235318636069113 1:20 2:36 3:8.14645 
0.03700188123403253 1:24 2:40 3:41.75 
0.01346223456431106 1:1 2:1 3:8.22603 
0.01667275429312945 1:12 2:1 3:17.0945 
0.006627394504748875 1:16 2:5 3:8.64646 
0.01999371503721056 1:16 2:22 3:10.3797 
0.003593458570522659 1:12 2:28 3:5.51655 
0.01486425737432397 1:18 2:9 3:39.6125 
0.01082124712726703 1:14 2:21 3:5.19913 
0.02383302691190917 1:30 2:11 3:29.7251 
0.01210316371253971 1:16 2:8 3:6.12972 
0.004367080344793189 1:13 2:5 3:5.56764 
0.01937116685701353 1:17 2:4 3:13.5306 
0.00949338289105485 1:12 2:20 3:3.78844 
0.02403303875853391 1:20 2:12 3:10.2328 
0.03156405457517675 1:31 2:6 3:46.5714 
0.04603980710835309 1:60 2:4 3:44.8042 
0.04591203008192196 1:57 2:128 3:41.5256 
0.03191245268070748 1:1 2:40 3:10.7521 
0.02682639556703087 1:34 2:1 3:43.6283 
0.01853688357062137 1:1 2:6 3:4.63671 
0.03259596244762867 1:14 2:14 3:43.4286 
0.0295192986771125 1:29 2:37 3:43.1865 
0.04574528117720678 1:25 2:43 3:24.702 
0.04522626182157574 1:30 2:16 3:1.32061 
0.004024463620866548 1:2 2:10 3:18.1785 
0.03001340037033906 1:1 2:5 3:27.3513 
0.009837370037536331 1:2 2:18 3:5.93417 
0.04589278731955415 1:18 2:66 3:2.27338 
0.02596498947842755 1:1 2:7 3:9.35865 
0.04590839002980546 1:3 2:445 3:0.570929 
0.04604967104431634 1:61 2:184 3:1.2759 
0.02026407796427959 1:7 2:1 3:4.81084 
0.03616915344959654 1:7 2:40 3:2.55032 
0.03671804020063304 1:3 2:2 3:43.9576 
0.02242254315288834 1:1 2:5 3:7.21933 
0.04109088939369093 1:1 2:25 3:9.4752 
0.03014139403657667 1:2 2:8 3:38.1648 
0.04591843354155567 1:6 2:6 3:85.6665 
0.03231297827516858 1:43 2:2 3:54.45 
0.04516789745771865 1:21 2:28 3:26.5362 
0.04566380415360584 1:17 2:6 3:73.784 
0.01055557010663591 1:26 2:9 3:27.6352 
0.006906259559157504 1:17 2:16 3:8.66782 
0.03730878107861618 1:35 2:40 3:50.65 
0.03008834363685204 1:22 2:3 3:28.2657 
0.03429632703267012 1:27 2:8 3:11.3155 
0.01167831668467853 1:10 2:4 3:6.29839 
0.007158712064084262 1:5 2:6 3:3.0039 
0.02148685550302482 1:26 2:6 3:31.5353 
0.03005198753365229 1:21 2:1 3:42.3333 
0.04565736350294025 1:10 2:45 3:29.2857 
0.04540073839062458 1:33 2:28 3:31.5439 
0.00542268581702532 1:18 2:5 3:8.25808 
0.02281717751137641 1:9 2:27 3:4.45248 
0.02267001648356609 1:30 2:12 3:32.6031 
0.004413464076383657 1:32 2:14 3:41.9388 
0.02280028011517952 1:28 2:5 3:42.972 
0.01138739444393477 1:25 2:8 3:29.5531 
0.01629448271413048 1:19 2:13 3:9.47924 
0.02289865214678816 1:29 2:7 3:27.0488 
0.01425575355518438 1:3 2:6 3:4.48801 
0.001917155262797843 1:10 2:5 3:6.07035 
0.03477518578111755 1:22 2:32 3:11.0792 
0.04560344140737527 1:25 2:42 3:29.0691 
0.007603463188676147 1:8 2:26 3:4.47864 
0.01432801183350637 1:13 2:1 3:7.35802 
0.01814066566764664 1:11 2:14 3:1.97743 
0.01732440990372839 1:16 2:1 3:7.53795 
0.03738145929948872 1:30 2:6 3:18.0313 
0.01929974844969211 1:34 2:8 3:42.2381 
0.0009533883660725884 1:13 2:4 3:3.58043 
0.03424210452006878 1:28 2:15 3:33.6185 
0.01483595942612242 1:28 2:18 3:31.5695 
0.01949788802516074 1:28 2:4 3:43.5951 
0.04508079739284642 1:12 2:23 3:26.8004 
0.04564456076914669 1:8 2:20 3:25.45 
0.0143206870550744 1:11 2:20 3:8.72091 
0.009406328625726507 1:17 2:17 3:7.58804 
0.03332614912172396 1:27 2:33 3:40.2865 
0.04613321898043332 1:33 2:34 3:36.6872 
0.04265305683255299 1:20 2:14 3:40.4884 
0.0452126476638841 1:24 2:17 3:32.9452 
0.02038878191616796 1:28 2:4 3:35.0189 
0.03298226183253017 1:8 2:3 3:31.914 
0.04363935770744665 1:44 2:7 3:52.9181 
0.02572900665645957 1:30 2:1 3:43.2857 
0.01395547447678192 1:17 2:24 3:9.26013 
0.0231824713032478 1:25 2:11 3:8.77013 
0.01646874783493641 1:15 2:9 3:10.1823 
0.0275148690114112 1:21 2:6 3:15.9943 
0.04587974831491826 1:23 2:4 3:87.9876 
0.004830610409682045 1:8 2:4 3:9.47272 
0.03103201938784261 1:30 2:6 3:45.1724 
0.004857104214321213 1:12 2:1 3:5.29697 
0.01638675338381013 1:18 2:1 3:10.7823 
0.007954987512392708 1:16 2:4 3:5.34281 
0.04457297877851507 1:42 2:10 3:40.9573 
0.0122479888846666 1:27 2:3 3:42.4695 
0.01501355933371623 1:20 2:1 3:11.2847 
0.01222846842451946 1:35 2:6 3:39.1693 
0.01634257392295332 1:25 2:4 3:34.8445 
0.03564437874166189 1:4 2:16 3:11.1703 
0.002151808496691547 1:16 2:7 3:4.22678 
0.03896575757165899 1:28 2:5 3:24.5727 
0.03592065893486478 1:12 2:28 3:2.50906 
0.03671589026059209 1:18 2:4 3:24.8316 
0.04571978702389462 1:29 2:50 3:43.25 
0.005081575893703021 1:15 2:6 3:5.88787 
0.02157480536116066 1:14 2:14 3:5.95002 
0.01077480015029202 1:6 2:21 3:5.40743 
0.03094335293476835 1:25 2:14 3:25.1016 
0.009256170587466861 1:13 2:15 3:8.04717 
0.03081973267555443 1:14 2:19 3:12.933 
0.04237923100773427 1:3 2:42 3:38.4762 
0.02511462580600527 1:17 2:10 3:8.65957 
0.005628634006671734 1:26 2:7 3:35.6837 
0.03806254763635886 1:22 2:55 3:42.05 
0.01995658467847185 1:24 2:12 3:30.2045 
0.025658646527566 1:25 2:40 3:34.1226 
0.04538208386935352 1:18 2:43 3:33.6441 
0.03691367378557958 1:15 2:5 3:14.5114 
0.03205138242134409 1:4 2:14 3:15.8739 
0.009006558885800792 1:29 2:7 3:28.0457 
0.007574997129067025 1:14 2:5 3:5.75268 
0.04591402181406179 1:37 2:51 3:53 
0.01674773060338765 1:28 2:7 3:33.3861 
0.0296154772933483 1:29 2:7 3:19.3971 
0.02424447343893904 1:19 2:8 3:27.4691 
0.02436885685756459 1:23 2:15 3:24.9775 
0.1077398223225053 1:1 2:26 3:1.89433 
0.02813820401646444 1:27 2:10 3:23.2128 
0.02781364466710667 1:3 2:5 3:10.2855 
0.04591851308634365 1:57 2:121 3:5.5986 
0.04055009292735345 1:1 2:1 3:55.0343 
0.0174132440750523 1:4 2:1 3:30.1689 
0.033891380452771 1:3 2:5 3:25.6651 
0.02553898858671637 1:1 2:64 3:1.474 
0.02422666258238494 1:1 2:64 3:0.750246 
0.04591170877557738 1:1 2:110 3:6.28763 
0.04590481671399804 1:64 2:38 3:52.4293 
0.04564754608357879 1:1 2:114 3:50.4755 
0.01673306618263254 1:1 2:4 3:25.9956 
0.01921001028568975 1:3 2:1 3:4.43786 
0.8639446569429946 1:1 2:7 3:0.794574 
0.008143397843494927 1:26 2:45 3:33.7454 
0.02086049460196662 1:1 2:9 3:5.71429 
0.03781801946874111 1:35 2:37 3:53.5238 
0.006487211285916625 1:16 2:18 3:13.0902 
0.03906905611050038 1:9 2:10 3:15.0803 
0.007919709582954206 1:28 2:6 3:26.9069 
0.03016243715411854 1:24 2:3 3:41.7085 
0.01748221571909676 1:23 2:9 3:22.5763 
0.04225273240485294 1:32 2:1 3:45.8692 
0.01158252181958475 1:11 2:11 3:6.13779 
0.04607438430670663 1:29 2:46 3:1.22509 
0.02775430945826948 1:18 2:10 3:12.2742 
0.004066229104478677 1:13 2:25 3:6.69577 
0.02972101473973808 1:20 2:21 3:4.12466 
1 1:1 2:1 3:0.430645 
0.01853325249805682 1:16 2:6 3:11.622 
0.02668082400868971 1:29 2:12 3:38.6913 
0.005980059100942698 1:11 2:18 3:5.06967 
0.04344517775527762 1:4 2:44 3:14.317 
0.02336563052822009 1:16 2:20 3:5.38903 
0.03273440871608385 1:35 2:6 3:41.4649 
0.04530355398780433 1:17 2:33 3:17.6121 
0.01434924976378488 1:28 2:5 3:30.0375 
0.01536065140498067 1:18 2:4 3:10.1049 
0.02102863067799365 1:12 2:3 3:19.6537 
0.000926780340540771 1:11 2:5 3:5.9898 
0.01311712382458679 1:8 2:17 3:5.66677 
0.01882125516042899 1:16 2:25 3:6.62802 
0.04617761331692966 1:49 2:4 3:58.6667 
0.01395998168027443 1:23 2:9 3:32.6409 
0.01307326829971355 1:19 2:7 3:12.5091 
0.02830670501897786 1:13 2:12 3:12.5776 
0.004097258981973162 1:9 2:5 3:4.73899 
0.001078110383284314 1:8 2:1 3:4.69091 
0.04257829649433303 1:14 2:42 3:37 
0.03563422671401802 1:20 2:38 3:4.79183 
0.02686270091650256 1:24 2:6 3:28.6605 
0.03842432138736521 1:19 2:51 3:37.0476 
0.003309133399134006 1:10 2:23 3:4.61425 
0.01917718471624517 1:15 2:21 3:7.88243 
0.007841531699788176 1:18 2:4 3:6.93597 
0.023677808808514 1:29 2:10 3:36.8621 
0.01223718021941063 1:10 2:15 3:5.27837 
0.02415470104039875 1:19 2:8 3:12.9084 
0.01179234688876129 1:6 2:16 3:3.35052 
0.04524027412759735 1:43 2:12 3:46.5116 
0.0459828103618915 1:28 2:34 3:54.0171 
0.04214506403386226 1:22 2:9 3:43.7359 
0.03505318584717514 1:20 2:3 3:19.3168 
0.04125486761104413 1:38 2:6 3:40.2125 
0.0389085158665468 1:12 2:4 3:27.2086 
0.02535926585462021 1:14 2:33 3:6.52598 
0.02899923864455733 1:37 2:7 3:43.1917 
0.02703802734091998 1:34 2:13 3:39.8095 
0.004215518987733204 1:14 2:3 3:6.94574 
0.04453376657457853 1:27 2:33 3:33.1688 
0.04579856604718968 1:15 2:64 3:44.6309 
0.03229499431200961 1:37 2:9 3:44.7411 
0.01429791027609971 1:29 2:3 3:30.1587 
0.01048684953318797 1:11 2:3 3:11.1093 
0.003047638724702844 1:13 2:7 3:5.0362 
0.0078764367952847 1:5 2:5 3:4.69952 
0.04609502607490717 1:1 2:27 3:71.3544 
0.01426890104358621 1:19 2:1 3:9.80074 
0.01791463081610494 1:5 2:15 3:2.16032 
0.01657958151583609 1:21 2:16 3:5.44145 
0.03275865074465578 1:20 2:7 3:20.5186 
0.04262888759800443 1:21 2:16 3:30.6796 
0.02147274791953108 1:18 2:7 3:20.6335 
0.03931909428751466 1:23 2:43 3:47.9048 
0.02132802049911549 1:8 2:2 3:21.7106 
0.03643087624449716 1:24 2:13 3:13.375 
0.005620355963103237 1:8 2:8 3:3.08023 
0.0301725088097364 1:32 2:15 3:41.3185 
0.01197410765198389 1:12 2:27 3:7.50149 
0.04563480915074991 1:2 2:38 3:39.2857 
0.04575025331253729 1:39 2:16 3:35.0507 
0.02548316710170837 1:3 2:12 3:6.5462 
0.03889273287358824 1:13 2:9 3:13.5966 
0.03611712556536617 1:17 2:16 3:28.5494 
0.03727465276263284 1:41 2:4 3:49.4596 
0.0007679906657663163 1:14 2:6 3:3.95969 
0.009083824577172776 1:14 2:26 3:9.39275 
0.002344278611809463 1:7 2:5 3:2.74733 
0.01088221564962429 1:9 2:24 3:5.90468 
0.02604431063531325 1:26 2:7 3:23.709 
0.02262625955987887 1:23 2:12 3:33.726 
0.009165937616312249 1:13 2:26 3:3.72724 
0.02339961060326392 1:8 2:11 3:5.62534 
0.04605911798729367 1:21 2:32 3:5.84748 
0.02450335551205059 1:31 2:7 3:29.75 
0.006263117764866127 1:19 2:3 3:9.06889 
0.01889381601562268 1:3 2:26 3:4.60448 
0.01823187583426067 1:22 2:3 3:7.16388 
0.03867297426285458 1:19 2:48 3:42.3286 
0.04438732435070214 1:33 2:5 3:20.4238 
0.00352705238803761 1:18 2:4 3:6.16138 
0.01993435984100937 1:11 2:1 3:7.32391 
0.01099294013655577 1:24 2:6 3:30.498 
0.02894037503639471 1:28 2:34 3:39.3333 
0.02855635686717498 1:15 2:1 3:1.38134 
0.01090239919707281 1:14 2:16 3:3.66724 
0.04479181211507521 1:38 2:1 3:33.6658 
0.03646655524530953 1:19 2:24 3:2.7304 
0.008466561522055537 1:12 2:27 3:4.62746 
0.02730754418044062 1:7 2:14 3:1.10038 
0.01679952386703639 1:8 2:16 3:3.43847 
0.001932913101641249 1:17 2:6 3:7.42494 
0.03653699905494467 1:19 2:35 3:37.75 
0.0459038855167706 1:27 2:54 3:49.1226 
0.01603468320870534 1:10 2:10 3:3.62631 
0.0001317335052725202 1:9 2:6 3:3.1421 
0.00243721802615638 1:15 2:4 3:6.92728 
0.04432360429150856 1:23 2:19 3:28.1416 
0.04169809159762916 1:36 2:8 3:23.7306 
0.03147406656273211 1:14 2:1 3:49.2871 
0.00840681336104262 1:21 2:3 3:10.2533 
0.002968568841281993 1:12 2:16 3:5.86812 
0.01556272556116005 1:15 2:1 3:9.81048 
0.0300972127538317 1:21 2:13 3:31.3459 
0.009857218249902266 1:35 2:13 3:40.7058 
0.03041663895633445 1:16 2:20 3:12.0044 
0.03780427035447247 1:24 2:42 3:36.5238 
0.04480134745678586 1:5 2:13 3:29.9991 
0.006087611391492226 1:4 2:2 3:9.47997 
0.007163024662450466 1:11 2:2 3:19.5533 
0.01818681843999971 1:21 2:8 3:17.3277 
1 1:1 2:6 3:0.621015 
0.04556782168931817 1:45 2:5 3:48.3079 
0.04017008222715912 1:19 2:40 3:43.3282 
0.02912901375632027 1:4 2:2 3:26.6349 
0.03026588401107708 1:21 2:10 3:21.5319 
0.02978559241598109 1:22 2:7 3:9.37163 
0.01214049568174813 1:27 2:7 3:33.4517 
0.02358318457358768 1:42 2:9 3:46.5416 
0.02776709022103765 1:31 2:6 3:39.9307 
0.01245818776264387 1:3 2:15 3:4.45559 
0.04399548569424155 1:17 2:32 3:47.2381 
0.04211346920813358 1:26 2:36 3:39.3333 
0.03008281456754036 1:15 2:1 3:25.5075 
0.01777528132470391 1:17 2:6 3:9.03717 
0.01182673611777062 1:31 2:8 3:38.0946 
0.0426530763626411 1:31 2:9 3:7.98493 
0.04295101911402494 1:17 2:43 3:38.8307 
0.03299730814676971 1:25 2:41 3:39.2142 
0.03552831660900824 1:21 2:39 3:3.45213 
0.0184066354333347 1:17 2:13 3:5.99054 
0.02185840762882056 1:16 2:11 3:5.71673 
0.03277210678701155 1:19 2:19 3:11.6045 
0.01366947361833432 1:9 2:13 3:7.81022 
0.04568657251918123 1:44 2:5 3:42.4845 
0.04606928547204031 1:1 2:16 3:23.8746 
0.02583494245265386 1:24 2:9 3:21.2546 
0.02083751146771937 1:29 2:8 3:41.0934 
0.03388326518381785 1:14 2:25 3:12.1413 
0.04458077038732644 1:32 2:18 3:24.0363 
0.04597592663809785 1:32 2:29 3:48.9048 
0.0130058704107559 1:33 2:12 3:33.5213 
0.04313828743611342 1:30 2:15 3:45.5178 
0.02999072992267392 1:14 2:31 3:13.8385 
0.01626154174303435 1:19 2:23 3:7.38083 
0.0456139913125621 1:30 2:34 3:11.4923 
0.03658314161872683 1:22 2:35 3:9.83183 
0.02835351663003974 1:32 2:2 3:7.39073 
0.0459147860421239 1:36 2:78 3:26.6272 
0.0458793571436521 1:53 2:93 3:41.5149 
0.0456533530100236 1:15 2:47 3:14.1248 
0.04574121559037919 1:42 2:26 3:2.63351 
0.04600928592171422 1:3 2:494 3:0.525389 
0.04565238670546123 1:17 2:1154 3:2.48804 
0.03791596672546332 1:24 2:26 3:9.13486 
0.03785091842079705 1:10 2:11 3:18.8235 
0.006418384053458766 1:12 2:22 3:4.39959 
0.01181463244099886 1:7 2:3 3:4.55845 
0.03900868638649263 1:17 2:42 3:18.2796 
0.003397029150081138 1:18 2:30 3:11.8594 
0.04563151231285195 1:3 2:21 3:16.5714 
0.04583099935126955 1:22 2:48 3:8.69579 
0.007471522146629217 1:18 2:2 3:8.50596 
0.001046726726214829 1:6 2:11 3:10.4589 
0.04545058300713639 1:27 2:24 3:18.166 
0.04486700014632222 1:8 2:13 3:27.8 
0.02393890342786854 1:10 2:12 3:10.9129 
0.03697670652094814 1:13 2:23 3:13.3975 
0.02865253925445519 1:29 2:44 3:24.6334 
0.01341353074105922 1:23 2:3 3:9.16461 
0.03728305054633146 1:42 2:5 3:53.3748 
0.02415177515618492 1:2 2:10 3:16.4036 
0.03743726986245834 1:19 2:49 3:46.1429 
0.03100130530510015 1:15 2:1 3:32.5 
0.03481819809897123 1:13 2:32 3:12.6925 
0.01978194363265152 1:2 2:10 3:19.0049 
0.04416441215186778 1:2 2:28 3:10.5498 
0.04576522933005139 1:29 2:22 3:32.3138 
0.02008798998214682 1:24 2:11 3:36.2443 
0.02833636396803896 1:16 2:11 3:15.407 
0.04543408643133473 1:12 2:47 3:39.381 
0.03488186359412437 1:31 2:3 3:49.9167 
0.02688034767200946 1:30 2:13 3:40.9059 
0.0344529730844037 1:5 2:28 3:0.685149 
0.007278957644905378 1:8 2:24 3:5.02664 
0.01166380346181998 1:17 2:5 3:13.2786 
0.01131935805891591 1:9 2:1 3:7.07883 
0.0414378055433412 1:24 2:12 3:18.969 
0.03894142189964761 1:9 2:4 3:28.7552 
0.03008944850642509 1:32 2:6 3:31.8661 
0.01618585852000873 1:20 2:7 3:34.2896 
0.005344530924716257 1:8 2:1 3:37.7143 
0.006917596197003712 1:10 2:21 3:3.83348 
0.01955355271138343 1:22 2:1 3:13.8762 
0.004286349989873515 1:9 2:2 3:7.20526 
0.008309433457348645 1:14 2:24 3:6.93927 
0.006622671603462102 1:4 2:24 3:5.64668 
0.005608673146134824 1:13 2:18 3:6.95305 
0.008168157489772607 1:11 2:26 3:4.79356 
0.01414938372506559 1:3 2:28 3:6.00169 
0.005654861015770511 1:21 2:6 3:7.29726 
0.02987852464683222 1:26 2:20 3:15.1377 
0.004177705807691988 1:16 2:8 3:10.8029 
0.01849512450036006 1:17 2:19 3:7.86593 
0.02994265389703027 1:6 2:10 3:2.48378 
0.04313557981718552 1:27 2:46 3:46.1905 
0.03646616195348082 1:14 2:32 3:3.65931 
0.03615433238090277 1:36 2:7 3:32.1088 
0.04609615273993939 1:30 2:41 3:60.3333 
0.03940873200029349 1:23 2:49 3:14.663 
0.002152823818550626 1:33 2:9 3:42.6069 
0.01509102354276711 1:21 2:5 3:3.00324 
0.02244846622659654 1:7 2:4 3:9.71734 
0.02082129017764897 1:20 2:23 3:3.8803 
0.04351939894017753 1:40 2:5 3:7.4083 
0.04589312958837877 1:20 2:1 3:115.194 
0.01152497475961735 1:20 2:1 3:7.38988 
0.01776212350783768 1:20 2:1 3:4.84783 
0.0370310787922104 1:20 2:1 3:32.337 
0.04587326073298859 1:2 2:21 3:35.0515 
0.04473563576746993 1:4 2:10 3:35.0515 
0.02339387593786135 1:10 2:1 3:18.8649 
0.4542434817567965 1:30 2:1 3:0.957761 
0.04408354262440872 1:36 2:1 3:5.05009 
0.01767317183583537 1:7 2:1 3:23.08 
0.04575071007089493 1:216 2:62 3:23.08 
0.04614017403890908 1:7 2:1 3:127.297 
0.009786940021493483 1:16 2:7 3:7.22118 
0.005902494608522576 1:6 2:2 3:6.44471 
0.004102394097533943 1:4 2:1 3:9.97212 
0.02460157433847243 1:8 2:7 3:7.22118 
0.04496920217364792 1:30 2:2 3:10.5185 
0.04588234154555576 1:30 2:2 3:96.4788 
0.02470216909111354 1:14 2:15 3:23.08 
0.02512418241762911 1:7 2:3 3:23.08 
0.02942963605852184 1:11 2:4 3:12.9406 
0.04589830124870642 1:32 2:40 3:36.1424 
0.004817341895638816 1:14 2:1 3:5.32305 
0.03054549074601504 1:18 2:7 3:26.4727 
0.03426137327967813 1:24 2:17 3:38.8095 
0.04598460162991357 1:15 2:40 3:32.6 
0.04563930407977529 1:7 2:51 3:45.85 
0.01404183474927496 1:3 2:1 3:17.7913 
0.02159263099730439 1:23 2:4 3:3.15735 
0.01599946340867916 1:9 2:9 3:10.3786 
0.03472839762125229 1:18 2:10 3:2.32655 
0.004619468951813762 1:20 2:16 3:10.4877 
0.02589044325320264 1:1 2:2 3:66.7437 
0.04588849135570833 1:21 2:14 3:59.9573 
0.008738849007360319 1:5 2:8 3:4.79761 
0.02137225791597165 1:1 2:3 3:27.8508 
0.0295514570894988 1:28 2:1 3:46.465 
0.0440793291553257 1:22 2:32 3:31.3803 
0.04591774307455376 1:3 2:17 3:83.736 
0.04059295810176883 1:22 2:2 3:38.6646 
0.01163973259759963 1:5 2:14 3:2.11916 
0.04579902359197879 1:45 2:3 3:35.7947 
0.03972882372816899 1:17 2:1 3:14.7226 
0.008920271331567697 1:15 2:6 3:10.9401 
0.004758634777369991 1:15 2:17 3:9.42564 
0.2918038830768428 1:1 2:11 3:1.3154 
0.03531635617265616 1:27 2:37 3:43.9855 
0.01586381995589166 1:14 2:7 3:7.92981 
0.04539628175992955 1:40 2:10 3:54.406 
0.0448485042240922 1:6 2:8 3:62.8204 
0.003263879766934162 1:11 2:20 3:3.60684 
0.03541851361107803 1:26 2:45 3:33.3949 
0.03951444926961256 1:27 2:20 3:23.711 
0.02853455322493145 1:6 2:1 3:32.6667 
0.007778326815373146 1:6 2:4 3:4.13386 
0.01163946497248319 1:27 2:4 3:32.3727 
0.01454090220991638 1:18 2:8 3:7.19073 
0.009211884731165226 1:14 2:3 3:2.69086 
0.04547901583297928 1:25 2:36 3:3.14058 
0.007830197885240652 1:29 2:8 3:38.8 
0.02946002818798643 1:26 2:15 3:29.2962 
0.04563405222350075 1:12 2:60 3:45 
0.02349318462804237 1:39 2:8 3:47.6863 
0.02835719754836635 1:1 2:14 3:9.69037 
0.009432027220691301 1:8 2:22 3:5.30999 
0.03060025846446492 1:15 2:17 3:13.324 
0.01321810650707018 1:4 2:3 3:4.63341 
0.04593051911959983 1:10 2:52 3:2.22487 
0.01523396131635945 1:7 2:17 3:0.739275 
0.004779062013960333 1:2 2:21 3:4.56873 
0.02660319932235163 1:7 2:13 3:11.517 
0.02213090232885512 1:16 2:1 3:24.665 
0.04276998250160641 1:1 2:7 3:68.1064 
0.0334581537253964 1:1 2:1 3:30.4179 
0.01517255904541949 1:1 2:7 3:7.84932 
0.008721546345262017 1:2 2:25 3:5.92526 
0.03748254124476214 1:1 2:22 3:8.82328 
0.008131646173593434 1:9 2:5 3:3.15648 
0.04211084541221327 1:28 2:33 3:25.0552 
0.02738701660712395 1:4 2:1 3:34.5861 
0.02324193814803593 1:23 2:11 3:9.19569 
0.02857521593418629 1:1 2:1 3:27.7108 
0.0317317516744076 1:18 2:9 3:40.4536 
0.04396519488917005 1:2 2:38 3:13.8335 
0.02121505237760383 1:20 2:6 3:31.6923 
0.03889697803324385 1:20 2:44 3:38.75 
0.04586772972826048 1:9 2:43 3:24.6867 
0.3885902169882203 1:1 2:30 3:2.22517 
0.03099873324137744 1:34 2:9 3:22.5303 
0.01908411476771332 1:5 2:11 3:4.05431 
0.007386822707944862 1:14 2:3 3:4.62275 
0.03321795483847578 1:26 2:1 3:14.681 
0.02461766623133643 1:27 2:6 3:39.7855 
0.02034260025001475 1:24 2:8 3:35.6598 
0.04484118951518823 1:21 2:22 3:29.1411 
0.005337850372223423 1:20 2:2 3:8.34344 
0.01232055163700657 1:6 2:17 3:6.12982 
0.02330180619428069 1:24 2:6 3:36.1513 
0.03353038502897948 1:26 2:39 3:33.2381 
0.04614767156495936 1:33 2:22 3:54.399 
0.01247294666527928 1:17 2:9 3:15.5742 
0.04123667921307839 1:7 2:6 3:28.0224 
0.04344608234053471 1:31 2:46 3:25.7117 
0.0003839432070968985 1:13 2:7 3:4.22477 
0.01869471753716316 1:6 2:6 3:6.19949 
0.04102787528719132 1:34 2:12 3:50.0409 
0.02357839694227644 1:1 2:23 3:5.85635 
0.04156608126993078 1:260 2:2 3:3.0826 
0.04154530553082053 1:260 2:2 3:0.475337 
0.04195974045118156 1:10 2:10 3:25.1298 
0.02310643801526235 1:26 2:9 3:32.2855 
0.01457058354421347 1:23 2:4 3:7.95505 
0.03150200448127112 1:1 2:40 3:4.87454 
0.04531639388108764 1:22 2:20 3:1.31086 
0.006920790547801962 1:9 2:29 3:5.50925 
0.04570851003601113 1:31 2:37 3:23.7093 
0.02820827820467117 1:42 2:8 3:46.0318 
0.01958996792678713 1:25 2:20 3:14.2886 
0.004301084252185307 1:13 2:5 3:7.7519 
0.02217725815319027 1:26 2:8 3:22.0804 
0.04371757405552351 1:29 2:36 3:37.0476 
0.008565921486272329 1:10 2:24 3:5.59591 
0.008061274109180616 1:12 2:3 3:6.3085 
0.03792247513698148 1:15 2:8 3:15.9072 
0.03535963273240315 1:27 2:8 3:20.0193 
0.04179390092228125 1:15 2:15 3:30.3392 
0.003781859772908406 1:12 2:3 3:12.5905 
0.03272741036491946 1:14 2:16 3:24.2145 
0.0342117199096284 1:36 2:2 3:49.0175 
0.04547354488016475 1:19 2:31 3:42.4369 
0.02982228431498396 1:1 2:11 3:10.3716 
0.0239769605644765 1:12 2:9 3:7.69048 
0.03021235462027522 1:7 2:1 3:14.077 
0.03720704552218618 1:15 2:31 3:9.34622 
0.006089270160582864 1:3 2:1 3:9.0225 
0.04353747252606777 1:26 2:36 3:34.9848 
0.02038118299846791 1:3 2:1 3:0.411562 
0.03323281079618196 1:30 2:39 3:29.2672 
0.04367849223517251 1:25 2:14 3:40.9 
0.01641377393139216 1:2 2:1 3:22.6303 
0.01116081500081213 1:7 2:29 3:3.49079 
0.01935927980720728 1:20 2:7 3:6.21403 
0.03489895747202232 1:12 2:11 3:0.669724 
0.005221251535305992 1:3 2:1 3:19.2988 
1 1:1 2:8 3:0.450569 
0.02256182182079315 1:6 2:18 3:0.765728 
0.0152943318469018 1:10 2:2 3:16.1483 
0.02230878821412748 1:4 2:1 3:22.9377 
0.0435009831439872 1:16 2:1 3:29.619 
0.007445335937358683 1:22 2:1 3:8.99279 
0.02289321274261394 1:22 2:1 3:6.12462 
0.04621949393060937 1:54 2:170 3:46.3377 
0.02927660869026572 1:12 2:20 3:1.21285 
0.04587898552823494 1:11 2:1 3:125.03 
0.03167717046610335 1:21 2:37 3:31.9524 
0.001796397437442171 1:2 2:1 3:28.8768 
0.04567316051125248 1:10 2:43 3:39.15 
0.004096682772566113 1:14 2:8 3:4.93958 
0.01815491263745837 1:26 2:10 3:26.8861 
0.02970347538217466 1:26 2:5 3:11.5868 
0.04573468957880422 1:12 2:2 3:53.6576 
0.04591919488477719 1:2 2:32 3:31.243 
0.0421932888184432 1:34 2:35 3:45.5238 
0.03261872633934052 1:29 2:16 3:25.4793 
0.008416519040525264 1:29 2:9 3:33.4825 
0.004232680578836148 1:10 2:24 3:4.38884 
0.04426923175222514 1:23 2:37 3:44.8117 
0.004061034949182872 1:8 2:8 3:9.69477 
0.02263641811617981 1:8 2:13 3:3.55431 
0.005080058708466825 1:32 2:7 3:40.2819 
0.02010543906643919 1:18 2:14 3:13.5004 
0.04105024471716434 1:4 2:44 3:36.8 
0.03930546727017947 1:23 2:40 3:32.6849 
0.02239185721134097 1:24 2:12 3:24.0669 
0.04565025752341367 1:25 2:280 3:1.88271 
1 1:1 2:21 3:1.0054 
0.004381169067677187 1:1 2:1 3:8.98663 
0.04463590546388618 1:26 2:15 3:44.0483 
0.00223081241301526 1:9 2:20 3:5.56818 
0.04437043912737648 1:16 2:4 3:47.9727 
0.00381875987319198 1:10 2:11 3:7.84763 
0.02163922876728267 1:33 2:3 3:29.1315 
0.04525949374460753 1:34 2:1 3:54.6667 
0.04578120084253373 1:51 2:107 3:91.832 
0.01400028507674041 1:22 2:14 3:21.1422 
0.04558639152238259 1:43 2:1 3:41.8551 
0.01032802098404699 1:10 2:8 3:2.42965 
0.01157747568445265 1:11 2:22 3:5.98747 
0.03146343678904301 1:28 2:19 3:37.25 
0.03041469907725207 1:21 2:11 3:23.6551 
0.02808150519031598 1:34 2:28 3:39.9307 
0.04271413219700195 1:18 2:46 3:48.6595 
0.00118988463121021 1:13 2:6 3:3.75335 
0.0140601352853055 1:15 2:27 3:6.0069 
0.001527874434020525 1:15 2:4 3:4.10301 
0.005019043020382141 1:9 2:3 3:4.56235 
1 1:1 2:1 3:0.420425 
0.02219375650125891 1:22 2:9 3:34.6807 
0.03635079766457766 1:35 2:7 3:30.306 
0.02621823618471207 1:4 2:28 3:7.15046 
0.02760544836182161 1:33 2:11 3:29.8499 
0.04568948060737402 1:20 2:15 3:49.0964 
0.04631512590613601 1:33 2:7 3:66.9202 
0.03540376332929872 1:8 2:41 3:1.08756 
0.04479910973696971 1:18 2:34 3:33.75 
0.01029142621818972 1:15 2:11 3:7.10595 
0.006303478989323441 1:17 2:10 3:19.804 
0.02022436572250933 1:6 2:10 3:6.06746 
0.01006112994123939 1:21 2:5 3:7.76432 
0.02803507073667848 1:21 2:15 3:8.77794 
0.04349513368049951 1:6 2:41 3:36.2953 
0.04391118648134684 1:35 2:12 3:22.1005 
0.01530500902884231 1:17 2:14 3:6.22945 
0.03682197266289716 1:13 2:2 3:35.7906 
0.0124963420013484 1:17 2:18 3:5.86467 
0.02377850599886982 1:28 2:8 3:38.1432 
0.01271077211548803 1:1 2:5 3:5.01153 
0.01769540142905531 1:23 2:4 3:3.78777 
0.01405251876895787 1:9 2:26 3:8.56968 
0.00839548102371805 1:10 2:3 3:4.65435 
0.03822805858003281 1:19 2:49 3:27.8294 
0.0256784065222156 1:19 2:4 3:12.1271 
0.02249326860787031 1:18 2:23 3:12.2668 
0.02906346770697097 1:10 2:10 3:28.2622 
0.0433052318336612 1:22 2:42 3:56.8796 
0.02728072701632711 1:19 2:1 3:13.0626 
0.01719222480465321 1:15 2:30 3:7.2173 
0.02111453165922163 1:21 2:5 3:11.0105 
0.02906826931561985 1:18 2:22 3:4.62355 
0.03251816296817028 1:27 2:39 3:42.1 
0.01591686406237702 1:23 2:11 3:23.003 
0.03944968235842589 1:25 2:49 3:53.1179 
0.03899737986078111 1:26 2:4 3:16.1193 
0.03718032066117109 1:12 2:2 3:39.6616 
0.01010989737616733 1:1 2:9 3:10.7999 
0.02714667671411238 1:17 2:17 3:4.60684 
0.03161203985440688 1:29 2:17 3:32.2457 
1 1:4 2:1 3:0.486897 
0.04029413263615202 1:23 2:1 3:44.8 
0.0456706159899084 1:14 2:10 3:50.0673 
0.01936424221731653 1:4 2:3 3:17.3158 
0.03256344522709254 1:28 2:2 3:33.6546 
0.01605060625563759 1:29 2:9 3:26.2711 
0.02585624268845168 1:12 2:31 3:6.13564 
0.0177305647571871 1:13 2:11 3:3.80256 
0.01588574939306746 1:13 2:22 3:7.33013 
0.008621213108050222 1:14 2:3 3:5.80096 
0.009363429585478419 1:15 2:18 3:4.52558 
0.01562411286818492 1:21 2:7 3:7.27377 
0.02560486569239515 1:39 2:5 3:46.3703 
0.04531804701680947 1:32 2:23 3:36.1421 
0.007123702695407961 1:16 2:1 3:8.6955 
0.02776184102927781 1:39 2:3 3:48.8371 
0.04412502300985122 1:6 2:13 3:37.55 
0.01512174779005473 1:14 2:13 3:8.21022 
0.01706142142238962 1:32 2:8 3:41.0426 
0.02603896099617091 1:22 2:15 3:6.3188 
0.003130003217436786 1:14 2:18 3:5.99584 
0.001060302130451923 1:7 2:6 3:3.64402 
0.003518717877286641 1:14 2:9 3:7.21149 
0.002170529730516235 1:16 2:3 3:6.838 
0.02364641441041924 1:7 2:25 3:7.34984 
0.0249532004626028 1:26 2:6 3:25.623 
0.03154188794920942 1:11 2:24 3:10.489 
0.01883085256280041 1:22 2:7 3:29.8766 
0.04411269627059183 1:13 2:47 3:9.30254 
0.005839200960750651 1:17 2:5 3:11.4851 
0.03123746441969178 1:30 2:15 3:27.0589 
0.03985878939488587 1:6 2:7 3:67.3825 
0.04566364255399439 1:27 2:32 3:3.70951 
0.04585334523550672 1:29 2:1 3:91.4616 
0.04570798301652862 1:19 2:51 3:4.7969 
1 1:6 2:1 3:0.538491 
0.01324000414037138 1:1 2:17 3:4.89436 
0.01349191611721534 1:3 2:4 3:6.044 
0.0376979785503414 1:35 2:39 3:48.7619 
0.0007573265512053617 1:10 2:2 3:7.674 
0.04068952521128827 1:2 2:34 3:6.15618 
0.008932544026964084 1:33 2:13 3:33.0821 
0.03881030706859501 1:33 2:4 3:50.75 
0.01328293062003083 1:22 2:3 3:10.8623 
0.01434666663595641 1:13 2:8 3:6.23769 
0.0358283503228441 1:21 2:17 3:10.6864 
0.01352699389140444 1:28 2:10 3:28.7615 
0.04549223712985911 1:23 2:35 3:20.2504 
0.03079862067258177 1:34 2:13 3:31.8846 
0.001440624722821544 1:15 2:6 3:8.59628 
0.02413222335337742 1:24 2:7 3:32.9891 
0.01993260968532282 1:31 2:7 3:34.2413 
0.04614260675182402 1:13 2:50 3:27.6277 
0.007137661369278477 1:8 2:9 3:9.54613 
0.03176243330947004 1:1 2:11 3:18.9557 
0.01555277481183497 1:25 2:9 3:30.6842 
0.04412281456739287 1:40 2:42 3:50.4286 
0.03283625757605635 1:14 2:1 3:14.7501 
0.04179979286708957 1:25 2:52 3:35.8688 
0.0218221836377058 1:3 2:19 3:5.26149 
0.04588732884146746 1:38 2:67 3:4.0257 
0.002674982342995445 1:28 2:8 3:42.0476 
0.04614665849738303 1:1 2:31 3:14.0653 
0.04365353368167707 1:24 2:48 3:35.9364 
0.04565173170946105 1:27 2:28 3:36.1927 
0.0433812418515867 1:4 2:42 3:34.0476 
0.0006717779343170852 1:2 2:8 3:9.64163 
1.981017345320914e-05 1:3 2:5 3:6.74068 
0.02797875271319206 1:15 2:1 3:48.25 
0.02554181719744286 1:28 2:11 3:22.4145 
0.01800441896706868 1:12 2:10 3:11.3277 
0.03256619195631483 1:30 2:13 3:25.4354 
0.0102057347076808 1:30 2:9 3:41.2818 
0.08982719881116058 1:2 2:45 3:2.33162 
0.007299162091747427 1:6 2:22 3:5.49204 
0.02931491545880877 1:24 2:5 3:9.75934 
0.01755709352969522 1:9 2:11 3:8.77778 
0.03219985636638278 1:23 2:4 3:23.957 
0.03815221693224466 1:12 2:12 3:19.5331 
0.01900603700237128 1:5 2:26 3:7.06394 
0.01279359973369348 1:11 2:19 3:7.92471 
0.04580518384012133 1:63 2:1 3:100.166 
0.04528110761143583 1:27 2:14 3:11.0087 
0.008332940654445526 1:23 2:11 3:9.92985 
0.02765424880810913 1:9 2:20 3:1.77986 
0.04581635951653124 1:83 2:240 3:5.24645 
0.04545073444608938 1:1270 2:15961 3:147.9 
0.01316585353723189 1:11 2:8 3:2.63518 
0.03970297442312687 1:18 2:14 3:3.32764 
0.04400139235892153 1:1 2:45 3:6.98214 
0.04585059642611128 1:46 2:12 3:4.09373 
0.04544342315834987 1:71 2:21 3:7.57564 
0.01945020547903185 1:2 2:40 3:4.11587 
0.04579148800708877 1:171 2:58 3:3.01436 
0.02224549565212051 1:6 2:8 3:16.781 
0.04508958215346226 1:1 2:14 3:93.5967 
0.02506236963318065 1:3 2:8 3:4.54945 
0.04592981847136579 1:1 2:49 3:75.5475 
0.0412591223526752 1:4 2:2 3:41.2617 
0.02332722219836724 1:2 2:3 3:55.8566 
0.04622412874375148 1:6 2:1 3:148.258 
0.007426550749469098 1:1 2:1 3:9.58804 
0.001349567379660747 1:2 2:2 3:10.2324 
0.04591207792843971 1:1 2:470 3:0.820111 
0.002121713401383472 1:1 2:1 3:6.79761 
0.02059658873890659 1:23 2:8 3:37.9569 
0.04492627375277658 1:29 2:15 3:4.58107 
0.002272479533586486 1:6 2:6 3:5.03797 
0.04561105474525923 1:9 2:127 3:3.81395 
0.04594846279195547 1:1 2:385 3:18.5196 
0.04619907420606584 1:5 2:85 3:0.951788 
0.03210045709543707 1:10 2:7 3:17.95 
0.03753953324764165 1:49 2:23 3:13.1865 
0.751668239856474 1:1 2:50 3:1.37847 
0.03638727619583806 1:1 2:1 3:77.2065 
0.02872605712364069 1:1 2:3 3:19.6837 
0.04504456230626225 1:68 2:1 3:5.97197 
0.04591084938283746 1:70 2:19 3:92.4316 
0.04589709186457536 1:116 2:1 3:68.6115 
0.0459061838787071 1:122 2:5 3:3.0261 
0.04531793780074184 1:3 2:11 3:93.3926 
0.03540116017667794 1:5 2:6 3:32.2386 
0.04624992436984243 1:15 2:5 3:138.489 
0.04608079390981717 1:19 2:4 3:108.339 
0.0307657147807765 1:33 2:3 3:39.8148 
0.04176951678475449 1:25 2:50 3:42.9712 
0.04237278098647833 1:37 2:9 3:49.4932 
0.04600380197692577 1:43 2:70 3:0.564102 
0.04577391822082233 1:13 2:56 3:21.0952 
0.6997231601255693 1:5 2:1 3:0.417953 
0.04539747314482456 1:35 2:3 3:57.8 
0.0458817929329417 1:37 2:46 3:30.6509 
0.00995198217629337 1:8 2:20 3:7.48984 
0.04539126695825052 1:26 2:46 3:28.8785 
0.02732666437724231 1:21 2:5 3:31.3671 
0.04592130772479663 1:17 2:30 3:36.6 
0.01678662140940234 1:4 2:12 3:5.08368 
0.04565443965696953 1:33 2:26 3:14.1918 
0.02388920704942721 1:11 2:23 3:2.49032 
0.008921845607101062 1:6 2:22 3:7.21514 
0.0257216192905511 1:16 2:10 3:19.6825 
0.03381075423119925 1:43 2:1 3:55.8571 
0.02256909501915639 1:1 2:4 3:10.6909 
0.04546139782512142 1:14 2:43 3:14.328 
0.04466904607919892 1:17 2:29 3:44.75 
0.03380297087364925 1:31 2:40 3:30.2358 
0.009193102522431718 1:3 2:1 3:9.58816 
0.02712249077125013 1:1 2:3 3:66.4818 
0.02008308486567772 1:1 2:3 3:4.4602 
1 1:1 2:4 3:0.595757 
0.005692691921736803 1:6 2:2 3:10.3487 
0.004541749965860381 1:1 2:1 3:6.37562 
0.0458997433271699 1:1 2:1 3:135.443 
0.002345457742820224 1:5 2:1 3:5.09677 
1 1:1 2:20 3:0.469446 
0.694731236919569 1:1 2:1 3:0.436393 
0.04024531553606364 1:21 2:42 3:39.9011 
0.01077432236007488 1:24 2:3 3:14.2439 
0.03372318204332866 1:4 2:24 3:1.61509 
0.04139496441466234 1:34 2:1 3:50.7143 
0.04571454186869978 1:27 2:17 3:51.6212 
0.00523814317411227 1:13 2:4 3:7.23617 
0.007990909503212068 1:17 2:3 3:9.77667 
0.01154555973274724 1:17 2:9 3:10.9627 
0.02476005646891802 1:19 2:23 3:13.2542 
0.01848586846922282 1:5 2:19 3:2.88163 
0.0078005318912319 1:15 2:10 3:6.16973 
0.006639168041732796 1:4 2:26 3:7.07511 
0.02634536667713327 1:22 2:13 3:20.3895 
0.02589750822401602 1:22 2:1 3:41.1905 
0.01950226362592314 1:32 2:9 3:36.0189 
0.01290986733092841 1:20 2:5 3:9.67647 
0.045853347996891 1:4 2:1 3:71.2957 
0.04579148263700744 1:13 2:36 3:40.0134 
0.03810482720336889 1:16 2:9 3:23.9255 
0.03684375125159439 1:4 2:38 3:11.2127 
0.007515843274058357 1:9 2:12 3:2.05924 
0.002583914934811634 1:6 2:2 3:7.41441 
0.02732003995171465 1:7 2:22 3:7.80645 
0.04592758838786087 1:79 2:8 3:36.6714 
0.01110037328928245 1:9 2:27 3:6.18807 
0.01019693082224728 1:1 2:2 3:13.6119 
0.03395967872615076 1:1 2:1 3:41.6673 
0.01970026486192672 1:5 2:4 3:8.97362 
0.009331800843720121 1:8 2:1 3:8.58108 
0.002542976059754609 1:8 2:5 3:5.86519 
0.01498143589709676 1:2 2:10 3:15.2963 
0.04398811822991384 1:2 2:3 3:58.665 
0.04593029302195195 1:11 2:1 3:150.441 
0.004308804304104115 1:15 2:7 3:5.84951 
0.03502302415514591 1:1 2:4 3:54.9103 
0.0104239880091579 1:14 2:5 3:8.76884 
0.04593107202742752 1:19 2:106 3:8.76884 
0.04579969969350622 1:2 2:68 3:6.35931 
0.04585525755408562 1:14 2:1 3:68.5326 
0.008509990256818947 1:2 2:2 3:29.2635 
-1 1:29 2:0 3:0.128718 
-0.912663644605985 1:0 2:27 3:0.151308 
-1 1:0 2:95 3:0.115767 
-1 1:0 2:170 3:0.276684 
-1 1:0 2:49 3:0.261703 
-1 1:0 2:147 3:0.111327 
-1 1:0 2:10 3:0.347839 
-1 1:0 2:266 3:0.06409 
-1 1:4 2:0 3:0.397652 
-1 1:0 2:54 3:0.127216 
-0.8213495764946311 1:0 2:4 3:0.408661 
-1 1:0 2:21 3:0.112964 
-0.9276565329569548 1:0 2:2 3:0.409221 
-0.1348345032898377 1:0 2:10 3:0.300646 
-1 1:0 2:1 3:0.411253 
-0.9453167331007728 1:6 2:0 3:0.313897 
-1 1:0 2:40 3:0.216619 
-1 1:10 2:0 3:0.374709 
-0.5868266711836375 1:0 2:30 3:0.136499 
-0.2833241630744555 1:0 2:9 3:0.384601 
-0.9152816817762871 1:0 2:14 3:0.397196 
-1 1:5 2:0 3:0.408394 
-0.4676746300582802 1:0 2:11 3:0.380938 
-1 1:0 2:13 3:0.40965 
-0.3473088722958793 1:0 2:24 3:0.266348 
-1 1:0 2:22 3:0.227231 
-1 1:0 2:914 3:0.05161 
-0.8246731841030059 1:0 2:8 3:0.372817 
-1 1:42 2:722 3:0.372817 
-0.01999054638129915 1:0 2:16 3:0.331186 
-0.9419966519055775 1:0 2:17 3:0.368199 
-1 1:0 2:34 3:0.019695 
-1 1:0 2:13 3:0.408806 
-0.5807000538214036 1:0 2:30 3:0.100896 
-1 1:0 2:214 3:0.249559 
-1 1:0 2:128 3:0.409373 
-1 1:0 2:970 3:0.022105 
-0.1179242892606786 1:0 2:18 3:0.324131 
-0.4431810608949358 1:0 2:7 3:0.389135 
-1 1:0 2:9 3:0.393925 
-0.9456003452785371 1:0 2:28 3:0.343908 
-1 1:0 2:757 3:0.167816 
-0.09594667984674558 1:0 2:19 3:0.01007 
-0.5227561584869964 1:0 2:36 3:0.297503 
-0.09035262996675529 1:0 2:22 3:0.221619 
-1 1:0 2:5 3:0.380281 
-0.3376888848305932 1:0 2:29 3:0.387546 
-0.04602296027542063 1:0 2:23 3:0.299886 
-0.2216732081971724 1:0 2:20 3:0.101488 
-0.3598566852029728 1:0 2:6 3:0.404594 
-1 1:0 2:77 3:0.138336 
-1 1:40 2:0 3:0.143553 
-1 1:7 2:0 3:0.045139 
-0.1871291141277392 1:0 2:1 3:1e-06 
-1 1:1 2:0 3:0.410742 
-1 1:0 2:17 3:0.394599 
-1 1:7 2:0 3:0.406359 
-0.07419375479394569 1:0 2:8 3:0.015373 
-0.6621433090565916 1:4 2:0 3:0.388698 
-0.9592089172678906 1:0 2:19 3:0.383234 
-0.3807375408788495 1:0 2:36 3:0.073476 
-1 1:11 2:0 3:0.013744 
-1 1:0 2:86 3:0.355483 
-1 1:0 2:92 3:0.352815 
-1 1:0 2:314 3:0.333971 
-1 1:0 2:91 3:0.021909 
-0.3636930246585901 1:2 2:0 3:0.001626 
-0.3346281363188811 1:4 2:0 3:0.001845 
-1 1:0 2:11 3:0.390006 
-1 1:0 2:26 3:0.232218 
-0.09016593696695593 1:0 2:12 3:0.397391 
-1 1:0 2:257 3:0.273318 
-1 1:0 2:58 3:0.392385 
-0.5116925023749255 1:0 2:2 3:5.2e-05 
-1 1:2 2:0 3:0.410435 
-1 1:0 2:2 3:0.409952 
-0.2985994188345553 1:0 2:32 3:0.142724 
-0.8200280858904951 1:2 2:0 3:0.408541 
-1 1:1 2:0 3:0.41034 
-1 1:0 2:41 3:0.163506 
-1 1:0 2:1 3:0.411253 
-0.01286205632750307 1:0 2:5 3:0.36988 
-0.05059173298353043 1:0 2:4 3:0.003281 
-1 1:0 2:788 3:0.257843 
-0.8433440627124245 1:0 2:1 3:0.411253 
-0.9859489148379513 1:0 2:15 3:0.344271 
-1 1:0 2:6 3:0.406614 
-1 1:0 2:24 3:0.287095 
-1 1:0 2:45 3:0.257854 
-1 1:35 2:0 3:0.378493 
-0.8587713442265864 1:1 2:0 3:0.410042 
-1 1:0 2:71 3:0.397796 
-1 1:9 2:0 3:0.330158 
-1 1:9 2:0 3:0.199921 
-1 1:0 2:4 3:0.411226 
-0.339780029819406 1:1 2:0 3:5e-06 
-1 1:0 2:7 3:0.405353 
-1 1:0 2:32 3:0.308887 
-1 1:0 2:20 3:0.402961 
-1 1:0 2:51 3:0.38229 
-0.3297014262619443 1:0 2:34 3:0.170573 
-0.1941173490290127 1:0 2:16 3:0.022516 
-0.3219275260394093 1:5 2:0 3:0.386564 
-1 1:0 2:37 3:0.255872 
