svm_type c_svc
kernel_type rbf
gamma 0.2
nr_class 2
total_sv 3155
rho 0.705786
label 1 -1
probA 0
probB 4.14863
nr_sv 1566 1589
SV
1 1:-0.995276 2:-0.999961 3:-0.94435 4:0.144788 5:0.82778 
1 1:-0.981102 2:-0.999961 3:-0.974596 4:0.27027 5:0.823405 
1 1:-0.99685 2:-0.999961 3:-0.971558 4:0.328185 5:0.788851 
1 1:-0.993701 2:-0.999961 3:-0.991527 4:0.397683 5:0.755656 
1 1:-0.99685 2:-0.999961 3:-0.957829 4:-0.0019305 5:0.946588 
1 1:-0.965354 2:-0.999961 3:-0.959835 4:0.179537 5:0.98048 
1 1:-0.987402 2:-0.998744 3:-0.91144 4:-0.666023 5:0.414377 
1 1:-0.981102 2:-0.999254 3:-0.928034 4:-0.0810811 5:0.954748 
1 1:-0.979528 2:-0.998705 3:-0.941363 4:-0.320463 5:0.839874 
1 1:-0.995276 2:-0.999922 3:-0.925117 4:-0.380309 5:0.812267 
1 1:-0.99685 2:-0.999882 3:-0.970868 4:-0.0328185 5:0.887294 
1 1:-0.990551 2:-0.999804 3:-0.958569 4:-0.241313 5:0.902035 
1 1:-0.977953 2:-0.999961 3:-0.953583 4:-0.003861 5:0.98412 
1 1:-0.977953 2:-0.999961 3:-0.953583 4:-0.003861 5:0.98412 
1 1:-0.988976 2:-0.999961 3:-0.953583 4:-0.003861 5:0.982135 
1 1:-0.988976 2:-0.999961 3:-0.953583 4:-0.003861 5:0.982135 
1 1:-0.995276 2:-0.999961 3:-0.995126 4:-0.368726 5:0.820244 
1 1:-0.946457 2:-0.999608 3:-0.968802 4:-0.0540541 5:0.97096 
1 1:-0.992126 2:-0.998352 3:-0.995159 4:-0.177606 5:0.92137 
1 1:-0.998425 2:-0.999961 3:-0.993554 4:-0.258687 5:0.89358 
1 1:-0.974803 2:-0.999804 3:-0.931783 4:-0.169884 5:0.91593 
1 1:-0.998425 2:-0.999961 3:-0.992152 4:-0.027027 5:0.978863 
1 1:-0.995276 2:-0.999961 3:-0.991406 4:-0.525097 5:0.652434 
1 1:-0.990551 2:-0.999333 3:-0.945192 4:-0.218147 5:0.897035 
1 1:-0.977953 2:-0.999765 3:-0.952254 4:-0.301158 5:0.85932 
1 1:-0.99685 2:-0.999568 3:-0.962394 4:-0.283784 5:0.864098 
1 1:-0.973228 2:-0.999961 3:-0.950766 4:-0.133205 5:0.89244 
1 1:-0.99685 2:-0.999922 3:-0.994219 4:0.357143 5:0.959858 
1 1:-0.998425 2:-0.999725 3:-0.9676 4:0.0598456 5:0.996067 
1 1:-0.998425 2:-0.999882 3:-0.977532 4:0.0366795 5:0.988237 
1 1:-0.990551 2:-0.999922 3:-0.976768 4:-0.210425 5:0.898763 
1 1:-0.998425 2:-0.99949 3:-0.994907 4:-0.260618 5:0.889095 
1 1:-0.981102 2:-0.999922 3:-0.987824 4:-0.65444 5:0.556381 
1 1:-0.981102 2:-0.999804 3:-0.987824 4:-0.656371 5:0.553844 
1 1:-0.998425 2:-0.999961 3:-0.981863 4:-0.6139 5:0.59939 
1 1:-0.977953 2:-0.999097 3:-0.954162 4:-0.194981 5:0.9106 
1 1:-0.990551 2:-0.999058 3:-0.956606 4:-0.324324 5:0.842557 
1 1:-0.987402 2:-0.999097 3:-0.957508 4:-0.0173745 5:0.967357 
1 1:-0.992126 2:-0.999882 3:-0.990899 4:-0.453668 5:0.759406 
1 1:-0.998425 2:-0.999882 3:-0.991672 4:-0.276062 5:0.297995 
1 1:-0.977953 2:-0.999961 3:-0.962815 4:-0.316602 5:0.859246 
1 1:-0.998425 2:-0.999451 3:-0.988694 4:-0.258687 5:0.25789 
1 1:-0.998425 2:-0.999922 3:-0.975305 4:-0.212355 5:0.233077 
1 1:-0.995276 2:-0.999686 3:-0.915756 4:-0.233591 5:0.261566 
1 1:-0.99685 2:-0.999882 3:-0.953153 4:-0.235521 5:0.193817 
1 1:-0.998425 2:-0.999922 3:-0.916193 4:-0.239382 5:0.117209 
1 1:-0.998425 2:-0.993289 3:-0.915756 4:-0.235521 5:0.255243 
1 1:-0.998425 2:-0.985753 3:-0.943947 4:-0.335907 5:0.819729 
1 1:-0.998425 2:-0.985753 3:-0.943947 4:-0.335907 5:0.819729 
1 1:-0.998425 2:-0.999254 3:-0.967154 4:-0.405405 5:0.662838 
1 1:-0.99685 2:-0.998038 3:-0.992711 4:-0.403475 5:0.662838 
1 1:-0.919685 2:-0.976844 3:-0.992711 4:-0.403475 5:0.662838 
1 1:-0.99685 2:-0.998155 3:-0.988575 4:-0.38417 5:0.668204 
1 1:-0.941732 2:-0.9927 3:-0.976148 4:-0.418919 5:0.634937 
1 1:-0.933858 2:-0.999333 3:-0.948397 4:-0.409266 5:0.666072 
1 1:-0.998425 2:-0.999961 3:-0.940947 4:-0.397683 5:0.655375 
1 1:-0.998425 2:-0.999294 3:-0.964096 4:-0.399614 5:0.668719 
1 1:-0.993701 2:-0.998862 3:-0.948397 4:-0.403475 5:0.668204 
1 1:-0.976378 2:-0.999961 3:-0.97398 4:-0.438224 5:0.756465 
1 1:-0.954331 2:-0.999843 3:-0.949565 4:0.635135 5:0.617255 
1 1:-0.988976 2:-0.999961 3:-0.943168 4:0.206564 5:0.75051 
1 1:-0.998425 2:-0.999961 3:-0.963174 4:-0.357143 5:0.702097 
1 1:-0.990551 2:-0.999922 3:-0.932398 4:-0.027027 5:0.854173 
1 1:-0.998425 2:-0.999882 3:-0.981225 4:-0.6139 5:0.599721 
1 1:-0.987402 2:-0.999725 3:-0.939418 4:-0.0405405 5:0.955667 
1 1:-0.99685 2:-0.999961 3:-0.991705 4:-0.131274 5:0.950448 
1 1:-0.990551 2:-0.998626 3:-0.937946 4:-0.225869 5:0.908909 
1 1:-0.977953 2:-0.999922 3:-0.948358 4:-0.415058 5:0.789659 
1 1:-0.982677 2:-0.999647 3:-0.943054 4:-0.482625 5:0.712647 
1 1:-0.977953 2:-0.999568 3:-0.922469 4:-0.472973 5:0.741835 
1 1:-0.998425 2:-0.999686 3:-0.973836 4:-0.621622 5:0.593582 
1 1:-0.971654 2:-0.999882 3:-0.947572 4:-0.474903 5:0.732387 
1 1:-0.990551 2:-0.999215 3:-0.952739 4:-0.544402 5:0.667249 
1 1:-0.987402 2:-0.999176 3:-0.975601 4:-0.519305 5:0.698936 
1 1:-0.998425 2:-0.999961 3:-0.994904 4:-0.121622 5:0.93703 
1 1:-0.982677 2:-0.999961 3:-0.992578 4:0.15251 5:0.976694 
1 1:-0.973228 2:-0.999765 3:-0.932779 4:0.445946 5:0.920341 
1 1:-0.998425 2:-0.999843 3:-0.980057 4:-0.293436 5:0.873913 
1 1:-0.988976 2:-0.999176 3:-0.944837 4:0.0173745 5:0.966879 
1 1:-0.993701 2:-0.999843 3:-0.994687 4:-0.0250965 5:0.984009 
1 1:-0.990551 2:-0.999019 3:-0.974498 4:-0.0637066 5:0.972209 
1 1:-0.974803 2:-0.999882 3:-0.916443 4:-0.303089 5:0.779845 
1 1:-0.982677 2:-0.999372 3:-0.954211 4:-0.0945946 5:0.919238 
1 1:-0.992126 2:-0.999254 3:-0.972563 4:-0.11583 5:0.942912 
1 1:-0.979528 2:-0.999058 3:-0.940687 4:-0.0868726 5:0.95133 
1 1:-0.974803 2:-0.999765 3:-0.914474 4:0.335907 5:0.966843 
1 1:-0.982677 2:-0.999686 3:-0.955116 4:-0.370656 5:0.82289 
1 1:-0.981102 2:-0.999372 3:-0.951899 4:-0.0675676 5:0.958167 
1 1:-0.973228 2:-0.999686 3:-0.95445 4:-0.418919 5:0.768118 
1 1:-0.99685 2:-0.999725 3:-0.988015 4:-0.409266 5:0.632584 
1 1:-0.998425 2:-0.999922 3:-0.984381 4:-0.445946 5:0.616116 
1 1:-0.993701 2:-0.999961 3:-0.991942 4:-0.598456 5:0.606484 
1 1:-0.977953 2:-0.999333 3:-0.942602 4:-0.413127 5:0.790946 
1 1:-0.995276 2:-0.999961 3:-0.995 4:-0.100386 5:0.945963 
1 1:-0.96378 2:-0.998352 3:-0.995108 4:-0.227799 5:0.911629 
1 1:-0.974803 2:-0.999411 3:-0.940778 4:-0.135135 5:0.898506 
1 1:-0.99685 2:-0.999961 3:-0.98137 4:-0.00965251 5:0.953977 
1 1:-0.977953 2:-0.999019 3:-0.961397 4:0.102317 5:0.997831 
1 1:-0.992126 2:-0.999843 3:-0.949138 4:-0.277992 5:0.875494 
1 1:-0.998425 2:-0.999922 3:-0.995299 4:0.274131 5:0.876009 
1 1:-0.99685 2:-0.998862 3:-0.957461 4:0.160232 5:0.99886 
1 1:-0.993701 2:-0.999215 3:-0.984357 4:0.162162 5:0.912217 
1 1:-0.99685 2:-0.999961 3:-0.985169 4:0.57722 5:0.33946 
1 1:-0.990551 2:-0.999961 3:-0.992615 4:-0.185328 5:0.844064 
1 1:-0.995276 2:-0.999961 3:-0.982315 4:-0.262548 5:0.788336 
1 1:-0.998425 2:-0.999961 3:-0.985209 4:0.629344 5:0.666587 
1 1:-0.998425 2:-0.999882 3:-0.991278 4:0.249035 5:0.644421 
1 1:-0.984252 2:-0.999922 3:-0.965481 4:0.376448 5:0.920562 
1 1:-0.998425 2:-0.999725 3:-0.957519 4:0.592664 5:0.768008 
1 1:-0.99685 2:-0.998783 3:-0.952178 4:0.247104 5:0.977099 
1 1:-0.99685 2:-0.999804 3:-0.923413 4:0.399614 5:0.540721 
1 1:-0.998425 2:-0.999961 3:-0.994589 4:0.627413 5:0.795247 
1 1:-0.99685 2:-0.999922 3:-0.985421 4:0.544402 5:0.871744 
1 1:-0.985827 2:-0.999922 3:-0.962193 4:0.366795 5:0.919679 
1 1:-0.998425 2:-0.999411 3:-0.938679 4:0.546332 5:0.871156 
1 1:-0.995276 2:-0.99898 3:-0.988899 4:0.277992 5:0.501571 
1 1:-0.998425 2:-0.999333 3:-0.973128 4:0.30695 5:0.963681 
1 1:-0.992126 2:-0.999961 3:-0.976225 4:-0.0444015 5:0.947102 
1 1:-0.977953 2:-0.999686 3:-0.967453 4:-0.444015 5:0.611888 
1 1:-0.995276 2:-0.999725 3:-0.98238 4:-0.121622 5:0.948315 
1 1:-0.977953 2:-0.999725 3:-0.925586 4:-0.208494 5:0.867296 
1 1:-0.984252 2:-0.999804 3:-0.984214 4:0.177606 5:0.991361 
1 1:-0.981102 2:-0.999804 3:-0.96131 4:-0.330116 5:0.851673 
1 1:-0.982677 2:-0.99894 3:-0.93513 4:-0.23166 5:0.896374 
1 1:-0.984252 2:-0.999725 3:-0.942588 4:-0.407336 5:0.769919 
1 1:-0.985827 2:-0.999215 3:-0.937091 4:-0.509653 5:0.6442 
1 1:-0.984252 2:-0.999804 3:-0.924122 4:-0.293436 5:0.87123 
1 1:-0.981102 2:-0.999725 3:-0.975871 4:-0.117761 5:0.940669 
1 1:-0.985827 2:-0.999333 3:-0.950376 4:-0.187259 5:0.828221 
1 1:-0.998425 2:-0.999961 3:-0.995215 4:-0.409266 5:0.788483 
1 1:-0.973228 2:-0.999882 3:-0.957909 4:-0.455598 5:0.756355 
1 1:-0.987402 2:-0.999882 3:-0.963195 4:-0.503861 5:0.713015 
1 1:-0.998425 2:-0.999961 3:-0.993702 4:-0.100386 5:0.959196 
1 1:-0.981102 2:-0.999804 3:-0.913256 4:-0.579151 5:0.573842 
1 1:-0.984252 2:-0.999765 3:-0.964205 4:-0.38417 5:0.794879 
1 1:-0.976378 2:-0.998038 3:-0.91583 4:-0.351351 5:0.831603 
1 1:-0.976378 2:-0.999568 3:-0.980985 4:-0.405405 5:0.798224 
1 1:-0.977953 2:-0.99949 3:-0.991718 4:-0.445946 5:0.765582 
1 1:-0.998425 2:-0.999765 3:-0.992454 4:-0.233591 5:0.908578 
1 1:-0.987402 2:-0.999568 3:-0.974484 4:-0.415058 5:0.781315 
1 1:-0.998425 2:-0.999961 3:-0.986047 4:-0.413127 5:0.769294 
1 1:-0.981102 2:-0.999647 3:-0.923225 4:-0.38417 5:0.790725 
1 1:-0.973228 2:-0.999882 3:-0.938595 4:-0.606178 5:0.60064 
1 1:-0.987402 2:-0.999765 3:-0.935886 4:-0.588803 5:0.601669 
1 1:-0.987402 2:-0.999333 3:-0.983636 4:-0.0733591 5:0.948536 
1 1:-0.979528 2:-0.999176 3:-0.916031 4:-0.579151 5:0.62163 
1 1:-0.979528 2:-0.999882 3:-0.936906 4:-0.434363 5:0.755032 
1 1:-0.985827 2:-0.999176 3:-0.961828 4:0.305019 5:0.962578 
1 1:-0.974803 2:-0.999725 3:-0.946405 4:-0.218147 5:0.911408 
1 1:-0.992126 2:-0.998862 3:-0.948162 4:-0.646718 5:0.563108 
1 1:-0.985827 2:-0.999725 3:-0.96974 4:-0.669884 5:0.490029 
1 1:-0.987402 2:-0.999843 3:-0.955535 4:-0.567568 5:0.645781 
1 1:-0.981102 2:-0.999765 3:-0.97339 4:-0.3861 5:0.810686 
1 1:-0.982677 2:-0.999019 3:-0.954205 4:-0.210425 5:0.906887 
1 1:-0.993701 2:-0.999961 3:-0.993546 4:-0.6139 5:0.597405 
1 1:-0.981102 2:-0.999725 3:-0.950588 4:-0.426641 5:0.553256 
1 1:-0.981102 2:-0.999882 3:-0.91777 4:-0.175676 5:0.825023 
1 1:-0.984252 2:-0.999529 3:-0.933942 4:-0.301158 5:0.838587 
1 1:-0.976378 2:-0.999647 3:-0.948583 4:-0.418919 5:0.781977 
1 1:-0.99685 2:-0.999568 3:-0.992334 4:-0.274131 5:0.85829 
1 1:-0.988976 2:-0.999686 3:-0.969056 4:0.276062 5:0.937104 
1 1:-0.982677 2:-0.999765 3:-0.962156 4:0.34749 5:0.923907 
1 1:-0.987402 2:-0.999765 3:-0.986551 4:-0.472973 5:0.66905 
1 1:-0.995276 2:-0.99898 3:-0.939778 4:-0.413127 5:0.760913 
1 1:-0.974803 2:-0.999961 3:-0.963836 5:0.981988 
1 1:-0.998425 2:-0.999961 3:-0.993061 4:0.0444015 5:0.994523 
1 1:-0.981102 2:-0.999058 3:-0.930638 4:0.183398 5:0.992133 
1 1:-0.99685 2:-0.999882 3:-0.930378 4:0.0907336 5:0.339717 
1 1:-0.998425 2:-0.999882 3:-0.993823 4:-0.272201 5:0.871965 
1 1:-0.998425 2:-0.999922 3:-0.974609 4:0.0540541 5:0.975408 
1 1:-0.998425 2:-0.999961 3:-0.990698 4:0.241313 5:0.978385 
1 1:-0.99685 2:-0.99949 3:-0.994632 4:0.814672 5:0.634422 
1 1:-0.984252 2:-0.999765 3:-0.918606 4:-0.548263 5:0.662213 
1 1:-0.992126 2:-0.999961 3:-0.984661 4:-0.0984556 5:0.963093 
1 1:-0.987402 2:-0.999961 3:-0.951724 4:0.144788 5:0.998088 
1 1:-0.987402 2:-0.999137 3:-0.952397 4:-0.222008 5:0.9056 
1 1:-0.970079 2:-0.99898 3:-0.921311 4:-0.453668 5:0.756796 
1 1:-0.99685 2:-0.999922 3:-0.993217 4:-0.552124 5:0.580385 
1 1:-0.96378 2:-0.999647 3:-0.948213 4:-0.357143 5:0.832007 
1 1:-0.998425 2:-0.999961 3:-0.994683 4:-0.198842 5:0.924899 
1 1:-0.984252 2:-0.999725 3:-0.960291 4:-0.0965251 5:0.958535 
1 1:-0.981102 2:-0.999333 3:-0.913961 4:-0.415058 5:0.780984 
1 1:-0.99685 2:-0.999961 3:-0.987974 4:0.764479 5:0.672027 
1 1:-0.982677 2:-0.999804 3:-0.923064 4:-0.702703 5:0.490102 
1 1:-0.990551 2:-0.999176 3:-0.958276 4:-0.337838 5:0.841565 
1 1:-0.981102 2:-0.999804 3:-0.97289 4:-0.355212 5:0.831419 
1 1:-0.987402 2:-0.999922 3:-0.99298 4:-0.453668 5:0.74665 
1 1:-0.981102 2:-0.999961 3:-0.946179 4:-0.189189 5:0.909019 
1 1:-0.998425 2:-0.999961 3:-0.994132 4:-0.488417 5:0.723124 
1 1:-0.992126 2:-0.999725 3:-0.972578 4:-0.509653 5:0.635745 
1 1:-0.981102 2:-0.999843 3:-0.924334 4:-0.501931 5:0.708493 
1 1:-0.995276 2:-0.99898 3:-0.942831 4:-0.239382 5:0.896594 
1 1:-0.984252 2:-0.998666 3:-0.915392 4:-0.486486 5:0.721837 
1 1:-0.995276 2:-0.99949 3:-0.970227 4:-0.314672 5:0.844652 
1 1:-0.988976 2:-0.999411 3:-0.95249 4:-0.415058 5:0.759921 
1 1:-0.990551 2:-0.999804 3:-0.971947 5:0.83833 
1 1:-0.982677 2:-0.999765 3:-0.984008 4:0.328185 5:0.965078 
1 1:-0.982677 2:-0.999765 3:-0.978197 4:-0.046332 5:0.949602 
1 1:-0.979528 2:-0.999765 3:-0.946418 4:-0.110039 5:0.954381 
1 1:-0.985827 2:-0.999922 3:-0.936435 4:-0.148649 5:0.940816 
1 1:-0.985827 2:-0.999843 3:-0.995321 4:0.525097 5:0.884463 
1 1:-0.993701 2:-0.999961 3:-0.963157 4:0.111969 5:0.963019 
1 1:-0.998425 2:-0.999843 3:-0.955186 4:0.254826 5:0.143125 
1 1:-0.99685 2:-0.999961 3:-0.975548 4:0.638996 5:0.385116 
1 1:-0.998425 2:-0.999961 3:-0.991642 4:0.915058 5:0.207161 
1 1:-0.99685 2:-0.999922 3:-0.993035 4:0.0617761 5:0.854798 
1 1:-0.987402 2:-0.999765 3:-0.994723 4:0.0501931 5:0.852482 
1 1:-0.987402 2:-0.999765 3:-0.989304 4:0.0521236 5:0.847483 
1 1:-0.987402 2:-0.999765 3:-0.994723 4:0.0444015 5:0.846711 
1 1:-0.995276 2:-0.999961 3:-0.97595 4:0.127413 5:0.761648 
1 1:-0.979528 2:-0.999647 3:-0.970944 4:-0.23166 5:0.883802 
1 1:-0.968504 2:-0.999765 3:-0.971927 4:-0.312741 5:0.858989 
1 1:-0.973228 2:-0.999961 3:-0.945757 4:-0.46139 5:0.69515 
1 1:-0.977953 2:-0.999922 3:-0.972137 4:-0.285714 5:0.876744 
1 1:-0.977953 2:-0.999411 3:-0.961255 4:-0.370656 5:0.821273 
1 1:-0.977953 2:-0.999686 3:-0.945458 4:0.0868726 5:0.992722 
1 1:-0.993701 2:-0.999922 3:-0.91971 4:-0.104247 5:0.851453 
1 1:-0.973228 2:-0.999961 3:-0.936079 4:0.484556 5:0.904571 
1 1:-0.979528 2:-0.999804 3:-0.914242 4:-0.459459 5:0.751686 
1 1:-0.973228 2:-0.999882 3:-0.92878 4:-0.0579151 5:0.938059 
1 1:-0.993701 2:-0.999765 3:-0.98956 4:-0.359073 5:0.828551 
1 1:-0.981102 2:-0.999922 3:-0.914611 4:-0.252896 5:0.888103 
1 1:-0.993701 2:-0.998509 3:-0.934007 4:-0.322394 5:0.755877 
1 1:-0.995276 2:-0.999765 3:-0.92011 4:-0.341699 5:0.672836 
1 1:-0.984252 2:-0.999137 3:-0.935189 4:-0.532819 5:0.646443 
1 1:-0.982677 2:-0.999372 3:-0.948668 4:0.011583 5:0.987391 
1 1:-0.995276 2:-0.999961 3:-0.967028 4:-0.337838 5:0.845351 
1 1:-0.985827 2:-0.999137 3:-0.948877 4:-0.534749 5:0.672873 
1 1:-0.984252 2:-0.999961 3:-0.97774 4:-0.380309 5:0.817266 
1 1:-0.981102 2:-0.999765 3:-0.970816 4:-0.445946 5:0.718676 
1 1:-0.987402 2:-0.999176 3:-0.929632 4:-0.250965 5:0.888764 
1 1:-0.982677 2:-0.999333 3:-0.940514 4:-0.38417 5:0.754921 
1 1:-0.998425 2:-0.999961 3:-0.994507 4:-0.299228 5:0.840976 
1 1:-0.998425 2:-0.999961 3:-0.99462 4:-0.324324 5:0.849358 
1 1:-0.988976 2:-0.999765 3:-0.942575 4:-0.241313 5:0.888139 
1 1:-0.985827 2:-0.999961 3:-0.932953 4:-0.540541 5:0.591486 
1 1:-0.99685 2:-0.999961 3:-0.976638 4:-0.638996 5:0.553072 
1 1:-0.985827 2:-0.999215 3:-0.913193 4:-0.46139 5:0.724668 
1 1:-0.970079 2:-0.999765 3:-0.917284 4:-0.322394 5:0.855276 
1 1:-0.976378 2:-0.999843 3:-0.941904 4:-0.540541 5:0.659051 
1 1:-0.985827 2:-0.999961 3:-0.981987 4:0.532819 5:0.874759 
1 1:-0.998425 2:-0.999961 3:-0.993679 4:-0.305019 5:0.824875 
1 1:-0.995276 2:-0.999372 3:-0.967448 4:-0.397683 5:0.797526 
1 1:-0.998425 2:-0.999686 3:-0.974692 4:-0.681467 5:0.523958 
1 1:-0.993701 2:-0.999961 3:-0.941759 4:-0.658301 5:0.550977 
1 1:-0.998425 2:-0.999765 3:-0.98987 4:-0.648649 5:0.561196 
1 1:-0.971654 2:-0.999882 3:-0.99444 4:-0.627413 5:0.585715 
1 1:-0.985827 2:-0.999961 3:-0.952039 4:-0.349421 5:0.815318 
1 1:-0.973228 2:-0.999804 3:-0.944692 4:-0.357143 5:0.824765 
1 1:-0.987402 2:-0.999961 3:-0.973872 4:-0.131274 5:0.946625 
1 1:-0.976378 2:-0.999922 3:-0.924777 4:-0.287645 5:0.878177 
1 1:-0.992126 2:-0.999961 3:-0.962686 4:-0.247104 5:0.841565 
1 1:-0.984252 2:-0.999608 3:-0.924196 4:-0.515444 5:0.68993 
1 1:-0.974803 2:-0.998783 3:-0.928513 4:-0.523166 5:0.693385 
1 1:-0.979528 2:-0.999058 3:-0.915204 4:-0.393822 5:0.802158 
1 1:-0.998425 2:-0.999961 3:-0.973567 4:0.554054 5:0.787821 
1 1:-0.998425 2:-0.999961 3:-0.99442 4:0.523166 5:0.866341 
1 1:-0.99685 2:-0.999922 3:-0.955729 4:0.235521 5:0.896043 
1 1:-0.998425 2:-0.999922 3:-0.941414 4:0.179537 5:0.970114 
1 1:-0.99685 2:-0.999961 3:-0.979398 4:0.411197 5:0.924899 
1 1:-0.998425 2:-0.999961 3:-0.961763 4:0.0173745 5:0.904387 
1 1:-0.998425 2:-0.999922 3:-0.986945 4:0.418919 5:0.926627 
1 1:-0.998425 2:-0.999922 3:-0.980684 4:0.428571 5:0.880015 
1 1:-0.99685 2:-0.999961 3:-0.972127 4:0.496139 5:0.814215 
1 1:-0.99685 2:-0.999961 3:-0.987752 4:0.471042 5:0.836087 
1 1:-0.99685 2:-0.999961 3:-0.987752 4:0.42471 5:0.867407 
1 1:-0.99685 2:-0.999961 3:-0.983369 4:0.399614 5:0.885088 
1 1:-0.993701 2:-0.999961 3:-0.991359 4:-0.299228 5:0.869833 
1 1:-0.995276 2:-0.999961 3:-0.980694 4:0.0173745 5:0.987355 
1 1:-0.971654 2:-0.999568 3:-0.92256 4:-0.00579151 5:0.938648 
1 1:-0.982677 2:-0.999922 3:-0.936311 4:0.146718 5:0.952469 
1 1:-0.977953 2:-0.999725 3:-0.918348 4:-0.438224 5:0.761979 
1 1:-0.99685 2:-0.999961 3:-0.99139 4:-0.333977 5:0.848475 
1 1:-0.981102 2:-0.999961 3:-0.954466 4:-0.476834 5:0.644274 
1 1:-0.971654 2:-0.999686 3:-0.940395 4:-0.23166 5:0.90277 
1 1:-0.987402 2:-0.999294 3:-0.922273 4:-0.353282 5:0.835352 
1 1:-0.962205 2:-0.99894 3:-0.985413 4:-0.447876 5:0.74257 
1 1:-0.998425 2:-0.999765 3:-0.982277 4:-0.303089 5:0.850938 
1 1:-0.977953 2:-0.999922 3:-0.938641 4:-0.478764 5:0.733527 
1 1:-0.981102 2:-0.999372 3:-0.947136 4:-0.150579 5:0.937582 
1 1:-0.974803 2:-0.999294 3:-0.923929 4:-0.511583 5:0.635672 
1 1:-0.981102 2:-0.999215 3:-0.93558 4:-0.252896 5:0.878876 
1 1:-0.984252 2:-0.999922 3:-0.926394 4:-0.380309 5:0.798629 
1 1:-0.988976 2:-0.999922 3:-0.976781 4:-0.30695 5:0.862371 
1 1:-0.977953 2:-0.999608 3:-0.915444 4:-0.223938 5:0.875384 
1 1:-0.998425 2:-0.999843 3:-0.971248 4:-0.27027 5:0.866525 
1 1:-0.99685 2:-0.999254 3:-0.941391 4:-0.156371 5:0.92115 
1 1:-0.984252 2:-0.999215 3:-0.954392 4:-0.254826 5:0.886412 
1 1:-0.982677 2:-0.999882 3:-0.937442 4:-0.206564 5:0.710258 
1 1:-0.993701 2:-0.999961 3:-0.993629 4:-0.505792 5:0.683497 
1 1:-0.984252 2:-0.999961 3:-0.949632 4:-0.447876 5:0.729667 
1 1:-0.985827 2:-0.999882 3:-0.954067 4:-0.187259 5:0.926076 
1 1:-0.998425 2:-0.999961 3:-0.994212 4:0.0984556 5:0.991545 
1 1:-0.993701 2:-0.99843 3:-0.942005 4:0.335907 5:0.934457 
1 1:-0.995276 2:-0.999961 3:-0.934892 4:0.011583 5:0.416031 
1 1:-0.995276 2:-0.999451 3:-0.930185 4:0.0579151 5:0.957726 
1 1:-0.993701 2:-0.999804 3:-0.93539 4:0.220077 5:0.969563 
1 1:-0.995276 2:-0.999765 3:-0.919976 4:0.34556 5:0.957653 
1 1:-0.988976 2:-0.999804 3:-0.910365 4:0.727799 5:0.480251 
1 1:-0.988976 2:-0.999176 3:-0.926922 4:0.592664 5:0.771757 
1 1:-0.998425 2:-0.999961 3:-0.994883 4:0.299228 5:0.956439 
1 1:-0.998425 2:-0.999882 3:-0.960937 4:0.455598 5:0.812524 
1 1:-0.998425 2:-0.999922 3:-0.972767 4:-0.274131 5:0.886448 
1 1:-0.987402 2:-0.999961 3:-0.960612 4:0.166023 5:0.993971 
1 1:-0.984252 2:-0.998783 3:-0.956034 4:0.648649 5:0.12276 
1 1:-0.99685 2:-0.999961 3:-0.980665 4:0.573359 5:0.830757 
1 1:-0.99685 2:-0.999961 3:-0.980665 4:0.573359 5:0.831933 
1 1:-0.981102 2:-0.999882 3:-0.918514 4:-0.171815 5:0.927473 
1 1:-0.990551 2:-0.99949 3:-0.965027 4:0.0888031 5:0.998272 
1 1:-0.993701 2:-0.999961 3:-0.949289 4:-0.343629 5:0.80565 
1 1:-0.998425 2:-0.999804 3:-0.986329 4:-0.0637066 5:0.908651 
1 1:-0.976378 2:-0.999961 3:-0.93323 4:0.131274 5:0.973239 
1 1:-0.998425 2:-0.999961 3:-0.981753 4:0.274131 5:0.933722 
1 1:-0.992126 2:-0.999686 3:-0.959013 4:0.175676 5:0.94872 
1 1:-0.99685 2:-0.999961 3:-0.993281 4:-0.23166 5:0.896153 
1 1:-0.992126 2:-0.999333 3:-0.951827 4:0.0173745 5:0.979525 
1 1:-0.962205 2:-0.999608 3:-0.952035 4:-0.349421 5:0.81734 
1 1:-0.998425 2:-0.999961 3:-0.994609 4:-0.326255 5:0.840719 
1 1:-0.982677 2:-0.999882 3:-0.942982 4:-0.38417 5:0.812414 
1 1:-0.984252 2:-0.999843 3:-0.958899 4:-0.0830116 5:0.911739 
1 1:-0.987402 2:-0.999882 3:-0.940992 4:-0.0482625 5:0.967762 
1 1:-0.977953 2:-0.999843 3:-0.931514 4:-0.262548 5:0.883287 
1 1:-0.987402 2:-0.999097 3:-0.958335 4:-0.322394 5:0.707427 
1 1:-0.979528 2:-0.999961 3:-0.950604 4:0.333977 5:0.949933 
1 1:-0.987402 2:-0.999961 3:-0.961187 4:0.600386 5:0.836528 
1 1:-0.976378 2:-0.999922 3:-0.934006 4:-0.0868726 5:0.936221 
1 1:-0.977953 2:-0.999961 3:-0.918954 4:-0.492278 5:0.609683 
1 1:-0.995276 2:-0.999961 3:-0.990178 4:-0.266409 5:0.882625 
1 1:-0.998425 2:-0.999961 3:-0.99455 4:0.0772201 5:0.989523 
1 1:-0.985827 2:-0.999137 3:-0.95327 4:-0.324324 5:0.831014 
1 1:-0.998425 2:-0.999804 3:-0.988706 4:0.187259 5:0.0544231 
1 1:-0.973228 2:-0.999294 3:-0.989489 4:-0.507722 5:0.705369 
1 1:-0.987402 2:-0.999882 3:-0.955661 4:0.320463 5:0.97243 
1 1:-0.984252 2:-0.999294 3:-0.935137 4:-0.0135135 5:0.977246 
1 1:-0.993701 2:-0.999765 3:-0.980919 4:-0.46139 5:0.752605 
1 1:-0.995276 2:-0.999961 3:-0.989206 4:0.314672 5:0.937545 
1 1:-0.99685 2:-0.999961 3:-0.993049 4:0.142857 5:0.970555 
1 1:-0.99685 2:-0.999961 3:-0.99485 4:-0.212355 5:0.907622 
1 1:-0.982677 2:-0.999922 3:-0.923482 4:-0.486486 5:0.59825 
1 1:-0.993701 2:-0.999961 3:-0.966476 4:-0.0444015 5:0.942397 
1 1:-0.998425 2:-0.999529 3:-0.961892 4:-0.125483 5:0.906336 
1 1:-0.979528 2:-0.999372 3:-0.935084 4:-0.117761 5:0.938795 
1 1:-0.992126 2:-0.999961 3:-0.990167 4:-0.0482625 5:0.930671 
1 1:-0.984252 2:-0.999019 3:-0.976559 4:-0.341699 5:0.82947 
1 1:-0.984252 2:-0.999451 3:-0.971358 4:-0.27027 5:0.88722 
1 1:-0.979528 2:-0.999843 3:-0.973159 4:-0.272201 5:0.872149 
1 1:-0.968504 2:-0.999961 3:-0.97133 4:-0.110039 5:0.95813 
1 1:-0.995276 2:-0.999137 3:-0.924085 4:-0.169884 5:0.934714 
1 1:-0.992126 2:-0.999097 3:-0.950365 4:-0.160232 5:0.909607 
1 1:-0.998425 2:-0.999961 3:-0.995266 4:0.212355 5:0.979745 
1 1:-0.993701 2:-0.999058 3:-0.979645 4:0.256757 5:0.975959 
1 1:-0.985827 2:-0.999961 3:-0.970478 4:0.310811 5:0.972687 
1 1:-0.985827 2:-0.999961 3:-0.970478 4:0.364865 5:0.94861 
1 1:-0.979528 2:-0.999922 3:-0.954856 4:0.532819 5:0.777492 
1 1:-0.99685 2:-0.999843 3:-0.977796 4:-0.343629 5:0.792159 
1 1:-0.998425 2:-0.999922 3:-0.987699 4:0.034749 5:0.0758542 
1 1:-0.985827 2:-0.999961 3:-0.935458 4:-0.430502 5:0.77683 
1 1:-0.998425 2:-0.999608 3:-0.994614 4:-0.436293 5:0.773632 
1 1:-0.998425 2:-0.999765 3:-0.966902 4:-0.413127 5:0.65861 
1 1:-0.987402 2:-0.999922 3:-0.951301 4:-0.586873 5:0.580275 
1 1:-0.982677 2:-0.999804 3:-0.970672 4:-0.333977 5:0.848659 
1 1:-0.979528 2:-0.999529 3:-0.934323 4:0.138996 5:0.971143 
1 1:-0.998425 2:-0.999961 3:-0.993025 4:-0.34749 5:0.778301 
1 1:-0.973228 2:-0.999843 3:-0.924629 4:-0.403475 5:0.784881 
1 1:-0.992126 2:-0.99898 3:-0.940136 4:-0.453668 5:0.758671 
1 1:-0.985827 2:-0.999922 3:-0.939658 4:-0.544402 5:0.671991 
1 1:-0.993701 2:-0.999882 3:-0.981262 4:-0.735521 5:0.408863 
1 1:-0.981102 2:-0.999922 3:-0.945305 4:-0.167954 5:0.930854 
1 1:-0.973228 2:-0.999804 3:-0.975443 4:-0.438224 5:0.666624 
1 1:-0.982677 2:-0.998116 3:-0.991231 4:0.158301 5:0.958388 
1 1:-0.981102 2:-0.999882 3:-0.91348 4:-0.0328185 5:0.980003 
1 1:-0.985827 2:-0.999294 3:-0.967896 4:-0.0482625 5:0.971107 
1 1:-0.987402 2:-0.999411 3:-0.98063 4:-0.0501931 5:0.97118 
1 1:-0.976378 2:-0.99898 3:-0.923779 4:-0.0617761 5:0.964784 
1 1:-0.982677 2:-0.99898 3:-0.926328 4:-0.235521 5:0.886007 
1 1:-0.985827 2:-0.999961 3:-0.965521 4:0.03861 5:0.978385 
1 1:-0.998425 2:-0.999568 3:-0.984528 4:-0.200772 5:0.87928 
1 1:-0.99685 2:-0.999922 3:-0.930824 4:0.0714286 5:0.827081 
1 1:-0.993701 2:-0.999961 3:-0.964888 4:0.503861 5:0.891889 
1 1:-0.993701 2:-0.999961 3:-0.964888 4:0.472973 5:0.908982 
1 1:-0.973228 2:-0.999961 3:-0.982237 4:0.111969 5:0.990112 
1 1:-0.99685 2:-0.999568 3:-0.991511 4:0.027027 5:0.300972 
1 1:-0.998425 2:-0.999961 3:-0.991895 4:0.110039 5:0.990957 
1 1:-0.995276 2:-0.999882 3:-0.962264 4:0.465251 5:0.91185 
1 1:-0.988976 2:-0.999843 3:-0.988258 4:0.544402 5:0.623651 
1 1:-0.998425 2:-0.999961 3:-0.940711 4:0.415058 5:0.699524 
1 1:-0.998425 2:-0.999608 3:-0.936084 4:0.26834 5:0.970371 
1 1:-0.995276 2:-0.999961 3:-0.986857 4:0.471042 5:0.90016 
1 1:-0.998425 2:-0.999568 3:-0.98485 4:0.175676 5:0.967688 
1 1:-0.985827 2:-0.998862 3:-0.929773 4:0.015444 5:0.989229 
1 1:-0.985827 2:-0.999608 3:-0.924627 4:-0.127413 5:0.946183 
1 1:-0.968504 2:-0.999529 3:-0.917912 4:-0.0868726 5:0.96324 
1 1:-0.973228 2:-0.999765 3:-0.956228 4:-0.494208 5:0.676696 
1 1:-0.998425 2:-0.999765 3:-0.949307 4:0.312741 5:-0.184149 
1 1:-0.998425 2:-0.99949 3:-0.987337 4:0.426641 5:0.931553 
1 1:-0.993701 2:-0.999961 3:-0.98818 4:-0.264479 5:0.892073 
1 1:-0.993701 2:-0.999882 3:-0.995091 4:0.297297 5:0.960262 
1 1:-0.998425 2:-0.999961 3:-0.923643 4:0.131274 5:0.974599 
1 1:-0.979528 2:-0.999804 3:-0.979709 4:-0.349421 5:-0.187715 
1 1:-0.981102 2:-0.999411 3:-0.93703 4:-0.121622 5:0.153969 
1 1:-0.974803 2:-0.999961 3:-0.93312 4:-0.376448 5:0.818222 
1 1:-0.993701 2:-0.999961 3:-0.987895 4:-0.173745 5:0.883728 
1 1:-0.99685 2:-0.998587 3:-0.966956 4:0.106178 5:0.999338 
1 1:-0.99685 2:-0.999922 3:-0.99431 4:-0.34749 5:0.830831 
1 1:-0.993701 2:-0.999961 3:-0.95756 4:0.158301 5:0.92376 
1 1:-0.982677 2:-0.999568 3:-0.969734 4:-0.140927 5:0.92126 
1 1:-0.993701 2:-0.999372 3:-0.947601 4:-0.146718 5:0.908541 
1 1:-0.998425 2:-0.999961 3:-0.987599 4:0.0579151 5:0.928024 
1 1:-0.995276 2:-0.999961 3:-0.990622 4:-0.46139 5:0.741136 
1 1:-0.993701 2:-0.999922 3:-0.975125 4:-0.281853 5:0.882074 
1 1:-0.984252 2:-0.999961 3:-0.975125 4:-0.173745 5:0.932876 
1 1:-0.993701 2:-0.999961 3:-0.928196 4:-0.222008 5:0.82403 
1 1:-0.992126 2:-0.999843 3:-0.976771 4:-0.413127 5:0.782454 
1 1:-0.966929 2:-0.999294 3:-0.927805 4:-0.260618 5:0.888654 
1 1:-0.977953 2:-0.999686 3:-0.947839 4:-0.216216 5:0.908137 
1 1:-0.979528 2:-0.999882 3:-0.972174 4:0.194981 5:0.995111 
1 1:-0.981102 2:-0.999843 3:-0.946547 4:-0.216216 5:0.905637 
1 1:-0.992126 2:-0.999843 3:-0.916726 4:0.214286 5:0.964747 
1 1:-0.992126 2:-0.999843 3:-0.916726 4:0.204633 5:0.965666 
1 1:-0.992126 2:-0.999843 3:-0.912725 4:0.133205 5:0.987538 
1 1:-0.970079 2:-0.999294 3:-0.915081 4:0.42278 5:0.898359 
1 1:-0.998425 2:-0.999961 3:-0.994521 4:0.555985 5:0.847593 
1 1:-0.99685 2:-0.999922 3:-0.91426 4:0.469112 5:0.643355 
1 1:-0.998425 2:-0.999608 3:-0.923689 4:0.521236 5:0.784991 
1 1:-0.998425 2:-0.999882 3:-0.911409 4:0.474903 5:0.622916 
1 1:-0.981102 2:-0.999137 3:-0.968558 4:-0.119691 5:0.929641 
1 1:-0.974803 2:-0.999843 3:-0.927337 4:-0.297297 5:0.845792 
1 1:-0.998425 2:-0.999411 3:-0.926583 4:-0.409266 5:0.583804 
1 1:-0.988976 2:-0.999019 3:-0.959699 4:-0.411197 5:0.665521 
1 1:-0.981102 2:-0.999568 3:-0.91147 4:-0.449807 5:0.745327 
1 1:-0.984252 2:-0.999961 3:-0.965995 4:0.30888 5:0.971327 
1 1:-0.935433 2:-0.996311 3:-0.980167 4:-0.326255 5:0.84899 
1 1:-0.990551 2:-0.998901 3:-0.945629 4:-0.333977 5:0.843697 
1 1:-0.990551 2:-0.998901 3:-0.945629 4:-0.333977 5:0.843697 
1 1:-0.995276 2:-0.999882 3:-0.953282 4:-0.388031 5:0.804106 
1 1:-0.987402 2:-0.986028 3:-0.943805 4:-0.388031 5:0.807782 
1 1:-0.998425 2:-0.993603 3:-0.977492 4:-0.301158 5:0.867738 
1 1:-0.976378 2:-0.999137 3:-0.959622 4:-0.104247 5:0.959049 
1 1:-0.990551 2:-0.999451 3:-0.943181 4:-0.333977 5:0.839359 
1 1:-0.988976 2:-0.999843 3:-0.95881 4:-0.453668 5:0.750804 
1 1:-0.974803 2:-0.999922 3:-0.969386 4:-0.801158 5:0.316669 
1 1:-0.987402 2:-0.999922 3:-0.976039 4:-0.339768 5:0.828846 
1 1:-0.979528 2:-0.99894 3:-0.927114 4:-0.459459 5:0.737019 
1 1:-0.998425 2:-0.999961 3:-0.993143 4:-0.042471 5:0.972651 
1 1:-0.99685 2:-0.999451 3:-0.93186 4:-0.0868726 5:0.960042 
1 1:-0.99685 2:-0.999961 3:-0.930516 4:0.034749 5:0.799143 
1 1:-0.998425 2:-0.999568 3:-0.910633 4:-0.527027 5:0.691621 
1 1:-0.985827 2:-0.999882 3:-0.967473 4:-0.405405 5:0.797783 
1 1:-0.977953 2:-0.999333 3:-0.919015 4:-0.349421 5:0.823148 
1 1:-0.998425 2:-0.999961 3:-0.992266 4:-0.638996 5:0.573731 
1 1:-0.976378 2:-0.999843 3:-0.970475 4:-0.372587 5:0.820097 
1 1:-0.977953 2:-0.999294 3:-0.9475 4:-0.469112 5:0.740401 
1 1:-0.988976 2:-0.999176 3:-0.976117 4:-0.484556 5:0.716691 
1 1:-0.984252 2:-0.999765 3:-0.975161 4:-0.501931 5:0.689231 
1 1:-0.981102 2:-0.999922 3:-0.943316 4:-0.46139 5:0.690481 
1 1:-0.973228 2:-0.999843 3:-0.931589 4:-0.42471 5:0.77944 
1 1:-0.992126 2:-0.999097 3:-0.938487 4:-0.206564 5:0.91582 
1 1:-0.971654 2:-0.999804 3:-0.940265 4:-0.19112 5:0.80837 
1 1:-0.99685 2:-0.999961 3:-0.941248 4:0.181467 5:0.975738 
1 1:-0.979528 2:-0.999058 3:-0.921904 4:-0.646718 5:0.486757 
1 1:-0.998425 2:-0.999765 3:-0.983885 4:0.534749 5:0.78455 
1 1:-0.987402 2:-0.999961 3:-0.913756 4:0.567568 5:0.761281 
1 1:-0.993701 2:-0.999961 3:-0.913756 4:0.569498 5:0.76106 
1 1:-0.993701 2:-0.999961 3:-0.913756 4:0.563707 5:0.765729 
1 1:-0.993701 2:-0.999961 3:-0.913756 4:0.550193 5:0.801202 
1 1:-0.990551 2:-0.999254 3:-0.939285 4:0.110039 5:0.938464 
1 1:-0.99685 2:-0.999922 3:-0.979453 4:-0.150579 5:0.880493 
1 1:-0.998425 2:-0.999922 3:-0.979453 4:-0.175676 5:0.907328 
1 1:-0.993701 2:-0.999843 3:-0.942549 4:-0.11583 5:0.850644 
1 1:-0.99685 2:-0.999882 3:-0.964569 4:-0.111969 5:0.867848 
1 1:-0.985827 2:-0.999137 3:-0.964569 4:-0.111969 5:0.867848 
1 1:-0.998425 2:-0.999843 3:-0.969557 4:-0.111969 5:0.866782 
1 1:-0.998425 2:-0.999843 3:-0.976583 4:-0.0791506 5:0.844505 
1 1:-0.998425 2:-0.999882 3:-0.964569 4:-0.137066 5:0.903909 
1 1:-0.966929 2:-0.999451 3:-0.946799 4:0.0868726 5:0.985039 
1 1:-0.99685 2:-0.999843 3:-0.99474 4:0.486486 5:0.822302 
1 1:-0.988976 2:-0.999254 3:-0.988391 4:0.169884 5:0.615858 
1 1:-0.990551 2:-0.999961 3:-0.987428 4:0.723938 5:0.685518 
1 1:-0.990551 2:-0.999961 3:-0.987428 4:0.716216 5:0.694047 
1 1:-0.995276 2:-0.999922 3:-0.974676 4:0.785714 5:0.602404 
1 1:-0.998425 2:-0.999922 3:-0.903986 4:0.316602 5:0.949051 
1 1:-0.99685 2:-0.999922 3:-0.993928 4:0.264479 5:0.949602 
1 1:-0.998425 2:-0.999333 3:-0.978827 4:0.434363 5:0.907328 
1 1:-0.974803 2:-0.999961 3:-0.98219 4:0.700772 5:0.753304 
1 1:-0.981102 2:-0.999882 3:-0.988697 4:0.0482625 5:0.92251 
1 1:-0.992126 2:-0.999961 3:-0.995323 4:0.0830116 5:0.977944 
1 1:-0.987402 2:-0.999137 3:-0.916457 4:0.351351 5:0.928392 
1 1:-0.993701 2:-0.999333 3:-0.995276 4:0.34749 5:0.914276 
1 1:-0.99685 2:-0.999333 3:-0.923318 4:0.355212 5:0.953499 
1 1:-0.998425 2:-0.999333 3:-0.993156 4:0.364865 5:0.951844 
1 1:-0.99685 2:-0.999725 3:-0.964168 4:-0.0810811 5:0.965813 
1 1:-0.96063 2:-0.999765 3:-0.953705 4:-0.409266 5:0.747716 
1 1:-0.998425 2:-0.999961 3:-0.982266 4:-0.0444015 5:0.79385 
1 1:-0.985827 2:-0.999686 3:-0.975289 4:-0.478764 5:0.652802 
1 1:-0.987402 2:-0.999961 3:-0.97496 4:-0.262548 5:0.883802 
1 1:-0.988976 2:-0.999922 3:-0.935084 4:-0.00965251 5:0.973423 
1 1:-0.987402 2:-0.999019 3:-0.987653 4:-0.175676 5:0.932545 
1 1:-0.979528 2:-0.999215 3:-0.919279 4:-0.478764 5:0.727351 
1 1:-0.973228 2:-0.999882 3:-0.925993 4:-0.38417 5:0.779367 
1 1:-0.987402 2:-0.998823 3:-0.964003 4:0.030888 5:-0.20308 
1 1:-0.998425 2:-0.999961 3:-0.993928 5:0.926296 
1 1:-0.998425 2:-0.999882 3:-0.933666 4:-0.328185 5:0.832632 
1 1:-0.981102 2:-0.999294 3:-0.964805 4:-0.455598 5:0.657324 
1 1:-0.985827 2:-0.999608 3:-0.980921 4:0.320463 5:0.825537 
1 1:-0.982677 2:-0.999922 3:-0.986331 4:-0.0482625 5:0.967798 
1 1:-0.992126 2:-0.999058 3:-0.957425 4:0.0714286 5:0.975665 
1 1:-0.99685 2:-0.999451 3:-0.967439 4:-0.183398 5:0.926443 
1 1:-0.977953 2:-0.999961 3:-0.915565 4:-0.233591 5:0.895969 
1 1:-0.998425 2:-0.999254 3:-0.963176 4:-0.0810811 5:0.967909 
1 1:-0.976378 2:-0.99894 3:-0.980692 4:-0.434363 5:0.754443 
1 1:-0.995276 2:-0.999961 3:-0.993892 4:0.3861 5:0.950925 
1 1:-0.995276 2:-0.999961 3:-0.942864 4:-0.444015 5:0.688753 
1 1:-0.984252 2:-0.99894 3:-0.930618 4:0.0675676 5:0.997647 
1 1:-0.998425 2:-0.999922 3:-0.94804 4:-0.003861 5:0.862665 
1 1:-0.987402 2:-0.999961 3:-0.956907 4:0.0791506 5:0.767567 
1 1:-0.99685 2:-0.99898 3:-0.921311 4:0.162162 5:0.992758 
1 1:-0.988976 2:-0.999254 3:-0.960815 4:-0.0907336 5:0.930119 
1 1:-0.976378 2:-0.999804 3:-0.918697 4:-0.0559846 5:0.947801 
1 1:-0.998425 2:-0.999215 3:-0.934407 4:0.372587 5:0.955815 
1 1:-0.990551 2:-0.999961 3:-0.993518 4:0.301158 5:0.812009 
1 1:-0.993701 2:-0.999961 3:-0.993518 4:0.283784 5:0.85149 
1 1:-0.982677 2:-0.999882 3:-0.916354 4:-0.0772201 5:0.892771 
1 1:-0.988976 2:-0.999961 3:-0.953857 4:-0.150579 5:0.945595 
1 1:-0.993701 2:-0.999882 3:-0.945187 4:-0.023166 5:0.966107 
1 1:-0.998425 2:-0.999961 3:-0.951303 4:0.920849 5:0.50999 
1 1:-0.99685 2:-0.999961 3:-0.986561 4:0.42471 5:0.870164 
1 1:-0.998425 2:-0.999843 3:-0.974174 4:-0.0752896 5:0.935486 
1 1:-0.995276 2:-0.999686 3:-0.982634 4:-0.0694981 5:0.92398 
1 1:-0.993701 2:-0.998901 3:-0.986823 4:-0.0173745 5:0.925377 
1 1:-0.993701 2:-0.999961 3:-0.973046 4:-0.00965251 5:0.906483 
1 1:-0.998425 2:-0.999961 3:-0.987978 4:0.569498 5:0.787049 
1 1:-0.998425 2:-0.999961 3:-0.986379 4:0.590734 5:0.773154 
1 1:-0.99685 2:-0.999961 3:-0.939829 4:0.223938 5:0.9789 
1 1:-0.984252 2:-0.999843 3:-0.986957 4:0.581081 5:0.613542 
1 1:-0.993701 2:-0.999843 3:-0.935708 4:0.627413 5:0.555241 
1 1:-0.985827 2:-0.999765 3:-0.913862 4:0.583012 5:0.598691 
1 1:-0.993701 2:-0.999961 3:-0.96377 4:0.586873 5:0.601485 
1 1:-0.988976 2:-0.999922 3:-0.957783 4:0.590734 5:0.583583 
1 1:-0.993701 2:-0.999882 3:-0.944232 4:0.640927 5:0.582407 
1 1:-0.992126 2:-0.999961 3:-0.89962 4:0.61583 5:0.586818 
1 1:-0.992126 2:-0.999529 3:-0.943147 4:0.6139 5:0.551859 
1 1:-0.992126 2:-0.999529 3:-0.942591 4:0.61583 5:0.54844 
1 1:-0.998425 2:-0.999922 3:-0.976231 4:0.619691 5:0.587038 
1 1:-0.998425 2:-0.999961 3:-0.964423 4:0.581081 5:0.596817 
1 1:-0.993701 2:-0.999961 3:-0.96999 4:0.606178 5:0.600456 
1 1:-0.988976 2:-0.999961 3:-0.966796 4:0.596525 5:0.561343 
1 1:-0.998425 2:-0.999961 3:-0.992716 4:-0.03861 5:0.8963 
1 1:-0.99685 2:-0.999372 3:-0.982713 4:0.179537 5:0.997464 
1 1:-0.979528 2:-0.999961 3:-0.982158 4:-0.194981 5:0.925193 
1 1:-0.987402 2:-0.999922 3:-0.994064 4:0.173745 5:0.690628 
1 1:-0.985827 2:-0.999961 3:-0.984251 4:0.0212355 5:0.991288 
1 1:-0.977953 2:-0.999961 3:-0.927389 4:0.222008 5:0.982098 
1 1:-0.985827 2:-0.999961 3:-0.995173 4:0.256757 5:0.915967 
1 1:-0.99685 2:-0.999961 3:-0.993375 4:0.0559846 5:0.92659 
1 1:-0.95748 2:-0.999686 3:-0.99352 4:0.426641 5:0.889573 
1 1:-0.993701 2:-0.999961 3:-0.99193 4:0.0135135 5:0.986105 
1 1:-0.993701 2:-0.999961 3:-0.976824 4:-0.121622 5:0.954528 
1 1:-0.992126 2:-0.999882 3:-0.990687 4:-0.140927 5:0.940008 
1 1:-0.998425 2:-0.999961 3:-0.99279 4:-0.15444 5:0.897219 
1 1:-0.984252 2:-0.999961 3:-0.98718 4:-0.137066 5:0.943279 
1 1:-0.998425 2:-0.999882 3:-0.988756 4:0.206564 5:0.981694 
1 1:-0.981102 2:-0.999922 3:-0.968311 4:-0.245174 5:0.861672 
1 1:-0.998425 2:-0.999608 3:-0.989208 4:0.181467 5:0.936442 
1 1:-0.998425 2:-0.999961 3:-0.994201 4:-0.173745 5:0.905637 
1 1:-0.998425 2:-0.999882 3:-0.994955 4:-0.129344 5:0.952359 
1 1:-0.998425 2:-0.999922 3:-0.993675 4:-0.011583 5:0.977209 
1 1:-0.998425 2:-0.999961 3:-0.992844 4:-0.03861 5:0.950742 
1 1:-0.992126 2:-0.999411 3:-0.93245 4:-0.027027 5:0.966401 
1 1:-0.99685 2:-0.999843 3:-0.991817 4:0.314672 5:0.973386 
1 1:-0.985827 2:-0.999843 3:-0.961989 4:0.326255 5:0.969195 
1 1:-0.99685 2:-0.999882 3:-0.99105 4:-0.42471 5:0.776573 
1 1:-0.971654 2:-0.999725 3:-0.942782 4:-0.206564 5:0.904387 
1 1:-0.982677 2:-0.999333 3:-0.926682 4:0.250965 5:0.973717 
1 1:-0.977953 2:-0.999372 3:-0.911693 4:0.254826 5:0.968681 
1 1:-0.981102 2:-0.998862 3:-0.949003 4:-0.420849 5:0.767052 
1 1:-0.976378 2:-0.999804 3:-0.936047 4:-0.389961 5:0.800981 
1 1:-0.995276 2:-0.999961 3:-0.99461 4:-0.144788 5:0.946772 
1 1:-0.987402 2:-0.999922 3:-0.969588 4:-0.480695 5:0.712427 
1 1:-0.976378 2:-0.998901 3:-0.92791 4:-0.366795 5:0.823846 
1 1:-0.984252 2:-0.999843 3:-0.966278 4:-0.409266 5:0.784954 
1 1:-0.998425 2:-0.999961 3:-0.99429 4:-0.351351 5:0.83572 
1 1:-0.998425 2:-0.999961 3:-0.991681 4:-0.262548 5:0.836712 
1 1:-0.981102 2:-0.999843 3:-0.959375 4:-0.523166 5:0.671917 
1 1:-0.982677 2:-0.999804 3:-0.948951 4:-0.633205 5:0.568107 
1 1:-0.995276 2:-0.999568 3:-0.986016 4:-0.351351 5:0.822633 
1 1:-0.974803 2:-0.998548 3:-0.986831 4:-0.432432 5:0.766537 
1 1:-0.977953 2:-0.999725 3:-0.968091 4:-0.256757 5:0.893249 
1 1:-0.998425 2:-0.999961 3:-0.995429 4:-0.324324 5:0.846343 
1 1:-0.981102 2:-0.999804 3:-0.980736 4:-0.482625 5:0.701583 
1 1:-0.982677 2:-0.999804 3:-0.947758 4:-0.252896 5:0.891926 
1 1:-0.984252 2:-0.999843 3:-0.931985 4:-0.716216 5:0.468929 
1 1:-0.977953 2:-0.99894 3:-0.959648 4:-0.467181 5:0.74246 
1 1:-0.977953 2:-0.999254 3:-0.934408 4:-0.569498 5:0.620012 
1 1:-0.970079 2:-0.999765 3:-0.916359 4:-0.476834 5:0.737571 
1 1:-0.998425 2:-0.999882 3:-0.994429 4:-0.333977 5:0.848843 
1 1:-0.973228 2:-0.999333 3:-0.915452 4:-0.225869 5:0.910784 
1 1:-0.998425 2:-0.999961 3:-0.995009 4:-0.34749 5:0.819803 
1 1:-0.99685 2:-0.999215 3:-0.961544 4:-0.34556 5:0.839432 
1 1:-0.949606 2:-0.999608 3:-0.957647 4:-0.472973 5:0.720036 
1 1:-0.968504 2:-0.999097 3:-0.91665 4:-0.440154 5:0.737093 
1 1:-0.995276 2:-0.999804 3:-0.982465 4:-0.03861 5:0.980297 
1 1:-0.966929 2:-0.999765 3:-0.971304 4:0.100386 5:0.998787 
1 1:-0.998425 2:-0.999961 3:-0.983534 4:-0.339768 5:0.842079 
1 1:-0.987402 2:-0.999019 3:-0.951022 4:-0.102317 5:0.958866 
1 1:-0.987402 2:-0.997724 3:-0.992236 4:0.530888 5:0.880861 
1 1:-0.99685 2:-0.998548 3:-0.977273 4:-0.698842 5:-0.618726 
1 1:-0.995276 2:-0.999961 3:-0.958746 4:-0.027027 5:0.165879 
1 1:-0.99685 2:-0.998312 3:-0.945423 4:-0.00772201 5:0.11346 
1 1:-0.995276 2:-0.999961 3:-0.959535 4:-0.432432 5:0.753598 
1 1:-0.99685 2:-0.999961 3:-0.988507 4:-0.374517 5:0.805834 
1 1:-0.995276 2:-0.999961 3:-0.993254 4:-0.478764 5:0.730696 
1 1:-0.993701 2:-0.999961 3:-0.92394 4:0.204633 5:0.979819 
1 1:-0.998425 2:-0.999804 3:-0.943095 4:-0.382239 5:0.770287 
1 1:-0.992126 2:-0.999097 3:-0.929547 4:-0.177606 5:0.878508 
1 1:-0.981102 2:-0.998862 3:-0.940384 4:-0.366795 5:0.803297 
1 1:-0.959055 2:-0.99949 3:-0.925664 4:-0.357143 5:0.829728 
1 1:-0.988976 2:-0.998823 3:-0.97074 4:-0.359073 5:0.829066 
1 1:-0.987402 2:-0.999843 3:-0.935375 4:-0.561776 5:0.476906 
1 1:-0.998425 2:-0.998744 3:-0.939726 4:-0.397683 5:0.777529 
1 1:-0.981102 2:-0.999765 3:-0.925469 4:-0.173745 5:0.933391 
1 1:-0.974803 2:-0.999097 3:-0.931786 4:-0.245174 5:0.901152 
1 1:-0.970079 2:-0.999647 3:-0.937071 4:-0.355212 5:0.818185 
1 1:-0.977953 2:-0.999215 3:-0.99268 4:-0.498069 5:0.708787 
1 1:-0.971654 2:-0.999647 3:-0.969436 4:-0.745174 5:0.434595 
1 1:-0.995276 2:-0.999922 3:-0.994345 4:-0.534749 5:0.680225 
1 1:-0.998425 2:-0.99949 3:-0.981803 4:-0.498069 5:0.715515 
1 1:-0.955906 2:-0.998352 3:-0.988366 4:-0.0849421 5:0.921407 
1 1:-0.987402 2:-0.999843 3:-0.917854 4:-0.451737 5:0.755436 
1 1:-0.998425 2:-0.999961 3:-0.985454 4:-0.579151 5:0.629129 
1 1:-0.992126 2:-0.999254 3:-0.936149 4:-0.368726 5:0.798004 
1 1:-0.974803 2:-0.999176 3:-0.925417 4:-0.34749 5:0.808775 
1 1:-0.987402 2:-0.999922 3:-0.976378 4:-0.303089 5:0.860202 
1 1:-0.984252 2:-0.999137 3:-0.959035 4:-0.34749 5:0.819031 
1 1:-0.993701 2:-0.999097 3:-0.963186 4:-0.513514 5:0.703788 
1 1:-0.990551 2:-0.999961 3:-0.96053 4:-0.418919 5:0.766721 
1 1:-0.982677 2:-0.999843 3:-0.95616 4:-0.274131 5:0.878949 
1 1:-0.974803 2:-0.999765 3:-0.960337 4:-0.42278 5:0.732939 
1 1:-0.982677 2:-0.99949 3:-0.941275 4:-0.380309 5:0.802709 
1 1:-0.971654 2:-0.999882 3:-0.916213 4:-0.274131 5:0.839065 
1 1:-0.985827 2:-0.999961 3:-0.966625 4:-0.140927 5:0.93839 
1 1:-0.976378 2:-0.999372 3:-0.937323 4:-0.34556 5:0.826861 
1 1:-0.954331 2:-0.99898 3:-0.992381 4:-0.281853 5:0.816237 
1 1:-0.99685 2:-0.999922 3:-0.964492 4:0.0714286 5:0.47356 
1 1:-0.982677 2:-0.999961 3:-0.92203 4:-0.177606 5:0.9174 
1 1:-0.979528 2:-0.999804 3:-0.951619 4:-0.449807 5:0.750657 
1 1:-0.984252 2:-0.999922 3:-0.938129 4:-0.532819 5:0.679563 
1 1:-0.985827 2:-0.999961 3:-0.943032 4:-0.183398 5:0.92898 
1 1:-0.988976 2:-0.99898 3:-0.932687 4:-0.131274 5:0.942434 
1 1:-0.979528 2:-0.999451 3:-0.96858 4:0.011583 5:0.990148 
1 1:-0.998425 2:-0.99949 3:-0.968733 4:0.0907336 5:0.999228 
1 1:-0.971654 2:-0.999765 3:-0.960006 4:-0.198842 5:0.899719 
1 1:-0.985827 2:-0.999765 3:-0.987057 4:-0.297297 5:0.856342 
1 1:-0.982677 2:-0.999922 3:-0.962969 4:-0.299228 5:0.864062 
1 1:-0.973228 2:-0.999882 3:-0.932577 4:-0.511583 5:0.616814 
1 1:-0.987402 2:-0.999961 3:-0.950783 4:-0.588803 5:0.620931 
1 1:-0.992126 2:-0.999725 3:-0.966332 4:-0.0173745 5:0.955815 
1 1:-0.99685 2:-0.99898 3:-0.927826 4:-0.57722 5:0.613212 
1 1:-0.973228 2:-0.999333 3:-0.945003 4:0.121622 5:0.975702 
1 1:-0.998425 2:-0.999961 3:-0.995307 4:-0.00965251 5:0.982833 
1 1:-0.998425 2:-0.999176 3:-0.977385 4:-0.393822 5:0.805724 
1 1:-0.982677 2:-0.999451 3:-0.935501 4:-0.262548 5:0.883581 
1 1:-0.990551 2:-0.999882 3:-0.979153 4:0.862934 5:0.586634 
1 1:-0.987402 2:-0.999058 3:-0.950613 4:0.376448 5:0.941368 
1 1:-0.998425 2:-0.996193 3:-0.945558 4:-0.393822 5:0.78183 
1 1:-0.995276 2:-0.999961 3:-0.971235 4:-0.100386 5:0.0039517 
1 1:-0.974803 2:-0.99898 3:-0.952832 4:-0.144788 5:0.110445 
1 1:-0.998425 2:-0.999882 3:-0.976616 4:-0.135135 5:0.128237 
1 1:-0.998425 2:-0.999961 3:-0.93943 4:-0.166023 5:0.0907788 
1 1:-0.998425 2:-0.999843 3:-0.985976 4:-0.484556 5:0.716801 
1 1:-0.990551 2:-0.999686 3:-0.936136 4:-0.513514 5:0.691326 
1 1:-0.977953 2:-0.99949 3:-0.914416 4:-0.266409 5:0.798776 
1 1:-0.987402 2:-0.999725 3:-0.95474 4:-0.700772 5:0.416693 
1 1:-0.973228 2:-0.999725 3:-0.987248 4:-0.542471 5:0.665227 
1 1:-0.977953 2:-0.999294 3:-0.957934 4:-0.61583 5:0.594942 
1 1:-0.99685 2:-0.998744 3:-0.961006 4:-0.617761 5:0.59156 
1 1:-0.973228 2:-0.999294 3:-0.919073 4:-0.22973 5:0.902145 
1 1:-0.973228 2:-0.999961 3:-0.933703 4:-0.362934 5:0.828 
1 1:-0.894488 2:-0.995526 3:-0.993206 4:-0.295367 5:0.847226 
1 1:-0.99685 2:-0.999215 3:-0.978029 4:0.0173745 5:0.979304 
1 1:-0.981102 2:-0.999765 3:-0.958662 4:-0.339768 5:0.796534 
1 1:-0.981102 2:-0.999019 3:-0.932153 4:0.0675676 5:0.970629 
1 1:-0.984252 2:-0.999137 3:-0.914446 4:-0.027027 5:0.963571 
1 1:-0.982677 2:-0.999922 3:-0.949785 4:-0.474903 5:0.625195 
1 1:-0.998425 2:-0.999804 3:-0.992563 4:0.583012 5:0.763523 
1 1:-0.99685 2:-0.999922 3:-0.990287 4:-0.0868726 5:0.966695 
1 1:-0.993701 2:-0.999882 3:-0.967819 4:0.754826 5:0.680997 
1 1:-0.968504 2:-0.999882 3:-0.941852 4:0.0598456 5:0.814693 
1 1:-0.992126 2:-0.999882 3:-0.941852 4:0.0637066 5:0.808811 
1 1:-0.968504 2:-0.999882 3:-0.941852 4:0.0482625 5:0.82006 
1 1:-0.998425 2:-0.999137 3:-0.930378 4:0.03861 5:0.986362 
1 1:-0.99685 2:-0.999725 3:-0.971433 4:0.289575 5:0.979892 
1 1:-0.984252 2:-0.99949 3:-0.989231 4:0.525097 5:0.884463 
1 1:-0.99685 2:-0.999804 3:-0.927817 4:-0.131274 5:0.850975 
1 1:-0.998425 2:-0.999961 3:-0.994112 4:0.156371 5:0.976032 
1 1:-0.998425 2:-0.999961 3:-0.994608 4:0.789575 5:0.644421 
1 1:-0.984252 2:-0.99949 3:-0.92438 4:0.179537 5:0.997317 
1 1:-0.987402 2:-0.999804 3:-0.966001 4:-0.160232 5:0.941 
1 1:-0.998425 2:-0.999137 3:-0.94991 4:0.0714286 5:0.997868 
1 1:-0.995276 2:-0.999176 3:-0.972654 4:0.457529 5:0.874501 
1 1:-0.977953 2:-0.999804 3:-0.968417 4:-0.0135135 5:0.964012 
1 1:-0.990551 2:-0.999882 3:-0.963063 4:0.177606 5:0.913063 
1 1:-0.99685 2:-0.999961 3:-0.991788 4:0.388031 5:0.929605 
1 1:-0.993701 2:-0.999922 3:-0.988732 4:0.34556 5:0.862775 
1 1:-0.998425 2:-0.999922 3:-0.995079 4:0.453668 5:0.905233 
1 1:-0.993701 2:-0.999961 3:-0.985607 4:0.606178 5:0.823074 
1 1:-0.998425 2:-0.999922 3:-0.967036 4:0.671815 5:0.630562 
1 1:-0.981102 2:-0.999843 3:-0.946899 4:0.177606 5:0.997537 
1 1:-0.99685 2:-0.999922 3:-0.971988 4:0.314672 5:0.905821 
1 1:-0.995276 2:-0.999922 3:-0.967606 4:0.314672 5:0.913541 
1 1:-0.995276 2:-0.999922 3:-0.967606 4:0.314672 5:0.913541 
1 1:-0.977953 2:-0.999961 3:-0.950846 4:0.220077 5:0.973533 
1 1:-0.992126 2:-0.999961 3:-0.972458 4:0.183398 5:0.970041 
1 1:-0.992126 2:-0.999961 3:-0.949321 4:0.104247 5:0.979488 
1 1:-0.998425 2:-0.999961 3:-0.978169 4:0.476834 5:0.475582 
1 1:-0.998425 2:-0.999097 3:-0.954062 4:0.355212 5:0.323727 
1 1:-0.99685 2:-0.999961 3:-0.973282 4:0.368726 5:0.369125 
1 1:-0.998425 2:-0.999686 3:-0.971275 4:0.401544 5:0.302185 
1 1:-0.998425 2:-0.999686 3:-0.971275 4:0.418919 5:0.262227 
1 1:-0.998425 2:-0.999686 3:-0.971275 4:0.407336 5:0.262043 
1 1:-0.992126 2:-0.999411 3:-0.91447 4:0.382239 5:0.308729 
1 1:-0.998425 2:-0.999686 3:-0.971275 4:0.407336 5:0.266491 
1 1:-0.998425 2:-0.999686 3:-0.971275 4:0.407336 5:0.262043 
1 1:-0.998425 2:-0.999961 3:-0.971275 4:0.3861 5:0.303876 
1 1:-0.998425 2:-0.999961 3:-0.971275 4:0.380309 5:0.307148 
1 1:-0.998425 2:-0.999961 3:-0.936091 4:0.328185 5:0.907218 
1 1:-0.998425 2:-0.999961 3:-0.989289 4:0.295367 5:0.919863 
1 1:-0.940157 2:-0.999922 3:-0.99232 4:0.395753 5:0.915415 
1 1:-0.995276 2:-0.999961 3:-0.923589 4:0.129344 5:-0.30395 
1 1:-0.998425 2:-0.999451 3:-0.952353 4:0.03861 5:0.904608 
1 1:-0.992126 2:-0.999882 3:-0.945379 4:0.343629 5:0.914607 
1 1:-0.99685 2:-0.999019 3:-0.960464 4:-0.457529 5:0.658463 
1 1:-0.982677 2:-0.999411 3:-0.957981 4:-0.111969 5:0.953058 
1 1:-0.998425 2:-0.999961 3:-0.990797 4:-0.312741 5:0.834801 
1 1:-0.981102 2:-0.998783 3:-0.991403 4:-0.1139 5:0.918062 
1 1:-0.981102 2:-0.999961 3:-0.956227 4:-0.527027 5:0.660117 
1 1:-0.982677 2:-0.999882 3:-0.958464 4:-0.434363 5:0.706472 
1 1:-0.988976 2:-0.999843 3:-0.989088 4:-0.189189 5:0.924164 
1 1:-0.984252 2:-0.999765 3:-0.964568 4:0.011583 5:0.957064 
1 1:-0.959055 2:-0.999647 3:-0.954347 4:0.167954 5:0.989156 
1 1:-0.977953 2:-0.999176 3:-0.978645 4:-0.277992 5:0.841895 
1 1:-0.984252 2:-0.999294 3:-0.953839 4:-0.272201 5:0.800246 
1 1:-0.987402 2:-0.999961 3:-0.976944 4:-0.245174 5:0.875972 
1 1:-0.995276 2:-0.999922 3:-0.962436 4:0.42278 5:0.742937 
1 1:-0.981102 2:-0.999254 3:-0.918128 4:-0.03861 5:0.974268 
1 1:-0.987402 2:-0.999843 3:-0.944609 4:-0.322394 5:0.844285 
1 1:-0.995276 2:-0.999961 3:-0.98118 4:-0.330116 5:0.805613 
1 1:-0.984252 2:-0.999097 3:-0.958411 4:-0.440154 5:0.762347 
1 1:-0.976378 2:-0.999804 3:-0.925318 4:-0.677606 5:0.525024 
1 1:-0.982677 2:-0.998901 3:-0.918311 4:-0.438224 5:0.745364 
1 1:-0.981102 2:-0.999568 3:-0.95763 4:-0.030888 5:0.969673 
1 1:-0.992126 2:-0.999568 3:-0.931742 4:-0.388031 5:0.543735 
1 1:-0.985827 2:-0.999843 3:-0.969285 4:-0.521236 5:0.647031 
1 1:-0.990551 2:-0.999961 3:-0.913003 4:-0.523166 5:0.683644 
1 1:-0.984252 2:-0.999254 3:-0.959876 4:-0.610039 5:0.586855 
1 1:-0.988976 2:-0.999215 3:-0.931495 4:-0.608108 5:0.584355 
1 1:-0.987402 2:-0.999254 3:-0.947658 4:-0.351351 5:0.782602 
1 1:-0.99685 2:-0.999922 3:-0.991468 4:-0.019305 5:0.978128 
1 1:-0.985827 2:-0.999137 3:-0.937291 4:-0.328185 5:0.759296 
1 1:-0.981102 2:-0.999686 3:-0.951386 4:0.0559846 5:0.987318 
1 1:-0.988976 2:-0.999372 3:-0.938217 4:-0.389961 5:0.807304 
1 1:-0.998425 2:-0.999961 3:-0.984847 4:-0.249035 5:0.894021 
1 1:-0.984252 2:-0.999804 3:-0.974549 4:-0.117761 5:0.914018 
1 1:-0.992126 2:-0.999961 3:-0.951297 4:0.501931 5:0.830647 
1 1:-0.998425 2:-0.999961 3:-0.986951 4:0.772201 5:-0.334314 
1 1:-0.988976 2:-0.999882 3:-0.978372 4:0.187259 5:0.991141 
1 1:-0.998425 2:-0.999843 3:-0.918331 4:-0.432432 5:0.777014 
1 1:-0.99685 2:-0.999882 3:-0.921025 4:0.415058 5:0.672726 
1 1:-0.946457 2:-0.999922 3:-0.97123 4:0.472973 5:0.60983 
1 1:-0.990551 2:-0.999608 3:-0.947311 4:0.38417 5:0.791167 
1 1:-0.990551 2:-0.999843 3:-0.994719 4:0.965251 5:-0.248185 
1 1:-0.965354 2:-0.999961 3:-0.922653 4:0.905405 5:-0.196133 
1 1:-0.990551 2:-0.999961 3:-0.947311 4:0.330116 5:0.785542 
1 1:-0.998425 2:-0.999961 3:-0.971227 4:0.787645 5:0.21069 
1 1:-0.998425 2:-0.999961 3:-0.980863 4:0.600386 5:0.386513 
1 1:-0.99685 2:-0.999804 3:-0.974468 4:0.351351 5:0.590714 
1 1:-0.988976 2:-0.999372 3:-0.920424 4:0.469112 5:0.410296 
1 1:-0.971654 2:-0.999765 3:-0.945656 4:0.108108 5:0.983752 
1 1:-0.982677 2:-0.999411 3:-0.935344 4:-0.0135135 5:0.974856 
1 1:-0.976378 2:-0.999843 3:-0.958226 4:-0.515444 5:0.696546 
1 1:-0.99685 2:-0.999333 3:-0.968686 4:-0.0019305 5:0.977503 
1 1:-0.998425 2:-0.999961 3:-0.992991 4:0.15444 5:0.994707 
1 1:-0.987402 2:-0.999922 3:-0.926575 4:-0.119691 5:0.899682 
1 1:-0.992126 2:-0.999961 3:-0.982323 4:0.393822 5:0.905637 
1 1:-0.973228 2:-0.999097 3:-0.916693 4:-0.388031 5:0.810135 
1 1:-0.998425 2:-0.99898 3:-0.950769 4:-0.252896 5:0.896006 
1 1:-0.990551 2:-0.999961 3:-0.952404 4:-0.164093 5:0.864356 
1 1:-0.981102 2:-0.999097 3:-0.934013 4:-0.382239 5:0.801092 
1 1:-0.990551 2:-0.999804 3:-0.964335 4:-0.167954 5:0.863731 
1 1:-0.995276 2:-0.999961 3:-0.991217 4:-0.362934 5:0.827155 
1 1:-0.993701 2:-0.998901 3:-0.964053 4:-0.125483 5:0.926112 
1 1:-0.998425 2:-0.998823 3:-0.92216 4:0.0984556 5:0.96324 
1 1:-0.99685 2:-0.999019 3:-0.941433 4:-0.227799 5:0.90027 
1 1:-0.992126 2:-0.999176 3:-0.974329 4:-0.376448 5:0.82017 
1 1:-0.974803 2:-0.999137 3:-0.994956 4:-0.305019 5:0.864907 
1 1:-0.984252 2:-0.999765 3:-0.946131 4:-0.619691 5:0.332145 
1 1:-0.995276 2:-0.999961 3:-0.992689 4:-0.465251 5:0.747937 
1 1:-0.995276 2:-0.999961 3:-0.994397 4:-0.324324 5:0.853401 
1 1:-0.987402 2:-0.999725 3:-0.987294 4:-0.498069 5:0.668535 
1 1:-0.985827 2:-0.999765 3:-0.974159 4:-0.198842 5:0.924421 
1 1:-0.998425 2:-0.999961 3:-0.992668 4:-0.328185 5:0.852409 
1 1:-0.976378 2:-0.99898 3:-0.944188 4:-0.389961 5:0.806606 
1 1:-0.976378 2:-0.999725 3:-0.955357 4:-0.393822 5:0.748746 
1 1:-0.995276 2:-0.999961 3:-0.986138 4:0.0173745 5:0.821236 
1 1:-0.974803 2:-0.998744 3:-0.933158 4:-0.38417 5:0.803665 
1 1:-0.987402 2:-0.99949 3:-0.920142 4:-0.22973 5:0.90277 
1 1:-0.99685 2:-0.999961 3:-0.969254 4:0.173745 5:0.987134 
1 1:-0.984252 2:-0.999843 3:-0.963778 4:-0.106178 5:0.887 
1 1:-0.974803 2:-0.999765 3:-0.969906 4:-0.204633 5:0.879832 
1 1:-0.985827 2:-0.999019 3:-0.914255 4:-0.444015 5:0.765214 
1 1:-0.987402 2:-0.999176 3:-0.951828 4:-0.561776 5:0.647435 
1 1:-0.976378 2:-0.998862 3:-0.947939 4:-0.494208 5:0.707685 
1 1:-0.998425 2:-0.999961 3:-0.994222 4:-0.210425 5:0.898984 
1 1:-0.973228 2:-0.999882 3:-0.939325 4:-0.183398 5:0.873215 
1 1:-0.974803 2:-0.999961 3:-0.920891 4:0.0212355 5:0.974121 
1 1:-0.987402 2:-0.999882 3:-0.985315 4:-0.324324 5:0.75573 
1 1:-0.993701 2:-0.999411 3:-0.947275 4:-0.19112 5:0.902292 
1 1:-0.985827 2:-0.999922 3:-0.916083 4:-0.272201 5:0.874759 
1 1:-0.990551 2:-0.998744 3:-0.948825 4:-0.293436 5:0.825206 
1 1:-0.981102 2:-0.999686 3:-0.946968 4:-0.0984556 5:0.957983 
1 1:-0.981102 2:-0.999961 3:-0.966143 4:-0.140927 5:0.945044 
1 1:-0.979528 2:-0.999725 3:-0.929792 4:-0.415058 5:0.749628 
1 1:-0.992126 2:-0.999058 3:-0.933752 4:-0.349421 5:0.706067 
1 1:-0.995276 2:-0.999333 3:-0.917012 4:0.362934 5:0.617843 
1 1:-0.99685 2:-0.999922 3:-0.975591 4:0.42471 5:0.2766 
1 1:-0.984252 2:-0.999804 3:-0.976661 4:0.156371 5:0.997096 
1 1:-0.995276 2:-0.999961 3:-0.976511 4:0.453668 5:0.885272 
1 1:-0.973228 2:-0.999922 3:-0.931731 4:0.0328185 5:0.94089 
1 1:-0.990551 2:-0.999961 3:-0.993379 4:0.046332 5:0.993604 
1 1:-0.985827 2:-0.999961 3:-0.960028 4:0.34749 5:0.956476 
1 1:-0.993701 2:-0.999961 3:-0.940704 4:0.243243 5:0.837006 
1 1:-0.99685 2:-0.999882 3:-0.97078 4:0.376448 5:0.896631 
1 1:-0.99685 2:-0.999882 3:-0.97078 4:0.34749 5:0.913945 
1 1:-0.993701 2:-0.999882 3:-0.97078 4:0.295367 5:0.935927 
1 1:-0.99685 2:-0.999882 3:-0.97078 4:0.181467 5:0.966732 
1 1:-0.970079 2:-0.999961 3:-0.924267 4:-0.283784 5:0.860643 
1 1:-0.990551 2:-0.999961 3:-0.989888 4:-0.6139 5:0.558219 
1 1:-0.998425 2:-0.999961 3:-0.993847 4:-0.131274 5:0.950558 
1 1:-0.979528 2:-0.999019 3:-0.941162 4:-0.30695 5:0.861782 
1 1:-0.993701 2:-0.999097 3:-0.950069 4:0.241313 5:0.985333 
1 1:-0.998425 2:-0.999961 3:-0.987462 4:-0.455598 5:0.690407 
1 1:-0.985827 2:-0.999137 3:-0.920991 4:0.181467 5:0.993824 
1 1:-0.992126 2:-0.999882 3:-0.982192 4:-0.245174 5:0.826934 
1 1:-0.984252 2:-0.999176 3:-0.934948 4:-0.505792 5:0.677174 
1 1:-0.976378 2:-0.999725 3:-0.91993 4:-0.411197 5:0.784881 
1 1:-0.985827 2:-0.999843 3:-0.95758 4:-0.131274 5:0.951587 
1 1:-0.977953 2:-0.999961 3:-0.923372 4:-0.162162 5:0.923502 
1 1:-0.970079 2:-0.999922 3:-0.919337 4:-0.459459 5:0.638098 
1 1:-0.992126 2:-0.99898 3:-0.935658 4:-0.409266 5:0.785028 
1 1:-0.984252 2:-0.99898 3:-0.940546 4:-0.474903 5:0.735475 
1 1:-0.995276 2:-0.999961 3:-0.984843 4:-0.436293 5:0.769625 
1 1:-0.990551 2:-0.99898 3:-0.958137 4:-0.204633 5:0.910195 
1 1:-0.982677 2:-0.999961 3:-0.944144 4:-0.0849421 5:0.964637 
1 1:-0.979528 2:-0.999215 3:-0.948623 4:-0.194981 5:0.909901 
1 1:-0.984252 2:-0.999961 3:-0.968598 4:-0.534749 5:0.646038 
1 1:-0.985827 2:-0.999843 3:-0.954321 4:-0.503861 5:0.709706 
1 1:-0.990551 2:-0.999254 3:-0.965286 4:-0.216216 5:0.872627 
1 1:-0.974803 2:-0.999372 3:-0.975496 4:-0.0617761 5:0.975003 
1 1:-0.977953 2:-0.999922 3:-0.959497 4:-0.503861 5:0.465914 
1 1:-0.990551 2:-0.999922 3:-0.938433 4:-0.0250965 5:0.960998 
1 1:-0.987402 2:-0.999961 3:-0.994959 4:-0.158301 5:0.935891 
1 1:-0.998425 2:-0.999961 3:-0.990674 4:-0.53861 5:0.681548 
1 1:-0.987402 2:-0.999725 3:-0.935047 4:-0.254826 5:0.785359 
1 1:-0.993701 2:-0.999765 3:-0.979443 4:-0.249035 5:0.794879 
1 1:-0.977953 2:-0.999922 3:-0.977619 4:-0.200772 5:0.92365 
1 1:-0.985827 2:-0.999215 3:-0.931586 4:-0.318533 5:0.763597 
1 1:-0.979528 2:-0.999843 3:-0.917704 4:-0.596525 5:0.531751 
1 1:-0.988976 2:-0.999961 3:-0.994438 4:-0.293436 5:0.833882 
1 1:-0.974803 2:-0.999097 3:-0.928805 4:-0.720077 5:0.470436 
1 1:-0.990551 2:-0.999922 3:-0.964528 4:-0.42471 5:0.72669 
1 1:-0.987402 2:-0.999019 3:-0.927222 4:-0.453668 5:0.689672 
1 1:-0.984252 2:-0.999058 3:-0.956502 4:-0.46332 5:0.735585 
1 1:-0.992126 2:-0.999961 3:-0.986883 4:-0.111969 5:0.941331 
1 1:-0.965354 2:-0.99898 3:-0.920571 4:-0.368726 5:0.812193 
1 1:-0.977953 2:-0.999804 3:-0.923936 4:-0.374517 5:0.807414 
1 1:-0.965354 2:-0.999215 3:-0.94015 4:-0.445946 5:0.764332 
1 1:-0.998425 2:-0.999961 3:-0.995143 4:-0.438224 5:0.692025 
1 1:-0.981102 2:-0.999804 3:-0.966727 4:-0.343629 5:0.770765 
1 1:-0.995276 2:-0.999961 3:-0.992675 4:-0.675676 5:0.531347 
1 1:-0.977953 2:-0.999804 3:-0.931723 4:-0.515444 5:0.677394 
1 1:-0.968504 2:-0.999333 3:-0.930785 4:-0.428571 5:0.73985 
1 1:-0.982677 2:-0.999843 3:-0.962945 4:-0.173745 5:0.934457 
1 1:-0.988976 2:-0.999961 3:-0.939762 4:-0.42471 5:0.768927 
1 1:-0.968504 2:-0.999961 3:-0.919577 4:-0.34556 5:0.835095 
1 1:-0.979528 2:-0.99898 3:-0.931685 4:-0.166023 5:0.912401 
1 1:-0.99685 2:-0.999922 3:-0.994338 4:0.0579151 5:0.997022 
1 1:-0.987402 2:-0.999333 3:-0.955671 4:-0.303089 5:0.865642 
1 1:-0.984252 2:-0.999372 3:-0.913025 4:-0.318533 5:0.852813 
1 1:-0.998425 2:-0.99894 3:-0.987804 4:-0.407336 5:0.764038 
1 1:-0.976378 2:-0.999137 3:-0.917652 4:-0.548263 5:0.663095 
1 1:-0.995276 2:-0.999647 3:-0.95771 4:-0.366795 5:0.821163 
1 1:-0.982677 2:-0.999961 3:-0.931785 4:-0.530888 5:0.684489 
1 1:-0.974803 2:-0.999451 3:-0.939565 4:-0.405405 5:0.761317 
1 1:-0.982677 2:-0.999804 3:-0.973194 4:-0.121622 5:0.938023 
1 1:-0.970079 2:-0.999961 3:-0.970454 4:-0.214286 5:0.853034 
1 1:-0.998425 2:-0.999961 3:-0.994203 4:-0.451737 5:0.746503 
1 1:-0.971654 2:-0.999765 3:-0.913807 4:-0.498069 5:0.6492 
1 1:-0.985827 2:-0.999922 3:-0.983761 4:-0.194981 5:0.918209 
1 1:-0.998425 2:-0.999097 3:-0.942731 4:-0.140927 5:0.909056 
1 1:-0.984252 2:-0.99898 3:-0.917635 4:-0.003861 5:0.984745 
1 1:-0.979528 2:-0.999765 3:-0.988429 4:-0.38417 5:0.812267 
1 1:-0.998425 2:-0.999176 3:-0.947532 4:-0.256757 5:0.883397 
1 1:-0.982677 2:-0.999254 3:-0.960465 4:-0.559846 5:0.655338 
1 1:-0.998425 2:-0.999882 3:-0.968335 4:-0.579151 5:0.631444 
1 1:-0.982677 2:-0.999333 3:-0.938828 4:-0.413127 5:0.774808 
1 1:-0.998425 2:-0.999961 3:-0.973521 4:-0.880309 5:0.222527 
1 1:-0.985827 2:-0.999019 3:-0.948591 4:-0.305019 5:0.843108 
1 1:-0.979528 2:-0.999097 3:-0.945616 4:0.0521236 5:0.977025 
1 1:-0.998425 2:-0.999961 3:-0.992641 4:0.250965 5:0.869429 
1 1:-0.990551 2:-0.999961 3:-0.92546 4:0.324324 5:0.397651 
1 1:-0.979528 2:-0.999843 3:-0.919202 4:-0.474903 5:0.731652 
1 1:-0.984252 2:-0.999765 3:-0.980932 4:-0.411197 5:0.719227 
1 1:-0.976378 2:-0.999765 3:-0.953989 4:-0.436293 5:0.772051 
1 1:-0.981102 2:-0.999882 3:-0.950548 4:-0.532819 5:0.685371 
1 1:-0.977953 2:-0.999254 3:-0.946442 4:-0.034749 5:0.968864 
1 1:-0.976378 2:-0.999529 3:-0.966939 4:0.0559846 5:0.975334 
1 1:-0.981102 2:-0.999411 3:-0.962231 4:0.0135135 5:0.979819 
1 1:-0.998425 2:-0.999097 3:-0.970741 4:0.0540541 5:0.929311 
1 1:-0.979528 2:-0.999725 3:-0.952267 4:-0.339768 5:0.825023 
1 1:-0.99685 2:-0.999568 3:-0.988956 4:0.469112 5:0.452865 
1 1:-0.99685 2:-0.999568 3:-0.988956 4:0.46139 5:0.449556 
1 1:-0.99685 2:-0.999568 3:-0.995179 4:0.449807 5:0.438197 
1 1:-0.99685 2:-0.999529 3:-0.988956 4:0.471042 5:0.429706 
1 1:-0.993701 2:-0.999529 3:-0.988956 4:0.447876 5:0.450843 
1 1:-0.998425 2:-0.999961 3:-0.990408 4:-0.027027 5:0.920709 
1 1:-0.998425 2:-0.999961 3:-0.990408 4:-0.0173745 5:0.858805 
1 1:-0.984252 2:-0.999176 3:-0.949811 4:-0.467181 5:0.693128 
1 1:-0.96378 2:-0.999961 3:-0.956691 4:-0.279923 5:0.766721 
1 1:-0.998425 2:-0.999922 3:-0.910487 4:-0.324324 5:0.737975 
1 1:-0.998425 2:-0.999922 3:-0.910487 4:-0.34749 5:0.718749 
1 1:-0.995276 2:-0.999686 3:-0.990246 4:-0.314672 5:0.744555 
1 1:-0.998425 2:-0.999961 3:-0.94872 4:-0.266409 5:0.756281 
1 1:-0.99685 2:-0.999961 3:-0.991118 4:-0.266409 5:0.759406 
1 1:-0.995276 2:-0.998862 3:-0.991118 4:-0.266409 5:0.759406 
1 1:-0.998425 2:-0.999804 3:-0.943338 4:0.511583 5:0.828404 
1 1:-0.995276 2:-0.999804 3:-0.978516 4:0.579151 5:0.77036 
1 1:-0.998425 2:-0.999804 3:-0.943338 4:0.555985 5:0.785506 
1 1:-0.998425 2:-0.999922 3:-0.943338 4:0.561776 5:0.781683 
1 1:-0.992126 2:-0.999961 3:-0.992799 4:0.291506 5:0.953977 
1 1:-0.984252 2:-0.999451 3:-0.950688 4:0.667954 5:0.779367 
1 1:-0.998425 2:-0.999961 3:-0.908628 4:0.283784 5:0.568953 
1 1:-0.998425 2:-0.999529 3:-0.980919 4:-0.131274 5:0.856416 
1 1:-0.99685 2:-0.999922 3:-0.991582 4:-0.011583 5:0.96074 
1 1:-0.981102 2:-0.998901 3:-0.938724 4:-0.287645 5:0.848512 
1 1:-0.977953 2:-0.999176 3:-0.94225 4:-0.57722 5:0.592295 
1 1:-0.998425 2:-0.999961 3:-0.991624 4:-0.212355 5:0.909865 
1 1:-0.971654 2:-0.999725 3:-0.938452 4:-0.621622 5:0.593986 
1 1:-0.974803 2:-0.999686 3:-0.931913 4:-0.509653 5:0.705736 
1 1:-0.979528 2:-0.999804 3:-0.938156 4:-0.393822 5:0.799511 
1 1:-0.981102 2:-0.999215 3:-0.957919 4:-0.650579 5:0.554616 
1 1:-0.979528 2:-0.999961 3:-0.925532 4:-0.438224 5:0.769 
1 1:-0.987402 2:-0.999882 3:-0.983564 4:-0.42471 5:0.70864 
1 1:-0.984252 2:-0.999922 3:-0.969112 4:-0.490347 5:0.726212 
1 1:-0.998425 2:-0.999765 3:-0.948497 4:0.0135135 5:0.865606 
1 1:-0.987402 2:-0.999961 3:-0.959532 4:-0.19305 5:0.894278 
1 1:-0.998425 2:-0.999765 3:-0.991271 4:-0.19112 5:0.925157 
1 1:-0.952756 2:-0.999372 3:-0.985331 4:-0.635135 5:0.0976161 
1 1:-0.998425 2:-0.999961 3:-0.978978 4:-0.220077 5:0.190178 
1 1:-0.998425 2:-0.999961 3:-0.978978 4:-0.220077 5:0.190178 
1 1:-0.995276 2:-0.999922 3:-0.943112 4:-0.233591 5:0.906556 
1 1:-0.99685 2:-0.999294 3:-0.934085 4:-0.22973 5:0.188891 
1 1:-0.971654 2:-0.99741 3:-0.974748 4:-0.254826 5:0.167129 
1 1:-0.988976 2:-0.999961 3:-0.943855 4:-0.198842 5:0.20797 
1 1:-0.995276 2:-0.982535 3:-0.993658 4:-0.216216 5:0.144632 
1 1:-0.903937 2:-0.992778 3:-0.985828 4:-0.830116 5:-0.472237 
1 1:-0.988976 2:-0.999961 3:-0.946563 4:-0.239382 5:0.902696 
1 1:-0.988976 2:-0.99843 3:-0.971672 4:-0.241313 5:0.218115 
1 1:-0.99685 2:-0.999961 3:-0.977442 4:-0.225869 5:0.192861 
1 1:-0.998425 2:-0.999804 3:-0.91981 4:-0.596525 5:0.268807 
1 1:-0.998425 2:-0.999882 3:-0.993414 4:-0.135135 5:0.844873 
1 1:-0.977953 2:-0.999804 3:-0.967236 4:-0.503861 5:0.709449 
1 1:-0.974803 2:-0.999137 3:-0.918152 4:-0.447876 5:0.758156 
1 1:-0.984252 2:-0.999843 3:-0.930039 4:-0.220077 5:0.911629 
1 1:-0.992126 2:-0.999765 3:-0.966634 4:-0.573359 5:0.631187 
1 1:-0.985827 2:-0.99894 3:-0.950543 4:-0.438224 5:0.759884 
1 1:-0.984252 2:-0.999019 3:-0.947789 4:-0.305019 5:0.865642 
1 1:-0.998425 2:-0.999961 3:-0.992628 4:-0.245174 5:0.883544 
1 1:-0.985827 2:-0.999961 3:-0.954744 4:-0.418919 5:0.784329 
1 1:-0.995276 2:-0.999765 3:-0.950148 4:-0.293436 5:0.874759 
1 1:-0.984252 2:-0.999804 3:-0.932572 4:-0.206564 5:0.911629 
1 1:-0.987402 2:-0.99898 3:-0.950253 4:-0.65251 5:0.533553 
1 1:-0.979528 2:-0.999961 3:-0.918269 4:-0.291506 5:0.865569 
1 1:-0.982677 2:-0.999451 3:-0.978035 4:-0.301158 5:0.858878 
1 1:-0.974803 2:-0.999961 3:-0.916271 4:-0.0328185 5:0.94497 
1 1:-0.998425 2:-0.999961 3:-0.991156 4:-0.237452 5:0.8963 
1 1:-0.979528 2:-0.999804 3:-0.971694 4:-0.376448 5:0.809914 
1 1:-0.992126 2:-0.999686 3:-0.949136 4:-0.297297 5:0.847189 
1 1:-0.979528 2:-0.999843 3:-0.96023 4:-0.471042 5:0.694782 
1 1:-0.998425 2:-0.999961 3:-0.99158 4:-0.61583 5:0.597993 
1 1:-0.973228 2:-0.999333 3:-0.915714 4:-0.395753 5:0.760398 
1 1:-0.970079 2:-0.99898 3:-0.92098 4:-0.627413 5:0.577922 
1 1:-0.987402 2:-0.999961 3:-0.956176 4:-0.434363 5:0.734997 
1 1:-0.976378 2:-0.999137 3:-0.959046 4:-0.53668 5:0.663132 
1 1:-0.981102 2:-0.999765 3:-0.974765 4:-0.34749 5:0.838697 
1 1:-0.981102 2:-0.999961 3:-0.941163 4:-0.600386 5:0.54947 
1 1:-0.974803 2:-0.999843 3:-0.940654 4:-0.299228 5:0.776021 
1 1:-0.987402 2:-0.999882 3:-0.953996 4:-0.428571 5:0.749738 
1 1:-0.982677 2:-0.999882 3:-0.973289 4:-0.563707 5:0.649053 
1 1:-0.977953 2:-0.999804 3:-0.940625 4:-0.563707 5:0.612476 
1 1:-0.99685 2:-0.999961 3:-0.993401 4:0.019305 5:0.964049 
1 1:-0.995276 2:-0.999961 3:-0.994016 4:-0.266409 5:0.870017 
1 1:-0.974803 2:-0.999725 3:-0.95305 4:-0.42471 5:0.78205 
1 1:-0.981102 2:-0.998901 3:-0.97213 4:-0.272201 5:0.806937 
1 1:-0.979528 2:-0.999097 3:-0.934884 4:-0.471042 5:0.723381 
1 1:-0.998425 2:-0.999804 3:-0.930593 4:-0.571429 5:0.635268 
1 1:-0.976378 2:-0.999765 3:-0.934599 4:-0.449807 5:0.754995 
1 1:-0.977953 2:-0.999451 3:-0.933909 4:-0.409266 5:0.793924 
1 1:-0.990551 2:-0.999176 3:-0.939936 4:-0.349421 5:0.77286 
1 1:-0.977953 2:-0.999961 3:-0.932943 4:-0.517375 5:0.686143 
1 1:-0.985827 2:-0.998901 3:-0.937993 4:-0.559846 5:0.644752 
1 1:-0.984252 2:-0.999411 3:-0.943479 4:-0.372587 5:0.821494 
1 1:-0.979528 2:-0.999725 3:-0.956012 4:-0.598456 5:0.396842 
1 1:-0.976378 2:-0.999765 3:-0.919676 4:-0.34556 5:0.835315 
1 1:-0.981102 2:-0.999765 3:-0.925874 4:-0.474903 5:0.733123 
1 1:-0.977953 2:-0.999804 3:-0.936101 4:-0.227799 5:0.900969 
1 1:-0.995276 2:-0.999961 3:-0.98179 4:-0.333977 5:0.772015 
1 1:-0.998425 2:-0.999882 3:-0.9759 4:-0.235521 5:0.727939 
1 1:-0.998425 2:-0.999137 3:-0.9759 4:-0.235521 5:0.727939 
1 1:-0.993701 2:-0.999961 3:-0.974883 4:-0.185328 5:0.741835 
1 1:-0.993701 2:-0.999922 3:-0.935684 4:0.0772201 5:0.991729 
1 1:-0.993701 2:-0.999922 3:-0.935684 4:0.0772201 5:0.991729 
1 1:-0.990551 2:-0.999882 3:-0.986879 4:0.335907 5:0.946882 
1 1:-0.99685 2:-0.999961 3:-0.984521 4:0.243243 5:0.976768 
1 1:-0.998425 2:-0.99898 3:-0.978958 4:-0.225869 5:0.912033 
1 1:-0.982677 2:-0.999843 3:-0.9719 4:-0.239382 5:0.894683 
1 1:-0.910236 2:-0.995251 3:-0.937812 4:-0.0579151 5:0.966071 
1 1:-0.998425 2:-0.997488 3:-0.983627 4:-0.233591 5:0.86601 
1 1:-0.998425 2:-0.997488 3:-0.991666 4:-0.241313 5:0.864466 
1 1:-0.998425 2:-0.997488 3:-0.991666 4:-0.241313 5:0.867186 
1 1:-0.998425 2:-0.999961 3:-0.986384 4:-0.239382 5:0.872774 
1 1:-0.998425 2:-0.999961 3:-0.991666 4:-0.235521 5:0.875825 
1 1:-0.998425 2:-0.999961 3:-0.930159 4:-0.185328 5:0.885419 
1 1:-0.998425 2:-0.995683 3:-0.930159 4:-0.129344 5:0.921922 
1 1:-0.998425 2:-0.999647 3:-0.976065 4:0.247104 5:0.939383 
1 1:-0.99685 2:-0.999961 3:-0.94244 4:0.361004 5:0.94214 
1 1:-0.998425 2:-0.999961 3:-0.971262 4:0.528958 5:0.871855 
1 1:-0.995276 2:-0.999961 3:-0.950706 4:0.420849 5:0.408385 
1 1:-0.990551 2:-0.999961 3:-0.950706 4:0.407336 5:0.239767 
1 1:-0.990551 2:-0.999961 3:-0.950706 4:0.409266 5:0.200066 
1 1:-0.990551 2:-0.999961 3:-0.950706 4:0.432432 5:0.163564 
1 1:-0.995276 2:-0.999961 3:-0.950706 4:0.449807 5:0.165181 
1 1:-0.995276 2:-0.999961 3:-0.988059 4:0.6139 5:0.8137 
1 1:-0.998425 2:-0.999725 3:-0.991174 4:0.210425 5:0.867517 
1 1:-0.998425 2:-0.999922 3:-0.942628 4:0.77027 5:0.680409 
1 1:-0.998425 2:-0.999843 3:-0.952446 4:0.544402 5:0.811054 
1 1:-0.998425 2:-0.999647 3:-0.934688 4:0.623552 5:0.816494 
1 1:-0.998425 2:-0.999647 3:-0.936527 4:0.505792 5:0.236642 
1 1:-0.979528 2:-0.999215 3:-0.928676 4:0.440154 5:0.832264 
1 1:-0.976378 2:-0.999882 3:-0.911911 4:-0.635135 5:0.495249 
1 1:-0.982677 2:-0.999568 3:-0.931823 4:-0.0637066 5:0.964674 
1 1:-0.954331 2:-0.998195 3:-0.986392 4:-0.335907 5:0.846601 
1 1:-0.979528 2:-0.999019 3:-0.925625 4:-0.492278 5:0.717353 
1 1:-0.968504 2:-0.999176 3:-0.954184 4:-0.223938 5:0.885015 
1 1:-0.998425 2:-0.999961 3:-0.995217 4:-0.281853 5:0.872994 
1 1:-0.982677 2:-0.999294 3:-0.943688 4:-0.250965 5:0.868693 
1 1:-0.974803 2:-0.999215 3:-0.94014 4:-0.521236 5:0.694304 
1 1:-0.998425 2:-0.999647 3:-0.972435 4:-0.517375 5:0.701987 
1 1:-0.99685 2:-0.999804 3:-0.979229 4:-0.638996 5:0.547264 
1 1:-0.982677 2:-0.999804 3:-0.933467 4:-0.376448 5:0.806091 
1 1:-0.981102 2:-0.999961 3:-0.921886 4:-0.401544 5:0.694708 
1 1:-0.987402 2:-0.999333 3:-0.937055 4:-0.638996 5:0.543221 
1 1:-0.974803 2:-0.999019 3:-0.926378 4:-0.393822 5:0.798519 
1 1:-0.998425 2:-0.999961 3:-0.994647 4:-0.214286 5:0.905637 
1 1:-0.985827 2:-0.999765 3:-0.928218 4:-0.492278 5:0.703053 
1 1:-0.985827 2:-0.999882 3:-0.95214 4:-0.046332 5:0.972062 
1 1:-0.998425 2:-0.999961 3:-0.995143 4:-0.281853 5:0.861452 
1 1:-0.985827 2:-0.999804 3:-0.947361 4:-0.548263 5:0.463378 
1 1:-0.982677 2:-0.999961 3:-0.931645 4:-0.355212 5:0.824655 
1 1:-0.977953 2:-0.999137 3:-0.954738 4:-0.503861 5:0.570349 
1 1:-0.987402 2:-0.999961 3:-0.947895 4:-0.503861 5:0.464113 
1 1:-0.968504 2:-0.998509 3:-0.946774 4:-0.166023 5:0.886081 
1 1:-0.984252 2:-0.999097 3:-0.948746 4:-0.436293 5:0.761722 
1 1:-0.971654 2:-0.999843 3:-0.922957 4:-0.436293 5:0.757862 
1 1:-0.984252 2:-0.999411 3:-0.941369 4:-0.507722 5:0.674932 
1 1:-0.990551 2:-0.999372 3:-0.962783 4:-0.310811 5:0.817413 
1 1:-0.990551 2:-0.999804 3:-0.971307 4:-0.312741 5:0.853732 
1 1:-0.976378 2:-0.999804 3:-0.934 4:-0.465251 5:0.708126 
1 1:-0.977953 2:-0.998705 3:-0.927511 4:-0.119691 5:0.957248 
1 1:-0.977953 2:-0.999882 3:-0.922849 4:-0.554054 5:0.664786 
1 1:-0.979528 2:-0.999725 3:-0.944059 4:-0.22973 5:0.87281 
1 1:-0.992126 2:-0.999804 3:-0.947799 4:-0.378378 5:0.817413 
1 1:-0.998425 2:-0.999961 3:-0.993309 4:-0.272201 5:0.874134 
1 1:-0.992126 2:-0.999411 3:-0.976004 4:-0.565637 5:0.646296 
1 1:-0.966929 2:-0.999372 3:-0.939558 4:-0.430502 5:0.741614 
1 1:-0.982677 2:-0.999804 3:-0.948634 4:-0.6139 5:0.599096 
1 1:-0.987402 2:-0.999686 3:-0.965786 4:-0.279923 5:0.88167 
1 1:-0.976378 2:-0.999647 3:-0.944333 4:-0.494208 5:0.683166 
1 1:-0.981102 2:-0.99894 3:-0.916676 4:-0.453668 5:0.755362 
1 1:-0.995276 2:-0.999529 3:-0.927287 4:0.397683 5:0.925929 
1 1:-0.987402 2:-0.999843 3:-0.956953 4:-0.434363 5:0.771169 
1 1:-0.977953 2:-0.999765 3:-0.956017 4:-0.583012 5:0.633135 
1 1:-0.987402 2:-0.999294 3:-0.976109 4:-0.73166 5:0.454408 
1 1:-0.988976 2:-0.999804 3:-0.969483 4:-0.322394 5:0.832044 
1 1:-0.985827 2:-0.999058 3:-0.934412 4:-0.146718 5:0.940412 
1 1:-0.979528 2:-0.99898 3:-0.958599 4:-0.266409 5:0.844432 
1 1:-0.987402 2:-0.999568 3:-0.937515 4:-0.162162 5:0.937655 
1 1:-0.99685 2:-0.999961 3:-0.989655 4:-0.565637 5:0.648795 
1 1:-0.966929 2:-0.998744 3:-0.935048 4:-0.515444 5:0.694414 
1 1:-0.987402 2:-0.999961 3:-0.965994 4:-0.361004 5:0.755252 
1 1:-0.995276 2:-0.99898 3:-0.948855 4:-0.563707 5:0.626114 
1 1:-0.965354 2:-0.999882 3:-0.920426 4:-0.266409 5:0.843807 
1 1:-0.998425 2:-0.999961 3:-0.985332 4:-0.250965 5:0.897146 
1 1:-0.998425 2:-0.999961 3:-0.978141 4:-0.247104 5:0.897476 
1 1:-0.971654 2:-0.999843 3:-0.931561 4:-0.15444 5:0.894425 
1 1:-0.982677 2:-0.999961 3:-0.918648 4:-0.243243 5:0.890051 
1 1:-0.984252 2:-0.999176 3:-0.929512 4:-0.243243 5:0.897293 
1 1:-0.992126 2:-0.999372 3:-0.945054 4:-0.432432 5:0.765471 
1 1:-0.976378 2:-0.999961 3:-0.984656 4:-0.330116 5:0.825758 
1 1:-0.977953 2:-0.999372 3:-0.959265 4:0.00965251 5:0.966843 
1 1:-0.987402 2:-0.999961 3:-0.940441 4:-0.146718 5:0.942801 
1 1:-0.970079 2:-0.999058 3:-0.969672 4:-0.30695 5:0.86215 
1 1:-0.981102 2:-0.99894 3:-0.948599 4:-0.332046 5:0.850203 
1 1:-0.988976 2:-0.999451 3:-0.987777 4:-0.525097 5:0.535905 
1 1:-0.987402 2:-0.999372 3:-0.961806 4:-0.391892 5:0.699928 
1 1:-0.973228 2:-0.999765 3:-0.917526 4:-0.805019 5:0.200838 
1 1:-0.984252 2:-0.999608 3:-0.95972 4:-0.0907336 5:0.929752 
1 1:-0.985827 2:-0.999765 3:-0.965098 4:-0.216216 5:0.859577 
1 1:-0.976378 2:-0.999843 3:-0.923054 4:-0.258687 5:0.888286 
1 1:-0.982677 2:-0.999882 3:-0.965487 4:-0.447876 5:0.76095 
1 1:-0.981102 2:-0.999372 3:-0.934819 4:-0.133205 5:0.942066 
1 1:-0.990551 2:-0.999254 3:-0.975905 4:-0.135135 5:0.940375 
1 1:-0.984252 2:-0.999961 3:-0.961138 4:-0.121622 5:0.937986 
1 1:-0.998425 2:-0.999961 3:-0.965685 4:-0.0540541 5:0.828993 
1 1:-0.995276 2:-0.999961 3:-0.959321 4:-0.0250965 5:0.849872 
1 1:-0.984252 2:-0.999922 3:-0.96055 4:-0.03861 5:0.950778 
1 1:-0.998425 2:-0.999765 3:-0.993102 4:0.144788 5:0.936332 
1 1:-0.981102 2:-0.999372 3:-0.948641 4:0.15444 5:0.988274 
1 1:-0.981102 2:-0.999961 3:-0.955313 4:-0.140927 5:0.94758 
1 1:-0.985827 2:-0.999843 3:-0.974521 4:-0.225869 5:0.911408 
1 1:-0.982677 2:-0.999725 3:-0.971257 4:-0.388031 5:0.741394 
1 1:-0.995276 2:-0.999411 3:-0.950509 4:-0.131274 5:0.948242 
1 1:-0.984252 2:-0.999765 3:-0.928114 4:-0.237452 5:0.885015 
1 1:-0.966929 2:-0.998469 3:-0.961655 4:-0.662162 5:0.496682 
1 1:-0.973228 2:-0.99949 3:-0.933459 4:-0.0752896 5:0.957432 
1 1:-0.974803 2:-0.999568 3:-0.9365 4:-0.330116 5:0.832742 
1 1:-0.990551 2:-0.999922 3:-0.942859 4:-0.034749 5:0.977282 
1 1:-0.985827 2:-0.99949 3:-0.913246 4:-0.0482625 5:0.931443 
1 1:-0.99685 2:-0.999961 3:-0.992909 4:0.108108 5:0.986472 
1 1:-0.988976 2:-0.999451 3:-0.975069 4:0.0482625 5:0.972724 
1 1:-0.970079 2:-0.999725 3:-0.92702 4:-0.110039 5:0.933391 
1 1:-0.985827 2:-0.99898 3:-0.919422 4:-0.46332 5:0.748084 
1 1:-0.971654 2:-0.999922 3:-0.949894 4:-0.359073 5:0.831529 
1 1:-0.970079 2:-0.999097 3:-0.918016 4:-0.46139 5:0.705626 
1 1:-0.998425 2:-0.999961 3:-0.991602 4:-0.563707 5:0.639532 
1 1:-0.998425 2:-0.999961 3:-0.947686 4:-0.366795 5:0.821494 
1 1:-0.933858 2:-0.99898 3:-0.970748 4:-0.291506 5:0.86884 
1 1:-0.99685 2:-0.999843 3:-0.994164 4:-0.279923 5:0.878214 
1 1:-0.995276 2:-0.980611 3:-0.994164 4:-0.279923 5:0.878214 
1 1:-0.973228 2:-0.954708 3:-0.972364 4:-0.260618 5:0.884096 
1 1:-0.99685 2:-0.999961 3:-0.99423 4:-0.542471 5:0.660338 
1 1:-0.981102 2:-0.999137 3:-0.951131 4:-0.337838 5:0.835756 
1 1:-0.988976 2:-0.999882 3:-0.949366 4:-0.447876 5:0.758634 
1 1:-0.985827 2:-0.999019 3:-0.974293 4:-0.656371 5:0.546455 
1 1:-0.987402 2:-0.999961 3:-0.980619 4:-0.474903 5:0.700406 
1 1:-0.976378 2:-0.998783 3:-0.919701 4:-0.276062 5:0.863437 
1 1:-0.993701 2:-0.999922 3:-0.95714 4:-0.183398 5:0.900822 
1 1:-0.995276 2:-0.999961 3:-0.943864 4:0.135135 5:0.968828 
1 1:-0.998425 2:-0.999961 3:-0.994357 4:-0.0733591 5:0.95258 
1 1:-0.987402 2:-0.999725 3:-0.951429 4:-0.312741 5:0.790652 
1 1:-0.998425 2:-0.999882 3:-0.992374 4:-0.590734 5:0.614314 
1 1:-0.987402 2:-0.999804 3:-0.987877 4:-0.471042 5:0.632694 
1 1:-0.998425 2:-0.999961 3:-0.994684 4:-0.337838 5:0.818406 
1 1:-0.992126 2:-0.998901 3:-0.99239 4:-0.281853 5:0.876009 
1 1:-0.987402 2:-0.999058 3:-0.944166 4:-0.264479 5:0.883986 
1 1:-0.981102 2:-0.999725 3:-0.959015 4:-0.034749 5:0.928208 
1 1:-0.985827 2:-0.999961 3:-0.92137 4:-0.108108 5:0.825611 
1 1:-0.982677 2:-0.999961 3:-0.960932 4:-0.258687 5:0.891007 
1 1:-0.998425 2:-0.999961 3:-0.987414 4:-0.227799 5:0.772345 
1 1:-0.995276 2:-0.999961 3:-0.992019 4:-0.525097 5:0.681916 
1 1:-0.984252 2:-0.999176 3:-0.957419 4:-0.283784 5:0.868142 
1 1:-0.985827 2:-0.999922 3:-0.919966 4:-0.362934 5:0.82914 
1 1:-0.977953 2:-0.999058 3:-0.922921 4:-0.343629 5:0.829618 
1 1:-0.987402 2:-0.999804 3:-0.925809 4:-0.378378 5:0.629312 
1 1:-0.993701 2:-0.999058 3:-0.937278 4:-0.293436 5:0.82289 
1 1:-0.995276 2:-0.999961 3:-0.954551 4:-0.274131 5:0.851049 
1 1:-0.979528 2:-0.999294 3:-0.922767 4:-0.138996 5:0.938831 
1 1:-0.982677 2:-0.99898 3:-0.946755 4:-0.285714 5:0.871414 
1 1:-0.995276 2:-0.998901 3:-0.933335 4:-0.353282 5:0.831639 
1 1:-0.966929 2:-0.999765 3:-0.918944 4:-0.368726 5:0.813958 
1 1:-0.977953 2:-0.999254 3:-0.945787 4:-0.156371 5:0.94214 
1 1:-0.981102 2:-0.999882 3:-0.939357 4:-0.146718 5:0.941625 
0.8066570601417231 1:-0.973228 2:-0.999254 3:-0.912627 4:-0.548263 5:0.664859 
1 1:-0.998425 2:-0.999961 3:-0.991238 4:-0.382239 5:0.789182 
1 1:-0.990551 2:-0.999608 3:-0.972411 4:-0.220077 5:0.896043 
1 1:-0.995276 2:-0.999608 3:-0.980814 4:-0.320463 5:0.854578 
1 1:-0.977953 2:-0.998744 3:-0.959353 4:-0.426641 5:0.742974 
1 1:-0.995276 2:-0.999961 3:-0.995222 4:-0.239382 5:0.894903 
1 1:-0.988976 2:-0.999961 3:-0.968605 4:-0.266409 5:0.81359 
1 1:-0.987402 2:-0.999961 3:-0.985562 4:-0.23166 5:0.906005 
1 1:-0.995276 2:-0.999961 3:-0.983163 4:-0.403475 5:0.792233 
1 1:-0.998425 2:-0.999961 3:-0.977882 4:-0.413127 5:0.783962 
1 1:-0.966929 2:-0.999804 3:-0.966641 4:-0.0482625 5:0.968019 
1 1:-0.968504 2:-0.999097 3:-0.956899 4:0.111969 5:0.925488 
1 1:-0.968504 2:-0.999961 3:-0.946152 4:0.0868726 5:0.921113 
1 1:-0.968504 2:-0.999961 3:-0.917915 4:0.0907336 5:0.921076 
1 1:-0.968504 2:-0.999961 3:-0.946152 4:-0.0945946 5:0.922216 
1 1:-0.968504 2:-0.999961 3:-0.946152 4:-0.148649 5:0.914533 
1 1:-0.968504 2:-0.999922 3:-0.946152 4:0.0444015 5:0.939199 
1 1:-0.952756 2:-0.999961 3:-0.989361 4:-0.1139 5:0.919202 
1 1:-0.943307 2:-0.999961 3:-0.943905 4:0.279923 5:0.868546 
1 1:-0.990551 2:-0.999922 3:-0.985652 4:0.227799 5:0.873435 
1 1:-0.974803 2:-0.999725 3:-0.919789 4:0.256757 5:0.865164 
1 1:-0.990551 2:-0.999922 3:-0.928414 4:0.318533 5:0.828404 
1 1:-0.987402 2:-0.999725 3:-0.919789 4:0.341699 5:0.827669 
1 1:-0.992126 2:-0.999725 3:-0.957105 4:0.368726 5:0.825574 
1 1:-0.992126 2:-0.999725 3:-0.957105 4:0.374517 5:0.821677 
1 1:-0.952756 2:-0.999922 3:-0.993946 4:0.0019305 5:0.936957 
1 1:-0.998425 2:-0.999961 3:-0.971225 4:0.376448 5:0.815722 
1 1:-0.998425 2:-0.999961 3:-0.970636 4:0.189189 5:0.910784 
1 1:-0.998425 2:-0.999961 3:-0.980779 4:0.117761 5:0.930707 
1 1:-0.993701 2:-0.999961 3:-0.972828 4:0.241313 5:0.903762 
1 1:-0.977953 2:-0.999961 3:-0.940873 4:-0.179537 5:0.923245 
1 1:-0.998425 2:-0.999961 3:-0.984648 4:-0.266409 5:0.883838 
1 1:-0.99685 2:-0.999961 3:-0.984648 4:-0.138996 5:0.925598 
1 1:-0.99685 2:-0.999961 3:-0.994183 4:0.166023 5:0.995442 
1 1:-0.99685 2:-0.999647 3:-0.986209 4:0.237452 5:0.990406 
1 1:-0.993701 2:-0.998901 3:-0.949719 4:0.318533 5:0.972467 
1 1:-0.973228 2:-0.999804 3:-0.927404 4:0.027027 5:0.992317 
1 1:-0.99685 2:-0.999961 3:-0.98321 4:0.328185 5:0.938611 
1 1:-0.988976 2:-0.999882 3:-0.965528 4:-0.158301 5:0.939493 
1 1:-0.988976 2:-0.999372 3:-0.965528 4:-0.206564 5:0.92104 
1 1:-0.96378 2:-0.999843 3:-0.964929 4:0.388031 5:0.673792 
1 1:-0.99685 2:-0.999961 3:-0.985322 4:0.291506 5:0.283033 
1 1:-0.998425 2:-0.999922 3:-0.982557 4:0.225869 5:0.0673627 
1 1:-0.998425 2:-0.999961 3:-0.982557 4:0.247104 5:0.0195012 
1 1:-0.998425 2:-0.999804 3:-0.982557 4:0.237452 5:0.0214862 
1 1:-0.971654 2:-0.999608 3:-0.974157 4:0.225869 5:-0.245649 
1 1:-0.998425 2:-0.999961 3:-0.981951 4:0.266409 5:0.312147 
1 1:-0.998425 2:-0.999961 3:-0.963925 4:0.19305 5:-0.165475 
1 1:-0.998425 2:-0.999961 3:-0.977628 4:0.175676 5:-0.15055 
1 1:-0.998425 2:-0.999961 3:-0.977628 4:0.166023 5:-0.111217 
1 1:-0.993701 2:-0.999961 3:-0.963925 4:0.181467 5:-0.159116 
1 1:-0.998425 2:-0.999961 3:-0.988978 4:0.183398 5:-0.13195 
1 1:-0.998425 2:-0.999961 3:-0.993639 4:0.162162 5:-0.097947 
1 1:-0.99685 2:-0.999961 3:-0.921703 4:0.749035 5:0.588031 
1 1:-0.99685 2:-0.998901 3:-0.968989 4:0.631274 5:0.810392 
1 1:-0.99685 2:-0.999882 3:-0.958045 4:0.266409 5:0.551308 
1 1:-0.992126 2:-0.999686 3:-0.94671 4:0.644788 5:0.80168 
1 1:-0.998425 2:-0.999961 3:-0.986684 4:0.148649 5:0.996802 
1 1:-0.998425 2:-0.999961 3:-0.994807 4:-0.181467 5:0.901998 
1 1:-0.99685 2:-0.999843 3:-0.975376 4:0.606178 5:0.825317 
1 1:-0.99685 2:-0.999961 3:-0.995411 4:-0.6139 5:0.600015 
1 1:-0.992126 2:-0.999451 3:-0.976461 4:-0.235521 5:0.887514 
1 1:-0.985827 2:-0.999882 3:-0.952537 4:-0.6139 5:0.594537 
1 1:-0.998425 2:-0.999686 3:-0.974885 4:-0.434363 5:0.579907 
1 1:-0.998425 2:-0.999568 3:-0.985389 4:-0.646718 5:0.565129 
1 1:-0.977953 2:-0.998744 3:-0.928403 4:-0.297297 5:0.849909 
1 1:-0.977953 2:-0.999725 3:-0.911918 4:-0.515444 5:0.695958 
1 1:-0.988976 2:-0.998823 3:-0.968772 4:-0.658301 5:0.493411 
1 1:-0.979528 2:-0.999961 3:-0.921839 4:-0.187259 5:0.910453 
1 1:-0.982677 2:-0.999215 3:-0.959936 4:0.0482625 5:0.993641 
1 1:-0.976378 2:-0.999294 3:-0.937849 4:-0.272201 5:0.869024 
1 1:-0.993701 2:-0.999097 3:-0.940941 4:-0.447876 5:0.752348 
1 1:-0.99685 2:-0.999922 3:-0.994766 4:-0.364865 5:0.820905 
1 1:-0.990551 2:-0.999843 3:-0.954082 4:-0.245174 5:0.87928 
1 1:-0.971654 2:-0.999686 3:-0.920127 4:-0.330116 5:0.806937 
1 1:-0.977953 2:-0.999882 3:-0.970111 4:-0.488417 5:0.67302 
1 1:-0.96063 2:-0.998587 3:-0.965115 4:-0.623552 5:0.551234 
1 1:-0.998425 2:-0.999961 3:-0.994599 4:0.708494 5:0.323984 
1 1:-0.993701 2:-0.999961 3:-0.946807 4:0.401544 5:0.623651 
1 1:-0.993701 2:-0.999961 3:-0.946807 4:0.420849 5:0.543882 
1 1:-0.993701 2:-0.999961 3:-0.946807 4:0.405405 5:0.513224 
1 1:-0.987402 2:-0.999961 3:-0.946807 4:0.415058 5:0.432794 
1 1:-0.993701 2:-0.999961 3:-0.946807 4:0.420849 5:0.385373 
1 1:-0.993701 2:-0.999961 3:-0.946807 4:0.418919 5:0.300899 
1 1:-0.982677 2:-0.998901 3:-0.919121 4:0.0810811 5:0.99195 
1 1:-0.984252 2:-0.999922 3:-0.924791 4:-0.602317 5:0.484368 
1 1:-0.987402 2:-0.999137 3:-0.941018 4:0.0733591 5:0.99467 
1 1:-0.993701 2:-0.999882 3:-0.948533 4:0.397683 5:0.942213 
1 1:-0.988976 2:-0.999451 3:-0.953568 4:-0.150579 5:0.915342 
1 1:-0.99685 2:-0.999961 3:-0.990826 4:0.015444 5:0.988604 
1 1:-0.984252 2:-0.997959 3:-0.975287 4:-0.333977 5:0.808003 
1 1:-0.988976 2:-0.999333 3:-0.991788 4:0.0173745 5:0.972834 
1 1:-0.99685 2:-0.999176 3:-0.949252 4:-0.169884 5:0.930634 
1 1:-0.998425 2:-0.999725 3:-0.912812 4:-0.471042 5:0.584465 
1 1:-0.99685 2:-0.999019 3:-0.934184 4:-0.318533 5:0.846821 
1 1:-0.998425 2:-0.999843 3:-0.96911 4:-0.330116 5:0.834801 
1 1:-0.99685 2:-0.999961 3:-0.994193 4:0.438224 5:0.753194 
1 1:-0.985827 2:-0.999804 3:-0.964939 4:-0.00772201 5:0.987649 
1 1:-0.988976 2:-0.999843 3:-0.977045 4:-0.279923 5:0.883434 
1 1:-0.998425 2:-0.998823 3:-0.975283 4:-0.0675676 5:0.92376 
1 1:-0.99685 2:-0.999961 3:-0.949089 4:0.146718 5:0.83969 
1 1:-0.992126 2:-0.999882 3:-0.968272 4:0.625483 5:0.241384 
1 1:-0.99685 2:-0.999608 3:-0.992065 4:0.53861 5:-1.05231 
1 1:-0.998425 2:-0.999765 3:-0.968924 4:-0.451737 5:0.75176 
1 1:-0.992126 2:-0.999568 3:-0.954966 4:-0.507722 5:0.702759 
1 1:-0.977953 2:-0.999882 3:-0.948652 4:-0.46139 5:0.750179 
1 1:-0.99685 2:-0.999254 3:-0.932143 4:-0.411197 5:0.717794 
1 1:-0.990551 2:-0.999333 3:-0.931912 4:-0.528958 5:0.686695 
1 1:-0.973228 2:-0.999922 3:-0.914879 4:-0.303089 5:0.868215 
1 1:-0.998425 2:-0.999961 3:-0.98502 4:-0.235521 5:0.907181 
1 1:-0.979528 2:-0.999725 3:-0.953072 4:-0.299228 5:0.861672 
1 1:-0.990551 2:-0.999765 3:-0.931138 4:-0.277992 5:0.863694 
1 1:-0.998425 2:-0.999097 3:-0.934949 4:0.135135 5:0.96052 
1 1:-0.99685 2:-0.999961 3:-0.994237 4:0.0907336 5:0.975555 
1 1:-0.977953 2:-0.999765 3:-0.913932 4:-0.328185 5:0.847446 
1 1:-0.981102 2:-0.999922 3:-0.941941 4:-0.388031 5:0.745437 
1 1:-0.977953 2:-0.999882 3:-0.927535 4:-0.503861 5:0.633981 
1 1:-0.973228 2:-0.999843 3:-0.933633 4:-0.467181 5:0.743709 
1 1:-0.998425 2:-0.99843 3:-0.945855 4:0.567568 5:0.818626 
1 1:-0.965354 2:-0.999215 3:-0.985439 4:0.442085 5:0.875678 
1 1:-0.993701 2:-0.999961 3:-0.9474 4:0.0714286 5:0.131693 
1 1:-0.979528 2:-0.999922 3:-0.914882 4:-0.305019 5:0.862812 
1 1:-0.985827 2:-0.998862 3:-0.938805 4:-0.34749 5:0.769625 
1 1:-0.979528 2:-0.999961 3:-0.965023 4:-0.0405405 5:0.901888 
1 1:-0.971654 2:-0.999765 3:-0.913484 4:-0.679537 5:0.512783 
1 1:-0.982677 2:-0.999843 3:-0.976762 4:-0.333977 5:0.849505 
1 1:-0.979528 2:-0.999804 3:-0.913894 4:-0.222008 5:0.832852 
1 1:-0.998425 2:-0.999961 3:-0.990677 4:-0.322394 5:0.856746 
1 1:-0.984252 2:-0.999058 3:-0.937842 4:-0.03861 5:0.969783 
1 1:-0.981102 2:-0.999882 3:-0.929927 4:-0.283784 5:0.872222 
1 1:-0.981102 2:-0.999608 3:-0.961145 4:-0.198842 5:0.899278 
1 1:-0.99685 2:-0.999333 3:-0.932918 4:-0.53668 5:0.682908 
1 1:-0.998425 2:-0.999961 3:-0.979868 4:-0.19112 5:0.919312 
1 1:-0.99685 2:-0.999804 3:-0.962684 4:-0.144788 5:0.94747 
1 1:-0.974803 2:-0.999922 3:-0.928587 4:-0.333977 5:0.84616 
1 1:-0.981102 2:-0.999961 3:-0.957234 4:-0.316602 5:0.853438 
1 1:-0.993701 2:-0.999961 3:-0.983849 4:-0.137066 5:0.940228 
1 1:-0.995276 2:-0.999961 3:-0.968361 4:0.420849 5:0.932068 
1 1:-0.981102 2:-0.999647 3:-0.914576 4:-0.339768 5:0.819729 
1 1:-0.995276 2:-0.999922 3:-0.964743 4:-0.102317 5:0.956991 
1 1:-0.995276 2:-0.999961 3:-0.991996 4:0.57529 5:0.85013 
1 1:-0.995276 2:-0.999961 3:-0.995428 4:0.571429 5:0.852666 
1 1:-0.990551 2:-0.999922 3:-0.947774 4:0.212355 5:0.425699 
1 1:-0.990551 2:-0.999922 3:-0.947774 4:0.214286 5:0.430073 
1 1:-0.990551 2:-0.999922 3:-0.947774 4:0.227799 5:0.463488 
1 1:-0.990551 2:-0.999922 3:-0.947774 4:0.260618 5:0.539177 
1 1:-0.995276 2:-0.999922 3:-0.947774 4:0.252896 5:0.56796 
1 1:-0.988976 2:-0.998862 3:-0.961225 4:0.148649 5:0.950374 
1 1:-0.99685 2:-0.999411 3:-0.930735 4:0.108108 5:0.945853 
1 1:-0.968504 2:-0.999725 3:-0.930976 4:-0.121622 5:0.944492 
1 1:-0.981102 2:-0.999568 3:-0.992561 4:-0.148649 5:0.912769 
1 1:-0.998425 2:-0.999961 3:-0.994995 4:0.555985 5:0.809252 
1 1:-0.998425 2:-0.999686 3:-0.994995 4:0.565637 5:0.497822 
1 1:-0.984252 2:-0.999961 3:-0.986931 4:-0.194981 5:0.92762 
1 1:-0.990551 2:-0.999294 3:-0.991495 4:0.411197 5:0.931332 
1 1:-0.99685 2:-0.999961 3:-0.907641 4:0.249035 5:0.541897 
1 1:-0.995276 2:-0.999961 3:-0.989938 4:0.366795 5:0.955631 
1 1:-0.965354 2:-0.999961 3:-0.931969 4:0.318533 5:0.93828 
1 1:-0.982677 2:-0.999961 3:-0.931969 4:0.173745 5:0.969122 
1 1:-0.993701 2:-0.999804 3:-0.980726 4:-0.187259 5:0.926848 
1 1:-0.981102 2:-0.999215 3:-0.986528 4:-0.449807 5:0.681953 
1 1:-0.995276 2:-0.999961 3:-0.978 4:0.0675676 5:0.997831 
1 1:-0.974803 2:-0.999922 3:-0.956743 4:0.312741 5:0.974562 
1 1:-0.99685 2:-0.999961 3:-0.972349 4:0.210425 5:0.753524 
1 1:-0.995276 2:-0.999961 3:-0.96934 4:0.173745 5:0.932803 
1 1:-0.998425 2:-0.999961 3:-0.973823 4:0.330116 5:0.876229 
1 1:-0.998425 2:-0.999922 3:-0.970856 4:0.405405 5:0.824067 
1 1:-0.998425 2:-0.999922 3:-0.970856 4:0.471042 5:0.751245 
1 1:-0.998425 2:-0.999961 3:-0.967095 4:0.167954 5:0.973717 
1 1:-0.988976 2:-0.999961 3:-0.944677 4:0.0521236 5:0.991655 
1 1:-0.99685 2:-0.999804 3:-0.959694 4:-0.774131 5:0.400592 
1 1:-0.977953 2:-0.999686 3:-0.945133 4:-0.498069 5:0.718235 
1 1:-0.981102 2:-0.999843 3:-0.9709 4:-0.247104 5:0.860312 
1 1:-0.998425 2:-0.999961 3:-0.994933 4:-0.0366795 5:0.95394 
1 1:-0.995276 2:-0.999961 3:-0.978449 4:0.534749 5:0.540353 
1 1:-0.987402 2:-0.999961 3:-0.898901 4:0.507722 5:0.0506736 
1 1:-0.998425 2:-0.999961 3:-0.990956 4:-0.565637 5:0.652729 
1 1:-0.984252 2:-0.999058 3:-0.95125 4:-0.567568 5:0.43919 
1 1:-0.987402 2:-0.99949 3:-0.96052 4:-0.407336 5:0.753745 
1 1:-0.981102 2:-0.999019 3:-0.939429 4:-0.332046 5:0.835242 
1 1:-0.998425 2:-0.999882 3:-0.976072 4:-0.287645 5:0.857077 
1 1:-0.981102 2:-0.999961 3:-0.913165 4:-0.530888 5:0.505505 
1 1:-0.998425 2:-0.999961 3:-0.9071 4:-0.0694981 5:0.942838 
1 1:-0.973228 2:-0.999922 3:-0.953726 4:-0.525097 5:0.682614 
1 1:-0.998425 2:-0.999961 3:-0.98541 4:0.027027 5:0.985847 
1 1:-0.96063 2:-0.989011 3:-0.979087 4:-0.830116 5:0.253001 
1 1:-0.998425 2:-0.999176 3:-0.988832 4:-0.849421 5:0.258588 
1 1:-0.998425 2:-0.999686 3:-0.973224 4:-0.918919 5:0.158564 
1 1:-0.995276 2:-0.999843 3:-0.986187 4:-0.953668 5:-0.0214494 
1 1:-0.998425 2:-0.999961 3:-0.900179 4:-0.971042 5:-0.157866 
1 1:-0.99685 2:-0.999686 3:-0.990171 4:-0.799228 5:0.226203 
1 1:-0.985827 2:-0.999215 3:-0.93815 4:-0.324324 5:0.83991 
1 1:-0.974803 2:-0.999922 3:-0.948218 4:-0.316602 5:0.858511 
1 1:-0.984252 2:-0.999568 3:-0.912831 4:-0.19112 5:0.929053 
1 1:-0.99685 2:-0.999097 3:-0.962757 4:0.733591 5:0.726984 
1 1:-0.984252 2:-0.999686 3:-0.973012 4:-0.34749 5:0.813921 
1 1:-0.982677 2:-0.999137 3:-0.933493 4:-0.366795 5:0.81087 
1 1:-0.998425 2:-0.999961 3:-0.99366 4:0.198842 5:0.962946 
1 1:-0.974803 2:-0.999333 3:-0.934381 4:-0.428571 5:0.721433 
1 1:-0.979528 2:-0.999765 3:-0.958309 4:-0.671815 5:0.52462 
1 1:-0.976378 2:-0.99894 3:-0.933277 4:-0.488417 5:0.728711 
1 1:-0.995276 2:-0.999961 3:-0.991839 4:-0.38417 5:0.790909 
1 1:-0.998425 2:-0.999961 3:-0.985717 4:-0.243243 5:0.899792 
1 1:-0.976378 2:-0.999843 3:-0.954425 4:-0.378378 5:0.793482 
1 1:-0.985827 2:-0.999882 3:-0.949323 4:-0.187259 5:0.88983 
1 1:-0.998425 2:-0.999961 3:-0.99533 4:-0.0675676 5:0.941258 
1 1:-0.973228 2:-0.999922 3:-0.926396 4:-0.312741 5:0.790946 
1 1:-0.993701 2:-0.998901 3:-0.920575 4:-0.511583 5:0.682136 
1 1:-0.987402 2:-0.999254 3:-0.968994 4:-0.277992 5:0.882919 
1 1:-0.987402 2:-0.998391 3:-0.98792 4:-0.391892 5:0.771353 
1 1:-0.976378 2:-0.999568 3:-0.921069 4:-0.42471 5:0.776646 
1 1:-0.982677 2:-0.999725 3:-0.974315 4:-0.498069 5:0.712059 
1 1:-0.979528 2:-0.999882 3:-0.949417 4:-0.501931 5:0.701877 
1 1:-0.971654 2:-0.999922 3:-0.949873 4:-0.434363 5:0.757825 
1 1:-0.990551 2:-0.999608 3:-0.932604 4:-0.0405405 5:0.978532 
1 1:-0.973228 2:-0.999451 3:-0.930805 4:-0.694981 5:0.50635 
1 1:-0.973228 2:-0.999294 3:-0.934857 4:-0.501931 5:0.699009 
1 1:-0.998425 2:-0.999804 3:-0.944333 4:-0.351351 5:0.724153 
1 1:-0.96378 2:-0.999843 3:-0.957927 4:-0.295367 5:0.814472 
1 1:-0.984252 2:-0.999882 3:-0.948301 4:-0.430502 5:0.774882 
1 1:-0.998425 2:-0.999961 3:-0.995149 4:-0.389961 5:0.798592 
1 1:-0.987402 2:-0.999922 3:-0.964165 4:-0.353282 5:0.794107 
1 1:-0.976378 2:-0.998823 3:-0.919832 4:-0.391892 5:0.800357 
1 1:-0.982677 2:-0.999882 3:-0.928649 4:-0.194981 5:0.91321 
1 1:-0.971654 2:-0.999137 3:-0.948643 4:-0.262548 5:0.834543 
1 1:-0.995276 2:-0.999765 3:-0.98447 4:-0.220077 5:0.905049 
1 1:-0.998425 2:-0.999961 3:-0.992659 4:0.434363 5:0.515393 
1 1:-0.99685 2:-0.999686 3:-0.971823 4:0.316602 5:0.927362 
1 1:-0.998425 2:-0.999725 3:-0.901514 4:0.457529 5:0.801165 
1 1:-0.998425 2:-0.999961 3:-0.979146 4:0.567568 5:0.818406 
1 1:-0.998425 2:-0.999961 3:-0.979146 4:0.567568 5:0.818406 
1 1:-0.973228 2:-0.999333 3:-0.948829 4:0.598456 5:0.80962 
1 1:-0.968504 2:-0.999961 3:-0.917228 4:0.785714 5:0.678644 
1 1:-0.993701 2:-0.999961 3:-0.994592 4:0.561776 5:0.842888 
1 1:-0.981102 2:-0.998783 3:-0.931847 4:-0.490347 5:0.718161 
1 1:-0.979528 2:-0.999568 3:-0.957762 4:-0.351351 5:0.777639 
1 1:-0.992126 2:-0.999961 3:-0.994843 4:-0.413127 5:0.788263 
1 1:-0.979528 2:-0.999137 3:-0.918579 4:-0.314672 5:0.81076 
1 1:-0.998425 2:-0.999333 3:-0.962649 4:-0.019305 5:0.949198 
1 1:-0.977953 2:-0.999882 3:-0.935565 4:-0.245174 5:0.877626 
1 1:-0.976378 2:-0.999294 3:-0.949731 4:-0.330116 5:0.838808 
1 1:-0.966929 2:-0.999725 3:-0.919205 4:-0.316602 5:0.860974 
1 1:-0.984252 2:-0.999019 3:-0.94844 4:-0.586873 5:0.592111 
1 1:-0.984252 2:-0.999725 3:-0.960518 4:-0.409266 5:0.781977 
1 1:-0.965354 2:-0.999411 3:-0.929813 4:-0.752896 5:0.342695 
1 1:-0.977953 2:-0.999294 3:-0.9334 4:-0.272201 5:0.853107 
1 1:-0.988976 2:-0.999765 3:-0.959523 4:-0.0926641 5:0.954785 
1 1:-0.977953 2:-0.999647 3:-0.919897 4:-0.523166 5:0.692245 
1 1:-0.974803 2:-0.999882 3:-0.924045 4:-0.399614 5:0.800945 
1 1:-0.988976 2:-0.999019 3:-0.91836 4:-0.482625 5:0.7007 
1 1:-0.99685 2:-0.999922 3:-0.984181 4:-0.22973 5:0.90299 
1 1:-0.987402 2:-0.999961 3:-0.969902 4:-0.42471 5:0.745694 
1 1:-0.99685 2:-0.999961 3:-0.941152 4:0.222008 5:0.98706 
1 1:-0.99685 2:-0.999804 3:-0.955576 4:-0.581081 5:0.635047 
1 1:-0.95748 2:-0.998744 3:-0.958796 4:-0.245174 5:0.901005 
1 1:-0.970079 2:-0.997998 3:-0.946717 4:-0.150579 5:0.94497 
1 1:-0.990551 2:-0.999961 3:-0.994019 4:0.416988 5:0.675262 
1 1:-0.998425 2:-0.999333 3:-0.945635 4:0.449807 5:0.612256 
1 1:-0.995276 2:-0.999843 3:-0.932865 4:0.465251 5:0.611815 
1 1:-0.995276 2:-0.999922 3:-0.932865 4:0.449807 5:0.618211 
1 1:-0.984252 2:-0.999922 3:-0.914759 4:-0.455598 5:0.755436 
1 1:-0.99685 2:-0.998666 3:-0.931619 4:-0.19112 5:0.92637 
1 1:-0.995276 2:-0.999961 3:-0.990322 4:-0.0714286 5:0.946441 
1 1:-0.979528 2:-0.999686 3:-0.930714 4:-0.361004 5:0.828919 
1 1:-0.987402 2:-0.999215 3:-0.96434 4:-0.523166 5:0.510578 
1 1:-0.981102 2:-0.999961 3:-0.967327 4:-0.326255 5:0.833882 
1 1:-0.995276 2:-0.999882 3:-0.9553 4:0.003861 5:0.907585 
1 1:-0.984252 2:-0.999294 3:-0.944237 4:-0.274131 5:0.886779 
1 1:-0.993701 2:-0.998862 3:-0.945852 4:-0.467181 5:0.729079 
1 1:-0.982677 2:-0.999961 3:-0.9411 4:-0.30888 5:0.830647 
1 1:-0.995276 2:-0.999254 3:-0.941557 4:-0.415058 5:0.785322 
1 1:-0.976378 2:-0.999804 3:-0.913359 4:-0.46332 5:0.580863 
1 1:-0.940157 2:-0.99737 3:-0.955284 4:-0.0926641 5:0.965924 
1 1:-0.995276 2:-0.999804 3:-0.925126 4:-0.349421 5:0.783043 
1 1:-0.995276 2:-0.999961 3:-0.994499 4:-0.131274 5:0.949124 
1 1:-0.995276 2:-0.999019 3:-0.977653 4:-0.00772201 5:0.969894 
1 1:-0.99685 2:-0.998234 3:-0.974101 4:0.407336 5:0.936516 
1 1:-0.990551 2:-0.999137 3:-0.938996 4:0.0810811 5:0.995111 
1 1:-0.977953 2:-0.999372 3:-0.942737 4:-0.119691 5:0.917474 
1 1:-0.998425 2:-0.999961 3:-0.99319 4:0.401544 5:0.715184 
1 1:-0.998425 2:-0.999961 3:-0.993193 4:0.216216 5:0.962946 
1 1:-0.995276 2:-0.999961 3:-0.960083 4:0.216216 5:0.932288 
1 1:-0.995276 2:-0.999961 3:-0.973727 4:0.505792 5:0.892587 
1 1:-0.992126 2:-0.99898 3:-0.921536 4:0.355212 5:0.940155 
1 1:-0.99685 2:-0.999961 3:-0.981272 4:0.627413 5:0.79113 
1 1:-0.99685 2:-0.999961 3:-0.978105 4:0.619691 5:0.798629 
1 1:-0.998425 2:-0.999961 3:-0.969956 4:0.650579 5:0.769809 
1 1:-0.998425 2:-0.999961 3:-0.969956 4:0.642857 5:0.777382 
1 1:-0.998425 2:-0.999922 3:-0.980781 4:0.554054 5:0.816862 
1 1:-0.982677 2:-0.999254 3:-0.911975 4:0.372587 5:0.950337 
1 1:-0.987402 2:-0.999333 3:-0.970564 4:0.608108 5:0.826272 
1 1:-0.985827 2:-0.999215 3:-0.98023 4:0.646718 5:0.752899 
1 1:-0.974803 2:-0.999922 3:-0.956264 4:-0.0694981 5:0.706913 
1 1:-0.971654 2:-0.999451 3:-0.963038 4:-0.127413 5:0.828294 
1 1:-0.998425 2:-0.998234 3:-0.922444 4:-0.0965251 5:0.83333 
1 1:-0.927559 2:-0.999529 3:-0.954528 4:-0.0482625 5:0.815134 
1 1:-0.998425 2:-0.999961 3:-0.915112 4:-0.0791506 5:0.772382 
1 1:-0.995276 2:-0.999961 3:-0.991416 4:-0.11583 5:0.700811 
1 1:-0.998425 2:-0.999961 3:-0.986677 4:-0.0965251 5:0.725771 
1 1:-0.993701 2:-0.999961 3:-0.974463 4:-0.0926641 5:0.723896 
1 1:-0.992126 2:-0.999922 3:-0.934828 4:-0.142857 5:0.749554 
1 1:-0.99685 2:-0.99843 3:-0.954282 4:-0.0849421 5:0.657581 
1 1:-0.99685 2:-0.999961 3:-0.985712 4:-0.148649 5:0.835426 
1 1:-0.99685 2:-0.999961 3:-0.985712 4:-0.15444 5:0.803261 
1 1:-0.99685 2:-0.999686 3:-0.985712 4:-0.167954 5:0.739372 
1 1:-0.995276 2:-0.999451 3:-0.983951 4:-0.293436 5:0.236863 
1 1:-0.988976 2:-0.999961 3:-0.983696 4:0.38417 5:0.719411 
1 1:-0.984252 2:-0.999961 3:-0.931555 4:0.239382 5:0.736872 
1 1:-0.995276 2:-0.999686 3:-0.949466 4:-0.349421 5:0.692209 
1 1:-0.998425 2:-0.981553 3:-0.99089 4:0.444015 5:0.670447 
1 1:-0.998425 2:-0.999961 3:-0.924494 4:0.305019 5:0.586266 
1 1:-0.993701 2:-0.999961 3:-0.990273 4:0.361004 5:0.82947 
1 1:-0.988976 2:-0.999922 3:-0.987242 4:0.432432 5:0.871414 
1 1:-0.954331 2:-0.999411 3:-0.949115 4:0.372587 5:0.878177 
1 1:-0.998425 2:-0.999961 3:-0.992074 4:0.214286 5:0.993971 
1 1:-0.990551 2:-0.999765 3:-0.94404 4:0.166023 5:0.939493 
1 1:-0.985827 2:-0.995016 3:-0.957636 4:0.0714286 5:0.0636867 
1 1:-0.998425 2:-0.999961 3:-0.958363 4:0.202703 5:0.304942 
1 1:-0.992126 2:-0.996664 3:-0.989428 4:0.0482625 5:-0.990001 
1 1:-0.998425 2:-0.999961 3:-0.86906 4:0.0694981 5:-0.917253 
1 1:-0.998425 2:-0.999961 3:-0.967601 4:0.189189 5:0.660007 
1 1:-0.998425 2:-0.999961 3:-0.985539 4:0.0444015 5:0.289025 
1 1:-0.998425 2:-0.998038 3:-0.984688 4:0.127413 5:0.950852 
1 1:-0.988976 2:-0.999882 3:-0.992346 4:0.0714286 5:0.987428 
1 1:-0.998425 2:-0.999961 3:-0.991463 4:-0.420849 5:0.772015 
1 1:-0.998425 2:-0.999961 3:-0.937573 4:-0.0598456 5:0.949418 
1 1:-0.892913 2:-0.999961 3:-0.933665 4:0.501931 5:0.893359 
1 1:-0.807874 2:-0.999804 3:-0.966387 4:0.140927 5:0.999632 
1 1:-0.99685 2:-0.999961 3:-0.934303 4:0.683398 5:0.764846 
1 1:-0.998425 2:-0.999961 3:-0.912906 4:-0.239382 5:0.882662 
1 1:-0.998425 2:-0.999961 3:-0.912906 4:-0.218147 5:0.86193 
1 1:-0.932283 2:-0.997253 3:-0.993734 4:-0.451737 5:0.756722 
1 1:-0.992126 2:-0.999961 3:-0.995358 4:-0.297297 5:0.873068 
1 1:-0.987402 2:-0.999215 3:-0.916805 4:-0.38417 5:0.798372 
1 1:-0.99685 2:-0.999922 3:-0.99473 4:-0.135135 5:0.938206 
1 1:-0.982677 2:-0.999843 3:-0.945673 4:-0.183398 5:0.926002 
1 1:-0.987402 2:-0.999294 3:-0.919475 4:-0.509653 5:0.694782 
1 1:-0.998425 2:-0.999961 3:-0.901493 4:0.208494 5:-0.143419 
1 1:-0.988976 2:-0.999804 3:-0.965764 4:-0.301158 5:0.857335 
1 1:-0.993701 2:-0.999529 3:-0.943532 4:0.256757 5:0.985186 
1 1:-0.987402 2:-0.999961 3:-0.953836 4:-0.415058 5:0.742643 
1 1:-0.993701 2:-0.999961 3:-0.969395 4:-0.0135135 5:0.986583 
1 1:-0.99685 2:-0.999922 3:-0.993786 4:-0.455598 5:0.756134 
1 1:-0.982677 2:-0.999097 3:-0.972338 4:0.235521 5:0.962431 
1 1:-0.990551 2:-0.999137 3:-0.919856 4:-0.030888 5:0.980517 
1 1:-0.99685 2:-0.999922 3:-0.929356 4:-0.210425 5:0.900086 
1 1:-0.998425 2:-0.999961 3:-0.992741 4:-0.135135 5:0.857077 
1 1:-0.992126 2:-0.999961 3:-0.980192 4:-0.426641 5:0.722095 
1 1:-0.990551 2:-0.999451 3:-0.977952 4:-0.100386 5:0.929531 
1 1:-0.995276 2:-0.999097 3:-0.962499 4:-0.283784 5:0.821824 
1 1:-0.998425 2:-0.999922 3:-0.956814 4:-0.434363 5:0.576415 
1 1:-0.990551 2:-0.999961 3:-0.989063 4:-0.490347 5:0.714301 
1 1:-0.995276 2:-0.999922 3:-0.980512 4:-0.486486 5:0.716838 
1 1:-0.995276 2:-0.999961 3:-0.980512 4:-0.469112 5:0.724815 
1 1:-0.990551 2:-0.999961 3:-0.969257 4:-0.471042 5:0.720698 
1 1:-0.998425 2:-0.999882 3:-0.950457 4:-0.474903 5:0.71625 
1 1:-0.995276 2:-0.999961 3:-0.956019 4:-0.476834 5:0.708383 
1 1:-0.998425 2:-0.999843 3:-0.993383 4:-0.519305 5:0.677578 
1 1:-0.998425 2:-0.999961 3:-0.988836 4:-0.5 5:0.700994 
1 1:-0.998425 2:-0.999961 3:-0.929181 4:-0.505792 5:0.692907 
1 1:-0.998425 2:-0.999961 3:-0.988836 4:-0.527027 5:0.674527 
1 1:-0.992126 2:-0.999961 3:-0.943387 4:-0.532819 5:0.662507 
1 1:-0.998425 2:-0.999215 3:-0.994786 4:-0.592664 5:0.607992 
1 1:-0.99685 2:-0.999686 3:-0.986174 4:-0.625483 5:0.586634 
1 1:-0.998425 2:-0.999961 3:-0.995153 4:-0.388031 5:0.787821 
1 1:-0.993701 2:-0.999058 3:-0.98206 4:0.0019305 5:0.97493 
1 1:-0.998425 2:-0.999961 3:-0.993908 4:-0.447876 5:0.764038 
1 1:-0.979528 2:-0.999843 3:-0.919623 4:-0.389961 5:0.786976 
1 1:-0.992126 2:-0.999254 3:-0.967992 4:-0.220077 5:0.909644 
1 1:-0.976378 2:-0.999608 3:-0.931468 4:-0.293436 5:0.860937 
1 1:-0.993701 2:-0.99898 3:-0.921412 4:-0.457529 5:0.630158 
1 1:-0.995276 2:-0.999372 3:-0.992864 4:-0.15444 5:0.930891 
1 1:-0.998425 2:-0.999961 3:-0.982858 4:-0.355212 5:0.766207 
1 1:-0.982677 2:-0.999568 3:-0.970382 4:-0.330116 5:0.844174 
1 1:-0.985827 2:-0.999529 3:-0.977127 4:-0.341699 5:0.841932 
1 1:-0.990551 2:-0.999922 3:-0.917643 4:-0.430502 5:0.676255 
1 1:-0.977953 2:-0.999804 3:-0.963052 4:-0.619691 5:0.546198 
1 1:-0.976378 2:-0.99894 3:-0.924831 4:0.0945946 5:0.993273 
1 1:-0.988976 2:-0.999137 3:-0.913288 4:-0.247104 5:0.875016 
1 1:-0.985827 2:-0.99894 3:-0.931265 4:-0.0888031 5:0.932362 
1 1:-0.998425 2:-0.999882 3:-0.912342 4:0.019305 5:0.3803 
0.5753354069248141 1:-0.987402 2:-0.999961 3:-0.904684 4:-0.179537 5:0.118055 
1 1:-0.987402 2:-0.999804 3:-0.934851 4:-0.015444 5:0.0935358 
1 1:-0.976378 2:-0.999725 3:-0.935025 4:-0.353282 5:0.2884 
1 1:-0.99685 2:-0.997331 3:-0.929363 4:0.0482625 5:0.065782 
1 1:-0.99685 2:-0.999961 3:-0.982808 4:0.00579151 5:0.131288 
-1 1:-0.995276 2:-1 3:-0.997091 4:0.227799 5:0.840094 
-1 1:-0.954331 2:-1 3:-0.99857 4:0.343629 5:0.911078 
-1 1:-1 2:-0.999961 3:-0.995538 4:0.23166 5:0.931884 
-1 1:-1 2:-0.999961 3:-0.995454 4:-0.135135 5:0.914864 
-1 1:-1 2:-0.999961 3:-0.995445 4:0.276062 5:0.879648 
-1 1:-1 2:-0.999961 3:-0.99544 4:0.196911 5:0.937582 
-1 1:-0.998425 2:-1 3:-0.995834 4:-0.262548 5:0.856489 
-1 1:-0.998425 2:-1 3:-0.995715 4:-0.333977 5:0.844983 
-1 1:-1 2:-0.999961 3:-0.99548 4:-0.525097 5:0.655706 
-1 1:-1 2:-0.999961 3:-0.995456 4:-0.511583 5:0.65214 
-1 1:-1 2:-0.999961 3:-0.995439 4:-0.579151 5:0.589795 
-1 1:-1 2:-0.999961 3:-0.995441 4:-0.542471 5:0.535244 
-1 1:-1 2:-0.999961 3:-0.995455 4:-0.397683 5:0.793225 
-1 1:-1 2:-0.999961 3:-0.995461 4:-0.264479 5:0.861268 
-1 1:-1 2:-0.999961 3:-0.995434 4:-0.53668 5:0.68221 
-1 1:-1 2:-0.999961 3:-0.995446 4:-0.467181 5:0.729116 
-1 1:-0.985827 2:-1 3:-0.998278 4:-0.167954 5:0.92795 
-1 1:-0.998425 2:-1 3:-0.995948 4:-0.137066 5:0.95144 
-1 1:-1 2:-0.999961 3:-0.995828 4:-0.293436 5:0.328285 
-1 1:-1 2:-0.999843 3:-0.995728 4:-0.34556 5:0.296267 
-1 1:-1 2:-0.999961 3:-0.996292 4:-0.208494 5:0.237414 
-1 1:-1 2:-0.999961 3:-0.995827 4:-0.235521 5:0.238444 
-1 1:-1 2:-0.999961 3:-0.996277 4:-0.225869 5:0.166504 
-1 1:-1 2:-0.999922 3:-0.995697 4:-0.241313 5:0.201279 
-0.1834969556816478 1:-1 2:-0.999922 3:-0.99666 4:-0.249035 5:0.173011 
-1 1:-1 2:-0.999725 3:-0.995698 4:-0.223938 5:0.199074 
-1 1:-0.993701 2:-1 3:-0.996116 4:0.216216 5:0.717977 
-1 1:-1 2:-0.999961 3:-0.995559 4:0.706564 5:0.741394 
-1 1:-0.998425 2:-1 3:-0.997287 4:0.432432 5:0.579319 
-1 1:-0.998425 2:-1 3:-0.997287 4:0.430502 5:0.57851 
-1 1:-0.998425 2:-1 3:-0.997287 4:0.436293 5:0.575937 
-1 1:-1 2:-0.999961 3:-0.995448 4:0.0830116 5:0.955226 
-1 1:-1 2:-0.999961 3:-0.995437 4:-0.183398 5:0.917988 
-0.7154764370336868 1:-1 2:-0.999961 3:-0.995481 4:-0.26834 5:0.884096 
-1 1:-1 2:-0.999961 3:-0.995479 4:-0.320463 5:0.851931 
-0.984029304264975 1:-1 2:-0.999961 3:-0.995505 4:-0.583012 5:0.63501 
-1 1:-1 2:-0.999961 3:-0.995488 4:-0.0849421 5:0.935008 
-1 1:-0.992126 2:-1 3:-0.996225 4:-0.469112 5:0.706986 
-1 1:-0.998425 2:-1 3:-0.995493 4:-0.0559846 5:0.97368 
-1 1:-1 2:-0.999961 3:-0.995477 4:-0.434363 5:0.75959 
-1 1:-1 2:-0.999961 3:-0.995489 4:-0.183398 5:0.906887 
-1 1:-1 2:-0.999961 3:-0.995483 4:-0.559846 5:0.65464 
-1 1:-1 2:-0.999961 3:-0.995492 4:0.413127 5:0.93159 
-1 1:-1 2:-0.999961 3:-0.995483 4:0.289575 5:0.978863 
-1 1:-1 2:-0.999961 3:-0.995503 4:0.216216 5:0.981546 
-1 1:-1 2:-0.999961 3:-0.995437 4:-0.0810811 5:0.95655 
-1 1:-1 2:-0.999961 3:-0.995469 4:-0.0540541 5:0.975591 
-1 1:-1 2:-0.999961 3:-0.995494 4:-0.133205 5:0.902108 
-1 1:-1 2:-0.999961 3:-0.995486 4:0.34749 5:0.94497 
-1 1:-0.998425 2:-1 3:-0.998428 4:0.258687 5:0.278806 
-1 1:-0.998425 2:-1 3:-0.997868 4:0.279923 5:0.396107 
-1 1:-1 2:-0.999961 3:-0.995434 4:-0.650579 5:0.447681 
-1 1:-1 2:-0.999961 3:-0.99545 4:-0.0694981 5:0.967541 
-1 1:-0.99685 2:-1 3:-0.996028 4:-0.430502 5:0.76367 
-1 1:-1 2:-0.999961 3:-0.995483 4:-0.46139 5:0.596045 
-1 1:-1 2:-0.999961 3:-0.995485 4:-0.266409 5:0.832963 
-1 1:-0.99685 2:-1 3:-0.995751 4:-0.569498 5:0.64262 
-1 1:-1 2:-0.999961 3:-0.995457 4:-0.600386 5:0.583804 
-1 1:-1 2:-0.999961 3:-0.995533 4:0.285714 5:0.942544 
-1 1:-1 2:-0.999961 3:-0.995437 4:0.395753 5:0.928245 
-1 1:-1 2:-0.999961 3:-0.995442 4:-0.173745 5:0.936074 
-1 1:-1 2:-0.999961 3:-0.995466 4:-0.0675676 5:0.930818 
-1 1:-0.998425 2:-1 3:-0.995631 4:0.0714286 5:0.996398 
-1 1:-1 2:-0.999961 3:-0.995466 4:-0.498069 5:0.71239 
-1 1:-1 2:-0.999961 3:-0.995436 4:-0.198842 5:0.909129 
-1 1:-1 2:-0.999961 3:-0.995461 4:-0.167954 5:0.936552 
-1 1:-1 2:-0.999961 3:-0.995462 4:-0.0019305 5:0.981877 
