svm_type c_svc
kernel_type linear
nr_class 2
total_sv 171
rho 4.57495
label 1 -1
nr_sv 85 86
SV
1 1:1 2:1 3:0.438763 
1 1:5 2:42 3:0.435796 
1 1:0 2:1 3:0.580294 
1 1:0 2:2 3:0.520456 
1 1:0 2:1 3:0.45874 
1 1:0 2:4 3:0.478288 
1 1:1 2:2 3:0.423262 
1 1:0 2:1 3:0.581028 
1 1:1 2:1 3:0.62471 
1 1:0 2:3 3:0.556113 
1 1:2 2:2 3:0.610702 
1 1:0 2:2 3:0.632025 
1 1:0 2:1 3:0.528287 
1 1:0 2:4 3:0.421242 
1 1:0 2:6 3:0.475061 
1 1:0 2:1 3:0.484345 
1 1:0 2:1 3:0.502342 
1 1:1 2:1 3:0.521087 
1 1:1 2:1 3:0.460631 
1 1:0 2:1 3:0.485349 
1 1:0 2:1 3:0.490666 
1 1:0 2:1 3:0.62577 
1 1:0 2:1 3:0.426209 
1 1:0 2:1 3:0.627957 
1 1:4 2:3 3:0.441905 
1 1:0 2:1 3:0.493299 
1 1:0 2:1 3:0.61736 
1 1:0 2:4 3:0.473525 
1 1:2 2:2 3:0.546631 
1 1:0 2:1 3:0.421042 
1 1:0 2:17 3:0.425321 
1 1:0 2:17 3:0.616135 
1 1:1 2:1 3:0.546662 
1 1:0 2:1 3:0.549859 
1 1:0 2:1 3:0.583517 
0.3894454544340265 1:8 2:2 3:0.534415 
1 1:0 2:1 3:0.434599 
1 1:0 2:1 3:0.522076 
1 1:0 2:3 3:0.454212 
1 1:0 2:1 3:0.411559 
1 1:0 2:3 3:0.501527 
1 1:0 2:1 3:0.449315 
1 1:3 2:2 3:0.509136 
1 1:1 2:1 3:0.53007 
1 1:1 2:1 3:0.485412 
1 1:0 2:2 3:0.443017 
1 1:0 2:4 3:0.475437 
1 1:0 2:1 3:0.630997 
1 1:10 2:22 3:0.454093 
1 1:0 2:1 3:0.50443 
1 1:0 2:1 3:0.596087 
1 1:0 2:1 3:0.500736 
1 1:0 2:1 3:0.437306 
1 1:2 2:2 3:0.509699 
1 1:0 2:11 3:0.433988 
1 1:0 2:3 3:0.592882 
1 1:2 2:1 3:0.594078 
1 1:0 2:1 3:0.430645 
1 1:0 2:1 3:0.481935 
1 1:0 2:1 3:0.602359 
1 1:0 2:6 3:0.621015 
1 1:0 2:1 3:0.638352 
1 1:2 2:4 3:0.525389 
1 1:0 2:1 3:0.508064 
1 1:0 2:1 3:0.430161 
1 1:0 2:2 3:0.54506 
1 1:0 2:1 3:0.572699 
1 1:2 2:2 3:0.471226 
1 1:1 2:1 3:0.486235 
1 1:0 2:1 3:0.522775 
1 1:0 2:2 3:0.475337 
1 1:0 2:1 3:0.411562 
1 1:0 2:1 3:0.450569 
1 1:1 2:1 3:0.456143 
1 1:0 2:1 3:0.570747 
1 1:0 2:1 3:0.420425 
1 1:0 2:1 3:0.436762 
1 1:0 2:1 3:0.486897 
1 1:0 2:1 3:0.464255 
1 1:0 2:1 3:0.538491 
1 1:2 2:1 3:0.495198 
1 1:1 2:1 3:0.613063 
1 1:0 2:1 3:0.612818 
1 1:0 2:2 3:0.474451 
1 1:0 2:20 3:0.469446 
-1 1:0 2:1 3:0.411085 
-1 1:1 2:0 3:0.405731 
-1 1:0 2:1 3:0.410929 
-1 1:1 2:0 3:0.398176 
-1 1:0 2:1 3:0.411216 
-1 1:0 2:1 3:0.410934 
-1 1:0 2:1 3:0.411078 
-1 1:0 2:1 3:0.411226 
-1 1:1 2:0 3:0.404156 
-1 1:1 2:0 3:0.401381 
-1 1:4 2:0 3:0.364236 
-1 1:0 2:1 3:0.411216 
-1 1:0 2:1 3:0.411161 
-1 1:2 2:0 3:0.400403 
-1 1:0 2:1 3:0.410929 
-1 1:1 2:0 3:0.398328 
-1 1:1 2:0 3:0.398072 
-1 1:1 2:0 3:0.398664 
-1 1:1 2:0 3:0.401356 
-1 1:0 2:13 3:0.408806 
-1 1:0 2:128 3:0.409373 
-1 1:0 2:1 3:0.411032 
-1 1:1 2:0 3:0.406732 
-1 1:0 2:1 3:0.411115 
-1 1:0 2:1 3:0.41104 
-1 1:1 2:0 3:0.400393 
-1 1:1 2:0 3:0.407878 
-1 1:1 2:0 3:0.40821 
-1 1:0 2:1 3:0.411081 
-1 1:0 2:1 3:0.41107 
-1 1:0 2:1 3:0.410972 
-1 1:1 2:0 3:0.401724 
-1 1:1 2:0 3:0.410742 
-1 1:3 2:0 3:0.380319 
-1 1:0 2:1 3:0.411252 
-1 1:2 2:0 3:0.388235 
-1 1:0 2:1 3:0.410955 
-1 1:0 2:1 3:0.411237 
-1 1:0 2:1 3:0.411088 
-1 1:0 2:1 3:0.411148 
-1 1:2 2:0 3:0.395664 
-1 1:2 2:0 3:0.384889 
-1 1:2 2:0 3:0.403939 
-1 1:0 2:1 3:0.410955 
-1 1:0 2:1 3:0.410966 
-1 1:2 2:0 3:0.401607 
-1 1:0 2:1 3:0.411235 
-1 1:0 2:1 3:0.411235 
-1 1:1 2:0 3:0.401467 
-1 1:0 2:1 3:0.410934 
-1 1:1 2:0 3:0.406425 
-1 1:2 2:0 3:0.394537 
-1 1:0 2:1 3:0.411216 
-1 1:0 2:1 3:0.411081 
-1 1:1 2:0 3:0.408541 
-1 1:0 2:1 3:0.411215 
-1 1:0 2:1 3:0.411224 
-1 1:0 2:1 3:0.41106 
-1 1:0 2:1 3:0.411151 
-1 1:0 2:1 3:0.411215 
-1 1:1 2:0 3:0.402898 
-1 1:0 2:1 3:0.411246 
-1 1:2 2:0 3:0.408541 
-1 1:1 2:0 3:0.41034 
-1 1:0 2:1 3:0.41104 
-1 1:0 2:1 3:0.411161 
-1 1:0 2:1 3:0.41106 
-1 1:0 2:1 3:0.411252 
-0.08308481800222725 1:0 2:788 3:0.257843 
-1 1:0 2:1 3:0.411085 
-1 1:0 2:1 3:0.411253 
-1 1:1 2:0 3:0.406662 
-1 1:0 2:1 3:0.411252 
-1 1:1 2:0 3:0.400114 
-1 1:0 2:1 3:0.411037 
-1 1:0 2:1 3:0.411081 
-1 1:0 2:1 3:0.410929 
-1 1:0 2:4 3:0.411226 
-1 1:0 2:1 3:0.411078 
-1 1:1 2:0 3:0.40208 
-1 1:1 2:0 3:0.401833 
-1 1:1 2:0 3:0.409367 
-1 1:1 2:0 3:0.403439 
-0.3063606364317953 1:0 2:1 3:0.410929 
-1 1:1 2:0 3:0.40858 
-1 1:1 2:0 3:0.408542 
