svm_type c_svc
kernel_type linear
nr_class 2
total_sv 175
rho 4.67687
label 1 -1
nr_sv 87 88
SV
1 1:0 2:1 3:0.580294 
1 1:0 2:2 3:0.520456 
1 1:0 2:13 3:0.458489 
1 1:0 2:1 3:0.45874 
1 1:0 2:4 3:0.478288 
1 1:0 2:1 3:0.450133 
1 1:1 2:2 3:0.423262 
1 1:0 2:1 3:0.487118 
1 1:0 2:1 3:0.430807 
1 1:0 2:1 3:0.567038 
1 1:1 2:1 3:0.62471 
1 1:0 2:13 3:0.48331 
1 1:2 2:2 3:0.610702 
1 1:0 2:1 3:0.478691 
1 1:0 2:2 3:0.632025 
1 1:0 2:4 3:0.421242 
1 1:0 2:2 3:0.627087 
1 1:0 2:6 3:0.475061 
1 1:1 2:1 3:0.494528 
1 1:0 2:1 3:0.484345 
1 1:0 2:1 3:0.569068 
1 1:18 2:3 3:0.500595 
1 1:4 2:1 3:0.573596 
1 1:1 2:1 3:0.460631 
1 1:0 2:1 3:0.604853 
1 1:0 2:1 3:0.490666 
1 1:0 2:1 3:0.62577 
1 1:0 2:1 3:0.463664 
1 1:0 2:1 3:0.426209 
1 1:1 2:10 3:0.484857 
1 1:0 2:1 3:0.627957 
1 1:4 2:3 3:0.441905 
1 1:1 2:2 3:0.512224 
1 1:0 2:1 3:0.61736 
1 1:0 2:17 3:0.425321 
1 1:0 2:1 3:0.549859 
1 1:0 2:1 3:0.583517 
1 1:0 2:1 3:0.583517 
1 1:0 2:1 3:0.434599 
1 1:0 2:1 3:0.596446 
1 1:0 2:3 3:0.454212 
1 1:0 2:2 3:0.569393 
1 1:0 2:1 3:0.48528 
1 1:0 2:1 3:0.514089 
1 1:0 2:1 3:0.411559 
1 1:0 2:3 3:0.501527 
1 1:3 2:1 3:0.607371 
1 1:3 2:2 3:0.509136 
1 1:0 2:1 3:0.4225 
1 1:0 2:1 3:0.630997 
1 1:1 2:1 3:0.52021 
1 1:0 2:1 3:0.553904 
1 1:0 2:1 3:0.453851 
1 1:0 2:1 3:0.500736 
1 1:0 2:1 3:0.521855 
1 1:0 2:11 3:0.433988 
1 1:0 2:3 3:0.592882 
1 1:2 2:1 3:0.594078 
1 1:3 2:1 3:0.538738 
1 1:0 2:1 3:0.481935 
1 1:0 2:1 3:0.437272 
1 1:0 2:1 3:0.602359 
1 1:0 2:6 3:0.621015 
1 1:2 2:4 3:0.525389 
1 1:2 2:494 3:0.525389 
1 1:0 2:1 3:0.519433 
1 1:0 2:1 3:0.478595 
1 1:0 2:1 3:0.430161 
1 1:0 2:2 3:0.54506 
1 1:0 2:1 3:0.523713 
1 1:0 2:1 3:0.572699 
1 1:0 2:1 3:0.46754 
1 1:0 2:1 3:0.41311 
1 1:2 2:2 3:0.471226 
1 1:0 2:1 3:0.518854 
1 1:0 2:1 3:0.450569 
1 1:0 2:8 3:0.450569 
1 1:0 2:1 3:0.436762 
1 1:0 2:1 3:0.464255 
1 1:1 2:1 3:0.613063 
1 1:0 2:1 3:0.417953 
1 1:0 2:2 3:0.474451 
1 1:2 2:2 3:0.559451 
1 1:0 2:4 3:0.595757 
1 1:0 2:20 3:0.469446 
1 1:0 2:1 3:0.436393 
1 1:0 2:1 3:0.548405 
-1 1:0 2:1 3:0.410839 
-1 1:0 2:1 3:0.41109 
-0.5999608605157355 1:0 2:1 3:0.410808 
-1 1:0 2:1 3:0.410888 
-1 1:0 2:1 3:0.410879 
-1 1:0 2:1 3:0.411253 
-1 1:0 2:1 3:0.411226 
-1 1:0 2:1 3:0.410934 
-1 1:0 2:1 3:0.411081 
-1 1:0 2:1 3:0.411042 
-1 1:0 2:1 3:0.411216 
-1 1:0 2:1 3:0.411161 
-1 1:0 2:1 3:0.410832 
-1 1:0 2:1 3:0.410929 
-1 1:0 2:1 3:0.410816 
-1 1:0 2:1 3:0.410928 
-0.8800580573016715 1:38 2:722 3:0.372817 
-1 1:0 2:1 3:0.410815 
-1 1:0 2:1 3:0.411032 
-1 1:0 2:1 3:0.410891 
-1 1:1 2:0 3:0.406732 
-1 1:0 2:1 3:0.41083 
-1 1:1 2:0 3:0.408854 
-1 1:1 2:0 3:0.409564 
-1 1:0 2:1 3:0.410832 
-1 1:0 2:1 3:0.411078 
-1 1:0 2:1 3:0.411246 
-1 1:2 2:0 3:0.40498 
-1 1:0 2:1 3:0.411252 
-1 1:0 2:1 3:0.411081 
-1 1:1 2:0 3:0.407349 
-1 1:0 2:1 3:0.411224 
-1 1:0 2:1 3:0.411237 
-1 1:0 2:1 3:0.411088 
-1 1:0 2:1 3:0.411148 
-1 1:0 2:1 3:0.411143 
-1 1:0 2:1 3:0.410828 
-1 1:0 2:1 3:0.411114 
-1 1:0 2:1 3:0.411016 
-1 1:2 2:0 3:0.403939 
-1 1:0 2:1 3:0.411237 
-1 1:0 2:1 3:0.410911 
-1 1:0 2:1 3:0.410885 
-1 1:0 2:1 3:0.411235 
-1 1:0 2:1 3:0.410842 
-1 1:0 2:1 3:0.41091 
-1 1:0 2:1 3:0.411235 
-1 1:0 2:1 3:0.410891 
-1 1:0 2:1 3:0.410934 
-0.5200703394876636 1:1 2:0 3:0.406425 
-1 1:0 2:1 3:0.411216 
-1 1:0 2:1 3:0.411081 
-1 1:1 2:0 3:0.408541 
-1 1:0 2:1 3:0.410881 
-1 1:0 2:1 3:0.41106 
-1 1:0 2:1 3:0.411151 
-1 1:0 2:1 3:0.410966 
-1 1:0 2:1 3:0.411226 
-1 1:0 2:1 3:0.411194 
-1 1:0 2:1 3:0.411215 
-1 1:0 2:1 3:0.411215 
-1 1:0 2:1 3:0.410815 
-1 1:2 2:0 3:0.405853 
-1 1:0 2:1 3:0.410881 
-1 1:2 2:0 3:0.408541 
-1 1:0 2:1 3:0.41104 
-1 1:0 2:1 3:0.410885 
-1 1:0 2:1 3:0.411161 
-1 1:0 2:1 3:0.41106 
-1 1:0 2:1 3:0.411253 
-1 1:0 2:1 3:0.411085 
-1 1:1 2:0 3:0.406662 
-1 1:0 2:1 3:0.411252 
-1 1:2 2:0 3:0.406792 
-1 1:0 2:1 3:0.410934 
-1 1:1 2:0 3:0.410042 
-1 1:0 2:1 3:0.410839 
-1 1:2 2:0 3:0.407609 
-1 1:0 2:1 3:0.411081 
-1 1:0 2:1 3:0.410929 
-0.9999107426949351 1:0 2:4 3:0.411226 
-1 1:0 2:1 3:0.410833 
-1 1:0 2:1 3:0.410934 
-1 1:0 2:1 3:0.411018 
-1 1:1 2:0 3:0.409367 
-1 1:0 2:1 3:0.410839 
-1 1:0 2:1 3:0.410929 
-1 1:1 2:0 3:0.408542 
