svm_type c_svc
kernel_type rbf
gamma 0.333333
nr_class 2
total_sv 1834
rho 0.321327
label 1 -1
probA -65.7097
probB -60.8951
nr_sv 917 917
SV
1 1:-0.99685 2:-0.999961 3:-0.932251 
1 1:-0.985827 2:-0.999961 3:-0.969072 
1 1:-0.995276 2:-0.999961 3:-0.989685 
1 1:-0.99685 2:-0.999961 3:-0.948661 
1 1:-0.99685 2:-0.999961 3:-0.951103 
1 1:-0.981102 2:-0.999254 3:-0.912388 
1 1:-1 2:-0.999922 3:-0.908837 
1 1:-1 2:-0.999882 3:-0.964535 
1 1:-0.990551 2:-0.999804 3:-0.949561 
1 1:-1 2:-0.999961 3:-0.943492 
1 1:-1 2:-0.999961 3:-0.943492 
1 1:-1 2:-0.999961 3:-0.943492 
1 1:-0.998425 2:-0.999961 3:-0.994067 
1 1:-0.992126 2:-0.998352 3:-0.994107 
1 1:-0.974803 2:-0.999804 3:-0.916952 
1 1:-0.992126 2:-0.999333 3:-0.933276 
1 1:-0.977953 2:-0.999765 3:-0.941873 
1 1:-1 2:-0.999568 3:-0.954218 
1 1:-0.973228 2:-0.999961 3:-0.940062 
1 1:-1 2:-0.999725 3:-0.960556 
1 1:-0.99685 2:-0.999922 3:-0.971717 
1 1:-1 2:-0.99949 3:-0.9938 
1 1:-1 2:-0.999804 3:-0.985176 
1 1:-0.979528 2:-0.999097 3:-0.944197 
1 1:-0.987402 2:-0.999097 3:-0.94827 
1 1:-0.998425 2:-0.999882 3:-0.989862 
1 1:-0.977953 2:-0.999961 3:-0.954731 
1 1:-0.998425 2:-0.999922 3:-0.969936 
1 1:-0.99685 2:-0.999882 3:-0.942968 
1 1:-0.998425 2:-0.985753 3:-0.931761 
1 1:-0.998425 2:-0.999254 3:-0.960013 
1 1:-0.99685 2:-0.998038 3:-0.991126 
1 1:-0.99685 2:-0.998155 3:-0.986091 
1 1:-0.941732 2:-0.9927 3:-0.970963 
1 1:-0.933858 2:-0.999333 3:-0.937178 
1 1:-0.998425 2:-0.999294 3:-0.95629 
1 1:-0.993701 2:-0.998862 3:-0.937178 
1 1:-0.976378 2:-0.999961 3:-0.968323 
1 1:-1 2:-0.999843 3:-0.9386 
1 1:-1 2:-0.999961 3:-0.930812 
1 1:-0.998425 2:-0.999961 3:-0.955168 
1 1:-1 2:-0.999922 3:-0.9177 
1 1:-1 2:-0.999882 3:-0.977143 
1 1:-0.990551 2:-0.998626 3:-0.924455 
1 1:-0.977953 2:-0.999922 3:-0.93713 
1 1:-0.982677 2:-0.999647 3:-0.930674 
1 1:-1 2:-0.999686 3:-0.968148 
1 1:-1 2:-0.999961 3:-0.990964 
1 1:-0.981102 2:-0.999765 3:-0.918165 
1 1:-0.998425 2:-0.999843 3:-0.975721 
1 1:-0.988976 2:-0.999176 3:-0.932844 
1 1:-0.990551 2:-0.999019 3:-0.968953 
1 1:-0.984252 2:-0.999372 3:-0.944257 
1 1:-0.993701 2:-0.999254 3:-0.966598 
1 1:-0.981102 2:-0.999058 3:-0.927791 
1 1:-0.985827 2:-0.999686 3:-0.945358 
1 1:-0.981102 2:-0.999372 3:-0.941442 
1 1:-0.973228 2:-0.999686 3:-0.944547 
1 1:-0.99685 2:-0.999725 3:-0.98541 
1 1:-0.998425 2:-0.999922 3:-0.980985 
1 1:-1 2:-0.999961 3:-0.993913 
1 1:-0.966929 2:-0.998352 3:-0.994044 
1 1:-0.976378 2:-0.999411 3:-0.927902 
1 1:-0.977953 2:-0.999019 3:-0.953005 
1 1:-0.99685 2:-0.998862 3:-0.948213 
1 1:-1 2:-0.999215 3:-0.980956 
1 1:-1 2:-0.999961 3:-0.991009 
1 1:-0.998425 2:-0.999882 3:-0.989382 
1 1:-1 2:-0.999922 3:-0.957977 
1 1:-1 2:-0.999725 3:-0.948283 
1 1:-0.99685 2:-0.998783 3:-0.94178 
1 1:-1 2:-0.999961 3:-0.993413 
1 1:-1 2:-0.999922 3:-0.982252 
1 1:-1 2:-0.999922 3:-0.953974 
1 1:-1 2:-0.999411 3:-0.925347 
1 1:-0.995276 2:-0.99898 3:-0.986485 
1 1:-0.998425 2:-0.999333 3:-0.967285 
1 1:-0.977953 2:-0.999686 3:-0.960377 
1 1:-0.995276 2:-0.999725 3:-0.978549 
1 1:-0.984252 2:-0.999804 3:-0.980782 
1 1:-0.981102 2:-0.999804 3:-0.952899 
1 1:-0.982677 2:-0.99894 3:-0.921026 
1 1:-0.985827 2:-0.999333 3:-0.939587 
1 1:-1 2:-0.999961 3:-0.994174 
1 1:-0.974803 2:-0.999882 3:-0.948758 
1 1:-0.987402 2:-0.999882 3:-0.955193 
1 1:-1 2:-0.999961 3:-0.992332 
1 1:-1 2:-0.999765 3:-0.956423 
1 1:-0.981102 2:-0.999568 3:-0.976852 
1 1:-0.998425 2:-0.999961 3:-0.983014 
1 1:-0.973228 2:-0.999882 3:-0.925245 
1 1:-0.987402 2:-0.999765 3:-0.921946 
1 1:-0.987402 2:-0.999333 3:-0.980078 
1 1:-0.985827 2:-0.999176 3:-0.953529 
1 1:-0.974803 2:-0.999725 3:-0.934753 
1 1:-0.985827 2:-0.999725 3:-0.963161 
1 1:-0.987402 2:-0.999843 3:-0.945868 
1 1:-0.981102 2:-0.999765 3:-0.967605 
1 1:-0.982677 2:-0.999019 3:-0.944249 
1 1:-1 2:-0.999961 3:-0.992143 
1 1:-0.984252 2:-0.999529 3:-0.919581 
1 1:-0.987402 2:-0.999647 3:-0.937405 
1 1:-0.990551 2:-0.999686 3:-0.962328 
1 1:-1 2:-0.999765 3:-0.983627 
1 1:-0.982677 2:-0.999058 3:-0.915558 
1 1:-1 2:-0.999882 3:-0.99248 
1 1:-1 2:-0.999961 3:-0.988676 
1 1:-1 2:-0.99949 3:-0.993464 
1 1:-0.96378 2:-0.999647 3:-0.936953 
1 1:-1 2:-0.999961 3:-0.993527 
1 1:-0.984252 2:-0.999725 3:-0.951658 
1 1:-1 2:-0.999961 3:-0.98536 
1 1:-0.992126 2:-0.999176 3:-0.949205 
1 1:-0.981102 2:-0.999804 3:-0.966996 
1 1:-1 2:-0.999961 3:-0.992856 
1 1:-0.995276 2:-0.99898 3:-0.930402 
1 1:-0.995276 2:-0.99949 3:-0.963754 
1 1:-0.988976 2:-0.999411 3:-0.94216 
1 1:-0.990551 2:-0.999804 3:-0.965848 
1 1:-0.982677 2:-0.999765 3:-0.980532 
1 1:-0.984252 2:-0.999765 3:-0.973457 
1 1:-0.985827 2:-0.999922 3:-0.922615 
1 1:-1 2:-0.999961 3:-0.989825 
1 1:-1 2:-0.999922 3:-0.99152 
1 1:-1 2:-0.999765 3:-0.993576 
1 1:-1 2:-0.999765 3:-0.993576 
1 1:-1 2:-0.999961 3:-0.970721 
1 1:-0.988976 2:-0.999647 3:-0.964627 
1 1:-0.981102 2:-0.999765 3:-0.965823 
1 1:-0.981102 2:-0.999961 3:-0.933964 
1 1:-0.987402 2:-0.999411 3:-0.952831 
1 1:-0.998425 2:-0.999961 3:-0.922182 
1 1:-0.973228 2:-0.999882 3:-0.913296 
1 1:-0.985827 2:-0.999137 3:-0.921098 
1 1:-0.985827 2:-0.999372 3:-0.937508 
1 1:-0.995276 2:-0.999961 3:-0.95986 
1 1:-0.988976 2:-0.999137 3:-0.937762 
1 1:-0.984252 2:-0.999961 3:-0.972901 
1 1:-0.981102 2:-0.999765 3:-0.964472 
1 1:-0.984252 2:-0.999333 3:-0.927582 
1 1:-0.998425 2:-0.999961 3:-0.993313 
1 1:-0.988976 2:-0.999765 3:-0.930091 
1 1:-0.987402 2:-0.999961 3:-0.918376 
1 1:-1 2:-0.999961 3:-0.978071 
1 1:-1 2:-0.999961 3:-0.992305 
1 1:-0.995276 2:-0.999961 3:-0.929097 
1 1:-0.998425 2:-0.999765 3:-0.987668 
1 1:-0.971654 2:-0.999882 3:-0.993231 
1 1:-0.990551 2:-0.999961 3:-0.941611 
1 1:-0.973228 2:-0.999804 3:-0.932667 
1 1:-1 2:-0.999961 3:-0.954573 
1 1:-1 2:-0.999961 3:-0.967821 
1 1:-1 2:-0.999961 3:-0.993207 
1 1:-1 2:-0.999922 3:-0.928677 
1 1:-0.99685 2:-0.999961 3:-0.974919 
1 1:-0.998425 2:-0.999961 3:-0.95345 
1 1:-0.998425 2:-0.999922 3:-0.984106 
1 1:-1 2:-0.999961 3:-0.966067 
1 1:-1 2:-0.999961 3:-0.985089 
1 1:-1 2:-0.999961 3:-0.979753 
1 1:-0.99685 2:-0.999961 3:-0.98948 
1 1:-0.995276 2:-0.999961 3:-0.976497 
1 1:-0.982677 2:-0.999922 3:-0.922464 
1 1:-1 2:-0.999961 3:-0.989519 
1 1:-0.971654 2:-0.999686 3:-0.927436 
1 1:-0.977953 2:-0.999922 3:-0.925301 
1 1:-0.982677 2:-0.999372 3:-0.935643 
1 1:-0.982677 2:-0.999882 3:-0.923842 
1 1:-0.993701 2:-0.999961 3:-0.992243 
1 1:-0.985827 2:-0.999882 3:-0.944081 
1 1:-0.998425 2:-0.999961 3:-0.992954 
1 1:-0.995276 2:-0.999451 3:-0.915006 
1 1:-0.993701 2:-0.999804 3:-0.921344 
1 1:-0.988976 2:-0.999176 3:-0.911034 
1 1:-1 2:-0.999882 3:-0.952444 
1 1:-1 2:-0.999922 3:-0.966846 
1 1:-0.984252 2:-0.998783 3:-0.946476 
1 1:-1 2:-0.999961 3:-0.976461 
1 1:-0.990551 2:-0.99949 3:-0.957424 
1 1:-1 2:-0.999804 3:-0.983357 
1 1:-1 2:-0.999961 3:-0.918714 
1 1:-1 2:-0.999961 3:-0.991821 
1 1:-1 2:-0.999961 3:-0.993437 
1 1:-0.984252 2:-0.999843 3:-0.949964 
1 1:-0.977953 2:-0.999843 3:-0.916624 
1 1:-0.987402 2:-0.999097 3:-0.949276 
1 1:-1 2:-0.999961 3:-0.939865 
1 1:-1 2:-0.999961 3:-0.952749 
1 1:-0.979528 2:-0.999922 3:-0.919658 
1 1:-1 2:-0.999765 3:-0.976771 
1 1:-1 2:-0.999961 3:-0.99373 
1 1:-1 2:-0.999961 3:-0.959187 
1 1:-0.998425 2:-0.999529 3:-0.953606 
1 1:-0.982677 2:-0.999372 3:-0.92097 
1 1:-1 2:-0.999961 3:-0.988029 
1 1:-0.984252 2:-0.999019 3:-0.971463 
1 1:-0.984252 2:-0.999451 3:-0.96513 
1 1:-0.979528 2:-0.999843 3:-0.967323 
1 1:-1 2:-0.999961 3:-0.965097 
1 1:-1 2:-0.999058 3:-0.975219 
1 1:-1 2:-0.999961 3:-0.964059 
1 1:-1 2:-0.999843 3:-0.972969 
1 1:-0.998425 2:-0.999922 3:-0.985024 
1 1:-1 2:-0.999961 3:-0.921426 
1 1:-0.998425 2:-0.999608 3:-0.993443 
1 1:-0.998425 2:-0.999765 3:-0.959706 
1 1:-0.987402 2:-0.999922 3:-0.940713 
1 1:-1 2:-0.999804 3:-0.964296 
1 1:-0.992126 2:-0.99898 3:-0.92712 
1 1:-1 2:-0.999882 3:-0.977188 
1 1:-0.993701 2:-0.998116 3:-0.989325 
1 1:-0.988976 2:-0.999411 3:-0.976419 
1 1:-1 2:-0.99898 3:-0.91031 
1 1:-0.988976 2:-0.999961 3:-0.958025 
1 1:-0.998425 2:-0.999568 3:-0.981164 
1 1:-0.99685 2:-0.999922 3:-0.915784 
1 1:-1 2:-0.999961 3:-0.957255 
1 1:-1 2:-0.999961 3:-0.957255 
1 1:-1 2:-0.999961 3:-0.978376 
1 1:-1 2:-0.999568 3:-0.989666 
1 1:-1 2:-0.999882 3:-0.95406 
1 1:-1 2:-0.999843 3:-0.985705 
1 1:-0.998425 2:-0.999608 3:-0.922189 
1 1:-0.995276 2:-0.999961 3:-0.983999 
1 1:-1 2:-0.999568 3:-0.981556 
1 1:-0.985827 2:-0.998862 3:-0.914505 
1 1:-0.998425 2:-0.999765 3:-0.938285 
1 1:-1 2:-0.999961 3:-0.98561 
1 1:-0.979528 2:-0.999804 3:-0.975297 
1 1:-0.981102 2:-0.999411 3:-0.923339 
1 1:-1 2:-0.998587 3:-0.959772 
1 1:-0.998425 2:-0.999922 3:-0.993073 
1 1:-1 2:-0.999961 3:-0.948333 
1 1:-0.992126 2:-0.999568 3:-0.963154 
1 1:-0.998425 2:-0.999961 3:-0.984903 
1 1:-0.99685 2:-0.999961 3:-0.988584 
1 1:-1 2:-0.999922 3:-0.969716 
1 1:-1 2:-0.999961 3:-0.969716 
1 1:-1 2:-0.999961 3:-0.912585 
1 1:-0.992126 2:-0.999843 3:-0.971721 
1 1:-0.977953 2:-0.999294 3:-0.912109 
1 1:-0.977953 2:-0.999686 3:-0.936498 
1 1:-0.979528 2:-0.999882 3:-0.966125 
1 1:-1 2:-0.999961 3:-0.993329 
1 1:-0.990551 2:-0.999137 3:-0.961722 
1 1:-0.998425 2:-0.999411 3:-0.910621 
1 1:-0.988976 2:-0.999019 3:-0.950937 
1 1:-1 2:-0.999961 3:-0.958602 
1 1:-0.990551 2:-0.998901 3:-0.933808 
1 1:-0.995276 2:-0.999882 3:-0.943125 
1 1:-0.998425 2:-0.993603 3:-0.972598 
1 1:-0.990551 2:-0.999451 3:-0.930828 
1 1:-0.988976 2:-0.999843 3:-0.949854 
1 1:-0.99685 2:-0.999451 3:-0.917046 
1 1:-0.985827 2:-0.999882 3:-0.960401 
1 1:-1 2:-0.999961 3:-0.990585 
1 1:-0.976378 2:-0.999843 3:-0.964056 
1 1:-0.988976 2:-0.999176 3:-0.970924 
1 1:-0.981102 2:-0.999922 3:-0.930992 
1 1:-0.973228 2:-0.999843 3:-0.916716 
1 1:-0.992126 2:-0.999097 3:-0.925114 
1 1:-1 2:-0.999961 3:-0.928475 
1 1:-0.992126 2:-0.999254 3:-0.926085 
1 1:-1 2:-0.999922 3:-0.974986 
1 1:-1 2:-0.999922 3:-0.974986 
1 1:-1 2:-0.999843 3:-0.930058 
1 1:-1 2:-0.999882 3:-0.956865 
1 1:-1 2:-0.999843 3:-0.962939 
1 1:-1 2:-0.999843 3:-0.971492 
1 1:-1 2:-0.999882 3:-0.956865 
1 1:-1 2:-0.999843 3:-0.993597 
1 1:-0.988976 2:-0.999254 3:-0.985868 
1 1:-1 2:-0.999961 3:-0.984695 
1 1:-1 2:-0.999922 3:-0.96917 
1 1:-0.99685 2:-0.999922 3:-0.992608 
1 1:-1 2:-0.999961 3:-0.978318 
1 1:-1 2:-0.999882 3:-0.986239 
1 1:-1 2:-0.999961 3:-0.994306 
1 1:-1 2:-0.999333 3:-0.991668 
1 1:-1 2:-0.999725 3:-0.956378 
1 1:-1 2:-0.999961 3:-0.97841 
1 1:-0.987402 2:-0.999961 3:-0.969516 
1 1:-1 2:-0.999922 3:-0.92097 
1 1:-1 2:-0.999019 3:-0.984969 
1 1:-0.998425 2:-0.999961 3:-0.992608 
1 1:-0.99685 2:-0.999451 3:-0.960359 
1 1:-1 2:-0.999254 3:-0.95517 
1 1:-0.976378 2:-0.99894 3:-0.976494 
1 1:-0.995276 2:-0.999961 3:-0.930443 
1 1:-0.987402 2:-0.99894 3:-0.915534 
1 1:-1 2:-0.999215 3:-0.920147 
1 1:-1 2:-0.999961 3:-0.992109 
1 1:-0.988976 2:-0.999961 3:-0.943825 
1 1:-0.998425 2:-0.999961 3:-0.940716 
1 1:-1 2:-0.999961 3:-0.983639 
1 1:-1 2:-0.999843 3:-0.96856 
1 1:-1 2:-0.999686 3:-0.978859 
1 1:-1 2:-0.998901 3:-0.983958 
1 1:-1 2:-0.999961 3:-0.985364 
1 1:-1 2:-0.999961 3:-0.983418 
1 1:-1 2:-0.999843 3:-0.984121 
1 1:-1 2:-0.999843 3:-0.921731 
1 1:-1 2:-0.999961 3:-0.955894 
1 1:-1 2:-0.999922 3:-0.948605 
1 1:-1 2:-0.999529 3:-0.93011 
1 1:-1 2:-0.999922 3:-0.971063 
1 1:-1 2:-0.999961 3:-0.963466 
1 1:-1 2:-0.999961 3:-0.991132 
1 1:-0.99685 2:-0.999372 3:-0.978954 
1 1:-0.987402 2:-0.999922 3:-0.992773 
1 1:-0.982677 2:-0.999961 3:-0.911602 
1 1:-1 2:-0.999961 3:-0.991934 
1 1:-0.973228 2:-0.999686 3:-0.992112 
1 1:-1 2:-0.999961 3:-0.990176 
1 1:-1 2:-0.999961 3:-0.971785 
1 1:-1 2:-0.999882 3:-0.988662 
1 1:-1 2:-0.999961 3:-0.991223 
1 1:-1 2:-0.999882 3:-0.986311 
1 1:-0.981102 2:-0.999922 3:-0.961421 
1 1:-0.998425 2:-0.999608 3:-0.986862 
1 1:-1 2:-0.999961 3:-0.99294 
1 1:-1 2:-0.999922 3:-0.9923 
1 1:-1 2:-0.999961 3:-0.991288 
1 1:-0.995276 2:-0.999411 3:-0.917763 
1 1:-1 2:-0.999843 3:-0.990038 
1 1:-1 2:-0.999843 3:-0.953725 
1 1:-1 2:-0.999882 3:-0.989105 
1 1:-0.981102 2:-0.998862 3:-0.937915 
1 1:-0.976378 2:-0.999804 3:-0.922143 
1 1:-1 2:-0.999961 3:-0.993438 
1 1:-0.976378 2:-0.998901 3:-0.912237 
1 1:-0.984252 2:-0.999843 3:-0.958947 
1 1:-1 2:-0.999961 3:-0.993048 
1 1:-1 2:-0.999961 3:-0.989872 
1 1:-0.981102 2:-0.999843 3:-0.950543 
1 1:-0.982677 2:-0.999804 3:-0.937852 
1 1:-0.995276 2:-0.999568 3:-0.982976 
1 1:-1 2:-0.999804 3:-0.976548 
1 1:-0.982677 2:-0.999804 3:-0.9364 
1 1:-0.984252 2:-0.999843 3:-0.917198 
1 1:-0.977953 2:-0.99894 3:-0.950875 
1 1:-0.977953 2:-0.999254 3:-0.920148 
1 1:-1 2:-0.999961 3:-0.993924 
1 1:-0.949606 2:-0.999608 3:-0.948439 
1 1:-0.995276 2:-0.999804 3:-0.978653 
1 1:-1 2:-0.999961 3:-0.979954 
1 1:-0.987402 2:-0.999019 3:-0.940373 
1 1:-0.99685 2:-0.998548 3:-0.972332 
1 1:-0.995276 2:-0.999961 3:-0.949777 
1 1:-1 2:-0.999961 3:-0.950738 
1 1:-1 2:-0.999961 3:-0.907403 
1 1:-1 2:-0.999804 3:-0.930723 
1 1:-0.995276 2:-0.999097 3:-0.914229 
1 1:-0.987402 2:-0.999843 3:-0.921325 
1 1:-1 2:-0.998744 3:-0.926622 
1 1:-0.974803 2:-0.999097 3:-0.916956 
1 1:-0.970079 2:-0.999647 3:-0.92339 
1 1:-0.979528 2:-0.999215 3:-0.991089 
1 1:-0.971654 2:-0.999647 3:-0.962791 
1 1:-0.998425 2:-0.99949 3:-0.977847 
1 1:-0.96063 2:-0.998352 3:-0.985837 
1 1:-1 2:-0.999961 3:-0.982292 
1 1:-0.987402 2:-0.999922 3:-0.971242 
1 1:-0.984252 2:-0.999137 3:-0.950129 
1 1:-0.993701 2:-0.999097 3:-0.955182 
1 1:-1 2:-0.999961 3:-0.951948 
1 1:-0.982677 2:-0.999843 3:-0.946628 
1 1:-0.974803 2:-0.999765 3:-0.951714 
1 1:-0.982677 2:-0.99949 3:-0.928508 
1 1:-0.985827 2:-0.999961 3:-0.959369 
1 1:-0.979528 2:-0.999372 3:-0.923697 
1 1:-0.954331 2:-0.99898 3:-0.990725 
1 1:-1 2:-0.999922 3:-0.956772 
1 1:-0.979528 2:-0.999804 3:-0.9411 
1 1:-0.985827 2:-0.999961 3:-0.930647 
1 1:-0.988976 2:-0.99898 3:-0.918053 
1 1:-0.979528 2:-0.999451 3:-0.961749 
1 1:-0.971654 2:-0.999765 3:-0.95131 
1 1:-0.982677 2:-0.999922 3:-0.954918 
1 1:-0.973228 2:-0.999882 3:-0.917919 
1 1:-1 2:-0.999961 3:-0.940083 
1 1:-0.992126 2:-0.999725 3:-0.959012 
1 1:-1 2:-0.999961 3:-0.994287 
1 1:-0.998425 2:-0.999176 3:-0.972468 
1 1:-1 2:-0.999882 3:-0.974621 
1 1:-0.988976 2:-0.999058 3:-0.939875 
1 1:-0.998425 2:-0.996193 3:-0.933721 
1 1:-0.995276 2:-0.999961 3:-0.964981 
1 1:-0.974803 2:-0.99898 3:-0.942577 
1 1:-0.998425 2:-0.999961 3:-0.926261 
1 1:-0.998425 2:-0.999843 3:-0.982926 
1 1:-0.990551 2:-0.999686 3:-0.922252 
1 1:-0.987402 2:-0.999725 3:-0.944899 
1 1:-0.977953 2:-0.999294 3:-0.948789 
1 1:-1 2:-0.998744 3:-0.952529 
1 1:-0.99685 2:-0.999215 3:-0.973252 
1 1:-0.981102 2:-0.999765 3:-0.949674 
1 1:-0.99685 2:-0.999922 3:-0.988175 
1 1:-1 2:-0.999882 3:-0.960822 
1 1:-1 2:-0.999882 3:-0.92921 
1 1:-1 2:-0.999882 3:-0.92921 
1 1:-1 2:-0.999725 3:-0.965223 
1 1:-1 2:-0.99949 3:-0.986889 
1 1:-0.99685 2:-0.999804 3:-0.912124 
1 1:-0.998425 2:-0.999961 3:-0.992832 
1 1:-0.998425 2:-0.999961 3:-0.993436 
1 1:-0.987402 2:-0.999804 3:-0.958609 
1 1:-1 2:-0.999137 3:-0.93902 
1 1:-1 2:-0.999176 3:-0.966709 
1 1:-1 2:-0.999922 3:-0.986283 
1 1:-1 2:-0.999922 3:-0.994009 
1 1:-1 2:-0.999922 3:-0.959869 
1 1:-1 2:-0.999922 3:-0.960563 
1 1:-1 2:-0.999922 3:-0.960563 
1 1:-0.987402 2:-0.999961 3:-0.940159 
1 1:-1 2:-0.999961 3:-0.966471 
1 1:-1 2:-0.999961 3:-0.938303 
1 1:-1 2:-0.999961 3:-0.973423 
1 1:-1 2:-0.999097 3:-0.944074 
1 1:-1 2:-0.999686 3:-0.96503 
1 1:-1 2:-0.999686 3:-0.96503 
1 1:-1 2:-0.999686 3:-0.96503 
1 1:-1 2:-0.999961 3:-0.96503 
1 1:-1 2:-0.999961 3:-0.96503 
1 1:-1 2:-0.999961 3:-0.98696 
1 1:-1 2:-0.999922 3:-0.99065 
1 1:-0.998425 2:-0.999451 3:-0.941995 
1 1:-1 2:-0.999882 3:-0.933504 
1 1:-1 2:-0.999961 3:-0.988796 
1 1:-0.981102 2:-0.998783 3:-0.989534 
1 1:-0.988976 2:-0.999961 3:-0.946711 
1 1:-0.990551 2:-0.999882 3:-0.949434 
1 1:-0.984252 2:-0.999765 3:-0.956865 
1 1:-0.973228 2:-0.999647 3:-0.944421 
1 1:-0.977953 2:-0.999176 3:-0.974002 
1 1:-1 2:-0.999961 3:-0.971932 
1 1:-0.987402 2:-0.999843 3:-0.932567 
1 1:-0.987402 2:-0.999254 3:-0.951153 
1 1:-0.988976 2:-0.999215 3:-0.916601 
1 1:-0.990551 2:-0.999254 3:-0.936278 
1 1:-0.99685 2:-0.999922 3:-0.989613 
1 1:-0.988976 2:-0.999137 3:-0.923657 
1 1:-0.992126 2:-0.999961 3:-0.940708 
1 1:-0.998425 2:-0.999961 3:-0.984114 
1 1:-0.990551 2:-0.999882 3:-0.973669 
1 1:-1 2:-0.999922 3:-0.964975 
1 1:-1 2:-0.999843 3:-0.993571 
1 1:-1 2:-0.999961 3:-0.935856 
1 1:-0.998425 2:-0.999961 3:-0.976702 
1 1:-0.99685 2:-0.999804 3:-0.968917 
1 1:-0.971654 2:-0.999765 3:-0.933841 
1 1:-0.987402 2:-0.999411 3:-0.921287 
1 1:-0.976378 2:-0.999843 3:-0.949144 
1 1:-0.99685 2:-0.999333 3:-0.961877 
1 1:-0.987402 2:-0.999922 3:-0.910611 
1 1:-1 2:-0.999961 3:-0.97848 
1 1:-0.990551 2:-0.999961 3:-0.942056 
1 1:-0.985827 2:-0.999097 3:-0.919666 
1 1:-0.990551 2:-0.999804 3:-0.956581 
1 1:-1 2:-0.999961 3:-0.989308 
1 1:-0.99685 2:-0.998901 3:-0.956237 
1 1:-0.995276 2:-0.999176 3:-0.968748 
1 1:-0.984252 2:-0.999137 3:-0.993859 
1 1:-0.984252 2:-0.999765 3:-0.934419 
1 1:-1 2:-0.999961 3:-0.993179 
1 1:-0.987402 2:-0.999725 3:-0.984532 
1 1:-1 2:-0.999961 3:-0.991074 
1 1:-0.981102 2:-0.99898 3:-0.932053 
1 1:-0.976378 2:-0.999725 3:-0.945651 
1 1:-1 2:-0.999961 3:-0.983125 
1 1:-0.974803 2:-0.998744 3:-0.918626 
1 1:-0.99685 2:-0.999961 3:-0.962569 
1 1:-0.974803 2:-0.999765 3:-0.963364 
1 1:-0.998425 2:-0.999961 3:-0.992965 
1 1:-0.973228 2:-0.999882 3:-0.926133 
1 1:-0.993701 2:-0.999411 3:-0.935813 
1 1:-0.990551 2:-0.998744 3:-0.937699 
1 1:-0.984252 2:-0.999686 3:-0.935438 
1 1:-1 2:-0.999961 3:-0.958782 
1 1:-0.979528 2:-0.999725 3:-0.914528 
1 1:-0.984252 2:-0.999804 3:-0.971587 
1 1:-0.995276 2:-0.999961 3:-0.971404 
1 1:-0.973228 2:-0.999922 3:-0.916889 
1 1:-1 2:-0.999961 3:-0.991939 
1 1:-1 2:-0.999961 3:-0.951338 
1 1:-1 2:-0.999961 3:-0.927812 
1 1:-1 2:-0.999882 3:-0.964427 
1 1:-1 2:-0.999882 3:-0.964427 
1 1:-1 2:-0.999882 3:-0.964427 
1 1:-1 2:-0.999961 3:-0.98769 
1 1:-1 2:-0.999961 3:-0.99251 
1 1:-1 2:-0.999961 3:-0.984737 
1 1:-0.992126 2:-0.999882 3:-0.97832 
1 1:-0.984252 2:-0.999176 3:-0.920805 
1 1:-0.985827 2:-0.999843 3:-0.948358 
1 1:-0.985827 2:-0.99898 3:-0.92762 
1 1:-0.990551 2:-0.99898 3:-0.949036 
1 1:-0.982677 2:-0.999961 3:-0.932001 
1 1:-0.979528 2:-0.999215 3:-0.937453 
1 1:-0.984252 2:-0.999961 3:-0.961771 
1 1:-0.985827 2:-0.999843 3:-0.944389 
1 1:-0.979528 2:-0.999372 3:-0.970168 
1 1:-0.977953 2:-0.999922 3:-0.950691 
1 1:-0.993701 2:-0.999922 3:-0.925047 
1 1:-1 2:-0.999961 3:-0.993863 
1 1:-0.998425 2:-0.999961 3:-0.988646 
1 1:-0.987402 2:-0.999725 3:-0.920926 
1 1:-0.993701 2:-0.999765 3:-0.974974 
1 1:-0.987402 2:-0.999019 3:-0.9114 
1 1:-0.987402 2:-0.999058 3:-0.947045 
1 1:-1 2:-0.999961 3:-0.984032 
1 1:-1 2:-0.999961 3:-0.994086 
1 1:-0.981102 2:-0.999804 3:-0.959493 
1 1:-0.995276 2:-0.999961 3:-0.991082 
1 1:-0.976378 2:-0.999333 3:-0.915737 
1 1:-0.982677 2:-0.999843 3:-0.954889 
1 1:-0.979528 2:-0.99898 3:-0.916832 
1 1:-0.99685 2:-0.999922 3:-0.993108 
1 1:-0.993701 2:-0.999333 3:-0.946034 
1 1:-0.998425 2:-0.99894 3:-0.985152 
1 1:-0.995276 2:-0.999647 3:-0.948515 
1 1:-0.982677 2:-0.999961 3:-0.916955 
1 1:-0.979528 2:-0.999451 3:-0.926426 
1 1:-0.982677 2:-0.999804 3:-0.967367 
1 1:-0.987402 2:-0.999961 3:-0.964031 
1 1:-1 2:-0.999961 3:-0.992943 
1 1:-0.985827 2:-0.999922 3:-0.980231 
1 1:-0.998425 2:-0.999097 3:-0.930281 
1 1:-0.979528 2:-0.999765 3:-0.985913 
1 1:-0.987402 2:-0.999254 3:-0.95187 
1 1:-0.998425 2:-0.999882 3:-0.961451 
1 1:-0.985827 2:-0.999019 3:-0.937414 
1 1:-0.985827 2:-0.999097 3:-0.933793 
1 1:-1 2:-0.999961 3:-0.909254 
1 1:-0.981102 2:-0.999882 3:-0.939797 
1 1:-0.979528 2:-0.999254 3:-0.934798 
1 1:-0.985827 2:-0.999411 3:-0.954019 
1 1:-0.998425 2:-0.999097 3:-0.96438 
1 1:-1 2:-0.999568 3:-0.986555 
1 1:-1 2:-0.999568 3:-0.986555 
1 1:-1 2:-0.999529 3:-0.986555 
1 1:-1 2:-0.999961 3:-0.988322 
1 1:-1 2:-0.999961 3:-0.947275 
1 1:-1 2:-0.999686 3:-0.988125 
1 1:-1 2:-0.999961 3:-0.989187 
1 1:-1 2:-0.998862 3:-0.989187 
1 1:-1 2:-0.999804 3:-0.973845 
1 1:-1 2:-0.999804 3:-0.931019 
1 1:-1 2:-0.999961 3:-0.991233 
1 1:-0.987402 2:-0.999451 3:-0.939967 
1 1:-0.998425 2:-0.999529 3:-0.976771 
1 1:-0.981102 2:-0.998901 3:-0.925402 
1 1:-0.977953 2:-0.999176 3:-0.929694 
1 1:-0.984252 2:-0.999215 3:-0.94877 
1 1:-0.987402 2:-0.999882 3:-0.97999 
1 1:-0.998425 2:-0.999765 3:-0.937299 
1 1:-0.987402 2:-0.999961 3:-0.950734 
1 1:-0.952756 2:-0.999372 3:-0.982142 
1 1:-0.998425 2:-0.999961 3:-0.974407 
1 1:-0.995276 2:-0.999922 3:-0.930744 
1 1:-0.99685 2:-0.999294 3:-0.919754 
1 1:-0.988976 2:-0.999961 3:-0.931649 
1 1:-0.995276 2:-0.982535 3:-0.99228 
1 1:-0.988976 2:-0.999961 3:-0.934945 
1 1:-0.988976 2:-0.99843 3:-0.965513 
1 1:-0.977953 2:-0.999804 3:-0.960113 
1 1:-0.984252 2:-0.999843 3:-0.914829 
1 1:-0.985827 2:-0.99894 3:-0.939791 
1 1:-0.987402 2:-0.999019 3:-0.936437 
1 1:-0.985827 2:-0.999961 3:-0.944905 
1 1:-0.995276 2:-0.999765 3:-0.93931 
1 1:-0.984252 2:-0.999804 3:-0.917913 
1 1:-0.992126 2:-0.99898 3:-0.939437 
1 1:-0.987402 2:-0.999451 3:-0.97326 
1 1:-0.998425 2:-0.999961 3:-0.989234 
1 1:-0.979528 2:-0.999804 3:-0.96554 
1 1:-0.992126 2:-0.999686 3:-0.938078 
1 1:-0.987402 2:-0.999961 3:-0.946648 
1 1:-0.974803 2:-0.999843 3:-0.927751 
1 1:-0.995276 2:-0.999882 3:-0.967482 
1 1:-0.977953 2:-0.999804 3:-0.927717 
1 1:-0.995276 2:-0.999961 3:-0.992715 
1 1:-0.974803 2:-0.999725 3:-0.942843 
1 1:-0.981102 2:-0.998901 3:-0.966071 
1 1:-0.982677 2:-0.999097 3:-0.920727 
1 1:-1 2:-0.999804 3:-0.915503 
1 1:-0.976378 2:-0.999765 3:-0.92038 
1 1:-0.977953 2:-0.999451 3:-0.91954 
1 1:-0.977953 2:-0.999961 3:-0.918364 
1 1:-0.988976 2:-0.999411 3:-0.93119 
1 1:-0.979528 2:-0.999725 3:-0.946448 
1 1:-0.977953 2:-0.999804 3:-0.922209 
1 1:-1 2:-0.999961 3:-0.977832 
1 1:-1 2:-0.999137 3:-0.97066 
1 1:-0.993701 2:-0.999922 3:-0.921701 
1 1:-0.993701 2:-0.999922 3:-0.921701 
1 1:-1 2:-0.999961 3:-0.981156 
1 1:-0.998425 2:-0.99898 3:-0.974384 
1 1:-0.982677 2:-0.999843 3:-0.96579 
1 1:-0.925984 2:-0.995251 3:-0.924292 
1 1:-1 2:-0.997488 3:-0.980068 
1 1:-1 2:-0.997488 3:-0.989855 
1 1:-1 2:-0.999961 3:-0.983424 
1 1:-1 2:-0.999961 3:-0.914975 
1 1:-1 2:-0.995683 3:-0.914975 
1 1:-1 2:-0.999961 3:-0.929926 
1 1:-1 2:-0.999961 3:-0.939988 
1 1:-1 2:-0.999961 3:-0.939988 
1 1:-1 2:-0.999961 3:-0.939988 
1 1:-1 2:-0.999961 3:-0.939988 
1 1:-1 2:-0.999961 3:-0.985462 
1 1:-0.998425 2:-0.999922 3:-0.930155 
1 1:-0.998425 2:-0.999647 3:-0.922728 
1 1:-0.984252 2:-0.999568 3:-0.917001 
1 1:-0.96063 2:-0.998195 3:-0.983434 
1 1:-0.990551 2:-0.999019 3:-0.909456 
1 1:-1 2:-0.999961 3:-0.994177 
1 1:-0.982677 2:-0.999215 3:-0.927126 
1 1:-1 2:-0.999804 3:-0.974713 
1 1:-0.982677 2:-0.999804 3:-0.919002 
1 1:-0.990551 2:-0.999333 3:-0.92337 
1 1:-0.985827 2:-0.999765 3:-0.912611 
1 1:-1 2:-0.999961 3:-0.994087 
1 1:-0.982677 2:-0.999961 3:-0.916784 
1 1:-0.977953 2:-0.999137 3:-0.944898 
1 1:-0.987402 2:-0.999961 3:-0.936566 
1 1:-0.974803 2:-0.998509 3:-0.935202 
1 1:-0.984252 2:-0.999097 3:-0.937603 
1 1:-0.976378 2:-0.999804 3:-0.919651 
1 1:-0.981102 2:-0.999725 3:-0.931897 
1 1:-0.992126 2:-0.999411 3:-0.970787 
1 1:-0.976378 2:-0.999372 3:-0.926417 
1 1:-0.987402 2:-0.999686 3:-0.958347 
1 1:-1 2:-0.999529 3:-0.911478 
1 1:-0.977953 2:-0.999765 3:-0.946455 
1 1:-0.987402 2:-0.999294 3:-0.970914 
1 1:-0.988976 2:-0.999804 3:-0.962849 
1 1:-0.979528 2:-0.99898 3:-0.949598 
1 1:-0.987402 2:-0.999568 3:-0.923931 
1 1:-1 2:-0.999961 3:-0.987405 
1 1:-0.987402 2:-0.999961 3:-0.9586 
1 1:-1 2:-0.999961 3:-0.982144 
1 1:-1 2:-0.999961 3:-0.973389 
1 1:-0.971654 2:-0.999843 3:-0.916682 
1 1:-0.984252 2:-0.999176 3:-0.914187 
1 1:-0.992126 2:-0.999961 3:-0.927492 
1 1:-0.984252 2:-0.999058 3:-0.963078 
1 1:-0.981102 2:-0.99894 3:-0.937424 
1 1:-0.988976 2:-0.999451 3:-0.98512 
1 1:-0.990551 2:-0.999372 3:-0.953503 
1 1:-0.987402 2:-0.999765 3:-0.95751 
1 1:-1 2:-0.999254 3:-0.970666 
1 1:-1 2:-0.999961 3:-0.952689 
1 1:-1 2:-0.999961 3:-0.958225 
1 1:-1 2:-0.999961 3:-0.950477 
1 1:-0.981102 2:-0.999372 3:-0.937474 
1 1:-0.985827 2:-0.999843 3:-0.968982 
1 1:-0.982677 2:-0.999725 3:-0.965008 
1 1:-0.995276 2:-0.999411 3:-0.939749 
1 1:-0.984252 2:-0.999765 3:-0.912485 
1 1:-0.974803 2:-0.999568 3:-0.922695 
1 1:-0.990551 2:-0.999922 3:-0.930435 
1 1:-1 2:-0.999961 3:-0.991368 
1 1:-0.993701 2:-0.999451 3:-0.969648 
1 1:-0.971654 2:-0.999922 3:-0.939 
1 1:-1 2:-0.999961 3:-0.989777 
1 1:-0.933858 2:-0.99898 3:-0.964388 
1 1:-0.99685 2:-0.980611 3:-0.992895 
1 1:-0.973228 2:-0.954708 3:-0.966355 
1 1:-1 2:-0.999961 3:-0.992976 
1 1:-0.981102 2:-0.999137 3:-0.940506 
1 1:-0.985827 2:-0.999019 3:-0.968704 
1 1:-1 2:-0.999961 3:-0.93166 
1 1:-1 2:-0.999961 3:-0.99313 
1 1:-0.987402 2:-0.999725 3:-0.940869 
1 1:-1 2:-0.999882 3:-0.990716 
1 1:-0.987402 2:-0.999804 3:-0.985241 
1 1:-1 2:-0.999961 3:-0.993528 
1 1:-0.993701 2:-0.998901 3:-0.990735 
1 1:-0.987402 2:-0.999058 3:-0.932026 
1 1:-0.988976 2:-0.999961 3:-0.952439 
1 1:-0.998425 2:-0.999961 3:-0.984677 
1 1:-0.990551 2:-0.999176 3:-0.948161 
1 1:-0.993701 2:-0.999058 3:-0.923642 
1 1:-1 2:-0.999961 3:-0.94467 
1 1:-0.987402 2:-0.99898 3:-0.935178 
1 1:-0.981102 2:-0.999254 3:-0.934 
1 1:-1 2:-0.999961 3:-0.989333 
1 1:-1 2:-0.999608 3:-0.966413 
1 1:-1 2:-0.998744 3:-0.950516 
1 1:-0.988976 2:-0.999961 3:-0.96178 
1 1:-1 2:-0.999961 3:-0.982422 
1 1:-1 2:-0.999961 3:-0.979502 
1 1:-1 2:-0.999961 3:-0.934444 
1 1:-1 2:-0.999922 3:-0.934444 
1 1:-1 2:-0.999961 3:-0.987049 
1 1:-1 2:-0.999961 3:-0.931709 
1 1:-1 2:-0.999922 3:-0.982532 
1 1:-1 2:-0.999922 3:-0.912851 
1 1:-1 2:-0.999725 3:-0.947779 
1 1:-1 2:-0.999725 3:-0.947779 
1 1:-1 2:-0.999961 3:-0.964969 
1 1:-1 2:-0.999961 3:-0.9766 
1 1:-1 2:-0.999961 3:-0.96692 
1 1:-0.977953 2:-0.999961 3:-0.928018 
1 1:-1 2:-0.999961 3:-0.98131 
1 1:-1 2:-0.999961 3:-0.992918 
1 1:-1 2:-0.998901 3:-0.938788 
1 1:-1 2:-0.999961 3:-0.979559 
1 1:-1 2:-0.999882 3:-0.958034 
1 1:-1 2:-0.999843 3:-0.957304 
1 1:-1 2:-0.999961 3:-0.982131 
1 1:-1 2:-0.999922 3:-0.978764 
1 1:-1 2:-0.999804 3:-0.978764 
1 1:-1 2:-0.999608 3:-0.968539 
1 1:-1 2:-0.999961 3:-0.956082 
1 1:-1 2:-0.999961 3:-0.972764 
1 1:-1 2:-0.999961 3:-0.956082 
1 1:-1 2:-0.999961 3:-0.986582 
1 1:-1 2:-0.999882 3:-0.948924 
1 1:-1 2:-0.999961 3:-0.983789 
1 1:-1 2:-0.999961 3:-0.993678 
1 1:-1 2:-0.999961 3:-0.994414 
1 1:-0.985827 2:-0.999882 3:-0.942218 
1 1:-0.998425 2:-0.999686 3:-0.969425 
1 1:-0.998425 2:-0.999568 3:-0.982212 
1 1:-0.988976 2:-0.998823 3:-0.961983 
1 1:-0.987402 2:-0.999215 3:-0.951226 
1 1:-0.993701 2:-0.999097 3:-0.928101 
1 1:-0.977953 2:-0.999882 3:-0.963612 
1 1:-0.973228 2:-0.998587 3:-0.957531 
1 1:-0.998425 2:-0.999961 3:-0.993425 
1 1:-1 2:-0.999961 3:-0.935243 
1 1:-1 2:-0.999961 3:-0.935243 
1 1:-1 2:-0.999961 3:-0.935243 
1 1:-1 2:-0.999961 3:-0.935243 
1 1:-0.987402 2:-0.999137 3:-0.928195 
1 1:-1 2:-0.999882 3:-0.937344 
1 1:-1 2:-0.997959 3:-0.969914 
1 1:-1 2:-0.999333 3:-0.990003 
1 1:-0.99685 2:-0.999176 3:-0.938219 
1 1:-0.99685 2:-0.999019 3:-0.919875 
1 1:-0.998425 2:-0.999843 3:-0.962394 
1 1:-1 2:-0.999961 3:-0.992931 
1 1:-1 2:-0.999804 3:-0.957316 
1 1:-1 2:-0.998823 3:-0.96991 
1 1:-0.99685 2:-0.999961 3:-0.93802 
1 1:-0.992126 2:-0.999882 3:-0.961374 
1 1:-0.99685 2:-0.999608 3:-0.99034 
1 1:-0.99685 2:-0.999254 3:-0.91739 
1 1:-1 2:-0.999961 3:-0.981764 
1 1:-0.990551 2:-0.999765 3:-0.916166 
1 1:-1 2:-0.999922 3:-0.982517 
1 1:-1 2:-0.999922 3:-0.993572 
1 1:-1 2:-0.999961 3:-0.992984 
1 1:-0.981102 2:-0.999922 3:-0.929319 
1 1:-0.977953 2:-0.999882 3:-0.91178 
1 1:-1 2:-0.99843 3:-0.934083 
1 1:-0.968504 2:-0.999215 3:-0.982274 
1 1:-1 2:-0.999961 3:-0.935964 
1 1:-0.988976 2:-0.998862 3:-0.9255 
1 1:-0.979528 2:-0.999961 3:-0.957418 
1 1:-0.982677 2:-0.999843 3:-0.97171 
1 1:-1 2:-0.999961 3:-0.98865 
1 1:-0.984252 2:-0.999058 3:-0.924328 
1 1:-0.981102 2:-0.999882 3:-0.914692 
1 1:-0.99685 2:-0.999333 3:-0.918334 
1 1:-0.998425 2:-0.999961 3:-0.975492 
1 1:-1 2:-0.999961 3:-0.947936 
1 1:-1 2:-0.999961 3:-0.980338 
1 1:-1 2:-0.999961 3:-0.961483 
1 1:-1 2:-0.999922 3:-0.957078 
1 1:-1 2:-0.999961 3:-0.990256 
1 1:-1 2:-0.999961 3:-0.994435 
1 1:-1 2:-0.999922 3:-0.93642 
1 1:-1 2:-0.999922 3:-0.93642 
1 1:-1 2:-0.999922 3:-0.93642 
1 1:-1 2:-0.999922 3:-0.93642 
1 1:-1 2:-0.999411 3:-0.915676 
1 1:-0.981102 2:-0.999568 3:-0.990944 
1 1:-1 2:-0.999686 3:-0.993907 
1 1:-1 2:-0.999961 3:-0.98409 
1 1:-0.992126 2:-0.999294 3:-0.989645 
1 1:-1 2:-0.999961 3:-0.917179 
1 1:-1 2:-0.999961 3:-0.917179 
1 1:-0.981102 2:-0.999215 3:-0.983599 
1 1:-1 2:-0.999922 3:-0.947339 
1 1:-1 2:-0.999961 3:-0.962674 
1 1:-1 2:-0.999922 3:-0.96452 
1 1:-1 2:-0.999922 3:-0.96452 
1 1:-1 2:-0.999961 3:-0.959941 
1 1:-0.977953 2:-0.999686 3:-0.933204 
1 1:-0.981102 2:-0.999843 3:-0.964573 
1 1:-0.998425 2:-0.999961 3:-0.993832 
1 1:-1 2:-0.999961 3:-0.973764 
1 1:-0.984252 2:-0.999058 3:-0.940651 
1 1:-1 2:-0.99949 3:-0.951936 
1 1:-0.981102 2:-0.999019 3:-0.92626 
1 1:-0.998425 2:-0.999882 3:-0.97087 
1 1:-0.973228 2:-0.999922 3:-0.943666 
1 1:-0.96063 2:-0.989011 3:-0.974541 
1 1:-0.998425 2:-0.999686 3:-0.967403 
1 1:-0.995276 2:-0.999843 3:-0.983184 
1 1:-0.985827 2:-0.999215 3:-0.924704 
1 1:-0.974803 2:-0.999922 3:-0.93696 
1 1:-1 2:-0.999097 3:-0.954659 
1 1:-0.982677 2:-0.999137 3:-0.919034 
1 1:-1 2:-0.999961 3:-0.992282 
1 1:-0.974803 2:-0.999333 3:-0.920114 
1 1:-0.979528 2:-0.999765 3:-0.949245 
1 1:-0.976378 2:-0.99894 3:-0.918771 
1 1:-1 2:-0.999961 3:-0.990065 
1 1:-0.998425 2:-0.999961 3:-0.982611 
1 1:-0.985827 2:-0.999882 3:-0.938305 
1 1:-1 2:-0.999961 3:-0.994315 
1 1:-0.987402 2:-0.999254 3:-0.962253 
1 1:-0.987402 2:-0.998391 3:-0.985293 
1 1:-0.982677 2:-0.999725 3:-0.968731 
1 1:-0.979528 2:-0.999882 3:-0.93842 
1 1:-0.971654 2:-0.999922 3:-0.938975 
1 1:-0.990551 2:-0.999608 3:-0.917952 
1 1:-0.988976 2:-0.999294 3:-0.920694 
1 1:-0.998425 2:-0.999804 3:-0.932231 
1 1:-0.96378 2:-0.999843 3:-0.948779 
1 1:-0.984252 2:-0.999882 3:-0.937061 
1 1:-0.987402 2:-0.999922 3:-0.956374 
1 1:-0.982677 2:-0.999882 3:-0.913136 
1 1:-0.971654 2:-0.999137 3:-0.937477 
1 1:-1 2:-0.999961 3:-0.974612 
1 1:-1 2:-0.999961 3:-0.993416 
1 1:-0.979528 2:-0.999568 3:-0.948579 
1 1:-0.981102 2:-0.999882 3:-0.921556 
1 1:-0.985827 2:-0.999725 3:-0.951934 
1 1:-0.965354 2:-0.999411 3:-0.914553 
1 1:-0.982677 2:-0.999294 3:-0.91892 
1 1:-0.988976 2:-0.999765 3:-0.950723 
1 1:-0.99685 2:-0.999922 3:-0.980742 
1 1:-0.987402 2:-0.999961 3:-0.963358 
1 1:-1 2:-0.999961 3:-0.928358 
1 1:-1 2:-0.998744 3:-0.949838 
1 1:-0.970079 2:-0.997998 3:-0.935133 
1 1:-1 2:-0.999961 3:-0.992718 
1 1:-1 2:-0.999843 3:-0.918269 
1 1:-1 2:-0.999922 3:-0.918269 
1 1:-0.99685 2:-0.998666 3:-0.916752 
1 1:-1 2:-0.999961 3:-0.988218 
1 1:-0.979528 2:-0.999686 3:-0.91565 
1 1:-1 2:-0.999961 3:-0.960224 
1 1:-1 2:-0.999882 3:-0.945581 
1 1:-0.993701 2:-0.998862 3:-0.934079 
1 1:-0.982677 2:-0.999961 3:-0.928294 
1 1:-0.995276 2:-0.999254 3:-0.928851 
1 1:-0.940157 2:-0.99737 3:-0.945562 
1 1:-0.99685 2:-0.999961 3:-0.993304 
1 1:-0.995276 2:-0.999019 3:-0.972795 
1 1:-1 2:-0.999961 3:-0.991713 
1 1:-1 2:-0.999961 3:-0.977201 
1 1:-1 2:-0.999961 3:-0.973345 
1 1:-1 2:-0.999961 3:-0.963424 
1 1:-1 2:-0.999922 3:-0.976602 
1 1:-0.992126 2:-0.999333 3:-0.964164 
1 1:-0.987402 2:-0.999215 3:-0.975932 
1 1:-0.974803 2:-0.999922 3:-0.946755 
1 1:-0.971654 2:-0.999451 3:-0.955002 
1 1:-0.995276 2:-0.999961 3:-0.98955 
1 1:-0.993701 2:-0.999961 3:-0.968911 
1 1:-0.992126 2:-0.999922 3:-0.920659 
1 1:-1 2:-0.999961 3:-0.982605 
1 1:-1 2:-0.999686 3:-0.982605 
1 1:-0.995276 2:-0.999451 3:-0.980462 
1 1:-1 2:-0.999961 3:-0.980152 
1 1:-0.995276 2:-0.999686 3:-0.938479 
1 1:-0.998425 2:-0.981553 3:-0.98891 
1 1:-0.998425 2:-0.999961 3:-0.908078 
1 1:-0.993701 2:-0.999961 3:-0.988158 
1 1:-0.988976 2:-0.999922 3:-0.984468 
1 1:-0.998425 2:-0.999961 3:-0.990351 
1 1:-0.990551 2:-0.999765 3:-0.931873 
1 1:-0.985827 2:-0.995016 3:-0.948425 
1 1:-0.998425 2:-0.999961 3:-0.949311 
1 1:-0.992126 2:-0.996664 3:-0.987129 
1 1:-0.998425 2:-0.999961 3:-0.960557 
1 1:-0.998425 2:-0.999961 3:-0.982395 
1 1:-0.988976 2:-0.999882 3:-0.990681 
1 1:-0.998425 2:-0.999961 3:-0.924 
1 1:-1 2:-0.999961 3:-0.919243 
1 1:-1 2:-0.999804 3:-0.959079 
1 1:-1 2:-0.999961 3:-0.92002 
1 1:-0.948031 2:-0.997253 3:-0.992372 
1 1:-1 2:-0.999961 3:-0.994348 
1 1:-0.988976 2:-0.999804 3:-0.958321 
1 1:-0.987402 2:-0.999961 3:-0.943799 
1 1:-1 2:-0.999961 3:-0.962741 
1 1:-0.99685 2:-0.999922 3:-0.992435 
1 1:-0.987402 2:-0.999097 3:-0.966324 
1 1:-1 2:-0.999961 3:-0.991163 
1 1:-0.992126 2:-0.999961 3:-0.975885 
1 1:-0.998425 2:-0.999922 3:-0.947424 
1 1:-1 2:-0.999961 3:-0.986686 
1 1:-1 2:-0.999922 3:-0.976275 
1 1:-1 2:-0.999961 3:-0.962573 
1 1:-1 2:-0.999882 3:-0.939686 
1 1:-1 2:-0.999843 3:-0.991944 
1 1:-1 2:-0.999961 3:-0.986409 
1 1:-1 2:-0.999961 3:-0.913785 
1 1:-1 2:-0.999961 3:-0.931078 
1 1:-0.99685 2:-0.999686 3:-0.983168 
1 1:-1 2:-0.999961 3:-0.994099 
1 1:-0.993701 2:-0.999058 3:-0.97816 
1 1:-1 2:-0.999961 3:-0.992584 
1 1:-0.992126 2:-0.999254 3:-0.961033 
1 1:-0.976378 2:-0.999608 3:-0.916569 
1 1:-1 2:-0.999372 3:-0.991312 
1 1:-1 2:-0.999961 3:-0.979131 
1 1:-0.984252 2:-0.999568 3:-0.963943 
1 1:-0.99685 2:-0.997331 3:-0.914005 
1 1:-0.99685 2:-0.999961 3:-0.97907 
-1 1:-0.955906 2:-1 3:-0.998259 
-1 1:-1 2:-0.999961 3:-0.994497 
-1 1:-1 2:-0.999961 3:-0.994474 
-1 1:-1 2:-0.999961 3:-0.994441 
-1 1:-1 2:-0.999961 3:-0.994456 
-1 1:-1 2:-0.999961 3:-0.994516 
-1 1:-1 2:-0.999961 3:-0.994459 
-1 1:-1 2:-0.999961 3:-0.994498 
-1 1:-1 2:-0.999961 3:-0.994497 
-1 1:-1 2:-0.999961 3:-0.994521 
-1 1:-0.998425 2:-1 3:-0.994513 
-1 1:-1 2:-0.999961 3:-0.994494 
-1 1:-1 2:-0.999961 3:-0.994507 
-1 1:-1 2:-0.999961 3:-0.994508 
-1 1:-1 2:-0.999961 3:-0.994501 
-1 1:-1 2:-0.999961 3:-0.994484 
-1 1:-1 2:-0.999961 3:-0.994504 
-1 1:-1 2:-0.999961 3:-0.994441 
-1 1:-1 2:-0.999961 3:-0.994461 
-1 1:-1 2:-0.999961 3:-0.994503 
-1 1:-0.99685 2:-1 3:-0.994827 
-1 1:-1 2:-0.999961 3:-0.994469 
-1 1:-1 2:-0.999961 3:-0.994445 
-1 1:-1 2:-0.999961 3:-0.994451 
-1 1:-1 2:-0.999961 3:-0.994481 
-1 1:-1 2:-0.999961 3:-0.994506 
-1 1:-0.998425 2:-1 3:-0.994681 
-1 1:-1 2:-0.999961 3:-0.99448 
-1 1:-1 2:-0.999961 3:-0.994443 
-1 1:-1 2:-0.999922 3:-0.99452 
-1 1:-1 2:-0.999961 3:-0.994525 
-1 1:-1 2:-0.999961 3:-0.994521 
-1 1:-1 2:-0.999961 3:-0.994528 
-1 1:-1 2:-0.999961 3:-0.994476 
-1 1:-1 2:-0.999961 3:-0.994451 
-1 1:-1 2:-0.999961 3:-0.994499 
-1 1:-1 2:-0.999961 3:-0.994521 
-1 1:-1 2:-0.999961 3:-0.994457 
-1 1:-1 2:-0.999961 3:-0.994455 
-1 1:-1 2:-0.999961 3:-0.994523 
-1 1:-1 2:-0.999843 3:-0.994474 
-1 1:-1 2:-0.999961 3:-0.994521 
-1 1:-1 2:-0.999961 3:-0.994475 
-1 1:-1 2:-0.999961 3:-0.994463 
-1 1:-1 2:-0.999961 3:-0.994518 
-1 1:-1 2:-0.999922 3:-0.994466 
-1 1:-1 2:-0.999961 3:-0.994467 
-1 1:-1 2:-0.999961 3:-0.994504 
-1 1:-1 2:-0.999961 3:-0.994495 
-1 1:-1 2:-0.999961 3:-0.994482 
-1 1:-1 2:-0.999961 3:-0.994487 
-1 1:-1 2:-0.999961 3:-0.994493 
-1 1:-1 2:-0.999961 3:-0.994471 
-1 1:-1 2:-0.999961 3:-0.99448 
-1 1:-1 2:-0.999961 3:-0.994448 
-1 1:-1 2:-0.999961 3:-0.994453 
-1 1:-1 2:-0.999961 3:-0.994445 
-1 1:-1 2:-0.999961 3:-0.994512 
-1 1:-1 2:-0.999961 3:-0.994493 
-1 1:-1 2:-0.999961 3:-0.994518 
-1 1:-0.995276 2:-1 3:-0.995422 
-1 1:-1 2:-0.999961 3:-0.994439 
-1 1:-1 2:-0.999961 3:-0.99451 
-1 1:-1 2:-0.999961 3:-0.994443 
-1 1:-1 2:-0.999961 3:-0.994507 
-1 1:-1 2:-0.999961 3:-0.994528 
-1 1:-1 2:-0.999961 3:-0.994504 
-1 1:-1 2:-0.999961 3:-0.994503 
-1 1:-1 2:-0.999961 3:-0.994478 
-1 1:-1 2:-0.999961 3:-0.994485 
-1 1:-1 2:-0.999961 3:-0.994517 
-1 1:-1 2:-0.999961 3:-0.994524 
-1 1:-1 2:-0.999961 3:-0.994481 
-1 1:-1 2:-0.999961 3:-0.994444 
-1 1:-1 2:-0.999961 3:-0.994486 
-1 1:-1 2:-0.999961 3:-0.994492 
-1 1:-1 2:-0.999961 3:-0.994473 
-1 1:-1 2:-0.999961 3:-0.994516 
-1 1:-1 2:-0.999961 3:-0.994474 
-1 1:-1 2:-0.999961 3:-0.994512 
-1 1:-1 2:-0.999961 3:-0.994511 
-1 1:-1 2:-0.999961 3:-0.994446 
-1 1:-1 2:-0.999961 3:-0.99449 
-1 1:-1 2:-0.999961 3:-0.994521 
-1 1:-1 2:-0.999961 3:-0.994439 
-1 1:-1 2:-0.999961 3:-0.994441 
-1 1:-1 2:-0.999961 3:-0.994504 
-1 1:-1 2:-0.999961 3:-0.994453 
-1 1:-1 2:-0.999961 3:-0.994491 
-1 1:-1 2:-0.999961 3:-0.994461 
-1 1:-1 2:-0.999961 3:-0.994524 
-1 1:-1 2:-0.999961 3:-0.994484 
-1 1:-1 2:-0.999961 3:-0.994488 
-1 1:-1 2:-0.999961 3:-0.99448 
-1 1:-1 2:-0.999961 3:-0.994449 
-1 1:-1 2:-0.999961 3:-0.994479 
-1 1:-1 2:-0.999961 3:-0.994454 
-1 1:-0.998425 2:-1 3:-0.99483 
-1 1:-1 2:-0.999961 3:-0.994471 
-1 1:-1 2:-0.999961 3:-0.994503 
-1 1:-1 2:-0.999961 3:-0.994515 
-1 1:-1 2:-0.999961 3:-0.994465 
-1 1:-1 2:-0.999961 3:-0.994446 
-1 1:-0.998425 2:-1 3:-0.994644 
-1 1:-1 2:-0.999961 3:-0.994462 
-1 1:-1 2:-0.999961 3:-0.994502 
-1 1:-1 2:-0.999961 3:-0.994463 
-1 1:-1 2:-0.999961 3:-0.99448 
-1 1:-1 2:-0.999961 3:-0.994484 
-1 1:-1 2:-0.999961 3:-0.994445 
-1 1:-1 2:-0.999961 3:-0.994515 
-1 1:-1 2:-0.999961 3:-0.994493 
-1 1:-1 2:-0.999961 3:-0.994524 
-1 1:-1 2:-0.999961 3:-0.994463 
-1 1:-1 2:-0.999961 3:-0.994475 
-1 1:-1 2:-0.999961 3:-0.994449 
-1 1:-1 2:-0.999961 3:-0.994526 
-1 1:-1 2:-0.999961 3:-0.994523 
-1 1:-0.998425 2:-1 3:-0.994875 
-1 1:-1 2:-0.999961 3:-0.994443 
-1 1:-1 2:-0.999961 3:-0.994513 
-1 1:-0.998425 2:-1 3:-0.994535 
-1 1:-1 2:-0.999961 3:-0.99448 
-1 1:-0.998425 2:-1 3:-0.994545 
-1 1:-1 2:-0.999961 3:-0.994469 
-1 1:-1 2:-0.999961 3:-0.994447 
-1 1:-1 2:-0.999961 3:-0.994473 
-1 1:-1 2:-0.999961 3:-0.994514 
-1 1:-0.99685 2:-1 3:-0.995113 
-1 1:-0.998425 2:-1 3:-0.994593 
-1 1:-0.998425 2:-1 3:-0.994832 
-1 1:-1 2:-0.999961 3:-0.994499 
-1 1:-1 2:-0.999961 3:-0.994484 
-1 1:-1 2:-0.999961 3:-0.99448 
-1 1:-1 2:-0.999961 3:-0.994487 
-1 1:-1 2:-0.999961 3:-0.994479 
-1 1:-1 2:-0.999961 3:-0.994491 
-1 1:-1 2:-0.999961 3:-0.99447 
-1 1:-1 2:-0.999961 3:-0.994441 
-1 1:-1 2:-0.999961 3:-0.994518 
-1 1:-0.993701 2:-1 3:-0.995075 
-1 1:-1 2:-0.999961 3:-0.994486 
-1 1:-1 2:-0.999961 3:-0.994449 
-1 1:-1 2:-0.999961 3:-0.994506 
-1 1:-1 2:-0.999961 3:-0.994499 
-1 1:-1 2:-0.999961 3:-0.994526 
-1 1:-1 2:-0.999961 3:-0.99452 
-1 1:-1 2:-0.999961 3:-0.99445 
-1 1:-1 2:-0.999961 3:-0.994497 
-1 1:-1 2:-0.999961 3:-0.994497 
-1 1:-1 2:-0.999961 3:-0.994512 
-1 1:-1 2:-0.999961 3:-0.994461 
-1 1:-1 2:-0.999961 3:-0.994509 
-1 1:-1 2:-0.999961 3:-0.994512 
-1 1:-1 2:-0.999961 3:-0.99448 
-1 1:-1 2:-0.999961 3:-0.994519 
-1 1:-1 2:-0.999961 3:-0.994524 
-1 1:-1 2:-0.999961 3:-0.994451 
-1 1:-1 2:-0.999961 3:-0.994493 
-1 1:-1 2:-0.999961 3:-0.994442 
-1 1:-1 2:-0.999961 3:-0.994489 
-1 1:-1 2:-0.999961 3:-0.99451 
-1 1:-1 2:-0.999961 3:-0.99448 
-1 1:-1 2:-0.999961 3:-0.994461 
-1 1:-1 2:-0.999961 3:-0.994526 
-1 1:-1 2:-0.999961 3:-0.994504 
-1 1:-1 2:-0.999961 3:-0.994508 
-1 1:-0.998425 2:-1 3:-0.99459 
-1 1:-1 2:-0.999961 3:-0.994489 
-1 1:-1 2:-0.999961 3:-0.994493 
-1 1:-1 2:-0.999961 3:-0.994471 
-1 1:-1 2:-0.999961 3:-0.99445 
-1 1:-1 2:-0.999961 3:-0.994458 
-1 1:-1 2:-0.999961 3:-0.994527 
-1 1:-1 2:-0.999961 3:-0.994459 
-1 1:-1 2:-0.999961 3:-0.994517 
-1 1:-1 2:-0.999961 3:-0.994523 
-1 1:-1 2:-0.999961 3:-0.994447 
-1 1:-1 2:-0.999961 3:-0.994462 
-1 1:-1 2:-0.999961 3:-0.994447 
-1 1:-1 2:-0.999961 3:-0.994496 
-1 1:-1 2:-1 3:-0.994477 
-1 1:-0.998425 2:-1 3:-0.994709 
-1 1:-1 2:-0.999961 3:-0.994457 
-1 1:-1 2:-0.999961 3:-0.994509 
-1 1:-1 2:-0.999961 3:-0.994528 
-1 1:-1 2:-0.999961 3:-0.994507 
-1 1:-1 2:-0.999922 3:-0.994482 
-1 1:-1 2:-0.999843 3:-0.994539 
-1 1:-1 2:-0.999961 3:-0.994498 
-1 1:-1 2:-0.999961 3:-0.994456 
-1 1:-1 2:-0.999961 3:-0.994506 
-1 1:-1 2:-0.999961 3:-0.994451 
-1 1:-1 2:-0.999961 3:-0.994472 
-1 1:-0.998425 2:-1 3:-0.994675 
-1 1:-1 2:-0.999961 3:-0.994505 
-1 1:-1 2:-0.999961 3:-0.994444 
-1 1:-1 2:-0.999961 3:-0.994512 
-1 1:-1 2:-0.999961 3:-0.994514 
-1 1:-1 2:-0.999961 3:-0.994497 
-1 1:-1 2:-0.999961 3:-0.994462 
-1 1:-1 2:-0.999961 3:-0.99451 
-1 1:-0.99685 2:-1 3:-0.994586 
-1 1:-1 2:-0.999961 3:-0.994447 
-1 1:-1 2:-0.999961 3:-0.9945 
-1 1:-1 2:-0.999961 3:-0.994519 
-1 1:-1 2:-0.999961 3:-0.994461 
-1 1:-1 2:-0.999961 3:-0.994444 
-1 1:-1 2:-0.999961 3:-0.994485 
-1 1:-1 2:-0.999961 3:-0.994462 
-1 1:-1 2:-0.99949 3:-0.99446 
-1 1:-1 2:-0.999961 3:-0.994508 
-1 1:-1 2:-0.999961 3:-0.994499 
-1 1:-1 2:-0.999961 3:-0.994475 
-1 1:-1 2:-0.999961 3:-0.994528 
-1 1:-1 2:-0.999961 3:-0.994495 
-1 1:-1 2:-0.999961 3:-0.994525 
-1 1:-0.995276 2:-1 3:-0.995329 
-1 1:-1 2:-0.999961 3:-0.99448 
-1 1:-1 2:-0.999961 3:-0.994468 
-1 1:-1 2:-0.999961 3:-0.994525 
-1 1:-0.998425 2:-1 3:-0.994901 
-1 1:-1 2:-0.999961 3:-0.994508 
-1 1:-1 2:-0.999961 3:-0.994514 
-1 1:-1 2:-0.999961 3:-0.994495 
-1 1:-1 2:-0.999961 3:-0.994459 
-1 1:-1 2:-0.999961 3:-0.994453 
-1 1:-1 2:-0.999961 3:-0.994459 
-1 1:-1 2:-0.999961 3:-0.994443 
-1 1:-1 2:-0.999961 3:-0.99449 
-1 1:-1 2:-0.999961 3:-0.994479 
-1 1:-1 2:-0.999961 3:-0.99448 
-1 1:-1 2:-0.999961 3:-0.994488 
-1 1:-1 2:-0.999961 3:-0.994508 
-1 1:-1 2:-0.999961 3:-0.994493 
-1 1:-1 2:-0.999961 3:-0.99452 
-1 1:-1 2:-0.999961 3:-0.994465 
-1 1:-1 2:-0.999961 3:-0.994485 
-1 1:-1 2:-0.999961 3:-0.994505 
-1 1:-0.998425 2:-1 3:-0.994614 
-1 1:-1 2:-0.999961 3:-0.99446 
-1 1:-1 2:-0.999961 3:-0.994449 
-1 1:-0.940157 2:-0.971663 3:-0.994959 
-1 1:-1 2:-0.999961 3:-0.994491 
-1 1:-1 2:-0.999961 3:-0.994449 
-1 1:-0.998425 2:-1 3:-0.994617 
-1 1:-1 2:-0.999961 3:-0.994506 
-1 1:-1 2:-0.999961 3:-0.994445 
-1 1:-1 2:-0.999961 3:-0.994475 
-1 1:-1 2:-0.999961 3:-0.994481 
-1 1:-1 2:-0.999961 3:-0.994445 
-1 1:-1 2:-0.999961 3:-0.994522 
-1 1:-1 2:-0.999961 3:-0.994458 
-1 1:-1 2:-0.999961 3:-0.994484 
-1 1:-1 2:-0.999961 3:-0.99446 
-1 1:-1 2:-0.999961 3:-0.994527 
-1 1:-1 2:-0.999961 3:-0.994489 
-1 1:-1 2:-0.999961 3:-0.99448 
-1 1:-1 2:-0.999961 3:-0.99448 
-1 1:-1 2:-0.999961 3:-0.994496 
-1 1:-1 2:-0.999961 3:-0.99452 
-1 1:-1 2:-0.999961 3:-0.994506 
-1 1:-1 2:-0.999961 3:-0.994446 
-1 1:-1 2:-0.999961 3:-0.994485 
-1 1:-1 2:-1 3:-0.994496 
-1 1:-0.99685 2:-1 3:-0.99513 
-1 1:-1 2:-0.999961 3:-0.994465 
-1 1:-1 2:-0.999961 3:-0.994516 
-1 1:-1 2:-0.999961 3:-0.994447 
-1 1:-1 2:-0.99949 3:-0.994472 
-1 1:-1 2:-0.994976 3:-0.994464 
-1 1:-1 2:-0.999961 3:-0.994465 
-1 1:-1 2:-0.999961 3:-0.994516 
-1 1:-1 2:-0.999961 3:-0.994511 
-1 1:-1 2:-0.999961 3:-0.994523 
-1 1:-0.998425 2:-1 3:-0.994601 
-1 1:-1 2:-0.999961 3:-0.99447 
-1 1:-1 2:-0.999961 3:-0.994489 
-1 1:-1 2:-0.999961 3:-0.99451 
-1 1:-1 2:-0.999961 3:-0.994502 
-1 1:-1 2:-0.999961 3:-0.994501 
-1 1:-1 2:-0.999961 3:-0.994456 
-1 1:-1 2:-0.999961 3:-0.99445 
-1 1:-1 2:-0.999961 3:-0.994444 
-1 1:-0.99685 2:-1 3:-0.995101 
-1 1:-1 2:-0.999961 3:-0.99449 
-1 1:-1 2:-0.999961 3:-0.994509 
-1 1:-1 2:-1 3:-0.994478 
-1 1:-1 2:-0.999961 3:-0.994478 
-1 1:-1 2:-0.999961 3:-0.994456 
-1 1:-0.99685 2:-1 3:-0.995125 
-1 1:-1 2:-0.999961 3:-0.994441 
-1 1:-1 2:-0.999961 3:-0.994445 
-1 1:-1 2:-0.999961 3:-0.994449 
-1 1:-1 2:-0.999961 3:-0.994526 
-1 1:-1 2:-0.999961 3:-0.994477 
-1 1:-1 2:-0.999961 3:-0.994467 
-1 1:-1 2:-0.999961 3:-0.994442 
-1 1:-0.998425 2:-1 3:-0.994471 
-1 1:-1 2:-0.999961 3:-0.994527 
-1 1:-1 2:-0.999961 3:-0.994493 
-1 1:-1 2:-0.999961 3:-0.99449 
-1 1:-1 2:-0.999961 3:-0.994478 
-1 1:-1 2:-0.999961 3:-0.994457 
-1 1:-0.998425 2:-1 3:-0.994462 
-1 1:-1 2:-0.999961 3:-0.994478 
-1 1:-1 2:-0.999961 3:-0.994467 
-1 1:-1 2:-0.999961 3:-0.994494 
-1 1:-1 2:-0.999961 3:-0.994444 
-1 1:-1 2:-0.999961 3:-0.994476 
-1 1:-1 2:-0.999961 3:-0.994471 
-1 1:-1 2:-0.999961 3:-0.994515 
-1 1:-1 2:-0.999961 3:-0.994497 
-1 1:-1 2:-0.999961 3:-0.994501 
-1 1:-1 2:-0.999961 3:-0.994525 
-1 1:-1 2:-0.999961 3:-0.994466 
-1 1:-1 2:-0.999961 3:-0.994481 
-1 1:-1 2:-0.999961 3:-0.994511 
-1 1:-1 2:-0.999961 3:-0.994478 
-1 1:-0.998425 2:-1 3:-0.99466 
-1 1:-1 2:-0.999961 3:-0.994465 
-1 1:-1 2:-0.999961 3:-0.994497 
-1 1:-1 2:-0.999961 3:-0.994523 
-1 1:-1 2:-0.999961 3:-0.994514 
-1 1:-1 2:-0.999961 3:-0.994527 
-1 1:-1 2:-0.999961 3:-0.994474 
-1 1:-1 2:-0.999961 3:-0.994515 
-1 1:-1 2:-0.999961 3:-0.994514 
-1 1:-1 2:-0.999961 3:-0.994526 
-1 1:-1 2:-0.999961 3:-0.994463 
-1 1:-1 2:-0.999961 3:-0.994486 
-1 1:-1 2:-0.999961 3:-0.994518 
-1 1:-1 2:-0.999961 3:-0.994464 
-1 1:-1 2:-0.999961 3:-0.994462 
-1 1:-1 2:-0.999961 3:-0.99446 
-1 1:-1 2:-0.999961 3:-0.994441 
-1 1:-1 2:-0.999961 3:-0.994459 
-1 1:-0.998425 2:-1 3:-0.994484 
-1 1:-1 2:-0.999961 3:-0.994485 
-1 1:-1 2:-0.999961 3:-0.994524 
-1 1:-0.998425 2:-1 3:-0.99448 
-1 1:-1 2:-0.999961 3:-0.99448 
-1 1:-1 2:-0.999961 3:-0.994458 
-1 1:-1 2:-0.999961 3:-0.994439 
-1 1:-1 2:-0.999961 3:-0.994472 
-1 1:-1 2:-0.999961 3:-0.994473 
-1 1:-1 2:-0.999961 3:-0.994441 
-1 1:-1 2:-0.999961 3:-0.994493 
-1 1:-1 2:-0.999961 3:-0.994451 
-1 1:-1 2:-0.999961 3:-0.994445 
-1 1:-1 2:-0.999961 3:-0.994513 
-1 1:-1 2:-0.999961 3:-0.994449 
-1 1:-1 2:-0.999765 3:-0.994529 
-1 1:-1 2:-0.999961 3:-0.994467 
-1 1:-1 2:-0.999961 3:-0.994488 
-1 1:-1 2:-0.999961 3:-0.994444 
-1 1:-0.998425 2:-1 3:-0.994582 
-1 1:-1 2:-0.999961 3:-0.994441 
-1 1:-1 2:-0.999961 3:-0.994463 
-1 1:-1 2:-0.999961 3:-0.994458 
-1 1:-1 2:-0.999961 3:-0.994449 
-1 1:-1 2:-0.999961 3:-0.994488 
-1 1:-1 2:-0.999961 3:-0.994491 
-1 1:-1 2:-0.999961 3:-0.994525 
-1 1:-1 2:-0.999961 3:-0.994494 
-1 1:-1 2:-0.999922 3:-0.994474 
-1 1:-1 2:-0.999961 3:-0.994475 
-1 1:-0.99685 2:-1 3:-0.994524 
-1 1:-1 2:-0.999961 3:-0.994457 
-1 1:-1 2:-0.999961 3:-0.994443 
-1 1:-1 2:-0.999961 3:-0.994468 
-1 1:-1 2:-0.999961 3:-0.994453 
-1 1:-1 2:-0.999961 3:-0.994495 
-1 1:-1 2:-0.999961 3:-0.994463 
-1 1:-1 2:-0.999961 3:-0.994519 
-1 1:-1 2:-0.999961 3:-0.994509 
-1 1:-1 2:-0.999961 3:-0.994502 
-1 1:-0.998425 2:-1 3:-0.994568 
-1 1:-1 2:-0.999961 3:-0.9945 
-1 1:-1 2:-0.999961 3:-0.994485 
-1 1:-1 2:-0.999961 3:-0.994497 
-1 1:-1 2:-0.999961 3:-0.994485 
-1 1:-1 2:-0.999961 3:-0.994457 
-1 1:-1 2:-0.999961 3:-0.994508 
-1 1:-1 2:-0.999961 3:-0.99446 
-1 1:-1 2:-0.999961 3:-0.994482 
-1 1:-1 2:-0.999961 3:-0.994523 
-1 1:-1 2:-0.999961 3:-0.9945 
-1 1:-1 2:-0.999961 3:-0.994447 
-1 1:-0.998425 2:-1 3:-0.994599 
-1 1:-1 2:-0.999922 3:-0.994477 
-1 1:-0.998425 2:-1 3:-0.994446 
-1 1:-0.995276 2:-1 3:-0.994857 
-1 1:-1 2:-0.999961 3:-0.994495 
-1 1:-1 2:-0.999961 3:-0.994507 
-1 1:-1 2:-0.999961 3:-0.994511 
-1 1:-1 2:-0.999961 3:-0.994513 
-1 1:-1 2:-0.999961 3:-0.994496 
-1 1:-1 2:-0.999922 3:-0.994488 
-1 1:-1 2:-0.999961 3:-0.994472 
-1 1:-1 2:-0.999961 3:-0.994459 
-1 1:-1 2:-0.999961 3:-0.994454 
-1 1:-1 2:-0.999961 3:-0.99446 
-1 1:-1 2:-0.999961 3:-0.99452 
-1 1:-1 2:-0.999961 3:-0.994472 
-1 1:-1 2:-0.999961 3:-0.994471 
-1 1:-1 2:-0.999961 3:-0.994449 
-1 1:-1 2:-0.999961 3:-0.994515 
-1 1:-1 2:-0.999961 3:-0.994506 
-1 1:-0.998425 2:-1 3:-0.994798 
-1 1:-1 2:-0.999961 3:-0.994445 
-1 1:-1 2:-0.999961 3:-0.994512 
-1 1:-1 2:-0.999961 3:-0.994472 
-1 1:-1 2:-0.999961 3:-0.994479 
-1 1:-1 2:-0.999961 3:-0.994525 
-1 1:-1 2:-1 3:-0.994505 
-1 1:-1 2:-0.999961 3:-0.994479 
-1 1:-1 2:-0.999961 3:-0.99446 
-1 1:-1 2:-0.999961 3:-0.994468 
-1 1:-1 2:-0.999961 3:-0.994507 
-1 1:-1 2:-0.999961 3:-0.994489 
-1 1:-1 2:-0.999961 3:-0.994512 
-1 1:-1 2:-0.999961 3:-0.994454 
-1 1:-1 2:-0.999961 3:-0.994441 
-1 1:-1 2:-0.999961 3:-0.994491 
-1 1:-1 2:-0.999961 3:-0.994499 
-1 1:-1 2:-0.999961 3:-0.994516 
-1 1:-1 2:-0.999961 3:-0.994511 
-1 1:-1 2:-0.999961 3:-0.994503 
-1 1:-1 2:-0.999961 3:-0.994518 
-1 1:-0.998425 2:-1 3:-0.994492 
-1 1:-1 2:-0.999961 3:-0.994443 
-1 1:-1 2:-0.999961 3:-0.994443 
-1 1:-1 2:-0.999961 3:-0.994501 
-1 1:-1 2:-0.999961 3:-0.99445 
-1 1:-1 2:-0.999961 3:-0.994439 
-1 1:-1 2:-0.999961 3:-0.994507 
-1 1:-1 2:-0.999961 3:-0.994445 
-1 1:-1 2:-0.999961 3:-0.994491 
-1 1:-1 2:-0.999961 3:-0.994509 
-1 1:-1 2:-0.999961 3:-0.994527 
-1 1:-1 2:-0.999961 3:-0.994492 
-1 1:-1 2:-0.999961 3:-0.994523 
-1 1:-1 2:-0.999961 3:-0.994477 
-1 1:-1 2:-0.999961 3:-0.99445 
-1 1:-1 2:-0.999961 3:-0.994526 
-1 1:-1 2:-0.999961 3:-0.994525 
-1 1:-1 2:-0.999961 3:-0.994471 
-1 1:-1 2:-0.999961 3:-0.994489 
-1 1:-0.998425 2:-1 3:-0.994653 
-1 1:-0.998425 2:-1 3:-0.99469 
-1 1:-1 2:-0.999961 3:-0.994452 
-1 1:-1 2:-0.999961 3:-0.994473 
-1 1:-1 2:-0.999961 3:-0.99445 
-1 1:-0.99685 2:-1 3:-0.994794 
-1 1:-1 2:-0.999961 3:-0.994496 
-1 1:-0.99685 2:-1 3:-0.995055 
-1 1:-1 2:-0.999961 3:-0.994513 
-1 1:-1 2:-0.999961 3:-0.994449 
-1 1:-1 2:-0.999961 3:-0.99451 
-1 1:-1 2:-0.999961 3:-0.994514 
-1 1:-0.998425 2:-1 3:-0.994837 
-1 1:-1 2:-0.999961 3:-0.994511 
-1 1:-1 2:-0.999961 3:-0.99444 
-1 1:-1 2:-0.999961 3:-0.994455 
-1 1:-1 2:-0.999961 3:-0.994445 
-1 1:-1 2:-0.999961 3:-0.994448 
-1 1:-1 2:-0.999961 3:-0.994446 
-1 1:-1 2:-0.999961 3:-0.994484 
-1 1:-1 2:-0.999961 3:-0.99447 
-1 1:-1 2:-0.999961 3:-0.994518 
-1 1:-1 2:-0.999961 3:-0.994497 
-1 1:-0.99685 2:-1 3:-0.994659 
-1 1:-1 2:-0.999961 3:-0.994454 
-1 1:-1 2:-0.999961 3:-0.994447 
-1 1:-1 2:-0.999961 3:-0.994527 
-1 1:-1 2:-0.999961 3:-0.994461 
-1 1:-1 2:-0.999961 3:-0.994491 
-1 1:-1 2:-0.999961 3:-0.994451 
-1 1:-1 2:-0.999961 3:-0.994447 
-1 1:-1 2:-0.999961 3:-0.994525 
-1 1:-1 2:-0.999961 3:-0.994506 
-1 1:-1 2:-0.999961 3:-0.994522 
-1 1:-1 2:-0.999961 3:-0.994483 
-1 1:-1 2:-0.999961 3:-0.994502 
-1 1:-1 2:-0.999961 3:-0.994518 
-1 1:-1 2:-0.999961 3:-0.994526 
-1 1:-1 2:-0.999961 3:-0.994506 
-1 1:-1 2:-0.999961 3:-0.994441 
-1 1:-1 2:-0.999961 3:-0.994478 
-1 1:-1 2:-0.999961 3:-0.99446 
-1 1:-0.99685 2:-1 3:-0.994795 
-1 1:-1 2:-0.999961 3:-0.99447 
-1 1:-1 2:-0.999961 3:-0.994475 
-1 1:-1 2:-0.999961 3:-0.994511 
-1 1:-1 2:-0.999961 3:-0.9945 
-1 1:-1 2:-0.999961 3:-0.99449 
-1 1:-1 2:-0.999961 3:-0.994508 
-1 1:-1 2:-0.999961 3:-0.994482 
-1 1:-1 2:-0.999961 3:-0.994493 
-1 1:-1 2:-0.999961 3:-0.994442 
-1 1:-1 2:-0.999961 3:-0.994473 
-1 1:-1 2:-0.999961 3:-0.994492 
-1 1:-0.99685 2:-1 3:-0.994577 
-1 1:-0.998425 2:-1 3:-0.994856 
-1 1:-1 2:-0.999961 3:-0.994523 
-1 1:-1 2:-0.999961 3:-0.994517 
-1 1:-1 2:-0.999922 3:-0.994519 
-1 1:-1 2:-0.999961 3:-0.994464 
-1 1:-1 2:-0.999961 3:-0.994497 
-1 1:-1 2:-0.999961 3:-0.994463 
-1 1:-1 2:-0.999961 3:-0.994488 
-1 1:-1 2:-0.999961 3:-0.994514 
-1 1:-1 2:-0.999961 3:-0.994457 
-1 1:-1 2:-0.999961 3:-0.994447 
-1 1:-1 2:-0.999961 3:-0.994474 
-1 1:-1 2:-0.999961 3:-0.994479 
-1 1:-1 2:-0.999961 3:-0.994456 
-1 1:-1 2:-0.999961 3:-0.994492 
-1 1:-0.998425 2:-1 3:-0.994866 
-1 1:-1 2:-0.999961 3:-0.994519 
-1 1:-1 2:-0.999961 3:-0.994464 
-1 1:-1 2:-0.999961 3:-0.994463 
-1 1:-1 2:-0.999961 3:-0.994439 
-1 1:-1 2:-0.999961 3:-0.994475 
-1 1:-1 2:-0.999961 3:-0.994463 
-1 1:-1 2:-0.999961 3:-0.994483 
-1 1:-1 2:-0.999961 3:-0.994453 
-1 1:-1 2:-0.999961 3:-0.994491 
-1 1:-1 2:-0.999961 3:-0.994509 
-1 1:-1 2:-0.999961 3:-0.994459 
-1 1:-1 2:-0.999961 3:-0.994443 
-1 1:-1 2:-0.999961 3:-0.994444 
-1 1:-1 2:-0.999961 3:-0.994525 
-1 1:-1 2:-0.999961 3:-0.994473 
-1 1:-1 2:-0.999961 3:-0.994519 
-1 1:-1 2:-0.999961 3:-0.994448 
-1 1:-1 2:-0.999961 3:-0.99446 
-1 1:-1 2:-0.999961 3:-0.994485 
-1 1:-1 2:-0.999961 3:-0.994484 
-1 1:-1 2:-0.999961 3:-0.994521 
-1 1:-1 2:-0.999961 3:-0.994443 
-1 1:-1 2:-0.999961 3:-0.994513 
-1 1:-1 2:-0.999961 3:-0.994445 
-1 1:-1 2:-0.999961 3:-0.994494 
-1 1:-1 2:-0.999961 3:-0.994505 
-1 1:-1 2:-0.999961 3:-0.99446 
-1 1:-1 2:-0.999961 3:-0.994506 
-1 1:-1 2:-0.999961 3:-0.99446 
-1 1:-1 2:-0.999961 3:-0.994526 
-1 1:-1 2:-0.999961 3:-0.994506 
-1 1:-1 2:-0.999961 3:-0.994479 
-1 1:-1 2:-0.999961 3:-0.994522 
-1 1:-1 2:-0.999961 3:-0.994467 
-1 1:-1 2:-0.999961 3:-0.994489 
-1 1:-1 2:-0.999961 3:-0.994468 
-1 1:-1 2:-0.999961 3:-0.994526 
-1 1:-1 2:-0.999961 3:-0.994518 
-1 1:-1 2:-0.999961 3:-0.994453 
-1 1:-1 2:-0.999961 3:-0.994467 
-1 1:-1 2:-0.999961 3:-0.994485 
-1 1:-1 2:-0.999961 3:-0.994444 
-1 1:-1 2:-0.999961 3:-0.994466 
-1 1:-1 2:-0.999961 3:-0.994463 
-1 1:-1 2:-0.999961 3:-0.994474 
-1 1:-1 2:-0.999961 3:-0.994459 
-1 1:-1 2:-0.999961 3:-0.994445 
-1 1:-1 2:-0.999961 3:-0.994507 
-1 1:-1 2:-0.999961 3:-0.994452 
-1 1:-1 2:-0.999961 3:-0.994517 
-1 1:-1 2:-0.999961 3:-0.994448 
-1 1:-1 2:-0.999961 3:-0.994443 
-1 1:-1 2:-0.999961 3:-0.9945 
-1 1:-1 2:-0.999961 3:-0.994446 
-1 1:-1 2:-0.999961 3:-0.994503 
-1 1:-1 2:-0.999961 3:-0.994492 
-1 1:-1 2:-0.999961 3:-0.994449 
-1 1:-1 2:-0.999961 3:-0.994451 
-1 1:-1 2:-0.999961 3:-0.994477 
-1 1:-1 2:-0.999961 3:-0.994504 
-1 1:-1 2:-0.999961 3:-0.994472 
-1 1:-1 2:-0.999961 3:-0.994446 
-1 1:-1 2:-0.999961 3:-0.994459 
-1 1:-1 2:-0.999961 3:-0.9945 
-1 1:-1 2:-0.999961 3:-0.994461 
-1 1:-1 2:-0.999961 3:-0.994492 
-1 1:-1 2:-0.999961 3:-0.994485 
-1 1:-0.998425 2:-1 3:-0.994816 
-1 1:-1 2:-0.999961 3:-0.994475 
-1 1:-1 2:-0.999961 3:-0.994513 
-1 1:-1 2:-0.999961 3:-0.994505 
-1 1:-1 2:-0.999961 3:-0.994474 
-1 1:-1 2:-0.999961 3:-0.994452 
-1 1:-1 2:-0.999961 3:-0.994477 
-1 1:-1 2:-0.999961 3:-0.994524 
-1 1:-1 2:-0.999961 3:-0.994487 
-1 1:-1 2:-0.999961 3:-0.994517 
-1 1:-1 2:-0.999961 3:-0.994473 
-1 1:-1 2:-0.999961 3:-0.994444 
-1 1:-1 2:-0.999961 3:-0.99452 
-1 1:-1 2:-0.999961 3:-0.994496 
-1 1:-1 2:-0.999961 3:-0.994453 
-1 1:-1 2:-0.999961 3:-0.994506 
-1 1:-1 2:-0.999961 3:-0.994504 
-1 1:-0.998425 2:-1 3:-0.994719 
-1 1:-1 2:-0.999961 3:-0.99452 
-1 1:-1 2:-0.999961 3:-0.994456 
-1 1:-1 2:-0.999961 3:-0.994477 
-1 1:-0.998425 2:-1 3:-0.994737 
-1 1:-1 2:-0.999961 3:-0.994523 
-1 1:-1 2:-0.999961 3:-0.994484 
-1 1:-1 2:-0.999961 3:-0.99451 
-1 1:-1 2:-0.999961 3:-0.994475 
-1 1:-1 2:-0.999961 3:-0.99451 
-1 1:-1 2:-0.999961 3:-0.994473 
-1 1:-1 2:-0.999961 3:-0.994498 
-1 1:-1 2:-0.999961 3:-0.994507 
-1 1:-1 2:-0.999961 3:-0.994458 
-1 1:-1 2:-0.999961 3:-0.994451 
-1 1:-1 2:-0.999961 3:-0.994529 
-1 1:-1 2:-0.999961 3:-0.994448 
-1 1:-1 2:-0.999961 3:-0.994516 
-1 1:-1 2:-0.999961 3:-0.994446 
-1 1:-1 2:-0.999961 3:-0.994473 
-1 1:-1 2:-0.999961 3:-0.994444 
-1 1:-1 2:-0.999961 3:-0.99452 
-1 1:-1 2:-0.999961 3:-0.994501 
-1 1:-1 2:-0.999961 3:-0.99451 
-1 1:-1 2:-0.999961 3:-0.994509 
-1 1:-1 2:-0.999961 3:-0.994504 
-1 1:-1 2:-0.999961 3:-0.994512 
-1 1:-1 2:-0.999961 3:-0.994456 
-1 1:-1 2:-0.999961 3:-0.994504 
-1 1:-1 2:-0.999961 3:-0.9945 
-1 1:-1 2:-0.999961 3:-0.994527 
-1 1:-1 2:-0.999961 3:-0.994513 
-1 1:-1 2:-0.999961 3:-0.99449 
-1 1:-1 2:-0.999961 3:-0.994481 
-1 1:-1 2:-0.999961 3:-0.99452 
-1 1:-1 2:-0.999961 3:-0.994504 
-1 1:-1 2:-0.999961 3:-0.994477 
-1 1:-1 2:-0.999961 3:-0.994449 
-1 1:-1 2:-0.999961 3:-0.994503 
-1 1:-1 2:-0.999961 3:-0.99448 
-1 1:-1 2:-0.999961 3:-0.994512 
-1 1:-0.998425 2:-1 3:-0.994583 
-1 1:-0.998425 2:-1 3:-0.994827 
-1 1:-0.99685 2:-1 3:-0.995011 
-1 1:-1 2:-0.999961 3:-0.994455 
-1 1:-1 2:-0.999961 3:-0.994475 
-1 1:-1 2:-0.999961 3:-0.994471 
-1 1:-1 2:-0.999961 3:-0.99446 
-1 1:-1 2:-0.999961 3:-0.994513 
-1 1:-0.998425 2:-1 3:-0.994869 
-1 1:-1 2:-0.999961 3:-0.994483 
-1 1:-1 2:-0.999961 3:-0.994474 
-1 1:-1 2:-0.999961 3:-0.994473 
-1 1:-1 2:-0.999961 3:-0.994515 
-1 1:-1 2:-0.999961 3:-0.994504 
-1 1:-1 2:-0.999961 3:-0.994439 
-1 1:-1 2:-0.999961 3:-0.994494 
-1 1:-1 2:-0.999961 3:-0.994483 
-1 1:-1 2:-0.999961 3:-0.994459 
-1 1:-1 2:-0.999961 3:-0.994491 
-1 1:-1 2:-0.999961 3:-0.994457 
-1 1:-1 2:-1 3:-0.99445 
-1 1:-1 2:-0.999961 3:-0.994453 
-1 1:-1 2:-0.999961 3:-0.994439 
-1 1:-1 2:-0.999961 3:-0.994523 
-1 1:-1 2:-0.999961 3:-0.994503 
-1 1:-0.99685 2:-1 3:-0.994657 
-1 1:-1 2:-0.999961 3:-0.994514 
-1 1:-1 2:-0.999961 3:-0.994522 
-1 1:-1 2:-0.999961 3:-0.994502 
-1 1:-1 2:-0.999922 3:-0.994456 
-1 1:-1 2:-0.999961 3:-0.994444 
-1 1:-1 2:-0.999961 3:-0.994516 
-1 1:-1 2:-0.999961 3:-0.994488 
-1 1:-1 2:-0.999961 3:-0.994465 
-1 1:-1 2:-0.999961 3:-0.994473 
-1 1:-1 2:-0.999961 3:-0.994488 
-1 1:-1 2:-0.999961 3:-0.994458 
-1 1:-1 2:-0.999961 3:-0.994512 
-1 1:-1 2:-0.999961 3:-0.994443 
-1 1:-0.998425 2:-1 3:-0.99461 
-1 1:-1 2:-0.999961 3:-0.994448 
-1 1:-1 2:-0.999961 3:-0.994465 
-1 1:-1 2:-0.999961 3:-0.994499 
-1 1:-1 2:-0.999961 3:-0.994478 
-1 1:-1 2:-0.999961 3:-0.994516 
-1 1:-1 2:-0.999961 3:-0.994526 
-1 1:-1 2:-0.999961 3:-0.994439 
-1 1:-1 2:-0.999961 3:-0.994493 
-1 1:-1 2:-0.999961 3:-0.994473 
-1 1:-1 2:-0.999961 3:-0.994504 
-1 1:-1 2:-0.999961 3:-0.994479 
-1 1:-1 2:-0.999961 3:-0.994459 
-1 1:-0.998425 2:-1 3:-0.994813 
-1 1:-1 2:-0.999961 3:-0.994523 
-1 1:-1 2:-0.999961 3:-0.994508 
-1 1:-1 2:-0.999961 3:-0.994458 
-1 1:-1 2:-0.999961 3:-0.994447 
-1 1:-1 2:-0.999961 3:-0.99446 
-1 1:-1 2:-0.999961 3:-0.994451 
-1 1:-1 2:-0.999961 3:-0.994459 
-1 1:-1 2:-0.999961 3:-0.994515 
-1 1:-1 2:-0.999961 3:-0.994451 
-1 1:-1 2:-0.999961 3:-0.99444 
-1 1:-1 2:-0.999961 3:-0.994472 
-1 1:-0.998425 2:-1 3:-0.994764 
-1 1:-0.998425 2:-1 3:-0.99485 
-1 1:-1 2:-0.999961 3:-0.994513 
-1 1:-1 2:-0.999961 3:-0.994527 
-1 1:-1 2:-0.999961 3:-0.994439 
-1 1:-1 2:-0.999961 3:-0.994485 
-1 1:-1 2:-0.999961 3:-0.994485 
-1 1:-0.998425 2:-1 3:-0.994748 
-1 1:-0.99685 2:-1 3:-0.994733 
-1 1:-1 2:-0.999961 3:-0.994503 
-1 1:-1 2:-0.999961 3:-0.994472 
-1 1:-1 2:-0.999961 3:-0.994491 
-1 1:-1 2:-0.999961 3:-0.994439 
-1 1:-1 2:-0.999961 3:-0.994462 
-1 1:-0.998425 2:-1 3:-0.994722 
-1 1:-0.99685 2:-1 3:-0.994512 
-1 1:-1 2:-0.999961 3:-0.994475 
-1 1:-0.998425 2:-1 3:-0.994531 
-1 1:-0.998425 2:-1 3:-0.994451 
-1 1:-1 2:-0.999961 3:-0.99447 
-1 1:-1 2:-0.999961 3:-0.99451 
-1 1:-1 2:-0.999961 3:-0.994502 
-1 1:-1 2:-0.999961 3:-0.994513 
-1 1:-1 2:-0.999961 3:-0.9945 
-1 1:-1 2:-0.999961 3:-0.994457 
-1 1:-1 2:-0.999961 3:-0.994479 
-1 1:-0.998425 2:-1 3:-0.994865 
-1 1:-1 2:-0.999961 3:-0.994457 
-1 1:-1 2:-0.999961 3:-0.99446 
-1 1:-1 2:-0.999961 3:-0.994444 
-1 1:-1 2:-0.999961 3:-0.994451 
-1 1:-1 2:-0.999961 3:-0.994464 
-1 1:-1 2:-0.999961 3:-0.994465 
-1 1:-1 2:-0.999961 3:-0.994456 
-1 1:-1 2:-0.999961 3:-0.994439 
-1 1:-1 2:-0.999961 3:-0.994449 
-1 1:-1 2:-0.999961 3:-0.994452 
-1 1:-1 2:-0.999961 3:-0.994439 
-1 1:-1 2:-0.999961 3:-0.994457 
-1 1:-1 2:-0.999961 3:-0.99451 
-1 1:-1 2:-0.999961 3:-0.994524 
-1 1:-1 2:-0.999961 3:-0.994493 
-1 1:-1 2:-0.999961 3:-0.99447 
-1 1:-1 2:-1 3:-0.994469 
-1 1:-1 2:-0.999961 3:-0.994501 
-1 1:-0.998425 2:-1 3:-0.994655 
-1 1:-1 2:-0.999961 3:-0.994497 
-1 1:-1 2:-0.999961 3:-0.994526 
-1 1:-1 2:-0.999961 3:-0.994515 
-1 1:-1 2:-0.999961 3:-0.994449 
-1 1:-1 2:-0.999961 3:-0.99447 
-1 1:-0.998425 2:-1 3:-0.994697 
-1 1:-1 2:-0.999961 3:-0.994484 
-1 1:-1 2:-0.999961 3:-0.994485 
-1 1:-1 2:-0.999961 3:-0.994443 
-1 1:-1 2:-0.999961 3:-0.994504 
-1 1:-1 2:-0.999961 3:-0.994439 
-1 1:-1 2:-0.999961 3:-0.99452 
-1 1:-1 2:-0.999961 3:-0.994502 
-1 1:-1 2:-0.999961 3:-0.994512 
-1 1:-1 2:-0.999961 3:-0.994465 
-1 1:-1 2:-0.999961 3:-0.99451 
-1 1:-1 2:-0.999961 3:-0.994521 
-1 1:-1 2:-0.999961 3:-0.994475 
-1 1:-1 2:-0.999961 3:-0.994517 
-1 1:-1 2:-0.999961 3:-0.994453 
-1 1:-1 2:-0.999961 3:-0.994485 
-1 1:-1 2:-0.999961 3:-0.994471 
-1 1:-1 2:-0.999961 3:-0.994454 
-1 1:-1 2:-0.999961 3:-0.994488 
-1 1:-1 2:-0.999961 3:-0.994519 
-1 1:-0.99685 2:-1 3:-0.994499 
-1 1:-1 2:-0.999961 3:-0.994504 
-1 1:-1 2:-0.999961 3:-0.994495 
-1 1:-1 2:-0.999961 3:-0.994444 
-1 1:-1 2:-0.999961 3:-0.994476 
-1 1:-1 2:-0.999961 3:-0.994522 
-1 1:-1 2:-0.999961 3:-0.994478 
-1 1:-1 2:-0.999961 3:-0.994526 
-1 1:-1 2:-0.999961 3:-0.994464 
-1 1:-1 2:-0.999961 3:-0.994505 
-1 1:-1 2:-0.999922 3:-0.994479 
-1 1:-1 2:-0.999961 3:-0.994443 
-1 1:-1 2:-0.999961 3:-0.994513 
-1 1:-1 2:-0.999961 3:-0.994503 
-1 1:-1 2:-0.999961 3:-0.994511 
-1 1:-1 2:-0.999961 3:-0.994462 
-1 1:-1 2:-0.999961 3:-0.994476 
-1 1:-1 2:-0.999961 3:-0.994442 
-1 1:-1 2:-0.999961 3:-0.994517 
-1 1:-1 2:-0.999961 3:-0.994523 
-1 1:-0.998425 2:-1 3:-0.994845 
-1 1:-1 2:-0.999961 3:-0.994451 
-1 1:-1 2:-0.999961 3:-0.994478 
-1 1:-1 2:-0.999961 3:-0.994475 
-1 1:-1 2:-0.999961 3:-0.994491 
-1 1:-1 2:-0.999961 3:-0.994502 
-1 1:-1 2:-0.999961 3:-0.994493 
-1 1:-1 2:-0.999961 3:-0.99447 
-1 1:-0.998425 2:-1 3:-0.994455 
-1 1:-1 2:-0.999961 3:-0.994484 
-1 1:-1 2:-0.999961 3:-0.99447 
-1 1:-1 2:-0.999961 3:-0.994502 
-1 1:-1 2:-0.999961 3:-0.994472 
-1 1:-1 2:-0.999961 3:-0.994493 
-1 1:-1 2:-0.999961 3:-0.994477 
-1 1:-1 2:-0.999961 3:-0.994471 
-1 1:-1 2:-0.999961 3:-0.994507 
-1 1:-1 2:-0.999961 3:-0.99447 
-1 1:-1 2:-0.999961 3:-0.99445 
-1 1:-1 2:-0.999961 3:-0.994494 
-1 1:-1 2:-0.999961 3:-0.994493 
-1 1:-1 2:-0.999961 3:-0.994461 
-1 1:-0.998425 2:-1 3:-0.994727 
-1 1:-0.99685 2:-1 3:-0.994488 
-1 1:-1 2:-0.999961 3:-0.994504 
-1 1:-1 2:-0.999961 3:-0.99448 
-1 1:-1 2:-0.999961 3:-0.994522 
-1 1:-1 2:-0.999961 3:-0.994489 
-1 1:-1 2:-0.999961 3:-0.994462 
-1 1:-1 2:-0.999961 3:-0.994493 
-1 1:-1 2:-0.999961 3:-0.994473 
-1 1:-1 2:-0.999961 3:-0.994473 
-1 1:-1 2:-0.999961 3:-0.994517 
-1 1:-1 2:-0.999961 3:-0.994476 
-1 1:-1 2:-0.999961 3:-0.994453 
-1 1:-1 2:-0.999961 3:-0.994473 
-1 1:-1 2:-0.999961 3:-0.994481 
-1 1:-1 2:-0.999961 3:-0.994511 
-1 1:-1 2:-0.999961 3:-0.994465 
-1 1:-1 2:-0.999961 3:-0.994464 
-1 1:-1 2:-0.999961 3:-0.994483 
-1 1:-1 2:-0.999961 3:-0.994478 
-1 1:-1 2:-0.999961 3:-0.994449 
-1 1:-1 2:-0.999961 3:-0.994471 
-1 1:-1 2:-0.999961 3:-0.994446 
-1 1:-1 2:-0.999961 3:-0.994487 
-1 1:-1 2:-0.999961 3:-0.994526 
-1 1:-1 2:-0.999961 3:-0.994484 
-1 1:-1 2:-0.999961 3:-0.994496 
-1 1:-1 2:-0.999961 3:-0.994512 
-1 1:-1 2:-0.999961 3:-0.994459 
-1 1:-1 2:-0.999961 3:-0.994499 
-1 1:-1 2:-0.999961 3:-0.994449 
-1 1:-1 2:-0.999961 3:-0.994471 
-1 1:-0.998425 2:-1 3:-0.994876 
-1 1:-1 2:-0.999961 3:-0.994476 
-1 1:-1 2:-0.999961 3:-0.994489 
-1 1:-1 2:-0.999961 3:-0.99445 
-1 1:-0.998425 2:-1 3:-0.994856 
-1 1:-1 2:-0.999961 3:-0.994441 
-1 1:-0.998425 2:-1 3:-0.99462 
-1 1:-1 2:-0.999961 3:-0.994533 
-1 1:-1 2:-0.999961 3:-0.994465 
-1 1:-1 2:-0.999961 3:-0.994444 
-1 1:-1 2:-0.999961 3:-0.99446 
-1 1:-1 2:-0.999961 3:-0.994469 
-1 1:-1 2:-0.999961 3:-0.994514 
-1 1:-1 2:-0.999961 3:-0.994493 
-1 1:-1 2:-0.999961 3:-0.994494 
-1 1:-1 2:-0.999961 3:-0.994513 
-1 1:-1 2:-0.999961 3:-0.994517 
-1 1:-0.998425 2:-1 3:-0.994602 
-1 1:-1 2:-0.999961 3:-0.994443 
-1 1:-1 2:-0.999961 3:-0.994521 
-1 1:-1 2:-0.999215 3:-0.994551 
-1 1:-1 2:-0.999961 3:-0.994524 
-1 1:-0.998425 2:-1 3:-0.994563 
-1 1:-1 2:-0.999961 3:-0.994442 
-1 1:-1 2:-0.999961 3:-0.994467 
-1 1:-1 2:-0.999961 3:-0.994482 
-1 1:-1 2:-0.999961 3:-0.994484 
-1 1:-1 2:-0.999961 3:-0.994485 
-1 1:-1 2:-0.999961 3:-0.994522 
-1 1:-1 2:-0.999961 3:-0.994482 
-1 1:-1 2:-0.999961 3:-0.994444 
-1 1:-1 2:-0.999961 3:-0.994484 
-1 1:-1 2:-0.999961 3:-0.994458 
-1 1:-1 2:-0.999961 3:-0.994519 
-1 1:-0.998425 2:-1 3:-0.994872 
-1 1:-1 2:-0.999961 3:-0.994501 
-1 1:-1 2:-0.999961 3:-0.994506 
-1 1:-1 2:-0.999961 3:-0.994524 
-1 1:-1 2:-0.999961 3:-0.994492 
-1 1:-1 2:-0.999961 3:-0.994454 
-1 1:-1 2:-0.999961 3:-0.994526 
-1 1:-1 2:-0.999961 3:-0.994484 
-1 1:-1 2:-0.999961 3:-0.994444 
-1 1:-1 2:-0.999961 3:-0.994473 
-1 1:-1 2:-0.999961 3:-0.994512 
-1 1:-1 2:-0.999961 3:-0.994447 
-1 1:-1 2:-0.999961 3:-0.994524 
-1 1:-1 2:-0.999961 3:-0.994472 
-1 1:-1 2:-0.999961 3:-0.994486 
-1 1:-1 2:-0.999961 3:-0.994512 
-1 1:-1 2:-0.999961 3:-0.994525 
-1 1:-1 2:-0.999961 3:-0.994469 
-1 1:-1 2:-0.999961 3:-0.994517 
-1 1:-1 2:-0.999961 3:-0.994514 
-1 1:-1 2:-0.999961 3:-0.994469 
-1 1:-1 2:-0.999961 3:-0.994476 
-1 1:-0.998425 2:-1 3:-0.994475 
-1 1:-1 2:-0.999961 3:-0.994453 
-1 1:-1 2:-0.999961 3:-0.994524 
-1 1:-1 2:-0.999961 3:-0.994526 
-1 1:-1 2:-0.999961 3:-0.994447 
-1 1:-1 2:-0.999961 3:-0.994467 
-1 1:-1 2:-0.999961 3:-0.994507 
