svm_type c_svc
kernel_type sigmoid
gamma 0.333333
coef0 0
nr_class 2
total_sv 4055
rho 1345.03
label 1 -1
nr_sv 2027 2028
SV
1 1:9 2:1 3:2.287097 
1 1:1 2:1 3:2.560563 
1 1:1 2:1 3:24.749542 
1 1:31 2:13 3:35.627711 
1 1:2 2:1 3:3.796536 
1 1:1 2:1 3:15.72927 
1 1:15 2:51 3:32.846389 
1 1:12 2:19 3:6.478908 
1 1:39 2:66 3:48.790735 
1 1:28 2:42 3:9.510284 
1 1:11 2:33 3:5.278898 
1 1:0 2:2 3:6.741535 
1 1:39 2:8 3:46.384132 
1 1:0 2:4 3:23.73729 
1 1:0 2:3 3:14.873934 
1 1:0 2:1 3:4.178786 
1 1:0 2:1 3:4.178786 
1 1:1 2:1 3:0.438763 
1 1:27 2:10 3:2.808711 
1 1:5 2:42 3:0.435796 
1 1:0 2:1 3:0.580294 
1 1:1 2:1 3:0.706519 
1 1:0 2:1 3:0.773732 
1 1:7 2:3 3:9.053269 
1 1:14 2:6 3:4.298487 
1 1:19 2:14 3:17.43345 
1 1:24 2:4 3:33.24636 
1 1:0 2:2 3:0.520456 
1 1:0 2:3 3:2.0227 
1 1:17 2:21 3:13.381852 
1 1:0 2:2 3:1.096222 
1 1:0 2:1 3:1.632848 
1 1:12 2:22 3:32.149799 
1 1:13 2:23 3:4.126668 
1 1:6 2:24 3:3.906626 
1 1:47 2:48 3:59.142857 
1 1:29 2:12 3:37.015746 
1 1:0 2:3 3:0.81932 
1 1:1 2:3 3:0.749722 
1 1:3 2:7 3:15.818198 
1 1:1 2:3 3:33.402655 
1 1:29 2:2 3:153.2792 
1 1:10 2:4 3:50.387554 
1 1:1 2:14 3:1.01783 
1 1:1 2:2 3:2.223248 
1 1:3 2:8 3:7.584309 
1 1:2 2:3 3:4.217551 
1 1:1 2:2 3:7.544926 
1 1:1 2:171 3:7.584309 
1 1:1 2:363 3:5.046291 
1 1:1 2:363 3:5.046291 
1 1:1 2:19 3:2.957075 
1 1:2 2:50 3:0.656205 
1 1:51 2:590 3:0.656205 
1 1:2 2:47 3:1.028549 
1 1:42 2:17 3:4.645707 
1 1:1 2:1 3:5.316386 
1 1:1 2:18 3:3.232355 
1 1:1 2:1 3:9.81052 
1 1:2 2:3 3:17.149698 
1 1:4 2:29 3:4.645707 
1 1:0 2:1 3:5.116444 
1 1:0 2:1 3:15.845578 
1 1:0 2:1 3:15.845578 
1 1:0 2:3 3:1.690291 
1 1:8 2:7 3:5.454058 
1 1:34 2:18 3:27.138162 
1 1:23 2:14 3:24.939385 
1 1:0 2:1 3:0.746792 
1 1:6 2:35 3:5.586528 
1 1:14 2:2 3:4.64922 
1 1:11 2:9 3:5.12667 
1 1:19 2:9 3:16.002661 
1 1:0 2:8 3:2.355441 
1 1:18 2:3 3:4.719955 
1 1:6 2:20 3:4.254814 
1 1:5 2:21 3:2.196619 
1 1:6 2:8 3:12.552828 
1 1:0 2:1 3:0.45874 
1 1:0 2:1 3:0.668191 
1 1:24 2:3 3:41.047619 
1 1:16 2:20 3:36.10045 
1 1:24 2:1 3:48.5 
1 1:24 2:48 3:44.262456 
1 1:7 2:21 3:4.966172 
1 1:0 2:4 3:0.478288 
1 1:16 2:13 3:8.959767 
1 1:6 2:25 3:2.295923 
1 1:15 2:13 3:22.705664 
1 1:16 2:3 3:7.522465 
1 1:25 2:13 3:32.114592 
1 1:10 2:16 3:4.122227 
1 1:4 2:54 3:42.65 
1 1:12 2:24 3:5.339835 
1 1:31 2:37 3:44.332143 
1 1:16 2:6 3:7.699663 
1 1:12 2:16 3:4.330386 
1 1:17 2:8 3:4.100784 
1 1:27 2:50 3:28.516772 
1 1:1 2:2 3:1.406182 
1 1:22 2:31 3:38.52381 
1 1:23 2:15 3:15.497042 
1 1:0 2:1 3:0.725481 
1 1:11 2:17 3:5.167436 
1 1:21 2:42 3:0.440413 
1 1:15 2:15 3:5.331643 
1 1:0 2:1 3:1.677165 
1 1:14 2:25 3:3.475287 
1 1:27 2:15 3:29.933271 
1 1:6 2:2 3:28.405479 
1 1:5 2:4 3:4.578997 
1 1:1 2:2 3:0.423262 
1 1:17 2:30 3:11.35928 
1 1:0 2:1 3:1.335166 
1 1:0 2:1 3:0.664884 
1 1:0 2:1 3:1.59217 
1 1:0 2:1 3:1.331632 
1 1:1 2:3 3:0.785196 
1 1:0 2:2 3:9.710723 
1 1:0 2:1 3:10.59536 
1 1:0 2:7 3:3.824479 
1 1:2 2:31 3:4.305339 
1 1:2 2:5 3:6.894929 
1 1:0 2:2 3:1.312474 
1 1:0 2:2 3:3.403642 
1 1:0 2:43 3:14.605387 
1 1:3 2:26 3:0.999429 
1 1:0 2:3 3:25.519517 
1 1:1 2:17 3:2.41926 
1 1:11 2:31 3:8.071525 
1 1:5 2:1 3:2.140398 
1 1:27 2:9 3:46.792651 
1 1:14 2:7 3:6.699297 
1 1:17 2:1 3:9.883686 
1 1:26 2:8 3:22.168226 
1 1:26 2:5 3:12.499729 
1 1:20 2:23 3:11.386245 
1 1:17 2:16 3:57.146755 
1 1:19 2:12 3:20.925519 
1 1:10 2:5 3:8.64858 
1 1:12 2:5 3:3.483132 
1 1:11 2:27 3:5.840116 
1 1:10 2:7 3:5.168634 
1 1:7 2:20 3:5.663578 
1 1:10 2:5 3:6.831098 
1 1:12 2:7 3:2.172261 
1 1:23 2:1 3:16.0886 
1 1:22 2:1 3:49.65 
1 1:36 2:14 3:38.151645 
1 1:32 2:11 3:33.521891 
1 1:0 2:6 3:3.222539 
1 1:24 2:5 3:42.047619 
1 1:22 2:61 3:14.887379 
1 1:27 2:9 3:10.915293 
1 1:12 2:11 3:1.71183 
1 1:11 2:13 3:0.745606 
1 1:33 2:51 3:56.714286 
1 1:0 2:6 3:0.679348 
1 1:7 2:11 3:2.297163 
1 1:1 2:1 3:1.256143 
1 1:0 2:20 3:9.08391 
1 1:8 2:17 3:1.473219 
1 1:13 2:21 3:7.559538 
1 1:13 2:3 3:5.680233 
1 1:9 2:19 3:9.919987 
1 1:5 2:8 3:16.23471 
1 1:10 2:48 3:10.166483 
1 1:0 2:22 3:21.756964 
1 1:16 2:7 3:4.825008 
1 1:5 2:29 3:4.666817 
1 1:8 2:4 3:4.00303 
1 1:7 2:45 3:14.159315 
1 1:12 2:6 3:2.395596 
1 1:11 2:1 3:39.082402 
1 1:30 2:9 3:38.517892 
1 1:7 2:42 3:9.75535 
1 1:0 2:1 3:0.581028 
1 1:12 2:7 3:4.448427 
1 1:10 2:12 3:5.947008 
1 1:30 2:13 3:33.715426 
1 1:35 2:48 3:58.238095 
1 1:20 2:1 3:19.769568 
1 1:8 2:9 3:4.628909 
1 1:2 2:11 3:0.690141 
1 1:25 2:85 3:29.500434 
1 1:6 2:8 3:2.785845 
1 1:11 2:6 3:3.407017 
1 1:0 2:6 3:1.210757 
1 1:3 2:26 3:5.421622 
1 1:16 2:1 3:3.25574 
1 1:1 2:1 3:0.62471 
1 1:11 2:24 3:6.24447 
1 1:2 2:3 3:6.267877 
1 1:7 2:19 3:11.246594 
1 1:11 2:22 3:8.892602 
1 1:0 2:3 3:0.556113 
1 1:0 2:1 3:29.567094 
1 1:1 2:2 3:2.285894 
1 1:0 2:4 3:34.44191 
1 1:31 2:4 3:41.963437 
1 1:0 2:1 3:0.8374 
1 1:8 2:6 3:7.32769 
1 1:0 2:1 3:1.380891 
1 1:8 2:1 3:4.346175 
1 1:8 2:22 3:4.285547 
1 1:14 2:18 3:13.978583 
1 1:11 2:24 3:9.360901 
1 1:10 2:26 3:7.084158 
1 1:2 2:2 3:0.610702 
1 1:23 2:9 3:4.662303 
1 1:22 2:13 3:23.146477 
1 1:1 2:14 3:40.238095 
1 1:20 2:14 3:27.92048 
1 1:10 2:17 3:7.7459 
1 1:0 2:1 3:1.082633 
1 1:28 2:9 3:29.939843 
1 1:16 2:2 3:34.904762 
1 1:0 2:5 3:6.926334 
1 1:34 2:6 3:34.860489 
1 1:12 2:5 3:2.440644 
1 1:22 2:39 3:24.735843 
1 1:0 2:2 3:0.632025 
1 1:30 2:9 3:33.439857 
1 1:21 2:27 3:9.462361 
1 1:18 2:11 3:29.649248 
1 1:1 2:2 3:37.184753 
1 1:21 2:31 3:12.53306 
1 1:12 2:1 3:4.84534 
1 1:21 2:24 3:12.722314 
1 1:0 2:1 3:0.528287 
1 1:15 2:25 3:8.174083 
1 1:5 2:7 3:2.468701 
1 1:12 2:4 3:6.811983 
1 1:31 2:13 3:21.707362 
1 1:6 2:5 3:25.042817 
1 1:20 2:7 3:35.656651 
1 1:28 2:38 3:51.459932 
1 1:21 2:5 3:14.659763 
1 1:12 2:21 3:86.4056 
1 1:13 2:15 3:9.180296 
1 1:10 2:34 3:7.617049 
1 1:23 2:20 3:9.726326 
1 1:6 2:5 3:2.525536 
1 1:11 2:6 3:1.439689 
1 1:9 2:6 3:12.386364 
1 1:13 2:6 3:4.823823 
1 1:26 2:22 3:8.073388 
1 1:0 2:4 3:0.421242 
1 1:0 2:1 3:3.316852 
1 1:0 2:1 3:21.072858 
1 1:0 2:4 3:4.034498 
1 1:0 2:1 3:2.201323 
1 1:0 2:1 3:0.752429 
1 1:0 2:6 3:0.475061 
1 1:0 2:6 3:0.962944 
1 1:0 2:1 3:2.165168 
1 1:12 2:6 3:2.527372 
1 1:21 2:5 3:25.270385 
1 1:11 2:2 3:2.508453 
1 1:8 2:15 3:3.488112 
1 1:8 2:8 3:4.910266 
1 1:0 2:2 3:7.228307 
1 1:0 2:1 3:10.001104 
1 1:0 2:6 3:0.939932 
1 1:12 2:2 3:7.687332 
1 1:4 2:28 3:14.543309 
1 1:4 2:38 3:5.941224 
1 1:23 2:5 3:8.285362 
1 1:25 2:5 3:34.590093 
1 1:21 2:5 3:13.251087 
1 1:9 2:22 3:5.834772 
1 1:9 2:16 3:4.621258 
1 1:3 2:1 3:2.968379 
1 1:174 2:76 3:8.982531 
1 1:21 2:37 3:50.068868 
1 1:20 2:11 3:48.67203 
1 1:17 2:7 3:23.022121 
1 1:0 2:1 3:17.956783 
1 1:8 2:21 3:6.335076 
1 1:10 2:17 3:5.355342 
1 1:35 2:6 3:47.713481 
1 1:29 2:2 3:36.286184 
1 1:13 2:44 3:34.1 
1 1:0 2:1 3:0.484345 
1 1:7 2:6 3:5.169789 
1 1:8 2:1 3:6.036069 
1 1:11 2:4 3:9.301134 
1 1:15 2:8 3:8.111851 
1 1:0 2:1 3:2.103251 
1 1:23 2:4 3:15.289638 
1 1:25 2:31 3:44.333333 
1 1:26 2:6 3:37.978095 
1 1:29 2:35 3:43.047619 
1 1:9 2:20 3:7.815029 
1 1:14 2:6 3:78.098822 
1 1:19 2:6 3:7.446764 
1 1:14 2:10 3:8.508737 
1 1:15 2:4 3:5.230269 
1 1:0 2:1 3:1.621629 
1 1:17 2:16 3:16.781262 
1 1:39 2:23 3:12.407413 
1 1:10 2:20 3:11.966125 
1 1:16 2:3 3:12.083348 
1 1:3 2:16 3:2.930617 
1 1:1 2:8 3:2.278393 
1 1:18 2:13 3:14.409495 
1 1:1 2:6 3:0.911974 
1 1:32 2:1 3:40.96914 
1 1:19 2:11 3:20.367195 
1 1:16 2:15 3:9.036023 
1 1:8 2:1 3:2.352264 
1 1:14 2:52 3:52.554125 
1 1:32 2:3 3:36.668196 
1 1:20 2:4 3:27.166969 
1 1:0 2:1 3:3.359329 
1 1:14 2:31 3:6.435759 
1 1:21 2:10 3:16.357584 
1 1:25 2:1 3:32.857143 
1 1:0 2:1 3:0.502342 
1 1:0 2:2 3:3.985619 
1 1:2 2:1 3:1.854712 
1 1:0 2:1 3:11.77949 
1 1:16 2:24 3:9.609188 
1 1:1 2:2 3:1.175346 
1 1:0 2:2 3:1.738961 
1 1:0 2:1 3:1.102648 
1 1:0 2:1 3:1.102648 
1 1:27 2:18 3:24.843894 
1 1:11 2:2 3:5.733771 
1 1:6 2:20 3:12.090681 
1 1:28 2:6 3:28.764637 
1 1:17 2:10 3:30.480641 
1 1:12 2:1 3:4.099332 
1 1:24 2:11 3:10.417317 
1 1:11 2:21 3:11.013334 
1 1:18 2:8 3:5.366103 
1 1:26 2:2 3:43.285714 
1 1:8 2:18 3:6.997558 
1 1:17 2:7 3:8.576781 
1 1:15 2:54 3:51.154788 
1 1:10 2:27 3:1.313229 
1 1:1 2:6 3:1.595591 
1 1:21 2:7 3:17.783288 
1 1:8 2:23 3:15.485315 
1 1:19 2:16 3:24.413318 
1 1:14 2:14 3:9.334275 
1 1:12 2:20 3:5.799533 
1 1:7 2:2 3:2.090349 
1 1:14 2:10 3:7.612332 
1 1:1 2:4 3:2.588467 
1 1:2 2:19 3:5.276443 
1 1:10 2:20 3:4.105971 
1 1:7 2:5 3:32.521243 
1 1:14 2:44 3:41.579476 
1 1:13 2:27 3:11.327263 
1 1:7 2:1 3:4.534522 
1 1:30 2:11 3:55.582324 
1 1:9 2:3 3:4.135211 
1 1:1 2:1 3:0.521087 
1 1:0 2:40 3:5.221148 
1 1:3 2:1 3:5.861554 
1 1:3 2:14 3:6.28531 
1 1:16 2:10 3:14.497416 
1 1:9 2:7 3:24.607209 
1 1:3 2:6 3:7.204376 
1 1:36 2:30 3:39.158977 
1 1:1 2:14 3:48.207343 
1 1:0 2:3 3:83.328946 
1 1:1 2:9 3:53.111843 
1 1:0 2:5 3:8.069609 
1 1:7 2:21 3:6.579016 
1 1:1 2:1 3:0.460631 
1 1:0 2:2 3:2.451753 
1 1:0 2:1 3:3.545969 
1 1:16 2:53 3:43.857143 
1 1:0 2:1 3:1.740684 
1 1:9 2:1 3:37.428571 
1 1:12 2:3 3:7.335953 
1 1:4 2:1 3:4.565369 
1 1:0 2:5 3:1.230744 
1 1:0 2:1 3:6.011118 
1 1:0 2:1 3:1.6427 
1 1:36 2:12 3:52.428571 
1 1:10 2:7 3:30 
1 1:24 2:3 3:15.365925 
1 1:31 2:19 3:9.922167 
1 1:20 2:16 3:8.547315 
1 1:5 2:8 3:3.689962 
1 1:5 2:17 3:4.336926 
1 1:27 2:16 3:17.25914 
1 1:7 2:10 3:4.31821 
1 1:34 2:13 3:47.335258 
1 1:28 2:31 3:22.78173 
1 1:0 2:1 3:0.485349 
1 1:11 2:3 3:5.133182 
1 1:17 2:12 3:35.230707 
1 1:36 2:12 3:30.089827 
1 1:8 2:3 3:5.312348 
1 1:14 2:4 3:6.16566 
1 1:8 2:23 3:3.751012 
1 1:17 2:7 3:29.902966 
1 1:0 2:20 3:30.468394 
1 1:8 2:3 3:24.428571 
1 1:0 2:1 3:4.447007 
1 1:0 2:1 3:3.494213 
1 1:14 2:1 3:7.296405 
1 1:0 2:1 3:0.884284 
1 1:16 2:21 3:10.902098 
1 1:24 2:5 3:33.412504 
1 1:14 2:42 3:14.450911 
1 1:0 2:1 3:0.490666 
1 1:9 2:22 3:4.206967 
1 1:29 2:13 3:23.122778 
1 1:1 2:5 3:1.016735 
1 1:21 2:4 3:22.966834 
1 1:17 2:18 3:0.946322 
1 1:8 2:3 3:3.991773 
1 1:6 2:18 3:5.839411 
1 1:12 2:5 3:35.253834 
1 1:18 2:14 3:11.624134 
1 1:19 2:8 3:9.32172 
1 1:0 2:1 3:0.971778 
1 1:0 2:1 3:0.62577 
1 1:11 2:2 3:6.888762 
1 1:11 2:16 3:5.84426 
1 1:10 2:30 3:94.172892 
1 1:10 2:14 3:2.578609 
1 1:14 2:66 3:9.865699 
1 1:0 2:1 3:2.581086 
1 1:12 2:4 3:10.345937 
1 1:18 2:49 3:44.426346 
1 1:27 2:6 3:36.331688 
1 1:3 2:22 3:6.834397 
1 1:5 2:23 3:4.468501 
1 1:6 2:37 3:10.479857 
1 1:19 2:13 3:14.314052 
1 1:0 2:1 3:0.426209 
1 1:0 2:1 3:2.657815 
1 1:0 2:1 3:2.657815 
1 1:0 2:2 3:4.064171 
1 1:0 2:4 3:1.998926 
1 1:1 2:2 3:1.10746 
1 1:0 2:1 3:46.164465 
1 1:1 2:22 3:45.155279 
1 1:1 2:6 3:2.979757 
1 1:6 2:1 3:19.721501 
1 1:8 2:2 3:4.384288 
1 1:21 2:50 3:15.299359 
1 1:32 2:73 3:34.142857 
1 1:25 2:2 3:33.996239 
1 1:0 2:5 3:2.640316 
1 1:18 2:15 3:38.65 
1 1:28 2:69 3:52.47619 
1 1:10 2:12 3:5.912746 
1 1:0 2:1 3:0.627957 
1 1:32 2:12 3:27.581092 
1 1:9 2:2 3:5.432485 
1 1:12 2:2 3:4.9241 
1 1:17 2:5 3:2.210806 
1 1:4 2:48 3:0.789427 
1 1:12 2:3 3:7.789217 
1 1:26 2:6 3:38.583009 
1 1:5 2:18 3:2.890282 
1 1:8 2:26 3:6.86197 
1 1:28 2:8 3:43.060693 
1 1:1 2:11 3:1.392951 
1 1:27 2:6 3:28.067273 
1 1:2 2:2 3:6.227755 
1 1:0 2:1 3:3.161022 
1 1:3 2:2 3:20.057522 
1 1:0 2:1 3:1.599117 
1 1:0 2:1 3:0.729693 
1 1:0 2:3 3:3.397261 
1 1:0 2:4 3:1.057134 
1 1:0 2:1 3:5.33763 
1 1:3 2:15 3:14.95 
1 1:3 2:1 3:1.183264 
1 1:6 2:10 3:6.785643 
1 1:17 2:12 3:7.390223 
1 1:17 2:6 3:3.940709 
1 1:0 2:13 3:1.140001 
1 1:26 2:18 3:24.877326 
1 1:28 2:13 3:20.290091 
1 1:23 2:56 3:31.430142 
1 1:23 2:1 3:32.809524 
1 1:12 2:15 3:10.956071 
1 1:27 2:7 3:32.532334 
1 1:4 2:3 3:0.441905 
1 1:29 2:79 3:35.990778 
1 1:0 2:1 3:10.96138 
1 1:0 2:1 3:6.874211 
1 1:13 2:5 3:1.826781 
1 1:12 2:15 3:5.669061 
1 1:17 2:20 3:16.106609 
1 1:12 2:1 3:6.021042 
1 1:0 2:1 3:1.089752 
1 1:28 2:12 3:31.456785 
1 1:22 2:21 3:25.637906 
1 1:0 2:1 3:3.82074 
1 1:5 2:11 3:2.724741 
1 1:2 2:16 3:4.717389 
1 1:23 2:7 3:25.730178 
1 1:5 2:1 3:8.712853 
1 1:2 2:1 3:0.844246 
1 1:0 2:2 3:2.239471 
1 1:26 2:12 3:31.310584 
1 1:33 2:2 3:37.809524 
1 1:0 2:1 3:2.239471 
1 1:0 2:1 3:6.464316 
1 1:5 2:4 3:2.091225 
1 1:14 2:18 3:6.499537 
1 1:5 2:4 3:33.027768 
1 1:31 2:10 3:25.469223 
1 1:13 2:3 3:2.505076 
1 1:12 2:4 3:4.812282 
1 1:1 2:31 3:22.505493 
1 1:1 2:1 3:63.324885 
1 1:0 2:4 3:7.496936 
1 1:0 2:4 3:7.857143 
1 1:10 2:18 3:7.645079 
1 1:0 2:1 3:0.493299 
1 1:2 2:2 3:7.718948 
1 1:1 2:10 3:6.870092 
1 1:15 2:12 3:20.645693 
1 1:14 2:4 3:6.54165 
1 1:0 2:4 3:11.371949 
1 1:19 2:6 3:7.962454 
1 1:41 2:94 3:1.785546 
1 1:6 2:28 3:4.894894 
1 1:6 2:28 3:4.894894 
1 1:8 2:356 3:5.059081 
1 1:1 2:163 3:2.026377 
1 1:9 2:22 3:3.635154 
1 1:22 2:8 3:32.486383 
1 1:11 2:9 3:16.685136 
1 1:32 2:11 3:39.809524 
1 1:7 2:4 3:3.708261 
1 1:16 2:2 3:2.756093 
1 1:13 2:26 3:10.065946 
1 1:8 2:2 3:2.157163 
1 1:36 2:10 3:46.476008 
1 1:13 2:27 3:6.561714 
1 1:0 2:1 3:0.61736 
1 1:22 2:14 3:25.370929 
1 1:22 2:13 3:30.892578 
1 1:22 2:10 3:37.641649 
1 1:17 2:50 3:41.761905 
1 1:17 2:24 3:9.949947 
1 1:20 2:38 3:12.964708 
1 1:30 2:4 3:29.591598 
1 1:16 2:44 3:19.382998 
1 1:26 2:9 3:13.691492 
1 1:2 2:1 3:6.25548 
1 1:28 2:11 3:40.969366 
1 1:1 2:11 3:8.045478 
1 1:7 2:6 3:44.077924 
1 1:17 2:28 3:7.997952 
1 1:17 2:25 3:9.663704 
1 1:14 2:17 3:7.290891 
1 1:24 2:6 3:24.61374 
1 1:14 2:18 3:4.726419 
1 1:10 2:6 3:2.236221 
1 1:39 2:11 3:41.664895 
1 1:12 2:2 3:5.103121 
1 1:23 2:10 3:16.613965 
1 1:33 2:18 3:36.589015 
1 1:14 2:3 3:11.50166 
1 1:10 2:2 3:12.462467 
1 1:18 2:5 3:5.377789 
1 1:13 2:24 3:7.030771 
1 1:0 2:6 3:1.45077 
1 1:0 2:1 3:7.764342 
1 1:0 2:1 3:7.764342 
1 1:0 2:1 3:21.455193 
1 1:5 2:19 3:5.466027 
1 1:0 2:2 3:1.84982 
1 1:0 2:4 3:34.98226 
1 1:0 2:3 3:3.1898 
1 1:0 2:22 3:3.1898 
1 1:0 2:4 3:2.108156 
1 1:0 2:3 3:15.62254 
1 1:17 2:14 3:4.789548 
1 1:0 2:4 3:0.473525 
1 1:7 2:19 3:1.045093 
1 1:0 2:1 3:1.131827 
1 1:2 2:2 3:0.546631 
1 1:0 2:17 3:1.906187 
1 1:0 2:1 3:1.603358 
1 1:0 2:4 3:9.174424 
1 1:30 2:8 3:48.2 
1 1:0 2:1 3:0.421042 
1 1:5 2:18 3:53.141393 
1 1:13 2:58 3:35.809524 
1 1:0 2:17 3:0.425321 
1 1:0 2:17 3:0.616135 
1 1:18 2:6 3:38.428571 
1 1:12 2:3 3:11.671767 
1 1:0 2:7 3:3.225843 
1 1:8 2:6 3:4.167796 
1 1:0 2:1 3:1.596582 
1 1:0 2:8 3:2.224691 
1 1:1 2:1 3:10.817222 
1 1:12 2:5 3:25.381885 
1 1:12 2:20 3:7.267071 
1 1:2 2:9 3:14.244774 
1 1:17 2:3 3:6.662656 
1 1:8 2:30 3:3.240717 
1 1:18 2:5 3:32.258738 
1 1:1 2:1 3:0.546662 
1 1:1 2:3 3:5.971872 
1 1:12 2:18 3:3.168536 
1 1:24 2:1 3:30.018323 
1 1:5 2:2 3:10.919305 
1 1:7 2:27 3:25.290999 
1 1:9 2:10 3:1.717634 
1 1:2 2:1 3:24.582339 
1 1:0 2:2 3:20.963441 
1 1:0 2:2 3:1.230613 
1 1:5 2:24 3:3.832949 
1 1:2 2:14 3:2.931423 
1 1:6 2:2 3:20.812838 
1 1:0 2:19 3:3.31517 
1 1:15 2:27 3:1.738238 
1 1:0 2:1 3:0.549859 
1 1:12 2:18 3:15.031628 
1 1:3 2:1 3:5.143776 
1 1:8 2:27 3:6.246294 
1 1:1 2:2 3:4.67779 
1 1:8 2:1 3:3.879565 
1 1:2 2:26 3:7.084191 
1 1:24 2:9 3:41.81844 
1 1:7 2:19 3:3.527687 
1 1:21 2:48 3:32.837573 
1 1:15 2:5 3:7.319468 
1 1:0 2:20 3:5.905136 
1 1:0 2:1 3:0.583517 
1 1:0 2:2 3:10.436237 
1 1:0 2:7 3:20.223115 
1 1:7 2:1 3:4.15412 
1 1:4 2:3 3:4.934673 
1 1:1 2:1 3:4.384084 
1 1:0 2:1 3:1.20986 
1 1:0 2:28 3:1.186334 
1 1:0 2:1 3:2.426611 
1 1:0 2:1 3:1.22626 
1 1:0 2:1 3:5.417091 
1 1:0 2:1 3:25.418643 
1 1:0 2:2 3:17.695794 
1 1:0 2:4 3:1.174266 
1 1:0 2:1 3:31.205715 
1 1:0 2:8 3:11.454567 
1 1:0 2:1 3:108.54007 
1 1:0 2:1 3:15.460495 
1 1:0 2:1 3:15.460495 
1 1:3 2:13 3:36.871506 
1 1:0 2:3 3:108.54007 
1 1:0 2:6 3:7.754831 
1 1:0 2:1 3:36.949266 
1 1:0 2:1 3:77.160421 
1 1:0 2:2 3:77.160421 
1 1:0 2:1 3:19.373269 
1 1:0 2:1 3:15.512475 
1 1:0 2:2 3:3.800652 
1 1:0 2:3 3:5.020642 
1 1:0 2:2 3:98.374194 
1 1:0 2:1 3:142.3635 
1 1:0 2:1 3:19.01215 
1 1:0 2:12 3:19.01215 
1 1:0 2:1 3:9.036976 
1 1:0 2:12 3:5.118329 
1 1:0 2:2 3:2.139856 
1 1:0 2:1 3:3.202872 
1 1:0 2:1 3:72.2648 
1 1:0 2:3 3:48.361942 
1 1:0 2:1 3:37.064459 
1 1:0 2:1 3:2.989251 
1 1:15 2:6 3:8.555685 
1 1:12 2:4 3:8.946261 
1 1:1 2:4 3:22.783949 
1 1:0 2:1 3:0.655799 
1 1:0 2:1 3:1.606254 
1 1:8 2:2 3:0.534415 
1 1:0 2:1 3:1.417808 
1 1:0 2:1 3:0.434599 
1 1:0 2:7 3:10.457192 
1 1:0 2:1 3:2.086497 
1 1:0 2:1 3:17.270431 
1 1:15 2:3 3:39.394725 
1 1:1 2:5 3:23.753176 
1 1:0 2:1 3:0.649096 
1 1:0 2:1 3:1.154163 
1 1:29 2:3 3:44.15 
1 1:0 2:3 3:1.01229 
1 1:22 2:12 3:35.047619 
1 1:12 2:2 3:2.852911 
1 1:0 2:1 3:0.522076 
1 1:0 2:3 3:0.454212 
1 1:0 2:1 3:0.644217 
1 1:14 2:51 3:42.75969 
1 1:0 2:4 3:0.73672 
1 1:10 2:1 3:39 
1 1:18 2:7 3:5.151198 
1 1:36 2:5 3:37.80921 
1 1:20 2:10 3:32.852485 
1 1:13 2:16 3:7.950088 
1 1:28 2:1 3:36.825777 
1 1:28 2:14 3:30.774615 
1 1:12 2:29 3:4.591153 
1 1:24 2:13 3:28.82369 
1 1:17 2:8 3:55.907854 
1 1:15 2:5 3:5.757509 
1 1:6 2:35 3:37.2 
1 1:8 2:2 3:2.737957 
1 1:13 2:8 3:24.386176 
1 1:24 2:12 3:26.218732 
1 1:23 2:7 3:28.12089 
1 1:1 2:18 3:9.872196 
1 1:24 2:11 3:42.142857 
1 1:5 2:11 3:17.720078 
1 1:40 2:4 3:43.8147 
1 1:23 2:47 3:48.97174 
1 1:19 2:7 3:37.857143 
1 1:27 2:3 3:45.428571 
1 1:24 2:1 3:46.703872 
1 1:0 2:1 3:0.748939 
1 1:11 2:5 3:4.595824 
1 1:15 2:37 3:1.185576 
1 1:14 2:7 3:2.872692 
1 1:0 2:1 3:0.411559 
1 1:0 2:5 3:1.734278 
1 1:14 2:27 3:3.632829 
1 1:31 2:16 3:42.247727 
1 1:0 2:3 3:0.501527 
1 1:24 2:47 3:43.333333 
1 1:28 2:35 3:45 
1 1:33 2:5 3:34.770776 
1 1:26 2:21 3:11.1118 
1 1:0 2:1 3:0.449315 
1 1:2 2:20 3:3.462125 
1 1:32 2:10 3:3.812912 
1 1:12 2:1 3:9.439875 
1 1:15 2:23 3:7.503782 
1 1:21 2:6 3:2.583441 
1 1:0 2:1 3:1.482395 
1 1:29 2:1 3:43.227639 
1 1:13 2:34 3:27.280115 
1 1:0 2:58 3:0.699012 
1 1:54 2:50958 3:65.138727 
1 1:1 2:3 3:180.05487 
1 1:3 2:1 3:3.714018 
1 1:2 2:43 3:4.913387 
1 1:0 2:1 3:3.642956 
1 1:0 2:1 3:1.034664 
1 1:18 2:23 3:12.507195 
1 1:55 2:19 3:25.930088 
1 1:29 2:125 3:43.234305 
1 1:0 2:40 3:11.418379 
1 1:3 2:1 3:0.607371 
1 1:26 2:8 3:20.677202 
1 1:0 2:9 3:9.038756 
1 1:11 2:9 3:10.807755 
1 1:35 2:10 3:46.48088 
1 1:20 2:54 3:41.4 
1 1:0 2:19 3:8.292631 
1 1:3 2:23 3:6.342742 
1 1:8 2:29 3:5.367108 
1 1:26 2:9 3:35.697168 
1 1:31 2:14 3:43.674563 
1 1:0 2:3 3:22.019895 
1 1:7 2:30 3:2.634184 
1 1:28 2:24 3:42.714286 
1 1:8 2:4 3:5.818025 
1 1:12 2:6 3:6.709812 
1 1:16 2:23 3:6.141123 
1 1:19 2:9 3:5.665321 
1 1:14 2:22 3:8.647272 
1 1:15 2:16 3:27.459678 
1 1:12 2:18 3:10.019704 
1 1:26 2:45 3:46.65 
1 1:25 2:42 3:52.7 
1 1:18 2:9 3:2.751585 
1 1:3 2:2 3:0.509136 
1 1:29 2:2 3:47.2 
1 1:16 2:1 3:38.730939 
1 1:20 2:6 3:44.686299 
1 1:1 2:13 3:1.638246 
1 1:3 2:1 3:12.503155 
1 1:29 2:46 3:18.288793 
1 1:0 2:53 3:22.850656 
1 1:0 2:1 3:1.309526 
1 1:2 2:1 3:18.941137 
1 1:0 2:3 3:8.337028 
1 1:0 2:19 3:5.748343 
1 1:16 2:21 3:6.714522 
1 1:8 2:2 3:2.126666 
1 1:7 2:2 3:8.460095 
1 1:22 2:28 3:9.749003 
1 1:35 2:14 3:34.403975 
1 1:30 2:5 3:36.227443 
1 1:4 2:23 3:3.314285 
1 1:40 2:45 3:10.708377 
1 1:0 2:1 3:3.553426 
1 1:20 2:7 3:27.581475 
1 1:30 2:10 3:40.841859 
1 1:9 2:1 3:3.004651 
1 1:29 2:11 3:41.304499 
1 1:25 2:9 3:27.425683 
1 1:29 2:26 3:0.685877 
1 1:29 2:7 3:19.457256 
1 1:0 2:2 3:3.196675 
1 1:11 2:1 3:7.019486 
1 1:0 2:1 3:10.210604 
1 1:0 2:1 3:13.844578 
1 1:13 2:5 3:4.355651 
1 1:0 2:2 3:12.492033 
1 1:5 2:2 3:5.57012 
1 1:9 2:1 3:5.12868 
1 1:13 2:14 3:2.828633 
1 1:0 2:13 3:2.814899 
1 1:10 2:27 3:9.44869 
1 1:3 2:2 3:30.993346 
1 1:18 2:6 3:3.600598 
1 1:9 2:6 3:1.165238 
1 1:11 2:2 3:3.333807 
1 1:17 2:3 3:6.069922 
1 1:1 2:9 3:38.333333 
1 1:0 2:1 3:4.430873 
1 1:1 2:6 3:17.152867 
1 1:5 2:7 3:3.031064 
1 1:2 2:26 3:6.497686 
1 1:40 2:44 3:46.556432 
1 1:28 2:17 3:42.065203 
1 1:30 2:12 3:32.842015 
1 1:23 2:6 3:30.7981 
1 1:14 2:17 3:4.951269 
1 1:12 2:53 3:20.647258 
1 1:27 2:30 3:32.813482 
1 1:5 2:2 3:35.002615 
1 1:1 2:21 3:2.035979 
1 1:16 2:15 3:8.220936 
1 1:11 2:14 3:5.806701 
1 1:32 2:9 3:38.758131 
1 1:17 2:50 3:38.493374 
1 1:8 2:1 3:9.5308 
1 1:1 2:2 3:10.75614 
1 1:0 2:4 3:12.31232 
1 1:7 2:40 3:74.315919 
1 1:1 2:97 3:4.901322 
1 1:9 2:2 3:24.989966 
1 1:5 2:1 3:29.411566 
1 1:16 2:26 3:4.246446 
1 1:1 2:3 3:2.105196 
1 1:1 2:1 3:5.453014 
1 1:44 2:51 3:105.17818 
1 1:0 2:2 3:18.36245 
1 1:17 2:7 3:1.14801 
1 1:0 2:32 3:3.510512 
1 1:15 2:50 3:40.356772 
1 1:17 2:18 3:7.285689 
1 1:17 2:1 3:5.968515 
1 1:48 2:114 3:0.611692 
1 1:21 2:20 3:47.047619 
1 1:0 2:1 3:12.270163 
1 1:2 2:20 3:1.978044 
1 1:18 2:1 3:36.641086 
1 1:33 2:17 3:32.506267 
1 1:31 2:1 3:63.428571 
1 1:34 2:14 3:37.150118 
1 1:17 2:5 3:18.594648 
1 1:1 2:30 3:37.142857 
1 1:11 2:25 3:6.108093 
1 1:10 2:22 3:7.70224 
1 1:11 2:2 3:4.520732 
1 1:0 2:5 3:0.669525 
1 1:2 2:2 3:0.874427 
1 1:0 2:3 3:5.234942 
1 1:0 2:3 3:5.234942 
1 1:0 2:1 3:26.975801 
1 1:0 2:22 3:6.267865 
1 1:31 2:25 3:38.983329 
1 1:16 2:1 3:10.729111 
1 1:0 2:3 3:13.459109 
1 1:10 2:24 3:9.446444 
1 1:15 2:14 3:8.616469 
1 1:0 2:52 3:28.510392 
1 1:18 2:16 3:11.264498 
1 1:1 2:1 3:0.53007 
1 1:1 2:1 3:0.485412 
1 1:6 2:13 3:6.807906 
1 1:9 2:17 3:9.195031 
1 1:8 2:5 3:3.060893 
1 1:5 2:2 3:17.589699 
1 1:5 2:5 3:2.843313 
1 1:0 2:3 3:3.325314 
1 1:0 2:3 3:8.149262 
1 1:0 2:3 3:8.149262 
1 1:0 2:1 3:0.739305 
1 1:0 2:2 3:22.284347 
1 1:0 2:2 3:0.443017 
1 1:0 2:1 3:1.295727 
1 1:0 2:2 3:2.967681 
1 1:6 2:4 3:4.78051 
1 1:0 2:2 3:2.52186 
1 1:0 2:2 3:2.916369 
1 1:26 2:5 3:13.387764 
1 1:18 2:10 3:15.685682 
1 1:0 2:1 3:4.562523 
1 1:0 2:9 3:11.840753 
1 1:0 2:2 3:43.885399 
1 1:0 2:23 3:4.135722 
1 1:0 2:1 3:2.405359 
1 1:0 2:8 3:2.586029 
1 1:0 2:8 3:2.586029 
1 1:0 2:8 3:2.586029 
1 1:0 2:8 3:2.586029 
1 1:0 2:1 3:2.586029 
1 1:0 2:1 3:7.882006 
1 1:0 2:1 3:5.753548 
1 1:0 2:1 3:0.964285 
1 1:16 2:30 3:31.952381 
1 1:0 2:2 3:0.691401 
1 1:0 2:43 3:26.183351 
1 1:0 2:2 3:48.490765 
1 1:3 2:1 3:6.87909 
1 1:2 2:25 3:3.559323 
1 1:0 2:4 3:67.139689 
1 1:16 2:1 3:36.952381 
1 1:10 2:15 3:3.782855 
1 1:14 2:35 3:19.279294 
1 1:30 2:10 3:27.71322 
1 1:20 2:8 3:32.975811 
1 1:12 2:31 3:0.773963 
1 1:7 2:4 3:0.982338 
1 1:12 2:28 3:8.014469 
1 1:10 2:6 3:3.189863 
1 1:17 2:9 3:4.110035 
1 1:6 2:33 3:10.350914 
1 1:14 2:21 3:1.922529 
1 1:10 2:18 3:4.155735 
1 1:1 2:7 3:22.06843 
1 1:7 2:16 3:21.495474 
1 1:12 2:1 3:10.25007 
1 1:3 2:2 3:3.381786 
1 1:12 2:19 3:7.370764 
1 1:19 2:24 3:10.929205 
1 1:0 2:1 3:1.694322 
1 1:10 2:23 3:3.744108 
1 1:27 2:6 3:37.423036 
1 1:28 2:17 3:15.502982 
1 1:12 2:8 3:18.313654 
1 1:21 2:12 3:28.084352 
1 1:12 2:11 3:3.814502 
1 1:5 2:11 3:6.145104 
1 1:9 2:4 3:2.765226 
1 1:0 2:1 3:7.832146 
1 1:7 2:20 3:6.167341 
1 1:15 2:37 3:34.333333 
1 1:8 2:40 3:42.203666 
1 1:28 2:19 3:26.20708 
1 1:2 2:2 3:0.768131 
1 1:31 2:10 3:29.376487 
1 1:30 2:41 3:44.95 
1 1:12 2:8 3:4.376598 
1 1:23 2:37 3:31.273643 
1 1:14 2:23 3:38.15 
1 1:6 2:16 3:5.562212 
1 1:24 2:15 3:21.205971 
1 1:20 2:45 3:37.714286 
1 1:0 2:1 3:1.364154 
1 1:19 2:6 3:42.213115 
1 1:10 2:5 3:2.291285 
1 1:0 2:1 3:8.615289 
1 1:15 2:8 3:10.228656 
1 1:29 2:58 3:38.956059 
1 1:0 2:4 3:7.352464 
1 1:22 2:44 3:23.596052 
1 1:11 2:30 3:28.77209 
1 1:2 2:3 3:7.109935 
1 1:4 2:5 3:19.415534 
1 1:0 2:10 3:4.74347 
1 1:0 2:4 3:0.475437 
1 1:0 2:2 3:16.559253 
1 1:0 2:1 3:4.74347 
1 1:0 2:1 3:2.590316 
1 1:1 2:1 3:1.722896 
1 1:0 2:11 3:9.527408 
1 1:0 2:16 3:7.163996 
1 1:24 2:14 3:30.081615 
1 1:13 2:13 3:45.375347 
1 1:8 2:15 3:5.820824 
1 1:20 2:1 3:14.840359 
1 1:12 2:1 3:8.606093 
1 1:9 2:16 3:9.64669 
1 1:0 2:1 3:0.630997 
1 1:8 2:2 3:6.610306 
1 1:0 2:1 3:1.591404 
1 1:9 2:12 3:13.324439 
1 1:1 2:26 3:4.43213 
1 1:9 2:23 3:5.940667 
1 1:16 2:13 3:43.368101 
1 1:13 2:30 3:13.73769 
1 1:9 2:33 3:18.705002 
1 1:2 2:28 3:3.236245 
1 1:13 2:25 3:10.163072 
1 1:25 2:44 3:47.615263 
1 1:24 2:6 3:36.673799 
1 1:2 2:25 3:5.272636 
1 1:10 2:22 3:0.454093 
1 1:14 2:4 3:9.626993 
1 1:17 2:8 3:19.652215 
1 1:23 2:30 3:28.463449 
1 1:33 2:1 3:29.838491 
1 1:10 2:6 3:4.849712 
1 1:2 2:1 3:0.658217 
1 1:20 2:57 3:40.761905 
1 1:0 2:1 3:0.50443 
1 1:8 2:7 3:1.143877 
1 1:9 2:6 3:2.326416 
1 1:12 2:26 3:5.024656 
1 1:37 2:10 3:46.57811 
1 1:15 2:16 3:10.510266 
1 1:15 2:7 3:4.019119 
1 1:27 2:6 3:37.966581 
1 1:28 2:46 3:40.969366 
1 1:33 2:8 3:43.149508 
1 1:36 2:12 3:40.814895 
1 1:37 2:16 3:52.012409 
1 1:0 2:1 3:1.247938 
1 1:39 2:3 3:46.768552 
1 1:21 2:38 3:17.511035 
1 1:2 2:1 3:2.767988 
1 1:10 2:4 3:3.261007 
1 1:11 2:21 3:16.547857 
1 1:17 2:35 3:46.314141 
1 1:27 2:7 3:36.070972 
1 1:6 2:25 3:7.719407 
1 1:8 2:21 3:4.336791 
1 1:24 2:20 3:16.970045 
1 1:13 2:29 3:4.686926 
1 1:13 2:1 3:8.922009 
1 1:28 2:4 3:33.076452 
1 1:15 2:40 3:38.95 
1 1:16 2:7 3:22.606954 
1 1:19 2:4 3:37.384753 
1 1:22 2:35 3:42.142857 
1 1:17 2:3 3:5.462456 
1 1:17 2:3 3:37.333333 
1 1:24 2:11 3:34.532902 
1 1:23 2:26 3:33.455277 
1 1:11 2:7 3:31.869547 
1 1:8 2:3 3:1.322021 
1 1:4 2:15 3:4.746658 
1 1:19 2:11 3:18.24388 
1 1:9 2:2 3:7.554823 
1 1:18 2:3 3:8.486464 
1 1:10 2:6 3:22.455525 
1 1:10 2:8 3:4.774326 
1 1:27 2:43 3:48.047619 
1 1:28 2:5 3:31.581859 
1 1:27 2:13 3:33.536631 
1 1:0 2:1 3:3.04804 
1 1:23 2:7 3:13.560291 
1 1:13 2:7 3:6.320675 
1 1:5 2:24 3:5.96413 
1 1:29 2:4 3:36.844879 
1 1:1 2:1 3:19.7455 
1 1:2 2:2 3:2.197435 
1 1:3 2:1 3:2.114654 
1 1:0 2:1 3:0.596087 
1 1:0 2:1 3:3.598585 
1 1:0 2:1 3:5.3383 
1 1:0 2:3 3:2.630602 
1 1:0 2:3 3:2.630602 
1 1:12 2:12 3:27.548869 
1 1:19 2:1 3:6.818018 
1 1:16 2:11 3:9.373755 
1 1:0 2:1 3:0.910336 
1 1:11 2:1 3:7.825757 
1 1:11 2:25 3:5.297004 
1 1:4 2:23 3:4.49519 
1 1:11 2:17 3:10.68755 
1 1:9 2:22 3:7.112962 
1 1:26 2:56 3:25.613798 
1 1:14 2:1 3:6.898667 
1 1:19 2:2 3:7.261896 
1 1:5 2:26 3:5.79255 
1 1:9 2:26 3:5.352487 
1 1:0 2:1 3:1.364533 
1 1:6 2:26 3:3.768813 
1 1:11 2:1 3:5.028539 
1 1:12 2:2 3:9.840839 
1 1:9 2:4 3:4.112414 
1 1:6 2:19 3:3.125227 
1 1:8 2:28 3:29.406739 
1 1:4 2:2 3:5.542741 
1 1:7 2:35 3:8.450772 
1 1:22 2:8 3:26.527379 
1 1:7 2:2 3:50.666667 
1 1:4 2:6 3:1.850693 
1 1:14 2:2 3:2.014887 
1 1:9 2:20 3:6.159123 
1 1:7 2:18 3:11.108787 
1 1:13 2:4 3:7.408886 
1 1:26 2:6 3:24.251126 
1 1:21 2:44 3:14.534756 
1 1:0 2:1 3:0.500736 
1 1:11 2:23 3:6.409544 
1 1:23 2:9 3:30.615688 
1 1:10 2:7 3:24.843986 
1 1:0 2:2 3:3.19342 
1 1:33 2:52 3:46.636758 
1 1:28 2:18 3:30.051513 
1 1:22 2:40 3:44.095238 
1 1:8 2:24 3:3.916031 
1 1:29 2:7 3:35.279314 
1 1:14 2:5 3:6.847894 
1 1:16 2:20 3:5.388186 
1 1:0 2:1 3:0.437306 
1 1:17 2:4 3:8.901535 
1 1:14 2:5 3:6.146789 
1 1:15 2:17 3:6.231284 
1 1:7 2:1 3:9.702789 
1 1:18 2:1 3:41.714286 
1 1:20 2:1 3:49.419157 
1 1:29 2:18 3:37.715705 
1 1:32 2:10 3:42 
1 1:28 2:10 3:26.262371 
1 1:13 2:7 3:20.67546 
1 1:24 2:41 3:40.619048 
1 1:32 2:12 3:36.374815 
1 1:6 2:37 3:36.485649 
1 1:16 2:55 3:46.208676 
1 1:5 2:1 3:5.423085 
1 1:19 2:20 3:15.065687 
1 1:2 2:2 3:0.509699 
1 1:4 2:17 3:3.990804 
1 1:10 2:16 3:7.830173 
1 1:1 2:27 3:1.097974 
1 1:10 2:22 3:7.413561 
1 1:3 2:9 3:3.807303 
1 1:30 2:8 3:50.590831 
1 1:12 2:37 3:33.238095 
1 1:13 2:14 3:5.440805 
1 1:28 2:9 3:39.714286 
1 1:6 2:1 3:9.4756 
1 1:8 2:1 3:2.659943 
1 1:20 2:57 3:16.942507 
1 1:18 2:6 3:7.759778 
1 1:9 2:2 3:1.461941 
1 1:1 2:23 3:5.155748 
1 1:14 2:5 3:10.517883 
1 1:10 2:26 3:7.415163 
1 1:13 2:6 3:1.041755 
1 1:37 2:7 3:42.315308 
1 1:1 2:21 3:4.723527 
1 1:12 2:21 3:21.455443 
1 1:10 2:36 3:36.336924 
1 1:17 2:27 3:41.095238 
1 1:18 2:17 3:42.091707 
1 1:32 2:10 3:30.211304 
1 1:7 2:17 3:5.507137 
1 1:0 2:1 3:2.383849 
1 1:9 2:25 3:4.628229 
1 1:23 2:2 3:42.190476 
1 1:0 2:1 3:0.662483 
1 1:32 2:56 3:49.457962 
1 1:27 2:10 3:32.462129 
1 1:16 2:25 3:11.00967 
1 1:24 2:10 3:28.439257 
1 1:13 2:4 3:7.274073 
1 1:17 2:1 3:42.270577 
1 1:10 2:6 3:1.716674 
1 1:13 2:6 3:4.142263 
1 1:12 2:3 3:4.452006 
1 1:13 2:12 3:2.976359 
1 1:1 2:23 3:2.634087 
1 1:13 2:7 3:4.297291 
1 1:0 2:1 3:13.372939 
1 1:0 2:1 3:13.372939 
1 1:0 2:11 3:0.994231 
1 1:0 2:11 3:0.433988 
1 1:0 2:12 3:0.994231 
1 1:0 2:1 3:0.863579 
1 1:10 2:21 3:4.51841 
1 1:0 2:1 3:3.89903 
1 1:0 2:8 3:106.37977 
1 1:0 2:2 3:8.058634 
1 1:0 2:1 3:44.189563 
1 1:0 2:3 3:44.189563 
1 1:0 2:3 3:44.189563 
1 1:0 2:1 3:4.616577 
1 1:0 2:6 3:12.40702 
1 1:0 2:22 3:12.327884 
1 1:0 2:29 3:0.799638 
1 1:0 2:18 3:25.429943 
1 1:0 2:6 3:24.793202 
1 1:0 2:6 3:24.793202 
1 1:0 2:1 3:24.793202 
1 1:0 2:14 3:12.40702 
1 1:15 2:35 3:142.09274 
1 1:0 2:5 3:5.101127 
1 1:0 2:5 3:5.101127 
1 1:0 2:2 3:5.101127 
1 1:0 2:1 3:0.648325 
1 1:0 2:1 3:15.732942 
1 1:5 2:36 3:8.146448 
1 1:0 2:2 3:0.757853 
1 1:12 2:1 3:17.094543 
1 1:16 2:22 3:10.379672 
1 1:0 2:1 3:0.754029 
1 1:12 2:7 3:5.541034 
1 1:30 2:11 3:29.725064 
1 1:15 2:8 3:6.129721 
1 1:13 2:5 3:5.567637 
1 1:17 2:4 3:13.53062 
1 1:10 2:20 3:3.788438 
1 1:12 2:12 3:10.232812 
1 1:43 2:128 3:41.525563 
1 1:10 2:2 3:2.780738 
1 1:1 2:6 3:4.636713 
1 1:8 2:1 3:3.64324 
1 1:10 2:14 3:43.428571 
1 1:24 2:37 3:43.186479 
1 1:24 2:43 3:24.702041 
1 1:1 2:6 3:0.785832 
1 1:2 2:10 3:18.17847 
1 1:1 2:1 3:1.892593 
1 1:1 2:5 3:27.351266 
1 1:2 2:18 3:5.93417 
1 1:18 2:66 3:2.273377 
1 1:7 2:1 3:5.054553 
1 1:3 2:445 3:0.570929 
1 1:61 2:184 3:1.275903 
1 1:7 2:40 3:2.550318 
1 1:2 2:1 3:2.030862 
1 1:1 2:5 3:7.21933 
1 1:0 2:3 3:0.592882 
1 1:2 2:8 3:38.164812 
1 1:6 2:6 3:85.666529 
1 1:14 2:5 3:2.94968 
1 1:18 2:28 3:26.536202 
1 1:17 2:6 3:73.784014 
1 1:26 2:9 3:27.635241 
1 1:17 2:16 3:8.66782 
1 1:35 2:40 3:50.65 
1 1:22 2:3 3:28.265654 
1 1:27 2:8 3:11.315547 
1 1:10 2:4 3:6.29839 
1 1:5 2:6 3:3.003902 
1 1:26 2:6 3:31.535328 
1 1:10 2:45 3:29.285714 
1 1:33 2:28 3:31.543889 
1 1:18 2:5 3:8.25808 
1 1:32 2:14 3:41.938822 
1 1:8 2:25 3:4.700451 
1 1:0 2:1 3:0.663647 
1 1:28 2:5 3:42.972009 
1 1:17 2:13 3:9.479238 
1 1:29 2:7 3:27.04879 
1 1:3 2:6 3:4.488013 
1 1:10 2:5 3:6.070351 
1 1:14 2:32 3:11.079209 
1 1:30 2:10 3:29.351982 
1 1:5 2:26 3:4.478643 
1 1:13 2:1 3:7.358018 
1 1:16 2:1 3:7.537954 
1 1:30 2:6 3:18.031325 
1 1:1 2:1 3:0.796181 
1 1:13 2:5 3:2.548295 
1 1:5 2:8 3:4.579146 
1 1:13 2:4 3:3.580427 
1 1:20 2:15 3:33.618501 
1 1:28 2:18 3:31.569454 
1 1:26 2:4 3:43.595118 
1 1:12 2:23 3:26.800384 
1 1:0 2:1 3:0.758036 
1 1:11 2:20 3:8.720907 
1 1:14 2:17 3:7.588039 
1 1:27 2:33 3:40.286461 
1 1:31 2:34 3:36.687218 
1 1:20 2:14 3:40.488397 
1 1:24 2:17 3:32.945181 
1 1:28 2:4 3:35.018941 
1 1:8 2:3 3:31.914001 
1 1:44 2:7 3:52.918073 
1 1:19 2:26 3:7.113948 
1 1:30 2:1 3:43.285714 
1 1:8 2:1 3:3.945411 
1 1:11 2:11 3:8.770131 
1 1:6 2:22 3:3.686953 
1 1:23 2:4 3:87.987649 
1 1:8 2:4 3:9.472724 
1 1:30 2:6 3:45.172405 
1 1:12 2:6 3:2.271809 
1 1:12 2:1 3:5.296972 
1 1:18 2:1 3:10.782348 
1 1:16 2:4 3:5.342815 
1 1:8 2:3 3:4.141619 
1 1:42 2:10 3:40.95726 
1 1:27 2:3 3:42.469491 
1 1:11 2:1 3:11.284745 
1 1:35 2:6 3:39.169274 
1 1:4 2:16 3:11.170322 
1 1:2 2:1 3:0.594078 
1 1:12 2:28 3:2.509064 
1 1:29 2:50 3:43.25 
1 1:0 2:5 3:6.248523 
1 1:15 2:6 3:5.887874 
1 1:6 2:21 3:5.407432 
1 1:9 2:28 3:5.582361 
1 1:7 2:15 3:5.088469 
1 1:13 2:7 3:3.96016 
1 1:0 2:42 3:38.47619 
1 1:15 2:6 3:7.231383 
1 1:25 2:7 3:35.683737 
1 1:12 2:6 3:6.673375 
1 1:22 2:55 3:42.05 
1 1:24 2:12 3:30.204475 
1 1:25 2:40 3:34.122644 
1 1:15 2:43 3:33.644141 
1 1:0 2:5 3:14.511357 
1 1:4 2:14 3:15.87386 
1 1:0 2:1 3:11.133519 
1 1:29 2:7 3:19.397065 
1 1:0 2:3 3:2.169671 
1 1:0 2:1 3:2.261234 
1 1:4 2:2 3:5.790205 
1 1:0 2:3 3:1.181212 
1 1:23 2:15 3:24.977515 
1 1:27 2:10 3:23.212774 
1 1:11 2:4 3:2.529806 
1 1:0 2:5 3:10.285455 
1 1:0 2:5 3:10.285455 
1 1:47 2:121 3:5.598595 
1 1:0 2:5 3:25.665091 
1 1:0 2:1 3:30.16887 
1 1:0 2:64 3:1.474004 
1 1:0 2:64 3:0.750246 
1 1:0 2:1 3:1.225782 
1 1:0 2:1 3:0.750246 
1 1:0 2:110 3:6.287626 
1 1:1 2:114 3:50.475452 
1 1:0 2:9 3:2.154797 
1 1:0 2:1 3:5.181965 
1 1:0 2:1 3:2.58721 
1 1:0 2:1 3:4.437862 
1 1:0 2:1 3:4.437862 
1 1:0 2:1 3:4.437862 
1 1:0 2:1 3:1.075056 
1 1:0 2:7 3:0.794574 
1 1:1 2:2 3:5.165071 
1 1:0 2:4 3:4.281152 
1 1:1 2:9 3:5.879867 
1 1:16 2:45 3:33.745405 
1 1:15 2:5 3:9.416099 
1 1:27 2:37 3:53.52381 
1 1:13 2:20 3:6.421111 
1 1:16 2:18 3:13.090203 
1 1:9 2:10 3:15.080313 
1 1:15 2:3 3:7.9304 
1 1:24 2:3 3:41.708455 
1 1:23 2:9 3:22.57625 
1 1:25 2:1 3:45.869234 
1 1:25 2:46 3:1.225093 
1 1:18 2:10 3:12.27417 
1 1:6 2:25 3:6.695766 
1 1:20 2:21 3:4.124662 
1 1:0 2:1 3:0.430645 
1 1:16 2:6 3:11.621988 
1 1:11 2:18 3:5.069668 
1 1:11 2:20 3:5.389035 
1 1:0 2:9 3:2.481582 
1 1:35 2:6 3:41.464858 
1 1:17 2:33 3:17.612106 
1 1:11 2:5 3:5.989796 
1 1:31 2:6 3:39.419953 
1 1:12 2:1 3:7.032369 
1 1:12 2:25 3:6.628024 
1 1:35 2:4 3:58.666667 
1 1:0 2:1 3:0.481935 
1 1:23 2:9 3:32.640903 
1 1:9 2:6 3:6.462383 
1 1:19 2:7 3:12.50908 
1 1:4 2:12 3:12.577599 
1 1:9 2:3 3:4.308754 
1 1:9 2:5 3:4.738989 
1 1:14 2:22 3:4.074789 
1 1:14 2:42 3:37 
1 1:18 2:4 3:6.935966 
1 1:29 2:10 3:36.862083 
1 1:10 2:15 3:5.278373 
1 1:19 2:8 3:12.908365 
1 1:6 2:16 3:3.35052 
1 1:43 2:12 3:46.511594 
1 1:15 2:5 3:9.302366 
1 1:22 2:9 3:43.735893 
1 1:20 2:3 3:19.316787 
1 1:6 2:5 3:2.583185 
1 1:38 2:6 3:40.212509 
1 1:12 2:4 3:27.208603 
1 1:8 2:33 3:6.52598 
1 1:37 2:7 3:43.191733 
1 1:34 2:13 3:39.809466 
1 1:14 2:3 3:6.945744 
1 1:15 2:64 3:44.630935 
1 1:37 2:9 3:44.741092 
1 1:29 2:3 3:30.158715 
1 1:12 2:7 3:5.036203 
1 1:5 2:5 3:4.699518 
1 1:1 2:27 3:71.354396 
1 1:14 2:1 3:9.800738 
1 1:0 2:1 3:0.602359 
1 1:15 2:16 3:5.441453 
1 1:21 2:16 3:30.679591 
1 1:23 2:43 3:47.904762 
1 1:8 2:2 3:21.710593 
1 1:11 2:5 3:4.624319 
1 1:32 2:15 3:41.318499 
1 1:15 2:9 3:5.011595 
1 1:13 2:9 3:13.596594 
1 1:17 2:16 3:28.549442 
1 1:41 2:4 3:49.459646 
1 1:8 2:4 3:3.87543 
1 1:14 2:6 3:3.959686 
1 1:9 2:24 3:5.904682 
1 1:26 2:7 3:23.708992 
1 1:23 2:12 3:33.726026 
1 1:0 2:1 3:0.93137 
1 1:13 2:32 3:5.847485 
1 1:31 2:7 3:29.749989 
1 1:8 2:1 3:3.061495 
1 1:3 2:26 3:4.604476 
1 1:11 2:3 3:7.163884 
1 1:19 2:48 3:42.328632 
1 1:9 2:3 3:8.999926 
1 1:28 2:5 3:20.423771 
1 1:0 2:1 3:1.967882 
1 1:18 2:4 3:6.16138 
1 1:11 2:1 3:7.323911 
1 1:24 2:6 3:30.497999 
1 1:2 2:16 3:4.946688 
1 1:16 2:6 3:10.417974 
1 1:0 2:1 3:1.381342 
1 1:14 2:16 3:3.667236 
1 1:38 2:1 3:33.665804 
1 1:12 2:27 3:4.627463 
1 1:6 2:16 3:3.438469 
1 1:16 2:35 3:37.75 
1 1:24 2:6 3:31.05279 
1 1:7 2:10 3:3.626313 
1 1:15 2:4 3:6.927277 
1 1:18 2:24 3:10.27256 
1 1:23 2:19 3:28.141615 
1 1:36 2:8 3:23.730594 
1 1:14 2:1 3:49.287084 
1 1:21 2:3 3:10.253292 
1 1:11 2:3 3:3.107131 
1 1:11 2:16 3:5.868119 
1 1:15 2:1 3:9.810476 
1 1:21 2:13 3:31.34594 
1 1:35 2:13 3:40.70579 
1 1:0 2:1 3:3.498666 
1 1:0 2:1 3:3.662221 
1 1:14 2:20 3:12.004367 
1 1:10 2:2 3:3.551597 
1 1:22 2:42 3:36.52381 
1 1:1 2:13 3:29.999114 
1 1:0 2:2 3:9.479974 
1 1:3 2:2 3:19.553328 
1 1:21 2:8 3:17.327721 
1 1:0 2:6 3:0.621015 
1 1:45 2:5 3:48.307904 
1 1:19 2:40 3:43.328232 
1 1:12 2:1 3:4.023059 
1 1:22 2:7 3:9.371627 
1 1:42 2:9 3:46.541595 
1 1:3 2:15 3:4.455593 
1 1:17 2:32 3:47.238095 
1 1:10 2:6 3:6.471717 
1 1:13 2:4 3:8.602354 
1 1:17 2:6 3:9.037169 
1 1:31 2:8 3:38.094607 
1 1:31 2:9 3:7.984928 
1 1:25 2:41 3:39.21416 
1 1:16 2:39 3:3.452125 
1 1:15 2:13 3:5.990544 
1 1:16 2:11 3:5.716733 
1 1:6 2:2 3:5.144299 
1 1:16 2:19 3:11.604526 
1 1:9 2:13 3:7.810224 
1 1:0 2:1 3:0.638352 
1 1:1 2:16 3:23.874608 
1 1:24 2:9 3:21.254598 
1 1:29 2:8 3:41.093359 
1 1:21 2:18 3:24.036309 
1 1:32 2:12 3:33.521266 
1 1:30 2:15 3:45.517796 
1 1:11 2:31 3:13.838483 
1 1:9 2:23 3:7.380832 
1 1:17 2:35 3:9.83183 
1 1:36 2:78 3:26.627245 
1 1:53 2:93 3:41.514908 
1 1:15 2:47 3:14.124757 
1 1:1 2:1 3:4.709737 
1 1:2 2:4 3:0.525389 
1 1:17 2:1154 3:2.488036 
1 1:24 2:26 3:9.134864 
1 1:12 2:22 3:4.399593 
1 1:7 2:3 3:4.558454 
1 1:16 2:42 3:18.279629 
1 1:8 2:1 3:1.744864 
1 1:18 2:2 3:8.505955 
1 1:6 2:11 3:10.458925 
1 1:22 2:8 3:32.272605 
1 1:12 2:31 3:7.229144 
1 1:27 2:24 3:18.166017 
1 1:8 2:13 3:27.8 
1 1:12 2:23 3:13.397526 
1 1:0 2:2 3:3.858551 
1 1:29 2:44 3:24.633429 
1 1:27 2:6 3:38.951912 
1 1:23 2:3 3:9.164607 
1 1:0 2:1 3:0.508064 
1 1:42 2:5 3:53.374762 
1 1:2 2:10 3:16.403609 
1 1:15 2:1 3:32.5 
1 1:13 2:32 3:12.692521 
1 1:0 2:3 3:0.686575 
1 1:2 2:28 3:10.549817 
1 1:16 2:11 3:15.406993 
1 1:12 2:47 3:39.380952 
1 1:29 2:3 3:49.916717 
1 1:30 2:13 3:40.905871 
1 1:8 2:24 3:5.026642 
1 1:12 2:7 3:3.689798 
1 1:17 2:5 3:13.278641 
1 1:9 2:1 3:7.078829 
1 1:24 2:12 3:18.969011 
1 1:9 2:4 3:28.755155 
1 1:20 2:7 3:34.289591 
1 1:8 2:1 3:37.714286 
1 1:1 2:1 3:1.133115 
1 1:0 2:1 3:0.7185 
1 1:12 2:1 3:13.87618 
1 1:9 2:2 3:7.205258 
1 1:4 2:24 3:5.646678 
1 1:8 2:26 3:4.793558 
1 1:3 2:28 3:6.001687 
1 1:12 2:3 3:5.45951 
1 1:16 2:8 3:10.802882 
1 1:15 2:19 3:7.865927 
1 1:0 2:10 3:2.483783 
1 1:0 2:10 3:1.727292 
1 1:0 2:32 3:3.659315 
1 1:0 2:1 3:0.430161 
1 1:16 2:6 3:7.999991 
1 1:36 2:7 3:32.108842 
1 1:7 2:1 3:2.826393 
1 1:0 2:1 3:1.299862 
1 1:0 2:1 3:1.515828 
1 1:0 2:1 3:1.991208 
1 1:21 2:5 3:3.003239 
1 1:7 2:4 3:9.717344 
1 1:0 2:23 3:3.880301 
1 1:0 2:1 3:115.19406 
1 1:0 2:1 3:4.847831 
1 1:0 2:1 3:4.847831 
1 1:0 2:1 3:4.847831 
1 1:0 2:2 3:4.847831 
1 1:0 2:21 3:35.051488 
1 1:0 2:10 3:35.051488 
1 1:0 2:1 3:18.864941 
1 1:0 2:1 3:5.050094 
1 1:0 2:1 3:23.079951 
1 1:0 2:1 3:23.079951 
1 1:4 2:62 3:23.079951 
1 1:0 2:3 3:23.079951 
1 1:0 2:1 3:127.29651 
1 1:0 2:2 3:1.29175 
1 1:0 2:7 3:7.221181 
1 1:0 2:1 3:9.972123 
1 1:0 2:7 3:7.221181 
1 1:0 2:7 3:3.861738 
1 1:0 2:2 3:0.54506 
1 1:0 2:1 3:2.590567 
1 1:0 2:1 3:2.643546 
1 1:0 2:2 3:96.478766 
1 1:0 2:15 3:23.079951 
1 1:0 2:1 3:2.446263 
1 1:32 2:40 3:36.142427 
1 1:18 2:7 3:26.472731 
1 1:24 2:17 3:38.809524 
1 1:0 2:1 3:1.382127 
1 1:0 2:1 3:1.382127 
1 1:15 2:40 3:32.6 
1 1:0 2:9 3:1.241546 
1 1:17 2:5 3:6.535648 
1 1:0 2:3 3:3.103409 
1 1:0 2:16 3:3.103409 
1 1:9 2:9 3:10.378578 
1 1:0 2:2 3:1.570371 
1 1:0 2:1 3:1.570371 
1 1:0 2:10 3:2.326554 
1 1:0 2:1 3:1.624888 
1 1:0 2:1 3:2.014139 
1 1:0 2:1 3:2.014139 
1 1:0 2:1 3:0.992252 
1 1:0 2:1 3:0.572699 
1 1:0 2:1 3:7.048879 
1 1:0 2:28 3:2.791822 
1 1:21 2:14 3:59.95733 
1 1:0 2:8 3:4.797609 
1 1:0 2:1 3:1.198827 
1 1:0 2:4 3:2.216871 
1 1:1 2:3 3:27.850765 
1 1:16 2:1 3:46.465001 
1 1:3 2:17 3:83.735984 
1 1:22 2:2 3:38.664593 
1 1:4 2:14 3:2.119159 
1 1:38 2:3 3:35.794732 
1 1:9 2:3 3:4.272995 
1 1:17 2:1 3:14.722581 
1 1:1 2:11 3:1.315397 
1 1:26 2:37 3:43.985506 
1 1:12 2:32 3:6.445733 
1 1:7 2:30 3:2.811389 
1 1:0 2:8 3:62.820381 
1 1:14 2:18 3:5.595279 
1 1:26 2:45 3:33.394852 
1 1:17 2:3 3:8.277705 
1 1:2 2:2 3:0.471226 
1 1:0 2:1 3:32.666667 
1 1:6 2:4 3:4.133858 
1 1:14 2:3 3:2.690864 
1 1:17 2:36 3:3.140577 
1 1:29 2:8 3:38.8 
1 1:26 2:15 3:29.296243 
1 1:1 2:1 3:0.486235 
1 1:0 2:1 3:4.788815 
1 1:0 2:1 3:4.788815 
1 1:0 2:1 3:4.788815 
1 1:0 2:1 3:4.788815 
1 1:11 2:28 3:7.281311 
1 1:16 2:2 3:8.67871 
1 1:12 2:60 3:45 
1 1:39 2:8 3:47.686334 
1 1:10 2:2 3:6.7709 
1 1:1 2:14 3:9.69037 
1 1:8 2:22 3:5.309995 
1 1:15 2:17 3:13.323962 
1 1:0 2:3 3:4.633409 
1 1:7 2:14 3:4.180158 
1 1:0 2:1 3:0.825906 
1 1:0 2:52 3:2.224872 
1 1:3 2:1 3:22.984716 
1 1:0 2:1 3:24.665008 
1 1:1 2:1 3:30.417867 
1 1:1 2:7 3:7.849323 
1 1:0 2:2 3:18.993558 
1 1:4 2:1 3:11.14582 
1 1:1 2:22 3:8.823278 
1 1:0 2:1 3:0.522775 
1 1:0 2:1 3:34.586145 
1 1:0 2:4 3:2.06654 
1 1:1 2:1 3:27.710816 
1 1:18 2:9 3:40.453608 
1 1:2 2:38 3:13.833459 
1 1:20 2:44 3:38.75 
1 1:9 2:43 3:24.686662 
1 1:0 2:30 3:2.225165 
1 1:5 2:3 3:2.856362 
1 1:0 2:6 3:2.797686 
1 1:0 2:11 3:4.054315 
1 1:10 2:3 3:4.622753 
1 1:2 2:19 3:6.109025 
1 1:20 2:2 3:8.343445 
1 1:4 2:17 3:6.129822 
1 1:17 2:2 3:7.663227 
1 1:24 2:6 3:36.151266 
1 1:24 2:39 3:33.238095 
1 1:26 2:22 3:54.398998 
1 1:17 2:9 3:15.574228 
1 1:0 2:1 3:1.348589 
1 1:7 2:6 3:28.022369 
1 1:31 2:46 3:25.711668 
1 1:13 2:7 3:4.22477 
1 1:1 2:23 3:5.856348 
1 1:0 2:2 3:3.082601 
1 1:0 2:2 3:0.475337 
1 1:14 2:6 3:7.748486 
1 1:26 2:9 3:32.285506 
1 1:12 2:2 3:5.226889 
1 1:17 2:4 3:5.974887 
1 1:20 2:20 3:1.310862 
1 1:7 2:29 3:5.509246 
1 1:31 2:37 3:23.709271 
1 1:42 2:8 3:46.031844 
1 1:13 2:1 3:3.148928 
1 1:18 2:6 3:7.788853 
1 1:13 2:5 3:7.751895 
1 1:0 2:1 3:0.839331 
1 1:23 2:8 3:22.080422 
1 1:21 2:36 3:37.047619 
1 1:10 2:24 3:5.595909 
1 1:12 2:3 3:6.308503 
1 1:26 2:8 3:20.019344 
1 1:12 2:10 3:3.497987 
1 1:2 2:17 3:6.039212 
1 1:13 2:15 3:30.339249 
1 1:12 2:3 3:12.590488 
1 1:1 2:1 3:1.812394 
1 1:14 2:16 3:24.214473 
1 1:0 2:5 3:3.35951 
1 1:16 2:2 3:6.429103 
1 1:36 2:2 3:49.017522 
1 1:14 2:31 3:42.436863 
1 1:1 2:11 3:10.371573 
1 1:12 2:9 3:7.690485 
1 1:15 2:31 3:9.346216 
1 1:0 2:1 3:9.022504 
1 1:0 2:2 3:3.174118 
1 1:26 2:36 3:34.984833 
1 1:0 2:1 3:0.411562 
1 1:30 2:39 3:29.267171 
1 1:24 2:14 3:40.9 
1 1:0 2:2 3:4.701755 
1 1:0 2:2 3:4.701755 
1 1:0 2:2 3:4.701755 
1 1:0 2:1 3:22.630272 
1 1:4 2:2 3:17.122296 
1 1:0 2:29 3:3.49079 
1 1:14 2:7 3:6.214032 
1 1:3 2:1 3:19.298758 
1 1:0 2:1 3:0.450569 
1 1:0 2:1 3:1.176544 
1 1:0 2:2 3:16.148312 
1 1:0 2:1 3:8.314821 
1 1:0 2:1 3:29.619048 
1 1:0 2:1 3:0.905861 
1 1:0 2:1 3:8.992794 
1 1:0 2:1 3:6.12462 
1 1:33 2:170 3:46.337701 
1 1:4 2:5 3:1.735179 
1 1:12 2:20 3:1.212851 
1 1:11 2:1 3:125.03037 
1 1:0 2:1 3:1.980645 
1 1:0 2:2 3:3.894314 
1 1:0 2:1 3:2.489389 
1 1:14 2:37 3:31.952381 
1 1:1 2:1 3:2.35669 
1 1:0 2:2 3:2.623723 
1 1:7 2:1 3:4.980634 
1 1:0 2:5 3:3.628669 
1 1:14 2:8 3:4.939578 
1 1:26 2:10 3:26.886109 
1 1:1 2:1 3:0.456143 
1 1:25 2:5 3:11.586804 
1 1:8 2:1 3:9.101734 
1 1:29 2:16 3:25.479329 
1 1:0 2:1 3:0.81417 
1 1:29 2:9 3:33.482499 
1 1:10 2:24 3:4.38884 
1 1:21 2:37 3:44.811727 
1 1:8 2:8 3:9.694771 
1 1:0 2:13 3:3.554311 
1 1:12 2:25 3:5.453084 
1 1:16 2:18 3:7.886314 
1 1:18 2:14 3:13.500377 
1 1:4 2:44 3:36.8 
1 1:16 2:40 3:32.68491 
1 1:12 2:1 3:7.817519 
1 1:0 2:1 3:1.313459 
1 1:25 2:280 3:1.882709 
1 1:1 2:21 3:1.005402 
1 1:3 2:4 3:1.243533 
1 1:1 2:2 3:11.751455 
1 1:2 2:8 3:0.884859 
1 1:26 2:15 3:44.048292 
1 1:16 2:4 3:47.972715 
1 1:16 2:2 3:4.661816 
1 1:33 2:3 3:29.131545 
1 1:28 2:1 3:54.666667 
1 1:44 2:107 3:91.832048 
1 1:0 2:23 3:3.35294 
1 1:24 2:1 3:41.855073 
1 1:10 2:8 3:2.429649 
1 1:11 2:22 3:5.987472 
1 1:0 2:1 3:0.570747 
1 1:28 2:19 3:37.25 
1 1:16 2:17 3:5.907537 
1 1:34 2:28 3:39.930695 
1 1:18 2:46 3:48.659494 
1 1:13 2:6 3:3.753355 
1 1:15 2:27 3:6.006895 
1 1:1 2:1 3:1.285893 
1 1:15 2:4 3:4.103013 
1 1:0 2:1 3:0.420425 
1 1:22 2:9 3:34.680672 
1 1:17 2:2 3:6.626434 
1 1:4 2:28 3:7.150461 
1 1:8 2:19 3:2.791415 
1 1:33 2:11 3:29.849904 
1 1:33 2:7 3:66.92019 
1 1:8 2:41 3:1.087555 
1 1:11 2:7 3:2.312335 
1 1:17 2:10 3:19.804036 
1 1:21 2:15 3:8.777941 
1 1:4 2:41 3:36.295316 
1 1:35 2:12 3:22.100483 
1 1:13 2:14 3:6.229453 
1 1:28 2:8 3:38.143199 
1 1:9 2:26 3:8.56968 
1 1:16 2:4 3:8.370117 
1 1:0 2:1 3:0.436762 
1 1:8 2:2 3:3.226157 
1 1:19 2:4 3:12.127077 
1 1:15 2:23 3:12.266763 
1 1:10 2:10 3:28.26222 
1 1:19 2:1 3:13.0626 
1 1:7 2:30 3:7.217301 
1 1:11 2:3 3:6.42359 
1 1:21 2:5 3:11.010486 
1 1:18 2:22 3:4.623554 
1 1:19 2:39 3:42.1 
1 1:23 2:11 3:23.002954 
1 1:3 2:6 3:1.398144 
1 1:26 2:4 3:16.11931 
1 1:0 2:1 3:0.66092 
1 1:0 2:8 3:2.536729 
1 1:0 2:1 3:1.877443 
1 1:0 2:1 3:1.877443 
1 1:13 2:17 3:4.606843 
1 1:29 2:17 3:32.245695 
1 1:0 2:1 3:0.486897 
1 1:23 2:1 3:44.8 
1 1:0 2:3 3:17.315783 
1 1:29 2:9 3:26.271132 
1 1:9 2:31 3:6.13564 
1 1:0 2:1 3:0.464255 
1 1:10 2:22 3:7.330131 
1 1:1 2:17 3:3.362653 
1 1:24 2:5 3:37.343378 
1 1:12 2:18 3:4.525577 
1 1:9 2:25 3:4.641832 
1 1:25 2:5 3:32.864249 
1 1:32 2:23 3:36.142119 
1 1:39 2:3 3:48.837123 
1 1:6 2:13 3:37.55 
1 1:8 2:13 3:8.210216 
1 1:11 2:18 3:5.995844 
1 1:7 2:6 3:3.644017 
1 1:14 2:3 3:6.837999 
1 1:5 2:25 3:7.349839 
1 1:24 2:5 3:33.366627 
1 1:26 2:6 3:25.623012 
1 1:22 2:7 3:29.876639 
1 1:13 2:47 3:9.30254 
1 1:2 2:2 3:1.424136 
1 1:17 2:5 3:11.485132 
1 1:28 2:15 3:27.058926 
1 1:2 2:5 3:3.999369 
1 1:6 2:7 3:67.382479 
1 1:0 2:1 3:91.461639 
1 1:0 2:1 3:0.538491 
1 1:1 2:17 3:4.894357 
1 1:0 2:2 3:6.043997 
1 1:32 2:39 3:48.761905 
1 1:10 2:2 3:7.673999 
1 1:16 2:5 3:8.783942 
1 1:22 2:3 3:10.862259 
1 1:17 2:17 3:10.686403 
1 1:28 2:10 3:28.76148 
1 1:8 2:20 3:3.210375 
1 1:23 2:35 3:20.250433 
1 1:15 2:6 3:8.596285 
1 1:16 2:7 3:32.989069 
1 1:13 2:50 3:27.627704 
1 1:1 2:11 3:18.955713 
1 1:25 2:9 3:30.684183 
1 1:32 2:42 3:50.428571 
1 1:8 2:18 3:5.020225 
1 1:25 2:52 3:35.868783 
1 1:3 2:19 3:5.261489 
1 1:38 2:67 3:4.025703 
1 1:28 2:8 3:42.047619 
1 1:1 2:31 3:14.065303 
1 1:24 2:48 3:35.936365 
1 1:18 2:28 3:36.192692 
1 1:3 2:5 3:6.740679 
1 1:15 2:1 3:48.25 
1 1:14 2:5 3:8.502547 
1 1:12 2:10 3:11.327724 
1 1:30 2:13 3:25.435431 
1 1:2 2:1 3:0.495198 
1 1:29 2:9 3:41.281846 
1 1:3 2:25 3:2.011829 
1 1:0 2:45 3:2.331619 
1 1:6 2:22 3:5.492036 
1 1:16 2:5 3:9.759341 
1 1:9 2:11 3:8.777777 
1 1:13 2:16 3:5.155209 
1 1:1 2:1 3:0.613063 
1 1:0 2:1 3:0.612818 
1 1:0 2:1 3:3.593587 
1 1:23 2:4 3:23.956961 
1 1:0 2:1 3:2.36533 
1 1:10 2:12 3:19.533142 
1 1:21 2:13 3:30.836651 
1 1:0 2:1 3:1.97114 
1 1:0 2:1 3:2.704832 
1 1:0 2:2 3:1.730282 
1 1:0 2:2 3:19.808395 
1 1:0 2:1 3:100.16583 
1 1:19 2:14 3:11.00875 
1 1:19 2:11 3:9.929854 
1 1:83 2:240 3:5.246448 
1 1:16 2:2 3:3.93746 
1 1:11 2:8 3:2.635184 
1 1:1 2:45 3:6.982137 
1 1:46 2:12 3:4.093734 
1 1:3 2:1 3:0.772797 
1 1:1 2:1 3:1.199482 
1 1:4 2:1 3:2.299021 
1 1:71 2:21 3:7.575637 
1 1:2 2:40 3:4.11587 
1 1:0 2:1 3:1.286355 
1 1:0 2:8 3:1.286355 
1 1:0 2:8 3:16.781008 
1 1:1 2:14 3:93.59672 
1 1:0 2:1 3:1.467787 
1 1:0 2:1 3:6.161957 
1 1:1 2:49 3:75.547491 
1 1:2 2:3 3:55.856622 
1 1:5 2:1 3:148.25824 
1 1:1 2:1 3:9.588045 
1 1:2 2:2 3:10.232436 
1 1:1 2:1 3:6.797606 
1 1:23 2:8 3:37.956939 
1 1:7 2:2 3:1.148585 
1 1:29 2:15 3:4.581073 
1 1:6 2:6 3:5.037969 
1 1:1 2:385 3:18.519561 
1 1:5 2:85 3:0.951788 
1 1:1 2:1 3:11.788247 
1 1:1 2:1 3:1.301861 
1 1:10 2:7 3:17.95001 
1 1:49 2:23 3:13.186487 
1 1:1 2:50 3:1.378475 
1 1:0 2:1 3:77.206476 
1 1:0 2:1 3:0.76859 
1 1:1 2:1 3:5.620188 
1 1:1 2:3 3:19.683736 
1 1:0 2:1 3:5.971972 
1 1:6 2:19 3:92.431572 
1 1:0 2:1 3:68.611505 
1 1:0 2:5 3:3.026105 
1 1:3 2:11 3:93.392595 
1 1:5 2:6 3:32.238557 
1 1:5 2:4 3:108.33928 
1 1:0 2:1 3:7.840851 
1 1:33 2:3 3:39.814772 
1 1:21 2:50 3:42.971183 
1 1:37 2:9 3:49.493188 
1 1:33 2:70 3:0.564102 
1 1:26 2:46 3:28.878461 
1 1:0 2:2 3:0.474451 
1 1:11 2:4 3:4.890958 
1 1:8 2:18 3:7.249513 
1 1:7 2:5 3:3.082183 
1 1:17 2:30 3:36.6 
1 1:0 2:12 3:5.083683 
1 1:16 2:1 3:10.632384 
1 1:2 2:2 3:6.35986 
1 1:14 2:10 3:19.68247 
1 1:23 2:1 3:55.857143 
1 1:0 2:1 3:0.653477 
1 1:14 2:43 3:14.327971 
1 1:17 2:29 3:44.75 
1 1:9 2:6 3:24.534077 
1 1:31 2:40 3:30.235814 
1 1:6 2:14 3:1.984924 
1 1:3 2:23 3:3.376075 
1 1:0 2:2 3:1.75448 
1 1:0 2:1 3:1.75448 
1 1:0 2:1 3:9.588156 
1 1:0 2:3 3:66.481763 
1 1:0 2:1 3:3.959504 
1 1:0 2:2 3:10.348675 
1 1:0 2:1 3:6.375621 
1 1:0 2:1 3:1.005081 
1 1:0 2:1 3:5.096767 
1 1:0 2:20 3:0.469446 
1 1:21 2:42 3:39.901128 
1 1:24 2:3 3:14.243918 
1 1:4 2:24 3:1.615088 
1 1:25 2:1 3:50.714286 
1 1:13 2:4 3:7.236166 
1 1:17 2:3 3:9.776669 
1 1:19 2:23 3:13.254198 
1 1:0 2:16 3:0.642448 
1 1:22 2:13 3:20.3895 
1 1:18 2:1 3:41.190476 
1 1:0 2:1 3:1.543229 
1 1:32 2:9 3:36.018938 
1 1:20 2:5 3:9.676475 
1 1:4 2:1 3:71.295696 
1 1:10 2:11 3:2.666438 
1 1:13 2:36 3:40.013369 
1 1:16 2:9 3:23.925548 
1 1:4 2:38 3:11.212672 
1 1:7 2:12 3:2.059242 
1 1:14 2:5 3:3.326301 
1 1:0 2:8 3:36.671431 
1 1:8 2:27 3:6.188073 
1 1:1 2:1 3:41.667349 
1 1:1 2:3 3:7.891662 
1 1:5 2:4 3:8.973616 
1 1:8 2:5 3:5.865193 
1 1:2 2:10 3:15.296273 
1 1:2 2:3 3:58.664956 
1 1:11 2:1 3:150.44094 
1 1:15 2:7 3:5.849506 
1 1:14 2:5 3:8.768836 
1 1:19 2:106 3:8.768836 
1 1:14 2:1 3:68.532562 
1 1:2 2:2 3:29.263477 
1 1:2 2:1 3:1.547779 
-1 1:0 2:1 3:0.385836 
-1 1:1 2:0 3:0.261926 
-1 1:0 2:1 3:0.391748 
-1 1:0 2:1 3:0.385788 
-1 1:1 2:0 3:0.28277 
-1 1:1 2:0 3:0.195244 
-1 1:0 2:1 3:0.388388 
-1 1:0 2:1 3:0.391526 
-1 1:0 2:1 3:0.394923 
-1 1:1 2:0 3:0.222526 
-1 1:0 2:1 3:0.393903 
-1 1:0 2:1 3:0.390087 
-1 1:1 2:0 3:0.292428 
-1 1:1 2:0 3:0.190361 
-1 1:0 2:1 3:0.389352 
-1 1:1 2:0 3:0.385757 
-1 1:1 2:0 3:0.355522 
-1 1:0 2:1 3:0.390452 
-1 1:0 2:1 3:0.386992 
-1 1:1 2:0 3:0.21802 
-1 1:0 2:1 3:0.388889 
-1 1:1 2:0 3:0.249946 
-1 1:1 2:0 3:0.217467 
-1 1:0 2:1 3:0.391214 
-1 1:0 2:1 3:0.386825 
-1 1:1 2:0 3:0.345351 
-1 1:0 2:1 3:0.391358 
-1 1:0 2:1 3:0.386957 
-1 1:1 2:0 3:0.243005 
-1 1:0 2:1 3:0.391755 
-1 1:1 2:0 3:0.186081 
-1 1:0 2:1 3:0.391526 
-1 1:1 2:0 3:0.253175 
-1 1:1 2:0 3:0.190571 
-1 1:0 2:1 3:0.387142 
-1 1:1 2:0 3:0.405731 
-1 1:0 2:1 3:0.391254 
-1 1:0 2:1 3:0.392046 
-1 1:1 2:0 3:0.335075 
-1 1:0 2:1 3:0.388772 
-1 1:1 2:0 3:0.346856 
-1 1:0 2:1 3:0.393133 
-1 1:0 2:1 3:0.387081 
-1 1:0 2:1 3:0.38612 
-1 1:0 2:1 3:0.392872 
-1 1:0 2:1 3:0.392422 
-1 1:0 2:1 3:0.388849 
-1 1:0 2:1 3:0.394369 
-1 1:0 2:1 3:0.391146 
-1 1:1 2:0 3:0.243098 
-1 1:0 2:1 3:0.38892 
-1 1:0 2:1 3:0.387274 
-1 1:1 2:0 3:0.339547 
-1 1:1 2:0 3:0.19124 
-1 1:0 2:1 3:0.389328 
-1 1:0 2:1 3:0.390101 
-1 1:0 2:1 3:0.387066 
-1 1:1 2:0 3:0.224212 
-1 1:1 2:0 3:0.359024 
-1 1:1 2:0 3:0.191915 
-1 1:0 2:1 3:0.385664 
-1 1:0 2:1 3:0.394634 
-1 1:0 2:1 3:0.390245 
-1 1:0 2:1 3:0.387868 
-1 1:0 2:1 3:0.39181 
-1 1:1 2:0 3:0.189796 
-1 1:0 2:1 3:0.388965 
-1 1:1 2:0 3:0.258094 
-1 1:0 2:1 3:0.39521 
-1 1:0 2:1 3:0.394112 
-1 1:1 2:0 3:0.281956 
-1 1:0 2:1 3:0.390038 
-1 1:1 2:0 3:0.230862 
-1 1:1 2:0 3:0.281118 
-1 1:0 2:1 3:0.387923 
-1 1:0 2:1 3:0.392576 
-1 1:0 2:1 3:0.387733 
-1 1:0 2:1 3:0.391545 
-1 1:0 2:1 3:0.389716 
-1 1:0 2:1 3:0.39259 
-1 1:0 2:1 3:0.394416 
-1 1:0 2:1 3:0.389054 
-1 1:0 2:1 3:0.387467 
-0.1839654143650864 1:0 2:1 3:0.395396 
-1 1:0 2:1 3:0.395087 
-1 1:0 2:1 3:0.391105 
-1 1:1 2:0 3:0.354741 
-1 1:0 2:1 3:0.393917 
-1 1:0 2:1 3:0.385677 
-1 1:0 2:1 3:0.388501 
-1 1:0 2:1 3:0.386759 
-1 1:0 2:1 3:0.391178 
-1 1:1 2:0 3:0.196774 
-1 1:0 2:1 3:0.389456 
-1 1:0 2:1 3:0.39017 
-1 1:0 2:1 3:0.389929 
-1 1:0 2:1 3:0.386683 
-1 1:0 2:1 3:0.393042 
-1 1:0 2:1 3:0.387496 
-1 1:1 2:0 3:0.225451 
-1 1:0 2:1 3:0.387067 
-1 1:0 2:1 3:0.394799 
-1 1:0 2:1 3:0.388596 
-1 1:0 2:1 3:0.394769 
-1 1:0 2:1 3:0.393761 
-1 1:0 2:1 3:0.385827 
-1 1:1 2:0 3:0.213639 
-1 1:0 2:1 3:0.392776 
-1 1:0 2:1 3:0.38731 
-1 1:0 2:1 3:0.39454 
-1 1:1 2:0 3:0.33569 
-1 1:0 2:1 3:0.395143 
-1 1:1 2:0 3:0.302576 
-1 1:1 2:0 3:0.250876 
-1 1:1 2:0 3:0.316476 
-1 1:0 2:1 3:0.392393 
-1 1:0 2:1 3:0.394189 
-1 1:0 2:1 3:0.38637 
-1 1:0 2:1 3:0.387014 
-1 1:0 2:1 3:0.386309 
-1 1:1 2:0 3:0.208205 
-1 1:0 2:1 3:0.393431 
-1 1:0 2:1 3:0.3916 
-1 1:1 2:0 3:0.211056 
-1 1:1 2:0 3:0.33899 
-1 1:0 2:1 3:0.386518 
-1 1:0 2:1 3:0.391894 
-1 1:1 2:0 3:0.345953 
-1 1:1 2:0 3:0.394707 
-1 1:0 2:1 3:0.393238 
-1 1:1 2:0 3:0.327261 
-1 1:0 2:1 3:0.393182 
-1 1:0 2:1 3:0.390683 
-1 1:0 2:1 3:0.385551 
-1 1:0 2:1 3:0.39236 
-1 1:0 2:1 3:0.392786 
-1 1:0 2:1 3:0.394313 
-1 1:1 2:0 3:0.33388 
-1 1:1 2:0 3:0.386653 
-1 1:0 2:1 3:0.388946 
-1 1:0 2:1 3:0.394512 
-1 1:1 2:0 3:0.207586 
-1 1:1 2:0 3:0.357551 
-1 1:0 2:1 3:0.388222 
-1 1:1 2:0 3:0.309203 
-1 1:0 2:1 3:0.3864 
-1 1:1 2:0 3:0.398176 
-1 1:1 2:0 3:0.308233 
-1 1:0 2:1 3:0.392156 
-1 1:1 2:0 3:0.366456 
-1 1:0 2:1 3:0.386543 
-1 1:0 2:1 3:0.394189 
-1 1:0 2:1 3:0.39181 
-1 1:0 2:1 3:0.390479 
-1 1:0 2:1 3:0.3856 
-1 1:0 2:1 3:0.387868 
-0.8207278245063272 1:1 2:0 3:0.181163 
-1 1:1 2:0 3:0.349442 
-1 1:0 2:1 3:0.392573 
-1 1:0 2:1 3:0.389737 
-1 1:0 2:1 3:0.393136 
-1 1:0 2:1 3:0.392907 
-1 1:1 2:0 3:0.241001 
-1 1:0 2:1 3:0.388002 
-1 1:1 2:0 3:0.200449 
-1 1:0 2:1 3:0.389355 
-1 1:0 2:1 3:0.386945 
-1 1:1 2:0 3:0.186952 
-1 1:0 2:1 3:0.386069 
-1 1:0 2:1 3:0.390435 
-1 1:1 2:0 3:0.227159 
-1 1:0 2:1 3:0.386846 
-1 1:0 2:1 3:0.389449 
-1 1:0 2:1 3:0.393248 
-1 1:0 2:1 3:0.390988 
-1 1:0 2:1 3:0.386303 
-1 1:0 2:1 3:0.392379 
-1 1:1 2:0 3:0.289263 
-1 1:1 2:0 3:0.265851 
-1 1:0 2:1 3:0.39355 
-1 1:0 2:1 3:0.386735 
-1 1:0 2:1 3:0.388102 
-1 1:0 2:1 3:0.392429 
-1 1:0 2:1 3:0.391913 
-1 1:1 2:0 3:0.317366 
-1 1:0 2:1 3:0.388909 
-1 1:0 2:1 3:0.386215 
-1 1:1 2:0 3:0.332106 
-1 1:1 2:0 3:0.296881 
-1 1:0 2:1 3:0.387347 
-1 1:1 2:0 3:0.261288 
-1 1:1 2:0 3:0.195451 
-1 1:0 2:1 3:0.389226 
-1 1:0 2:1 3:0.391518 
-1 1:0 2:1 3:0.387609 
-1 1:0 2:1 3:0.388584 
-1 1:0 2:1 3:0.388943 
-1 1:0 2:1 3:0.389375 
-1 1:0 2:1 3:0.388562 
-1 1:0 2:1 3:0.390603 
-1 1:1 2:0 3:0.26376 
-1 1:1 2:0 3:0.384349 
-1 1:0 2:1 3:0.389669 
-1 1:0 2:1 3:0.385697 
-1 1:0 2:1 3:0.389901 
-1 1:1 2:0 3:0.184467 
-1 1:0 2:1 3:0.390257 
-1 1:0 2:1 3:0.386947 
-1 1:0 2:1 3:0.393543 
-1 1:0 2:1 3:0.390479 
-1 1:0 2:1 3:0.39355 
-1 1:0 2:1 3:0.391545 
-1 1:0 2:1 3:0.388094 
-1 1:0 2:1 3:0.389877 
-1 1:0 2:1 3:0.389887 
-1 1:0 2:1 3:0.389808 
-1 1:0 2:1 3:0.39401 
-1 1:1 2:0 3:0.183599 
-1 1:0 2:1 3:0.389695 
-1 1:0 2:1 3:0.39174 
-1 1:0 2:1 3:0.388954 
-1 1:0 2:1 3:0.389565 
-1 1:0 2:1 3:0.395246 
-1 1:0 2:1 3:0.394967 
-1 1:1 2:0 3:0.25548 
-1 1:1 2:0 3:0.200261 
-1 1:1 2:0 3:0.229643 
-1 1:1 2:0 3:0.257819 
-1 1:0 2:1 3:0.395242 
-1 1:0 2:1 3:0.390038 
-1 1:0 2:1 3:0.391233 
-1 1:0 2:1 3:0.395246 
-1 1:0 2:1 3:0.389667 
-1 1:0 2:1 3:0.389301 
-1 1:1 2:0 3:0.234875 
-1 1:1 2:0 3:0.24792 
-1 1:1 2:0 3:0.200004 
-1 1:1 2:0 3:0.22194 
-1 1:1 2:0 3:0.313897 
-1 1:1 2:0 3:0.353179 
-1 1:0 2:1 3:0.387609 
-1 1:1 2:0 3:0.338342 
-1 1:0 2:1 3:0.39227 
-1 1:0 2:1 3:0.389743 
-1 1:0 2:1 3:0.390541 
-1 1:0 2:1 3:0.393381 
-1 1:0 2:1 3:0.391937 
-1 1:0 2:1 3:0.391143 
-1 1:0 2:1 3:0.388252 
-1 1:0 2:1 3:0.388473 
-1 1:0 2:1 3:0.392277 
-1 1:0 2:1 3:0.38953 
-1 1:0 2:1 3:0.385629 
-1 1:0 2:1 3:0.394878 
-1 1:0 2:1 3:0.390136 
-1 1:0 2:1 3:0.390704 
-1 1:1 2:0 3:0.328047 
-1 1:1 2:0 3:0.274321 
-1 1:1 2:0 3:0.181498 
-1 1:0 2:1 3:0.389843 
-1 1:1 2:0 3:0.223711 
-1 1:0 2:1 3:0.388965 
-1 1:0 2:1 3:0.38832 
-1 1:1 2:0 3:0.39609 
-1 1:0 2:1 3:0.394923 
-1 1:0 2:1 3:0.390189 
-1 1:0 2:1 3:0.387648 
-1 1:1 2:0 3:0.395686 
-1 1:0 2:1 3:0.393391 
-1 1:0 2:1 3:0.388095 
-1 1:0 2:1 3:0.394938 
-1 1:1 2:0 3:0.203941 
-1 1:0 2:1 3:0.390276 
-1 1:0 2:1 3:0.391804 
-1 1:0 2:1 3:0.386106 
-1 1:1 2:0 3:0.365976 
-1 1:1 2:0 3:0.243837 
-1 1:0 2:1 3:0.391862 
-1 1:0 2:1 3:0.395295 
-1 1:1 2:0 3:0.388942 
-1 1:1 2:0 3:0.232201 
-1 1:0 2:1 3:0.390202 
-1 1:0 2:1 3:0.389106 
-1 1:0 2:1 3:0.393701 
-1 1:1 2:0 3:0.329727 
-1 1:1 2:0 3:0.325765 
-1 1:0 2:1 3:0.394796 
-1 1:0 2:1 3:0.388277 
-1 1:0 2:1 3:0.391682 
-1 1:0 2:1 3:0.388562 
-1 1:1 2:0 3:0.221603 
-1 1:0 2:1 3:0.3935 
-1 1:1 2:0 3:0.378975 
-1 1:0 2:1 3:0.394867 
-1 1:0 2:1 3:0.389585 
-1 1:0 2:1 3:0.389545 
-1 1:1 2:0 3:0.284431 
-1 1:0 2:1 3:0.390231 
-1 1:0 2:1 3:0.388004 
-1 1:0 2:1 3:0.390817 
-1 1:1 2:0 3:0.211487 
-1 1:1 2:0 3:0.353673 
-1 1:0 2:1 3:0.386646 
-1 1:0 2:1 3:0.392463 
-1 1:0 2:1 3:0.386524 
-1 1:1 2:0 3:0.404156 
-1 1:1 2:0 3:0.224235 
-1 1:0 2:1 3:0.392211 
-1 1:0 2:1 3:0.393333 
-1 1:0 2:1 3:0.391129 
-1 1:1 2:0 3:0.290722 
-1 1:1 2:0 3:0.215666 
-1 1:0 2:1 3:0.391705 
-1 1:0 2:1 3:0.390479 
-1 1:0 2:1 3:0.386653 
-1 1:0 2:1 3:0.385966 
-1 1:0 2:1 3:0.388664 
-1 1:0 2:1 3:0.392353 
-1 1:0 2:1 3:0.393883 
-1 1:0 2:1 3:0.391835 
-1 1:0 2:1 3:0.392277 
-1 1:0 2:1 3:0.390693 
-1 1:1 2:0 3:0.243532 
-1 1:0 2:1 3:0.388694 
-1 1:1 2:0 3:0.222657 
-1 1:0 2:1 3:0.393829 
-1 1:1 2:0 3:0.318147 
-1 1:1 2:0 3:0.401381 
-1 1:0 2:1 3:0.390506 
-1 1:1 2:0 3:0.254469 
-1 1:1 2:0 3:0.308484 
-1 1:0 2:1 3:0.391322 
-1 1:0 2:1 3:0.389245 
-1 1:1 2:0 3:0.296878 
-1 1:1 2:0 3:0.2296 
-1 1:0 2:1 3:0.387724 
-1 1:0 2:1 3:0.386975 
-1 1:0 2:1 3:0.395318 
-1 1:0 2:1 3:0.387765 
-1 1:0 2:1 3:0.393402 
-1 1:0 2:1 3:0.393883 
-1 1:1 2:0 3:0.334287 
-1 1:0 2:1 3:0.39356 
-1 1:0 2:1 3:0.388396 
-1 1:1 2:0 3:0.297657 
-1 1:0 2:1 3:0.392227 
-1 1:0 2:1 3:0.388069 
-1 1:0 2:1 3:0.391954 
-1 1:0 2:1 3:0.394226 
-1 1:0 2:1 3:0.388477 
-1 1:0 2:1 3:0.386532 
-1 1:0 2:1 3:0.394536 
-1 1:0 2:1 3:0.390592 
-1 1:0 2:1 3:0.38878 
-1 1:0 2:1 3:0.388839 
-1 1:1 2:0 3:0.323068 
-1 1:1 2:0 3:0.220278 
-1 1:1 2:0 3:0.218249 
-1 1:1 2:0 3:0.181871 
-1 1:0 2:1 3:0.388382 
-1 1:1 2:0 3:0.285426 
-1 1:0 2:1 3:0.393573 
-1 1:1 2:0 3:0.233531 
-1 1:0 2:1 3:0.390655 
-1 1:0 2:1 3:0.394631 
-1 1:0 2:1 3:0.390647 
-1 1:0 2:1 3:0.39506 
-1 1:0 2:1 3:0.388789 
-1 1:0 2:1 3:0.387533 
-1 1:1 2:0 3:0.342626 
-1 1:0 2:1 3:0.395226 
-1 1:1 2:0 3:0.224654 
-1 1:0 2:1 3:0.387044 
-1 1:1 2:0 3:0.361384 
-1 1:0 2:1 3:0.392972 
-1 1:0 2:1 3:0.394667 
-1 1:0 2:1 3:0.388182 
-1 1:0 2:1 3:0.386424 
-1 1:1 2:0 3:0.315987 
-1 1:0 2:1 3:0.389166 
-1 1:0 2:1 3:0.386652 
-1 1:0 2:1 3:0.38592 
-1 1:0 2:1 3:0.390924 
-1 1:0 2:1 3:0.393984 
-1 1:0 2:1 3:0.391322 
-1 1:0 2:1 3:0.390441 
-1 1:1 2:0 3:0.200031 
-1 1:0 2:1 3:0.389397 
-1 1:0 2:1 3:0.38809 
-1 1:0 2:1 3:0.390888 
-1 1:0 2:1 3:0.385893 
-1 1:0 2:1 3:0.390907 
-1 1:0 2:1 3:0.387806 
-1 1:0 2:1 3:0.392287 
-1 1:0 2:1 3:0.388889 
-1 1:0 2:1 3:0.390676 
-1 1:0 2:1 3:0.389423 
-1 1:1 2:0 3:0.22491 
-1 1:1 2:0 3:0.1933 
-1 1:0 2:1 3:0.389885 
-1 1:0 2:1 3:0.393182 
-1 1:0 2:1 3:0.387253 
-1 1:0 2:1 3:0.393381 
-1 1:0 2:1 3:0.391026 
-1 1:0 2:1 3:0.388356 
-1 1:0 2:1 3:0.386214 
-1 1:1 2:0 3:0.192692 
-1 1:1 2:0 3:0.247512 
-1 1:1 2:0 3:0.246248 
-1 1:1 2:0 3:0.307526 
-1 1:0 2:1 3:0.389929 
-1 1:0 2:1 3:0.391146 
-1 1:0 2:1 3:0.388382 
-1 1:0 2:1 3:0.389121 
-1 1:1 2:0 3:0.226478 
-1 1:0 2:1 3:0.39512 
-1 1:0 2:1 3:0.391227 
-1 1:0 2:1 3:0.394326 
-1 1:0 2:1 3:0.392943 
-1 1:1 2:0 3:0.269588 
-1 1:1 2:0 3:0.295993 
-1 1:0 2:1 3:0.393569 
-1 1:1 2:0 3:0.391254 
-1 1:0 2:1 3:0.389669 
-1 1:0 2:1 3:0.385982 
-1 1:0 2:1 3:0.394961 
-1 1:0 2:1 3:0.394352 
-1 1:0 2:1 3:0.389505 
-1 1:0 2:1 3:0.389254 
-1 1:0 2:1 3:0.389503 
-1 1:0 2:1 3:0.390101 
-1 1:0 2:1 3:0.395043 
-1 1:0 2:1 3:0.391168 
-1 1:0 2:1 3:0.387962 
-1 1:0 2:1 3:0.39144 
-1 1:1 2:0 3:0.321748 
-1 1:1 2:0 3:0.302031 
-1 1:0 2:1 3:0.393226 
-1 1:1 2:0 3:0.221278 
-1 1:1 2:0 3:0.301622 
-1 1:1 2:0 3:0.347117 
-1 1:1 2:0 3:0.35422 
-1 1:1 2:0 3:0.239571 
-1 1:0 2:1 3:0.385982 
-1 1:1 2:0 3:0.325258 
-1 1:1 2:0 3:0.217809 
-1 1:0 2:1 3:0.392445 
-1 1:0 2:1 3:0.390168 
-1 1:0 2:1 3:0.387563 
-1 1:0 2:1 3:0.38822 
-1 1:0 2:1 3:0.38822 
-1 1:0 2:1 3:0.394536 
-1 1:1 2:0 3:0.393812 
-1 1:0 2:1 3:0.392091 
-1 1:1 2:0 3:0.362519 
-1 1:0 2:1 3:0.386011 
-1 1:0 2:1 3:0.392316 
-1 1:0 2:1 3:0.394835 
-1 1:0 2:1 3:0.387978 
-1 1:0 2:1 3:0.388095 
-1 1:0 2:1 3:0.386587 
-1 1:0 2:1 3:0.386765 
-1 1:0 2:1 3:0.392091 
-1 1:0 2:1 3:0.391231 
-1 1:1 2:0 3:0.280521 
-1 1:0 2:1 3:0.390038 
-1 1:0 2:1 3:0.388337 
-1 1:1 2:0 3:0.248007 
-1 1:0 2:1 3:0.388479 
-1 1:1 2:0 3:0.338122 
-1 1:0 2:1 3:0.389221 
-1 1:0 2:1 3:0.393691 
-1 1:0 2:1 3:0.386171 
-1 1:0 2:1 3:0.394816 
-1 1:0 2:1 3:0.386869 
-1 1:0 2:1 3:0.389823 
-1 1:0 2:1 3:0.389041 
-1 1:0 2:1 3:0.391862 
-1 1:1 2:0 3:0.276965 
-1 1:1 2:0 3:0.279136 
-1 1:0 2:1 3:0.392378 
-1 1:1 2:0 3:0.377182 
-1 1:0 2:1 3:0.386237 
-1 1:1 2:0 3:0.204133 
-1 1:0 2:1 3:0.394013 
-1 1:1 2:0 3:0.267088 
-1 1:0 2:1 3:0.385657 
-1 1:0 2:1 3:0.393014 
-1 1:0 2:1 3:0.389988 
-1 1:0 2:1 3:0.394749 
-1 1:0 2:1 3:0.39534 
-1 1:0 2:1 3:0.389127 
-1 1:0 2:1 3:0.389526 
-1 1:0 2:1 3:0.390999 
-1 1:1 2:0 3:0.328411 
-1 1:1 2:0 3:0.216292 
-1 1:1 2:0 3:0.294109 
-1 1:0 2:1 3:0.39068 
-1 1:1 2:0 3:0.214888 
-1 1:0 2:1 3:0.39125 
-1 1:0 2:1 3:0.387817 
-1 1:0 2:1 3:0.389947 
-1 1:0 2:1 3:0.394052 
-1 1:0 2:1 3:0.393567 
-1 1:1 2:0 3:0.307421 
-1 1:0 2:1 3:0.393777 
-1 1:0 2:1 3:0.387873 
-1 1:0 2:1 3:0.391903 
-1 1:0 2:1 3:0.386384 
-1 1:0 2:1 3:0.387612 
-1 1:0 2:1 3:0.387416 
-1 1:0 2:1 3:0.392786 
-1 1:1 2:0 3:0.285875 
-1 1:0 2:1 3:0.39523 
-1 1:0 2:1 3:0.39446 
-1 1:0 2:1 3:0.388501 
-1 1:0 2:1 3:0.387173 
-1 1:1 2:0 3:0.303568 
-1 1:1 2:0 3:0.182751 
-1 1:0 2:1 3:0.387648 
-1 1:1 2:0 3:0.19106 
-1 1:0 2:1 3:0.387711 
-1 1:1 2:0 3:0.190145 
-1 1:1 2:0 3:0.332537 
-1 1:1 2:0 3:0.201101 
-1 1:0 2:1 3:0.394575 
-1 1:1 2:0 3:0.262554 
-1 1:0 2:1 3:0.39272 
-1 1:0 2:1 3:0.390661 
-1 1:0 2:1 3:0.387193 
-1 1:1 2:0 3:0.398328 
-1 1:0 2:1 3:0.393628 
-1 1:0 2:1 3:0.387019 
-1 1:0 2:1 3:0.385905 
-1 1:0 2:1 3:0.390479 
-1 1:1 2:0 3:0.224989 
-1 1:0 2:1 3:0.387895 
-1 1:0 2:1 3:0.394169 
-1 1:1 2:0 3:0.294911 
-1 1:0 2:1 3:0.391717 
-1 1:0 2:1 3:0.391841 
-1 1:1 2:0 3:0.398072 
-1 1:0 2:1 3:0.395051 
-1 1:0 2:1 3:0.385864 
-1 1:1 2:0 3:0.216407 
-1 1:1 2:0 3:0.240536 
-1 1:0 2:1 3:0.390958 
-1 1:0 2:1 3:0.393679 
-1 1:0 2:1 3:0.392992 
-1 1:0 2:1 3:0.387868 
-1 1:1 2:0 3:0.281808 
-1 1:0 2:1 3:0.390131 
-1 1:0 2:1 3:0.385846 
-1 1:0 2:1 3:0.390898 
-1 1:0 2:1 3:0.394707 
-1 1:0 2:1 3:0.390231 
-1 1:0 2:1 3:0.392014 
-1 1:1 2:0 3:0.387454 
-1 1:1 2:0 3:0.310791 
-1 1:1 2:0 3:0.2848 
-1 1:0 2:1 3:0.391264 
-1 1:1 2:0 3:0.3405 
-1 1:0 2:1 3:0.393408 
-1 1:0 2:1 3:0.389243 
-1 1:1 2:0 3:0.398664 
-1 1:0 2:1 3:0.387992 
-1 1:0 2:1 3:0.389617 
-1 1:1 2:0 3:0.263559 
-1 1:1 2:0 3:0.341817 
-1 1:0 2:1 3:0.395054 
-1 1:0 2:1 3:0.385998 
-1 1:0 2:1 3:0.386539 
-1 1:0 2:1 3:0.394938 
-1 1:0 2:1 3:0.391802 
-1 1:0 2:1 3:0.389755 
-1 1:1 2:0 3:0.395316 
-1 1:0 2:1 3:0.392325 
-1 1:0 2:1 3:0.392944 
-1 1:0 2:1 3:0.387242 
-1 1:1 2:0 3:0.199646 
-1 1:1 2:0 3:0.401356 
-1 1:0 2:1 3:0.389699 
-1 1:1 2:0 3:0.327844 
-1 1:1 2:0 3:0.351727 
-1 1:1 2:0 3:0.240078 
-1 1:0 2:1 3:0.3877 
-1 1:1 2:0 3:0.195887 
-1 1:1 2:0 3:0.219771 
-1 1:0 2:1 3:0.387621 
-1 1:1 2:0 3:0.19278 
-1 1:0 2:1 3:0.394226 
-1 1:0 2:1 3:0.39488 
-1 1:1 2:0 3:0.277885 
-1 1:0 2:1 3:0.393538 
-1 1:0 2:1 3:0.390364 
-1 1:0 2:1 3:0.39155 
-1 1:0 2:1 3:0.387992 
-1 1:0 2:1 3:0.39164 
-1 1:1 2:0 3:0.295205 
-1 1:0 2:1 3:0.388322 
-1 1:1 2:0 3:0.198487 
-1 1:0 2:1 3:0.393341 
-1 1:1 2:0 3:0.231357 
-1 1:1 2:0 3:0.248759 
-1 1:0 2:1 3:0.388128 
-1 1:0 2:1 3:0.388743 
-1 1:0 2:1 3:0.38935 
-1 1:0 2:1 3:0.386093 
-1 1:0 2:1 3:0.389054 
-1 1:1 2:0 3:0.347705 
-1 1:1 2:0 3:0.344031 
-1 1:1 2:0 3:0.248981 
-1 1:0 2:1 3:0.389055 
-1 1:0 2:1 3:0.394313 
-1 1:0 2:1 3:0.386091 
-1 1:0 2:1 3:0.391479 
-1 1:0 2:1 3:0.39327 
-1 1:0 2:1 3:0.391804 
-1 1:1 2:0 3:0.276046 
-1 1:1 2:0 3:0.341977 
-1 1:1 2:0 3:0.277463 
-1 1:1 2:0 3:0.313039 
-1 1:0 2:1 3:0.391163 
-1 1:0 2:1 3:0.394126 
-1 1:1 2:0 3:0.306079 
-1 1:1 2:0 3:0.253029 
-1 1:1 2:0 3:0.299846 
-1 1:1 2:0 3:0.309578 
-1 1:0 2:1 3:0.387229 
-1 1:0 2:1 3:0.389503 
-1 1:1 2:0 3:0.256004 
-1 1:0 2:1 3:0.392498 
-1 1:0 2:1 3:0.390873 
-1 1:0 2:1 3:0.386839 
-1 1:0 2:1 3:0.386652 
-1 1:1 2:0 3:0.406732 
-1 1:1 2:0 3:0.209131 
-1 1:1 2:0 3:0.225332 
-1 1:0 2:1 3:0.386595 
-1 1:0 2:1 3:0.395329 
-1 1:1 2:0 3:0.19108 
-1 1:0 2:1 3:0.387454 
-1 1:0 2:1 3:0.38935 
-1 1:0 2:1 3:0.390958 
-1 1:1 2:0 3:0.296488 
-1 1:0 2:1 3:0.393563 
-1 1:1 2:0 3:0.301083 
-1 1:1 2:0 3:0.210909 
-1 1:0 2:1 3:0.389076 
-1 1:0 2:1 3:0.387817 
-1 1:0 2:1 3:0.390133 
-1 1:1 2:0 3:0.19188 
-1 1:1 2:0 3:0.32083 
-1 1:1 2:0 3:0.209843 
-1 1:1 2:0 3:0.249456 
-1 1:0 2:1 3:0.389938 
-1 1:1 2:0 3:0.332425 
-1 1:1 2:0 3:0.305255 
-1 1:1 2:0 3:0.306432 
-1 1:1 2:0 3:0.227421 
-1 1:0 2:1 3:0.388943 
-1 1:0 2:1 3:0.389735 
-1 1:0 2:1 3:0.388064 
-1 1:0 2:1 3:0.393136 
-1 1:0 2:1 3:0.390426 
-1 1:1 2:0 3:0.356038 
-1 1:0 2:1 3:0.390676 
-1 1:1 2:0 3:0.309149 
-1 1:0 2:1 3:0.391848 
-1 1:1 2:0 3:0.30892 
-1 1:0 2:1 3:0.385814 
-1 1:1 2:0 3:0.330435 
-1 1:1 2:0 3:0.318791 
-1 1:1 2:0 3:0.201566 
-1 1:0 2:1 3:0.385689 
-1 1:0 2:1 3:0.386568 
-1 1:1 2:0 3:0.373127 
-1 1:0 2:1 3:0.394352 
-1 1:1 2:0 3:0.1841 
-1 1:1 2:0 3:0.232401 
-1 1:0 2:1 3:0.393691 
-1 1:1 2:0 3:0.206753 
-1 1:1 2:0 3:0.290117 
-1 1:1 2:0 3:0.268671 
-1 1:1 2:0 3:0.257778 
-1 1:1 2:0 3:0.183746 
-1 1:1 2:0 3:0.317518 
-1 1:0 2:1 3:0.388347 
-1 1:1 2:0 3:0.376675 
-1 1:1 2:0 3:0.260666 
-1 1:0 2:1 3:0.393357 
-1 1:0 2:1 3:0.386236 
-1 1:1 2:0 3:0.249246 
-1 1:1 2:0 3:0.273062 
-1 1:1 2:0 3:0.303045 
-1 1:0 2:1 3:0.393883 
-1 1:0 2:1 3:0.392432 
-1 1:1 2:0 3:0.241796 
-1 1:0 2:1 3:0.391082 
-1 1:1 2:0 3:0.290663 
-1 1:0 2:1 3:0.388356 
-1 1:0 2:1 3:0.39179 
-1 1:1 2:0 3:0.322708 
-1 1:0 2:1 3:0.392681 
-1 1:0 2:1 3:0.386151 
-1 1:1 2:0 3:0.243193 
-1 1:0 2:1 3:0.387942 
-1 1:0 2:1 3:0.395224 
-1 1:0 2:1 3:0.392429 
-1 1:1 2:0 3:0.183117 
-1 1:1 2:0 3:0.24275 
-1 1:1 2:0 3:0.400393 
-1 1:0 2:1 3:0.395147 
-1 1:0 2:1 3:0.389877 
-1 1:0 2:1 3:0.392824 
-1 1:1 2:0 3:0.230973 
-1 1:0 2:1 3:0.386467 
-1 1:0 2:1 3:0.389876 
-1 1:0 2:1 3:0.387325 
-1 1:0 2:1 3:0.385564 
-1 1:1 2:0 3:0.208093 
-1 1:1 2:0 3:0.295977 
-1 1:0 2:1 3:0.38557 
-1 1:0 2:1 3:0.389631 
-1 1:0 2:1 3:0.395352 
-1 1:1 2:0 3:0.394923 
-1 1:0 2:1 3:0.393742 
-1 1:1 2:0 3:0.193675 
-1 1:1 2:0 3:0.309273 
-1 1:0 2:1 3:0.390044 
-1 1:1 2:0 3:0.373351 
-1 1:0 2:1 3:0.394464 
-1 1:1 2:0 3:0.281114 
-1 1:1 2:0 3:0.234276 
-1 1:1 2:0 3:0.244385 
-1 1:1 2:0 3:0.236578 
-1 1:0 2:1 3:0.388384 
-1 1:0 2:1 3:0.387019 
-1 1:0 2:1 3:0.393856 
-1 1:0 2:1 3:0.390693 
-1 1:0 2:1 3:0.38731 
-1 1:1 2:0 3:0.321842 
-1 1:0 2:1 3:0.387604 
-1 1:0 2:1 3:0.390106 
-1 1:1 2:0 3:0.337267 
-1 1:0 2:1 3:0.389877 
-1 1:1 2:0 3:0.304449 
-1 1:1 2:0 3:0.407878 
-1 1:1 2:0 3:0.305929 
-1 1:0 2:1 3:0.386595 
-1 1:1 2:0 3:0.378289 
-1 1:0 2:1 3:0.389339 
-1 1:1 2:0 3:0.201738 
-1 1:1 2:0 3:0.40821 
-1 1:0 2:1 3:0.391997 
-1 1:1 2:0 3:0.325946 
-1 1:1 2:0 3:0.317998 
-1 1:0 2:1 3:0.389518 
-1 1:0 2:1 3:0.387066 
-1 1:0 2:1 3:0.389843 
-1 1:1 2:0 3:0.237844 
-1 1:0 2:1 3:0.393112 
-1 1:1 2:0 3:0.227187 
-1 1:0 2:1 3:0.388591 
-1 1:0 2:1 3:0.390173 
-1 1:0 2:1 3:0.388918 
-1 1:1 2:0 3:0.220265 
-1 1:1 2:0 3:0.383999 
-1 1:0 2:1 3:0.386173 
-1 1:1 2:0 3:0.202465 
-1 1:1 2:0 3:0.295251 
-1 1:1 2:0 3:0.320739 
-1 1:0 2:1 3:0.39386 
-1 1:0 2:1 3:0.389386 
-1 1:0 2:1 3:0.386386 
-1 1:1 2:0 3:0.222664 
-1 1:1 2:0 3:0.262859 
-1 1:0 2:1 3:0.38785 
-1 1:1 2:0 3:0.250348 
-1 1:0 2:1 3:0.393856 
-1 1:0 2:1 3:0.390802 
-1 1:0 2:1 3:0.391105 
-1 1:1 2:0 3:0.198764 
-1 1:1 2:0 3:0.232829 
-1 1:0 2:1 3:0.388272 
-1 1:0 2:1 3:0.387538 
-1 1:0 2:1 3:0.390383 
-1 1:0 2:1 3:0.388919 
-1 1:1 2:0 3:0.188746 
-1 1:0 2:1 3:0.392889 
-1 1:0 2:1 3:0.393233 
-1 1:0 2:1 3:0.3928 
-1 1:0 2:1 3:0.387648 
-1 1:0 2:1 3:0.389226 
-1 1:0 2:1 3:0.392555 
-1 1:0 2:1 3:0.386307 
-1 1:1 2:0 3:0.368704 
-1 1:0 2:1 3:0.389022 
-1 1:0 2:1 3:0.389226 
-1 1:0 2:1 3:0.390286 
-1 1:0 2:1 3:0.394179 
-1 1:0 2:1 3:0.389449 
-1 1:0 2:1 3:0.394352 
-1 1:0 2:1 3:0.394555 
-1 1:0 2:1 3:0.390846 
-1 1:0 2:1 3:0.387908 
-1 1:0 2:1 3:0.389142 
-1 1:0 2:1 3:0.394816 
-1 1:1 2:0 3:0.210158 
-1 1:0 2:1 3:0.389426 
-1 1:0 2:1 3:0.389737 
-1 1:0 2:1 3:0.395032 
-1 1:1 2:0 3:0.208923 
-1 1:1 2:0 3:0.262227 
-1 1:0 2:1 3:0.389187 
-1 1:0 2:1 3:0.394763 
-1 1:0 2:1 3:0.386631 
-1 1:0 2:1 3:0.38777 
-1 1:0 2:1 3:0.392482 
-1 1:0 2:1 3:0.392619 
-1 1:1 2:0 3:0.379418 
-1 1:1 2:0 3:0.230684 
-1 1:0 2:1 3:0.39042 
-1 1:0 2:1 3:0.395234 
-1 1:1 2:0 3:0.19714 
-1 1:0 2:1 3:0.391262 
-1 1:1 2:0 3:0.197105 
-1 1:0 2:1 3:0.391877 
-1 1:0 2:1 3:0.387936 
-1 1:0 2:1 3:0.393381 
-1 1:0 2:1 3:0.387393 
-1 1:0 2:1 3:0.391768 
-1 1:0 2:1 3:0.385585 
-1 1:1 2:0 3:0.401724 
-1 1:0 2:1 3:0.385657 
-1 1:0 2:1 3:0.387249 
-1 1:0 2:1 3:0.394669 
-1 1:0 2:1 3:0.389519 
-1 1:0 2:1 3:0.38847 
-1 1:1 2:0 3:0.202009 
-1 1:0 2:1 3:0.389755 
-1 1:0 2:1 3:0.392918 
-1 1:1 2:0 3:0.288037 
-1 1:0 2:1 3:0.386035 
-1 1:0 2:1 3:0.386607 
-1 1:1 2:0 3:0.332413 
-1 1:1 2:0 3:0.367258 
-1 1:1 2:0 3:0.182903 
-1 1:1 2:0 3:0.313667 
-1 1:1 2:0 3:0.211459 
-1 1:0 2:1 3:0.391875 
-1 1:1 2:0 3:0.325705 
-1 1:1 2:0 3:0.313915 
-1 1:1 2:0 3:0.223402 
-1 1:0 2:1 3:0.392068 
-1 1:0 2:1 3:0.390573 
-1 1:0 2:1 3:0.395317 
-1 1:1 2:0 3:0.410742 
-1 1:0 2:1 3:0.395011 
-1 1:1 2:0 3:0.249379 
-1 1:0 2:1 3:0.388501 
-1 1:0 2:1 3:0.391397 
-1 1:0 2:1 3:0.390354 
-1 1:0 2:1 3:0.38916 
-1 1:0 2:1 3:0.385661 
-1 1:0 2:1 3:0.393284 
-1 1:1 2:0 3:0.366962 
-1 1:0 2:1 3:0.391748 
-1 1:0 2:1 3:0.387923 
-1 1:0 2:1 3:0.390908 
-1 1:0 2:1 3:0.390412 
-1 1:0 2:1 3:0.389811 
-1 1:0 2:1 3:0.387229 
-1 1:0 2:1 3:0.389529 
-1 1:0 2:1 3:0.392163 
-1 1:0 2:1 3:0.391827 
-1 1:1 2:0 3:0.236616 
-1 1:0 2:1 3:0.394005 
-1 1:1 2:0 3:0.332202 
-1 1:1 2:0 3:0.185931 
-1 1:0 2:1 3:0.390089 
-1 1:1 2:0 3:0.332357 
-1 1:0 2:1 3:0.385564 
-1 1:0 2:1 3:0.386304 
-1 1:0 2:1 3:0.390464 
-1 1:0 2:1 3:0.394592 
-1 1:0 2:1 3:0.391899 
-1 1:0 2:1 3:0.388798 
-1 1:1 2:0 3:0.384669 
-1 1:1 2:0 3:0.373079 
-1 1:0 2:1 3:0.39153 
-1 1:0 2:1 3:0.393833 
-1 1:0 2:1 3:0.39379 
-1 1:0 2:1 3:0.387841 
-1 1:1 2:0 3:0.26907 
-1 1:1 2:0 3:0.211695 
-1 1:0 2:1 3:0.386595 
-1 1:0 2:1 3:0.392562 
-1 1:1 2:0 3:0.359549 
-1 1:0 2:1 3:0.389669 
-1 1:1 2:0 3:0.234316 
-1 1:1 2:0 3:0.218509 
-1 1:0 2:1 3:0.39154 
-1 1:0 2:1 3:0.393117 
-1 1:0 2:1 3:0.393694 
-1 1:0 2:1 3:0.39209 
-1 1:1 2:0 3:0.220367 
-1 1:0 2:1 3:0.388334 
-1 1:1 2:0 3:0.183544 
-1 1:0 2:1 3:0.385764 
-1 1:0 2:1 3:0.389297 
-1 1:0 2:1 3:0.38878 
-1 1:0 2:1 3:0.391518 
-1 1:0 2:1 3:0.388064 
-1 1:0 2:1 3:0.385766 
-1 1:0 2:1 3:0.394661 
-1 1:1 2:0 3:0.289255 
-1 1:0 2:1 3:0.392944 
-1 1:1 2:0 3:0.346622 
-1 1:0 2:1 3:0.389984 
-1 1:0 2:1 3:0.391936 
-1 1:1 2:0 3:0.292694 
-1 1:0 2:1 3:0.39155 
-1 1:1 2:0 3:0.255872 
-1 1:1 2:0 3:0.2032 
-1 1:0 2:1 3:0.387019 
-1 1:1 2:0 3:0.337169 
-1 1:0 2:1 3:0.388477 
-1 1:1 2:0 3:0.197522 
-1 1:1 2:0 3:0.215554 
-1 1:0 2:1 3:0.391526 
-1 1:0 2:1 3:0.388839 
-1 1:0 2:1 3:0.39187 
-1 1:1 2:0 3:0.295851 
-1 1:0 2:1 3:0.393133 
-1 1:0 2:1 3:0.389885 
-1 1:1 2:0 3:0.182782 
-1 1:1 2:0 3:0.33983 
-1 1:0 2:1 3:0.395234 
-1 1:1 2:0 3:0.266223 
-1 1:1 2:0 3:0.187305 
-1 1:0 2:1 3:0.394527 
-1 1:0 2:1 3:0.386947 
-1 1:1 2:0 3:0.291649 
-1 1:0 2:1 3:0.390704 
-1 1:1 2:0 3:0.311951 
-1 1:1 2:0 3:0.262137 
-1 1:0 2:1 3:0.38961 
-1 1:1 2:0 3:0.358127 
-1 1:0 2:1 3:0.393302 
-1 1:1 2:0 3:0.192959 
-1 1:1 2:0 3:0.272132 
-1 1:1 2:0 3:0.201611 
-1 1:0 2:1 3:0.393381 
-1 1:0 2:1 3:0.38865 
-1 1:1 2:0 3:0.350546 
-1 1:0 2:1 3:0.395032 
-1 1:1 2:0 3:0.345392 
-1 1:1 2:0 3:0.35049 
-1 1:1 2:0 3:0.342145 
-1 1:1 2:0 3:0.24026 
-1 1:0 2:1 3:0.389397 
-1 1:1 2:0 3:0.271859 
-1 1:1 2:0 3:0.269791 
-1 1:0 2:1 3:0.387863 
-1 1:0 2:1 3:0.392498 
-1 1:0 2:1 3:0.393061 
-1 1:1 2:0 3:0.385324 
-1 1:0 2:1 3:0.388783 
-1 1:1 2:0 3:0.187902 
-1 1:0 2:1 3:0.386814 
-1 1:0 2:1 3:0.388957 
-1 1:1 2:0 3:0.239715 
-1 1:1 2:0 3:0.20467 
-1 1:1 2:0 3:0.339864 
-1 1:0 2:1 3:0.390883 
-1 1:1 2:0 3:0.274611 
-1 1:1 2:0 3:0.190383 
-1 1:0 2:1 3:0.391262 
-1 1:0 2:1 3:0.388566 
-1 1:0 2:1 3:0.390988 
-1 1:0 2:1 3:0.395147 
-1 1:1 2:0 3:0.192159 
-1 1:0 2:1 3:0.391526 
-1 1:1 2:0 3:0.239122 
-1 1:1 2:0 3:0.35095 
-1 1:0 2:1 3:0.392945 
-1 1:0 2:1 3:0.393883 
-1 1:0 2:1 3:0.39154 
-1 1:0 2:1 3:0.394105 
-1 1:1 2:0 3:0.358735 
-1 1:1 2:0 3:0.22337 
-1 1:1 2:0 3:0.197844 
-1 1:0 2:1 3:0.387506 
-1 1:1 2:0 3:0.381788 
-1 1:0 2:1 3:0.392945 
-1 1:1 2:0 3:0.185645 
-1 1:1 2:0 3:0.219015 
-1 1:0 2:1 3:0.386954 
-1 1:0 2:1 3:0.393325 
-1 1:1 2:0 3:0.343598 
-1 1:0 2:1 3:0.391877 
-1 1:0 2:1 3:0.385864 
-1 1:0 2:1 3:0.389231 
-1 1:1 2:0 3:0.268336 
-1 1:0 2:1 3:0.390989 
-1 1:0 2:1 3:0.387907 
-1 1:1 2:0 3:0.290688 
-1 1:1 2:0 3:0.328119 
-1 1:0 2:1 3:0.386588 
-1 1:1 2:0 3:0.248641 
-1 1:1 2:0 3:0.213974 
-1 1:0 2:1 3:0.389976 
-1 1:1 2:0 3:0.344939 
-1 1:0 2:1 3:0.388501 
-1 1:0 2:1 3:0.387978 
-1 1:1 2:0 3:0.31685 
-1 1:0 2:1 3:0.385585 
-1 1:0 2:1 3:0.39371 
-1 1:1 2:0 3:0.268971 
-1 1:0 2:1 3:0.39416 
-1 1:1 2:0 3:0.19129 
-1 1:0 2:1 3:0.39488 
-1 1:0 2:1 3:0.389754 
-1 1:0 2:1 3:0.390988 
-1 1:1 2:0 3:0.26296 
-1 1:0 2:1 3:0.387543 
-1 1:1 2:0 3:0.223244 
-1 1:1 2:0 3:0.192297 
-1 1:1 2:0 3:0.224631 
-1 1:1 2:0 3:0.369187 
-1 1:1 2:0 3:0.189135 
-1 1:0 2:1 3:0.388004 
-1 1:0 2:1 3:0.39401 
-1 1:0 2:1 3:0.392981 
-1 1:0 2:1 3:0.387009 
-1 1:0 2:1 3:0.386781 
-1 1:0 2:1 3:0.390808 
-1 1:0 2:1 3:0.386409 
-1 1:0 2:1 3:0.387561 
-1 1:1 2:0 3:0.205689 
-1 1:0 2:1 3:0.386595 
-1 1:0 2:1 3:0.387353 
-1 1:0 2:1 3:0.392253 
-1 1:1 2:0 3:0.2676 
-1 1:0 2:1 3:0.394112 
-1 1:1 2:0 3:0.282152 
-1 1:1 2:0 3:0.331165 
-1 1:0 2:1 3:0.391722 
-1 1:0 2:1 3:0.390647 
-1 1:0 2:1 3:0.38777 
-1 1:0 2:1 3:0.391727 
-1 1:1 2:0 3:0.181376 
-1 1:0 2:1 3:0.387506 
-1 1:1 2:0 3:0.249495 
-1 1:0 2:1 3:0.390541 
-1 1:0 2:1 3:0.391936 
-1 1:0 2:1 3:0.387478 
-1 1:1 2:0 3:0.244437 
-1 1:0 2:1 3:0.392936 
-1 1:1 2:0 3:0.308792 
-1 1:0 2:1 3:0.394284 
-1 1:0 2:1 3:0.38731 
-1 1:1 2:0 3:0.304278 
-1 1:1 2:0 3:0.198209 
-1 1:0 2:1 3:0.391709 
-1 1:1 2:0 3:0.36997 
-1 1:0 2:1 3:0.388954 
-1 1:1 2:0 3:0.264273 
-1 1:0 2:1 3:0.395352 
-1 1:0 2:1 3:0.385787 
-1 1:1 2:0 3:0.340978 
-1 1:0 2:1 3:0.388193 
-1 1:0 2:1 3:0.391256 
-1 1:1 2:0 3:0.272266 
-1 1:0 2:1 3:0.390743 
-1 1:1 2:0 3:0.305063 
-1 1:0 2:1 3:0.390173 
-1 1:0 2:1 3:0.391555 
-1 1:0 2:1 3:0.387475 
-1 1:0 2:1 3:0.388397 
-1 1:1 2:0 3:0.257604 
-1 1:0 2:1 3:0.386307 
-1 1:0 2:1 3:0.395314 
-1 1:0 2:1 3:0.395038 
-1 1:0 2:1 3:0.390361 
-1 1:1 2:0 3:0.239025 
-1 1:0 2:1 3:0.387019 
-1 1:0 2:1 3:0.391605 
-1 1:0 2:1 3:0.386254 
-1 1:1 2:0 3:0.246701 
-1 1:0 2:1 3:0.387205 
-1 1:1 2:0 3:0.193954 
-1 1:1 2:0 3:0.261942 
-1 1:0 2:1 3:0.393589 
-1 1:1 2:0 3:0.322972 
-1 1:1 2:0 3:0.28742 
-1 1:0 2:1 3:0.393656 
-1 1:0 2:1 3:0.389779 
-1 1:0 2:1 3:0.385718 
-1 1:0 2:1 3:0.385901 
-1 1:0 2:1 3:0.388925 
-1 1:0 2:1 3:0.388061 
-1 1:0 2:1 3:0.387744 
-1 1:1 2:0 3:0.306386 
-1 1:1 2:0 3:0.196048 
-1 1:1 2:0 3:0.192486 
-1 1:0 2:1 3:0.389519 
-1 1:1 2:0 3:0.234144 
-1 1:1 2:0 3:0.212172 
-1 1:0 2:1 3:0.388839 
-1 1:0 2:1 3:0.38809 
-1 1:1 2:0 3:0.186743 
-1 1:1 2:0 3:0.228989 
-1 1:1 2:0 3:0.30679 
-1 1:1 2:0 3:0.196785 
-1 1:1 2:0 3:0.262547 
-1 1:1 2:0 3:0.188752 
-1 1:0 2:1 3:0.39328 
-1 1:1 2:0 3:0.253021 
-1 1:0 2:1 3:0.391221 
-1 1:1 2:0 3:0.252185 
-1 1:0 2:1 3:0.394471 
-1 1:0 2:1 3:0.3894 
-1 1:1 2:0 3:0.187479 
-1 1:0 2:1 3:0.38968 
-1 1:1 2:0 3:0.380254 
-1 1:0 2:1 3:0.387561 
-1 1:0 2:1 3:0.386564 
-1 1:0 2:1 3:0.389275 
-1 1:1 2:0 3:0.379693 
-1 1:1 2:0 3:0.37444 
-1 1:1 2:0 3:0.246801 
-1 1:1 2:0 3:0.216154 
-1 1:0 2:1 3:0.387723 
-1 1:0 2:1 3:0.389584 
-1 1:0 2:1 3:0.388176 
-1 1:0 2:1 3:0.390888 
-1 1:1 2:0 3:0.347182 
-1 1:0 2:1 3:0.391047 
-1 1:0 2:1 3:0.394516 
-1 1:0 2:1 3:0.386291 
-1 1:0 2:1 3:0.385764 
-1 1:1 2:0 3:0.20035 
-1 1:1 2:0 3:0.360901 
-1 1:1 2:0 3:0.365746 
-1 1:0 2:1 3:0.389254 
-1 1:0 2:1 3:0.390709 
-1 1:0 2:1 3:0.388108 
-1 1:0 2:1 3:0.395295 
-1 1:0 2:1 3:0.389003 
-1 1:0 2:1 3:0.392596 
-1 1:1 2:0 3:0.311364 
-1 1:0 2:1 3:0.38791 
-1 1:1 2:0 3:0.242359 
-1 1:1 2:0 3:0.329293 
-1 1:0 2:1 3:0.394796 
-1 1:0 2:1 3:0.392561 
-1 1:0 2:1 3:0.387557 
-1 1:0 2:1 3:0.394621 
-1 1:1 2:0 3:0.255023 
-1 1:1 2:0 3:0.267009 
-1 1:1 2:0 3:0.19364 
-1 1:0 2:1 3:0.389773 
-1 1:1 2:0 3:0.202438 
-1 1:0 2:1 3:0.392561 
-1 1:1 2:0 3:0.306071 
-1 1:0 2:1 3:0.387325 
-1 1:1 2:0 3:0.322762 
-1 1:0 2:1 3:0.386745 
-1 1:0 2:1 3:0.391384 
-1 1:0 2:1 3:0.390664 
-1 1:0 2:1 3:0.389076 
-1 1:0 2:1 3:0.391815 
-1 1:1 2:0 3:0.281107 
-1 1:1 2:0 3:0.342798 
-1 1:1 2:0 3:0.260874 
-1 1:1 2:0 3:0.243159 
-1 1:0 2:1 3:0.391654 
-1 1:0 2:1 3:0.392512 
-1 1:0 2:1 3:0.394369 
-1 1:1 2:0 3:0.218851 
-1 1:0 2:1 3:0.393538 
-1 1:0 2:1 3:0.392353 
-1 1:0 2:1 3:0.386091 
-1 1:1 2:0 3:0.355777 
-1 1:0 2:1 3:0.391254 
-1 1:0 2:1 3:0.394523 
-1 1:0 2:1 3:0.39509 
-1 1:0 2:1 3:0.395229 
-1 1:0 2:1 3:0.388104 
-1 1:1 2:0 3:0.381564 
-1 1:1 2:0 3:0.334902 
-1 1:0 2:1 3:0.391918 
-1 1:0 2:1 3:0.386093 
-1 1:0 2:1 3:0.394431 
-1 1:0 2:1 3:0.393722 
-1 1:0 2:1 3:0.393431 
-1 1:0 2:1 3:0.39385 
-1 1:1 2:0 3:0.387808 
-1 1:0 2:1 3:0.391357 
-1 1:0 2:1 3:0.394189 
-1 1:0 2:1 3:0.390978 
-1 1:0 2:1 3:0.390189 
-1 1:0 2:1 3:0.39489 
-1 1:0 2:1 3:0.393722 
-1 1:1 2:0 3:0.310144 
-1 1:0 2:1 3:0.38684 
-1 1:0 2:1 3:0.388716 
-1 1:0 2:1 3:0.392367 
-1 1:0 2:1 3:0.38781 
-1 1:0 2:1 3:0.38584 
-1 1:0 2:1 3:0.393567 
-1 1:0 2:1 3:0.391755 
-1 1:0 2:1 3:0.392944 
-1 1:1 2:0 3:0.183989 
-1 1:0 2:1 3:0.393922 
-1 1:1 2:0 3:0.2815 
-1 1:1 2:0 3:0.266828 
-1 1:0 2:1 3:0.392561 
-1 1:0 2:1 3:0.390479 
-1 1:1 2:0 3:0.346256 
-1 1:0 2:1 3:0.394993 
-1 1:0 2:1 3:0.386216 
-1 1:0 2:1 3:0.394775 
-1 1:0 2:1 3:0.385573 
-1 1:1 2:0 3:0.393327 
-1 1:0 2:1 3:0.391246 
-1 1:0 2:1 3:0.388333 
-1 1:0 2:1 3:0.386735 
-1 1:0 2:1 3:0.392432 
-1 1:0 2:1 3:0.391783 
-1 1:1 2:0 3:0.226953 
-1 1:0 2:1 3:0.390961 
-1 1:0 2:1 3:0.390819 
-1 1:1 2:0 3:0.188075 
-1 1:0 2:1 3:0.393255 
-1 1:0 2:1 3:0.393991 
-1 1:0 2:1 3:0.386236 
-1 1:0 2:1 3:0.394972 
-1 1:0 2:1 3:0.392633 
-1 1:0 2:1 3:0.39243 
-1 1:0 2:1 3:0.389888 
-1 1:1 2:0 3:0.337968 
-1 1:0 2:1 3:0.387733 
-1 1:1 2:0 3:0.310718 
-1 1:0 2:1 3:0.38722 
-1 1:1 2:0 3:0.315934 
-1 1:1 2:0 3:0.397262 
-1 1:0 2:1 3:0.391879 
-1 1:0 2:1 3:0.39003 
-1 1:0 2:1 3:0.392498 
-1 1:0 2:1 3:0.38777 
-1 1:1 2:0 3:0.231195 
-1 1:1 2:0 3:0.338786 
-1 1:1 2:0 3:0.317283 
-1 1:0 2:1 3:0.392986 
-1 1:0 2:1 3:0.392193 
-1 1:0 2:1 3:0.391877 
-1 1:0 2:1 3:0.391954 
-1 1:0 2:1 3:0.390913 
-1 1:0 2:1 3:0.390426 
-1 1:1 2:0 3:0.193431 
-1 1:1 2:0 3:0.205974 
-1 1:0 2:1 3:0.386539 
-1 1:1 2:0 3:0.208784 
-1 1:0 2:1 3:0.392367 
-1 1:0 2:1 3:0.38801 
-1 1:0 2:1 3:0.388375 
-1 1:0 2:1 3:0.386593 
-1 1:1 2:0 3:0.211969 
-1 1:0 2:1 3:0.395041 
-1 1:1 2:0 3:0.21593 
-1 1:0 2:1 3:0.390949 
-1 1:0 2:1 3:0.392057 
-1 1:1 2:0 3:0.401467 
-1 1:1 2:0 3:0.212278 
-1 1:1 2:0 3:0.28464 
-1 1:0 2:1 3:0.386088 
-1 1:1 2:0 3:0.206396 
-1 1:1 2:0 3:0.234505 
-1 1:1 2:0 3:0.204784 
-1 1:1 2:0 3:0.376768 
-1 1:0 2:1 3:0.38781 
-1 1:0 2:1 3:0.389199 
-1 1:1 2:0 3:0.191849 
-1 1:1 2:0 3:0.352939 
-1 1:0 2:1 3:0.391358 
-1 1:0 2:1 3:0.387372 
-1 1:0 2:1 3:0.391021 
-1 1:1 2:0 3:0.333441 
-1 1:1 2:0 3:0.245943 
-1 1:0 2:1 3:0.388102 
-1 1:1 2:0 3:0.286065 
-1 1:1 2:0 3:0.383336 
-1 1:0 2:1 3:0.386364 
-1 1:1 2:0 3:0.291195 
-1 1:0 2:1 3:0.392824 
-1 1:1 2:0 3:0.210229 
-1 1:0 2:1 3:0.387005 
-1 1:0 2:1 3:0.389183 
-1 1:0 2:1 3:0.391832 
-1 1:1 2:0 3:0.242672 
-1 1:0 2:1 3:0.394791 
-1 1:1 2:0 3:0.248809 
-1 1:0 2:1 3:0.391996 
-1 1:0 2:1 3:0.392274 
-1 1:1 2:0 3:0.329 
-1 1:0 2:1 3:0.392243 
-1 1:1 2:0 3:0.301892 
-1 1:0 2:1 3:0.389545 
-1 1:0 2:1 3:0.392618 
-1 1:1 2:0 3:0.299891 
-1 1:1 2:0 3:0.200059 
-1 1:0 2:1 3:0.386518 
-1 1:0 2:1 3:0.385584 
-1 1:0 2:1 3:0.391479 
-1 1:0 2:1 3:0.387402 
-1 1:0 2:1 3:0.393266 
-1 1:0 2:1 3:0.386215 
-1 1:1 2:0 3:0.189781 
-1 1:0 2:1 3:0.3864 
-1 1:1 2:0 3:0.406425 
-1 1:0 2:1 3:0.386131 
-1 1:1 2:0 3:0.390508 
-1 1:0 2:1 3:0.388694 
-1 1:0 2:1 3:0.392119 
-1 1:1 2:0 3:0.315892 
-1 1:0 2:1 3:0.395346 
-1 1:1 2:0 3:0.212694 
-1 1:0 2:1 3:0.386584 
-1 1:1 2:0 3:0.304759 
-1 1:0 2:1 3:0.387461 
-1 1:0 2:1 3:0.391997 
-1 1:0 2:1 3:0.387475 
-1 1:0 2:1 3:0.393565 
-1 1:1 2:0 3:0.359888 
-1 1:0 2:1 3:0.388578 
-1 1:1 2:0 3:0.257684 
-1 1:1 2:0 3:0.213555 
-1 1:0 2:1 3:0.385718 
-1 1:0 2:1 3:0.392193 
-1 1:0 2:1 3:0.388356 
-1 1:0 2:1 3:0.388574 
-1 1:0 2:1 3:0.394737 
-1 1:0 2:1 3:0.385613 
-1 1:0 2:1 3:0.388911 
-1 1:0 2:1 3:0.389368 
-1 1:0 2:1 3:0.393284 
-1 1:0 2:1 3:0.393826 
-1 1:1 2:0 3:0.308737 
-1 1:1 2:0 3:0.316892 
-1 1:0 2:1 3:0.393733 
-1 1:0 2:1 3:0.386295 
-1 1:0 2:1 3:0.394763 
-1 1:0 2:1 3:0.392058 
-1 1:0 2:1 3:0.394212 
-1 1:0 2:1 3:0.387873 
-1 1:0 2:1 3:0.39174 
-1 1:0 2:1 3:0.385668 
-1 1:0 2:1 3:0.389051 
-1 1:0 2:1 3:0.392211 
-1 1:0 2:1 3:0.386508 
-1 1:0 2:1 3:0.391168 
-1 1:0 2:1 3:0.385613 
-1 1:0 2:1 3:0.394544 
-1 1:0 2:1 3:0.386295 
-1 1:0 2:1 3:0.390871 
-1 1:0 2:1 3:0.391262 
-1 1:0 2:1 3:0.393065 
-1 1:0 2:1 3:0.390159 
-1 1:0 2:1 3:0.388056 
-1 1:0 2:1 3:0.389574 
-1 1:0 2:1 3:0.387648 
-1 1:1 2:0 3:0.183642 
-1 1:0 2:1 3:0.392744 
-1 1:1 2:0 3:0.352067 
-1 1:1 2:0 3:0.254633 
-1 1:1 2:0 3:0.317899 
-1 1:1 2:0 3:0.290532 
-1 1:0 2:1 3:0.385789 
-1 1:0 2:1 3:0.387563 
-1 1:0 2:1 3:0.395063 
-1 1:0 2:1 3:0.388284 
-1 1:1 2:0 3:0.226785 
-1 1:0 2:1 3:0.393341 
-1 1:0 2:1 3:0.388798 
-1 1:1 2:0 3:0.314584 
-1 1:0 2:1 3:0.386761 
-1 1:0 2:1 3:0.391682 
-1 1:1 2:0 3:0.264054 
-1 1:0 2:1 3:0.394011 
-1 1:0 2:1 3:0.393856 
-1 1:0 2:1 3:0.388916 
-1 1:1 2:0 3:0.199538 
-1 1:0 2:1 3:0.39371 
-1 1:0 2:1 3:0.390867 
-1 1:1 2:0 3:0.299851 
-1 1:0 2:1 3:0.391802 
-1 1:0 2:1 3:0.392697 
-1 1:1 2:0 3:0.183491 
-1 1:0 2:1 3:0.395234 
-1 1:0 2:1 3:0.390089 
-1 1:0 2:1 3:0.386303 
-1 1:0 2:1 3:0.389051 
-1 1:0 2:1 3:0.386682 
-1 1:1 2:0 3:0.389522 
-1 1:0 2:1 3:0.387376 
-1 1:0 2:1 3:0.394786 
-1 1:0 2:1 3:0.394679 
-1 1:1 2:0 3:0.304526 
-1 1:0 2:1 3:0.391894 
-1 1:1 2:0 3:0.196911 
-1 1:0 2:1 3:0.386584 
-1 1:1 2:0 3:0.271768 
-1 1:0 2:1 3:0.387393 
-1 1:0 2:1 3:0.39416 
-1 1:0 2:1 3:0.391246 
-1 1:0 2:1 3:0.391903 
-1 1:1 2:0 3:0.235938 
-1 1:0 2:1 3:0.385559 
-1 1:0 2:1 3:0.394052 
-1 1:0 2:1 3:0.390585 
-1 1:1 2:0 3:0.371542 
-1 1:1 2:0 3:0.340567 
-1 1:0 2:1 3:0.395144 
-1 1:1 2:0 3:0.210016 
-1 1:0 2:1 3:0.385588 
-1 1:1 2:0 3:0.322796 
-1 1:0 2:1 3:0.394554 
-1 1:0 2:1 3:0.390299 
-1 1:1 2:0 3:0.260681 
-1 1:0 2:1 3:0.388739 
-1 1:1 2:0 3:0.298254 
-1 1:0 2:1 3:0.389221 
-1 1:1 2:0 3:0.408541 
-1 1:0 2:1 3:0.390311 
-1 1:0 2:1 3:0.393801 
-1 1:0 2:1 3:0.39226 
-1 1:0 2:1 3:0.393727 
-1 1:0 2:1 3:0.39134 
-1 1:0 2:1 3:0.395226 
-1 1:1 2:0 3:0.201909 
-1 1:0 2:1 3:0.391533 
-1 1:0 2:1 3:0.387309 
-1 1:1 2:0 3:0.202324 
-1 1:1 2:0 3:0.322266 
-1 1:0 2:1 3:0.389585 
-1 1:0 2:1 3:0.390312 
-1 1:1 2:0 3:0.371087 
-1 1:0 2:1 3:0.391783 
-1 1:1 2:0 3:0.225111 
-1 1:0 2:1 3:0.392353 
-1 1:1 2:0 3:0.361492 
-1 1:0 2:1 3:0.391082 
-1 1:0 2:1 3:0.395039 
-1 1:1 2:0 3:0.356395 
-1 1:0 2:1 3:0.386989 
-1 1:0 2:1 3:0.392014 
-1 1:0 2:1 3:0.390949 
-1 1:1 2:0 3:0.371394 
-1 1:0 2:1 3:0.38793 
-1 1:0 2:1 3:0.385663 
-1 1:1 2:0 3:0.366859 
-1 1:0 2:1 3:0.386167 
-1 1:1 2:0 3:0.274072 
-1 1:0 2:1 3:0.391329 
-1 1:0 2:1 3:0.39001 
-1 1:0 2:1 3:0.393248 
-1 1:0 2:1 3:0.391768 
-1 1:0 2:1 3:0.389551 
-1 1:0 2:1 3:0.391464 
-1 1:0 2:1 3:0.38695 
-1 1:1 2:0 3:0.262864 
-1 1:0 2:1 3:0.389984 
-1 1:0 2:1 3:0.389695 
-1 1:0 2:1 3:0.390959 
-1 1:0 2:1 3:0.386463 
-1 1:1 2:0 3:0.262536 
-1 1:1 2:0 3:0.250663 
-1 1:0 2:1 3:0.386822 
-1 1:0 2:1 3:0.385941 
-1 1:0 2:1 3:0.393124 
-1 1:1 2:0 3:0.277424 
-1 1:0 2:1 3:0.394529 
-1 1:0 2:1 3:0.393589 
-1 1:1 2:0 3:0.390949 
-1 1:0 2:1 3:0.389876 
-1 1:1 2:0 3:0.315611 
-1 1:0 2:1 3:0.38722 
-1 1:0 2:1 3:0.385559 
-1 1:0 2:1 3:0.394554 
-1 1:0 2:1 3:0.387808 
-1 1:0 2:1 3:0.392429 
-1 1:0 2:1 3:0.395347 
-1 1:0 2:1 3:0.394581 
-1 1:0 2:1 3:0.394178 
-1 1:0 2:1 3:0.393574 
-1 1:1 2:0 3:0.323907 
-1 1:1 2:0 3:0.341213 
-1 1:0 2:1 3:0.385588 
-1 1:0 2:1 3:0.391848 
-1 1:1 2:0 3:0.260775 
-1 1:0 2:1 3:0.395175 
-1 1:0 2:1 3:0.393273 
-1 1:0 2:1 3:0.388619 
-1 1:1 2:0 3:0.322565 
-1 1:0 2:1 3:0.3951 
-1 1:1 2:0 3:0.217916 
-1 1:1 2:0 3:0.230494 
-1 1:1 2:0 3:0.280447 
-1 1:0 2:1 3:0.387032 
-1 1:1 2:0 3:0.353554 
-1 1:0 2:1 3:0.391404 
-1 1:0 2:1 3:0.393341 
-1 1:1 2:0 3:0.253102 
-1 1:0 2:1 3:0.390518 
-1 1:0 2:1 3:0.394712 
-1 1:1 2:0 3:0.343489 
-1 1:1 2:0 3:0.380857 
-1 1:1 2:0 3:0.264581 
-1 1:0 2:1 3:0.393189 
-1 1:0 2:1 3:0.388388 
-1 1:1 2:0 3:0.215562 
-1 1:1 2:0 3:0.251024 
-1 1:1 2:0 3:0.354438 
-1 1:1 2:0 3:0.272379 
-1 1:0 2:1 3:0.388069 
-1 1:0 2:1 3:0.392872 
-1 1:0 2:1 3:0.391503 
-1 1:1 2:0 3:0.306154 
-1 1:0 2:1 3:0.393041 
-1 1:1 2:0 3:0.281679 
-1 1:0 2:1 3:0.388444 
-1 1:1 2:0 3:0.360605 
-0.9953067611285867 1:0 2:1 3:0.385542 
-1 1:0 2:1 3:0.394443 
-1 1:0 2:1 3:0.390446 
-1 1:0 2:1 3:0.394025 
-1 1:1 2:0 3:0.402898 
-1 1:1 2:0 3:0.193054 
-1 1:0 2:1 3:0.39488 
-1 1:1 2:0 3:0.252989 
-1 1:1 2:0 3:0.32048 
-1 1:0 2:1 3:0.388246 
-1 1:1 2:0 3:0.30987 
-1 1:0 2:1 3:0.387543 
-1 1:0 2:1 3:0.385646 
-1 1:1 2:0 3:0.335063 
-1 1:0 2:1 3:0.390613 
-1 1:0 2:1 3:0.386765 
-1 1:0 2:1 3:0.386047 
-1 1:0 2:1 3:0.389012 
-1 1:0 2:1 3:0.392463 
-1 1:0 2:1 3:0.38917 
-1 1:0 2:1 3:0.392429 
-1 1:0 2:1 3:0.388047 
-1 1:1 2:0 3:0.369629 
-1 1:0 2:1 3:0.39395 
-1 1:1 2:0 3:0.182306 
-1 1:0 2:1 3:0.38914 
-1 1:0 2:1 3:0.388203 
-1 1:1 2:0 3:0.192445 
-1 1:0 2:1 3:0.385556 
-1 1:1 2:0 3:0.326133 
-1 1:0 2:1 3:0.39117 
-1 1:0 2:1 3:0.386167 
-1 1:0 2:1 3:0.390664 
-1 1:0 2:1 3:0.395234 
-1 1:0 2:1 3:0.386047 
-1 1:1 2:0 3:0.321032 
-1 1:0 2:1 3:0.389755 
-1 1:0 2:1 3:0.385564 
-1 1:0 2:1 3:0.388849 
-1 1:0 2:1 3:0.393909 
-1 1:1 2:0 3:0.390333 
-1 1:0 2:1 3:0.390571 
-1 1:0 2:1 3:0.394592 
-1 1:0 2:1 3:0.3948 
-1 1:1 2:0 3:0.332653 
-1 1:0 2:1 3:0.392486 
-1 1:0 2:1 3:0.395248 
-1 1:1 2:0 3:0.41034 
-1 1:0 2:1 3:0.391827 
-1 1:0 2:1 3:0.386263 
-1 1:0 2:1 3:0.394951 
-1 1:1 2:0 3:0.347372 
-1 1:0 2:1 3:0.392119 
-1 1:0 2:1 3:0.389876 
-1 1:0 2:1 3:0.394212 
-1 1:0 2:1 3:0.388984 
-1 1:0 2:1 3:0.394923 
-1 1:0 2:1 3:0.393456 
-1 1:0 2:1 3:0.392119 
-1 1:1 2:0 3:0.355217 
-1 1:0 2:1 3:0.392386 
-1 1:0 2:1 3:0.395347 
-1 1:1 2:0 3:0.347349 
-1 1:1 2:0 3:0.267408 
-1 1:0 2:1 3:0.386489 
-1 1:0 2:1 3:0.390706 
-1 1:1 2:0 3:0.346924 
-1 1:0 2:1 3:0.387066 
-1 1:1 2:0 3:0.342161 
-1 1:0 2:1 3:0.394701 
-1 1:1 2:0 3:0.187508 
-1 1:0 2:1 3:0.389585 
-1 1:0 2:1 3:0.388628 
-1 1:0 2:1 3:0.39288 
-1 1:0 2:1 3:0.393818 
-1 1:0 2:1 3:0.387274 
-1 1:1 2:0 3:0.260829 
-1 1:1 2:0 3:0.265224 
-1 1:1 2:0 3:0.375598 
-1 1:0 2:1 3:0.386735 
-1 1:0 2:1 3:0.390847 
-1 1:0 2:1 3:0.388477 
-1 1:0 2:1 3:0.385566 
-1 1:0 2:1 3:0.394961 
-1 1:0 2:1 3:0.391082 
-1 1:0 2:1 3:0.38865 
-1 1:0 2:1 3:0.390657 
-1 1:0 2:1 3:0.392936 
-1 1:0 2:1 3:0.387638 
-1 1:0 2:1 3:0.388983 
-1 1:0 2:1 3:0.395013 
-1 1:0 2:1 3:0.390231 
-1 1:0 2:1 3:0.39144 
-1 1:1 2:0 3:0.335068 
-1 1:1 2:0 3:0.320486 
-1 1:1 2:0 3:0.326052 
-1 1:1 2:0 3:0.380473 
-1 1:1 2:0 3:0.207908 
-1 1:1 2:0 3:0.385216 
-1 1:1 2:0 3:0.343487 
-1 1:0 2:1 3:0.388379 
-1 1:0 2:1 3:0.389843 
-1 1:0 2:1 3:0.387872 
-1 1:0 2:1 3:0.386148 
-1 1:1 2:0 3:0.253859 
-1 1:0 2:1 3:0.388322 
-1 1:0 2:1 3:0.390541 
-1 1:0 2:1 3:0.385949 
-1 1:0 2:1 3:0.390631 
-1 1:0 2:1 3:0.38859 
-1 1:0 2:1 3:0.395318 
-1 1:1 2:0 3:0.286591 
-1 1:0 2:1 3:0.385697 
-1 1:1 2:0 3:0.237346 
-1 1:1 2:0 3:0.358923 
-1 1:0 2:1 3:0.389798 
-1 1:0 2:1 3:0.388108 
-1 1:0 2:1 3:0.393694 
-1 1:0 2:1 3:0.390364 
-1 1:1 2:0 3:0.297389 
-1 1:0 2:1 3:0.394592 
-1 1:0 2:1 3:0.393883 
-1 1:0 2:1 3:0.395318 
-1 1:0 2:1 3:0.387908 
-1 1:1 2:0 3:0.351325 
-1 1:1 2:0 3:0.360501 
-1 1:0 2:1 3:0.387366 
-1 1:0 2:1 3:0.391903 
-1 1:0 2:1 3:0.393202 
-1 1:0 2:1 3:0.392771 
-1 1:0 2:1 3:0.388251 
-1 1:0 2:1 3:0.387454 
-1 1:0 2:1 3:0.392014 
-1 1:1 2:0 3:0.392129 
-1 1:1 2:0 3:0.212384 
-1 1:1 2:0 3:0.264889 
-1 1:1 2:0 3:0.254953 
-1 1:1 2:0 3:0.345295 
-1 1:0 2:1 3:0.389122 
-1 1:0 2:1 3:0.392404 
-1 1:1 2:0 3:0.267982 
-1 1:0 2:1 3:0.386054 
-1 1:1 2:0 3:0.305674 
-1 1:0 2:1 3:0.389174 
-1 1:0 2:1 3:0.386189 
-1 1:0 2:1 3:0.394011 
-1 1:1 2:0 3:0.318034 
-1 1:1 2:0 3:0.302522 
-1 1:0 2:1 3:0.390276 
-1 1:0 2:1 3:0.392014 
-1 1:0 2:1 3:0.393543 
-1 1:1 2:0 3:0.333717 
-1 1:1 2:0 3:0.406662 
-1 1:0 2:1 3:0.38684 
-1 1:0 2:1 3:0.3884 
-1 1:1 2:0 3:0.334158 
-1 1:0 2:1 3:0.391465 
-1 1:0 2:1 3:0.387993 
-1 1:0 2:1 3:0.391682 
-1 1:1 2:0 3:0.227573 
-1 1:0 2:1 3:0.393849 
-1 1:0 2:1 3:0.389984 
-1 1:1 2:0 3:0.314009 
-1 1:1 2:0 3:0.183524 
-1 1:0 2:1 3:0.391346 
-1 1:1 2:0 3:0.238349 
-1 1:1 2:0 3:0.261013 
-1 1:0 2:1 3:0.395054 
-1 1:0 2:1 3:0.387251 
-1 1:1 2:0 3:0.292888 
-1 1:0 2:1 3:0.394554 
-1 1:0 2:1 3:0.391274 
-1 1:0 2:1 3:0.385905 
-1 1:0 2:1 3:0.390898 
-1 1:0 2:1 3:0.388591 
-1 1:0 2:1 3:0.388048 
-1 1:0 2:1 3:0.392753 
-1 1:0 2:1 3:0.394161 
-1 1:0 2:1 3:0.389716 
-1 1:1 2:0 3:0.194798 
-1 1:0 2:1 3:0.391903 
-1 1:0 2:1 3:0.388739 
-1 1:0 2:1 3:0.388501 
-1 1:0 2:1 3:0.388789 
-1 1:1 2:0 3:0.220205 
-1 1:1 2:0 3:0.400114 
-1 1:0 2:1 3:0.386352 
-1 1:0 2:1 3:0.393256 
-1 1:0 2:1 3:0.390257 
-1 1:0 2:1 3:0.39268 
-1 1:0 2:1 3:0.385573 
-1 1:0 2:1 3:0.385613 
-1 1:0 2:1 3:0.389041 
-1 1:0 2:1 3:0.391227 
-1 1:1 2:0 3:0.203961 
-1 1:1 2:0 3:0.288765 
-1 1:0 2:1 3:0.394226 
-1 1:1 2:0 3:0.208191 
-1 1:1 2:0 3:0.244091 
-1 1:0 2:1 3:0.389118 
-1 1:0 2:1 3:0.393136 
-1 1:0 2:1 3:0.389741 
-1 1:0 2:1 3:0.390871 
-1 1:0 2:1 3:0.39528 
-1 1:1 2:0 3:0.220045 
-1 1:0 2:1 3:0.393011 
-1 1:0 2:1 3:0.385787 
-1 1:1 2:0 3:0.27399 
-1 1:0 2:1 3:0.391129 
-1 1:0 2:1 3:0.389689 
-1 1:0 2:1 3:0.385584 
-1 1:0 2:1 3:0.394967 
-1 1:1 2:0 3:0.352279 
-1 1:0 2:1 3:0.387342 
-1 1:0 2:1 3:0.385677 
-1 1:1 2:0 3:0.221219 
-1 1:1 2:0 3:0.381248 
-1 1:0 2:1 3:0.39416 
-1 1:0 2:1 3:0.393447 
-1 1:0 2:1 3:0.389022 
-1 1:0 2:1 3:0.392972 
-1 1:0 2:1 3:0.389561 
-1 1:1 2:0 3:0.361211 
-1 1:1 2:0 3:0.296746 
-1 1:0 2:1 3:0.386062 
-1 1:0 2:1 3:0.388004 
-1 1:0 2:1 3:0.390874 
-1 1:0 2:1 3:0.386463 
-1 1:1 2:0 3:0.211248 
-1 1:1 2:0 3:0.209894 
-1 1:1 2:0 3:0.299848 
-1 1:0 2:1 3:0.390753 
-1 1:1 2:0 3:0.212087 
-1 1:1 2:0 3:0.324948 
-1 1:0 2:1 3:0.385672 
-1 1:1 2:0 3:0.346913 
-1 1:1 2:0 3:0.268418 
-1 1:0 2:1 3:0.394742 
-1 1:0 2:1 3:0.394204 
-1 1:0 2:1 3:0.386102 
-1 1:0 2:1 3:0.386607 
-1 1:1 2:0 3:0.261834 
-1 1:1 2:0 3:0.244017 
-1 1:0 2:1 3:0.392378 
-1 1:0 2:1 3:0.387638 
-1 1:0 2:1 3:0.390311 
-1 1:0 2:1 3:0.389316 
-1 1:0 2:1 3:0.390925 
-1 1:0 2:1 3:0.39446 
-1 1:0 2:1 3:0.394094 
-1 1:0 2:1 3:0.386759 
-1 1:0 2:1 3:0.38822 
-1 1:0 2:1 3:0.391221 
-1 1:0 2:1 3:0.39454 
-1 1:1 2:0 3:0.264857 
-1 1:1 2:0 3:0.244865 
-1 1:0 2:1 3:0.388203 
-1 1:1 2:0 3:0.22068 
-1 1:0 2:1 3:0.385697 
-1 1:1 2:0 3:0.329834 
-1 1:0 2:1 3:0.389886 
-1 1:0 2:1 3:0.392097 
-1 1:0 2:1 3:0.393288 
-1 1:0 2:1 3:0.393605 
-1 1:0 2:1 3:0.39288 
-1 1:0 2:1 3:0.387347 
-1 1:0 2:1 3:0.392451 
-1 1:1 2:0 3:0.314528 
-1 1:0 2:1 3:0.387249 
-1 1:1 2:0 3:0.191406 
-1 1:0 2:1 3:0.391682 
-1 1:0 2:1 3:0.394421 
-1 1:0 2:1 3:0.388581 
-1 1:1 2:0 3:0.38993 
-1 1:0 2:1 3:0.386932 
-1 1:0 2:1 3:0.392996 
-1 1:0 2:1 3:0.386434 
-1 1:0 2:1 3:0.392898 
-1 1:0 2:1 3:0.39386 
-1 1:0 2:1 3:0.390257 
-1 1:0 2:1 3:0.390712 
-1 1:0 2:1 3:0.389928 
-1 1:0 2:1 3:0.390299 
-1 1:0 2:1 3:0.394782 
-1 1:0 2:1 3:0.391399 
-1 1:1 2:0 3:0.260915 
-1 1:0 2:1 3:0.388661 
-1 1:0 2:1 3:0.388516 
-1 1:0 2:1 3:0.386595 
-1 1:0 2:1 3:0.392654 
-1 1:0 2:1 3:0.392315 
-1 1:0 2:1 3:0.387066 
-1 1:1 2:0 3:0.220223 
-1 1:0 2:1 3:0.386905 
-1 1:1 2:0 3:0.332807 
-1 1:0 2:1 3:0.392459 
-1 1:1 2:0 3:0.243508 
-1 1:0 2:1 3:0.393396 
-1 1:0 2:1 3:0.394163 
-1 1:0 2:1 3:0.390075 
-1 1:0 2:1 3:0.390279 
-1 1:0 2:1 3:0.387462 
-1 1:1 2:0 3:0.216012 
-1 1:0 2:1 3:0.390661 
-1 1:1 2:0 3:0.335383 
-1 1:0 2:1 3:0.386835 
-1 1:0 2:1 3:0.39134 
-1 1:1 2:0 3:0.338075 
-1 1:0 2:1 3:0.388479 
-1 1:0 2:1 3:0.394196 
-1 1:0 2:1 3:0.394666 
-1 1:0 2:1 3:0.387434 
-1 1:0 2:1 3:0.389352 
-1 1:0 2:1 3:0.394212 
-1 1:0 2:1 3:0.39259 
-1 1:1 2:0 3:0.240381 
-1 1:1 2:0 3:0.211712 
-1 1:1 2:0 3:0.29307 
-1 1:0 2:1 3:0.387253 
-1 1:0 2:1 3:0.394281 
-1 1:0 2:1 3:0.386139 
-1 1:0 2:1 3:0.389716 
-1 1:0 2:1 3:0.392156 
-1 1:0 2:1 3:0.38722 
-1 1:1 2:0 3:0.204159 
-1 1:1 2:0 3:0.198315 
-1 1:1 2:0 3:0.371574 
-1 1:0 2:1 3:0.391783 
-1 1:0 2:1 3:0.391025 
-1 1:1 2:0 3:0.212217 
-1 1:1 2:0 3:0.196459 
-1 1:0 2:1 3:0.388738 
-1 1:1 2:0 3:0.189693 
-1 1:0 2:1 3:0.389213 
-1 1:0 2:1 3:0.394293 
-1 1:1 2:0 3:0.260744 
-1 1:0 2:1 3:0.393042 
-1 1:0 2:1 3:0.390442 
-1 1:0 2:1 3:0.395264 
-1 1:0 2:1 3:0.386409 
-1 1:0 2:1 3:0.391294 
-1 1:0 2:1 3:0.389887 
-1 1:0 2:1 3:0.386631 
-1 1:0 2:1 3:0.395346 
-1 1:0 2:1 3:0.389843 
-1 1:0 2:1 3:0.391163 
-1 1:0 2:1 3:0.388229 
-1 1:1 2:0 3:0.380379 
-1 1:0 2:1 3:0.391168 
-1 1:0 2:1 3:0.387174 
-1 1:0 2:1 3:0.393138 
-1 1:0 2:1 3:0.393402 
-1 1:0 2:1 3:0.395262 
-1 1:0 2:1 3:0.389386 
-1 1:0 2:1 3:0.385843 
-1 1:0 2:1 3:0.386508 
-1 1:1 2:0 3:0.326551 
-1 1:0 2:1 3:0.387893 
-1 1:0 2:1 3:0.385773 
-1 1:1 2:0 3:0.263485 
-1 1:0 2:1 3:0.391221 
-1 1:0 2:1 3:0.386564 
-1 1:0 2:1 3:0.386047 
-1 1:0 2:1 3:0.390211 
-1 1:0 2:1 3:0.392275 
-1 1:0 2:1 3:0.389426 
-1 1:0 2:1 3:0.394899 
-1 1:0 2:1 3:0.394536 
-1 1:1 2:0 3:0.296016 
-1 1:0 2:1 3:0.386508 
-1 1:1 2:0 3:0.249941 
-1 1:0 2:1 3:0.388496 
-1 1:1 2:0 3:0.285817 
-1 1:0 2:1 3:0.390743 
-1 1:0 2:1 3:0.387655 
-1 1:1 2:0 3:0.236562 
-1 1:0 2:1 3:0.386304 
-1 1:0 2:1 3:0.389984 
-1 1:0 2:1 3:0.390189 
-1 1:1 2:0 3:0.40208 
-1 1:0 2:1 3:0.394835 
-1 1:0 2:1 3:0.391643 
-1 1:1 2:0 3:0.271309 
-1 1:0 2:1 3:0.394941 
-1 1:0 2:1 3:0.390591 
-1 1:1 2:0 3:0.214998 
-1 1:1 2:0 3:0.225204 
-1 1:0 2:1 3:0.386804 
-1 1:1 2:0 3:0.401833 
-1 1:0 2:1 3:0.390438 
-1 1:1 2:0 3:0.181351 
-1 1:0 2:1 3:0.392156 
-1 1:0 2:1 3:0.393884 
-1 1:1 2:0 3:0.353407 
-1 1:0 2:1 3:0.393686 
-1 1:0 2:1 3:0.390441 
-1 1:1 2:0 3:0.188922 
-1 1:0 2:1 3:0.395391 
-1 1:1 2:0 3:0.351289 
-1 1:0 2:1 3:0.390898 
-1 1:0 2:1 3:0.390236 
-1 1:1 2:0 3:0.2816 
-1 1:0 2:1 3:0.388004 
-1 1:0 2:1 3:0.389876 
-1 1:0 2:1 3:0.3884 
-1 1:0 2:1 3:0.388061 
-1 1:1 2:0 3:0.289904 
-1 1:0 2:1 3:0.39296 
-1 1:1 2:0 3:0.19004 
-1 1:0 2:1 3:0.391936 
-1 1:0 2:1 3:0.389268 
-1 1:0 2:1 3:0.3916 
-1 1:0 2:1 3:0.391036 
-1 1:0 2:1 3:0.390441 
-1 1:0 2:1 3:0.389386 
-1 1:0 2:1 3:0.390824 
-1 1:1 2:0 3:0.314739 
-1 1:0 2:1 3:0.390097 
-1 1:1 2:0 3:0.194698 
-1 1:1 2:0 3:0.409367 
-1 1:0 2:1 3:0.391518 
-1 1:1 2:0 3:0.323583 
-1 1:0 2:1 3:0.392544 
-1 1:0 2:1 3:0.386869 
-1 1:1 2:0 3:0.186003 
-1 1:1 2:0 3:0.215069 
-1 1:0 2:1 3:0.393264 
-1 1:1 2:0 3:0.229789 
-1 1:0 2:1 3:0.389737 
-1 1:1 2:0 3:0.261447 
-1 1:0 2:1 3:0.388661 
-1 1:0 2:1 3:0.391012 
-1 1:1 2:0 3:0.354023 
-1 1:0 2:1 3:0.394632 
-1 1:0 2:1 3:0.389338 
-1 1:1 2:0 3:0.216906 
-1 1:1 2:0 3:0.301932 
-1 1:0 2:1 3:0.387746 
-1 1:0 2:1 3:0.390666 
-1 1:0 2:1 3:0.392406 
-1 1:1 2:0 3:0.374711 
-1 1:1 2:0 3:0.238967 
-1 1:0 2:1 3:0.387376 
-1 1:1 2:0 3:0.209383 
-1 1:0 2:1 3:0.390374 
-1 1:0 2:1 3:0.386364 
-1 1:0 2:1 3:0.386233 
-1 1:1 2:0 3:0.331383 
-1 1:0 2:1 3:0.392227 
-1 1:0 2:1 3:0.389697 
-1 1:1 2:0 3:0.196411 
-1 1:0 2:1 3:0.38626 
-1 1:1 2:0 3:0.238948 
-1 1:0 2:1 3:0.388809 
-1 1:0 2:1 3:0.386036 
-1 1:0 2:1 3:0.389183 
-1 1:0 2:1 3:0.39068 
-1 1:0 2:1 3:0.392046 
-1 1:0 2:1 3:0.389754 
-1 1:1 2:0 3:0.267383 
-1 1:0 2:1 3:0.386683 
-1 1:0 2:1 3:0.389545 
-1 1:0 2:1 3:0.389628 
-1 1:0 2:1 3:0.387376 
-1 1:1 2:0 3:0.207206 
-1 1:1 2:0 3:0.403439 
-1 1:0 2:1 3:0.388743 
-1 1:0 2:1 3:0.39331 
-1 1:0 2:1 3:0.390783 
-1 1:0 2:1 3:0.388322 
-1 1:0 2:1 3:0.392014 
-1 1:0 2:1 3:0.39405 
-1 1:0 2:1 3:0.389779 
-1 1:0 2:1 3:0.39124 
-1 1:1 2:0 3:0.321724 
-1 1:1 2:0 3:0.18587 
-1 1:1 2:0 3:0.183252 
-1 1:0 2:1 3:0.38731 
-1 1:0 2:1 3:0.386945 
-1 1:0 2:1 3:0.389617 
-1 1:0 2:1 3:0.389166 
-1 1:1 2:0 3:0.272447 
-1 1:1 2:0 3:0.40858 
-1 1:0 2:1 3:0.387081 
-1 1:0 2:1 3:0.387196 
-1 1:0 2:1 3:0.389545 
-1 1:0 2:1 3:0.388263 
-1 1:1 2:0 3:0.346689 
-1 1:1 2:0 3:0.314489 
-1 1:1 2:0 3:0.196576 
-1 1:0 2:1 3:0.393176 
-1 1:0 2:1 3:0.386306 
-1 1:1 2:0 3:0.408542 
