svm_type c_svc
kernel_type sigmoid
gamma 0.333333
coef0 0
nr_class 2
total_sv 4029
rho 1327.25
label 1 -1
nr_sv 2014 2015
SV
1 1:2 2:1 3:5.010003 
1 1:9 2:1 3:2.287097 
1 1:3 2:1 3:0.762772 
1 1:2 2:1 3:3.796536 
1 1:2 2:1 3:3.615953 
1 1:15 2:51 3:32.846389 
1 1:28 2:9 3:35.290066 
1 1:8 2:32 3:7.97284 
1 1:12 2:19 3:6.478908 
1 1:28 2:42 3:9.510284 
1 1:0 2:2 3:6.741535 
1 1:20 2:4 3:34.292353 
1 1:0 2:3 3:2.622665 
1 1:0 2:4 3:23.73729 
1 1:27 2:9 3:50.865105 
1 1:6 2:5 3:3.729947 
1 1:0 2:1 3:8.473155 
1 1:0 2:1 3:4.178786 
1 1:0 2:1 3:4.178786 
1 1:0 2:1 3:4.178786 
1 1:1 2:1 3:0.438763 
1 1:5 2:42 3:0.435796 
1 1:20 2:4 3:8.401152 
1 1:16 2:5 3:6.141372 
1 1:19 2:44 3:35.126705 
1 1:5 2:17 3:4.934238 
1 1:7 2:3 3:9.053269 
1 1:14 2:6 3:4.298487 
1 1:0 2:11 3:3.385559 
1 1:24 2:4 3:33.24636 
1 1:17 2:1 3:4.432446 
1 1:0 2:7 3:2.916849 
1 1:2 2:2 3:2.091511 
1 1:0 2:13 3:0.458489 
1 1:0 2:5 3:1.096222 
1 1:12 2:22 3:32.149799 
1 1:13 2:23 3:4.126668 
1 1:8 2:23 3:3.825414 
1 1:47 2:48 3:59.142857 
1 1:25 2:2 3:30.694474 
1 1:9 2:1 3:27.513766 
1 1:1 2:3 3:0.749722 
1 1:14 2:1 3:3.347646 
1 1:1 2:2 3:11.111578 
1 1:1 2:2 3:2.223248 
1 1:2 2:3 3:4.217551 
1 1:1 2:2 3:7.544926 
1 1:1 2:4 3:16.653968 
1 1:1 2:363 3:5.046291 
1 1:1 2:19 3:2.957075 
1 1:43 2:37 3:6.848044 
1 1:2 2:50 3:0.656205 
1 1:2 2:47 3:1.028549 
1 1:37 2:186 3:2.147301 
1 1:42 2:17 3:4.645707 
1 1:1 2:18 3:3.232355 
1 1:1 2:1 3:9.81052 
1 1:2 2:3 3:17.149698 
1 1:4 2:29 3:4.645707 
1 1:15 2:1 3:2.342481 
1 1:0 2:4 3:4.540552 
1 1:0 2:1 3:5.116444 
1 1:1 2:1 3:3.315364 
1 1:0 2:1 3:15.845578 
1 1:0 2:2 3:6.086073 
1 1:0 2:3 3:1.690291 
1 1:34 2:18 3:27.138162 
1 1:23 2:14 3:24.939385 
1 1:6 2:35 3:5.586528 
1 1:14 2:2 3:4.64922 
1 1:11 2:9 3:5.12667 
1 1:23 2:7 3:21.423022 
1 1:14 2:11 3:6.979899 
1 1:0 2:8 3:2.355441 
1 1:0 2:1 3:0.668191 
1 1:24 2:3 3:41.047619 
1 1:16 2:20 3:36.10045 
1 1:19 2:7 3:40.20277 
1 1:12 2:6 3:6.051707 
1 1:24 2:1 3:48.5 
1 1:1 2:4 3:1.795425 
1 1:7 2:21 3:4.966172 
1 1:2 2:1 3:10.706112 
1 1:16 2:13 3:8.959767 
1 1:6 2:25 3:2.295923 
1 1:15 2:13 3:22.705664 
1 1:10 2:16 3:4.122227 
1 1:16 2:44 3:42.310254 
1 1:4 2:54 3:42.65 
1 1:4 2:19 3:2.470071 
1 1:12 2:24 3:5.339835 
1 1:16 2:6 3:7.699663 
1 1:9 2:8 3:4.040809 
1 1:28 2:42 3:43.809524 
1 1:12 2:16 3:4.330386 
1 1:17 2:8 3:4.100784 
1 1:2 2:7 3:1.078952 
1 1:1 2:2 3:1.406182 
1 1:18 2:1 3:22.101536 
1 1:23 2:15 3:15.497042 
1 1:35 2:3 3:28.797785 
1 1:39 2:19 3:39.749179 
1 1:20 2:5 3:36.501223 
1 1:0 2:1 3:0.450133 
1 1:5 2:15 3:13.960712 
1 1:21 2:42 3:0.440413 
1 1:15 2:15 3:5.331643 
1 1:14 2:25 3:3.475287 
1 1:8 2:18 3:9.81068 
1 1:6 2:2 3:28.405479 
1 1:2 2:29 3:3.829671 
1 1:0 2:20 3:1.408268 
1 1:0 2:1 3:0.664884 
1 1:1 2:3 3:0.785196 
1 1:0 2:2 3:3.107619 
1 1:0 2:1 3:10.59536 
1 1:0 2:7 3:3.824479 
1 1:2 2:31 3:4.305339 
1 1:1 2:3 3:11.126176 
1 1:0 2:1 3:0.487118 
1 1:0 2:2 3:1.312474 
1 1:0 2:2 3:3.403642 
1 1:0 2:15 3:5.520621 
1 1:3 2:26 3:0.999429 
1 1:0 2:3 3:25.519517 
1 1:1 2:17 3:2.41926 
1 1:15 2:2 3:23.550874 
1 1:11 2:31 3:8.071525 
1 1:14 2:8 3:2.930116 
1 1:3 2:7 3:1.58632 
1 1:27 2:26 3:20.26945 
1 1:14 2:7 3:6.699297 
1 1:10 2:5 3:1.421148 
1 1:7 2:18 3:8.841151 
1 1:2 2:8 3:25.613803 
1 1:17 2:16 3:57.146755 
1 1:18 2:7 3:11.659925 
1 1:19 2:12 3:20.925519 
1 1:10 2:5 3:8.64858 
1 1:12 2:5 3:3.483132 
1 1:11 2:27 3:5.840116 
1 1:23 2:1 3:16.0886 
1 1:9 2:17 3:4.467567 
1 1:22 2:2 3:57.828329 
1 1:0 2:1 3:0.430807 
1 1:16 2:3 3:3.789382 
1 1:36 2:14 3:38.151645 
1 1:8 2:3 3:3.31346 
1 1:0 2:1 3:0.567038 
1 1:12 2:5 3:7.80932 
1 1:18 2:6 3:28.422144 
1 1:32 2:11 3:33.521891 
1 1:17 2:38 3:36.238095 
1 1:0 2:6 3:3.222539 
1 1:24 2:5 3:42.047619 
1 1:27 2:9 3:10.915293 
1 1:13 2:50 3:7.577606 
1 1:12 2:11 3:1.71183 
1 1:33 2:51 3:56.714286 
1 1:1 2:1 3:1.256143 
1 1:12 2:9 3:6.911889 
1 1:17 2:3 3:5.528103 
1 1:8 2:6 3:5.77206 
1 1:8 2:17 3:1.473219 
1 1:9 2:19 3:9.919987 
1 1:5 2:8 3:16.23471 
1 1:9 2:3 3:9.787287 
1 1:10 2:48 3:10.166483 
1 1:9 2:21 3:3.436556 
1 1:0 2:9 3:12.328095 
1 1:0 2:54 3:45.429424 
1 1:29 2:10 3:38.059438 
1 1:16 2:7 3:4.825008 
1 1:9 2:7 3:2.724236 
1 1:0 2:1 3:8.449036 
1 1:8 2:4 3:4.00303 
1 1:7 2:45 3:14.159315 
1 1:12 2:6 3:2.395596 
1 1:11 2:25 3:4.122801 
1 1:30 2:9 3:38.517892 
1 1:4 2:11 3:10.91509 
1 1:0 2:1 3:0.581028 
1 1:26 2:10 3:25.866908 
1 1:12 2:3 3:7.402935 
1 1:27 2:12 3:25.636368 
1 1:10 2:12 3:5.947008 
1 1:20 2:1 3:19.769568 
1 1:8 2:9 3:4.628909 
1 1:21 2:79 3:28.388626 
1 1:25 2:85 3:29.500434 
1 1:6 2:8 3:2.785845 
1 1:0 2:6 3:1.210757 
1 1:19 2:48 3:21.654624 
1 1:25 2:5 3:38.972986 
1 1:11 2:24 3:6.24447 
1 1:7 2:19 3:11.246594 
1 1:11 2:22 3:8.892602 
1 1:0 2:3 3:0.556113 
1 1:0 2:4 3:34.44191 
1 1:0 2:1 3:0.8374 
1 1:0 2:13 3:0.48331 
1 1:26 2:10 3:10.02256 
1 1:30 2:41 3:22.361253 
1 1:13 2:1 3:44.243446 
1 1:8 2:6 3:7.32769 
1 1:11 2:2 3:9.886772 
1 1:18 2:2 3:32.11112 
1 1:23 2:9 3:4.662303 
1 1:30 2:50 3:59.022609 
1 1:0 2:1 3:0.478691 
1 1:20 2:14 3:27.92048 
1 1:10 2:7 3:3.574878 
1 1:17 2:10 3:7.944292 
1 1:36 2:14 3:26.139312 
1 1:10 2:17 3:7.7459 
1 1:0 2:1 3:1.082633 
1 1:0 2:5 3:6.926334 
1 1:15 2:2 3:34.588169 
1 1:5 2:21 3:3.756321 
1 1:28 2:37 3:11.711131 
1 1:31 2:8 3:59.857143 
1 1:34 2:6 3:34.860489 
1 1:16 2:19 3:9.083925 
1 1:12 2:5 3:2.440644 
1 1:12 2:30 3:8.554588 
1 1:30 2:9 3:33.439857 
1 1:21 2:27 3:9.462361 
1 1:12 2:35 3:11.273804 
1 1:9 2:2 3:9.764022 
1 1:18 2:17 3:8.164821 
1 1:21 2:24 3:12.722314 
1 1:0 2:1 3:0.528287 
1 1:31 2:13 3:21.707362 
1 1:18 2:39 3:33.52381 
1 1:6 2:5 3:25.042817 
1 1:20 2:7 3:35.656651 
1 1:28 2:38 3:51.459932 
1 1:21 2:5 3:14.659763 
1 1:3 2:26 3:5.146743 
1 1:11 2:21 3:10.606096 
1 1:18 2:13 3:32.380952 
1 1:16 2:3 3:9.264214 
1 1:3 2:13 3:2.680375 
1 1:7 2:15 3:4.277249 
1 1:26 2:4 3:21.524806 
1 1:6 2:5 3:2.525536 
1 1:11 2:6 3:1.439689 
1 1:9 2:6 3:12.386364 
1 1:10 2:6 3:1.962888 
1 1:9 2:2 3:5.722632 
1 1:17 2:10 3:16.999774 
1 1:10 2:3 3:11.924021 
1 1:26 2:22 3:8.073388 
1 1:22 2:7 3:21.688094 
1 1:0 2:1 3:21.072858 
1 1:0 2:1 3:0.752429 
1 1:0 2:2 3:0.627087 
1 1:0 2:6 3:0.475061 
1 1:0 2:6 3:0.475061 
1 1:0 2:1 3:2.165168 
1 1:7 2:9 3:2.615835 
1 1:12 2:6 3:2.527372 
1 1:12 2:1 3:4.883391 
1 1:8 2:15 3:3.488112 
1 1:0 2:2 3:7.228307 
1 1:17 2:10 3:17.734253 
1 1:1 2:1 3:5.754668 
1 1:13 2:5 3:7.720571 
1 1:17 2:3 3:6.41177 
1 1:4 2:28 3:14.543309 
1 1:3 2:6 3:7.192276 
1 1:25 2:5 3:34.590093 
1 1:21 2:5 3:13.251087 
1 1:9 2:22 3:5.834772 
1 1:23 2:4 3:13.501851 
1 1:23 2:5 3:46.136059 
1 1:9 2:16 3:4.621258 
1 1:3 2:1 3:2.968379 
1 1:174 2:76 3:8.982531 
1 1:3 2:8 3:29.307423 
1 1:7 2:22 3:4.602486 
1 1:10 2:1 3:2.003988 
1 1:17 2:7 3:23.022121 
1 1:12 2:6 3:2.627332 
1 1:0 2:1 3:17.956783 
1 1:21 2:34 3:15.453742 
1 1:12 2:3 3:17.821517 
1 1:10 2:17 3:5.355342 
1 1:1 2:1 3:0.494528 
1 1:7 2:6 3:5.169789 
1 1:8 2:1 3:6.036069 
1 1:11 2:4 3:9.301134 
1 1:15 2:8 3:8.111851 
1 1:39 2:10 3:46.78004 
1 1:23 2:4 3:15.289638 
1 1:27 2:11 3:34.133106 
1 1:25 2:31 3:44.333333 
1 1:14 2:21 3:7.858797 
1 1:17 2:22 3:47.85 
1 1:26 2:6 3:37.978095 
1 1:29 2:35 3:43.047619 
1 1:9 2:20 3:7.815029 
1 1:19 2:6 3:7.446764 
1 1:14 2:10 3:8.508737 
1 1:24 2:3 3:11.970888 
1 1:0 2:1 3:1.621629 
1 1:17 2:16 3:16.781262 
1 1:39 2:23 3:12.407413 
1 1:15 2:5 3:10.0841 
1 1:10 2:20 3:11.966125 
1 1:0 2:1 3:0.569068 
1 1:3 2:1 3:5.243275 
1 1:1 2:6 3:0.911974 
1 1:18 2:3 3:0.500595 
1 1:6 2:1 3:4.317851 
1 1:16 2:6 3:24.586729 
1 1:17 2:5 3:4.979277 
1 1:15 2:2 3:6.772095 
1 1:0 2:1 3:3.359329 
1 1:10 2:10 3:6.82444 
1 1:21 2:10 3:16.357584 
1 1:12 2:24 3:7.633987 
1 1:0 2:1 3:2.379657 
1 1:0 2:1 3:0.502342 
1 1:0 2:2 3:5.27431 
1 1:2 2:1 3:1.854712 
1 1:1 2:1 3:3.442382 
1 1:0 2:1 3:11.77949 
1 1:1 2:2 3:1.175346 
1 1:5 2:1 3:10.495411 
1 1:0 2:1 3:2.509341 
1 1:0 2:1 3:1.102648 
1 1:0 2:1 3:1.497234 
1 1:27 2:18 3:24.843894 
1 1:2 2:1 3:0.777955 
1 1:3 2:1 3:1.738043 
1 1:18 2:11 3:6.971692 
1 1:11 2:2 3:5.733771 
1 1:21 2:39 3:42.380952 
1 1:14 2:7 3:7.350886 
1 1:6 2:20 3:12.090681 
1 1:28 2:6 3:28.764637 
1 1:12 2:21 3:8.122167 
1 1:0 2:1 3:0.775102 
1 1:11 2:21 3:11.013334 
1 1:18 2:8 3:5.366103 
1 1:26 2:2 3:43.285714 
1 1:11 2:12 3:10.275497 
1 1:15 2:54 3:51.154788 
1 1:34 2:7 3:39.037194 
1 1:8 2:23 3:15.485315 
1 1:14 2:2 3:5.52402 
1 1:11 2:16 3:4.759215 
1 1:16 2:18 3:6.848513 
1 1:10 2:2 3:6.626565 
1 1:34 2:14 3:34.228399 
1 1:11 2:3 3:5.631909 
1 1:19 2:47 3:31.247246 
1 1:4 2:1 3:0.573596 
1 1:13 2:27 3:11.327263 
1 1:9 2:3 3:4.135211 
1 1:1 2:1 3:0.521087 
1 1:3 2:14 3:6.28531 
1 1:16 2:10 3:14.497416 
1 1:4 2:5 3:5.816647 
1 1:3 2:6 3:7.204376 
1 1:36 2:30 3:39.158977 
1 1:1 2:14 3:48.207343 
1 1:0 2:3 3:83.328946 
1 1:0 2:3 3:83.328946 
1 1:1 2:9 3:53.111843 
1 1:7 2:21 3:6.579016 
1 1:7 2:14 3:19.904762 
1 1:0 2:3 3:3.516747 
1 1:0 2:2 3:2.451753 
1 1:16 2:53 3:43.857143 
1 1:10 2:31 3:3.958124 
1 1:0 2:1 3:1.740684 
1 1:9 2:1 3:37.428571 
1 1:12 2:3 3:7.335953 
1 1:6 2:13 3:3.148532 
1 1:0 2:5 3:1.230744 
1 1:22 2:5 3:42.622893 
1 1:22 2:35 3:28.559836 
1 1:0 2:1 3:6.011118 
1 1:24 2:3 3:15.365925 
1 1:31 2:19 3:9.922167 
1 1:20 2:16 3:8.547315 
1 1:26 2:41 3:40.809524 
1 1:0 2:1 3:0.604853 
1 1:28 2:7 3:31.635215 
1 1:30 2:17 3:18.529546 
1 1:34 2:13 3:47.335258 
1 1:0 2:1 3:0.485349 
1 1:22 2:1 3:27.8 
1 1:30 2:18 3:27.088366 
1 1:10 2:4 3:3.700181 
1 1:36 2:12 3:30.089827 
1 1:23 2:51 3:30.714286 
1 1:14 2:4 3:6.16566 
1 1:8 2:23 3:3.751012 
1 1:0 2:20 3:30.468394 
1 1:8 2:3 3:24.428571 
1 1:30 2:20 3:7.817519 
1 1:0 2:1 3:4.447007 
1 1:0 2:1 3:3.494213 
1 1:13 2:2 3:5.941273 
1 1:16 2:21 3:10.902098 
1 1:24 2:5 3:33.412504 
1 1:17 2:31 3:12.280588 
1 1:29 2:13 3:23.122778 
1 1:21 2:4 3:22.966834 
1 1:0 2:6 3:1.71781 
1 1:12 2:9 3:36.904762 
1 1:0 2:1 3:23.238095 
1 1:0 2:1 3:0.463664 
1 1:0 2:1 3:3.018114 
1 1:1 2:12 3:3.430813 
1 1:11 2:16 3:5.84426 
1 1:0 2:1 3:0.885226 
1 1:10 2:25 3:2.110344 
1 1:13 2:6 3:25.650926 
1 1:10 2:14 3:2.578609 
1 1:13 2:4 3:2.416431 
1 1:0 2:1 3:2.581086 
1 1:12 2:4 3:10.345937 
1 1:9 2:2 3:9.633236 
1 1:6 2:37 3:10.479857 
1 1:19 2:13 3:14.314052 
1 1:0 2:24 3:1.832536 
1 1:0 2:1 3:2.657815 
1 1:0 2:1 3:42.628918 
1 1:0 2:4 3:1.998926 
1 1:1 2:3 3:22.345455 
1 1:1 2:2 3:1.10746 
1 1:0 2:1 3:5.810522 
1 1:0 2:1 3:46.164465 
1 1:1 2:22 3:45.155279 
1 1:1 2:10 3:0.484857 
1 1:1 2:3 3:14.115325 
1 1:0 2:11 3:11.838501 
1 1:1 2:6 3:2.979757 
1 1:8 2:2 3:4.384288 
1 1:21 2:50 3:15.299359 
1 1:25 2:10 3:36.472558 
1 1:0 2:5 3:2.640316 
1 1:18 2:15 3:38.65 
1 1:17 2:4 3:6.785469 
1 1:32 2:12 3:27.581092 
1 1:5 2:26 3:5.389449 
1 1:0 2:3 3:1.686925 
1 1:4 2:48 3:0.789427 
1 1:25 2:49 3:52.901626 
1 1:7 2:15 3:1.743816 
1 1:8 2:26 3:6.86197 
1 1:0 2:26 3:6.632547 
1 1:17 2:17 3:14.471315 
1 1:7 2:1 3:3.104079 
1 1:1 2:11 3:1.392951 
1 1:27 2:6 3:28.067273 
1 1:2 2:2 3:6.227755 
1 1:0 2:1 3:3.161022 
1 1:0 2:1 3:3.161022 
1 1:3 2:2 3:20.057522 
1 1:0 2:1 3:1.599117 
1 1:0 2:11 3:0.764226 
1 1:0 2:3 3:3.397261 
1 1:0 2:4 3:1.057134 
1 1:0 2:15 3:10.725955 
1 1:1 2:10 3:5.754157 
1 1:3 2:1 3:1.183264 
1 1:0 2:11 3:1.363937 
1 1:9 2:29 3:6.32233 
1 1:6 2:10 3:6.785643 
1 1:1 2:6 3:4.563812 
1 1:12 2:6 3:15.098025 
1 1:23 2:1 3:32.809524 
1 1:26 2:60 3:33.76619 
1 1:27 2:7 3:32.532334 
1 1:11 2:23 3:24.714286 
1 1:0 2:1 3:1.064173 
1 1:8 2:12 3:11.490026 
1 1:13 2:5 3:1.826781 
1 1:12 2:15 3:5.669061 
1 1:0 2:1 3:115.81881 
1 1:15 2:29 3:12.619495 
1 1:28 2:12 3:31.456785 
1 1:21 2:11 3:34.029312 
1 1:0 2:36 3:2.97484 
1 1:1 2:2 3:0.512224 
1 1:0 2:1 3:3.82074 
1 1:5 2:11 3:2.724741 
1 1:23 2:7 3:25.730178 
1 1:1 2:1 3:1.116392 
1 1:14 2:3 3:8.712853 
1 1:2 2:1 3:0.844246 
1 1:0 2:2 3:2.239471 
1 1:14 2:6 3:8.106473 
1 1:0 2:1 3:2.239471 
1 1:0 2:1 3:6.464316 
1 1:16 2:11 3:12.256201 
1 1:5 2:4 3:2.091225 
1 1:14 2:18 3:6.499537 
1 1:14 2:8 3:4.69597 
1 1:31 2:10 3:25.469223 
1 1:13 2:3 3:2.505076 
1 1:1 2:31 3:22.505493 
1 1:1 2:1 3:63.324885 
1 1:0 2:4 3:7.496936 
1 1:0 2:4 3:7.857143 
1 1:10 2:18 3:7.645079 
1 1:0 2:1 3:0.493299 
1 1:2 2:2 3:7.718948 
1 1:1 2:3 3:7.975665 
1 1:6 2:22 3:2.83064 
1 1:14 2:4 3:6.54165 
1 1:1 2:15 3:6.609548 
1 1:7 2:25 3:3.628191 
1 1:12 2:11 3:7.970104 
1 1:0 2:1 3:3.06141 
1 1:17 2:28 3:11.800671 
1 1:0 2:5 3:69.980861 
1 1:6 2:28 3:4.894894 
1 1:3 2:3 3:4.205931 
1 1:1 2:163 3:2.026377 
1 1:6 2:14 3:5.115276 
1 1:7 2:4 3:3.708261 
1 1:36 2:10 3:46.476008 
1 1:9 2:33 3:10.637787 
1 1:11 2:24 3:10.284303 
1 1:33 2:11 3:19.115745 
1 1:22 2:10 3:37.641649 
1 1:2 2:14 3:6.134426 
1 1:24 2:12 3:25.207019 
1 1:17 2:50 3:41.761905 
1 1:20 2:38 3:12.964708 
1 1:30 2:4 3:29.591598 
1 1:16 2:44 3:19.382998 
1 1:17 2:54 3:33.904762 
1 1:33 2:9 3:34.636096 
1 1:26 2:9 3:13.691492 
1 1:1 2:11 3:8.045478 
1 1:7 2:6 3:44.077924 
1 1:17 2:28 3:7.997952 
1 1:17 2:25 3:9.663704 
1 1:9 2:3 3:2.928346 
1 1:0 2:1 3:0.696265 
1 1:15 2:4 3:2.658025 
1 1:7 2:21 3:2.150174 
1 1:17 2:1 3:36.144125 
1 1:12 2:2 3:5.103121 
1 1:17 2:4 3:6.158871 
1 1:12 2:11 3:10.16514 
1 1:5 2:23 3:5.537844 
1 1:22 2:51 3:52.095238 
1 1:0 2:1 3:5.289263 
1 1:13 2:24 3:7.030771 
1 1:0 2:1 3:7.764342 
1 1:0 2:1 3:7.764342 
1 1:0 2:1 3:7.764342 
1 1:0 2:1 3:21.455193 
1 1:5 2:19 3:5.466027 
1 1:0 2:2 3:1.84982 
1 1:0 2:2 3:1.84982 
1 1:0 2:4 3:5.172184 
1 1:0 2:3 3:3.1898 
1 1:0 2:4 3:2.740673 
1 1:0 2:4 3:2.108156 
1 1:0 2:3 3:3.1898 
1 1:0 2:4 3:0.473525 
1 1:0 2:38 3:18.400898 
1 1:7 2:19 3:1.045093 
1 1:0 2:1 3:1.131827 
1 1:0 2:2 3:2.279897 
1 1:1 2:2 3:8.64394 
1 1:2 2:2 3:0.546631 
1 1:0 2:1 3:1.603358 
1 1:0 2:3 3:1.017597 
1 1:0 2:1 3:9.84059 
1 1:21 2:1 3:41.571429 
1 1:0 2:1 3:0.421042 
1 1:8 2:22 3:7.52115 
1 1:5 2:18 3:53.141393 
1 1:13 2:58 3:35.809524 
1 1:0 2:17 3:6.903528 
1 1:0 2:17 3:0.616135 
1 1:18 2:6 3:38.428571 
1 1:12 2:3 3:11.671767 
1 1:0 2:7 3:3.225843 
1 1:0 2:1 3:1.596582 
1 1:8 2:4 3:8.972489 
1 1:8 2:1 3:2.254264 
1 1:1 2:1 3:10.817222 
1 1:0 2:2 3:5.844237 
1 1:0 2:25 3:1.111539 
1 1:2 2:9 3:14.244774 
1 1:1 2:1 3:0.546662 
1 1:24 2:42 3:8.395394 
1 1:1 2:16 3:46.723862 
1 1:7 2:27 3:25.290999 
1 1:2 2:1 3:24.582339 
1 1:2 2:1 3:24.582339 
1 1:8 2:33 3:16.799905 
1 1:2 2:14 3:2.931423 
1 1:14 2:1 3:7.601509 
1 1:0 2:19 3:3.31517 
1 1:15 2:27 3:1.738238 
1 1:12 2:18 3:15.031628 
1 1:3 2:1 3:5.143776 
1 1:8 2:27 3:6.246294 
1 1:2 2:26 3:7.084191 
1 1:24 2:9 3:41.81844 
1 1:15 2:5 3:7.319468 
1 1:11 2:37 3:26.868352 
1 1:0 2:20 3:5.905136 
1 1:0 2:1 3:0.583517 
1 1:0 2:7 3:10.436237 
1 1:0 2:7 3:20.223115 
1 1:11 2:3 3:7.530483 
1 1:7 2:1 3:4.15412 
1 1:1 2:1 3:4.384084 
1 1:0 2:1 3:1.20986 
1 1:0 2:4 3:2.325008 
1 1:0 2:8 3:1.563387 
1 1:0 2:28 3:1.186334 
1 1:0 2:1 3:1.082312 
1 1:0 2:1 3:1.22626 
1 1:0 2:1 3:25.418643 
1 1:0 2:1 3:16.395609 
1 1:0 2:4 3:1.174266 
1 1:0 2:4 3:5.788025 
1 1:0 2:8 3:11.454567 
1 1:0 2:10 3:15.460495 
1 1:0 2:1 3:15.460495 
1 1:3 2:13 3:36.871506 
1 1:0 2:3 3:22.639857 
1 1:0 2:6 3:7.754831 
1 1:4 2:131 3:36.949266 
1 1:0 2:1 3:77.160421 
1 1:0 2:1 3:11.190415 
1 1:0 2:1 3:19.373269 
1 1:0 2:1 3:3.261664 
1 1:0 2:2 3:3.800652 
1 1:0 2:14 3:98.374194 
1 1:0 2:2 3:98.374194 
1 1:0 2:2 3:10.575653 
1 1:0 2:1 3:19.01215 
1 1:0 2:1 3:37.529505 
1 1:0 2:1 3:9.036976 
1 1:0 2:12 3:5.168381 
1 1:0 2:2 3:2.139856 
1 1:0 2:1 3:2.701693 
1 1:0 2:1 3:72.2648 
1 1:0 2:1 3:137.87707 
1 1:0 2:1 3:37.064459 
1 1:0 2:9 3:19.835793 
1 1:15 2:6 3:8.555685 
1 1:1 2:4 3:22.783949 
1 1:0 2:1 3:0.655799 
1 1:2 2:16 3:1.55633 
1 1:8 2:2 3:0.534415 
1 1:11 2:1 3:6.537025 
1 1:0 2:7 3:10.457192 
1 1:0 2:1 3:0.596446 
1 1:17 2:8 3:0.583347 
1 1:0 2:1 3:0.72652 
1 1:0 2:1 3:2.086497 
1 1:0 2:13 3:13.331688 
1 1:0 2:1 3:17.270431 
1 1:0 2:3 3:0.838462 
1 1:8 2:7 3:16.273104 
1 1:0 2:1 3:0.649096 
1 1:33 2:55 3:45.940844 
1 1:0 2:3 3:1.01229 
1 1:21 2:8 3:29.621648 
1 1:12 2:2 3:2.852911 
1 1:1 2:10 3:0.971579 
1 1:0 2:1 3:0.522076 
1 1:0 2:2 3:0.569393 
1 1:0 2:1 3:0.644217 
1 1:3 2:15 3:6.081393 
1 1:14 2:51 3:42.75969 
1 1:0 2:4 3:0.73672 
1 1:0 2:4 3:3.422008 
1 1:10 2:1 3:39 
1 1:0 2:3 3:0.805721 
1 1:22 2:36 3:24.898785 
1 1:20 2:10 3:32.852485 
1 1:11 2:17 3:6.600607 
1 1:13 2:16 3:7.950088 
1 1:12 2:29 3:4.591153 
1 1:24 2:13 3:28.82369 
1 1:21 2:9 3:9.841868 
1 1:17 2:8 3:55.907854 
1 1:15 2:5 3:5.757509 
1 1:0 2:1 3:0.48528 
1 1:22 2:43 3:54.142857 
1 1:6 2:35 3:37.2 
1 1:24 2:12 3:26.218732 
1 1:15 2:28 3:6.490084 
1 1:48 2:47 3:63.113891 
1 1:24 2:11 3:42.142857 
1 1:5 2:11 3:17.720078 
1 1:10 2:4 3:3.03588 
1 1:34 2:3 3:31.118714 
1 1:40 2:4 3:43.8147 
1 1:0 2:1 3:0.514089 
1 1:28 2:12 3:31.700875 
1 1:24 2:1 3:46.703872 
1 1:31 2:8 3:29.628489 
1 1:0 2:1 3:0.748939 
1 1:12 2:4 3:3.657349 
1 1:11 2:5 3:4.595824 
1 1:3 2:11 3:1.25895 
1 1:33 2:31 3:42.54695 
1 1:0 2:5 3:1.734278 
1 1:11 2:5 3:4.703185 
1 1:10 2:4 3:6.123219 
1 1:14 2:27 3:3.632829 
1 1:14 2:19 3:5.905068 
1 1:31 2:16 3:42.247727 
1 1:16 2:6 3:7.530035 
1 1:24 2:6 3:43.932674 
1 1:12 2:17 3:7.611652 
1 1:17 2:13 3:23.946988 
1 1:28 2:35 3:45 
1 1:33 2:5 3:34.770776 
1 1:26 2:21 3:11.1118 
1 1:22 2:14 3:11.512839 
1 1:0 2:1 3:0.449315 
1 1:13 2:7 3:35.026472 
1 1:32 2:10 3:3.812912 
1 1:0 2:8 3:9.929838 
1 1:15 2:23 3:7.503782 
1 1:6 2:24 3:13.255906 
1 1:12 2:25 3:7.955427 
1 1:3 2:5 3:1.578648 
1 1:0 2:1 3:1.482395 
1 1:29 2:2 3:41.645604 
1 1:8 2:25 3:4.409383 
1 1:29 2:1 3:43.227639 
1 1:13 2:34 3:27.280115 
1 1:54 2:50958 3:65.138727 
1 1:2 2:37 3:2.04605 
1 1:3 2:1 3:3.714018 
1 1:0 2:1 3:3.642956 
1 1:18 2:23 3:12.507195 
1 1:55 2:19 3:25.930088 
1 1:0 2:40 3:11.418379 
1 1:0 2:1 3:6.84753 
1 1:11 2:9 3:10.807755 
1 1:13 2:2 3:18.718004 
1 1:35 2:10 3:46.48088 
1 1:0 2:5 3:5.123021 
1 1:20 2:54 3:41.4 
1 1:0 2:19 3:8.292631 
1 1:27 2:32 3:46.666667 
1 1:3 2:23 3:6.342742 
1 1:26 2:9 3:35.697168 
1 1:26 2:13 3:6.69227 
1 1:22 2:35 3:29.363998 
1 1:0 2:19 3:14.280904 
1 1:8 2:4 3:5.818025 
1 1:0 2:32 3:5.426305 
1 1:12 2:6 3:6.709812 
1 1:16 2:23 3:6.141123 
1 1:19 2:9 3:5.665321 
1 1:13 2:20 3:0.65898 
1 1:26 2:45 3:46.65 
1 1:18 2:9 3:2.751585 
1 1:4 2:24 3:12.575401 
1 1:16 2:1 3:38.730939 
1 1:1 2:13 3:1.638246 
1 1:25 2:42 3:1.047359 
1 1:8 2:4 3:7.395375 
1 1:28 2:29 3:32.019925 
1 1:0 2:53 3:22.850656 
1 1:0 2:1 3:1.309526 
1 1:0 2:3 3:28.465096 
1 1:2 2:1 3:18.941137 
1 1:0 2:3 3:23.430203 
1 1:16 2:21 3:6.714522 
1 1:8 2:2 3:2.126666 
1 1:7 2:2 3:8.460095 
1 1:22 2:28 3:9.749003 
1 1:10 2:22 3:3.687997 
1 1:35 2:14 3:34.403975 
1 1:30 2:5 3:36.227443 
1 1:4 2:23 3:3.314285 
1 1:40 2:45 3:10.708377 
1 1:24 2:6 3:37.187961 
1 1:0 2:1 3:3.553426 
1 1:25 2:2 3:29.223148 
1 1:20 2:7 3:27.581475 
1 1:11 2:4 3:3.946828 
1 1:16 2:6 3:3.57077 
1 1:11 2:13 3:5.286855 
1 1:14 2:51 3:36.127916 
1 1:13 2:1 3:22.584435 
1 1:18 2:3 3:7.543168 
1 1:9 2:1 3:3.004651 
1 1:13 2:16 3:5.642641 
1 1:15 2:9 3:8.877836 
1 1:15 2:23 3:9.361783 
1 1:29 2:26 3:0.685877 
1 1:17 2:8 3:10.303462 
1 1:20 2:5 3:27.482266 
1 1:23 2:4 3:41.879137 
1 1:16 2:48 3:48.422274 
1 1:0 2:2 3:3.196675 
1 1:0 2:1 3:10.210604 
1 1:0 2:1 3:10.210604 
1 1:13 2:5 3:4.355651 
1 1:15 2:49 3:21.736365 
1 1:24 2:16 3:37.298307 
1 1:0 2:2 3:12.492033 
1 1:14 2:28 3:13.76535 
1 1:9 2:1 3:5.12868 
1 1:7 2:26 3:6.060009 
1 1:13 2:14 3:2.828633 
1 1:10 2:27 3:9.44869 
1 1:18 2:6 3:3.600598 
1 1:32 2:13 3:27.96981 
1 1:25 2:8 3:28.792565 
1 1:11 2:21 3:9.750928 
1 1:11 2:2 3:3.333807 
1 1:14 2:25 3:22.618399 
1 1:17 2:3 3:6.069922 
1 1:15 2:2 3:9.396404 
1 1:0 2:1 3:4.430873 
1 1:40 2:5 3:51.828614 
1 1:5 2:7 3:3.031064 
1 1:28 2:17 3:42.065203 
1 1:23 2:6 3:30.7981 
1 1:12 2:53 3:20.647258 
1 1:5 2:2 3:35.002615 
1 1:0 2:1 3:0.4225 
1 1:1 2:21 3:2.035979 
1 1:24 2:9 3:39.809524 
1 1:15 2:22 3:14.625736 
1 1:2 2:13 3:34.521106 
1 1:32 2:9 3:38.758131 
1 1:19 2:3 3:22.479902 
1 1:38 2:5 3:47.607016 
1 1:0 2:3 3:1.876769 
1 1:7 2:24 3:4.446212 
1 1:1 2:2 3:10.75614 
1 1:0 2:9 3:66.112878 
1 1:3 2:3 3:12.197742 
1 1:1 2:97 3:4.901322 
1 1:5 2:1 3:29.411566 
1 1:3 2:1 3:2.589657 
1 1:16 2:26 3:4.246446 
1 1:11 2:1 3:32.608367 
1 1:1 2:1 3:5.453014 
1 1:1 2:4 3:1.262594 
1 1:44 2:51 3:105.17818 
1 1:6 2:8 3:5.749485 
1 1:12 2:13 3:7.704891 
1 1:8 2:7 3:4.074693 
1 1:14 2:18 3:3.787064 
1 1:0 2:32 3:3.510512 
1 1:15 2:50 3:40.356772 
1 1:21 2:20 3:47.047619 
1 1:26 2:12 3:47.061899 
1 1:0 2:1 3:12.270163 
1 1:2 2:20 3:1.978044 
1 1:33 2:17 3:32.506267 
1 1:31 2:1 3:63.428571 
1 1:12 2:6 3:3.721599 
1 1:1 2:30 3:37.142857 
1 1:2 2:2 3:0.874427 
1 1:0 2:3 3:2.897207 
1 1:0 2:3 3:5.234942 
1 1:0 2:3 3:5.234942 
1 1:31 2:25 3:38.983329 
1 1:0 2:3 3:13.459109 
1 1:0 2:7 3:2.571791 
1 1:10 2:24 3:9.446444 
1 1:0 2:13 3:0.969546 
1 1:15 2:14 3:8.616469 
1 1:2 2:5 3:6.498451 
1 1:18 2:16 3:11.264498 
1 1:1 2:1 3:0.53007 
1 1:1 2:1 3:0.485412 
1 1:6 2:13 3:6.807906 
1 1:9 2:17 3:9.195031 
1 1:8 2:5 3:3.060893 
1 1:0 2:1 3:33.101904 
1 1:0 2:22 3:4.509448 
1 1:0 2:21 3:2.461882 
1 1:0 2:3 3:8.149262 
1 1:0 2:3 3:8.149262 
1 1:18 2:8 3:30.548336 
1 1:0 2:2 3:1.014398 
1 1:0 2:2 3:0.443017 
1 1:0 2:2 3:2.967681 
1 1:0 2:2 3:2.916369 
1 1:0 2:2 3:2.916369 
1 1:26 2:5 3:13.387764 
1 1:8 2:1 3:4.42524 
1 1:0 2:1 3:2.479495 
1 1:0 2:1 3:4.562523 
1 1:0 2:2 3:43.885399 
1 1:0 2:1 3:1.965367 
1 1:0 2:23 3:4.135722 
1 1:0 2:8 3:2.586029 
1 1:0 2:8 3:2.586029 
1 1:1 2:15 3:7.700091 
1 1:0 2:8 3:2.586029 
1 1:0 2:1 3:2.586029 
1 1:0 2:1 3:2.586029 
1 1:0 2:1 3:10.149872 
1 1:0 2:1 3:10.909277 
1 1:0 2:1 3:0.964285 
1 1:6 2:1 3:20.064869 
1 1:0 2:2 3:41.270106 
1 1:0 2:2 3:0.691401 
1 1:0 2:2 3:48.490765 
1 1:0 2:2 3:48.490765 
1 1:1 2:14 3:4.289507 
1 1:0 2:3 3:4.917409 
1 1:0 2:4 3:67.139689 
1 1:14 2:35 3:19.279294 
1 1:0 2:1 3:0.82852 
1 1:12 2:31 3:0.773963 
1 1:7 2:1 3:3.940749 
1 1:6 2:3 3:3.739342 
1 1:12 2:28 3:8.014469 
1 1:10 2:6 3:3.189863 
1 1:17 2:9 3:4.110035 
1 1:4 2:7 3:21.829086 
1 1:14 2:21 3:1.922529 
1 1:0 2:1 3:2.075664 
1 1:7 2:16 3:21.495474 
1 1:19 2:24 3:10.929205 
1 1:8 2:4 3:4.986707 
1 1:27 2:6 3:37.423036 
1 1:15 2:5 3:6.723437 
1 1:11 2:28 3:7.354226 
1 1:21 2:12 3:28.084352 
1 1:0 2:1 3:7.832146 
1 1:8 2:19 3:3.612248 
1 1:7 2:20 3:6.167341 
1 1:15 2:37 3:34.333333 
1 1:8 2:40 3:42.203666 
1 1:14 2:1 3:11.837999 
1 1:23 2:10 3:33.739342 
1 1:6 2:19 3:4.712236 
1 1:2 2:2 3:0.768131 
1 1:31 2:10 3:29.376487 
1 1:7 2:22 3:5.645574 
1 1:30 2:41 3:44.95 
1 1:1 2:9 3:9.272136 
1 1:18 2:13 3:13.529078 
1 1:23 2:37 3:31.273643 
1 1:20 2:4 3:51.590018 
1 1:14 2:23 3:38.15 
1 1:24 2:15 3:21.205971 
1 1:20 2:10 3:33.333333 
1 1:19 2:6 3:42.213115 
1 1:28 2:3 3:48.921788 
1 1:5 2:1 3:4.384632 
1 1:1 2:1 3:1.174804 
1 1:3 2:3 3:25.74817 
1 1:6 2:3 3:1.94715 
1 1:29 2:58 3:38.956059 
1 1:0 2:4 3:7.352464 
1 1:11 2:27 3:26.828943 
1 1:11 2:30 3:28.77209 
1 1:0 2:2 3:2.590071 
1 1:4 2:5 3:19.415534 
1 1:1 2:1 3:10.738998 
1 1:0 2:4 3:0.475437 
1 1:22 2:1 3:6.963395 
1 1:0 2:1 3:4.74347 
1 1:1 2:1 3:39.751744 
1 1:1 2:1 3:1.722896 
1 1:2 2:5 3:2.298557 
1 1:0 2:16 3:7.163996 
1 1:3 2:74 3:25.70706 
1 1:24 2:14 3:30.081615 
1 1:13 2:13 3:45.375347 
1 1:18 2:6 3:4.892476 
1 1:8 2:15 3:5.820824 
1 1:15 2:4 3:3.760815 
1 1:2 2:17 3:2.819161 
1 1:12 2:49 3:45.125608 
1 1:8 2:2 3:6.610306 
1 1:0 2:1 3:1.591404 
1 1:10 2:23 3:7.499957 
1 1:11 2:6 3:42.564945 
1 1:6 2:1 3:4.284983 
1 1:9 2:23 3:5.940667 
1 1:15 2:1 3:13.531175 
1 1:6 2:5 3:3.210805 
1 1:0 2:1 3:0.790707 
1 1:23 2:50 3:8.247881 
1 1:13 2:30 3:13.73769 
1 1:2 2:28 3:3.236245 
1 1:1 2:30 3:7.007777 
1 1:3 2:21 3:2.311093 
1 1:10 2:22 3:0.454093 
1 1:17 2:8 3:19.652215 
1 1:12 2:4 3:23.633254 
1 1:23 2:30 3:28.463449 
1 1:33 2:1 3:29.838491 
1 1:10 2:6 3:4.849712 
1 1:28 2:12 3:29.702828 
1 1:0 2:1 3:0.50443 
1 1:8 2:7 3:1.143877 
1 1:0 2:1 3:0.660082 
1 1:12 2:26 3:5.024656 
1 1:25 2:3 3:29.892122 
1 1:16 2:17 3:8.337797 
1 1:15 2:7 3:4.019119 
1 1:28 2:46 3:40.969366 
1 1:36 2:12 3:40.814895 
1 1:27 2:10 3:39.789921 
1 1:30 2:12 3:42.612427 
1 1:37 2:16 3:52.012409 
1 1:0 2:1 3:1.247938 
1 1:39 2:3 3:46.768552 
1 1:16 2:32 3:6.017612 
1 1:21 2:38 3:17.511035 
1 1:8 2:13 3:7.189415 
1 1:2 2:1 3:2.767988 
1 1:27 2:7 3:36.070972 
1 1:16 2:6 3:2.709265 
1 1:6 2:25 3:7.719407 
1 1:21 2:7 3:39.878199 
1 1:1 2:1 3:0.52021 
1 1:28 2:4 3:33.076452 
1 1:17 2:3 3:5.462456 
1 1:9 2:1 3:7.121994 
1 1:11 2:7 3:31.869547 
1 1:4 2:15 3:4.746658 
1 1:48 2:10 3:46.279856 
1 1:19 2:11 3:18.24388 
1 1:32 2:4 3:32.287577 
1 1:6 2:32 3:4.607148 
1 1:29 2:30 3:43.588842 
1 1:10 2:6 3:22.455525 
1 1:10 2:8 3:4.774326 
1 1:22 2:9 3:34.761905 
1 1:26 2:32 3:27.36869 
1 1:0 2:1 3:3.04804 
1 1:25 2:41 3:45.041311 
1 1:13 2:7 3:6.320675 
1 1:29 2:4 3:36.844879 
1 1:0 2:17 3:7.47117 
1 1:10 2:5 3:2.101173 
1 1:3 2:1 3:2.114654 
1 1:17 2:2 3:6.146073 
1 1:0 2:1 3:0.596087 
1 1:0 2:1 3:3.598585 
1 1:0 2:1 3:5.3383 
1 1:0 2:3 3:2.630602 
1 1:0 2:3 3:2.630602 
1 1:0 2:3 3:2.630602 
1 1:22 2:4 3:24.135906 
1 1:21 2:50 3:27.726469 
1 1:14 2:4 3:8.589829 
1 1:16 2:11 3:9.373755 
1 1:0 2:1 3:0.910336 
1 1:0 2:1 3:0.553904 
1 1:32 2:43 3:50.308014 
1 1:0 2:1 3:1.128732 
1 1:9 2:22 3:7.112962 
1 1:5 2:3 3:1.603219 
1 1:10 2:21 3:5.856478 
1 1:15 2:7 3:7.208479 
1 1:9 2:4 3:3.818946 
1 1:9 2:26 3:5.352487 
1 1:6 2:26 3:3.768813 
1 1:11 2:1 3:5.028539 
1 1:13 2:20 3:4.625331 
1 1:10 2:1 3:2.827027 
1 1:9 2:4 3:4.112414 
1 1:38 2:4 3:35.142611 
1 1:13 2:16 3:2.206067 
1 1:14 2:2 3:3.6464 
1 1:4 2:2 3:5.542741 
1 1:7 2:35 3:8.450772 
1 1:22 2:8 3:26.527379 
1 1:0 2:1 3:0.453851 
1 1:1 2:1 3:0.839624 
1 1:8 2:7 3:5.847528 
1 1:4 2:6 3:1.850693 
1 1:3 2:18 3:12.632446 
1 1:34 2:36 3:51.85 
1 1:7 2:30 3:11.990589 
1 1:21 2:44 3:14.534756 
1 1:21 2:3 3:30.447036 
1 1:21 2:13 3:14.651777 
1 1:10 2:7 3:24.843986 
1 1:28 2:18 3:30.051513 
1 1:8 2:25 3:6.552002 
1 1:8 2:24 3:3.916031 
1 1:0 2:1 3:1.180856 
1 1:15 2:26 3:7.150798 
1 1:14 2:5 3:6.847894 
1 1:0 2:1 3:0.437306 
1 1:12 2:5 3:2.995463 
1 1:17 2:4 3:8.901535 
1 1:3 2:1 3:0.659477 
1 1:15 2:17 3:6.231284 
1 1:15 2:1 3:43.952381 
1 1:20 2:1 3:49.419157 
1 1:12 2:5 3:8.287004 
1 1:32 2:10 3:42 
1 1:24 2:41 3:40.619048 
1 1:11 2:4 3:3.335986 
1 1:6 2:37 3:36.485649 
1 1:16 2:55 3:46.208676 
1 1:28 2:3 3:30.354901 
1 1:2 2:12 3:31.48912 
1 1:8 2:39 3:40.7 
1 1:10 2:25 3:8.754632 
1 1:18 2:1 3:7.240264 
1 1:19 2:20 3:15.065687 
1 1:8 2:24 3:28.860227 
1 1:13 2:26 3:6.150255 
1 1:2 2:2 3:0.509699 
1 1:4 2:17 3:3.990804 
1 1:1 2:27 3:1.097974 
1 1:10 2:22 3:7.413561 
1 1:3 2:9 3:3.807303 
1 1:30 2:8 3:50.590831 
1 1:13 2:62 3:30.660448 
1 1:12 2:37 3:33.238095 
1 1:11 2:1 3:6.141189 
1 1:13 2:14 3:5.440805 
1 1:28 2:9 3:39.714286 
1 1:6 2:1 3:9.4756 
1 1:11 2:5 3:2.413244 
1 1:8 2:1 3:2.659943 
1 1:0 2:1 3:0.521855 
1 1:9 2:2 3:1.461941 
1 1:1 2:23 3:5.155748 
1 1:10 2:26 3:7.415163 
1 1:11 2:31 3:8.45676 
1 1:13 2:6 3:1.041755 
1 1:37 2:7 3:42.315308 
1 1:8 2:19 3:3.559217 
1 1:12 2:21 3:21.455443 
1 1:10 2:36 3:36.336924 
1 1:1 2:3 3:2.850717 
1 1:18 2:17 3:42.091707 
1 1:32 2:10 3:30.211304 
1 1:9 2:25 3:4.628229 
1 1:5 2:1 3:44.64966 
1 1:31 2:45 3:49.619048 
1 1:9 2:23 3:4.896017 
1 1:23 2:2 3:42.190476 
1 1:0 2:1 3:6.710648 
1 1:31 2:10 3:44.440275 
1 1:32 2:56 3:49.457962 
1 1:11 2:10 3:28.154291 
1 1:24 2:10 3:28.439257 
1 1:12 2:3 3:4.452006 
1 1:13 2:19 3:4.821721 
1 1:9 2:15 3:3.400292 
1 1:1 2:23 3:2.634087 
1 1:0 2:1 3:20.010158 
1 1:0 2:1 3:13.372939 
1 1:0 2:11 3:0.994231 
1 1:0 2:11 3:0.994231 
1 1:0 2:12 3:0.994231 
1 1:0 2:1 3:0.863579 
1 1:0 2:1 3:3.89903 
1 1:0 2:2 3:8.058634 
1 1:0 2:2 3:8.058634 
1 1:0 2:8 3:0.878127 
1 1:0 2:3 3:44.189563 
1 1:0 2:4 3:8.049825 
1 1:0 2:1 3:97.438632 
1 1:0 2:6 3:12.40702 
1 1:0 2:1 3:0.799638 
1 1:0 2:29 3:0.799638 
1 1:0 2:6 3:24.793202 
1 1:0 2:6 3:24.793202 
1 1:0 2:6 3:24.793202 
1 1:0 2:1 3:24.793202 
1 1:0 2:1 3:12.40702 
1 1:0 2:5 3:1.934147 
1 1:0 2:5 3:5.101127 
1 1:0 2:1 3:0.648325 
1 1:0 2:1 3:15.732942 
1 1:8 2:14 3:4.439405 
1 1:3 2:1 3:11.157038 
1 1:5 2:36 3:8.146448 
1 1:20 2:40 3:41.75 
1 1:1 2:1 3:8.226029 
1 1:1 2:12 3:1.717806 
1 1:16 2:5 3:8.646461 
1 1:12 2:28 3:5.516548 
1 1:18 2:9 3:39.61249 
1 1:14 2:21 3:5.199133 
1 1:17 2:4 3:13.53062 
1 1:10 2:20 3:3.788438 
1 1:13 2:1 3:6.704146 
1 1:8 2:3 3:1.479708 
1 1:31 2:6 3:46.571429 
1 1:60 2:4 3:44.804197 
1 1:43 2:128 3:41.525563 
1 1:1 2:40 3:10.752142 
1 1:25 2:6 3:24.417266 
1 1:31 2:1 3:43.628255 
1 1:1 2:6 3:4.636713 
1 1:8 2:1 3:3.64324 
1 1:22 2:5 3:9.694837 
1 1:30 2:16 3:1.320614 
1 1:2 2:10 3:18.17847 
1 1:1 2:1 3:1.892593 
1 1:3 2:2 3:5.121489 
1 1:1 2:5 3:27.351266 
1 1:2 2:18 3:5.93417 
1 1:1 2:7 3:9.35865 
1 1:7 2:1 3:5.054553 
1 1:3 2:445 3:0.570929 
1 1:7 2:1 3:4.810837 
1 1:7 2:40 3:2.550318 
1 1:3 2:2 3:43.957577 
1 1:1 2:5 3:7.21933 
1 1:1 2:25 3:9.475196 
1 1:2 2:8 3:38.164812 
1 1:43 2:2 3:54.45 
1 1:14 2:5 3:2.94968 
1 1:17 2:6 3:73.784014 
1 1:16 2:22 3:7.368598 
1 1:35 2:40 3:50.65 
1 1:22 2:3 3:28.265654 
1 1:27 2:8 3:11.315547 
1 1:10 2:4 3:6.29839 
1 1:18 2:1 3:42.333333 
1 1:10 2:45 3:29.285714 
1 1:33 2:28 3:31.543889 
1 1:18 2:5 3:8.25808 
1 1:9 2:27 3:4.452477 
1 1:30 2:12 3:32.603105 
1 1:8 2:25 3:4.700451 
1 1:9 2:1 3:4.074309 
1 1:25 2:8 3:29.553063 
1 1:17 2:13 3:9.479238 
1 1:3 2:6 3:4.488013 
1 1:10 2:5 3:6.070351 
1 1:14 2:32 3:11.079209 
1 1:26 2:9 3:13.496001 
1 1:30 2:10 3:29.351982 
1 1:24 2:42 3:29.069071 
1 1:5 2:26 3:4.478643 
1 1:8 2:14 3:1.977429 
1 1:16 2:1 3:7.537954 
1 1:34 2:8 3:42.238095 
1 1:1 2:1 3:0.796181 
1 1:13 2:5 3:2.548295 
1 1:5 2:8 3:4.579146 
1 1:28 2:18 3:31.569454 
1 1:26 2:4 3:43.595118 
1 1:12 2:23 3:26.800384 
1 1:8 2:20 3:25.45 
1 1:14 2:17 3:7.588039 
1 1:24 2:17 3:32.945181 
1 1:8 2:3 3:31.914001 
1 1:44 2:7 3:52.918073 
1 1:30 2:1 3:43.285714 
1 1:8 2:1 3:3.945411 
1 1:15 2:24 3:9.260128 
1 1:13 2:9 3:10.182343 
1 1:21 2:6 3:15.994313 
1 1:23 2:4 3:87.987649 
1 1:8 2:4 3:9.472724 
1 1:30 2:6 3:45.172405 
1 1:16 2:4 3:5.342815 
1 1:3 2:3 3:2.404715 
1 1:11 2:1 3:11.284745 
1 1:14 2:5 3:5.345344 
1 1:25 2:4 3:34.844469 
1 1:4 2:16 3:11.170322 
1 1:3 2:1 3:0.538738 
1 1:16 2:7 3:4.226783 
1 1:28 2:5 3:24.572718 
1 1:12 2:28 3:2.509064 
1 1:18 2:4 3:24.831618 
1 1:11 2:23 3:5.862273 
1 1:29 2:50 3:43.25 
1 1:0 2:5 3:6.248523 
1 1:15 2:6 3:5.887874 
1 1:14 2:14 3:5.950024 
1 1:25 2:14 3:25.101584 
1 1:14 2:1 3:6.036954 
1 1:7 2:15 3:5.088469 
1 1:13 2:15 3:8.047173 
1 1:13 2:7 3:3.96016 
1 1:14 2:19 3:12.933038 
1 1:0 2:42 3:38.47619 
1 1:17 2:10 3:8.659567 
1 1:25 2:7 3:35.683737 
1 1:12 2:6 3:6.673375 
1 1:15 2:43 3:33.644141 
1 1:0 2:5 3:14.511357 
1 1:4 2:14 3:15.87386 
1 1:29 2:7 3:28.045654 
1 1:14 2:5 3:5.752677 
1 1:26 2:51 3:53 
1 1:28 2:7 3:33.386116 
1 1:29 2:7 3:19.397065 
1 1:0 2:1 3:1.639356 
1 1:0 2:22 3:2.169671 
1 1:19 2:8 3:27.469097 
1 1:4 2:2 3:5.790205 
1 1:4 2:2 3:5.790205 
1 1:0 2:1 3:1.393541 
1 1:1 2:26 3:1.894327 
1 1:27 2:10 3:23.212774 
1 1:11 2:4 3:2.529806 
1 1:0 2:5 3:10.285455 
1 1:0 2:5 3:10.285455 
1 1:47 2:121 3:5.598595 
1 1:0 2:1 3:55.034338 
1 1:0 2:5 3:25.665091 
1 1:0 2:5 3:25.665091 
1 1:0 2:64 3:1.474004 
1 1:0 2:64 3:0.750246 
1 1:0 2:1 3:1.225782 
1 1:0 2:1 3:6.287626 
1 1:0 2:110 3:6.287626 
1 1:59 2:38 3:52.429253 
1 1:0 2:4 3:25.995592 
1 1:0 2:1 3:5.181965 
1 1:0 2:1 3:4.437862 
1 1:0 2:1 3:4.437862 
1 1:0 2:1 3:4.437862 
1 1:0 2:1 3:4.437862 
1 1:0 2:1 3:1.075056 
1 1:1 2:2 3:5.165071 
1 1:1 2:9 3:5.714286 
1 1:15 2:5 3:9.416099 
1 1:27 2:37 3:53.52381 
1 1:16 2:18 3:13.090203 
1 1:28 2:6 3:26.906896 
1 1:15 2:3 3:7.9304 
1 1:24 2:3 3:41.708455 
1 1:25 2:1 3:45.869234 
1 1:10 2:11 3:6.137787 
1 1:25 2:46 3:1.225093 
1 1:18 2:10 3:12.27417 
1 1:6 2:25 3:6.695766 
1 1:0 2:1 3:0.430645 
1 1:29 2:12 3:38.691251 
1 1:0 2:44 3:14.316974 
1 1:11 2:20 3:5.389035 
1 1:0 2:5 3:1.869951 
1 1:28 2:5 3:30.037521 
1 1:18 2:4 3:10.104935 
1 1:12 2:3 3:19.653736 
1 1:11 2:5 3:5.989796 
1 1:18 2:7 3:20.160539 
1 1:6 2:17 3:5.666772 
1 1:23 2:9 3:32.640903 
1 1:9 2:6 3:6.462383 
1 1:19 2:7 3:12.50908 
1 1:0 2:1 3:0.437272 
1 1:11 2:1 3:6.153843 
1 1:14 2:22 3:4.074789 
1 1:8 2:1 3:4.690909 
1 1:24 2:8 3:30.905296 
1 1:16 2:38 3:4.791826 
1 1:24 2:6 3:28.660465 
1 1:14 2:51 3:37.047619 
1 1:10 2:23 3:4.614254 
1 1:14 2:21 3:7.88243 
1 1:29 2:10 3:36.862083 
1 1:19 2:8 3:12.908365 
1 1:43 2:12 3:46.511594 
1 1:27 2:34 3:54.017101 
1 1:22 2:9 3:43.735893 
1 1:15 2:5 3:5.941776 
1 1:38 2:6 3:40.212509 
1 1:37 2:7 3:43.191733 
1 1:14 2:3 3:6.945744 
1 1:25 2:33 3:33.16875 
1 1:37 2:9 3:44.741092 
1 1:11 2:3 3:11.109348 
1 1:12 2:7 3:5.036203 
1 1:5 2:15 3:2.160319 
1 1:15 2:16 3:5.441453 
1 1:20 2:7 3:20.518597 
1 1:21 2:16 3:30.679591 
1 1:18 2:7 3:20.633462 
1 1:8 2:2 3:21.710593 
1 1:23 2:13 3:13.37501 
1 1:8 2:8 3:3.080229 
1 1:10 2:27 3:7.501491 
1 1:2 2:38 3:39.285714 
1 1:39 2:16 3:35.050739 
1 1:0 2:12 3:6.546201 
1 1:13 2:9 3:13.596594 
1 1:17 2:16 3:28.549442 
1 1:14 2:6 3:3.959686 
1 1:8 2:18 3:2.150886 
1 1:14 2:26 3:9.392746 
1 1:7 2:5 3:2.747327 
1 1:13 2:26 3:3.727242 
1 1:8 2:11 3:5.625337 
1 1:0 2:1 3:0.93137 
1 1:16 2:3 3:9.068893 
1 1:8 2:1 3:3.061495 
1 1:11 2:3 3:7.163884 
1 1:16 2:3 3:11.235105 
1 1:19 2:48 3:42.328632 
1 1:28 2:5 3:20.423771 
1 1:0 2:1 3:1.320476 
1 1:0 2:1 3:1.967882 
1 1:18 2:4 3:6.16138 
1 1:11 2:1 3:7.323911 
1 1:10 2:21 3:6.345854 
1 1:24 2:6 3:30.497999 
1 1:26 2:34 3:39.333333 
1 1:16 2:6 3:10.417974 
1 1:5 2:1 3:5.36198 
1 1:38 2:1 3:33.665804 
1 1:10 2:24 3:2.730395 
1 1:12 2:27 3:4.627463 
1 1:7 2:14 3:1.100376 
1 1:6 2:16 3:3.438469 
1 1:17 2:6 3:7.424937 
1 1:21 2:54 3:49.122572 
1 1:24 2:6 3:31.05279 
1 1:8 2:6 3:3.142103 
1 1:15 2:4 3:6.927277 
1 1:18 2:24 3:10.27256 
1 1:23 2:19 3:28.141615 
1 1:21 2:3 3:10.253292 
1 1:15 2:1 3:9.810476 
1 1:0 2:19 3:2.169236 
1 1:0 2:1 3:3.498666 
1 1:0 2:1 3:3.089259 
1 1:0 2:1 3:3.662221 
1 1:22 2:42 3:36.52381 
1 1:1 2:13 3:29.999114 
1 1:3 2:2 3:19.553328 
1 1:19 2:40 3:43.328232 
1 1:12 2:16 3:4.623763 
1 1:4 2:2 3:26.634894 
1 1:21 2:10 3:21.531943 
1 1:9 2:4 3:2.293816 
1 1:22 2:7 3:9.371627 
1 1:27 2:7 3:33.451667 
1 1:11 2:7 3:2.587686 
1 1:30 2:6 3:39.930695 
1 1:3 2:15 3:4.455593 
1 1:10 2:6 3:6.471717 
1 1:22 2:36 3:39.333333 
1 1:15 2:1 3:25.50753 
1 1:31 2:8 3:38.094607 
1 1:17 2:43 3:38.830698 
1 1:25 2:41 3:39.21416 
1 1:16 2:11 3:5.716733 
1 1:6 2:2 3:5.144299 
1 1:16 2:19 3:11.604526 
1 1:9 2:13 3:7.810224 
1 1:0 2:1 3:0.638352 
1 1:4 2:14 3:2.244517 
1 1:44 2:5 3:42.484474 
1 1:19 2:7 3:6.570175 
1 1:8 2:26 3:7.25423 
1 1:18 2:2 3:4.510928 
1 1:14 2:25 3:12.141318 
1 1:25 2:29 3:48.904762 
1 1:32 2:12 3:33.521266 
1 1:9 2:23 3:7.380832 
1 1:22 2:34 3:11.492315 
1 1:0 2:1 3:0.756021 
1 1:21 2:2 3:7.390734 
1 1:53 2:93 3:41.514908 
1 1:42 2:26 3:2.633514 
1 1:2 2:494 3:0.525389 
1 1:17 2:1154 3:2.488036 
1 1:10 2:11 3:18.823487 
1 1:0 2:1 3:0.519433 
1 1:12 2:22 3:4.399593 
1 1:16 2:42 3:18.279629 
1 1:9 2:25 3:2.314367 
1 1:13 2:30 3:11.859437 
1 1:3 2:21 3:16.571429 
1 1:14 2:48 3:8.695794 
1 1:17 2:2 3:8.387611 
1 1:22 2:8 3:32.272605 
1 1:12 2:31 3:7.229144 
1 1:27 2:24 3:18.166017 
1 1:8 2:13 3:27.8 
1 1:10 2:12 3:10.912917 
1 1:12 2:23 3:13.397526 
1 1:29 2:44 3:24.633429 
1 1:0 2:1 3:5.053736 
1 1:23 2:3 3:9.164607 
1 1:0 2:1 3:0.508064 
1 1:8 2:7 3:4.372742 
1 1:19 2:49 3:46.142857 
1 1:0 2:3 3:0.686575 
1 1:2 2:10 3:19.00494 
1 1:29 2:22 3:32.313827 
1 1:24 2:11 3:36.244338 
1 1:29 2:3 3:49.916717 
1 1:8 2:5 3:1.091422 
1 1:30 2:13 3:40.905871 
1 1:0 2:1 3:0.478595 
1 1:4 2:28 3:0.685149 
1 1:8 2:24 3:5.026642 
1 1:17 2:5 3:13.278641 
1 1:32 2:6 3:31.86605 
1 1:20 2:7 3:34.289591 
1 1:8 2:1 3:37.714286 
1 1:7 2:1 3:3.517159 
1 1:1 2:1 3:1.133115 
1 1:6 2:21 3:3.833479 
1 1:12 2:1 3:13.87618 
1 1:14 2:24 3:6.93927 
1 1:8 2:5 3:6.679203 
1 1:4 2:24 3:5.646678 
1 1:0 2:1 3:4.091646 
1 1:10 2:18 3:6.953053 
1 1:8 2:26 3:4.793558 
1 1:21 2:6 3:7.297256 
1 1:26 2:20 3:15.137665 
1 1:12 2:19 3:4.88067 
1 1:16 2:8 3:10.802882 
1 1:0 2:1 3:0.788845 
1 1:0 2:10 3:2.483783 
1 1:23 2:46 3:46.190476 
1 1:0 2:32 3:3.659315 
1 1:16 2:6 3:7.999991 
1 1:30 2:41 3:60.333333 
1 1:7 2:1 3:2.826393 
1 1:0 2:1 3:1.299862 
1 1:23 2:49 3:14.663026 
1 1:0 2:1 3:1.515828 
1 1:33 2:9 3:42.606942 
1 1:0 2:5 3:7.408303 
1 1:0 2:1 3:115.19406 
1 1:0 2:1 3:7.389876 
1 1:0 2:1 3:4.847831 
1 1:0 2:1 3:32.336999 
1 1:0 2:2 3:4.847831 
1 1:0 2:10 3:35.051488 
1 1:0 2:10 3:35.051488 
1 1:0 2:1 3:0.957761 
1 1:0 2:1 3:5.050094 
1 1:0 2:1 3:23.079951 
1 1:0 2:1 3:23.079951 
1 1:0 2:3 3:23.079951 
1 1:0 2:3 3:23.079951 
1 1:0 2:1 3:127.29651 
1 1:0 2:2 3:1.29175 
1 1:0 2:2 3:6.444706 
1 1:0 2:1 3:9.972123 
1 1:0 2:7 3:3.861738 
1 1:0 2:7 3:3.861738 
1 1:0 2:2 3:10.518487 
1 1:0 2:1 3:2.590567 
1 1:0 2:1 3:1.730449 
1 1:0 2:2 3:96.478766 
1 1:0 2:3 3:23.079951 
1 1:0 2:1 3:2.446263 
1 1:11 2:4 3:12.940596 
1 1:14 2:1 3:5.323052 
1 1:24 2:17 3:38.809524 
1 1:0 2:1 3:1.382127 
1 1:0 2:1 3:0.523713 
1 1:15 2:40 3:32.6 
1 1:7 2:51 3:45.85 
1 1:0 2:28 3:4.526656 
1 1:0 2:1 3:1.511596 
1 1:3 2:1 3:17.791331 
1 1:0 2:3 3:3.103409 
1 1:0 2:4 3:3.157355 
1 1:9 2:9 3:10.378578 
1 1:0 2:1 3:1.321425 
1 1:0 2:2 3:1.570371 
1 1:0 2:5 3:1.570371 
1 1:0 2:10 3:2.326554 
1 1:0 2:1 3:3.247736 
1 1:0 2:1 3:2.014139 
1 1:0 2:1 3:3.247736 
1 1:0 2:1 3:0.992252 
1 1:0 2:1 3:7.048879 
1 1:0 2:3 3:3.777098 
1 1:19 2:16 3:10.487718 
1 1:0 2:2 3:66.743691 
1 1:21 2:14 3:59.95733 
1 1:0 2:1 3:1.198827 
1 1:0 2:1 3:0.46754 
1 1:1 2:3 3:27.850765 
1 1:22 2:32 3:31.380285 
1 1:0 2:1 3:0.41311 
1 1:9 2:3 3:4.272995 
1 1:15 2:6 3:10.940137 
1 1:12 2:17 3:9.42564 
1 1:1 2:8 3:2.261016 
1 1:1 2:11 3:1.315397 
1 1:26 2:37 3:43.985506 
1 1:14 2:7 3:7.929811 
1 1:40 2:10 3:54.406011 
1 1:7 2:30 3:2.811389 
1 1:0 2:8 3:62.820381 
1 1:11 2:1 3:7.036684 
1 1:8 2:20 3:3.606837 
1 1:4 2:23 3:5.3169 
1 1:26 2:45 3:33.394852 
1 1:27 2:20 3:23.710968 
1 1:26 2:4 3:32.372702 
1 1:18 2:8 3:7.190731 
1 1:14 2:3 3:2.690864 
1 1:17 2:36 3:3.140577 
1 1:26 2:15 3:29.296243 
1 1:1 2:1 3:0.486235 
1 1:0 2:1 3:4.788815 
1 1:0 2:1 3:4.788815 
1 1:0 2:1 3:4.788815 
1 1:0 2:1 3:4.788815 
1 1:11 2:28 3:7.281311 
1 1:16 2:2 3:8.67871 
1 1:12 2:60 3:45 
1 1:39 2:8 3:47.686334 
1 1:1 2:14 3:9.69037 
1 1:8 2:22 3:5.309995 
1 1:15 2:17 3:13.323962 
1 1:0 2:3 3:4.633409 
1 1:0 2:52 3:2.224872 
1 1:0 2:17 3:0.739275 
1 1:2 2:21 3:4.568727 
1 1:1 2:13 3:11.516985 
1 1:3 2:1 3:22.984716 
1 1:1 2:7 3:68.106353 
1 1:1 2:1 3:30.417867 
1 1:0 2:2 3:18.993558 
1 1:2 2:25 3:5.92526 
1 1:1 2:22 3:8.823278 
1 1:1 2:4 3:2.780974 
1 1:0 2:1 3:0.522775 
1 1:0 2:5 3:3.156477 
1 1:28 2:33 3:25.055198 
1 1:0 2:1 3:34.586145 
1 1:23 2:11 3:9.195686 
1 1:20 2:6 3:31.692294 
1 1:9 2:43 3:24.686662 
1 1:0 2:30 3:2.225165 
1 1:2 2:1 3:4.58341 
1 1:5 2:3 3:2.856362 
1 1:2 2:10 3:0.714329 
1 1:34 2:9 3:22.530285 
1 1:26 2:1 3:14.681025 
1 1:2 2:19 3:6.109025 
1 1:27 2:6 3:39.785493 
1 1:24 2:8 3:35.659833 
1 1:21 2:22 3:29.141112 
1 1:20 2:2 3:8.343445 
1 1:24 2:39 3:33.238095 
1 1:26 2:22 3:54.398998 
1 1:17 2:9 3:15.574228 
1 1:0 2:1 3:1.348589 
1 1:6 2:6 3:6.199493 
1 1:20 2:12 3:50.040901 
1 1:0 2:2 3:1.292877 
1 1:0 2:2 3:0.475337 
1 1:0 2:1 3:0.518854 
1 1:10 2:10 3:25.129812 
1 1:14 2:6 3:7.748486 
1 1:12 2:2 3:5.226889 
1 1:14 2:3 3:6.523835 
1 1:23 2:4 3:7.955052 
1 1:0 2:40 3:4.874544 
1 1:20 2:20 3:1.310862 
1 1:0 2:1 3:4.735436 
1 1:13 2:2 3:7.662956 
1 1:7 2:29 3:5.509246 
1 1:31 2:37 3:23.709271 
1 1:42 2:8 3:46.031844 
1 1:13 2:1 3:3.148928 
1 1:18 2:6 3:7.788853 
1 1:25 2:20 3:14.288644 
1 1:11 2:4 3:2.09208 
1 1:13 2:5 3:7.751895 
1 1:0 2:1 3:0.839331 
1 1:23 2:8 3:22.080422 
1 1:21 2:36 3:37.047619 
1 1:10 2:24 3:5.595909 
1 1:12 2:3 3:6.308503 
1 1:14 2:8 3:15.907206 
1 1:2 2:17 3:6.039212 
1 1:13 2:15 3:30.339249 
1 1:1 2:1 3:1.812394 
1 1:0 2:1 3:3.850157 
1 1:0 2:1 3:1.454023 
1 1:36 2:2 3:49.017522 
1 1:1 2:11 3:10.371573 
1 1:0 2:1 3:2.848369 
1 1:2 2:1 3:14.077022 
1 1:0 2:1 3:9.022504 
1 1:0 2:2 3:3.174118 
1 1:26 2:36 3:34.984833 
1 1:0 2:1 3:0.720578 
1 1:0 2:1 3:0.411562 
1 1:24 2:14 3:40.9 
1 1:0 2:2 3:4.701755 
1 1:0 2:2 3:4.701755 
1 1:0 2:2 3:4.701755 
1 1:0 2:2 3:4.701755 
1 1:0 2:15 3:6.23576 
1 1:12 2:11 3:0.669724 
1 1:3 2:1 3:19.298758 
1 1:0 2:8 3:0.450569 
1 1:0 2:1 3:1.176544 
1 1:5 2:18 3:0.765728 
1 1:0 2:2 3:16.148312 
1 1:0 2:1 3:22.93766 
1 1:0 2:1 3:29.619048 
1 1:0 2:1 3:6.12462 
1 1:0 2:1 3:6.12462 
1 1:12 2:20 3:1.212851 
1 1:0 2:2 3:3.894314 
1 1:0 2:1 3:10.990598 
1 1:0 2:1 3:2.760226 
1 1:0 2:2 3:2.623723 
1 1:0 2:2 3:2.623723 
1 1:0 2:1 3:2.962376 
1 1:0 2:1 3:28.876807 
1 1:10 2:43 3:39.15 
1 1:14 2:8 3:4.939578 
1 1:12 2:4 3:2.61984 
1 1:26 2:10 3:26.886109 
1 1:1 2:1 3:0.456143 
1 1:25 2:5 3:11.586804 
1 1:12 2:2 3:53.657592 
1 1:1 2:32 3:31.242968 
1 1:27 2:35 3:45.52381 
1 1:0 2:1 3:1.940163 
1 1:8 2:1 3:9.101734 
1 1:29 2:9 3:33.482499 
1 1:10 2:24 3:4.38884 
1 1:21 2:37 3:44.811727 
1 1:8 2:8 3:9.694771 
1 1:0 2:13 3:3.554311 
1 1:12 2:25 3:5.453084 
1 1:16 2:18 3:7.886314 
1 1:1 2:3 3:2.154172 
1 1:32 2:7 3:40.281929 
1 1:18 2:14 3:13.500377 
1 1:12 2:1 3:7.817519 
1 1:1 2:1 3:8.363597 
1 1:17 2:2 3:4.165907 
1 1:24 2:12 3:24.066885 
1 1:25 2:280 3:1.882709 
1 1:1 2:8 3:2.410557 
1 1:3 2:4 3:1.243533 
1 1:1 2:1 3:8.986625 
1 1:1 2:2 3:11.751455 
1 1:26 2:15 3:44.048292 
1 1:9 2:20 3:5.568175 
1 1:16 2:2 3:4.661816 
1 1:10 2:11 3:7.847633 
1 1:33 2:3 3:29.131545 
1 1:0 2:23 3:3.35294 
1 1:22 2:14 3:21.142182 
1 1:24 2:1 3:41.855073 
1 1:11 2:22 3:5.987472 
1 1:0 2:1 3:0.570747 
1 1:28 2:19 3:37.25 
1 1:16 2:17 3:5.907537 
1 1:21 2:11 3:23.655095 
1 1:34 2:28 3:39.930695 
1 1:13 2:6 3:3.753355 
1 1:15 2:27 3:6.006895 
1 1:0 2:1 3:0.734699 
1 1:1 2:1 3:1.285893 
1 1:9 2:3 3:4.562354 
1 1:0 2:1 3:0.420425 
1 1:22 2:9 3:34.680672 
1 1:35 2:7 3:30.305985 
1 1:4 2:28 3:7.150461 
1 1:8 2:19 3:2.791415 
1 1:20 2:15 3:49.0964 
1 1:33 2:7 3:66.92019 
1 1:8 2:41 3:1.087555 
1 1:18 2:34 3:33.75 
1 1:15 2:11 3:7.10595 
1 1:11 2:7 3:2.312335 
1 1:13 2:3 3:4.553872 
1 1:18 2:2 3:4.512785 
1 1:6 2:10 3:6.06746 
1 1:21 2:5 3:7.764316 
1 1:4 2:41 3:36.295316 
1 1:35 2:12 3:22.100483 
1 1:13 2:2 3:35.790576 
1 1:7 2:18 3:5.864674 
1 1:28 2:8 3:38.143199 
1 1:1 2:5 3:5.011531 
1 1:23 2:4 3:3.787766 
1 1:9 2:26 3:8.56968 
1 1:16 2:4 3:8.370117 
1 1:10 2:3 3:4.654348 
1 1:8 2:2 3:3.226157 
1 1:19 2:49 3:27.829413 
1 1:22 2:42 3:56.879632 
1 1:7 2:30 3:7.217301 
1 1:11 2:3 3:6.42359 
1 1:18 2:22 3:4.623554 
1 1:19 2:39 3:42.1 
1 1:23 2:11 3:23.002954 
1 1:25 2:49 3:53.117895 
1 1:26 2:4 3:16.11931 
1 1:12 2:2 3:39.661563 
1 1:1 2:7 3:8.866412 
1 1:0 2:9 3:10.799942 
1 1:0 2:1 3:1.877443 
1 1:29 2:17 3:32.245695 
1 1:0 2:1 3:7.451799 
1 1:0 2:1 3:0.486897 
1 1:23 2:1 3:44.8 
1 1:14 2:10 3:50.067326 
1 1:28 2:2 3:33.654612 
1 1:29 2:9 3:26.271132 
1 1:13 2:11 3:3.802561 
1 1:10 2:22 3:7.330131 
1 1:12 2:3 3:5.800962 
1 1:21 2:7 3:7.273766 
1 1:39 2:5 3:46.370336 
1 1:9 2:7 3:3.554458 
1 1:14 2:1 3:8.695496 
1 1:39 2:3 3:48.837123 
1 1:6 2:13 3:37.55 
1 1:8 2:13 3:8.210216 
1 1:32 2:8 3:41.042635 
1 1:22 2:15 3:6.318803 
1 1:11 2:18 3:5.995844 
1 1:7 2:6 3:3.644017 
1 1:14 2:9 3:7.211492 
1 1:14 2:3 3:6.837999 
1 1:5 2:25 3:7.349839 
1 1:24 2:5 3:33.366627 
1 1:11 2:24 3:10.489018 
1 1:22 2:7 3:29.876639 
1 1:2 2:2 3:1.424136 
1 1:17 2:5 3:11.485132 
1 1:8 2:1 3:2.709677 
1 1:0 2:1 3:5.297962 
1 1:0 2:32 3:3.709509 
1 1:0 2:1 3:91.461639 
1 1:19 2:51 3:4.7969 
1 1:0 2:1 3:0.538491 
1 1:0 2:4 3:6.043997 
1 1:0 2:2 3:6.043997 
1 1:32 2:39 3:48.761905 
1 1:2 2:34 3:6.156179 
1 1:33 2:13 3:33.082107 
1 1:33 2:4 3:50.75 
1 1:0 2:1 3:0.871259 
1 1:16 2:5 3:8.783942 
1 1:22 2:3 3:10.862259 
1 1:13 2:8 3:6.237694 
1 1:28 2:10 3:28.76148 
1 1:34 2:13 3:31.884595 
1 1:0 2:1 3:2.941468 
1 1:30 2:7 3:34.241269 
1 1:0 2:3 3:4.02426 
1 1:8 2:9 3:9.546132 
1 1:1 2:11 3:18.955713 
1 1:14 2:1 3:14.750093 
1 1:25 2:52 3:35.868783 
1 1:4 2:29 3:4.874827 
1 1:11 2:1 3:5.302626 
1 1:3 2:19 3:5.261489 
1 1:15 2:5 3:7.800072 
1 1:38 2:67 3:4.025703 
1 1:28 2:8 3:42.047619 
1 1:24 2:48 3:35.936365 
1 1:4 2:42 3:34.047619 
1 1:2 2:8 3:9.64163 
1 1:28 2:11 3:22.414451 
1 1:2 2:1 3:0.495198 
1 1:29 2:9 3:41.281846 
1 1:3 2:25 3:2.011829 
1 1:9 2:11 3:8.777777 
1 1:0 2:1 3:0.612818 
1 1:21 2:13 3:30.836651 
1 1:5 2:26 3:7.063941 
1 1:0 2:1 3:1.686022 
1 1:0 2:1 3:1.97114 
1 1:0 2:1 3:2.704832 
1 1:0 2:2 3:1.730282 
1 1:11 2:19 3:7.924708 
1 1:5 2:17 3:2.650067 
1 1:0 2:2 3:19.808395 
1 1:0 2:1 3:100.16583 
1 1:19 2:14 3:11.00875 
1 1:8 2:20 3:1.77986 
1 1:83 2:240 3:5.246448 
1 1:1270 2:15961 3:147.9 
1 1:16 2:2 3:3.93746 
1 1:18 2:14 3:3.327638 
1 1:1 2:45 3:6.982137 
1 1:1 2:1 3:7.642225 
1 1:3 2:1 3:0.772797 
1 1:4 2:1 3:2.299021 
1 1:5 2:2 3:5.867296 
1 1:71 2:21 3:7.575637 
1 1:171 2:58 3:3.014361 
1 1:0 2:1 3:1.286355 
1 1:0 2:8 3:1.286355 
1 1:3 2:14 3:1.444854 
1 1:0 2:1 3:1.467787 
1 1:3 2:8 3:4.549449 
1 1:0 2:2 3:41.261694 
1 1:2 2:3 3:55.856622 
1 1:1 2:1 3:9.588045 
1 1:1 2:470 3:0.820111 
1 1:1 2:1 3:6.797606 
1 1:4 2:1 3:0.875686 
1 1:7 2:2 3:1.148585 
1 1:1 2:1 3:0.71357 
1 1:6 2:6 3:5.037969 
1 1:9 2:127 3:3.813954 
1 1:1 2:385 3:18.519561 
1 1:1 2:1 3:3.74845 
1 1:5 2:85 3:0.951788 
1 1:1 2:1 3:2.916779 
1 1:1 2:1 3:1.301861 
1 1:49 2:23 3:13.186487 
1 1:7 2:3 3:0.689113 
1 1:0 2:1 3:77.206476 
1 1:1 2:1 3:5.620188 
1 1:0 2:1 3:5.971972 
1 1:1 2:1 3:11.901553 
1 1:0 2:5 3:3.026105 
1 1:0 2:1 3:5.914506 
1 1:15 2:5 3:138.48933 
1 1:0 2:1 3:7.840851 
1 1:0 2:1 3:7.840851 
1 1:15 2:14 3:8.069764 
1 1:33 2:3 3:39.814772 
1 1:21 2:50 3:42.971183 
1 1:37 2:9 3:49.493188 
1 1:33 2:70 3:0.564102 
1 1:7 2:56 3:21.095238 
1 1:0 2:1 3:0.417953 
1 1:31 2:3 3:57.8 
1 1:37 2:46 3:30.650936 
1 1:8 2:20 3:7.489837 
1 1:21 2:5 3:31.367125 
1 1:8 2:18 3:7.249513 
1 1:1 2:1 3:8.868358 
1 1:7 2:5 3:3.082183 
1 1:8 2:1 3:4.156043 
1 1:0 2:1 3:2.755329 
1 1:2 2:2 3:0.559451 
1 1:28 2:26 3:14.191776 
1 1:8 2:23 3:2.490322 
1 1:6 2:22 3:7.215143 
1 1:14 2:10 3:19.68247 
1 1:23 2:1 3:55.857143 
1 1:1 2:4 3:10.690892 
1 1:0 2:1 3:0.653477 
1 1:14 2:43 3:14.327971 
1 1:31 2:40 3:30.235814 
1 1:5 2:1 3:1.783312 
1 1:1 2:2 3:3.887965 
1 1:0 2:1 3:0.984598 
1 1:0 2:2 3:1.75448 
1 1:0 2:1 3:2.767761 
1 1:0 2:1 3:9.588156 
1 1:0 2:3 3:4.4602 
1 1:0 2:4 3:0.595757 
1 1:0 2:2 3:10.348675 
1 1:0 2:1 3:1.005081 
1 1:0 2:1 3:6.375621 
1 1:0 2:1 3:135.44332 
1 1:0 2:1 3:5.096767 
1 1:2 2:8 3:1.244743 
1 1:0 2:1 3:0.436393 
1 1:21 2:42 3:39.901128 
1 1:4 2:24 3:1.615088 
1 1:0 2:1 3:0.548405 
1 1:25 2:1 3:50.714286 
1 1:27 2:17 3:51.621169 
1 1:13 2:4 3:7.236166 
1 1:17 2:3 3:9.776669 
1 1:16 2:9 3:10.962678 
1 1:19 2:23 3:13.254198 
1 1:5 2:19 3:2.881626 
1 1:15 2:10 3:6.169732 
1 1:4 2:26 3:7.075106 
1 1:0 2:16 3:0.642448 
1 1:22 2:13 3:20.3895 
1 1:0 2:1 3:1.543229 
1 1:20 2:5 3:9.676475 
1 1:10 2:11 3:2.666438 
1 1:6 2:2 3:7.414415 
1 1:10 2:27 3:6.767322 
1 1:7 2:22 3:7.806446 
1 1:0 2:8 3:36.671431 
1 1:0 2:2 3:13.61185 
1 1:1 2:1 3:41.667349 
1 1:5 2:4 3:8.973616 
1 1:8 2:1 3:8.581085 
1 1:2 2:10 3:15.296273 
1 1:2 2:3 3:58.664956 
1 1:10 2:1 3:9.323584 
1 1:1 2:4 3:54.910309 
1 1:14 2:5 3:8.768836 
1 1:2 2:68 3:6.359314 
1 1:14 2:1 3:68.532562 
1 1:2 2:1 3:1.547779 
-1 1:0 2:1 3:0.401719 
-1 1:1 2:0 3:0.252599 
-1 1:1 2:0 3:0.195244 
-1 1:1 2:0 3:0.325988 
-1 1:1 2:0 3:0.331742 
-1 1:0 2:1 3:0.402786 
-1 1:0 2:1 3:0.40321 
-1 1:0 2:1 3:0.404215 
-1 1:1 2:0 3:0.292428 
-1 1:1 2:0 3:0.261018 
-1 1:1 2:0 3:0.355522 
-1 1:0 2:1 3:0.406926 
-1 1:0 2:1 3:0.402679 
-1 1:1 2:0 3:0.178778 
-1 1:0 2:1 3:0.408661 
-1 1:0 2:1 3:0.411085 
-1 1:0 2:1 3:0.410004 
-1 1:1 2:0 3:0.2637 
-1 1:0 2:1 3:0.404494 
-1 1:0 2:1 3:0.401548 
-1 1:1 2:0 3:0.210837 
-1 1:1 2:0 3:0.243005 
-1 1:0 2:1 3:0.405534 
-1 1:1 2:0 3:0.186145 
-1 1:1 2:0 3:0.364776 
-1 1:0 2:1 3:0.401542 
-1 1:1 2:0 3:0.27315 
-1 1:1 2:0 3:0.186081 
-1 1:0 2:1 3:0.40978 
-1 1:1 2:0 3:0.184753 
-1 1:0 2:1 3:0.4034 
-1 1:0 2:1 3:0.406879 
-1 1:0 2:1 3:0.40698 
-1 1:0 2:1 3:0.405177 
-1 1:0 2:1 3:0.404507 
-1 1:1 2:0 3:0.405731 
-1 1:0 2:1 3:0.403187 
-1 1:0 2:1 3:0.407173 
-1 1:1 2:0 3:0.283048 
-1 1:1 2:0 3:0.21333 
-1 1:1 2:0 3:0.288412 
-1 1:1 2:0 3:0.346856 
-1 1:0 2:1 3:0.406173 
-1 1:0 2:1 3:0.406107 
-1 1:0 2:1 3:0.404102 
-1 1:0 2:1 3:0.400964 
-1 1:1 2:0 3:0.243098 
-1 1:0 2:1 3:0.404225 
-1 1:0 2:1 3:0.40118 
-1 1:0 2:1 3:0.406685 
-1 1:0 2:1 3:0.407943 
-1 1:1 2:0 3:0.180501 
-1 1:1 2:0 3:0.183264 
-1 1:0 2:1 3:0.402461 
-1 1:0 2:1 3:0.403484 
-1 1:0 2:1 3:0.406398 
-1 1:0 2:1 3:0.41109 
-1 1:0 2:1 3:0.409589 
-1 1:0 2:1 3:0.403096 
-1 1:0 2:1 3:0.406496 
-1 1:1 2:0 3:0.187694 
-1 1:0 2:1 3:0.401992 
-1 1:1 2:0 3:0.189796 
-1 1:0 2:1 3:0.401538 
-1 1:1 2:0 3:0.258094 
-1 1:0 2:1 3:0.409015 
-1 1:1 2:0 3:0.281956 
-1 1:0 2:1 3:0.402173 
-1 1:1 2:0 3:0.281118 
-1 1:0 2:1 3:0.40201 
-1 1:0 2:1 3:0.410803 
-1 1:0 2:1 3:0.410332 
-1 1:0 2:1 3:0.408168 
-1 1:0 2:1 3:0.406248 
-1 1:1 2:0 3:0.393365 
-1 1:0 2:1 3:0.403322 
-1 1:0 2:1 3:0.408217 
-1 1:0 2:1 3:0.410929 
-1 1:0 2:1 3:0.404885 
-1 1:0 2:1 3:0.405145 
-1 1:0 2:1 3:0.404648 
-1 1:0 2:1 3:0.40852 
-1 1:0 2:1 3:0.41032 
-1 1:0 2:1 3:0.403447 
-1 1:0 2:1 3:0.406783 
-1 1:1 2:0 3:0.196774 
-1 1:1 2:0 3:0.27187 
-1 1:0 2:1 3:0.405145 
-1 1:0 2:1 3:0.409897 
-1 1:0 2:1 3:0.410036 
-1 1:0 2:1 3:0.405041 
-1 1:0 2:1 3:0.403645 
-1 1:1 2:0 3:0.225451 
-1 1:0 2:1 3:0.405137 
-1 1:0 2:1 3:0.403827 
-1 1:0 2:1 3:0.408548 
-1 1:1 2:0 3:0.250876 
-1 1:0 2:1 3:0.409453 
-1 1:0 2:1 3:0.405426 
-1 1:0 2:1 3:0.403612 
-1 1:0 2:1 3:0.402182 
-1 1:1 2:0 3:0.310335 
-1 1:0 2:1 3:0.401848 
-1 1:0 2:1 3:0.401947 
-1 1:0 2:1 3:0.402274 
-1 1:0 2:1 3:0.403763 
-1 1:1 2:0 3:0.302645 
-1 1:1 2:0 3:0.208205 
-1 1:1 2:0 3:0.309575 
-1 1:0 2:1 3:0.409136 
-1 1:0 2:1 3:0.406395 
-1 1:0 2:1 3:0.403033 
-1 1:0 2:1 3:0.407088 
-1 1:0 2:1 3:0.404501 
-1 1:0 2:1 3:0.408066 
-1 1:1 2:0 3:0.292597 
-1 1:1 2:0 3:0.33899 
-1 1:0 2:1 3:0.407686 
-1 1:0 2:1 3:0.407232 
-1 1:0 2:1 3:0.40886 
-1 1:0 2:1 3:0.408205 
-1 1:0 2:1 3:0.410553 
-1 1:0 2:1 3:0.41019 
-1 1:1 2:0 3:0.276509 
-1 1:0 2:1 3:0.402182 
-1 1:0 2:1 3:0.40368 
-1 1:1 2:0 3:0.323292 
-1 1:1 2:0 3:0.322103 
-1 1:0 2:1 3:0.410808 
-1 1:0 2:1 3:0.405846 
-1 1:1 2:0 3:0.197845 
-1 1:1 2:0 3:0.213943 
-1 1:1 2:0 3:0.309203 
-1 1:0 2:1 3:0.401323 
-1 1:0 2:1 3:0.402224 
-1 1:0 2:1 3:0.401575 
-1 1:0 2:1 3:0.407232 
-1 1:1 2:0 3:0.308233 
-1 1:0 2:1 3:0.404027 
-1 1:0 2:1 3:0.403859 
-1 1:0 2:1 3:0.405382 
-1 1:0 2:1 3:0.411216 
-1 1:1 2:0 3:0.299622 
-1 1:0 2:1 3:0.406 
-1 1:0 2:1 3:0.403148 
-1 1:0 2:1 3:0.410934 
-1 1:0 2:1 3:0.406173 
-1 1:1 2:0 3:0.185013 
-1 1:1 2:0 3:0.181163 
-1 1:0 2:1 3:0.404624 
-1 1:0 2:1 3:0.402911 
-1 1:1 2:0 3:0.200449 
-1 1:1 2:0 3:0.183693 
-1 1:0 2:1 3:0.401603 
-1 1:0 2:1 3:0.406425 
-1 1:0 2:1 3:0.406503 
-1 1:0 2:1 3:0.408387 
-1 1:0 2:1 3:0.407801 
-1 1:0 2:1 3:0.402938 
-1 1:1 2:0 3:0.258394 
-1 1:0 2:1 3:0.401127 
-1 1:0 2:1 3:0.4055 
-1 1:1 2:0 3:0.289263 
-1 1:1 2:0 3:0.265851 
-1 1:0 2:1 3:0.404942 
-1 1:1 2:0 3:0.231877 
-1 1:1 2:0 3:0.196777 
-1 1:0 2:1 3:0.403939 
-1 1:1 2:0 3:0.186979 
-1 1:0 2:1 3:0.408095 
-1 1:1 2:0 3:0.332106 
-1 1:1 2:0 3:0.296881 
-1 1:1 2:0 3:0.261288 
-1 1:0 2:1 3:0.403806 
-0.6592841742870237 1:0 2:1 3:0.400935 
-1 1:0 2:1 3:0.402945 
-1 1:0 2:1 3:0.410888 
-1 1:0 2:1 3:0.407729 
-1 1:0 2:1 3:0.407339 
-1 1:0 2:1 3:0.40872 
-1 1:0 2:1 3:0.402046 
-1 1:0 2:1 3:0.40557 
-1 1:1 2:0 3:0.266151 
-1 1:0 2:1 3:0.408619 
-1 1:1 2:0 3:0.26376 
-1 1:0 2:1 3:0.401371 
-1 1:1 2:0 3:0.225155 
-1 1:0 2:1 3:0.405816 
-1 1:0 2:1 3:0.405883 
-1 1:1 2:0 3:0.208576 
-1 1:1 2:0 3:0.184467 
-1 1:0 2:1 3:0.410713 
-1 1:0 2:1 3:0.407472 
-1 1:0 2:1 3:0.405147 
-1 1:0 2:1 3:0.411253 
-1 1:0 2:1 3:0.401072 
-1 1:1 2:0 3:0.358127 
-1 1:1 2:0 3:0.373158 
-1 1:0 2:1 3:0.402925 
-1 1:1 2:0 3:0.288393 
-1 1:0 2:1 3:0.411078 
-1 1:1 2:0 3:0.217975 
-1 1:1 2:0 3:0.183599 
-1 1:0 2:1 3:0.406425 
-1 1:0 2:1 3:0.410175 
-1 1:1 2:0 3:0.25548 
-1 1:0 2:1 3:0.402509 
-1 1:1 2:0 3:0.329548 
-1 1:1 2:0 3:0.229643 
-1 1:0 2:1 3:0.407371 
-1 1:0 2:1 3:0.409583 
-1 1:0 2:1 3:0.402733 
-1 1:0 2:1 3:0.404933 
-1 1:0 2:1 3:0.407943 
-1 1:1 2:0 3:0.242422 
-1 1:1 2:0 3:0.200004 
-1 1:0 2:1 3:0.40399 
-1 1:0 2:1 3:0.407589 
-1 1:0 2:1 3:0.408205 
-1 1:1 2:0 3:0.22194 
-1 1:1 2:0 3:0.353179 
-1 1:0 2:1 3:0.410515 
-1 1:1 2:0 3:0.338342 
-1 1:0 2:1 3:0.4083 
-1 1:0 2:1 3:0.410156 
-1 1:1 2:0 3:0.382315 
-1 1:1 2:0 3:0.238272 
-1 1:0 2:1 3:0.408865 
-1 1:0 2:1 3:0.402088 
-1 1:1 2:0 3:0.234256 
-1 1:0 2:1 3:0.404172 
-1 1:0 2:1 3:0.406503 
-1 1:1 2:0 3:0.197413 
-1 1:1 2:0 3:0.334604 
-1 1:0 2:1 3:0.405648 
-1 1:1 2:0 3:0.328047 
-1 1:1 2:0 3:0.181498 
-1 1:0 2:1 3:0.409329 
-1 1:0 2:1 3:0.404424 
-1 1:0 2:1 3:0.40368 
-1 1:0 2:1 3:0.410756 
-1 1:1 2:0 3:0.39609 
-1 1:0 2:1 3:0.401755 
-1 1:0 2:1 3:0.403505 
-1 1:0 2:1 3:0.409522 
-1 1:1 2:0 3:0.203941 
-1 1:0 2:1 3:0.406551 
-1 1:0 2:1 3:0.409447 
-1 1:1 2:0 3:0.308084 
-1 1:0 2:1 3:0.408208 
-1 1:0 2:1 3:0.407892 
-1 1:0 2:1 3:0.410808 
-1 1:0 2:1 3:0.405591 
-1 1:0 2:1 3:0.407262 
-1 1:1 2:0 3:0.322184 
-1 1:1 2:0 3:0.232201 
-1 1:0 2:1 3:0.404959 
-1 1:0 2:1 3:0.409443 
-1 1:0 2:1 3:0.401479 
-1 1:1 2:0 3:0.286308 
-1 1:0 2:1 3:0.404077 
-1 1:1 2:0 3:0.296439 
-1 1:0 2:1 3:0.408581 
-1 1:0 2:1 3:0.404354 
-1 1:0 2:1 3:0.410498 
-1 1:0 2:1 3:0.404801 
-1 1:0 2:1 3:0.401572 
-1 1:0 2:1 3:0.405024 
-1 1:0 2:1 3:0.403255 
-1 1:1 2:0 3:0.378975 
-1 1:0 2:1 3:0.410934 
-1 1:0 2:1 3:0.405764 
-1 1:0 2:1 3:0.402945 
-1 1:0 2:1 3:0.402971 
-1 1:0 2:1 3:0.404531 
-1 1:0 2:1 3:0.40145 
-1 1:1 2:0 3:0.211487 
-1 1:1 2:0 3:0.353673 
-1 1:0 2:1 3:0.401774 
-1 1:1 2:0 3:0.404156 
-1 1:1 2:0 3:0.244754 
-1 1:1 2:0 3:0.18889 
-1 1:1 2:0 3:0.290722 
-1 1:1 2:0 3:0.215666 
-1 1:0 2:1 3:0.403827 
-1 1:0 2:1 3:0.408205 
-1 1:1 2:0 3:0.4034 
-1 1:0 2:1 3:0.409019 
-1 1:0 2:1 3:0.402302 
-1 1:0 2:1 3:0.401374 
-1 1:0 2:1 3:0.410628 
-1 1:0 2:1 3:0.402597 
-1 1:0 2:1 3:0.408744 
-1 1:0 2:1 3:0.405711 
-1 1:0 2:1 3:0.401911 
-1 1:1 2:0 3:0.399848 
-1 1:0 2:1 3:0.402224 
-1 1:1 2:0 3:0.382166 
-1 1:1 2:0 3:0.310699 
-1 1:1 2:0 3:0.236237 
-1 1:1 2:0 3:0.222657 
-1 1:0 2:1 3:0.403339 
-1 1:0 2:1 3:0.406793 
-1 1:0 2:1 3:0.404403 
-1 1:0 2:1 3:0.407943 
-1 1:0 2:1 3:0.408179 
-1 1:0 2:1 3:0.401495 
-1 1:0 2:1 3:0.407666 
-1 1:0 2:1 3:0.408268 
-1 1:0 2:1 3:0.401073 
-1 1:1 2:0 3:0.296878 
-1 1:0 2:1 3:0.407395 
-1 1:1 2:0 3:0.2296 
-1 1:0 2:1 3:0.40262 
-1 1:0 2:1 3:0.408978 
-1 1:0 2:1 3:0.411081 
-1 1:0 2:1 3:0.405382 
-1 1:0 2:1 3:0.404127 
-0.3407158257129763 1:1 2:0 3:0.17533 
-1 1:0 2:1 3:0.402013 
-1 1:0 2:1 3:0.407736 
-1 1:0 2:1 3:0.410483 
-1 1:0 2:1 3:0.406246 
-1 1:0 2:1 3:0.406782 
-1 1:1 2:0 3:0.220278 
-1 1:1 2:0 3:0.181871 
-1 1:1 2:0 3:0.192243 
-1 1:0 2:1 3:0.404777 
-1 1:0 2:1 3:0.401883 
-1 1:0 2:1 3:0.405222 
-1 1:0 2:1 3:0.41044 
-1 1:1 2:0 3:0.223463 
-1 1:1 2:0 3:0.249697 
-1 1:0 2:1 3:0.406934 
-1 1:0 2:1 3:0.406956 
-1 1:0 2:1 3:0.405852 
-1 1:0 2:1 3:0.401989 
-1 1:0 2:1 3:0.401338 
-1 1:0 2:1 3:0.409589 
-1 1:0 2:1 3:0.401572 
-1 1:0 2:1 3:0.402597 
-1 1:0 2:1 3:0.406026 
-1 1:0 2:1 3:0.405821 
-1 1:0 2:1 3:0.403342 
-1 1:0 2:1 3:0.408234 
-1 1:0 2:1 3:0.405339 
-1 1:1 2:0 3:0.253514 
-1 1:0 2:1 3:0.404947 
-1 1:1 2:0 3:0.342626 
-1 1:0 2:1 3:0.401799 
-1 1:0 2:1 3:0.410359 
-1 1:1 2:0 3:0.313971 
-1 1:0 2:1 3:0.40388 
-1 1:0 2:1 3:0.404531 
-1 1:0 2:1 3:0.407252 
-1 1:0 2:1 3:0.40373 
-1 1:1 2:0 3:0.361384 
-1 1:0 2:1 3:0.401572 
-1 1:0 2:1 3:0.411042 
-1 1:0 2:1 3:0.407535 
-1 1:0 2:1 3:0.405996 
-1 1:0 2:1 3:0.408188 
-1 1:0 2:1 3:0.401374 
-1 1:0 2:1 3:0.409638 
-1 1:1 2:0 3:0.200031 
-1 1:0 2:1 3:0.40481 
-1 1:0 2:1 3:0.406428 
-1 1:0 2:1 3:0.402565 
-1 1:0 2:1 3:0.406117 
-1 1:1 2:0 3:0.240747 
-1 1:1 2:0 3:0.244367 
-1 1:1 2:0 3:0.282136 
-1 1:1 2:0 3:0.400045 
-1 1:0 2:1 3:0.407514 
-1 1:0 2:1 3:0.407278 
-1 1:0 2:1 3:0.408878 
-1 1:0 2:1 3:0.40459 
-1 1:0 2:1 3:0.410445 
-1 1:0 2:1 3:0.409824 
-1 1:0 2:1 3:0.404698 
-1 1:0 2:1 3:0.409792 
-1 1:0 2:1 3:0.405456 
-1 1:1 2:0 3:0.247512 
-1 1:0 2:1 3:0.405008 
-1 1:0 2:1 3:0.410667 
-1 1:0 2:1 3:0.403154 
-1 1:1 2:0 3:0.307526 
-1 1:0 2:1 3:0.404085 
-1 1:0 2:1 3:0.404064 
-1 1:0 2:1 3:0.409527 
-1 1:0 2:1 3:0.410653 
-1 1:0 2:1 3:0.407008 
-1 1:1 2:0 3:0.269588 
-1 1:0 2:1 3:0.402317 
-1 1:1 2:0 3:0.295993 
-1 1:1 2:0 3:0.391254 
-1 1:0 2:1 3:0.401018 
-1 1:0 2:1 3:0.403806 
-1 1:1 2:0 3:0.369905 
-1 1:0 2:1 3:0.409917 
-1 1:0 2:1 3:0.406034 
-1 1:1 2:0 3:0.359141 
-1 1:1 2:0 3:0.321748 
-1 1:1 2:0 3:0.302031 
-1 1:1 2:0 3:0.296857 
-1 1:1 2:0 3:0.225432 
-1 1:1 2:0 3:0.205406 
-1 1:0 2:1 3:0.404633 
-1 1:0 2:1 3:0.40621 
-1 1:0 2:1 3:0.40315 
-1 1:0 2:1 3:0.403263 
-1 1:1 2:0 3:0.301622 
-1 1:1 2:0 3:0.347117 
-1 1:0 2:1 3:0.406859 
-1 1:1 2:0 3:0.35422 
-1 1:1 2:0 3:0.239571 
-1 1:0 2:1 3:0.402854 
-1 1:0 2:1 3:0.409998 
-1 1:0 2:1 3:0.406246 
-1 1:0 2:1 3:0.403804 
-1 1:0 2:1 3:0.402225 
-1 1:1 2:0 3:0.217809 
-1 1:0 2:1 3:0.410359 
-1 1:0 2:1 3:0.408825 
-1 1:1 2:0 3:0.243187 
-1 1:1 2:0 3:0.276645 
-1 1:0 2:1 3:0.403061 
-1 1:1 2:0 3:0.393812 
-1 1:0 2:1 3:0.406365 
-1 1:0 2:1 3:0.41088 
-1 1:0 2:1 3:0.404472 
-1 1:1 2:0 3:0.273137 
-1 1:0 2:1 3:0.401134 
-1 1:0 2:1 3:0.401901 
-1 1:0 2:1 3:0.404354 
-1 1:1 2:0 3:0.248007 
-1 1:0 2:1 3:0.405836 
-1 1:1 2:0 3:0.338122 
-1 1:0 2:1 3:0.405676 
-1 1:0 2:1 3:0.40698 
-1 1:0 2:1 3:0.409508 
-1 1:0 2:1 3:0.406019 
-1 1:0 2:1 3:0.402808 
-1 1:0 2:1 3:0.403533 
-1 1:0 2:1 3:0.410679 
-1 1:0 2:1 3:0.406732 
-1 1:0 2:1 3:0.405356 
-1 1:0 2:1 3:0.409639 
-1 1:0 2:1 3:0.401768 
-1 1:0 2:1 3:0.410881 
-1 1:0 2:1 3:0.407811 
-1 1:0 2:1 3:0.409522 
-1 1:0 2:1 3:0.40617 
-1 1:1 2:0 3:0.276965 
-1 1:0 2:1 3:0.401134 
-1 1:1 2:0 3:0.279136 
-1 1:0 2:1 3:0.406823 
-1 1:1 2:0 3:0.204133 
-1 1:1 2:0 3:0.267088 
-1 1:0 2:1 3:0.402982 
-1 1:0 2:1 3:0.408548 
-1 1:0 2:1 3:0.40462 
-1 1:0 2:1 3:0.407117 
-1 1:0 2:1 3:0.404856 
-1 1:0 2:1 3:0.408228 
-1 1:1 2:0 3:0.328411 
-1 1:0 2:1 3:0.409063 
-1 1:0 2:1 3:0.401785 
-1 1:0 2:1 3:0.404902 
-1 1:1 2:0 3:0.377101 
-1 1:1 2:0 3:0.251442 
-1 1:0 2:1 3:0.406124 
-1 1:0 2:1 3:0.405696 
-1 1:1 2:0 3:0.27999 
-1 1:0 2:1 3:0.407087 
-1 1:0 2:1 3:0.40979 
-1 1:0 2:1 3:0.401324 
-1 1:0 2:1 3:0.410184 
-1 1:0 2:1 3:0.409788 
-1 1:0 2:1 3:0.402873 
-1 1:0 2:1 3:0.403689 
-1 1:0 2:1 3:0.40212 
-1 1:0 2:1 3:0.410928 
-1 1:0 2:1 3:0.403333 
-1 1:0 2:1 3:0.407487 
-1 1:1 2:0 3:0.303568 
-1 1:1 2:0 3:0.182751 
-1 1:0 2:1 3:0.408266 
-1 1:0 2:1 3:0.408188 
-1 1:0 2:1 3:0.403342 
-1 1:1 2:0 3:0.313522 
-1 1:0 2:1 3:0.407637 
-1 1:0 2:1 3:0.403806 
-1 1:0 2:1 3:0.402811 
-1 1:0 2:1 3:0.401979 
-1 1:0 2:1 3:0.406133 
-1 1:0 2:1 3:0.403047 
-1 1:0 2:1 3:0.407218 
-1 1:1 2:0 3:0.254166 
-1 1:0 2:1 3:0.404354 
-1 1:0 2:1 3:0.405238 
-1 1:0 2:1 3:0.409338 
-1 1:0 2:1 3:0.407847 
-1 1:0 2:1 3:0.404354 
-1 1:0 2:1 3:0.406363 
-1 1:1 2:0 3:0.398328 
-1 1:0 2:1 3:0.409656 
-1 1:0 2:1 3:0.403432 
-1 1:0 2:1 3:0.410493 
-1 1:0 2:1 3:0.403878 
-1 1:1 2:0 3:0.210905 
-1 1:1 2:0 3:0.23627 
-1 1:1 2:0 3:0.224989 
-1 1:1 2:0 3:0.224989 
-1 1:0 2:1 3:0.407396 
-1 1:0 2:1 3:0.410474 
-1 1:1 2:0 3:0.398072 
-1 1:0 2:1 3:0.406272 
-1 1:0 2:1 3:0.40254 
-1 1:1 2:0 3:0.216407 
-1 1:0 2:1 3:0.410814 
-1 1:0 2:1 3:0.404284 
-1 1:0 2:1 3:0.40859 
-1 1:0 2:1 3:0.403806 
-1 1:1 2:0 3:0.240536 
-1 1:0 2:1 3:0.408168 
-1 1:0 2:1 3:0.410815 
-1 1:0 2:1 3:0.405135 
-1 1:0 2:1 3:0.401974 
-1 1:0 2:1 3:0.409824 
-1 1:0 2:1 3:0.401575 
-1 1:0 2:1 3:0.407892 
-1 1:0 2:1 3:0.4034 
-1 1:0 2:1 3:0.404635 
-1 1:0 2:1 3:0.409669 
-1 1:1 2:0 3:0.2848 
-1 1:0 2:1 3:0.404706 
-1 1:0 2:1 3:0.404588 
-1 1:0 2:1 3:0.400983 
-1 1:0 2:1 3:0.401223 
-1 1:0 2:1 3:0.407567 
-1 1:1 2:0 3:0.263559 
-1 1:1 2:0 3:0.341817 
-1 1:0 2:1 3:0.408184 
-1 1:0 2:1 3:0.40821 
-1 1:0 2:1 3:0.403303 
-1 1:0 2:1 3:0.407016 
-1 1:0 2:1 3:0.40526 
-1 1:1 2:0 3:0.182132 
-1 1:0 2:1 3:0.406269 
-1 1:0 2:1 3:0.410742 
-1 1:0 2:1 3:0.407819 
-1 1:1 2:0 3:0.279906 
-1 1:1 2:0 3:0.178657 
-1 1:1 2:0 3:0.25768 
-1 1:0 2:1 3:0.402956 
-1 1:1 2:0 3:0.222674 
-1 1:0 2:1 3:0.409311 
-1 1:0 2:1 3:0.401064 
-1 1:0 2:1 3:0.405528 
-1 1:1 2:0 3:0.240078 
-1 1:0 2:1 3:0.401189 
-1 1:0 2:1 3:0.410667 
-1 1:1 2:0 3:0.219771 
-1 1:0 2:1 3:0.409338 
-1 1:0 2:1 3:0.405554 
-1 1:1 2:0 3:0.184753 
-1 1:0 2:1 3:0.405931 
-1 1:0 2:1 3:0.402773 
-1 1:0 2:1 3:0.403023 
-1 1:1 2:0 3:0.362795 
-1 1:0 2:1 3:0.404991 
-1 1:0 2:1 3:0.402145 
-1 1:0 2:1 3:0.401937 
-1 1:1 2:0 3:0.399232 
-1 1:1 2:0 3:0.216244 
-1 1:1 2:0 3:0.231357 
-1 1:1 2:0 3:0.248759 
-1 1:0 2:1 3:0.408969 
-1 1:0 2:1 3:0.401254 
-1 1:0 2:1 3:0.40757 
-1 1:0 2:1 3:0.403685 
-1 1:1 2:0 3:0.17563 
-1 1:0 2:1 3:0.403263 
-1 1:1 2:0 3:0.178286 
-1 1:1 2:0 3:0.347705 
-1 1:1 2:0 3:0.226855 
-1 1:1 2:0 3:0.344031 
-1 1:0 2:1 3:0.405996 
-1 1:0 2:1 3:0.406547 
-1 1:1 2:0 3:0.288599 
-1 1:0 2:1 3:0.406668 
-1 1:0 2:1 3:0.409993 
-1 1:0 2:1 3:0.410395 
-1 1:0 2:1 3:0.402549 
-1 1:0 2:1 3:0.403808 
-1 1:1 2:0 3:0.277463 
-1 1:0 2:1 3:0.410891 
-1 1:0 2:1 3:0.403668 
-1 1:1 2:0 3:0.306079 
-1 1:1 2:0 3:0.345381 
-1 1:1 2:0 3:0.253029 
-1 1:1 2:0 3:0.299846 
-1 1:1 2:0 3:0.197584 
-1 1:0 2:1 3:0.40195 
-1 1:1 2:0 3:0.199101 
-1 1:0 2:1 3:0.403693 
-1 1:0 2:1 3:0.407502 
-1 1:0 2:1 3:0.406059 
-1 1:0 2:1 3:0.403576 
-1 1:0 2:1 3:0.401338 
-1 1:1 2:0 3:0.332432 
-1 1:1 2:0 3:0.209131 
-1 1:0 2:1 3:0.401755 
-1 1:0 2:1 3:0.402258 
-1 1:0 2:1 3:0.404233 
-1 1:0 2:1 3:0.402276 
-1 1:0 2:1 3:0.408325 
-1 1:1 2:0 3:0.193659 
-1 1:1 2:0 3:0.35702 
-1 1:1 2:0 3:0.296488 
-1 1:0 2:1 3:0.409998 
-1 1:0 2:1 3:0.403944 
-1 1:1 2:0 3:0.301083 
-1 1:1 2:0 3:0.321674 
-1 1:1 2:0 3:0.333858 
-1 1:0 2:1 3:0.402087 
-1 1:1 2:0 3:0.32083 
-1 1:1 2:0 3:0.305255 
-1 1:0 2:1 3:0.411115 
-1 1:0 2:1 3:0.410801 
-1 1:0 2:1 3:0.410529 
-1 1:0 2:1 3:0.402789 
-1 1:1 2:0 3:0.267068 
-1 1:1 2:0 3:0.180908 
-1 1:1 2:0 3:0.281405 
-1 1:1 2:0 3:0.256047 
-1 1:0 2:1 3:0.402838 
-1 1:1 2:0 3:0.322378 
-1 1:1 2:0 3:0.356038 
-1 1:0 2:1 3:0.401889 
-1 1:1 2:0 3:0.318791 
-1 1:1 2:0 3:0.201566 
-1 1:1 2:0 3:0.373053 
-1 1:0 2:1 3:0.402444 
-1 1:1 2:0 3:0.1841 
-1 1:0 2:1 3:0.404784 
-1 1:1 2:0 3:0.334158 
-1 1:0 2:1 3:0.402849 
-1 1:0 2:1 3:0.408448 
-1 1:1 2:0 3:0.272748 
-1 1:0 2:1 3:0.404525 
-1 1:1 2:0 3:0.206753 
-1 1:1 2:0 3:0.268671 
-1 1:1 2:0 3:0.257778 
-1 1:0 2:1 3:0.409177 
-1 1:0 2:1 3:0.401018 
-1 1:1 2:0 3:0.211926 
-1 1:1 2:0 3:0.376675 
-1 1:0 2:1 3:0.401512 
-1 1:0 2:1 3:0.41104 
-1 1:1 2:0 3:0.408854 
-1 1:1 2:0 3:0.349083 
-1 1:0 2:1 3:0.404698 
-1 1:1 2:0 3:0.256063 
-1 1:1 2:0 3:0.340084 
-1 1:0 2:1 3:0.407228 
-1 1:0 2:1 3:0.401539 
-1 1:1 2:0 3:0.241796 
-1 1:1 2:0 3:0.290663 
-1 1:0 2:1 3:0.407449 
-1 1:0 2:1 3:0.408344 
-1 1:0 2:1 3:0.409936 
-1 1:0 2:1 3:0.40191 
-1 1:1 2:0 3:0.253209 
-1 1:1 2:0 3:0.322708 
-1 1:0 2:1 3:0.403381 
-1 1:0 2:1 3:0.403201 
-1 1:1 2:0 3:0.243193 
-1 1:1 2:0 3:0.177044 
-1 1:1 2:0 3:0.281792 
-1 1:1 2:0 3:0.409564 
-1 1:0 2:1 3:0.408339 
-1 1:1 2:0 3:0.318996 
-1 1:0 2:1 3:0.409178 
-1 1:0 2:1 3:0.407173 
-1 1:1 2:0 3:0.37304 
-1 1:0 2:1 3:0.410891 
-1 1:0 2:1 3:0.408473 
-1 1:0 2:1 3:0.40886 
-1 1:0 2:1 3:0.405652 
-1 1:0 2:1 3:0.406947 
-1 1:0 2:1 3:0.406662 
-1 1:0 2:1 3:0.404848 
-1 1:0 2:1 3:0.409233 
-1 1:1 2:0 3:0.202633 
-1 1:1 2:0 3:0.295977 
-1 1:1 2:0 3:0.347827 
-1 1:1 2:0 3:0.341465 
-1 1:0 2:1 3:0.408095 
-1 1:0 2:1 3:0.405945 
-1 1:0 2:1 3:0.408382 
-1 1:1 2:0 3:0.394923 
-1 1:0 2:1 3:0.402679 
-1 1:0 2:1 3:0.409297 
-1 1:0 2:1 3:0.406955 
-1 1:0 2:1 3:0.405041 
-1 1:0 2:1 3:0.405712 
-1 1:0 2:1 3:0.404698 
-1 1:0 2:1 3:0.408626 
-1 1:0 2:1 3:0.405591 
-1 1:0 2:1 3:0.405707 
-1 1:0 2:1 3:0.404777 
-1 1:0 2:1 3:0.401768 
-1 1:1 2:0 3:0.321369 
-1 1:1 2:0 3:0.234276 
-1 1:0 2:1 3:0.409454 
-1 1:1 2:0 3:0.288543 
-1 1:0 2:1 3:0.407785 
-1 1:0 2:1 3:0.405418 
-1 1:1 2:0 3:0.25783 
-1 1:1 2:0 3:0.244385 
-1 1:0 2:1 3:0.409367 
-1 1:1 2:0 3:0.239579 
-1 1:0 2:1 3:0.409552 
-1 1:1 2:0 3:0.265482 
-1 1:0 2:1 3:0.409685 
-1 1:0 2:1 3:0.411078 
-1 1:0 2:1 3:0.40977 
-1 1:1 2:0 3:0.269786 
-1 1:1 2:0 3:0.37363 
-1 1:0 2:1 3:0.402131 
-1 1:1 2:0 3:0.407878 
-1 1:0 2:1 3:0.407807 
-1 1:0 2:1 3:0.401533 
-1 1:0 2:1 3:0.404947 
-1 1:1 2:0 3:0.40821 
-1 1:0 2:1 3:0.408218 
-1 1:1 2:0 3:0.286073 
-1 1:0 2:1 3:0.409824 
-1 1:1 2:0 3:0.325946 
-1 1:0 2:1 3:0.411246 
-1 1:0 2:1 3:0.402831 
-1 1:0 2:1 3:0.40882 
-1 1:0 2:1 3:0.408747 
-1 1:0 2:1 3:0.40236 
-1 1:0 2:1 3:0.411081 
-1 1:0 2:1 3:0.407218 
-1 1:0 2:1 3:0.401454 
-1 1:0 2:1 3:0.410317 
-1 1:1 2:0 3:0.227187 
-1 1:0 2:1 3:0.410759 
-1 1:0 2:1 3:0.404015 
-1 1:0 2:1 3:0.405764 
-1 1:1 2:0 3:0.215569 
-1 1:1 2:0 3:0.202157 
-1 1:0 2:1 3:0.410512 
-1 1:1 2:0 3:0.241227 
-1 1:0 2:1 3:0.409136 
-1 1:0 2:1 3:0.402814 
-1 1:1 2:0 3:0.202465 
-1 1:1 2:0 3:0.320739 
-1 1:0 2:1 3:0.401087 
-1 1:0 2:1 3:0.407615 
-1 1:1 2:0 3:0.250348 
-1 1:1 2:0 3:0.322009 
-1 1:1 2:0 3:0.178571 
-1 1:0 2:1 3:0.410868 
-1 1:1 2:0 3:0.40064 
-1 1:0 2:1 3:0.41107 
-1 1:0 2:1 3:0.409446 
-1 1:0 2:1 3:0.40347 
-1 1:0 2:1 3:0.404064 
-1 1:0 2:1 3:0.409855 
-1 1:0 2:1 3:0.410512 
-1 1:0 2:1 3:0.402013 
-1 1:0 2:1 3:0.407639 
-1 1:1 2:0 3:0.188746 
-1 1:0 2:1 3:0.402109 
-1 1:0 2:1 3:0.407383 
-1 1:1 2:0 3:0.27416 
-1 1:0 2:1 3:0.404871 
-1 1:1 2:0 3:0.318261 
-1 1:0 2:1 3:0.404328 
-1 1:1 2:0 3:0.315828 
-1 1:0 2:1 3:0.402668 
-1 1:0 2:1 3:0.4072 
-1 1:0 2:1 3:0.40459 
-1 1:0 2:1 3:0.403154 
-1 1:0 2:1 3:0.402911 
-1 1:1 2:0 3:0.183293 
-1 1:1 2:0 3:0.293569 
-1 1:1 2:0 3:0.242366 
-1 1:0 2:1 3:0.401542 
-1 1:0 2:1 3:0.408601 
-1 1:1 2:0 3:0.259975 
-1 1:1 2:0 3:0.262227 
-1 1:0 2:1 3:0.409911 
-1 1:0 2:1 3:0.403693 
-1 1:1 2:0 3:0.351912 
-1 1:0 2:1 3:0.410972 
-1 1:1 2:0 3:0.272122 
-1 1:0 2:1 3:0.409123 
-1 1:0 2:1 3:0.401073 
-1 1:0 2:1 3:0.41019 
-1 1:0 2:1 3:0.407094 
-1 1:1 2:0 3:0.230684 
-1 1:0 2:1 3:0.401233 
-1 1:0 2:1 3:0.409453 
-1 1:0 2:1 3:0.405303 
-1 1:0 2:1 3:0.406059 
-1 1:0 2:1 3:0.402956 
-1 1:0 2:1 3:0.401708 
-1 1:1 2:0 3:0.19714 
-1 1:0 2:1 3:0.406556 
-1 1:1 2:0 3:0.20568 
-1 1:0 2:1 3:0.404027 
-1 1:1 2:0 3:0.401724 
-1 1:0 2:1 3:0.406757 
-1 1:0 2:1 3:0.407831 
-1 1:0 2:1 3:0.406955 
-1 1:0 2:1 3:0.401623 
-1 1:0 2:1 3:0.401792 
-1 1:0 2:1 3:0.40785 
-1 1:0 2:1 3:0.409891 
-1 1:0 2:1 3:0.40617 
-1 1:0 2:1 3:0.409685 
-1 1:0 2:1 3:0.408091 
-1 1:0 2:1 3:0.40499 
-1 1:0 2:1 3:0.406705 
-1 1:1 2:0 3:0.367258 
-1 1:0 2:1 3:0.402258 
-1 1:0 2:1 3:0.410651 
-1 1:1 2:0 3:0.399392 
-1 1:1 2:0 3:0.182903 
-1 1:1 2:0 3:0.313667 
-1 1:1 2:0 3:0.211459 
-1 1:0 2:1 3:0.403431 
-1 1:1 2:0 3:0.212214 
-1 1:1 2:0 3:0.410742 
-1 1:0 2:1 3:0.404173 
-1 1:1 2:0 3:0.279023 
-1 1:0 2:1 3:0.407066 
-1 1:0 2:1 3:0.406184 
-1 1:0 2:1 3:0.405945 
-1 1:0 2:1 3:0.405774 
-1 1:0 2:1 3:0.407022 
-1 1:0 2:1 3:0.408803 
-1 1:0 2:1 3:0.409724 
-1 1:0 2:1 3:0.401338 
-1 1:0 2:1 3:0.404051 
-1 1:0 2:1 3:0.410137 
-1 1:0 2:1 3:0.409694 
-1 1:0 2:1 3:0.405269 
-1 1:0 2:1 3:0.408798 
-1 1:1 2:0 3:0.236616 
-1 1:1 2:0 3:0.254894 
-1 1:1 2:0 3:0.207341 
-1 1:1 2:0 3:0.332202 
-1 1:0 2:1 3:0.408855 
-1 1:1 2:0 3:0.177977 
-1 1:0 2:1 3:0.410471 
-1 1:0 2:1 3:0.405648 
-1 1:1 2:0 3:0.312013 
-1 1:0 2:1 3:0.406319 
-1 1:0 2:1 3:0.403167 
-1 1:1 2:0 3:0.384669 
-1 1:1 2:0 3:0.373079 
-1 1:0 2:1 3:0.410814 
-1 1:0 2:1 3:0.405863 
-1 1:0 2:1 3:0.408786 
-1 1:0 2:1 3:0.408286 
-1 1:1 2:0 3:0.217369 
-1 1:1 2:0 3:0.340602 
-1 1:0 2:1 3:0.404895 
-1 1:1 2:0 3:0.187292 
-1 1:0 2:1 3:0.4083 
-1 1:1 2:0 3:0.220367 
-1 1:0 2:1 3:0.4097 
-1 1:0 2:1 3:0.409078 
-1 1:0 2:1 3:0.401683 
-1 1:0 2:1 3:0.401314 
-1 1:0 2:1 3:0.406208 
-1 1:0 2:1 3:0.40757 
-1 1:0 2:1 3:0.405845 
-1 1:0 2:1 3:0.410095 
-1 1:0 2:1 3:0.402171 
-1 1:0 2:1 3:0.411081 
-1 1:0 2:1 3:0.40236 
-1 1:0 2:1 3:0.407396 
-1 1:0 2:1 3:0.406806 
-1 1:0 2:1 3:0.402849 
-1 1:1 2:0 3:0.225078 
-1 1:0 2:1 3:0.405519 
-1 1:1 2:0 3:0.314279 
-1 1:1 2:0 3:0.289255 
-1 1:0 2:1 3:0.405944 
-1 1:1 2:0 3:0.292694 
-1 1:1 2:0 3:0.336294 
-1 1:1 2:0 3:0.239151 
-1 1:0 2:1 3:0.404452 
-1 1:0 2:1 3:0.406499 
-1 1:1 2:0 3:0.2032 
-1 1:0 2:1 3:0.405382 
-1 1:1 2:0 3:0.407349 
-1 1:0 2:1 3:0.410917 
-1 1:1 2:0 3:0.197522 
-1 1:0 2:1 3:0.410955 
-1 1:1 2:0 3:0.245617 
-1 1:0 2:1 3:0.406637 
-1 1:1 2:0 3:0.295851 
-1 1:0 2:1 3:0.410445 
-1 1:0 2:1 3:0.411224 
-1 1:0 2:1 3:0.406244 
-1 1:0 2:1 3:0.410815 
-1 1:1 2:0 3:0.33983 
-1 1:1 2:0 3:0.225682 
-1 1:0 2:1 3:0.403612 
-1 1:0 2:1 3:0.407378 
-1 1:0 2:1 3:0.406056 
-1 1:0 2:1 3:0.404749 
-1 1:0 2:1 3:0.407353 
-1 1:1 2:0 3:0.291649 
-1 1:1 2:0 3:0.363248 
-1 1:0 2:1 3:0.40505 
-1 1:0 2:1 3:0.408448 
-1 1:1 2:0 3:0.348402 
-1 1:1 2:0 3:0.176962 
-1 1:1 2:0 3:0.216554 
-1 1:1 2:0 3:0.358127 
-1 1:0 2:1 3:0.410399 
-1 1:1 2:0 3:0.192959 
-1 1:0 2:1 3:0.404777 
-1 1:1 2:0 3:0.267711 
-1 1:1 2:0 3:0.299874 
-1 1:1 2:0 3:0.272132 
-1 1:0 2:1 3:0.40317 
-1 1:0 2:1 3:0.404096 
-1 1:0 2:1 3:0.404902 
-1 1:0 2:1 3:0.408894 
-1 1:0 2:1 3:0.407567 
-1 1:1 2:0 3:0.395443 
-1 1:1 2:0 3:0.350546 
-1 1:0 2:1 3:0.404538 
-1 1:1 2:0 3:0.392652 
-1 1:1 2:0 3:0.342145 
-1 1:0 2:1 3:0.410275 
-1 1:1 2:0 3:0.24026 
-1 1:0 2:1 3:0.403879 
-1 1:1 2:0 3:0.230203 
-1 1:1 2:0 3:0.269791 
-1 1:0 2:1 3:0.408721 
-1 1:0 2:1 3:0.410408 
-1 1:1 2:0 3:0.187902 
-1 1:0 2:1 3:0.404173 
-1 1:0 2:1 3:0.401848 
-1 1:1 2:0 3:0.339864 
-1 1:0 2:1 3:0.402087 
-1 1:0 2:1 3:0.401526 
-1 1:0 2:1 3:0.401048 
-1 1:1 2:0 3:0.195444 
-1 1:0 2:1 3:0.402171 
-1 1:0 2:1 3:0.407008 
-1 1:1 2:0 3:0.239122 
-1 1:1 2:0 3:0.35095 
-1 1:0 2:1 3:0.402945 
-1 1:0 2:1 3:0.402668 
-1 1:0 2:1 3:0.402371 
-1 1:0 2:1 3:0.401705 
-1 1:0 2:1 3:0.402677 
-1 1:0 2:1 3:0.405731 
-1 1:0 2:1 3:0.402556 
-1 1:0 2:1 3:0.410512 
-1 1:0 2:1 3:0.405954 
-1 1:1 2:0 3:0.22337 
-1 1:0 2:1 3:0.4034 
-1 1:1 2:0 3:0.197844 
-1 1:0 2:1 3:0.405712 
-1 1:1 2:0 3:0.381788 
-1 1:0 2:1 3:0.402171 
-1 1:0 2:1 3:0.405899 
-1 1:0 2:1 3:0.411143 
-1 1:0 2:1 3:0.402189 
-1 1:0 2:1 3:0.41008 
-1 1:1 2:0 3:0.20905 
-1 1:1 2:0 3:0.182554 
-1 1:0 2:1 3:0.410828 
-1 1:0 2:1 3:0.41056 
-1 1:1 2:0 3:0.219015 
-1 1:0 2:1 3:0.410712 
-1 1:0 2:1 3:0.407878 
-1 1:1 2:0 3:0.181299 
-1 1:1 2:0 3:0.343598 
-1 1:0 2:1 3:0.40895 
-1 1:1 2:0 3:0.268336 
-1 1:1 2:0 3:0.327656 
-1 1:1 2:0 3:0.183481 
-1 1:1 2:0 3:0.218826 
-1 1:0 2:1 3:0.40537 
-1 1:0 2:1 3:0.401007 
-1 1:1 2:0 3:0.213974 
-1 1:0 2:1 3:0.404203 
-1 1:0 2:1 3:0.404522 
-1 1:1 2:0 3:0.344939 
-1 1:0 2:1 3:0.40698 
-1 1:1 2:0 3:0.244402 
-1 1:1 2:0 3:0.31685 
-1 1:1 2:0 3:0.282216 
-1 1:0 2:1 3:0.402224 
-1 1:1 2:0 3:0.213434 
-1 1:1 2:0 3:0.268971 
-1 1:0 2:1 3:0.410096 
-1 1:1 2:0 3:0.178038 
-1 1:0 2:1 3:0.410635 
-1 1:0 2:1 3:0.403719 
-1 1:0 2:1 3:0.404698 
-1 1:0 2:1 3:0.40961 
-1 1:1 2:0 3:0.343388 
-1 1:0 2:1 3:0.407423 
-1 1:1 2:0 3:0.26296 
-1 1:0 2:1 3:0.410333 
-1 1:0 2:1 3:0.404506 
-1 1:0 2:1 3:0.410667 
-1 1:1 2:0 3:0.286243 
-1 1:0 2:1 3:0.404912 
-1 1:0 2:1 3:0.401629 
-1 1:0 2:1 3:0.402898 
-1 1:0 2:1 3:0.403728 
-1 1:0 2:1 3:0.406272 
-1 1:1 2:0 3:0.238118 
-1 1:0 2:1 3:0.402634 
-1 1:1 2:0 3:0.209929 
-1 1:0 2:1 3:0.40288 
-1 1:0 2:1 3:0.405126 
-1 1:0 2:1 3:0.403235 
-1 1:0 2:1 3:0.407973 
-1 1:0 2:1 3:0.401183 
-1 1:0 2:1 3:0.406572 
-1 1:0 2:1 3:0.405418 
-1 1:0 2:1 3:0.404792 
-1 1:0 2:1 3:0.406246 
-1 1:0 2:1 3:0.404031 
-1 1:0 2:1 3:0.411114 
-1 1:1 2:0 3:0.320477 
-1 1:0 2:1 3:0.408384 
-1 1:1 2:0 3:0.282152 
-1 1:1 2:0 3:0.331165 
-1 1:0 2:1 3:0.402371 
-1 1:0 2:1 3:0.404306 
-1 1:1 2:0 3:0.211324 
-1 1:1 2:0 3:0.217281 
-1 1:0 2:1 3:0.409692 
-1 1:0 2:1 3:0.403318 
-1 1:1 2:0 3:0.249495 
-1 1:1 2:0 3:0.330416 
-1 1:1 2:0 3:0.324847 
-1 1:1 2:0 3:0.1968 
-1 1:1 2:0 3:0.308792 
-1 1:1 2:0 3:0.336402 
-1 1:0 2:1 3:0.40895 
-1 1:1 2:0 3:0.304278 
-1 1:1 2:0 3:0.198209 
-1 1:0 2:1 3:0.401757 
-1 1:1 2:0 3:0.36997 
-1 1:0 2:1 3:0.404184 
-1 1:1 2:0 3:0.180312 
-1 1:0 2:1 3:0.40854 
-1 1:0 2:1 3:0.40175 
-1 1:0 2:1 3:0.405949 
-1 1:1 2:0 3:0.272266 
-1 1:0 2:1 3:0.406714 
-1 1:1 2:0 3:0.24576 
-1 1:1 2:0 3:0.305063 
-1 1:0 2:1 3:0.407474 
-1 1:0 2:1 3:0.406158 
-1 1:0 2:1 3:0.402753 
-1 1:0 2:1 3:0.40806 
-1 1:0 2:1 3:0.404172 
-1 1:0 2:1 3:0.403085 
-1 1:0 2:1 3:0.407245 
-1 1:0 2:1 3:0.403124 
-1 1:1 2:0 3:0.239025 
-1 1:0 2:1 3:0.402171 
-1 1:0 2:1 3:0.411016 
-1 1:1 2:0 3:0.191245 
-1 1:0 2:1 3:0.404066 
-1 1:0 2:1 3:0.408693 
-1 1:1 2:0 3:0.322972 
-1 1:0 2:1 3:0.402104 
-1 1:0 2:1 3:0.407285 
-1 1:0 2:1 3:0.403227 
-1 1:1 2:0 3:0.220273 
-1 1:1 2:0 3:0.249589 
-1 1:1 2:0 3:0.380372 
-1 1:0 2:1 3:0.40505 
-1 1:0 2:1 3:0.405478 
-1 1:1 2:0 3:0.196048 
-1 1:0 2:1 3:0.409361 
-1 1:0 2:1 3:0.403237 
-1 1:1 2:0 3:0.289579 
-1 1:0 2:1 3:0.406917 
-1 1:0 2:1 3:0.409446 
-1 1:1 2:0 3:0.21592 
-1 1:1 2:0 3:0.186743 
-1 1:1 2:0 3:0.30679 
-1 1:0 2:1 3:0.404236 
-1 1:0 2:1 3:0.407609 
-1 1:0 2:1 3:0.402224 
-1 1:1 2:0 3:0.196785 
-1 1:0 2:1 3:0.405721 
-1 1:1 2:0 3:0.262547 
-1 1:1 2:0 3:0.306173 
-1 1:1 2:0 3:0.27784 
-1 1:0 2:1 3:0.409927 
-1 1:0 2:1 3:0.410679 
-1 1:1 2:0 3:0.252185 
-1 1:1 2:0 3:0.21213 
-1 1:0 2:1 3:0.408631 
-1 1:0 2:1 3:0.408268 
-1 1:0 2:1 3:0.410015 
-1 1:0 2:1 3:0.401526 
-1 1:0 2:1 3:0.407299 
-1 1:1 2:0 3:0.379693 
-1 1:1 2:0 3:0.221483 
-1 1:0 2:1 3:0.40531 
-1 1:1 2:0 3:0.242206 
-1 1:0 2:1 3:0.409396 
-1 1:1 2:0 3:0.246801 
-1 1:0 2:1 3:0.401586 
-1 1:0 2:1 3:0.403793 
-1 1:0 2:1 3:0.409431 
-1 1:1 2:0 3:0.199348 
-1 1:0 2:1 3:0.401129 
-1 1:1 2:0 3:0.347182 
-1 1:1 2:0 3:0.211032 
-1 1:0 2:1 3:0.411237 
-1 1:1 2:0 3:0.192845 
-1 1:0 2:1 3:0.40858 
-1 1:1 2:0 3:0.20035 
-1 1:1 2:0 3:0.360901 
-1 1:1 2:0 3:0.365746 
-1 1:0 2:1 3:0.402621 
-1 1:1 2:0 3:0.29384 
-1 1:0 2:1 3:0.4018 
-1 1:1 2:0 3:0.311364 
-1 1:0 2:1 3:0.409437 
-1 1:0 2:1 3:0.408007 
-1 1:1 2:0 3:0.329293 
-1 1:0 2:1 3:0.410233 
-1 1:0 2:1 3:0.407378 
-1 1:0 2:1 3:0.406086 
-1 1:0 2:1 3:0.409737 
-1 1:0 2:1 3:0.404241 
-1 1:1 2:0 3:0.341255 
-1 1:0 2:1 3:0.410955 
-1 1:1 2:0 3:0.19364 
-1 1:0 2:1 3:0.401354 
-1 1:0 2:1 3:0.410885 
-1 1:0 2:1 3:0.404861 
-1 1:0 2:1 3:0.40875 
-1 1:0 2:1 3:0.405302 
-1 1:0 2:1 3:0.410553 
-1 1:0 2:1 3:0.409698 
-1 1:1 2:0 3:0.223706 
-1 1:0 2:1 3:0.402786 
-1 1:1 2:0 3:0.260874 
-1 1:1 2:0 3:0.243159 
-1 1:0 2:1 3:0.407819 
-1 1:1 2:0 3:0.186903 
-1 1:0 2:1 3:0.407931 
-1 1:0 2:1 3:0.402444 
-1 1:0 2:1 3:0.405208 
-1 1:0 2:1 3:0.403505 
-1 1:0 2:1 3:0.40322 
-1 1:0 2:1 3:0.410966 
-1 1:1 2:0 3:0.355777 
-1 1:0 2:1 3:0.405769 
-1 1:0 2:1 3:0.410808 
-1 1:0 2:1 3:0.407173 
-1 1:0 2:1 3:0.406322 
-1 1:0 2:1 3:0.409698 
-1 1:0 2:1 3:0.400971 
-1 1:1 2:0 3:0.323953 
-1 1:0 2:1 3:0.406304 
-1 1:1 2:0 3:0.334902 
-1 1:0 2:1 3:0.401419 
-1 1:0 2:1 3:0.401848 
-1 1:0 2:1 3:0.40965 
-1 1:0 2:1 3:0.40201 
-1 1:0 2:1 3:0.404342 
-1 1:0 2:1 3:0.404468 
-1 1:0 2:1 3:0.402877 
-1 1:0 2:1 3:0.402539 
-1 1:0 2:1 3:0.404777 
-1 1:0 2:1 3:0.403203 
-1 1:1 2:0 3:0.290176 
-1 1:0 2:1 3:0.401049 
-1 1:0 2:1 3:0.406248 
-1 1:0 2:1 3:0.408272 
-1 1:0 2:1 3:0.402604 
-1 1:1 2:0 3:0.33837 
-1 1:0 2:1 3:0.405126 
-1 1:0 2:1 3:0.402206 
-1 1:0 2:1 3:0.409157 
-1 1:0 2:1 3:0.402615 
-1 1:1 2:0 3:0.208848 
-1 1:0 2:1 3:0.407555 
-1 1:0 2:1 3:0.401087 
-1 1:0 2:1 3:0.409096 
-1 1:0 2:1 3:0.404659 
-1 1:0 2:1 3:0.403535 
-1 1:0 2:1 3:0.404784 
-1 1:1 2:0 3:0.266828 
-1 1:0 2:1 3:0.405395 
-1 1:0 2:1 3:0.402941 
-1 1:0 2:1 3:0.402487 
-1 1:0 2:1 3:0.410202 
-1 1:0 2:1 3:0.403846 
-1 1:0 2:1 3:0.401312 
-1 1:1 2:0 3:0.344226 
-1 1:0 2:1 3:0.402654 
-1 1:0 2:1 3:0.409178 
-1 1:0 2:1 3:0.407852 
-1 1:0 2:1 3:0.410839 
-1 1:0 2:1 3:0.409227 
-1 1:0 2:1 3:0.404306 
-1 1:0 2:1 3:0.402615 
-1 1:0 2:1 3:0.404012 
-1 1:0 2:1 3:0.409481 
-1 1:1 2:0 3:0.319864 
-1 1:0 2:1 3:0.400951 
-1 1:0 2:1 3:0.408631 
-1 1:0 2:1 3:0.402753 
-1 1:0 2:1 3:0.409787 
-1 1:0 2:1 3:0.402925 
-1 1:0 2:1 3:0.404659 
-1 1:0 2:1 3:0.403187 
-1 1:1 2:0 3:0.249992 
-1 1:1 2:0 3:0.250106 
-1 1:1 2:0 3:0.348019 
-1 1:1 2:0 3:0.290034 
-1 1:0 2:1 3:0.410828 
-1 1:0 2:1 3:0.40621 
-1 1:0 2:1 3:0.410263 
-1 1:0 2:1 3:0.405479 
-1 1:0 2:1 3:0.410539 
-1 1:0 2:1 3:0.41091 
-1 1:1 2:0 3:0.231195 
-1 1:0 2:1 3:0.406757 
-1 1:1 2:0 3:0.285546 
-1 1:1 2:0 3:0.199093 
-1 1:0 2:1 3:0.410742 
-1 1:0 2:1 3:0.406499 
-1 1:0 2:1 3:0.407301 
-1 1:0 2:1 3:0.402662 
-1 1:0 2:1 3:0.410499 
-1 1:1 2:0 3:0.205974 
-1 1:0 2:1 3:0.403104 
-1 1:0 2:1 3:0.41032 
-1 1:1 2:0 3:0.272091 
-1 1:0 2:1 3:0.408448 
-1 1:1 2:0 3:0.244405 
-1 1:0 2:1 3:0.402656 
-1 1:0 2:1 3:0.406403 
-1 1:0 2:1 3:0.408798 
-1 1:1 2:0 3:0.287764 
-1 1:0 2:1 3:0.402767 
-1 1:0 2:1 3:0.410742 
-1 1:0 2:1 3:0.409721 
-1 1:0 2:1 3:0.406714 
-1 1:1 2:0 3:0.234505 
-1 1:0 2:1 3:0.409581 
-1 1:0 2:1 3:0.402397 
-1 1:0 2:1 3:0.407291 
-1 1:0 2:1 3:0.402854 
-1 1:1 2:0 3:0.333441 
-1 1:0 2:1 3:0.407811 
-1 1:1 2:0 3:0.383336 
-1 1:0 2:1 3:0.408608 
-1 1:0 2:1 3:0.402277 
-1 1:0 2:1 3:0.405746 
-1 1:0 2:1 3:0.402807 
-1 1:0 2:1 3:0.404522 
-1 1:0 2:1 3:0.40373 
-1 1:1 2:0 3:0.285819 
-1 1:0 2:1 3:0.406339 
-1 1:1 2:0 3:0.312303 
-1 1:1 2:0 3:0.204248 
-1 1:0 2:1 3:0.40168 
-1 1:0 2:1 3:0.408676 
-1 1:1 2:0 3:0.248809 
-1 1:0 2:1 3:0.403416 
-1 1:1 2:0 3:0.329 
-1 1:0 2:1 3:0.410275 
-1 1:0 2:1 3:0.401127 
-1 1:0 2:1 3:0.408406 
-1 1:1 2:0 3:0.299891 
-1 1:1 2:0 3:0.276734 
-1 1:0 2:1 3:0.40497 
-1 1:1 2:0 3:0.200059 
-1 1:0 2:1 3:0.407666 
-1 1:1 2:0 3:0.261931 
-1 1:0 2:1 3:0.405487 
-1 1:0 2:1 3:0.408715 
-1 1:0 2:1 3:0.410891 
-1 1:0 2:1 3:0.40526 
-1 1:0 2:1 3:0.407043 
-1 1:0 2:1 3:0.410211 
-1 1:0 2:1 3:0.406247 
-1 1:0 2:1 3:0.404203 
-1 1:0 2:1 3:0.406395 
-1 1:0 2:1 3:0.403605 
-1 1:0 2:1 3:0.404624 
-1 1:0 2:1 3:0.403237 
-1 1:1 2:0 3:0.390508 
-1 1:0 2:1 3:0.403667 
-1 1:0 2:1 3:0.40525 
-1 1:0 2:1 3:0.404211 
-1 1:0 2:1 3:0.409998 
-1 1:0 2:1 3:0.408435 
-1 1:1 2:0 3:0.389186 
-1 1:1 2:0 3:0.315892 
-1 1:0 2:1 3:0.402412 
-1 1:1 2:0 3:0.17818 
-1 1:1 2:0 3:0.212694 
-1 1:0 2:1 3:0.404991 
-1 1:0 2:1 3:0.407897 
-1 1:0 2:1 3:0.406016 
-1 1:1 2:0 3:0.269844 
-1 1:0 2:1 3:0.40858 
-1 1:0 2:1 3:0.405954 
-1 1:0 2:1 3:0.408724 
-1 1:0 2:1 3:0.406859 
-1 1:1 2:0 3:0.179629 
-1 1:0 2:1 3:0.401984 
-1 1:1 2:0 3:0.257684 
-1 1:0 2:1 3:0.402809 
-1 1:0 2:1 3:0.406224 
-1 1:0 2:1 3:0.403796 
-1 1:0 2:1 3:0.409824 
-1 1:0 2:1 3:0.403322 
-1 1:1 2:0 3:0.362477 
-1 1:0 2:1 3:0.410333 
-1 1:0 2:1 3:0.404576 
-1 1:0 2:1 3:0.410539 
-1 1:0 2:1 3:0.405573 
-1 1:1 2:0 3:0.251759 
-1 1:0 2:1 3:0.410722 
-1 1:0 2:1 3:0.402811 
-1 1:1 2:0 3:0.18845 
-1 1:0 2:1 3:0.408721 
-1 1:1 2:0 3:0.316892 
-1 1:1 2:0 3:0.373551 
-1 1:0 2:1 3:0.410888 
-1 1:0 2:1 3:0.405219 
-1 1:1 2:0 3:0.362173 
-1 1:0 2:1 3:0.402621 
-1 1:0 2:1 3:0.406652 
-1 1:0 2:1 3:0.406016 
-1 1:0 2:1 3:0.403949 
-1 1:0 2:1 3:0.402765 
-1 1:1 2:0 3:0.253022 
-1 1:0 2:1 3:0.406092 
-1 1:0 2:1 3:0.40273 
-1 1:0 2:1 3:0.406395 
-1 1:0 2:1 3:0.405845 
-1 1:0 2:1 3:0.403921 
-1 1:0 2:1 3:0.410008 
-1 1:0 2:1 3:0.403927 
-1 1:0 2:1 3:0.406417 
-1 1:1 2:0 3:0.250111 
-1 1:0 2:1 3:0.406741 
-1 1:0 2:1 3:0.401848 
-1 1:0 2:1 3:0.404749 
-1 1:0 2:1 3:0.40576 
-1 1:1 2:0 3:0.260019 
-1 1:1 2:0 3:0.252211 
-1 1:1 2:0 3:0.352067 
-1 1:0 2:1 3:0.407449 
-1 1:1 2:0 3:0.254633 
-1 1:1 2:0 3:0.290532 
-1 1:1 2:0 3:0.325447 
-1 1:0 2:1 3:0.40437 
-1 1:0 2:1 3:0.40815 
-1 1:1 2:0 3:0.259044 
-1 1:0 2:1 3:0.405243 
-1 1:1 2:0 3:0.226785 
-1 1:0 2:1 3:0.406422 
-1 1:1 2:0 3:0.300206 
-1 1:1 2:0 3:0.314584 
-1 1:0 2:1 3:0.408403 
-1 1:0 2:1 3:0.401173 
-1 1:1 2:0 3:0.264054 
-1 1:0 2:1 3:0.410482 
-1 1:0 2:1 3:0.406499 
-1 1:0 2:1 3:0.400942 
-1 1:0 2:1 3:0.408218 
-1 1:0 2:1 3:0.405845 
-1 1:0 2:1 3:0.404064 
-1 1:1 2:0 3:0.400612 
-1 1:1 2:0 3:0.330023 
-1 1:1 2:0 3:0.308078 
-1 1:1 2:0 3:0.23091 
-1 1:1 2:0 3:0.382569 
-1 1:1 2:0 3:0.196911 
-1 1:0 2:1 3:0.410089 
-1 1:1 2:0 3:0.235938 
-1 1:0 2:1 3:0.40859 
-1 1:0 2:1 3:0.402209 
-1 1:0 2:1 3:0.408878 
-1 1:1 2:0 3:0.232565 
-1 1:0 2:1 3:0.409685 
-1 1:0 2:1 3:0.405755 
-1 1:1 2:0 3:0.37947 
-1 1:0 2:1 3:0.408007 
-1 1:0 2:1 3:0.408631 
-1 1:1 2:0 3:0.298254 
-1 1:0 2:1 3:0.408751 
-1 1:0 2:1 3:0.405623 
-1 1:0 2:1 3:0.406403 
-1 1:0 2:1 3:0.403238 
-1 1:0 2:1 3:0.411215 
-1 1:0 2:1 3:0.407173 
-1 1:0 2:1 3:0.401323 
-1 1:0 2:1 3:0.407987 
-1 1:0 2:1 3:0.409721 
-1 1:1 2:0 3:0.288313 
-1 1:0 2:1 3:0.401183 
-1 1:0 2:1 3:0.407423 
-1 1:1 2:0 3:0.257764 
-1 1:1 2:0 3:0.201909 
-1 1:0 2:1 3:0.409928 
-1 1:0 2:1 3:0.41019 
-1 1:0 2:1 3:0.411224 
-1 1:0 2:1 3:0.405049 
-1 1:0 2:1 3:0.406486 
-1 1:1 2:0 3:0.322266 
-1 1:1 2:0 3:0.367982 
-1 1:1 2:0 3:0.259888 
-1 1:0 2:1 3:0.402129 
-1 1:0 2:1 3:0.402025 
-1 1:1 2:0 3:0.232484 
-1 1:0 2:1 3:0.402266 
-1 1:0 2:1 3:0.405666 
-1 1:1 2:0 3:0.268585 
-1 1:0 2:1 3:0.40432 
-1 1:1 2:0 3:0.371394 
-1 1:0 2:1 3:0.405135 
-1 1:0 2:1 3:0.406575 
-1 1:1 2:0 3:0.178007 
-1 1:1 2:0 3:0.274072 
-1 1:0 2:1 3:0.410881 
-1 1:0 2:1 3:0.405513 
-1 1:0 2:1 3:0.40765 
-1 1:0 2:1 3:0.409338 
-1 1:1 2:0 3:0.330651 
-1 1:0 2:1 3:0.408721 
-1 1:1 2:0 3:0.262864 
-1 1:0 2:1 3:0.407615 
-1 1:1 2:0 3:0.291414 
-1 1:0 2:1 3:0.409815 
-1 1:0 2:1 3:0.40587 
-1 1:0 2:1 3:0.401753 
-1 1:0 2:1 3:0.410966 
-1 1:1 2:0 3:0.398622 
-1 1:0 2:1 3:0.402953 
-1 1:0 2:1 3:0.401257 
-1 1:0 2:1 3:0.410537 
-1 1:0 2:1 3:0.401792 
-1 1:0 2:1 3:0.401683 
-1 1:0 2:1 3:0.409322 
-1 1:0 2:1 3:0.406782 
-1 1:1 2:0 3:0.262536 
-1 1:0 2:1 3:0.408374 
-1 1:1 2:0 3:0.320441 
-1 1:0 2:1 3:0.402461 
-1 1:0 2:1 3:0.405517 
-1 1:0 2:1 3:0.403842 
-1 1:0 2:1 3:0.404784 
-1 1:0 2:1 3:0.411226 
-1 1:0 2:1 3:0.407256 
-1 1:1 2:0 3:0.314157 
-1 1:0 2:1 3:0.408687 
-1 1:0 2:1 3:0.40283 
-1 1:0 2:1 3:0.40153 
-1 1:0 2:1 3:0.406428 
-1 1:0 2:1 3:0.404225 
-1 1:1 2:0 3:0.209458 
-1 1:0 2:1 3:0.4083 
-1 1:0 2:1 3:0.409752 
-1 1:1 2:0 3:0.383545 
-1 1:0 2:1 3:0.405005 
-1 1:0 2:1 3:0.40617 
-1 1:0 2:1 3:0.402444 
-1 1:1 2:0 3:0.263368 
-1 1:1 2:0 3:0.283996 
-1 1:0 2:1 3:0.409835 
-1 1:0 2:1 3:0.410618 
-1 1:0 2:1 3:0.4097 
-1 1:1 2:0 3:0.178687 
-1 1:0 2:1 3:0.410335 
-1 1:0 2:1 3:0.401007 
-1 1:0 2:1 3:0.409779 
-1 1:1 2:0 3:0.323907 
-1 1:0 2:1 3:0.40317 
-1 1:0 2:1 3:0.405611 
-1 1:0 2:1 3:0.410315 
-1 1:1 2:0 3:0.232565 
-1 1:0 2:1 3:0.411194 
-1 1:0 2:1 3:0.408812 
-1 1:0 2:1 3:0.402046 
-1 1:0 2:1 3:0.401976 
-1 1:1 2:0 3:0.28081 
-1 1:1 2:0 3:0.322565 
-1 1:1 2:0 3:0.387177 
-1 1:0 2:1 3:0.404298 
-1 1:1 2:0 3:0.217916 
-1 1:0 2:1 3:0.40191 
-1 1:0 2:1 3:0.403432 
-1 1:0 2:1 3:0.404071 
-1 1:1 2:0 3:0.253102 
-1 1:0 2:1 3:0.402224 
-1 1:0 2:1 3:0.403879 
-1 1:1 2:0 3:0.343489 
-1 1:1 2:0 3:0.179008 
-1 1:1 2:0 3:0.380857 
-1 1:0 2:1 3:0.405767 
-1 1:1 2:0 3:0.264581 
-1 1:0 2:1 3:0.403187 
-1 1:0 2:1 3:0.404746 
-1 1:0 2:1 3:0.401254 
-1 1:1 2:0 3:0.251024 
-1 1:1 2:0 3:0.354438 
-1 1:0 2:1 3:0.402274 
-1 1:1 2:0 3:0.276524 
-1 1:1 2:0 3:0.306154 
-1 1:1 2:0 3:0.201478 
-1 1:1 2:0 3:0.360605 
-1 1:0 2:1 3:0.401807 
-1 1:0 2:1 3:0.402171 
-1 1:1 2:0 3:0.328482 
-1 1:1 2:0 3:0.203375 
-1 1:0 2:1 3:0.40288 
-1 1:1 2:0 3:0.193054 
-1 1:1 2:0 3:0.254563 
-1 1:1 2:0 3:0.314073 
-1 1:0 2:1 3:0.411215 
-1 1:1 2:0 3:0.30987 
-1 1:1 2:0 3:0.335063 
-1 1:0 2:1 3:0.407854 
-1 1:0 2:1 3:0.407819 
-1 1:1 2:0 3:0.388375 
-1 1:0 2:1 3:0.401603 
-1 1:0 2:1 3:0.400951 
-1 1:1 2:0 3:0.369629 
-1 1:0 2:1 3:0.402556 
-1 1:0 2:1 3:0.401947 
-1 1:1 2:0 3:0.182306 
-1 1:1 2:0 3:0.207652 
-1 1:0 2:1 3:0.401076 
-1 1:1 2:0 3:0.192445 
-1 1:0 2:1 3:0.401148 
-1 1:1 2:0 3:0.321032 
-1 1:0 2:1 3:0.406483 
-1 1:0 2:1 3:0.408825 
-1 1:0 2:1 3:0.407422 
-1 1:0 2:1 3:0.411246 
-1 1:0 2:1 3:0.404464 
-1 1:1 2:0 3:0.179563 
-1 1:0 2:1 3:0.409567 
-1 1:1 2:0 3:0.390333 
-1 1:1 2:0 3:0.310156 
-1 1:1 2:0 3:0.198589 
-1 1:0 2:1 3:0.408548 
-1 1:0 2:1 3:0.404093 
-1 1:1 2:0 3:0.332653 
-1 1:1 2:0 3:0.176653 
-1 1:0 2:1 3:0.403073 
-1 1:1 2:0 3:0.40441 
-1 1:0 2:1 3:0.402753 
-1 1:1 2:0 3:0.41034 
-1 1:0 2:1 3:0.408966 
-1 1:0 2:1 3:0.406014 
-1 1:0 2:1 3:0.406556 
-1 1:0 2:1 3:0.403222 
-1 1:1 2:0 3:0.347372 
-1 1:0 2:1 3:0.40234 
-1 1:0 2:1 3:0.403222 
-1 1:0 2:1 3:0.405795 
-1 1:1 2:0 3:0.301516 
-1 1:0 2:1 3:0.404127 
-1 1:1 2:0 3:0.210681 
-1 1:0 2:1 3:0.406732 
-1 1:0 2:1 3:0.409888 
-1 1:1 2:0 3:0.374918 
-1 1:0 2:1 3:0.401738 
-1 1:0 2:1 3:0.408286 
-1 1:1 2:0 3:0.379699 
-1 1:0 2:1 3:0.403267 
-1 1:0 2:1 3:0.409922 
-1 1:0 2:1 3:0.40427 
-1 1:0 2:1 3:0.402674 
-1 1:0 2:1 3:0.409695 
-1 1:1 2:0 3:0.346924 
-1 1:0 2:1 3:0.410885 
-1 1:0 2:1 3:0.410351 
-1 1:0 2:1 3:0.409422 
-1 1:0 2:1 3:0.409322 
-1 1:1 2:0 3:0.342161 
-1 1:1 2:0 3:0.187508 
-1 1:0 2:1 3:0.402444 
-1 1:0 2:1 3:0.404472 
-1 1:0 2:1 3:0.410003 
-1 1:1 2:0 3:0.375598 
-1 1:1 2:0 3:0.225663 
-1 1:0 2:1 3:0.402332 
-1 1:0 2:1 3:0.401753 
-1 1:1 2:0 3:0.191567 
-1 1:1 2:0 3:0.346796 
-1 1:0 2:1 3:0.411252 
-1 1:0 2:1 3:0.410497 
-1 1:0 2:1 3:0.40468 
-1 1:0 2:1 3:0.404522 
-1 1:0 2:1 3:0.410275 
-1 1:1 2:0 3:0.320486 
-1 1:1 2:0 3:0.18272 
-1 1:0 2:1 3:0.401072 
-1 1:0 2:1 3:0.411253 
-1 1:0 2:1 3:0.404099 
-1 1:0 2:1 3:0.409891 
-1 1:0 2:1 3:0.406016 
-1 1:0 2:1 3:0.40254 
-1 1:1 2:0 3:0.196761 
-1 1:1 2:0 3:0.291629 
-1 1:1 2:0 3:0.234415 
-1 1:0 2:1 3:0.402779 
-1 1:0 2:1 3:0.404959 
-1 1:1 2:0 3:0.271423 
-1 1:0 2:1 3:0.407222 
-1 1:0 2:1 3:0.404375 
-1 1:0 2:1 3:0.408967 
-1 1:0 2:1 3:0.404064 
-1 1:0 2:1 3:0.402744 
-1 1:0 2:1 3:0.403804 
-1 1:0 2:1 3:0.401714 
-1 1:1 2:0 3:0.237346 
-1 1:1 2:0 3:0.206872 
-1 1:0 2:1 3:0.404146 
-1 1:1 2:0 3:0.247787 
-1 1:0 2:1 3:0.406661 
-1 1:1 2:0 3:0.395246 
-1 1:0 2:1 3:0.40698 
-1 1:0 2:1 3:0.404801 
-1 1:0 2:1 3:0.405611 
-1 1:1 2:0 3:0.351325 
-1 1:0 2:1 3:0.410512 
-1 1:1 2:0 3:0.301648 
-1 1:0 2:1 3:0.403629 
-1 1:0 2:1 3:0.408971 
-1 1:1 2:0 3:0.392129 
-1 1:1 2:0 3:0.212384 
-1 1:1 2:0 3:0.348812 
-1 1:1 2:0 3:0.264889 
-1 1:0 2:1 3:0.401017 
-1 1:0 2:1 3:0.407892 
-1 1:1 2:0 3:0.227078 
-1 1:1 2:0 3:0.254953 
-1 1:0 2:1 3:0.407811 
-1 1:0 2:1 3:0.402808 
-1 1:0 2:1 3:0.401566 
-1 1:0 2:1 3:0.410928 
-1 1:0 2:1 3:0.406429 
-1 1:0 2:1 3:0.403139 
-1 1:1 2:0 3:0.218029 
-1 1:0 2:1 3:0.411253 
-1 1:1 2:0 3:0.318034 
-1 1:0 2:1 3:0.40525 
-1 1:0 2:1 3:0.406562 
-1 1:0 2:1 3:0.405828 
-1 1:0 2:1 3:0.409351 
-1 1:0 2:1 3:0.406019 
-1 1:1 2:0 3:0.333717 
-1 1:0 2:1 3:0.405208 
-1 1:1 2:0 3:0.334158 
-1 1:1 2:0 3:0.221141 
-1 1:0 2:1 3:0.40236 
-1 1:0 2:1 3:0.408601 
-1 1:0 2:1 3:0.405459 
-1 1:0 2:1 3:0.4102 
-1 1:0 2:1 3:0.407819 
-1 1:0 2:1 3:0.402224 
-1 1:0 2:1 3:0.408878 
-1 1:0 2:1 3:0.410137 
-1 1:1 2:0 3:0.183524 
-1 1:0 2:1 3:0.407639 
-1 1:0 2:1 3:0.405303 
-1 1:1 2:0 3:0.238349 
-1 1:1 2:0 3:0.261013 
-1 1:0 2:1 3:0.406429 
-1 1:0 2:1 3:0.40706 
-1 1:0 2:1 3:0.410888 
-1 1:0 2:1 3:0.408473 
-1 1:1 2:0 3:0.184134 
-1 1:0 2:1 3:0.403854 
-1 1:1 2:0 3:0.308471 
-1 1:0 2:1 3:0.405106 
-1 1:0 2:1 3:0.408347 
-1 1:1 2:0 3:0.24533 
-1 1:0 2:1 3:0.402696 
-1 1:0 2:1 3:0.404837 
-1 1:0 2:1 3:0.409361 
-1 1:0 2:1 3:0.402057 
-1 1:0 2:1 3:0.406322 
-1 1:1 2:0 3:0.295331 
-1 1:0 2:1 3:0.40452 
-1 1:1 2:0 3:0.178614 
-1 1:0 2:1 3:0.403431 
-1 1:0 2:1 3:0.410934 
-1 1:0 2:1 3:0.402317 
-1 1:0 2:1 3:0.405764 
-1 1:0 2:1 3:0.40238 
-1 1:0 2:1 3:0.406521 
-1 1:0 2:1 3:0.402604 
-1 1:1 2:0 3:0.208191 
-1 1:0 2:1 3:0.405883 
-1 1:1 2:0 3:0.199101 
-1 1:0 2:1 3:0.409567 
-1 1:0 2:1 3:0.408473 
-1 1:1 2:0 3:0.220045 
-1 1:0 2:1 3:0.401381 
-1 1:0 2:1 3:0.400941 
-1 1:0 2:1 3:0.411037 
-1 1:0 2:1 3:0.405459 
-1 1:0 2:1 3:0.405044 
-1 1:1 2:0 3:0.177387 
-1 1:0 2:1 3:0.401922 
-1 1:0 2:1 3:0.402941 
-1 1:0 2:1 3:0.402873 
-1 1:1 2:0 3:0.381248 
-1 1:0 2:1 3:0.410379 
-1 1:0 2:1 3:0.402562 
-1 1:0 2:1 3:0.40388 
-1 1:0 2:1 3:0.404184 
-1 1:1 2:0 3:0.271777 
-1 1:0 2:1 3:0.408382 
-1 1:0 2:1 3:0.40858 
-1 1:0 2:1 3:0.403096 
-1 1:0 2:1 3:0.407416 
-1 1:0 2:1 3:0.406575 
-1 1:0 2:1 3:0.403484 
-1 1:0 2:1 3:0.407218 
-1 1:0 2:1 3:0.408981 
-1 1:1 2:0 3:0.296746 
-1 1:1 2:0 3:0.410042 
-1 1:0 2:1 3:0.407941 
-1 1:1 2:0 3:0.221107 
-1 1:0 2:1 3:0.403104 
-1 1:1 2:0 3:0.212087 
-1 1:1 2:0 3:0.324948 
-1 1:0 2:1 3:0.402491 
-1 1:1 2:0 3:0.346913 
-1 1:0 2:1 3:0.408966 
-1 1:0 2:1 3:0.406572 
-1 1:0 2:1 3:0.408763 
-1 1:0 2:1 3:0.407241 
-1 1:1 2:0 3:0.206489 
-1 1:0 2:1 3:0.402511 
-1 1:0 2:1 3:0.402461 
-1 1:1 2:0 3:0.244017 
-1 1:0 2:1 3:0.402615 
-1 1:0 2:1 3:0.401073 
-1 1:0 2:1 3:0.40443 
-1 1:1 2:0 3:0.20915 
-1 1:0 2:1 3:0.408435 
-1 1:0 2:1 3:0.408855 
-1 1:0 2:1 3:0.406233 
-1 1:0 2:1 3:0.408908 
-1 1:1 2:0 3:0.264857 
-1 1:1 2:0 3:0.22068 
-1 1:1 2:0 3:0.329834 
-1 1:0 2:1 3:0.40399 
-1 1:0 2:1 3:0.410408 
-1 1:0 2:1 3:0.403322 
-1 1:0 2:1 3:0.404468 
-1 1:1 2:0 3:0.197473 
-1 1:0 2:1 3:0.402808 
-1 1:0 2:1 3:0.401314 
-1 1:0 2:1 3:0.402356 
-1 1:1 2:0 3:0.279545 
-1 1:1 2:0 3:0.314528 
-1 1:1 2:0 3:0.191406 
-1 1:0 2:1 3:0.407154 
-1 1:0 2:1 3:0.407252 
-1 1:0 2:1 3:0.409583 
-1 1:1 2:0 3:0.38993 
-1 1:1 2:0 3:0.261557 
-1 1:0 2:1 3:0.406431 
-1 1:0 2:1 3:0.408176 
-1 1:0 2:1 3:0.40508 
-1 1:0 2:1 3:0.401566 
-1 1:0 2:1 3:0.407567 
-1 1:0 2:1 3:0.409569 
-1 1:0 2:1 3:0.404673 
-1 1:0 2:1 3:0.407223 
-1 1:1 2:0 3:0.260915 
-1 1:1 2:0 3:0.319553 
-1 1:0 2:1 3:0.401646 
-1 1:0 2:1 3:0.408728 
-1 1:0 2:1 3:0.408757 
-1 1:1 2:0 3:0.220223 
-1 1:0 2:1 3:0.40288 
-1 1:0 2:1 3:0.403148 
-1 1:0 2:1 3:0.401148 
-1 1:0 2:1 3:0.405478 
-1 1:0 2:1 3:0.401724 
-1 1:0 2:1 3:0.40851 
-1 1:0 2:1 3:0.41019 
-1 1:1 2:0 3:0.243508 
-1 1:0 2:1 3:0.402971 
-1 1:0 2:1 3:0.408715 
-1 1:1 2:0 3:0.335383 
-1 1:0 2:1 3:0.404161 
-1 1:0 2:1 3:0.401064 
-1 1:0 2:1 3:0.408156 
-1 1:0 2:1 3:0.403704 
-1 1:1 2:0 3:0.338075 
-1 1:0 2:1 3:0.405946 
-1 1:0 2:1 3:0.401714 
-1 1:0 2:1 3:0.409311 
-1 1:0 2:1 3:0.403864 
-1 1:0 2:1 3:0.409396 
-1 1:0 2:1 3:0.40801 
-1 1:0 2:1 3:0.408347 
-1 1:0 2:1 3:0.410519 
-1 1:0 2:1 3:0.408855 
-1 1:0 2:1 3:0.410756 
-1 1:0 2:1 3:0.407666 
-1 1:0 2:1 3:0.404777 
-1 1:0 2:1 3:0.407884 
-1 1:0 2:1 3:0.407043 
-1 1:1 2:0 3:0.198315 
-1 1:1 2:0 3:0.212969 
-1 1:0 2:1 3:0.401043 
-1 1:1 2:0 3:0.371574 
-1 1:0 2:1 3:0.405831 
-1 1:0 2:1 3:0.40978 
-1 1:0 2:1 3:0.402381 
-1 1:0 2:1 3:0.406823 
-1 1:0 2:1 3:0.401438 
-1 1:1 2:0 3:0.212217 
-1 1:0 2:1 3:0.410471 
-1 1:1 2:0 3:0.258845 
-1 1:1 2:0 3:0.196459 
-1 1:0 2:1 3:0.408878 
-1 1:1 2:0 3:0.378904 
-1 1:0 2:1 3:0.403023 
-1 1:1 2:0 3:0.189693 
-1 1:0 2:1 3:0.408503 
-1 1:1 2:0 3:0.230514 
-1 1:1 2:0 3:0.260744 
-1 1:0 2:1 3:0.407566 
-1 1:0 2:1 3:0.410399 
-1 1:1 2:0 3:0.380379 
-1 1:0 2:1 3:0.411078 
-1 1:1 2:0 3:0.397824 
-1 1:0 2:1 3:0.403514 
-1 1:1 2:0 3:0.2726 
-1 1:0 2:1 3:0.404418 
-1 1:0 2:1 3:0.402876 
-1 1:0 2:1 3:0.404172 
-1 1:0 2:1 3:0.401148 
-1 1:1 2:0 3:0.326551 
-1 1:1 2:0 3:0.310059 
-1 1:1 2:0 3:0.234261 
-1 1:0 2:1 3:0.40427 
-1 1:0 2:1 3:0.402429 
-1 1:0 2:1 3:0.409297 
-1 1:1 2:0 3:0.263485 
-1 1:1 2:0 3:0.180249 
-1 1:0 2:1 3:0.410833 
-1 1:0 2:1 3:0.409685 
-1 1:0 2:1 3:0.403122 
-1 1:0 2:1 3:0.401768 
-1 1:0 2:1 3:0.403755 
-1 1:0 2:1 3:0.400983 
-1 1:1 2:0 3:0.329214 
-1 1:0 2:1 3:0.402424 
-1 1:0 2:1 3:0.409035 
-1 1:0 2:1 3:0.40218 
-1 1:0 2:1 3:0.40567 
-1 1:0 2:1 3:0.407252 
-1 1:0 2:1 3:0.407135 
-1 1:1 2:0 3:0.358963 
-1 1:0 2:1 3:0.404012 
-1 1:0 2:1 3:0.405746 
-1 1:1 2:0 3:0.296016 
-1 1:1 2:0 3:0.249941 
-1 1:0 2:1 3:0.405487 
-1 1:0 2:1 3:0.404522 
-1 1:1 2:0 3:0.285817 
-1 1:1 2:0 3:0.399206 
-1 1:1 2:0 3:0.202739 
-1 1:0 2:1 3:0.410934 
-1 1:0 2:1 3:0.405145 
-1 1:1 2:0 3:0.291738 
-1 1:1 2:0 3:0.17621 
-1 1:0 2:1 3:0.404947 
-1 1:1 2:0 3:0.40208 
-1 1:0 2:1 3:0.411018 
-1 1:1 2:0 3:0.271309 
-1 1:0 2:1 3:0.409199 
-1 1:1 2:0 3:0.216989 
-1 1:0 2:1 3:0.408091 
-1 1:1 2:0 3:0.313278 
-1 1:1 2:0 3:0.353407 
-1 1:0 2:1 3:0.407941 
-1 1:0 2:1 3:0.407842 
-1 1:1 2:0 3:0.289904 
-1 1:0 2:1 3:0.40507 
-1 1:0 2:1 3:0.408091 
-1 1:0 2:1 3:0.401394 
-1 1:0 2:1 3:0.410872 
-1 1:0 2:1 3:0.403431 
-1 1:0 2:1 3:0.404086 
-1 1:0 2:1 3:0.407892 
-1 1:0 2:1 3:0.409824 
-1 1:0 2:1 3:0.403201 
-1 1:0 2:1 3:0.40534 
-1 1:0 2:1 3:0.401438 
-1 1:1 2:0 3:0.379234 
-1 1:1 2:0 3:0.353281 
-1 1:0 2:1 3:0.406668 
-1 1:0 2:1 3:0.404127 
-1 1:1 2:0 3:0.197945 
-1 1:0 2:1 3:0.403804 
-1 1:1 2:0 3:0.323583 
-1 1:0 2:1 3:0.406306 
-1 1:0 2:1 3:0.401314 
-1 1:0 2:1 3:0.404976 
-1 1:0 2:1 3:0.407299 
-1 1:1 2:0 3:0.186003 
-1 1:0 2:1 3:0.404539 
-1 1:1 2:0 3:0.188145 
-1 1:1 2:0 3:0.215069 
-1 1:0 2:1 3:0.410162 
-1 1:1 2:0 3:0.261447 
-1 1:0 2:1 3:0.404777 
-1 1:1 2:0 3:0.185345 
-1 1:1 2:0 3:0.301932 
-1 1:0 2:1 3:0.407892 
-1 1:0 2:1 3:0.403172 
-1 1:1 2:0 3:0.304449 
-1 1:0 2:1 3:0.410839 
-1 1:1 2:0 3:0.310699 
-1 1:1 2:0 3:0.280193 
-1 1:0 2:1 3:0.408751 
-1 1:0 2:1 3:0.405845 
-1 1:0 2:1 3:0.404102 
-1 1:1 2:0 3:0.299388 
-1 1:1 2:0 3:0.209383 
-1 1:0 2:1 3:0.403402 
-1 1:0 2:1 3:0.404531 
-1 1:1 2:0 3:0.207344 
-1 1:1 2:0 3:0.283065 
-1 1:0 2:1 3:0.403123 
-1 1:0 2:1 3:0.410679 
-1 1:0 2:1 3:0.401443 
-1 1:0 2:1 3:0.404965 
-1 1:0 2:1 3:0.402823 
-1 1:0 2:1 3:0.402545 
-1 1:0 2:1 3:0.408803 
-1 1:0 2:1 3:0.407753 
-1 1:1 2:0 3:0.357473 
-1 1:1 2:0 3:0.197475 
-1 1:0 2:1 3:0.405853 
-1 1:0 2:1 3:0.401059 
-1 1:1 2:0 3:0.238948 
-1 1:0 2:1 3:0.401183 
-1 1:0 2:1 3:0.404844 
-1 1:0 2:1 3:0.408983 
-1 1:0 2:1 3:0.401905 
-1 1:0 2:1 3:0.405487 
-1 1:1 2:0 3:0.267383 
-1 1:0 2:1 3:0.403704 
-1 1:0 2:1 3:0.403267 
-1 1:0 2:1 3:0.405669 
-1 1:0 2:1 3:0.402621 
-1 1:0 2:1 3:0.409019 
-1 1:0 2:1 3:0.402491 
-1 1:0 2:1 3:0.403451 
-1 1:0 2:1 3:0.403288 
-1 1:1 2:0 3:0.321724 
-1 1:1 2:0 3:0.183252 
-1 1:0 2:1 3:0.408502 
-1 1:1 2:0 3:0.211904 
-1 1:0 2:1 3:0.402131 
-1 1:1 2:0 3:0.246368 
-1 1:0 2:1 3:0.401976 
-1 1:1 2:0 3:0.272447 
-1 1:1 2:0 3:0.40858 
-1 1:0 2:1 3:0.410181 
-1 1:1 2:0 3:0.359979 
-1 1:1 2:0 3:0.287485 
-1 1:1 2:0 3:0.185432 
-1 1:0 2:1 3:0.404977 
-1 1:0 2:1 3:0.40479 
-1 1:0 2:1 3:0.401515 
-1 1:0 2:1 3:0.410647 
-1 1:1 2:0 3:0.346689 
-1 1:0 2:1 3:0.409132 
-1 1:1 2:0 3:0.196576 
-1 1:0 2:1 3:0.40619 
-1 1:0 2:1 3:0.402258 
-1 1:0 2:1 3:0.403073 
-1 1:0 2:1 3:0.404633 
