svm_type c_svc
kernel_type rbf
gamma 0.333333
nr_class 2
total_sv 2164
rho -0.957079
label 1 -1
nr_sv 1951 213
SV
0.0008411800808479388 1:2 2:1 3:5.010003 
0.02120567786495835 1:31 2:13 3:35.627711 
0.007350324035574482 1:1 2:1 3:15.72927 
0.04186546605889296 1:15 2:51 3:32.846389 
0.01858554448770295 1:28 2:9 3:35.290066 
0.02066176066039804 1:8 2:32 3:7.97284 
0.04279100089995153 1:39 2:66 3:48.790735 
0.04257110726487693 1:28 2:42 3:9.510284 
0.02900631197897396 1:11 2:33 3:5.278898 
0.01567049221424665 1:39 2:8 3:46.384132 
0.03464347188747213 1:20 2:4 3:34.292353 
0.007038736701882629 1:0 2:4 3:23.73729 
0.0008882190600537077 1:0 2:3 3:14.873934 
0.04098876892932984 1:27 2:9 3:50.865105 
1 1:1 2:1 3:0.438763 
0.04274867821078726 1:27 2:10 3:2.808711 
0.0416277378292601 1:5 2:42 3:0.435796 
1 1:0 2:1 3:0.580294 
0.01285512635088971 1:20 2:4 3:8.401152 
0.005948112655645443 1:16 2:5 3:6.141372 
0.04003711729992987 1:19 2:44 3:35.126705 
0.01332243316622898 1:14 2:6 3:4.298487 
0.03801106375073282 1:19 2:14 3:17.43345 
0.009113243422163702 1:24 2:4 3:33.24636 
0.01405387327811701 1:17 2:1 3:4.432446 
1 1:0 2:2 3:0.520456 
0.02534449408149902 1:17 2:21 3:13.381852 
1 1:0 2:13 3:0.458489 
1 1:0 2:5 3:1.096222 
0.04258543814081817 1:12 2:22 3:32.149799 
0.01519651303252918 1:13 2:23 3:4.126668 
0.04276182778679538 1:47 2:48 3:59.142857 
0.02330110647821744 1:29 2:12 3:37.015746 
0.003848507548034952 1:25 2:2 3:30.694474 
0.03844304772520518 1:9 2:1 3:27.513766 
1 1:0 2:3 3:0.81932 
0.02955971257554128 1:3 2:7 3:15.818198 
0.02665750728280575 1:1 2:3 3:33.402655 
0.0428287823720826 1:29 2:2 3:153.2792 
0.04262045651069457 1:10 2:4 3:50.387554 
1 1:1 2:14 3:1.01783 
0.02799413078016865 1:3 2:8 3:7.584309 
0.04278881549418184 1:1 2:171 3:7.584309 
0.009394647028029068 1:1 2:4 3:16.653968 
0.04300105358644435 1:1 2:363 3:5.046291 
0.04277069121529087 1:43 2:37 3:6.848044 
0.04289963435567351 1:51 2:590 3:0.656205 
0.1198097395412741 1:2 2:47 3:1.028549 
0.04281133535898574 1:37 2:186 3:2.147301 
0.04281989090553501 1:42 2:17 3:4.645707 
0.01873281314736436 1:2 2:3 3:17.149698 
0.02625042390563724 1:4 2:29 3:4.645707 
0.0163698121437434 1:15 2:1 3:2.342481 
0.04274541601299481 1:34 2:18 3:27.138162 
0.03662967534786848 1:6 2:35 3:5.586528 
0.01537987565794454 1:11 2:9 3:5.12667 
0.01980820144326123 1:23 2:7 3:21.423022 
0.02477709426824161 1:19 2:9 3:16.002661 
0.01999763707733881 1:14 2:11 3:6.979899 
0.01460727011513396 1:18 2:3 3:4.719955 
0.001151748290453161 1:6 2:20 3:4.254814 
0.01753858164319635 1:5 2:21 3:2.196619 
0.0407551021422648 1:6 2:8 3:12.552828 
1 1:0 2:1 3:0.45874 
1 1:0 2:1 3:0.668191 
0.02284456362313265 1:24 2:3 3:41.047619 
0.04268338563605939 1:16 2:20 3:36.10045 
0.01272193724097126 1:19 2:7 3:40.20277 
0.02646345242420117 1:24 2:1 3:48.5 
0.02505899390166838 1:24 2:48 3:44.262456 
1 1:0 2:4 3:0.478288 
0.01219355872113537 1:2 2:1 3:10.706112 
0.005738625078943087 1:16 2:13 3:8.959767 
0.02586048187613811 1:6 2:25 3:2.295923 
0.03125760446413171 1:15 2:13 3:22.705664 
0.006030953272379817 1:16 2:3 3:7.522465 
0.02326004113310903 1:25 2:13 3:32.114592 
0.00776841100817912 1:10 2:16 3:4.122227 
0.03512659959864667 1:16 2:44 3:42.310254 
0.04308575778302542 1:4 2:54 3:42.65 
0.01483282567618077 1:4 2:19 3:2.470071 
0.006684430793754994 1:12 2:24 3:5.339835 
0.04127413306557992 1:31 2:37 3:44.332143 
0.003588009584136429 1:9 2:8 3:4.040809 
0.03666727074542153 1:28 2:42 3:43.809524 
0.04276981094365082 1:27 2:50 3:28.516772 
0.036054966828794 1:18 2:1 3:22.101536 
0.04292067453930309 1:22 2:31 3:38.52381 
0.03963609214164777 1:23 2:15 3:15.497042 
0.03301860062245567 1:35 2:3 3:28.797785 
0.04290809797139611 1:39 2:19 3:39.749179 
0.01841053103873359 1:20 2:5 3:36.501223 
1 1:0 2:1 3:0.450133 
0.03141437841724513 1:5 2:15 3:13.960712 
0.04260566961532475 1:21 2:42 3:0.440413 
0.01502531740935819 1:15 2:15 3:5.331643 
0.02273326168320301 1:14 2:25 3:3.475287 
0.009217575599290878 1:27 2:15 3:29.933271 
0.02761832718697943 1:6 2:2 3:28.405479 
0.01241554662003591 1:17 2:30 3:11.35928 
1 1:0 2:20 3:1.408268 
1 1:0 2:1 3:0.664884 
0.01658681260305439 1:2 2:31 3:4.305339 
0.004250302676914263 1:2 2:5 3:6.894929 
1 1:0 2:1 3:0.487118 
0.02480500109005013 1:0 2:43 3:14.605387 
0.02870334657652865 1:0 2:15 3:5.520621 
0.01857693047688686 1:0 2:3 3:25.519517 
0.02920104500629379 1:15 2:2 3:23.550874 
0.02797480803510482 1:14 2:8 3:2.930116 
0.04034343536008972 1:27 2:9 3:46.792651 
0.04101191358082457 1:27 2:26 3:20.26945 
0.01579848429060486 1:10 2:5 3:1.421148 
0.007215807175316275 1:17 2:1 3:9.883686 
0.01895121459394658 1:26 2:8 3:22.168226 
0.002577939219808652 1:26 2:5 3:12.499729 
0.02661620339753551 1:7 2:18 3:8.841151 
0.04015567341025927 1:2 2:8 3:25.613803 
0.01822449069428794 1:20 2:23 3:11.386245 
0.04328713083897517 1:17 2:16 3:57.146755 
0.01455586864572644 1:18 2:7 3:11.659925 
0.03202148265832955 1:19 2:12 3:20.925519 
0.02166088279067691 1:10 2:5 3:8.64858 
0.003167409904811287 1:12 2:5 3:3.483132 
0.01053523615328654 1:11 2:27 3:5.840116 
0.00411613936636863 1:10 2:7 3:5.168634 
0.006261729104653096 1:12 2:7 3:2.172261 
0.03805473645331073 1:23 2:1 3:16.0886 
0.0276022813259772 1:22 2:1 3:49.65 
0.01234832965090998 1:9 2:17 3:4.467567 
0.03730097798681992 1:22 2:2 3:57.828329 
1 1:0 2:1 3:0.430807 
0.009174187790891375 1:16 2:3 3:3.789382 
0.03369874527883121 1:36 2:14 3:38.151645 
1 1:0 2:1 3:0.567038 
0.02298814071400351 1:18 2:6 3:28.422144 
0.02587032629815844 1:32 2:11 3:33.521891 
0.03820730557771929 1:17 2:38 3:36.238095 
0.01902053134251745 1:24 2:5 3:42.047619 
0.04288239718222042 1:22 2:61 3:14.887379 
0.006739069977786466 1:27 2:9 3:10.915293 
0.03941113849537348 1:13 2:50 3:7.577606 
0.02955030892831728 1:11 2:13 3:0.745606 
0.04207953777745793 1:33 2:51 3:56.714286 
1 1:0 2:6 3:0.679348 
0.008205812026034248 1:7 2:11 3:2.297163 
0.004483342730237511 1:12 2:9 3:6.911889 
0.02263194622982673 1:0 2:20 3:9.08391 
0.03231282125700399 1:8 2:17 3:1.473219 
0.007443483487786142 1:13 2:21 3:7.559538 
0.02108224837110295 1:9 2:19 3:9.919987 
0.03412473790930864 1:5 2:8 3:16.23471 
0.01885040565480348 1:9 2:3 3:9.787287 
0.04195076643321034 1:10 2:48 3:10.166483 
0.002238633719657906 1:9 2:21 3:3.436556 
0.02562318838303146 1:0 2:9 3:12.328095 
0.04281020949213388 1:0 2:54 3:45.429424 
0.04300885250973907 1:0 2:22 3:21.756964 
0.003642754490761012 1:29 2:10 3:38.059438 
0.00446016712057083 1:16 2:7 3:4.825008 
0.004031986700313392 1:5 2:29 3:4.666817 
0.04287073465575431 1:7 2:45 3:14.159315 
0.0175386819705671 1:11 2:25 3:4.122801 
0.01098367944338645 1:11 2:1 3:39.082402 
0.007529962773976299 1:30 2:9 3:38.517892 
0.02463902462347061 1:4 2:11 3:10.91509 
0.04277850796748844 1:7 2:42 3:9.75535 
1 1:0 2:1 3:0.581028 
0.0220674019032959 1:26 2:10 3:25.866908 
0.02879115922771336 1:27 2:12 3:25.636368 
0.02318086239251095 1:30 2:13 3:33.715426 
0.04265509708505505 1:35 2:48 3:58.238095 
0.03320475873837361 1:20 2:1 3:19.769568 
0.007321280185132876 1:8 2:9 3:4.628909 
0.04287990345303344 1:21 2:79 3:28.388626 
0.04278836721958912 1:25 2:85 3:29.500434 
0.00619647914146546 1:6 2:8 3:2.785845 
0.04248373268629002 1:19 2:48 3:21.654624 
0.01454898787064662 1:16 2:1 3:3.25574 
0.02573869616162826 1:25 2:5 3:38.972986 
0.00850637707838889 1:11 2:24 3:6.24447 
0.004237274938462502 1:2 2:3 3:6.267877 
0.01251975826906454 1:11 2:22 3:8.892602 
1 1:0 2:3 3:0.556113 
0.01392407812366204 1:0 2:1 3:29.567094 
0.03463758764006497 1:31 2:4 3:41.963437 
1 1:0 2:13 3:0.48331 
0.03197844914600295 1:26 2:10 3:10.02256 
0.04300081668468897 1:30 2:41 3:22.361253 
0.03474889154067659 1:13 2:1 3:44.243446 
0.02054112466621641 1:8 2:6 3:7.32769 
0.0180992246311427 1:14 2:18 3:13.978583 
0.006342998655408153 1:10 2:26 3:7.084158 
0.03868944719852363 1:18 2:2 3:32.11112 
0.04260503513699643 1:23 2:9 3:4.662303 
0.02091209003983646 1:22 2:13 3:23.146477 
0.04269299577881397 1:30 2:50 3:59.022609 
1 1:0 2:1 3:0.478691 
0.0427595450398115 1:1 2:14 3:40.238095 
0.03411288594333062 1:20 2:14 3:27.92048 
0.007599698509199755 1:17 2:10 3:7.944292 
0.04274870114096702 1:36 2:14 3:26.139312 
0.02484014500100301 1:28 2:9 3:29.939843 
0.02218511919134305 1:16 2:2 3:34.904762 
0.01286025312295733 1:15 2:2 3:34.588169 
0.01238904777378311 1:5 2:21 3:3.756321 
0.04282009663448133 1:28 2:37 3:11.711131 
0.04300155311791887 1:31 2:8 3:59.857143 
0.02782978628020588 1:34 2:6 3:34.860489 
0.02389624554974839 1:16 2:19 3:9.083925 
0.04076831591707997 1:22 2:39 3:24.735843 
1 1:0 2:2 3:0.632025 
0.01806924791409923 1:12 2:30 3:8.554588 
0.02416797170923171 1:30 2:9 3:33.439857 
0.02695085635930039 1:21 2:27 3:9.462361 
0.02973562067947218 1:18 2:11 3:29.649248 
0.04155243003055964 1:12 2:35 3:11.273804 
0.02474364956254327 1:1 2:2 3:37.184753 
0.04153857478090606 1:21 2:31 3:12.53306 
0.02167963516708672 1:18 2:17 3:8.164821 
0.03293551142509493 1:21 2:24 3:12.722314 
1 1:0 2:1 3:0.528287 
0.008808537871780486 1:15 2:25 3:8.174083 
0.02233567075922731 1:5 2:7 3:2.468701 
0.03727861149016939 1:31 2:13 3:21.707362 
0.03819276409813606 1:18 2:39 3:33.52381 
0.03896073321500276 1:6 2:5 3:25.042817 
0.02457193265897567 1:20 2:7 3:35.656651 
0.03828733525822703 1:28 2:38 3:51.459932 
0.01449375106601832 1:21 2:5 3:14.659763 
0.0427517175471987 1:12 2:21 3:86.4056 
0.03765608764622136 1:18 2:13 3:32.380952 
0.009717742953675862 1:16 2:3 3:9.264214 
0.002196715644609397 1:13 2:15 3:9.180296 
0.03291242445527824 1:10 2:34 3:7.617049 
0.03762952636046117 1:26 2:4 3:21.524806 
0.04190248524837259 1:23 2:20 3:9.726326 
0.01095584186502278 1:6 2:5 3:2.525536 
0.009454116387337227 1:11 2:6 3:1.439689 
0.03893614050634454 1:9 2:6 3:12.386364 
0.003687816508035203 1:13 2:6 3:4.823823 
0.006321996118906938 1:10 2:3 3:11.924021 
0.0412626108688306 1:26 2:22 3:8.073388 
0.01745879342722861 1:22 2:7 3:21.688094 
1 1:0 2:4 3:0.421242 
1 1:0 2:2 3:0.627087 
1 1:0 2:6 3:0.475061 
1 1:0 2:6 3:0.962944 
1 1:0 2:6 3:0.475061 
0.0165964185996465 1:7 2:9 3:2.615835 
0.02632876982874172 1:21 2:5 3:25.270385 
0.01926758542217254 1:11 2:2 3:2.508453 
0.008508200260632037 1:8 2:15 3:3.488112 
0.009151794590911658 1:8 2:8 3:4.910266 
0.0215841573720401 1:17 2:10 3:17.734253 
0.002364617785909107 1:1 2:1 3:5.754668 
1 1:0 2:6 3:0.939932 
0.04261820264401733 1:4 2:28 3:14.543309 
0.03977068050913196 1:4 2:38 3:5.941224 
0.01733958739354494 1:23 2:5 3:8.285362 
0.002907837285917585 1:25 2:5 3:34.590093 
0.01962481860052248 1:21 2:5 3:13.251087 
0.001908265831163214 1:9 2:22 3:5.834772 
0.01009111381991368 1:23 2:4 3:13.501851 
0.03850131537682387 1:23 2:5 3:46.136059 
0.04282723812704642 1:174 2:76 3:8.982531 
0.04235206082666498 1:3 2:8 3:29.307423 
0.04277274524301916 1:21 2:37 3:50.068868 
0.0310833016091373 1:20 2:11 3:48.67203 
0.007319546361434245 1:7 2:22 3:4.602486 
0.0143105595782857 1:17 2:7 3:23.022121 
0.009671701284726919 1:0 2:1 3:17.956783 
0.0425569202962916 1:21 2:34 3:15.453742 
0.0200397102066967 1:12 2:3 3:17.821517 
0.0003167085732938146 1:10 2:17 3:5.355342 
0.04183835283803872 1:35 2:6 3:47.713481 
0.4392275441715945 1:1 2:1 3:0.494528 
0.0173796635794807 1:29 2:2 3:36.286184 
0.03594476113500074 1:13 2:44 3:34.1 
1 1:0 2:1 3:0.484345 
0.01007637426124946 1:8 2:1 3:6.036069 
0.004192151421715251 1:11 2:4 3:9.301134 
0.01046026714173724 1:15 2:8 3:8.111851 
0.02731932945573184 1:39 2:10 3:46.78004 
0.02292509279974834 1:23 2:4 3:15.289638 
0.0226230827193236 1:27 2:11 3:34.133106 
0.04164183275930268 1:25 2:31 3:44.333333 
0.04283516961000483 1:17 2:22 3:47.85 
0.002894154298889803 1:26 2:6 3:37.978095 
0.03694305700092293 1:29 2:35 3:43.047619 
0.01556069178550934 1:9 2:20 3:7.815029 
0.0427610045305401 1:14 2:6 3:78.098822 
0.003166780322499417 1:19 2:6 3:7.446764 
0.01250262101084917 1:14 2:10 3:8.508737 
0.02730499678209407 1:24 2:3 3:11.970888 
0.007873680873721478 1:15 2:4 3:5.230269 
0.03642235446605674 1:17 2:16 3:16.781262 
0.0428119576450306 1:39 2:23 3:12.407413 
0.03083510130750646 1:10 2:20 3:11.966125 
0.01727062054613225 1:16 2:3 3:12.083348 
1 1:0 2:1 3:0.569068 
0.0167041949980461 1:18 2:13 3:14.409495 
0.04073678352658905 1:18 2:3 3:0.500595 
0.03438092298453355 1:32 2:1 3:40.96914 
0.009706112456178844 1:6 2:1 3:4.317851 
0.006578325929580631 1:19 2:11 3:20.367195 
0.02922060643198859 1:16 2:6 3:24.586729 
0.0392181902999737 1:14 2:52 3:52.554125 
0.02853217014409515 1:32 2:3 3:36.668196 
0.02374909219889346 1:20 2:4 3:27.166969 
0.02040267983768786 1:10 2:10 3:6.82444 
0.01971592390085324 1:14 2:31 3:6.435759 
0.02411068186802518 1:21 2:10 3:16.357584 
0.008899640582963249 1:12 2:24 3:7.633987 
0.0207016674888329 1:25 2:1 3:32.857143 
1 1:0 2:1 3:0.502342 
0.006675789686187504 1:5 2:1 3:10.495411 
0.003485004938065361 1:27 2:18 3:24.843894 
0.02239619579284056 1:18 2:11 3:6.971692 
0.01927189158798115 1:21 2:39 3:42.380952 
0.0376992368228739 1:6 2:20 3:12.090681 
0.008445984967246148 1:28 2:6 3:28.764637 
0.00862054717150453 1:12 2:21 3:8.122167 
0.02502592588082307 1:17 2:10 3:30.480641 
0.02290067587371247 1:24 2:11 3:10.417317 
0.0175345784277969 1:11 2:21 3:11.013334 
0.02235776455707079 1:26 2:2 3:43.285714 
0.01549461323761174 1:8 2:18 3:6.997558 
0.00965866056545244 1:17 2:7 3:8.576781 
0.03903868319039056 1:15 2:54 3:51.154788 
0.03313124952978432 1:10 2:27 3:1.313229 
0.02525422324202264 1:21 2:7 3:17.783288 
0.02852114936523735 1:34 2:7 3:39.037194 
0.04144155362733243 1:8 2:23 3:15.485315 
0.03927155008483574 1:19 2:16 3:24.413318 
0.02045006828299458 1:14 2:14 3:9.334275 
0.004408505636154521 1:12 2:20 3:5.799533 
0.007328075261837891 1:34 2:14 3:34.228399 
0.02601298957874716 1:7 2:5 3:32.521243 
0.0348704586080828 1:14 2:44 3:41.579476 
0.03938029930580034 1:19 2:47 3:31.247246 
1 1:4 2:1 3:0.573596 
0.0285228456571755 1:13 2:27 3:11.327263 
0.04339285248714009 1:30 2:11 3:55.582324 
0.02906969017065624 1:0 2:40 3:5.221148 
0.02643517943777047 1:3 2:14 3:6.28531 
0.01161217907861278 1:16 2:10 3:14.497416 
0.01379852982459445 1:9 2:7 3:24.607209 
0.01018246026165497 1:4 2:5 3:5.816647 
0.01592537170058701 1:3 2:6 3:7.204376 
0.04105658905880288 1:36 2:30 3:39.158977 
0.03798974980602648 1:1 2:14 3:48.207343 
0.04286368166200669 1:0 2:3 3:83.328946 
0.04261272007749295 1:1 2:9 3:53.111843 
0.01399618894950008 1:0 2:5 3:8.069609 
1 1:1 2:1 3:0.460631 
0.03810794576227368 1:7 2:14 3:19.904762 
0.03896863262876654 1:16 2:53 3:43.857143 
0.03159672235622517 1:10 2:31 3:3.958124 
0.01465183054861152 1:9 2:1 3:37.428571 
0.01573170207077424 1:6 2:13 3:3.148532 
0.02715195056071978 1:22 2:5 3:42.622893 
0.02752855290366099 1:22 2:35 3:28.559836 
0.04252006695520261 1:36 2:12 3:52.428571 
0.03291908390350679 1:10 2:7 3:30 
0.005419141212726559 1:24 2:3 3:15.365925 
0.0387549753742219 1:31 2:19 3:9.922167 
0.01964051648480104 1:20 2:16 3:8.547315 
0.02818615427520388 1:26 2:41 3:40.809524 
0.005658642194711272 1:5 2:8 3:3.689962 
1 1:0 2:1 3:0.604853 
0.03526478000907067 1:27 2:16 3:17.25914 
0.02130925739546069 1:28 2:7 3:31.635215 
0.04159707673853319 1:30 2:17 3:18.529546 
0.01269253000548751 1:7 2:10 3:4.31821 
0.04175328993254068 1:34 2:13 3:47.335258 
0.04105708431092581 1:28 2:31 3:22.78173 
1 1:0 2:1 3:0.485349 
0.03440884797896329 1:22 2:1 3:27.8 
0.03511119190987769 1:30 2:18 3:27.088366 
0.0006392991702934836 1:10 2:4 3:3.700181 
0.04147608920219303 1:17 2:12 3:35.230707 
0.0400209025524062 1:36 2:12 3:30.089827 
0.004893929337668079 1:8 2:3 3:5.312348 
0.04247745678214695 1:23 2:51 3:30.714286 
0.005372164258705922 1:14 2:4 3:6.16566 
0.02413540410704451 1:17 2:7 3:29.902966 
0.04291555540088617 1:0 2:20 3:30.468394 
0.02488645302407572 1:8 2:3 3:24.428571 
0.03817633072570648 1:30 2:20 3:7.817519 
0.0009386882103091679 1:14 2:1 3:7.296405 
0.01473207124786037 1:16 2:21 3:10.902098 
0.02453359991861599 1:14 2:42 3:14.450911 
0.03198237078820254 1:17 2:31 3:12.280588 
1 1:0 2:1 3:0.490666 
0.02669431624645491 1:29 2:13 3:23.122778 
0.02720190739974354 1:21 2:4 3:22.966834 
0.04262897422050005 1:17 2:18 3:0.946322 
0.008470168085324137 1:6 2:18 3:5.839411 
0.03498391058773586 1:12 2:5 3:35.253834 
0.04066393263239824 1:12 2:9 3:36.904762 
0.01934744422915791 1:0 2:1 3:23.238095 
0.01228163279499079 1:18 2:14 3:11.624134 
0.02169779377385006 1:19 2:8 3:9.32172 
1 1:0 2:1 3:0.62577 
1 1:0 2:1 3:0.463664 
0.01364959620706964 1:10 2:25 3:2.110344 
0.04300956158351665 1:10 2:30 3:94.172892 
0.02668189260389023 1:13 2:6 3:25.650926 
0.02337990306472735 1:10 2:14 3:2.578609 
0.01412471136244892 1:13 2:4 3:2.416431 
0.04282612237819927 1:14 2:66 3:9.865699 
0.02221537993310317 1:12 2:4 3:10.345937 
0.02656192174806729 1:18 2:49 3:44.426346 
0.01712267871681156 1:27 2:6 3:36.331688 
0.02812666196471703 1:3 2:22 3:6.834397 
0.03313522019487886 1:6 2:37 3:10.479857 
0.0124952523459654 1:19 2:13 3:14.314052 
1 1:0 2:1 3:0.426209 
0.6087942206232246 1:0 2:24 3:1.832536 
0.01321238942563135 1:0 2:1 3:42.628918 
0.003443326787196554 1:0 2:1 3:5.810522 
0.0318607129869041 1:0 2:1 3:46.164465 
0.0428809090373638 1:1 2:22 3:45.155279 
1 1:1 2:10 3:0.484857 
0.01014028529377446 1:1 2:3 3:14.115325 
0.02087731162010387 1:0 2:11 3:11.838501 
0.02606437108745644 1:6 2:1 3:19.721501 
0.03689179940470266 1:21 2:50 3:15.299359 
0.0428160584971442 1:32 2:73 3:34.142857 
0.01950375708546871 1:25 2:2 3:33.996239 
0.01713737748586773 1:25 2:10 3:36.472558 
0.04025421687943131 1:18 2:15 3:38.65 
0.04317193945605874 1:28 2:69 3:52.47619 
0.01529381533224352 1:10 2:12 3:5.912746 
1 1:0 2:1 3:0.627957 
0.01445468479299575 1:32 2:12 3:27.581092 
0.02052548669119599 1:17 2:5 3:2.210806 
0.01576871008812009 1:4 2:48 3:0.789427 
0.008121867490231808 1:12 2:3 3:7.789217 
0.005406792693157969 1:25 2:49 3:52.901626 
0.004873682234306696 1:5 2:18 3:2.890282 
0.03468416498884236 1:0 2:26 3:6.632547 
0.03501696957063005 1:28 2:8 3:43.060693 
0.02953229294769344 1:17 2:17 3:14.471315 
0.02122495835302494 1:27 2:6 3:28.067273 
0.02152018762818867 1:3 2:2 3:20.057522 
1 1:0 2:11 3:0.764226 
0.02596451967385065 1:0 2:15 3:10.725955 
0.02533559486162467 1:3 2:15 3:14.95 
0.014342117202751 1:1 2:10 3:5.754157 
0.01972003376520358 1:9 2:29 3:6.32233 
0.02076758812729726 1:6 2:10 3:6.785643 
0.01115604706571773 1:17 2:12 3:7.390223 
1 1:0 2:13 3:1.140001 
0.03224123697849041 1:26 2:18 3:24.877326 
0.03777984649602917 1:12 2:6 3:15.098025 
0.03906657759442639 1:28 2:13 3:20.290091 
0.04297191159821517 1:23 2:56 3:31.430142 
0.03300125742760572 1:23 2:1 3:32.809524 
0.03288591551766651 1:12 2:15 3:10.956071 
0.04275810902392241 1:26 2:60 3:33.76619 
0.03658876539869216 1:11 2:23 3:24.714286 
0.04279153621373522 1:29 2:79 3:35.990778 
0.02431544661809915 1:8 2:12 3:11.490026 
0.02150573068075213 1:0 2:1 3:115.81881 
0.03297887477882736 1:17 2:20 3:16.106609 
0.005918158532936105 1:12 2:1 3:6.021042 
0.01661347772181846 1:15 2:29 3:12.619495 
0.01495845658274912 1:21 2:11 3:34.029312 
0.177045144863458 1:0 2:36 3:2.97484 
0.04139625745683811 1:22 2:21 3:25.637906 
0.03060521425694817 1:5 2:11 3:2.724741 
0.01695820179937252 1:23 2:7 3:25.730178 
0.02248229264551493 1:5 2:1 3:8.712853 
0.01228927187401857 1:14 2:3 3:8.712853 
0.004096864788192445 1:14 2:6 3:8.106473 
0.01477763664821361 1:26 2:12 3:31.310584 
0.02721824652626681 1:33 2:2 3:37.809524 
0.02975343823718494 1:16 2:11 3:12.256201 
0.00726194756688157 1:14 2:18 3:6.499537 
0.02736246851635071 1:5 2:4 3:33.027768 
0.03487443540508611 1:31 2:10 3:25.469223 
0.001928178594426902 1:13 2:3 3:2.505076 
0.008307451000224611 1:12 2:4 3:4.812282 
0.04279189176412085 1:1 2:31 3:22.505493 
0.04281517276538466 1:1 2:1 3:63.324885 
0.008506343679075856 1:10 2:18 3:7.645079 
1 1:0 2:1 3:0.493299 
0.00712568777198546 1:2 2:2 3:7.718948 
0.003685427908663602 1:1 2:10 3:6.870092 
0.03116205008704507 1:15 2:12 3:20.645693 
0.008623670656592121 1:6 2:22 3:2.83064 
0.01014808516116696 1:12 2:11 3:7.970104 
0.002065782708020047 1:0 2:4 3:11.371949 
0.00723692989142548 1:19 2:6 3:7.962454 
0.03440725210340834 1:17 2:28 3:11.800671 
0.03906467996592083 1:0 2:5 3:69.980861 
0.04275660052118413 1:41 2:94 3:1.785546 
0.01867234996650866 1:6 2:28 3:4.894894 
0.04273497673196158 1:8 2:356 3:5.059081 
0.04279088446624002 1:1 2:163 3:2.026377 
0.0123070498581256 1:22 2:8 3:32.486383 
0.01547949486457718 1:6 2:14 3:5.115276 
0.02730029315955013 1:11 2:9 3:16.685136 
0.02856740312221414 1:32 2:11 3:39.809524 
0.004514246895573471 1:16 2:2 3:2.756093 
0.008079854403424611 1:13 2:27 3:6.561714 
0.03757406441834332 1:9 2:33 3:10.637787 
1 1:0 2:1 3:0.61736 
0.02312002200593055 1:22 2:14 3:25.370929 
0.01307277401290474 1:22 2:13 3:30.892578 
0.04225020711052696 1:33 2:11 3:19.115745 
0.03246931218387544 1:22 2:10 3:37.641649 
0.005244028762880823 1:2 2:14 3:6.134426 
0.03250418632940161 1:17 2:50 3:41.761905 
0.04286955749985799 1:20 2:38 3:12.964708 
0.02887096612476991 1:30 2:4 3:29.591598 
0.03637404839172154 1:16 2:44 3:19.382998 
0.04256708843052098 1:17 2:54 3:33.904762 
0.02783885101119149 1:33 2:9 3:34.636096 
0.03902591505869785 1:26 2:9 3:13.691492 
0.02292595544580176 1:28 2:11 3:40.969366 
0.01878266707839915 1:1 2:11 3:8.045478 
0.04284992738471172 1:7 2:6 3:44.077924 
0.03547699576642727 1:17 2:28 3:7.997952 
0.02084538407544229 1:17 2:25 3:9.663704 
0.0218251525931968 1:24 2:6 3:24.61374 
0.01645592524286316 1:15 2:4 3:2.658025 
0.01004361473754118 1:7 2:21 3:2.150174 
0.04064652695988585 1:39 2:11 3:41.664895 
0.03413567669971351 1:23 2:10 3:16.613965 
0.04252248493379145 1:33 2:18 3:36.589015 
0.001665357976746722 1:5 2:23 3:5.537844 
0.01806329451621781 1:14 2:3 3:11.50166 
0.02149341086724244 1:10 2:2 3:12.462467 
0.04233801362385009 1:22 2:51 3:52.095238 
0.01530718831413668 1:18 2:5 3:5.377789 
0.003501483934843182 1:13 2:24 3:7.030771 
0.01776063264596294 1:0 2:1 3:21.455193 
0.01529876861216479 1:5 2:19 3:5.466027 
0.03390640086317986 1:0 2:4 3:34.98226 
0.009287569200042436 1:0 2:3 3:15.62254 
0.02347225606243197 1:17 2:14 3:4.789548 
1 1:0 2:4 3:0.473525 
0.04291220793758713 1:0 2:38 3:18.400898 
0.01711727371611815 1:7 2:19 3:1.045093 
0.3233116692145052 1:0 2:17 3:1.906187 
0.01156738991598792 1:0 2:4 3:9.174424 
0.03414952487920558 1:30 2:8 3:48.2 
0.03694717449832341 1:21 2:1 3:41.571429 
1 1:0 2:1 3:0.421042 
0.04284869199377972 1:5 2:18 3:53.141393 
0.04281614496158992 1:13 2:58 3:35.809524 
1 1:0 2:17 3:0.425321 
0.008873324178413286 1:0 2:17 3:6.903528 
1 1:0 2:17 3:0.616135 
0.02497815799590403 1:18 2:6 3:38.428571 
0.006414990140833222 1:8 2:6 3:4.167796 
0.008600637225949084 1:12 2:5 3:25.381885 
0.002889203848097282 1:0 2:2 3:5.844237 
1 1:0 2:25 3:1.111539 
0.02817852351505488 1:2 2:9 3:14.244774 
0.0006673285945617733 1:17 2:3 3:6.662656 
0.01377848059484193 1:8 2:30 3:3.240717 
0.03140556081871899 1:18 2:5 3:32.258738 
0.004326041730665779 1:1 2:3 3:5.971872 
0.02192504735722556 1:12 2:18 3:3.168536 
0.02546693128684669 1:24 2:1 3:30.018323 
0.04287375543740232 1:24 2:42 3:8.395394 
0.0379579622212195 1:1 2:16 3:46.723862 
0.01825740131965523 1:5 2:2 3:10.919305 
0.04275345673110065 1:7 2:27 3:25.290999 
0.02355528446443418 1:9 2:10 3:1.717634 
0.01770163096997396 1:2 2:1 3:24.582339 
0.03511318964097881 1:8 2:33 3:16.799905 
0.001778688775627393 1:5 2:24 3:3.832949 
0.02143746194225049 1:6 2:2 3:20.812838 
0.03596977676370106 1:15 2:27 3:1.738238 
1 1:0 2:1 3:0.549859 
0.03833843770626727 1:12 2:18 3:15.031628 
0.01797837042106503 1:3 2:1 3:5.143776 
0.006578717854456269 1:8 2:27 3:6.246294 
0.01684693763136398 1:2 2:26 3:7.084191 
0.02327524533092477 1:24 2:9 3:41.81844 
0.007195819208411428 1:7 2:19 3:3.527687 
0.03987479363995516 1:21 2:48 3:32.837573 
0.003408693703127499 1:15 2:5 3:7.319468 
0.04231443519479666 1:11 2:37 3:26.868352 
0.0143009105485755 1:0 2:20 3:5.905136 
1 1:0 2:1 3:0.583517 
1 1:0 2:1 3:0.583517 
0.01652882358494279 1:0 2:7 3:10.436237 
0.02724559534095189 1:0 2:7 3:20.223115 
0.02223627111367609 1:4 2:3 3:4.934673 
1 1:0 2:28 3:1.186334 
0.009624182022173241 1:0 2:1 3:25.418643 
0.02111330882249746 1:0 2:1 3:31.205715 
0.01749865487472331 1:0 2:4 3:5.788025 
0.007826849406436631 1:0 2:8 3:11.454567 
0.03381913743359945 1:0 2:1 3:108.54007 
0.02864423748870859 1:0 2:10 3:15.460495 
0.0179177585243592 1:0 2:1 3:15.460495 
0.03657441498795222 1:3 2:13 3:36.871506 
0.0340151860424364 1:0 2:3 3:108.54007 
0.0008823651097836173 1:0 2:6 3:7.754831 
0.007082962484433846 1:0 2:1 3:36.949266 
0.04272213247365364 1:4 2:131 3:36.949266 
0.001387541031267703 1:0 2:1 3:77.160421 
0.02415822494089367 1:0 2:2 3:77.160421 
0.01858818035910721 1:0 2:1 3:11.190415 
0.04280538183605176 1:0 2:14 3:98.374194 
0.01710078202839782 1:0 2:2 3:98.374194 
0.04274599212172614 1:0 2:1 3:142.3635 
0.001835666766717406 1:0 2:2 3:10.575653 
0.03934352304591021 1:0 2:12 3:19.01215 
0.01865240868334457 1:0 2:1 3:37.529505 
0.003515697877392698 1:0 2:1 3:9.036976 
0.007763666510569886 1:0 2:12 3:5.168381 
0.04228290729137919 1:0 2:1 3:72.2648 
0.02715223119092068 1:0 2:3 3:48.361942 
0.03749695218238314 1:0 2:1 3:137.87707 
0.02746381920243232 1:0 2:9 3:19.835793 
0.01863932984684952 1:1 2:4 3:22.783949 
1 1:0 2:1 3:0.655799 
0.01837175918012274 1:2 2:16 3:1.55633 
0.08530556697419159 1:8 2:2 3:0.534415 
1 1:0 2:1 3:0.434599 
1 1:0 2:1 3:0.596446 
0.03081973954661541 1:17 2:8 3:0.583347 
0.02844435195928838 1:0 2:13 3:13.331688 
0.01266941181630079 1:0 2:1 3:17.270431 
0.03508406014326989 1:15 2:3 3:39.394725 
1 1:0 2:3 3:0.838462 
0.03681371724459358 1:8 2:7 3:16.273104 
0.01000174399882304 1:1 2:5 3:23.753176 
1 1:0 2:1 3:0.649096 
0.02081816894224486 1:29 2:3 3:44.15 
0.0407237650120062 1:33 2:55 3:45.940844 
0.02250726201064671 1:22 2:12 3:35.047619 
0.02875795269385129 1:21 2:8 3:29.621648 
0.0001196815607834515 1:12 2:2 3:2.852911 
0.2216792658023688 1:1 2:10 3:0.971579 
1 1:0 2:1 3:0.522076 
1 1:0 2:3 3:0.454212 
1 1:0 2:2 3:0.569393 
1 1:0 2:1 3:0.644217 
0.03749468691129815 1:14 2:51 3:42.75969 
1 1:0 2:4 3:0.73672 
0.0205416670521107 1:10 2:1 3:39 
1 1:0 2:3 3:0.805721 
0.01250507403705616 1:18 2:7 3:5.151198 
0.04064783542888656 1:22 2:36 3:24.898785 
0.03628624640005756 1:36 2:5 3:37.80921 
0.02764966801596358 1:20 2:10 3:32.852485 
0.008598730440972507 1:13 2:16 3:7.950088 
0.03294289888998564 1:28 2:1 3:36.825777 
0.02593967206389117 1:28 2:14 3:30.774615 
0.01180818683116283 1:12 2:29 3:4.591153 
0.02079431300328593 1:24 2:13 3:28.82369 
0.02943925058870245 1:21 2:9 3:9.841868 
0.04302896701733627 1:17 2:8 3:55.907854 
1 1:0 2:1 3:0.48528 
0.040043040817552 1:22 2:43 3:54.142857 
0.03475617447483949 1:6 2:35 3:37.2 
0.03519469131086478 1:13 2:8 3:24.386176 
0.02607996964697645 1:24 2:12 3:26.218732 
0.02661292805871551 1:15 2:28 3:6.490084 
0.04329632348832074 1:48 2:47 3:63.113891 
0.01136806641415729 1:23 2:7 3:28.12089 
0.03264253956058816 1:1 2:18 3:9.872196 
0.03325394973225015 1:24 2:11 3:42.142857 
0.04039499769358573 1:5 2:11 3:17.720078 
0.02713762705667348 1:34 2:3 3:31.118714 
0.04059908503131771 1:40 2:4 3:43.8147 
1 1:0 2:1 3:0.514089 
0.04077333478091799 1:23 2:47 3:48.97174 
0.01833811127309692 1:19 2:7 3:37.857143 
0.01108189330798576 1:28 2:12 3:31.700875 
0.02815771034446662 1:27 2:3 3:45.428571 
0.01199786707413304 1:24 2:1 3:46.703872 
0.01781061941189459 1:31 2:8 3:29.628489 
0.04263602385689252 1:33 2:31 3:42.54695 
0.03980617791590757 1:15 2:37 3:1.185576 
1 1:0 2:1 3:0.411559 
0.006813836789188954 1:11 2:5 3:4.703185 
0.001450875067490761 1:10 2:4 3:6.123219 
0.008728130941990375 1:14 2:27 3:3.632829 
0.006035226156180433 1:14 2:19 3:5.905068 
0.02695269507246983 1:31 2:16 3:42.247727 
0.008929389663863085 1:16 2:6 3:7.530035 
1 1:0 2:3 3:0.501527 
0.02926860390911773 1:24 2:6 3:43.932674 
0.02808218357143533 1:24 2:47 3:43.333333 
0.01005028129231426 1:12 2:17 3:7.611652 
0.03674480482360006 1:17 2:13 3:23.946988 
0.01441141285388508 1:28 2:35 3:45 
0.02331960102226934 1:33 2:5 3:34.770776 
0.04011620707279584 1:26 2:21 3:11.1118 
0.03435879456519664 1:22 2:14 3:11.512839 
1 1:0 2:1 3:0.449315 
0.03360635914209455 1:13 2:7 3:35.026472 
0.04280610523532291 1:32 2:10 3:3.812912 
0.01281269114380135 1:12 2:1 3:9.439875 
0.03317467962286328 1:6 2:24 3:13.255906 
0.01389950131425223 1:12 2:25 3:7.955427 
0.02942894930223251 1:21 2:6 3:2.583441 
0.02694665749228758 1:29 2:2 3:41.645604 
0.005148813498489201 1:8 2:25 3:4.409383 
0.01921006128838788 1:29 2:1 3:43.227639 
0.04244282162779334 1:13 2:34 3:27.280115 
1 1:0 2:58 3:0.699012 
0.04269870038863066 1:54 2:50958 3:65.138727 
0.04264030291577375 1:1 2:3 3:180.05487 
0.1763690192098238 1:2 2:37 3:2.04605 
0.03712512721496891 1:2 2:43 3:4.913387 
0.0143219172794229 1:18 2:23 3:12.507195 
0.04263528603286998 1:55 2:19 3:25.930088 
0.0425981534944565 1:29 2:125 3:43.234305 
0.02593688656599219 1:0 2:40 3:11.418379 
0.0210931258861751 1:0 2:9 3:9.038756 
0.02208216706280841 1:11 2:9 3:10.807755 
0.01698733557230258 1:13 2:2 3:18.718004 
0.03495049380854987 1:35 2:10 3:46.48088 
0.005018694424867852 1:0 2:5 3:5.123021 
0.03512593658787833 1:20 2:54 3:41.4 
0.01174064871614722 1:0 2:19 3:8.292631 
0.04012767996360889 1:27 2:32 3:46.666667 
0.004650714542967294 1:3 2:23 3:6.342742 
0.004055022758480437 1:8 2:29 3:5.367108 
0.01644678104320153 1:26 2:9 3:35.697168 
0.02431414196348217 1:31 2:14 3:43.674563 
0.04253810258823476 1:26 2:13 3:6.69227 
0.01853011448893956 1:0 2:3 3:22.019895 
0.02963420832229424 1:7 2:30 3:2.634184 
0.0176547200557193 1:22 2:35 3:29.363998 
0.04322174932722658 1:28 2:24 3:42.714286 
0.04156591667149301 1:0 2:19 3:14.280904 
0.00830148149845605 1:8 2:4 3:5.818025 
0.02199222207440752 1:0 2:32 3:5.426305 
0.0241463558008346 1:16 2:23 3:6.141123 
0.02808651947788648 1:19 2:9 3:5.665321 
0.01484986381145888 1:14 2:22 3:8.647272 
0.03502096720110769 1:15 2:16 3:27.459678 
0.0237927135782115 1:12 2:18 3:10.019704 
0.01843053287189317 1:13 2:20 3:0.65898 
0.03164671366708344 1:26 2:45 3:46.65 
0.04208173641500373 1:25 2:42 3:52.7 
0.02935523269552598 1:18 2:9 3:2.751585 
0.03518456553753387 1:4 2:24 3:12.575401 
0.03461157275816489 1:29 2:2 3:47.2 
0.02676508780253421 1:16 2:1 3:38.730939 
0.03765923462822363 1:20 2:6 3:44.686299 
0.01563900691367848 1:3 2:1 3:12.503155 
0.04281620645415857 1:29 2:46 3:18.288793 
0.04251804157475192 1:25 2:42 3:1.047359 
0.01568511105734932 1:8 2:4 3:7.395375 
0.03097006939887142 1:28 2:29 3:32.019925 
0.04291821538891677 1:0 2:53 3:22.850656 
0.02552797057659784 1:0 2:3 3:28.465096 
0.005549637787372523 1:2 2:1 3:18.941137 
0.001962573116067842 1:0 2:3 3:23.430203 
0.01782337437107198 1:0 2:19 3:5.748343 
0.005419973230643417 1:16 2:21 3:6.714522 
0.02676064446198384 1:22 2:28 3:9.749003 
0.01474627111558644 1:10 2:22 3:3.687997 
0.03223636950191539 1:35 2:14 3:34.403975 
0.02416195113756122 1:30 2:5 3:36.227443 
0.008056444628477715 1:4 2:23 3:3.314285 
0.04281428770131668 1:40 2:45 3:10.708377 
0.01434344760497965 1:25 2:2 3:29.223148 
0.01083691341256513 1:20 2:7 3:27.581475 
0.01723461453101334 1:11 2:13 3:5.286855 
0.02438636529341542 1:14 2:51 3:36.127916 
0.03740999936575851 1:13 2:1 3:22.584435 
0.0162781025836452 1:30 2:10 3:40.841859 
0.005621564287004253 1:18 2:3 3:7.543168 
0.009053393503245922 1:13 2:16 3:5.642641 
0.004831701509376396 1:15 2:9 3:8.877836 
0.01293239552645475 1:15 2:23 3:9.361783 
0.006579819614299376 1:25 2:9 3:27.425683 
0.04281505790185364 1:29 2:26 3:0.685877 
0.01051626898998499 1:17 2:8 3:10.303462 
0.01156802524387434 1:20 2:5 3:27.482266 
0.006286909264973335 1:23 2:4 3:41.879137 
0.04013040585885885 1:16 2:48 3:48.422274 
0.0427577974271775 1:15 2:49 3:21.736365 
0.0323264438787278 1:24 2:16 3:37.298307 
0.02991408553211305 1:14 2:28 3:13.76535 
0.01453678152057291 1:9 2:1 3:5.12868 
0.009183260849951224 1:7 2:26 3:6.060009 
0.02380584791663363 1:13 2:14 3:2.828633 
0.02930280965918193 1:10 2:27 3:9.44869 
0.03225468427600381 1:3 2:2 3:30.993346 
0.01838655194378561 1:18 2:6 3:3.600598 
0.02917608453679837 1:32 2:13 3:27.96981 
0.00730710994506869 1:25 2:8 3:28.792565 
0.0079103233662506 1:11 2:21 3:9.750928 
0.003636335630358691 1:9 2:6 3:1.165238 
0.04296430921661765 1:14 2:25 3:22.618399 
0.02153230836491515 1:1 2:9 3:38.333333 
0.02790986536361681 1:1 2:6 3:17.152867 
0.03567558169839279 1:40 2:5 3:51.828614 
0.04278311673350133 1:40 2:44 3:46.556432 
0.04092714317180779 1:28 2:17 3:42.065203 
0.01527154033360974 1:23 2:6 3:30.7981 
0.04281392087685093 1:12 2:53 3:20.647258 
0.0295288450097243 1:27 2:30 3:32.813482 
0.04052071738822686 1:5 2:2 3:35.002615 
1 1:0 2:1 3:0.4225 
0.01847456662733528 1:16 2:15 3:8.220936 
0.006856178069468635 1:11 2:14 3:5.806701 
0.02855545521659952 1:24 2:9 3:39.809524 
0.03432300094353069 1:15 2:22 3:14.625736 
0.03682205028122455 1:2 2:13 3:34.521106 
0.01787998075204117 1:32 2:9 3:38.758131 
0.0270685286328689 1:19 2:3 3:22.479902 
0.0230556260573041 1:38 2:5 3:47.607016 
0.01483783782296177 1:7 2:24 3:4.446212 
0.03855045049724037 1:17 2:50 3:38.493374 
0.01128286057598683 1:8 2:1 3:9.5308 
0.04004518968216925 1:0 2:9 3:66.112878 
0.01349173071965842 1:0 2:4 3:12.31232 
0.02723269894945182 1:3 2:3 3:12.197742 
0.04255755255425292 1:7 2:40 3:74.315919 
0.04297107700670721 1:1 2:97 3:4.901322 
0.02633171328998335 1:9 2:2 3:24.989966 
0.02816790454975993 1:5 2:1 3:29.411566 
0.03212427718988492 1:16 2:26 3:4.246446 
0.04207586274571279 1:11 2:1 3:32.608367 
0.04253020131843194 1:44 2:51 3:105.17818 
0.01742810795256091 1:6 2:8 3:5.749485 
0.02223665035707023 1:12 2:13 3:7.704891 
0.01183108380900838 1:17 2:7 3:1.14801 
0.02246566749984207 1:14 2:18 3:3.787064 
0.03756379523627636 1:0 2:32 3:3.510512 
0.03252672249786415 1:15 2:50 3:40.356772 
0.01606281719124447 1:17 2:18 3:7.285689 
0.01170556903592158 1:17 2:1 3:5.968515 
0.04292195354681311 1:48 2:114 3:0.611692 
0.04288017877517675 1:21 2:20 3:47.047619 
0.041134025512641 1:26 2:12 3:47.061899 
0.002734650480303432 1:0 2:1 3:12.270163 
0.03086155795421098 1:18 2:1 3:36.641086 
0.04221652600217024 1:33 2:17 3:32.506267 
0.04289227148097252 1:31 2:1 3:63.428571 
0.03057480052922762 1:34 2:14 3:37.150118 
0.007400601001303782 1:12 2:6 3:3.721599 
0.04056138348223121 1:17 2:5 3:18.594648 
0.04279092780349153 1:1 2:30 3:37.142857 
0.003393066598813167 1:11 2:25 3:6.108093 
0.006568790261398299 1:10 2:22 3:7.70224 
1 1:0 2:5 3:0.669525 
0.01771609386696039 1:0 2:1 3:26.975801 
0.02368785469441224 1:0 2:22 3:6.267865 
0.04281430013200677 1:31 2:25 3:38.983329 
0.01293289519463118 1:16 2:1 3:10.729111 
0.0103046711846508 1:0 2:3 3:13.459109 
0.01718997916598164 1:10 2:24 3:9.446444 
1 1:0 2:13 3:0.969546 
0.0428278185698287 1:0 2:52 3:28.510392 
0.00356146293412494 1:2 2:5 3:6.498451 
0.01352101998599553 1:18 2:16 3:11.264498 
1 1:1 2:1 3:0.485412 
0.02575409642725118 1:6 2:13 3:6.807906 
0.004090649316763249 1:8 2:5 3:3.060893 
0.02693799394917041 1:5 2:2 3:17.589699 
0.01481968123387529 1:5 2:5 3:2.843313 
0.0128392134822926 1:0 2:3 3:8.149262 
0.01942101499333859 1:18 2:8 3:30.548336 
1 1:0 2:2 3:0.443017 
0.01383372608969061 1:6 2:4 3:4.78051 
0.02859433943615806 1:26 2:5 3:13.387764 
0.005299782575312971 1:18 2:10 3:15.685682 
0.02258339375765069 1:1 2:15 3:7.700091 
0.01812655057514278 1:0 2:1 3:5.753548 
0.04278060351367485 1:16 2:30 3:31.952381 
1 1:0 2:2 3:0.691401 
0.04262231673090672 1:0 2:43 3:26.183351 
0.01963910825882877 1:0 2:2 3:48.490765 
0.02063516150746115 1:3 2:1 3:6.87909 
0.02887882418089016 1:0 2:4 3:67.139689 
0.01470301223156571 1:16 2:1 3:36.952381 
0.006213670688480362 1:10 2:15 3:3.782855 
0.04271832774522916 1:14 2:35 3:19.279294 
0.01889937580047276 1:30 2:10 3:27.71322 
0.01742417438191918 1:20 2:8 3:32.975811 
0.04208543953847316 1:12 2:31 3:0.773963 
0.02116439068029709 1:12 2:28 3:8.014469 
0.006962761809999189 1:10 2:6 3:3.189863 
0.01535141501287229 1:17 2:9 3:4.110035 
0.03815487678180429 1:6 2:33 3:10.350914 
0.03955794609744129 1:4 2:7 3:21.829086 
0.02891896900407727 1:14 2:21 3:1.922529 
0.01222906810101321 1:10 2:18 3:4.155735 
0.03037867427785054 1:1 2:7 3:22.06843 
0.03848615851364989 1:7 2:16 3:21.495474 
0.005595902259073496 1:12 2:1 3:10.25007 
0.01193747619681783 1:12 2:19 3:7.370764 
0.01269678577392119 1:19 2:24 3:10.929205 
0.00496684283146564 1:10 2:23 3:3.744108 
0.03536524239746014 1:28 2:17 3:15.502982 
0.02538259811214528 1:12 2:8 3:18.313654 
0.03254814496636249 1:21 2:12 3:28.084352 
0.001598511110432348 1:12 2:11 3:3.814502 
0.02455030317150535 1:5 2:11 3:6.145104 
0.009513413705874951 1:8 2:19 3:3.612248 
0.01249989247023941 1:7 2:20 3:6.167341 
0.03502096392257285 1:15 2:37 3:34.333333 
0.03234008412569268 1:8 2:40 3:42.203666 
0.0199454701525884 1:14 2:1 3:11.837999 
0.003303835249053223 1:23 2:10 3:33.739342 
0.02951122873802259 1:28 2:19 3:26.20708 
0.003480979472803172 1:6 2:19 3:4.712236 
0.002238273039929007 1:31 2:10 3:29.376487 
0.03810563775633841 1:30 2:41 3:44.95 
0.007281990385889602 1:12 2:8 3:4.376598 
0.03981324536102113 1:23 2:37 3:31.273643 
0.0428125227499101 1:20 2:4 3:51.590018 
0.04273986063238078 1:14 2:23 3:38.15 
0.01426901419350624 1:6 2:16 3:5.562212 
0.03749472768961737 1:24 2:15 3:21.205971 
0.02934059134691874 1:20 2:45 3:37.714286 
0.03428374418256042 1:19 2:6 3:42.213115 
0.0194871935861009 1:28 2:3 3:48.921788 
0.007568029386124725 1:0 2:1 3:8.615289 
0.02548592590332044 1:3 2:3 3:25.74817 
0.01436275793458164 1:15 2:8 3:10.228656 
0.0431183135809633 1:29 2:58 3:38.956059 
0.03791569219744051 1:22 2:44 3:23.596052 
0.04170170402612827 1:11 2:27 3:26.828943 
0.04181517306184201 1:11 2:30 3:28.77209 
0.01219561466009806 1:2 2:3 3:7.109935 
0.03918656531113505 1:4 2:5 3:19.415534 
1 1:0 2:4 3:0.475437 
0.03623535190605998 1:22 2:1 3:6.963395 
0.02771949370601545 1:1 2:1 3:39.751744 
0.01605354284124014 1:0 2:11 3:9.527408 
0.04245649824193015 1:3 2:74 3:25.70706 
0.01771162285090094 1:24 2:14 3:30.081615 
0.04179320346672549 1:13 2:13 3:45.375347 
0.01822520146135598 1:8 2:15 3:5.820824 
0.03320556616193948 1:20 2:1 3:14.840359 
0.02877439008034627 1:9 2:16 3:9.64669 
0.04234604422589533 1:12 2:49 3:45.125608 
1 1:0 2:1 3:0.630997 
0.001712806395836251 1:8 2:2 3:6.610306 
0.04272444194567443 1:11 2:6 3:42.564945 
0.03126296364743472 1:9 2:12 3:13.324439 
0.01454916076984475 1:15 2:1 3:13.531175 
0.0424969614373979 1:16 2:13 3:43.368101 
0.04276251982165552 1:23 2:50 3:8.247881 
0.01699091552852544 1:13 2:30 3:13.73769 
0.03528000490734268 1:9 2:33 3:18.705002 
0.01300641567032956 1:13 2:25 3:10.163072 
0.01580708915066475 1:25 2:44 3:47.615263 
0.03859327545400645 1:1 2:30 3:7.007777 
0.01383159318698488 1:2 2:25 3:5.272636 
0.03811562800874979 1:10 2:22 3:0.454093 
0.02366635110659995 1:17 2:8 3:19.652215 
0.03506276448331158 1:12 2:4 3:23.633254 
0.04195045384851764 1:23 2:30 3:28.463449 
0.03340970824771911 1:33 2:1 3:29.838491 
0.004895777786770916 1:10 2:6 3:4.849712 
0.02309465818177714 1:28 2:12 3:29.702828 
0.04040651586522231 1:20 2:57 3:40.761905 
1 1:0 2:1 3:0.50443 
0.02713482428410339 1:8 2:7 3:1.143877 
1 1:0 2:1 3:0.660082 
0.02218898027859773 1:25 2:3 3:29.892122 
0.01558456321900065 1:37 2:10 3:46.57811 
0.02843487763378692 1:15 2:16 3:10.510266 
0.002086530978084116 1:16 2:17 3:8.337797 
0.01168785142615086 1:27 2:6 3:37.966581 
0.04289275643592516 1:28 2:46 3:40.969366 
0.02497907499539537 1:33 2:8 3:43.149508 
0.0321121510167927 1:36 2:12 3:40.814895 
0.02622352852119808 1:27 2:10 3:39.789921 
0.02397194718442245 1:30 2:12 3:42.612427 
0.04268197691698206 1:37 2:16 3:52.012409 
0.02597015141971429 1:39 2:3 3:46.768552 
0.03771892522446169 1:16 2:32 3:6.017612 
0.04300116552282707 1:21 2:38 3:17.511035 
0.003868320643530478 1:10 2:4 3:3.261007 
0.04160760811130659 1:11 2:21 3:16.547857 
0.04139418877441808 1:17 2:35 3:46.314141 
0.007742755060911316 1:27 2:7 3:36.070972 
0.01070985674341543 1:16 2:6 3:2.709265 
0.02610490121995701 1:6 2:25 3:7.719407 
0.006879235579173039 1:8 2:21 3:4.336791 
0.03910180111196054 1:24 2:20 3:16.970045 
0.02157002294574692 1:13 2:29 3:4.686926 
0.0008788317264782858 1:13 2:1 3:8.922009 
0.03348135901760968 1:21 2:7 3:39.878199 
0.01787996958066795 1:28 2:4 3:33.076452 
0.03978373264529893 1:15 2:40 3:38.95 
0.0193892145964859 1:16 2:7 3:22.606954 
0.02472062406844655 1:19 2:4 3:37.384753 
0.03868717654208254 1:22 2:35 3:42.142857 
0.02334386856067849 1:17 2:3 3:37.333333 
0.01354968572679424 1:24 2:11 3:34.532902 
0.01512316430302602 1:9 2:1 3:7.121994 
0.04281311387694159 1:23 2:26 3:33.455277 
0.03486558946223872 1:11 2:7 3:31.869547 
0.00978605758182809 1:4 2:15 3:4.746658 
0.04289334241982623 1:48 2:10 3:46.279856 
0.02823742091515435 1:19 2:11 3:18.24388 
0.02881028538644692 1:32 2:4 3:32.287577 
0.003564346980837463 1:9 2:2 3:7.554823 
0.03647892611786302 1:6 2:32 3:4.607148 
0.04257259881245906 1:29 2:30 3:43.588842 
0.03456885702229939 1:10 2:6 3:22.455525 
0.008436525491041852 1:10 2:8 3:4.774326 
0.03625654123460675 1:27 2:43 3:48.047619 
0.02167672077303873 1:22 2:9 3:34.761905 
0.009986814127092934 1:28 2:5 3:31.581859 
0.04138200620151544 1:26 2:32 3:27.36869 
0.027278985955347 1:27 2:13 3:33.536631 
0.04072608418827761 1:25 2:41 3:45.041311 
0.03741505620293895 1:23 2:7 3:13.560291 
0.01386625516587661 1:5 2:24 3:5.96413 
0.01830462932488 1:29 2:4 3:36.844879 
0.01767043397331593 1:0 2:17 3:7.47117 
1 1:0 2:1 3:0.596087 
0.03829441729119906 1:12 2:12 3:27.548869 
0.0249361933972128 1:19 2:1 3:6.818018 
0.03577935827384743 1:21 2:50 3:27.726469 
0.01848793701444249 1:16 2:11 3:9.373755 
0.002739440363344522 1:11 2:1 3:7.825757 
1 1:0 2:1 3:0.553904 
0.01729637218958266 1:4 2:23 3:4.49519 
0.01834216015064078 1:11 2:17 3:10.68755 
0.01446867985777461 1:32 2:43 3:50.308014 
0.04295250376303972 1:26 2:56 3:25.613798 
0.005537775722021015 1:9 2:4 3:3.818946 
0.005089786198849422 1:14 2:1 3:6.898667 
0.01200402871218498 1:6 2:26 3:3.768813 
0.01788640669388322 1:11 2:1 3:5.028539 
0.001877693576946071 1:12 2:2 3:9.840839 
0.01227095434431988 1:13 2:20 3:4.625331 
0.006016062802641608 1:6 2:19 3:3.125227 
0.0418439720043865 1:8 2:28 3:29.406739 
0.02656535600475425 1:38 2:4 3:35.142611 
0.02532549383364141 1:13 2:16 3:2.206067 
0.02844558442571143 1:7 2:35 3:8.450772 
0.02748322919582128 1:22 2:8 3:26.527379 
1 1:0 2:1 3:0.453851 
0.04241871905224792 1:7 2:2 3:50.666667 
0.009443528536333701 1:8 2:7 3:5.847528 
0.01695776464835112 1:14 2:2 3:2.014887 
0.03764864264336293 1:3 2:18 3:12.632446 
0.04280359812199935 1:34 2:36 3:51.85 
0.02843222366906401 1:7 2:18 3:11.108787 
0.04221437263692297 1:7 2:30 3:11.990589 
0.04300914270028366 1:21 2:44 3:14.534756 
0.03238637292991726 1:21 2:3 3:30.447036 
1 1:0 2:1 3:0.500736 
0.01744149617014057 1:23 2:9 3:30.615688 
0.02983701907972232 1:21 2:13 3:14.651777 
0.01682416680933244 1:10 2:7 3:24.843986 
0.04144062846416219 1:33 2:52 3:46.636758 
0.03178567005921329 1:28 2:18 3:30.051513 
0.004134150326460933 1:8 2:25 3:6.552002 
0.03472289128417394 1:22 2:40 3:44.095238 
0.01271513304079515 1:29 2:7 3:35.279314 
0.01647084407490421 1:15 2:26 3:7.150798 
0.003207264014085023 1:14 2:5 3:6.847894 
0.0281192280180084 1:16 2:20 3:5.388186 
1 1:0 2:1 3:0.437306 
0.001100337099245927 1:17 2:4 3:8.901535 
0.0285213231676134 1:15 2:1 3:43.952381 
0.01708501928640093 1:7 2:1 3:9.702789 
0.0354867750968893 1:20 2:1 3:49.419157 
0.01228032083171488 1:12 2:5 3:8.287004 
0.02831141599947801 1:29 2:18 3:37.715705 
0.02125986876861702 1:32 2:10 3:42 
0.01355279580590063 1:28 2:10 3:26.262371 
0.03854329095191444 1:13 2:7 3:20.67546 
0.02439542770473141 1:24 2:41 3:40.619048 
0.02592080181410251 1:32 2:12 3:36.374815 
0.03456746484660804 1:6 2:37 3:36.485649 
0.04124323394017654 1:16 2:55 3:46.208676 
0.02273067287653926 1:28 2:3 3:30.354901 
0.03302777267525447 1:2 2:12 3:31.48912 
0.0320022261230211 1:8 2:39 3:40.7 
0.001605906668456754 1:10 2:25 3:8.754632 
0.0016783728955484 1:18 2:1 3:7.240264 
0.03415667170936939 1:19 2:20 3:15.065687 
0.04267421244574818 1:8 2:24 3:28.860227 
0.01006809938362544 1:13 2:26 3:6.150255 
0.0148921380104397 1:4 2:17 3:3.990804 
0.02165565499285749 1:10 2:16 3:7.830173 
0.9043187435048122 1:1 2:27 3:1.097974 
0.002224560228259287 1:3 2:9 3:3.807303 
0.03640813307193919 1:30 2:8 3:50.590831 
0.043056343578251 1:13 2:62 3:30.660448 
0.03603125024077049 1:12 2:37 3:33.238095 
0.01273155407940562 1:13 2:14 3:5.440805 
0.003357569120529785 1:28 2:9 3:39.714286 
0.04302087490232148 1:20 2:57 3:16.942507 
1 1:0 2:1 3:0.521855 
0.0006400223679370876 1:1 2:23 3:5.155748 
0.01632077468432852 1:14 2:5 3:10.517883 
0.02423077087880132 1:11 2:31 3:8.45676 
0.03099267154909613 1:13 2:6 3:1.041755 
0.01089878631412148 1:37 2:7 3:42.315308 
0.04269713776741801 1:12 2:21 3:21.455443 
0.04238842746080766 1:10 2:36 3:36.336924 
0.04264367555228571 1:17 2:27 3:41.095238 
0.04231625764118735 1:18 2:17 3:42.091707 
0.01841310903530754 1:32 2:10 3:30.211304 
0.008799543498985653 1:7 2:17 3:5.507137 
0.00435506053398482 1:9 2:25 3:4.628229 
0.0375031030267704 1:5 2:1 3:44.64966 
0.04011280141629414 1:31 2:45 3:49.619048 
0.004257411273054403 1:9 2:23 3:4.896017 
0.007970495715796546 1:23 2:2 3:42.190476 
1 1:0 2:1 3:0.662483 
0.03722776259227373 1:31 2:10 3:44.440275 
0.04247064554264907 1:32 2:56 3:49.457962 
0.01399923989007771 1:27 2:10 3:32.462129 
0.0151213512337597 1:11 2:10 3:28.154291 
0.01796786776986237 1:16 2:25 3:11.00967 
0.02569293616990143 1:24 2:10 3:28.439257 
0.020412291271657 1:17 2:1 3:42.270577 
0.0166732649050636 1:13 2:12 3:2.976359 
0.001265062008522988 1:9 2:15 3:3.400292 
0.0176299828190357 1:0 2:1 3:20.010158 
0.01646952482022616 1:0 2:1 3:13.372939 
1 1:0 2:11 3:0.994231 
1 1:0 2:11 3:0.994231 
1 1:0 2:11 3:0.433988 
1 1:0 2:12 3:0.994231 
1 1:0 2:12 3:0.994231 
0.0428117883500107 1:0 2:8 3:106.37977 
0.01677316313341868 1:0 2:1 3:44.189563 
1 1:0 2:8 3:0.878127 
0.03218998440912041 1:0 2:3 3:44.189563 
0.01470360878509632 1:0 2:1 3:97.438632 
0.02428581398615606 1:0 2:6 3:12.40702 
0.04190699708590806 1:0 2:22 3:12.327884 
1 1:0 2:29 3:0.799638 
0.04048148241212574 1:0 2:18 3:25.429943 
0.02764139844826015 1:0 2:6 3:24.793202 
0.009935510489912747 1:0 2:1 3:24.793202 
0.01264352573438146 1:0 2:14 3:12.40702 
0.005042723212293376 1:0 2:1 3:12.40702 
0.04295099041879064 1:15 2:35 3:142.09274 
1 1:0 2:1 3:0.648325 
0.01417906896050273 1:8 2:14 3:4.439405 
0.03031926586372602 1:5 2:36 3:8.146448 
0.01238195165394518 1:20 2:40 3:41.75 
0.03185644984339685 1:12 2:1 3:17.094543 
0.01541857644593167 1:16 2:22 3:10.379672 
0.001217485149302349 1:12 2:28 3:5.516548 
0.02079879245143525 1:18 2:9 3:39.61249 
0.008596014479868935 1:14 2:21 3:5.199133 
0.001072735984208314 1:12 2:7 3:5.541034 
0.02194511999500255 1:30 2:11 3:29.725064 
0.007557829516132205 1:15 2:8 3:6.129721 
0.004335206465039542 1:13 2:5 3:5.567637 
0.02026916632307227 1:17 2:4 3:13.53062 
0.01752405195137825 1:10 2:20 3:3.788438 
0.02462118610051396 1:12 2:12 3:10.232812 
0.02920073389907924 1:31 2:6 3:46.571429 
0.04290323018608949 1:60 2:4 3:44.804197 
0.04288342258891603 1:43 2:128 3:41.525563 
0.02613898035000584 1:1 2:40 3:10.752142 
0.03250770389137397 1:31 2:1 3:43.628255 
0.04256953486319898 1:10 2:14 3:43.428571 
0.0322841413050069 1:24 2:37 3:43.186479 
0.002629894274278208 1:22 2:5 3:9.694837 
0.03806780767225337 1:24 2:43 3:24.702041 
1 1:1 2:6 3:0.785832 
0.0418954092618597 1:30 2:16 3:1.320614 
0.006484798305605088 1:2 2:10 3:18.17847 
0.03214464228939168 1:1 2:5 3:27.351266 
0.04288883153712447 1:18 2:66 3:2.273377 
0.005511163053269929 1:1 2:7 3:9.35865 
0.01133359304367639 1:7 2:1 3:5.054553 
0.04304888029469445 1:3 2:445 3:0.570929 
0.04327402266721236 1:61 2:184 3:1.275903 
0.03393602955783616 1:7 2:40 3:2.550318 
0.03400165265817062 1:3 2:2 3:43.957577 
0.03788057619330992 1:1 2:25 3:9.475196 
1 1:0 2:3 3:0.592882 
0.02846855210927357 1:2 2:8 3:38.164812 
0.04307183833632272 1:6 2:6 3:85.666529 
0.04192950497500408 1:43 2:2 3:54.45 
0.003750586797895791 1:14 2:5 3:2.94968 
0.0429069953379882 1:18 2:28 3:26.536202 
0.04266027589426746 1:17 2:6 3:73.784014 
0.01602994658298204 1:16 2:22 3:7.368598 
0.01709751156063482 1:26 2:9 3:27.635241 
0.006515004570125163 1:17 2:16 3:8.66782 
0.04197701893915207 1:35 2:40 3:50.65 
0.02346685468350878 1:22 2:3 3:28.265654 
0.03128087072172141 1:27 2:8 3:11.315547 
0.007922237084060339 1:10 2:4 3:6.29839 
0.01921034280562795 1:26 2:6 3:31.535328 
0.0109146271513564 1:18 2:1 3:42.333333 
0.04281231646899947 1:10 2:45 3:29.285714 
0.04284644173648933 1:33 2:28 3:31.543889 
0.005909001564850955 1:18 2:5 3:8.25808 
0.02371416786506 1:9 2:27 3:4.452477 
0.01982610083951105 1:30 2:12 3:32.603105 
0.01158774867831869 1:32 2:14 3:41.938822 
1 1:0 2:1 3:0.663647 
0.02906782569204828 1:28 2:5 3:42.972009 
0.008117591052315722 1:25 2:8 3:29.553063 
0.02270410332711779 1:17 2:13 3:9.479238 
0.02058172555254897 1:29 2:7 3:27.04879 
0.01721127877070937 1:3 2:6 3:4.488013 
0.02402245558032784 1:14 2:32 3:11.079209 
0.04283982803976827 1:24 2:42 3:29.069071 
0.0136359711744885 1:5 2:26 3:4.478643 
0.01220677438442758 1:13 2:1 3:7.358018 
0.007183910615861433 1:8 2:14 3:1.977429 
0.02153070464151818 1:16 2:1 3:7.537954 
0.03456605989994177 1:30 2:6 3:18.031325 
0.0172448810584044 1:34 2:8 3:42.238095 
0.009764189081508612 1:5 2:8 3:4.579146 
0.0391946730315495 1:20 2:15 3:33.618501 
0.01356972852090368 1:28 2:18 3:31.569454 
0.01752167421530748 1:26 2:4 3:43.595118 
0.03646694492868512 1:12 2:23 3:26.800384 
0.04285545826324899 1:8 2:20 3:25.45 
0.008526346885765899 1:11 2:20 3:8.720907 
0.01482482858135597 1:14 2:17 3:7.588039 
0.03115318728874289 1:27 2:33 3:40.286461 
0.04291775591100788 1:31 2:34 3:36.687218 
0.03987075908406046 1:20 2:14 3:40.488397 
0.04199711690377933 1:24 2:17 3:32.945181 
0.01813737048933839 1:28 2:4 3:35.018941 
0.03690307975001922 1:8 2:3 3:31.914001 
0.04061616519199635 1:44 2:7 3:52.918073 
0.03920881061023612 1:19 2:26 3:7.113948 
0.004668709450402076 1:15 2:24 3:9.260128 
0.008678091508102637 1:11 2:11 3:8.770131 
0.02030935066390005 1:13 2:9 3:10.182343 
0.02497084026332107 1:21 2:6 3:15.994313 
0.04294656768409372 1:23 2:4 3:87.987649 
0.004257187823990336 1:8 2:4 3:9.472724 
0.02886400275687075 1:30 2:6 3:45.172405 
0.02628962918098301 1:18 2:1 3:10.782348 
0.007946907033646722 1:16 2:4 3:5.342815 
0.04162005729495322 1:42 2:10 3:40.95726 
0.01238073150428423 1:27 2:3 3:42.469491 
0.01885315617491667 1:11 2:1 3:11.284745 
0.01065344535770386 1:35 2:6 3:39.169274 
0.02091594948259351 1:25 2:4 3:34.844469 
0.03692245005396927 1:4 2:16 3:11.170322 
0.2682553964697274 1:3 2:1 3:0.538738 
0.008648425028769502 1:16 2:7 3:4.226783 
0.03675105065410478 1:28 2:5 3:24.572718 
0.02793939947572431 1:12 2:28 3:2.509064 
0.03499164938977306 1:18 2:4 3:24.831618 
0.04306402012601862 1:29 2:50 3:43.25 
0.009531445112023012 1:0 2:5 3:6.248523 
0.005845238196460725 1:15 2:6 3:5.887874 
0.008455996555475723 1:6 2:21 3:5.407432 
0.02865808817846782 1:25 2:14 3:25.101584 
0.0008176409986721499 1:9 2:28 3:5.582361 
0.009359916488858439 1:13 2:15 3:8.047173 
0.007600403180973159 1:14 2:19 3:12.933038 
0.04281635492035502 1:0 2:42 3:38.47619 
0.00732873862490571 1:17 2:10 3:8.659567 
0.01180952237456601 1:25 2:7 3:35.683737 
0.0162882179970838 1:12 2:6 3:6.673375 
0.03540453476004868 1:22 2:55 3:42.05 
0.01643799238231341 1:24 2:12 3:30.204475 
0.03127889105764647 1:25 2:40 3:34.122644 
0.02776966768677862 1:15 2:43 3:33.644141 
0.02740164310772298 1:0 2:5 3:14.511357 
0.02773046907499232 1:4 2:14 3:15.87386 
0.007945035482966933 1:29 2:7 3:28.045654 
0.03597314184513828 1:26 2:51 3:53 
0.001592027695532273 1:28 2:7 3:33.386116 
0.02780146011528101 1:29 2:7 3:19.397065 
0.02977166995021191 1:0 2:22 3:2.169671 
0.02019050800087937 1:19 2:8 3:27.469097 
0.02270025528374431 1:23 2:15 3:24.977515 
0.02582025807292166 1:27 2:10 3:23.212774 
0.01131549526378228 1:0 2:5 3:10.285455 
0.04320400073511915 1:47 2:121 3:5.598595 
0.04021623069760288 1:0 2:1 3:55.034338 
0.003930610737786847 1:0 2:5 3:25.665091 
0.02263263236007476 1:0 2:64 3:1.474004 
0.02388390308041297 1:0 2:64 3:0.750246 
0.04291981236821901 1:0 2:110 3:6.287626 
0.04292596312941849 1:59 2:38 3:52.429253 
0.04300114724666682 1:1 2:114 3:50.475452 
0.006054045140461705 1:0 2:4 3:25.995592 
1 1:0 2:7 3:0.794574 
0.03544291656764303 1:16 2:45 3:33.745405 
0.01882850673648648 1:1 2:9 3:5.714286 
0.03595399043851677 1:27 2:37 3:53.52381 
0.005229095289222926 1:13 2:20 3:6.421111 
0.008396129006710849 1:16 2:18 3:13.090203 
0.03649672775773308 1:9 2:10 3:15.080313 
0.008166971501208181 1:28 2:6 3:26.906896 
0.001134753799948335 1:15 2:3 3:7.9304 
0.01804976788513199 1:23 2:9 3:22.57625 
0.02469166821572927 1:25 2:1 3:45.869234 
0.001576516019228378 1:10 2:11 3:6.137787 
0.04258807115233537 1:25 2:46 3:1.225093 
0.02495655752275422 1:18 2:10 3:12.27417 
0.03495509869023017 1:20 2:21 3:4.124662 
1 1:0 2:1 3:0.430645 
0.01647071768180797 1:16 2:6 3:11.621988 
0.02272252253338332 1:29 2:12 3:38.691251 
0.02597166471234397 1:0 2:44 3:14.316974 
0.006710096504566779 1:11 2:20 3:5.389035 
0.03025074198152466 1:35 2:6 3:41.464858 
0.04237335127927155 1:17 2:33 3:17.612106 
0.01191813409422404 1:28 2:5 3:30.037521 
0.01824552014371579 1:18 2:4 3:10.104935 
0.02849057062166855 1:12 2:3 3:19.653736 
0.01729890702436114 1:31 2:6 3:39.419953 
0.0424086386148792 1:35 2:4 3:58.666667 
1 1:0 2:1 3:0.481935 
0.01842329160154189 1:23 2:9 3:32.640903 
0.01089699767242892 1:19 2:7 3:12.50908 
0.03247397890740628 1:4 2:12 3:12.577599 
1 1:0 2:1 3:0.437272 
0.004680427027026192 1:9 2:5 3:4.738989 
0.01636821779300746 1:14 2:22 3:4.074789 
0.03929691197810248 1:14 2:42 3:37 
0.002449466773701392 1:24 2:8 3:30.905296 
0.0277784246366411 1:16 2:38 3:4.791826 
0.02580996499147694 1:24 2:6 3:28.660465 
0.02310111041611013 1:14 2:51 3:37.047619 
0.0104452653936405 1:14 2:21 3:7.88243 
0.01003456873913301 1:18 2:4 3:6.935966 
0.01943876574492212 1:29 2:10 3:36.862083 
0.006995423095594331 1:10 2:15 3:5.278373 
0.02319736357209574 1:19 2:8 3:12.908365 
0.01325016813201931 1:6 2:16 3:3.35052 
0.04213654670387279 1:43 2:12 3:46.511594 
0.0413266623546959 1:27 2:34 3:54.017101 
0.03893309427226582 1:22 2:9 3:43.735893 
0.03295664556578473 1:20 2:3 3:19.316787 
0.03862828222347197 1:38 2:6 3:40.212509 
0.03718988843927917 1:12 2:4 3:27.208603 
0.02076788478068483 1:8 2:33 3:6.52598 
0.02668054564885466 1:37 2:7 3:43.191733 
0.02472105222861063 1:34 2:13 3:39.809466 
0.04129155131572565 1:25 2:33 3:33.16875 
0.04280365907672529 1:15 2:64 3:44.630935 
0.03065049941380793 1:37 2:9 3:44.741092 
0.008559861377958005 1:29 2:3 3:30.158715 
0.004420457877632366 1:12 2:7 3:5.036203 
0.005543729547017241 1:5 2:5 3:4.699518 
0.04295212231425372 1:1 2:27 3:71.354396 
0.007853099226745769 1:14 2:1 3:9.800738 
1 1:0 2:1 3:0.602359 
0.02345347786023866 1:5 2:15 3:2.160319 
0.004435659062117475 1:15 2:16 3:5.441453 
0.02970981348019996 1:20 2:7 3:20.518597 
0.03882558035127404 1:21 2:16 3:30.679591 
0.02055995317651502 1:18 2:7 3:20.633462 
0.0384729423712874 1:23 2:43 3:47.904762 
0.03531689263588106 1:8 2:2 3:21.710593 
0.02992311621158367 1:23 2:13 3:13.37501 
0.003036070534508109 1:8 2:8 3:3.080229 
0.02067338334053231 1:32 2:15 3:41.318499 
0.01790985389782554 1:15 2:9 3:5.011595 
0.04271036339452133 1:2 2:38 3:39.285714 
0.0428843686307519 1:39 2:16 3:35.050739 
0.02748116995809472 1:0 2:12 3:6.546201 
0.03592124777680139 1:13 2:9 3:13.596594 
0.03592476033522522 1:17 2:16 3:28.549442 
0.03504301641099917 1:41 2:4 3:49.459646 
0.005792886605538672 1:8 2:4 3:3.87543 
0.01914344809900725 1:14 2:26 3:9.392746 
0.01027677968135268 1:9 2:24 3:5.904682 
0.02385620405811425 1:26 2:7 3:23.708992 
0.01828168778213879 1:23 2:12 3:33.726026 
0.007740714418682695 1:13 2:26 3:3.727242 
0.0227144887308765 1:8 2:11 3:5.625337 
0.01907352118110851 1:13 2:32 3:5.847485 
0.02198820265005463 1:31 2:7 3:29.749989 
0.01826473573517884 1:3 2:26 3:4.604476 
0.01098246261881813 1:11 2:3 3:7.163884 
0.001822364119918152 1:16 2:3 3:11.235105 
0.03548378240884109 1:19 2:48 3:42.328632 
0.03284516447105225 1:28 2:5 3:20.423771 
0.004194380026140663 1:18 2:4 3:6.16138 
0.01180993955454665 1:11 2:1 3:7.323911 
0.005373666041474668 1:10 2:21 3:6.345854 
0.03066878751758684 1:26 2:34 3:39.333333 
0.008012025825445395 1:2 2:16 3:4.946688 
0.01170743024963398 1:14 2:16 3:3.667236 
0.01828859412034484 1:5 2:1 3:5.36198 
0.04130150223027251 1:38 2:1 3:33.665804 
0.00729339935870474 1:10 2:24 3:2.730395 
0.008199798605246326 1:12 2:27 3:4.627463 
0.02712361863636489 1:7 2:14 3:1.100376 
0.004374180090612578 1:17 2:6 3:7.424937 
0.0419406370321258 1:16 2:35 3:37.75 
0.04329726879908097 1:21 2:54 3:49.122572 
0.012997532562899 1:24 2:6 3:31.05279 
0.003757546734806713 1:8 2:6 3:3.142103 
0.001645443170308378 1:15 2:4 3:6.927277 
0.01499206834348499 1:18 2:24 3:10.27256 
0.04144154979222792 1:23 2:19 3:28.141615 
0.03889575000005069 1:36 2:8 3:23.730594 
0.03360058154895893 1:14 2:1 3:49.287084 
0.01365585535060982 1:21 2:3 3:10.253292 
0.009549107041862469 1:11 2:16 3:5.868119 
0.007863321087114059 1:15 2:1 3:9.810476 
0.02004059409687809 1:21 2:13 3:31.34594 
0.00989922475317024 1:35 2:13 3:40.70579 
0.02727059689038841 1:14 2:20 3:12.004367 
0.04136213688384405 1:22 2:42 3:36.52381 
0.03482950441764769 1:1 2:13 3:29.999114 
0.01205353628432086 1:21 2:8 3:17.327721 
1 1:0 2:6 3:0.621015 
0.04280437406023363 1:45 2:5 3:48.307904 
0.02558218199414392 1:19 2:40 3:43.328232 
0.01105554294087935 1:12 2:16 3:4.623763 
0.007647895842042016 1:12 2:1 3:4.023059 
0.02666053863716217 1:4 2:2 3:26.634894 
0.02868287960100196 1:21 2:10 3:21.531943 
0.02527993396803507 1:22 2:7 3:9.371627 
0.02102205474614846 1:27 2:7 3:33.451667 
0.02197561134692253 1:42 2:9 3:46.541595 
0.01935530767630873 1:30 2:6 3:39.930695 
0.01076292873932612 1:3 2:15 3:4.455593 
0.04112959062021837 1:17 2:32 3:47.238095 
0.01404638346213762 1:10 2:6 3:6.471717 
0.03590333123317807 1:22 2:36 3:39.333333 
0.03623188049135899 1:15 2:1 3:25.50753 
0.007771195433983436 1:17 2:6 3:9.037169 
0.01732046026758158 1:31 2:8 3:38.094607 
0.0427158655726243 1:31 2:9 3:7.984928 
0.04035883563367249 1:17 2:43 3:38.830698 
0.02543041547924363 1:25 2:41 3:39.21416 
0.02939151391031875 1:16 2:39 3:3.452125 
0.02089451273921994 1:15 2:13 3:5.990544 
0.02082965810053405 1:16 2:11 3:5.716733 
0.01979047977953281 1:16 2:19 3:11.604526 
0.01372014857536636 1:9 2:13 3:7.810224 
1 1:0 2:1 3:0.638352 
0.04268828382920409 1:44 2:5 3:42.484474 
0.008918989459099549 1:19 2:7 3:6.570175 
0.02611352230386343 1:1 2:16 3:23.874608 
0.02083296656298278 1:24 2:9 3:21.254598 
0.01267907417111311 1:8 2:26 3:7.25423 
0.02043855932829512 1:29 2:8 3:41.093359 
0.02372054830736409 1:14 2:25 3:12.141318 
0.03939142869061529 1:21 2:18 3:24.036309 
0.04271707419856008 1:25 2:29 3:48.904762 
0.03848585169833113 1:30 2:15 3:45.517796 
0.0355603369526265 1:11 2:31 3:13.838483 
0.0177936810386031 1:9 2:23 3:7.380832 
0.04158630055281742 1:22 2:34 3:11.492315 
0.04278190743041302 1:17 2:35 3:9.83183 
0.005347921904811155 1:21 2:2 3:7.390734 
0.04282989420804156 1:36 2:78 3:26.627245 
0.04289195586634026 1:53 2:93 3:41.514908 
0.04246644419522488 1:15 2:47 3:14.124757 
0.04290800074466627 1:42 2:26 3:2.633514 
0.1691284849105547 1:2 2:4 3:0.525389 
0.04294500888662323 1:2 2:494 3:0.525389 
0.04259706843900518 1:17 2:1154 3:2.488036 
0.04041063081597152 1:24 2:26 3:9.134864 
0.02360407114059826 1:10 2:11 3:18.823487 
1 1:0 2:1 3:0.519433 
0.009837716711112245 1:12 2:22 3:4.399593 
0.008060262246544969 1:7 2:3 3:4.558454 
0.03671138432958693 1:16 2:42 3:18.279629 
0.01269175010563352 1:9 2:25 3:2.314367 
0.02057107994822471 1:13 2:30 3:11.859437 
0.04318573163281875 1:3 2:21 3:16.571429 
0.02396180781531509 1:14 2:48 3:8.695794 
0.1956868773335941 1:8 2:1 3:1.744864 
0.01024461610823852 1:18 2:2 3:8.505955 
0.02955055013277037 1:6 2:11 3:10.458925 
0.001590493426627615 1:22 2:8 3:32.272605 
0.006376104575207818 1:12 2:31 3:7.229144 
0.04034368880272049 1:27 2:24 3:18.166017 
0.04288310500708226 1:8 2:13 3:27.8 
0.02147851560565878 1:10 2:12 3:10.912917 
0.03828360517712892 1:12 2:23 3:13.397526 
0.04079553983770207 1:29 2:44 3:24.633429 
0.02035200687973607 1:23 2:3 3:9.164607 
1 1:0 2:1 3:0.508064 
0.03502918586596199 1:42 2:5 3:53.374762 
0.02025852710956834 1:2 2:10 3:16.403609 
0.03499520347677768 1:19 2:49 3:46.142857 
0.03773758675884714 1:15 2:1 3:32.5 
0.0229151849253942 1:13 2:32 3:12.692521 
1 1:0 2:3 3:0.686575 
0.02649664367373703 1:2 2:10 3:19.00494 
0.04147298826648613 1:2 2:28 3:10.549817 
0.04274035269809384 1:29 2:22 3:32.313827 
0.01835057909845444 1:24 2:11 3:36.244338 
0.02691900510917922 1:16 2:11 3:15.406993 
0.04269522095387124 1:12 2:47 3:39.380952 
0.03060770866431278 1:29 2:3 3:49.916717 
0.0136562035848 1:8 2:5 3:1.091422 
0.02516676289553892 1:30 2:13 3:40.905871 
1 1:0 2:1 3:0.478595 
0.02020376726054168 1:4 2:28 3:0.685149 
0.001183477210635886 1:8 2:24 3:5.026642 
0.0157240447273379 1:17 2:5 3:13.278641 
0.03864089816724347 1:24 2:12 3:18.969011 
0.03668791543387306 1:9 2:4 3:28.755155 
0.02897065422397921 1:32 2:6 3:31.86605 
0.01396937726096381 1:20 2:7 3:34.289591 
0.02903160510561667 1:8 2:1 3:37.714286 
0.02796223608820958 1:12 2:1 3:13.87618 
0.01598044021668044 1:14 2:24 3:6.93927 
0.002756957654748279 1:4 2:24 3:5.646678 
0.002478387925096702 1:10 2:18 3:6.953053 
0.002600915650697949 1:8 2:26 3:4.793558 
0.01227817508984763 1:3 2:28 3:6.001687 
0.005070623126431262 1:21 2:6 3:7.297256 
0.02380270131046691 1:26 2:20 3:15.137665 
0.003521901987246642 1:12 2:19 3:4.88067 
0.01279411258253712 1:15 2:19 3:7.865927 
0.03594008639535784 1:23 2:46 3:46.190476 
1 1:0 2:1 3:0.430161 
0.03404494636744815 1:36 2:7 3:32.108842 
0.04290364316972706 1:30 2:41 3:60.333333 
0.03666831229528933 1:23 2:49 3:14.663026 
0.001036067342011403 1:33 2:9 3:42.606942 
0.01569152899068781 1:21 2:5 3:3.003239 
0.02254037402163018 1:7 2:4 3:9.717344 
0.0240613698388582 1:0 2:1 3:115.19406 
0.0006127406826105037 1:0 2:1 3:32.336999 
0.04278668423895154 1:0 2:21 3:35.051488 
0.03871843985556001 1:0 2:10 3:35.051488 
0.00666894761174351 1:0 2:1 3:18.864941 
0.04282719549662861 1:4 2:62 3:23.079951 
0.0429402273777546 1:0 2:1 3:127.29651 
0.001485334692361102 1:0 2:7 3:7.221181 
0.02667198832683493 1:0 2:7 3:7.221181 
1 1:0 2:2 3:0.54506 
0.02971987269974603 1:0 2:2 3:96.478766 
0.03208890714476997 1:0 2:15 3:23.079951 
0.02477200000451863 1:11 2:4 3:12.940596 
0.04281655609936885 1:32 2:40 3:36.142427 
0.02256055113800162 1:14 2:1 3:5.323052 
0.02451372947888286 1:18 2:7 3:26.472731 
0.03161857654669053 1:24 2:17 3:38.809524 
1 1:0 2:1 3:0.523713 
0.02786786697633661 1:15 2:40 3:32.6 
0.0428794333019068 1:7 2:51 3:45.85 
1 1:0 2:9 3:1.241546 
0.01726868212259985 1:3 2:1 3:17.791331 
0.01516318201518413 1:9 2:9 3:10.378578 
1 1:0 2:1 3:0.572699 
0.01598149227385542 1:19 2:16 3:10.487718 
0.02132537105738178 1:0 2:2 3:66.743691 
0.04298185157493911 1:21 2:14 3:59.95733 
1 1:0 2:1 3:0.46754 
0.03448110135966335 1:16 2:1 3:46.465001 
0.0415621708100215 1:22 2:32 3:31.380285 
0.04338919795239399 1:3 2:17 3:83.735984 
1 1:0 2:1 3:0.41311 
0.04048549001117769 1:22 2:2 3:38.664593 
0.02361665865210431 1:38 2:3 3:35.794732 
0.03379789214865692 1:17 2:1 3:14.722581 
0.01181192050237701 1:15 2:6 3:10.940137 
0.0009041757669899786 1:12 2:17 3:9.42564 
0.03246395543665104 1:26 2:37 3:43.985506 
0.005867804023425337 1:12 2:32 3:6.445733 
0.01328999521982767 1:14 2:7 3:7.929811 
0.04285659083481669 1:40 2:10 3:54.406011 
0.04225230972011407 1:0 2:8 3:62.820381 
0.002800951305800992 1:14 2:18 3:5.595279 
0.04283771508551995 1:26 2:45 3:33.394852 
0.03650015249758239 1:27 2:20 3:23.710968 
0.01717433355744358 1:0 2:1 3:32.666667 
0.01709875548755069 1:26 2:4 3:32.372702 
0.01316001408902336 1:18 2:8 3:7.190731 
0.03770431801291232 1:17 2:36 3:3.140577 
0.005355518040738088 1:29 2:8 3:38.8 
0.02799883851494584 1:26 2:15 3:29.296243 
1 1:1 2:1 3:0.486235 
0.007420692069418477 1:11 2:28 3:7.281311 
0.0427673583237943 1:12 2:60 3:45 
0.02224884279515886 1:39 2:8 3:47.686334 
0.022555938737008 1:1 2:14 3:9.69037 
0.00632728035439218 1:8 2:22 3:5.309995 
0.01948800229881692 1:15 2:17 3:13.323962 
0.2424629002770187 1:0 2:52 3:2.224872 
1 1:0 2:17 3:0.739275 
0.009103378345722736 1:2 2:21 3:4.568727 
0.0135378057935428 1:1 2:13 3:11.516985 
0.03327448488971563 1:3 2:1 3:22.984716 
0.03829948349782486 1:1 2:7 3:68.106353 
0.004016361449076846 1:1 2:1 3:30.417867 
0.01202629399711305 1:4 2:1 3:11.14582 
0.001571274963957219 1:2 2:25 3:5.92526 
0.0311679334449812 1:1 2:22 3:8.823278 
1 1:0 2:1 3:0.522775 
0.03947454868416017 1:28 2:33 3:25.055198 
0.02947672895274338 1:0 2:1 3:34.586145 
0.02999576499103729 1:23 2:11 3:9.195686 
0.01366567998862871 1:1 2:1 3:27.710816 
0.02258362384533356 1:18 2:9 3:40.453608 
0.04145033390909328 1:2 2:38 3:13.833459 
0.01804829718398009 1:20 2:6 3:31.692294 
0.02135248384960686 1:20 2:44 3:38.75 
0.04286121702930268 1:9 2:43 3:24.686662 
0.3082093233900721 1:0 2:30 3:2.225165 
0.03662164270172608 1:34 2:9 3:22.530285 
0.01284713437786886 1:10 2:3 3:4.622753 
0.03977575303355801 1:26 2:1 3:14.681025 
0.0142601684424904 1:2 2:19 3:6.109025 
0.02836969540132864 1:27 2:6 3:39.785493 
0.01755453643147659 1:24 2:8 3:35.659833 
0.04205348137762271 1:21 2:22 3:29.141112 
0.01730652842223375 1:20 2:2 3:8.343445 
0.02082279124961287 1:4 2:17 3:6.129822 
0.01327744050453694 1:24 2:6 3:36.151266 
0.02828490405597403 1:24 2:39 3:33.238095 
0.04287474533203933 1:26 2:22 3:54.398998 
0.01915911637988666 1:17 2:9 3:15.574228 
0.03904335469532738 1:7 2:6 3:28.022369 
0.04096817931691421 1:31 2:46 3:25.711668 
0.0213579253575507 1:6 2:6 3:6.199493 
0.02948707719728184 1:20 2:12 3:50.040901 
0.0164452873736104 1:1 2:23 3:5.856348 
1 1:0 2:2 3:0.475337 
1 1:0 2:1 3:0.518854 
0.0390597804795704 1:10 2:10 3:25.129812 
0.01969644888876066 1:26 2:9 3:32.285506 
0.006319898111427283 1:14 2:3 3:6.523835 
0.01504496706924355 1:23 2:4 3:7.955052 
0.007862878177054337 1:0 2:40 3:4.874544 
0.040635691284027 1:20 2:20 3:1.310862 
0.008835571472996729 1:7 2:29 3:5.509246 
0.04270586217759215 1:31 2:37 3:23.709271 
0.02659782074074889 1:42 2:8 3:46.031844 
0.01657076362677423 1:13 2:1 3:3.148928 
0.02621433564829578 1:25 2:20 3:14.288644 
0.0131458629044936 1:11 2:4 3:2.09208 
0.0385000345040184 1:21 2:36 3:37.047619 
0.0007059461022109748 1:10 2:24 3:5.595909 
0.03419620584291733 1:14 2:8 3:15.907206 
0.03435331346841133 1:26 2:8 3:20.019344 
0.01367410304501584 1:12 2:10 3:3.497987 
0.01267083916316358 1:2 2:17 3:6.039212 
0.0422105468448874 1:13 2:15 3:30.339249 
0.009348299961921262 1:12 2:3 3:12.590488 
0.0416941051181739 1:14 2:16 3:24.214473 
0.003428905576138487 1:16 2:2 3:6.429103 
0.04152761830194102 1:36 2:2 3:49.017522 
0.04280258648437418 1:14 2:31 3:42.436863 
0.01338408326414975 1:1 2:11 3:10.371573 
0.01778411732967185 1:12 2:9 3:7.690485 
0.02307675051422128 1:2 2:1 3:14.077022 
0.03381487202411732 1:15 2:31 3:9.346216 
0.042138538218564 1:26 2:36 3:34.984833 
1 1:0 2:1 3:0.411562 
0.03077683772311207 1:30 2:39 3:29.267171 
0.04098740180280624 1:24 2:14 3:40.9 
0.0006299933439186667 1:0 2:1 3:22.630272 
0.01003075272913318 1:4 2:2 3:17.122296 
0.03208667688076505 1:12 2:11 3:0.669724 
0.009120688947487226 1:3 2:1 3:19.298758 
1 1:0 2:1 3:0.450569 
1 1:0 2:8 3:0.450569 
0.03125355013495507 1:5 2:18 3:0.765728 
0.04288008331345822 1:33 2:170 3:46.337701 
0.02157593334026255 1:12 2:20 3:1.212851 
0.04289669926191725 1:11 2:1 3:125.03037 
0.03270617867392306 1:14 2:37 3:31.952381 
0.004302915420864188 1:0 2:1 3:28.876807 
0.04267909195799401 1:10 2:43 3:39.15 
1 1:1 2:1 3:0.456143 
0.02661586889086792 1:25 2:5 3:11.586804 
0.04320051513804629 1:12 2:2 3:53.657592 
0.04329713816538566 1:1 2:32 3:31.242968 
0.02781933122035201 1:27 2:35 3:45.52381 
0.02989786771268439 1:29 2:16 3:25.479329 
0.006685694508382249 1:29 2:9 3:33.482499 
0.03942848011074439 1:21 2:37 3:44.811727 
0.02557590390056762 1:8 2:8 3:9.694771 
0.002412134078501882 1:12 2:25 3:5.453084 
0.00960004137378706 1:32 2:7 3:40.281929 
0.01979998918955462 1:18 2:14 3:13.500377 
0.0402909286205439 1:4 2:44 3:36.8 
0.01543541337561613 1:16 2:40 3:32.68491 
0.000836089585163402 1:12 2:1 3:7.817519 
0.0006922801251953437 1:1 2:1 3:8.363597 
0.02053627963246241 1:24 2:12 3:24.066885 
0.04276794291300839 1:25 2:280 3:1.882709 
1 1:1 2:21 3:1.005402 
0.007603964957050729 1:1 2:1 3:8.986625 
0.04137832805307551 1:26 2:15 3:44.048292 
0.0106830248769275 1:9 2:20 3:5.568175 
0.04129806627537763 1:16 2:4 3:47.972715 
0.02014119646915825 1:33 2:3 3:29.131545 
0.04315642010038845 1:28 2:1 3:54.666667 
0.04278770738067761 1:44 2:107 3:91.832048 
0.01626876743162098 1:22 2:14 3:21.142182 
0.02800347715943374 1:24 2:1 3:41.855073 
0.01172943173791819 1:10 2:8 3:2.429649 
0.0146251284255351 1:11 2:22 3:5.987472 
1 1:0 2:1 3:0.570747 
0.02937624135929398 1:28 2:19 3:37.25 
0.02281215873729505 1:16 2:17 3:5.907537 
0.02838012254947514 1:21 2:11 3:23.655095 
0.04037201806414492 1:34 2:28 3:39.930695 
0.03990345355129676 1:18 2:46 3:48.659494 
0.001073109552927165 1:15 2:27 3:6.006895 
0.002027625952434991 1:15 2:4 3:4.103013 
1 1:0 2:1 3:0.420425 
0.03360766389702896 1:35 2:7 3:30.305985 
0.02564204851897471 1:4 2:28 3:7.150461 
0.02622079320941547 1:33 2:11 3:29.849904 
0.04164666780141496 1:20 2:15 3:49.0964 
0.04279027839575966 1:33 2:7 3:66.92019 
0.03299404400769206 1:8 2:41 3:1.087555 
0.04278098375415768 1:18 2:34 3:33.75 
0.01156156744533115 1:13 2:3 3:4.553872 
0.02237201694480724 1:17 2:10 3:19.804036 
0.01322521313543901 1:18 2:2 3:4.512785 
0.009854404202499785 1:21 2:5 3:7.764316 
0.02581775984040519 1:21 2:15 3:8.777941 
0.03582809337226632 1:4 2:41 3:36.295316 
0.04112373575032802 1:35 2:12 3:22.100483 
0.005066791013153072 1:13 2:14 3:6.229453 
0.03761148496652961 1:13 2:2 3:35.790576 
0.02085698866443764 1:28 2:8 3:38.143199 
0.002304776274203428 1:1 2:5 3:5.011531 
0.03916599503772665 1:23 2:4 3:3.787766 
0.01432837592040555 1:9 2:26 3:8.56968 
0.005854953751890191 1:16 2:4 3:8.370117 
1 1:0 2:1 3:0.436762 
0.0358777484618964 1:19 2:49 3:27.829413 
0.02378521637107517 1:19 2:4 3:12.127077 
0.02287201887000828 1:15 2:23 3:12.266763 
0.02687722398201624 1:10 2:10 3:28.26222 
0.04060498638425702 1:22 2:42 3:56.879632 
0.02637554101523443 1:19 2:1 3:13.0626 
0.02907325758033057 1:7 2:30 3:7.217301 
0.01911490223506873 1:21 2:5 3:11.010486 
0.03251670820720837 1:18 2:22 3:4.623554 
0.02042868198971792 1:19 2:39 3:42.1 
0.01455067333157487 1:23 2:11 3:23.002954 
0.03088946538965054 1:25 2:49 3:53.117895 
0.03758149622775175 1:26 2:4 3:16.11931 
0.03251072967501245 1:12 2:2 3:39.661563 
1 1:0 2:1 3:0.66092 
0.001049795998035954 1:0 2:9 3:10.799942 
0.03252751728788254 1:29 2:17 3:32.245695 
0.0135501265360542 1:0 2:1 3:7.451799 
1 1:0 2:1 3:0.486897 
0.03351413224745997 1:23 2:1 3:44.8 
0.04290621938894962 1:14 2:10 3:50.067326 
0.01622769146461306 1:0 2:3 3:17.315783 
0.03071972315998067 1:28 2:2 3:33.654612 
0.01697748476907933 1:29 2:9 3:26.271132 
0.01584197268905588 1:9 2:31 3:6.13564 
0.01798816158215295 1:13 2:11 3:3.802561 
1 1:0 2:1 3:0.464255 
0.02385828916906821 1:24 2:5 3:37.343378 
0.004545525434888519 1:12 2:3 3:5.800962 
0.02319590878985132 1:21 2:7 3:7.273766 
0.02149026812583932 1:39 2:5 3:46.370336 
0.001984796459789628 1:9 2:7 3:3.554458 
0.04246192775868984 1:32 2:23 3:36.142119 
0.009427955730645447 1:14 2:1 3:8.695496 
0.02550994343768961 1:39 2:3 3:48.837123 
0.04134427675444857 1:6 2:13 3:37.55 
0.02176996197847208 1:8 2:13 3:8.210216 
0.01574447144240962 1:32 2:8 3:41.042635 
0.03987698967082082 1:22 2:15 3:6.318803 
0.01223827994843779 1:11 2:18 3:5.995844 
0.008216933290971302 1:7 2:6 3:3.644017 
0.002973588745530018 1:14 2:9 3:7.211492 
0.00151587387180884 1:14 2:3 3:6.837999 
0.003373825891525647 1:5 2:25 3:7.349839 
0.02085470327797535 1:24 2:5 3:33.366627 
0.02336080850518788 1:26 2:6 3:25.623012 
0.02418862712856037 1:11 2:24 3:10.489018 
0.005227348685022976 1:22 2:7 3:29.876639 
0.03016598865099683 1:13 2:47 3:9.30254 
0.002146740973880065 1:17 2:5 3:11.485132 
0.03133416981526477 1:28 2:15 3:27.058926 
0.04259203032391512 1:6 2:7 3:67.382479 
0.04291764434050638 1:0 2:1 3:91.461639 
0.04339349584868851 1:19 2:51 3:4.7969 
1 1:0 2:1 3:0.538491 
0.001140127959797912 1:1 2:17 3:4.894357 
0.04169465078558038 1:32 2:39 3:48.761905 
0.04025811178044364 1:2 2:34 3:6.156179 
0.01674461360709814 1:33 2:13 3:33.082107 
0.0424609521533359 1:33 2:4 3:50.75 
0.01557951417290642 1:22 2:3 3:10.862259 
0.01197935774674318 1:13 2:8 3:6.237694 
0.01666986251220945 1:17 2:17 3:10.686403 
0.01259853361683994 1:28 2:10 3:28.76148 
0.04273618013028269 1:23 2:35 3:20.250433 
0.02732504894129979 1:34 2:13 3:31.884595 
0.0391778100464526 1:16 2:7 3:32.989069 
0.02275326493355637 1:30 2:7 3:34.241269 
0.04293907199264818 1:13 2:50 3:27.627704 
0.008967137828684801 1:8 2:9 3:9.546132 
0.0005954688234212635 1:1 2:11 3:18.955713 
0.01589167631156585 1:25 2:9 3:30.684183 
0.03059275214225804 1:32 2:42 3:50.428571 
0.02646013785844358 1:14 2:1 3:14.750093 
0.007489949963211196 1:8 2:18 3:5.020225 
0.0426605684004559 1:25 2:52 3:35.868783 
0.01791321615931685 1:3 2:19 3:5.261489 
0.04282392651448447 1:38 2:67 3:4.025703 
0.000583765693484839 1:28 2:8 3:42.047619 
0.04269098941445809 1:1 2:31 3:14.065303 
0.04252640866401791 1:24 2:48 3:35.936365 
0.03652517829993096 1:18 2:28 3:36.192692 
0.03759414601522267 1:4 2:42 3:34.047619 
0.02466676919264182 1:2 2:8 3:9.64163 
0.008464383345678518 1:3 2:5 3:6.740679 
0.0158334470265298 1:15 2:1 3:48.25 
0.02381474616794493 1:28 2:11 3:22.414451 
0.01507288713341758 1:12 2:10 3:11.327724 
0.03287803189802568 1:30 2:13 3:25.435431 
0.001896037481528019 1:29 2:9 3:41.281846 
0.2786117722703976 1:0 2:45 3:2.331619 
0.004533626274055291 1:6 2:22 3:5.492036 
0.007550798938484413 1:16 2:5 3:9.759341 
0.0203326557383432 1:9 2:11 3:8.777777 
1 1:0 2:1 3:0.612818 
0.03024038442958719 1:23 2:4 3:23.956961 
0.02801265171965911 1:10 2:12 3:19.533142 
0.006570444604393155 1:21 2:13 3:30.836651 
0.002518016067184925 1:5 2:26 3:7.063941 
0.003865846894518743 1:11 2:19 3:7.924708 
0.005769842112860068 1:5 2:17 3:2.650067 
0.03727318675580216 1:0 2:1 3:100.16583 
0.01994700061183945 1:19 2:14 3:11.00875 
0.03155657419356893 1:19 2:11 3:9.929854 
0.01774838919923565 1:8 2:20 3:1.77986 
0.04331176525655206 1:83 2:240 3:5.246448 
0.0429493396652556 1:1270 2:15961 3:147.9 
0.01327198300509818 1:11 2:8 3:2.635184 
0.03444890491200153 1:18 2:14 3:3.327638 
0.04110784251839406 1:1 2:45 3:6.982137 
0.04307584693101141 1:46 2:12 3:4.093734 
0.04295575923121658 1:71 2:21 3:7.575637 
0.03426493415790394 1:2 2:40 3:4.11587 
0.04294133508520553 1:171 2:58 3:3.014361 
0.9101182596222942 1:0 2:8 3:1.286355 
0.02859913350333511 1:0 2:8 3:16.781008 
0.04195785100465133 1:1 2:14 3:93.59672 
0.02192530539366124 1:3 2:8 3:4.549449 
0.04293733318461657 1:1 2:49 3:75.547491 
0.0220301961501797 1:0 2:2 3:41.261694 
0.02537967966076609 1:2 2:3 3:55.856622 
0.04281837185957288 1:5 2:1 3:148.25824 
0.01045104343604525 1:2 2:2 3:10.232436 
0.0429228813648051 1:1 2:470 3:0.820111 
0.02392071125109339 1:23 2:8 3:37.956939 
0.8939216888603367 1:4 2:1 3:0.875686 
0.1567808122678092 1:7 2:2 3:1.148585 
0.04222983329254865 1:29 2:15 3:4.581073 
0.04270253622273568 1:9 2:127 3:3.813954 
0.04284110256073287 1:1 2:385 3:18.519561 
0.04306557414163309 1:5 2:85 3:0.951788 
0.03049717518789281 1:10 2:7 3:17.95001 
0.04320395829331414 1:49 2:23 3:13.186487 
0.7122217778258065 1:1 2:50 3:1.378475 
0.02415162120632972 1:0 2:1 3:77.206476 
0.02291251865667354 1:1 2:3 3:19.683736 
0.04282078581187643 1:6 2:19 3:92.431572 
0.03630446188429078 1:0 2:1 3:68.611505 
0.04244317161558298 1:3 2:11 3:93.392595 
0.002869909726239762 1:0 2:1 3:5.914506 
0.03196526829592258 1:5 2:6 3:32.238557 
0.04295419583523308 1:15 2:5 3:138.48933 
0.04276802261420271 1:5 2:4 3:108.33928 
0.007263109845596805 1:15 2:14 3:8.069764 
0.03094486421589182 1:33 2:3 3:39.814772 
0.03953631260392571 1:21 2:50 3:42.971183 
0.03922557689169098 1:37 2:9 3:49.493188 
0.04282877326114259 1:33 2:70 3:0.564102 
0.04290424352763206 1:7 2:56 3:21.095238 
1 1:0 2:1 3:0.417953 
0.04281541917706644 1:31 2:3 3:57.8 
0.04282563107590287 1:37 2:46 3:30.650936 
0.005804252039972715 1:8 2:20 3:7.489837 
0.04256130929725441 1:26 2:46 3:28.878461 
0.01915642106543548 1:21 2:5 3:31.367125 
1 1:0 2:2 3:0.474451 
0.03604543230310697 1:17 2:30 3:36.6 
0.04277727243096224 1:28 2:26 3:14.191776 
0.02157616835411601 1:8 2:23 3:2.490322 
0.01529791360908718 1:6 2:22 3:7.215143 
0.03456197268017708 1:14 2:10 3:19.68247 
0.03770045647102138 1:23 2:1 3:55.857143 
0.01638660473434934 1:1 2:4 3:10.690892 
1 1:0 2:1 3:0.653477 
0.02523190411836933 1:14 2:43 3:14.327971 
0.04228977689623997 1:17 2:29 3:44.75 
0.01503600054311363 1:9 2:6 3:24.534077 
0.03136620751667429 1:31 2:40 3:30.235814 
0.006499610408810919 1:0 2:1 3:9.588156 
0.00791854672394438 1:0 2:3 3:66.481763 
1 1:0 2:4 3:0.595757 
0.003607395177345693 1:0 2:2 3:10.348675 
0.03774654594793486 1:0 2:1 3:135.44332 
1 1:0 2:20 3:0.469446 
1 1:0 2:1 3:0.436393 
0.03758761563960916 1:21 2:42 3:39.901128 
0.0125297814580898 1:24 2:3 3:14.243918 
0.0309646644071246 1:4 2:24 3:1.615088 
1 1:0 2:1 3:0.548405 
0.03807657076950911 1:25 2:1 3:50.714286 
0.04293746219142863 1:27 2:17 3:51.621169 
0.004379636277687144 1:13 2:4 3:7.236166 
0.002666873589739732 1:17 2:3 3:9.776669 
0.01560020018701075 1:16 2:9 3:10.962678 
0.02042904313033802 1:19 2:23 3:13.254198 
0.00328594172411445 1:15 2:10 3:6.169732 
0.01487133817522344 1:4 2:26 3:7.075106 
1 1:0 2:16 3:0.642448 
0.02365050340307589 1:22 2:13 3:20.3895 
0.02285944293389456 1:18 2:1 3:41.190476 
0.02379479851272141 1:32 2:9 3:36.018938 
0.00985075825340811 1:20 2:5 3:9.676475 
0.04258116811743995 1:4 2:1 3:71.295696 
0.02123344643897445 1:10 2:11 3:2.666438 
0.04259162708230092 1:13 2:36 3:40.013369 
0.0350165770206185 1:16 2:9 3:23.925548 
0.03606270607238254 1:4 2:38 3:11.212672 
0.0151291981118329 1:7 2:12 3:2.059242 
0.01984371895890904 1:6 2:2 3:7.414415 
0.006119071892842599 1:10 2:27 3:6.767322 
0.02164441920544734 1:7 2:22 3:7.806446 
0.03048512353137589 1:0 2:8 3:36.671431 
0.01420971683303102 1:1 2:1 3:41.667349 
0.03069111504486416 1:5 2:4 3:8.973616 
0.00625137731784303 1:8 2:1 3:8.581085 
0.004047435645350517 1:2 2:10 3:15.296273 
0.04091601051818828 1:2 2:3 3:58.664956 
0.0175504234294947 1:10 2:1 3:9.323584 
0.04308107959940322 1:11 2:1 3:150.44094 
0.005197162054488426 1:15 2:7 3:5.849506 
0.03161077122050182 1:1 2:4 3:54.910309 
0.009517092640054974 1:14 2:5 3:8.768836 
0.04292230583324858 1:19 2:106 3:8.768836 
0.04279270796963164 1:2 2:68 3:6.359314 
0.04290526261980482 1:14 2:1 3:68.532562 
0.01854305164624968 1:2 2:2 3:29.263477 
-1 1:28 2:0 3:0.128718 
-1 1:0 2:1 3:0.411085 
-1 1:0 2:27 3:0.151308 
-1 1:0 2:95 3:0.115767 
-1 1:0 2:170 3:0.276684 
-0.4599170167740793 1:0 2:4 3:0.38463 
-1 1:0 2:49 3:0.261703 
-0.3743497108484866 1:0 2:7 3:0.387318 
-1 1:0 2:6 3:0.384304 
-1 1:0 2:147 3:0.111327 
-1 1:0 2:10 3:0.347839 
-1 1:0 2:266 3:0.06409 
-0.3208186761674279 1:0 2:12 3:0.386992 
-1 1:0 2:1 3:0.41109 
-1 1:0 2:1 3:0.410929 
-1 1:0 2:2 3:0.405246 
-1 1:0 2:54 3:0.127216 
-1 1:0 2:4 3:0.408661 
-1 1:0 2:21 3:0.112964 
-1 1:0 2:2 3:0.409221 
-0.8555393202029793 1:6 2:0 3:0.133678 
-1 1:0 2:1 3:0.411216 
-1 1:0 2:1 3:0.410934 
-0.5232307586701584 1:4 2:0 3:0.253676 
-1 1:0 2:1 3:0.410888 
-1 1:0 2:11 3:0.366876 
-1 1:0 2:1 3:0.411253 
-1 1:0 2:1 3:0.411078 
-1 1:0 2:3 3:0.388253 
-1 1:0 2:14 3:0.393046 
-1 1:0 2:40 3:0.216619 
-1 1:0 2:1 3:0.411226 
-1 1:0 2:1 3:0.410934 
-1 1:0 2:12 3:0.389762 
-1 1:0 2:1 3:0.411081 
-1 1:4 2:0 3:0.364236 
-0.7589868847434826 1:0 2:30 3:0.136499 
-1 1:0 2:9 3:0.384601 
-1 1:0 2:1 3:0.411042 
-1 1:0 2:4 3:0.387688 
-1 1:0 2:1 3:0.411216 
-1 1:0 2:1 3:0.411161 
-1 1:0 2:14 3:0.397196 
-0.1796657946144456 1:0 2:17 3:0.143767 
-1 1:0 2:12 3:0.394904 
-1 1:0 2:2 3:0.408076 
-1 1:0 2:4 3:0.403815 
-1 1:0 2:3 3:0.393602 
-1 1:0 2:11 3:0.380938 
-1 1:0 2:13 3:0.40965 
-1 1:0 2:1 3:0.410929 
-1 1:0 2:24 3:0.266348 
-0.1805902861208025 1:0 2:24 3:0.224631 
-1 1:0 2:1 3:0.410928 
-1 1:0 2:11 3:0.365007 
-1 1:0 2:22 3:0.227231 
-1 1:0 2:914 3:0.05161 
-1 1:0 2:4 3:0.402771 
-1 1:0 2:8 3:0.372817 
-1 1:38 2:722 3:0.372817 
-1 1:0 2:16 3:0.331186 
-1 1:0 2:2 3:0.403755 
-1 1:0 2:17 3:0.368199 
-1 1:0 2:34 3:0.019695 
-0.1930144396699855 1:0 2:13 3:0.347718 
-1 1:0 2:13 3:0.408806 
-1 1:0 2:214 3:0.249559 
-1 1:0 2:128 3:0.409373 
-1 1:0 2:8 3:0.349067 
-1 1:0 2:970 3:0.022105 
-0.7113860523076989 1:0 2:18 3:0.324131 
-1 1:0 2:1 3:0.411032 
-1 1:0 2:1 3:0.410891 
-1 1:0 2:3 3:0.381478 
-1 1:0 2:7 3:0.389135 
-0.2161484388790679 1:0 2:14 3:0.381555 
-1 1:0 2:9 3:0.393925 
-1 1:0 2:28 3:0.343908 
-1 1:0 2:757 3:0.167816 
-0.6906628418353815 1:0 2:36 3:0.297503 
-0.04973408756837289 1:0 2:22 3:0.221619 
-1 1:0 2:5 3:0.380281 
-1 1:0 2:1 3:0.411115 
-1 1:0 2:16 3:0.289161 
-1 1:0 2:29 3:0.387546 
-1 1:0 2:29 3:0.387546 
-1 1:0 2:1 3:0.41104 
-0.9712797959624986 1:0 2:20 3:0.101488 
-1 1:0 2:1 3:0.410891 
-1 1:0 2:1 3:0.411078 
-1 1:0 2:1 3:0.411246 
-1 1:0 2:1 3:0.411081 
-1 1:0 2:6 3:0.404594 
-1 1:0 2:3 3:0.385337 
-1 1:0 2:77 3:0.138336 
-1 1:0 2:1 3:0.41107 
-1 1:0 2:2 3:0.408679 
-1 1:0 2:1 3:0.410972 
-1 1:0 2:3 3:0.383743 
-1 1:7 2:0 3:0.045139 
-1 1:0 2:2 3:0.408419 
-1 1:1 2:0 3:0.410742 
-1 1:0 2:2 3:0.407618 
-1 1:0 2:17 3:0.394599 
-1 1:0 2:1 3:0.411252 
-1 1:0 2:17 3:0.302663 
-0.1343190218254242 1:0 2:16 3:0.242378 
-0.05175202048015711 1:0 2:11 3:0.361782 
-1 1:0 2:1 3:0.411081 
-1 1:0 2:1 3:0.410917 
-1 1:0 2:1 3:0.410955 
-1 1:0 2:1 3:0.411224 
-1 1:0 2:19 3:0.383234 
-1 1:0 2:1 3:0.411237 
-1 1:0 2:1 3:0.411088 
-1 1:0 2:1 3:0.411148 
-1 1:0 2:1 3:0.411143 
-0.2324798033936122 1:0 2:36 3:0.073476 
-1 1:0 2:86 3:0.355483 
-1 1:0 2:92 3:0.352815 
-1 1:0 2:314 3:0.333971 
-0.1232791401622623 1:5 2:0 3:0.119724 
-1 1:0 2:2 3:0.408803 
-1 1:0 2:1 3:0.411114 
-1 1:0 2:1 3:0.411016 
-1 1:0 2:13 3:0.366643 
-1 1:0 2:2 3:0.405354 
-1 1:0 2:91 3:0.021909 
-1 1:0 2:1 3:0.411237 
-1 1:0 2:1 3:0.410911 
-1 1:0 2:1 3:0.410955 
-1 1:0 2:1 3:0.410885 
-1 1:0 2:3 3:0.386804 
-1 1:0 2:1 3:0.410966 
-1 1:0 2:11 3:0.390006 
-1 1:0 2:1 3:0.411235 
-1 1:0 2:26 3:0.232218 
-1 1:0 2:6 3:0.389675 
-1 1:0 2:12 3:0.397391 
-1 1:0 2:1 3:0.41091 
-1 1:0 2:1 3:0.411235 
-1 1:0 2:257 3:0.273318 
-1 1:0 2:58 3:0.392385 
-1 1:0 2:6 3:0.404287 
-1 1:0 2:6 3:0.386778 
-1 1:0 2:1 3:0.410891 
-1 1:0 2:1 3:0.410934 
-1 1:0 2:1 3:0.411216 
-1 1:0 2:1 3:0.410888 
-1 1:0 2:1 3:0.411081 
-1 1:0 2:4 3:0.385559 
-1 1:0 2:1 3:0.411215 
-1 1:0 2:1 3:0.411224 
-1 1:0 2:2 3:0.409952 
-0.6091597766090007 1:0 2:1 3:0.410881 
-1 1:0 2:1 3:0.41106 
-1 1:0 2:1 3:0.411151 
-1 1:0 2:1 3:0.410966 
-1 1:0 2:1 3:0.411226 
-1 1:0 2:1 3:0.411194 
-1 1:0 2:1 3:0.411215 
-1 1:0 2:1 3:0.411215 
-1 1:0 2:1 3:0.411246 
-1 1:0 2:1 3:0.410881 
-0.3812264012973343 1:0 2:32 3:0.142724 
-1 1:2 2:0 3:0.408541 
-1 1:1 2:0 3:0.41034 
-1 1:0 2:1 3:0.41104 
-1 1:0 2:1 3:0.410885 
-1 1:0 2:41 3:0.163506 
-1 1:0 2:1 3:0.411161 
-1 1:0 2:1 3:0.41106 
-1 1:0 2:1 3:0.411252 
-1 1:0 2:1 3:0.411253 
-0.4078773817301323 1:0 2:5 3:0.36988 
-0.03966711656085872 1:0 2:28 3:0.064515 
-1 1:0 2:788 3:0.257843 
-1 1:0 2:1 3:0.411085 
-1 1:0 2:1 3:0.410928 
-1 1:0 2:1 3:0.411253 
-1 1:0 2:1 3:0.411252 
-1 1:0 2:1 3:0.410888 
-1 1:0 2:2 3:0.408014 
-1 1:0 2:2 3:0.408313 
-1 1:0 2:1 3:0.410934 
-1 1:0 2:6 3:0.406614 
-1 1:0 2:24 3:0.287095 
-1 1:0 2:45 3:0.257854 
-1 1:0 2:6 3:0.391033 
-1 1:0 2:1 3:0.411037 
-0.8105338670301709 1:1 2:0 3:0.410042 
-1 1:0 2:71 3:0.397796 
-0.934779453952041 1:2 2:0 3:0.407609 
-1 1:0 2:1 3:0.411081 
-1 1:0 2:1 3:0.410929 
-1 1:0 2:4 3:0.399331 
-1 1:4 2:0 3:0.269661 
-1 1:0 2:4 3:0.411226 
-1 1:0 2:1 3:0.411078 
-0.0884937617238333 1:0 2:2 3:0.403685 
-1 1:0 2:1 3:0.410934 
-1 1:0 2:7 3:0.405353 
-1 1:0 2:32 3:0.308887 
-1 1:0 2:20 3:0.402961 
-0.04113718732344558 1:0 2:19 3:0.371796 
-1 1:0 2:51 3:0.38229 
-1 1:0 2:4 3:0.389354 
-0.1399193069744459 1:0 2:6 3:0.381554 
-0.4711348337448026 1:0 2:9 3:0.362881 
-1 1:0 2:1 3:0.411018 
-0.3106873140179929 1:0 2:34 3:0.170573 
-1 1:0 2:1 3:0.410929 
-1 1:0 2:37 3:0.255872 
