svm_type c_svc
kernel_type rbf
gamma 0.333333
nr_class 2
total_sv 1589
rho -0.953574
label 1 -1
nr_sv 1426 163
SV
0.02113976556321806 1:31 2:13 3:35.627711 
0.02179198876575475 1:1 2:1 3:15.72927 
0.04635376018212362 1:15 2:51 3:32.846389 
0.04646312968619337 1:39 2:66 3:48.790735 
0.04647356194043178 1:28 2:42 3:9.510284 
0.03543020939232688 1:11 2:33 3:5.278898 
0.02427313286205056 1:39 2:8 3:46.384132 
0.007860620003566859 1:0 2:4 3:23.73729 
0.003208600451661936 1:0 2:3 3:14.873934 
1 1:1 2:1 3:0.438763 
0.04611642322096443 1:27 2:10 3:2.808711 
0.044689610325231 1:5 2:42 3:0.435796 
1 1:0 2:1 3:0.580294 
0.04105489102235149 1:19 2:14 3:17.43345 
0.02011645404622425 1:24 2:4 3:33.24636 
1 1:0 2:2 3:0.520456 
0.03163128125961384 1:17 2:21 3:13.381852 
0.04649095382734775 1:12 2:22 3:32.149799 
0.012646686090803 1:13 2:23 3:4.126668 
0.009744339666098611 1:6 2:24 3:3.906626 
0.04619198241428518 1:47 2:48 3:59.142857 
0.0350564022965319 1:29 2:12 3:37.015746 
1 1:0 2:3 3:0.81932 
0.03129085635308101 1:3 2:7 3:15.818198 
0.02865409509932354 1:1 2:3 3:33.402655 
0.04609465257899764 1:29 2:2 3:153.2792 
0.0456183389175509 1:10 2:4 3:50.387554 
1 1:1 2:14 3:1.01783 
0.03515754724913164 1:3 2:8 3:7.584309 
0.04648975993827398 1:1 2:171 3:7.584309 
0.04648318344297769 1:1 2:363 3:5.046291 
0.04640078176520251 1:51 2:590 3:0.656205 
0.1226414038247679 1:2 2:47 3:1.028549 
0.04624122321453183 1:42 2:17 3:4.645707 
0.0243544098653383 1:2 2:3 3:17.149698 
0.02481942892477923 1:4 2:29 3:4.645707 
0.01060628414329881 1:8 2:7 3:5.454058 
0.04620610648812473 1:34 2:18 3:27.138162 
0.04123714094827852 1:6 2:35 3:5.586528 
0.01515964215139898 1:14 2:2 3:4.64922 
0.0223556300234377 1:11 2:9 3:5.12667 
0.02645384597927058 1:19 2:9 3:16.002661 
0.02948298482330045 1:18 2:3 3:4.719955 
0.01389960841901872 1:6 2:20 3:4.254814 
0.03176822198047424 1:5 2:21 3:2.196619 
0.04389714167187853 1:6 2:8 3:12.552828 
1 1:0 2:1 3:0.45874 
1 1:0 2:1 3:0.668191 
0.02368716900667638 1:24 2:3 3:41.047619 
0.04625442997859308 1:16 2:20 3:36.10045 
0.0293766869786482 1:24 2:1 3:48.5 
0.02949075467315792 1:24 2:48 3:44.262456 
1 1:0 2:4 3:0.478288 
0.002215799917277845 1:16 2:13 3:8.959767 
0.02905886728662142 1:6 2:25 3:2.295923 
0.03973105239650475 1:15 2:13 3:22.705664 
0.001169494777895186 1:16 2:3 3:7.522465 
0.02524648193107043 1:25 2:13 3:32.114592 
0.009909053350810115 1:10 2:16 3:4.122227 
0.04647526789578094 1:4 2:54 3:42.65 
0.006336703216572885 1:12 2:24 3:5.339835 
0.04423342935171182 1:31 2:37 3:44.332143 
0.009930665036432917 1:16 2:6 3:7.699663 
0.01126149804909355 1:12 2:16 3:4.330386 
0.04605223861863394 1:27 2:50 3:28.516772 
0.04622741469057323 1:22 2:31 3:38.52381 
0.04605590724100922 1:23 2:15 3:15.497042 
1 1:0 2:1 3:0.725481 
0.04630606604523141 1:21 2:42 3:0.440413 
0.01504784036868103 1:15 2:15 3:5.331643 
0.02915717443973223 1:14 2:25 3:3.475287 
0.009415307630736891 1:27 2:15 3:29.933271 
0.0342136894739152 1:6 2:2 3:28.405479 
0.003814925823461931 1:5 2:4 3:4.578997 
0.07559090687941548 1:1 2:2 3:0.423262 
0.04373795604476512 1:17 2:30 3:11.35928 
1 1:0 2:1 3:0.664884 
0.02676964636832946 1:2 2:31 3:4.305339 
0.003208753018305296 1:2 2:5 3:6.894929 
0.04616287543881636 1:0 2:43 3:14.605387 
0.02460996986648467 1:0 2:3 3:25.519517 
0.03475483657837547 1:11 2:31 3:8.071525 
0.325047239620097 1:5 2:1 3:2.140398 
0.04526753251352139 1:27 2:9 3:46.792651 
0.004257061805230816 1:17 2:1 3:9.883686 
0.01959785606531804 1:26 2:8 3:22.168226 
6.199493554323414e-06 1:26 2:5 3:12.499729 
0.01945176581216788 1:20 2:23 3:11.386245 
0.04622226384776207 1:17 2:16 3:57.146755 
0.03366768216919558 1:19 2:12 3:20.925519 
0.02363443351997957 1:10 2:5 3:8.64858 
0.008063186495722293 1:11 2:27 3:5.840116 
0.004310291922055017 1:10 2:7 3:5.168634 
0.00417726680684338 1:12 2:7 3:2.172261 
0.04246384069772441 1:23 2:1 3:16.0886 
0.02949120883081346 1:22 2:1 3:49.65 
0.03627168749335524 1:36 2:14 3:38.151645 
0.02585857718567815 1:32 2:11 3:33.521891 
0.03849296021429522 1:24 2:5 3:42.047619 
0.04646064283332518 1:22 2:61 3:14.887379 
0.02795503679251456 1:27 2:9 3:10.915293 
0.02275790175740683 1:12 2:11 3:1.71183 
0.03499041596691232 1:11 2:13 3:0.745606 
0.04593627145744 1:33 2:51 3:56.714286 
1 1:0 2:6 3:0.679348 
0.009199444121902489 1:7 2:11 3:2.297163 
0.02161146634424171 1:0 2:20 3:9.08391 
0.03474013067077896 1:8 2:17 3:1.473219 
0.01389536307799305 1:13 2:21 3:7.559538 
0.007448977150749473 1:13 2:3 3:5.680233 
0.02498797962960694 1:9 2:19 3:9.919987 
0.03851886845661601 1:5 2:8 3:16.23471 
0.04547540605729711 1:10 2:48 3:10.166483 
0.04652835685163209 1:0 2:22 3:21.756964 
0.01140816894287793 1:16 2:7 3:4.825008 
0.00902534461830018 1:5 2:29 3:4.666817 
0.04622492174355468 1:7 2:45 3:14.159315 
0.03555798023770047 1:11 2:1 3:39.082402 
0.01010380492772643 1:30 2:9 3:38.517892 
0.04689061047188114 1:7 2:42 3:9.75535 
1 1:0 2:1 3:0.581028 
0.002348516181611027 1:12 2:7 3:4.448427 
0.02440221697629875 1:30 2:13 3:33.715426 
0.04618268726608249 1:35 2:48 3:58.238095 
0.03726365073562372 1:20 2:1 3:19.769568 
0.01545751857145955 1:8 2:9 3:4.628909 
0.1619206954932943 1:2 2:11 3:0.690141 
0.04611910654431461 1:25 2:85 3:29.500434 
0.0201528008297012 1:6 2:8 3:2.785845 
0.005019690795828658 1:11 2:6 3:3.407017 
0.3573421419242597 1:0 2:6 3:1.210757 
0.02655377959154726 1:16 2:1 3:3.25574 
0.007558449455415488 1:2 2:3 3:6.267877 
0.02037948218032745 1:11 2:22 3:8.892602 
1 1:0 2:3 3:0.556113 
0.02401123166794814 1:0 2:1 3:29.567094 
0.001012750245132921 1:0 2:4 3:34.44191 
0.04001912751501376 1:31 2:4 3:41.963437 
0.02966386732407743 1:8 2:6 3:7.32769 
0.02181652815980772 1:14 2:18 3:13.978583 
0.01193919888458872 1:11 2:24 3:9.360901 
0.01187052367126946 1:10 2:26 3:7.084158 
0.04595448841954259 1:23 2:9 3:4.662303 
0.03042851418123554 1:22 2:13 3:23.146477 
0.04606832933038496 1:1 2:14 3:40.238095 
0.03722776196366356 1:20 2:14 3:27.92048 
0.02845630301877444 1:28 2:9 3:29.939843 
0.0360053961231388 1:16 2:2 3:34.904762 
0.03112419683776699 1:34 2:6 3:34.860489 
0.04612424141027595 1:22 2:39 3:24.735843 
1 1:0 2:2 3:0.632025 
0.02733306536975402 1:30 2:9 3:33.439857 
0.02908499144363343 1:21 2:27 3:9.462361 
0.03261837951224252 1:18 2:11 3:29.649248 
0.02998099280940508 1:1 2:2 3:37.184753 
0.04625814622325242 1:21 2:31 3:12.53306 
0.0355374591884646 1:21 2:24 3:12.722314 
1 1:0 2:1 3:0.528287 
0.02921582974757636 1:15 2:25 3:8.174083 
0.0162876531980552 1:5 2:7 3:2.468701 
0.004408778150298631 1:12 2:4 3:6.811983 
0.03998121968282342 1:31 2:13 3:21.707362 
0.04281026442347013 1:6 2:5 3:25.042817 
0.02845041524320564 1:20 2:7 3:35.656651 
0.04127911254063138 1:28 2:38 3:51.459932 
0.02947560950731548 1:21 2:5 3:14.659763 
0.04679769886182733 1:12 2:21 3:86.4056 
0.004480778702915489 1:13 2:15 3:9.180296 
0.03652492260745116 1:10 2:34 3:7.617049 
0.04512146575492831 1:23 2:20 3:9.726326 
0.01445120535706538 1:6 2:5 3:2.525536 
0.01645229640941764 1:11 2:6 3:1.439689 
0.04389081317615978 1:9 2:6 3:12.386364 
0.002139086889610603 1:13 2:6 3:4.823823 
0.04462147432721611 1:26 2:22 3:8.073388 
1 1:0 2:4 3:0.421242 
0.02483978068185425 1:0 2:1 3:21.072858 
1 1:0 2:6 3:0.475061 
1 1:0 2:6 3:0.962944 
0.02893892585303609 1:21 2:5 3:25.270385 
0.02100965184098719 1:11 2:2 3:2.508453 
0.01217319884886666 1:8 2:15 3:3.488112 
0.01097517476590998 1:8 2:8 3:4.910266 
0.002169200385918592 1:0 2:1 3:10.001104 
1 1:0 2:6 3:0.939932 
0.04629880834240963 1:4 2:28 3:14.543309 
0.04371489784088467 1:4 2:38 3:5.941224 
0.03372437503810991 1:23 2:5 3:8.285362 
0.01922249399614318 1:25 2:5 3:34.590093 
0.01706993704591794 1:21 2:5 3:13.251087 
0.007395083721418982 1:9 2:22 3:5.834772 
0.006323424262376967 1:9 2:16 3:4.621258 
0.04623970906381414 1:174 2:76 3:8.982531 
0.04623812687895722 1:21 2:37 3:50.068868 
0.04662395773782163 1:20 2:11 3:48.67203 
0.0258559657996954 1:17 2:7 3:23.022121 
0.01606782562491604 1:0 2:1 3:17.956783 
0.003067664330248342 1:10 2:17 3:5.355342 
0.04595619855071476 1:35 2:6 3:47.713481 
0.02031221237735248 1:29 2:2 3:36.286184 
0.03908529563919327 1:13 2:44 3:34.1 
1 1:0 2:1 3:0.484345 
0.0006848003585024628 1:7 2:6 3:5.169789 
0.006692910525921027 1:8 2:1 3:6.036069 
0.01101378551902545 1:11 2:4 3:9.301134 
0.01963328580333404 1:15 2:8 3:8.111851 
0.02521312878696685 1:23 2:4 3:15.289638 
0.04621753886755126 1:25 2:31 3:44.333333 
0.0365519792308152 1:29 2:35 3:43.047619 
0.01922687224330278 1:9 2:20 3:7.815029 
0.04648375652131004 1:14 2:6 3:78.098822 
0.02842608102378569 1:19 2:6 3:7.446764 
0.01567703759355062 1:14 2:10 3:8.508737 
0.0005235481295387827 1:15 2:4 3:5.230269 
0.04379633271736664 1:17 2:16 3:16.781262 
0.04646708797708388 1:39 2:23 3:12.407413 
0.03177517711949956 1:10 2:20 3:11.966125 
0.0215854244036897 1:16 2:3 3:12.083348 
0.01001516699770306 1:18 2:13 3:14.409495 
0.04001434331509696 1:32 2:1 3:40.96914 
0.01135009282426629 1:19 2:11 3:20.367195 
0.04235381868700894 1:14 2:52 3:52.554125 
0.03114481132455893 1:32 2:3 3:36.668196 
0.0348280960360256 1:20 2:4 3:27.166969 
0.03008432161931074 1:14 2:31 3:6.435759 
0.02663526016719814 1:21 2:10 3:16.357584 
0.02221324110415959 1:25 2:1 3:32.857143 
1 1:0 2:1 3:0.502342 
0.02319321880654787 1:0 2:1 3:11.77949 
0.004854982855915142 1:16 2:24 3:9.609188 
0.006256533924455077 1:27 2:18 3:24.843894 
0.04118449670327834 1:6 2:20 3:12.090681 
0.01774953380696426 1:28 2:6 3:28.764637 
0.03102763179209699 1:17 2:10 3:30.480641 
0.04597273985857042 1:24 2:11 3:10.417317 
0.02377021963677044 1:11 2:21 3:11.013334 
0.02210122576465586 1:26 2:2 3:43.285714 
0.01506698057845045 1:17 2:7 3:8.576781 
0.04199441439403556 1:15 2:54 3:51.154788 
0.0421229470378264 1:10 2:27 3:1.313229 
0.03665906953225924 1:21 2:7 3:17.783288 
0.04586422841203742 1:8 2:23 3:15.485315 
0.04310236058067707 1:19 2:16 3:24.413318 
0.0249580149454472 1:14 2:14 3:9.334275 
0.005353561866891229 1:12 2:20 3:5.799533 
0.01674301619830542 1:14 2:10 3:7.612332 
0.001402710671292127 1:2 2:19 3:5.276443 
0.02785859684009079 1:7 2:5 3:32.521243 
0.0460731832707964 1:14 2:44 3:41.579476 
0.03806389052328307 1:13 2:27 3:11.327263 
0.04645929844934704 1:30 2:11 3:55.582324 
0.03959694687554711 1:0 2:40 3:5.221148 
0.03517461055206617 1:3 2:14 3:6.28531 
0.01685077280537743 1:16 2:10 3:14.497416 
0.01580819798867738 1:9 2:7 3:24.607209 
0.01522470451487819 1:3 2:6 3:7.204376 
0.04400367692700835 1:36 2:30 3:39.158977 
0.04623970503570018 1:1 2:14 3:48.207343 
0.0461186707822191 1:0 2:3 3:83.328946 
0.04641113041247272 1:1 2:9 3:53.111843 
0.00884052196345321 1:0 2:5 3:8.069609 
0.02412795970961093 1:7 2:21 3:6.579016 
1 1:1 2:1 3:0.460631 
0.04190373898162958 1:16 2:53 3:43.857143 
0.01710641276160145 1:9 2:1 3:37.428571 
0.0460970882765851 1:36 2:12 3:52.428571 
0.03553121990582526 1:10 2:7 3:30 
0.04613125906161208 1:31 2:19 3:9.922167 
0.0284654015920115 1:20 2:16 3:8.547315 
0.03902773994137658 1:27 2:16 3:17.25914 
0.01904238559162704 1:7 2:10 3:4.31821 
0.04537539878026448 1:34 2:13 3:47.335258 
0.04624176700361654 1:28 2:31 3:22.78173 
1 1:0 2:1 3:0.485349 
0.04672993595811448 1:17 2:12 3:35.230707 
0.04541326867788038 1:36 2:12 3:30.089827 
0.00454075304345813 1:14 2:4 3:6.16566 
0.008699601244597864 1:8 2:23 3:3.751012 
0.04125578410671904 1:17 2:7 3:29.902966 
0.04643438872114763 1:0 2:20 3:30.468394 
0.02474605176035449 1:8 2:3 3:24.428571 
0.0154612029179269 1:16 2:21 3:10.902098 
0.02675696566677374 1:14 2:42 3:14.450911 
1 1:0 2:1 3:0.490666 
0.03361104062750775 1:29 2:13 3:23.122778 
0.0364625356422813 1:21 2:4 3:22.966834 
0.04533543491284142 1:17 2:18 3:0.946322 
0.01347526706624094 1:6 2:18 3:5.839411 
0.04614982181323402 1:12 2:5 3:35.253834 
0.009183498852493144 1:18 2:14 3:11.624134 
0.03444874400908277 1:19 2:8 3:9.32172 
1 1:0 2:1 3:0.62577 
0.04622056411676412 1:10 2:30 3:94.172892 
0.0282342504407884 1:10 2:14 3:2.578609 
0.04622647652487766 1:14 2:66 3:9.865699 
0.02060098925920775 1:12 2:4 3:10.345937 
0.03968320994506777 1:18 2:49 3:44.426346 
0.01948281862346816 1:27 2:6 3:36.331688 
0.02973214416470166 1:3 2:22 3:6.834397 
0.03574253991429804 1:6 2:37 3:10.479857 
0.02703478624985303 1:19 2:13 3:14.314052 
1 1:0 2:1 3:0.426209 
0.03347120431102441 1:0 2:1 3:46.164465 
0.04622896998920367 1:1 2:22 3:45.155279 
0.02883033199848672 1:6 2:1 3:19.721501 
0.04641686310832399 1:21 2:50 3:15.299359 
0.04620878861030936 1:32 2:73 3:34.142857 
0.02704164763169118 1:25 2:2 3:33.996239 
0.04334896795556331 1:18 2:15 3:38.65 
0.04623529205148652 1:28 2:69 3:52.47619 
0.03499603522591103 1:10 2:12 3:5.912746 
1 1:0 2:1 3:0.627957 
0.03752469126935548 1:32 2:12 3:27.581092 
0.03003557271304502 1:17 2:5 3:2.210806 
0.01863551278391956 1:4 2:48 3:0.789427 
0.01120497346704542 1:12 2:3 3:7.789217 
0.0186805356682093 1:26 2:6 3:38.583009 
0.02836873657468817 1:5 2:18 3:2.890282 
0.01884767260187828 1:8 2:26 3:6.86197 
0.03800958495812135 1:28 2:8 3:43.060693 
0.02635608463602712 1:27 2:6 3:28.067273 
0.02015800974905423 1:3 2:2 3:20.057522 
1 1:0 2:1 3:0.729693 
1 1:0 2:4 3:1.057134 
0.03335546711039285 1:3 2:15 3:14.95 
0.02827481562045834 1:6 2:10 3:6.785643 
0.02647609407984014 1:17 2:12 3:7.390223 
0.0003669027542328967 1:17 2:6 3:3.940709 
1 1:0 2:13 3:1.140001 
0.03766589575697316 1:26 2:18 3:24.877326 
0.04322335677240258 1:28 2:13 3:20.290091 
0.04623517791566323 1:23 2:56 3:31.430142 
0.03399264127577241 1:23 2:1 3:32.809524 
0.03497546959457228 1:12 2:15 3:10.956071 
0.02622376087677747 1:27 2:7 3:32.532334 
0.04624044100594937 1:29 2:79 3:35.990778 
0.005421261386524391 1:13 2:5 3:1.826781 
0.03706043535632993 1:17 2:20 3:16.106609 
0.0125491425977203 1:12 2:1 3:6.021042 
0.02006293385718818 1:28 2:12 3:31.456785 
0.04514402989741784 1:22 2:21 3:25.637906 
0.03057176138734341 1:5 2:11 3:2.724741 
0.01938250195252223 1:23 2:7 3:25.730178 
0.03052206925055868 1:5 2:1 3:8.712853 
0.01504910348971938 1:26 2:12 3:31.310584 
0.02859219972910948 1:33 2:2 3:37.809524 
0.00552432946505502 1:14 2:18 3:6.499537 
0.02900024359559877 1:5 2:4 3:33.027768 
0.03777884081152666 1:31 2:10 3:25.469223 
0.008211138752686808 1:13 2:3 3:2.505076 
0.009840735732478286 1:12 2:4 3:4.812282 
0.04642885612219333 1:1 2:31 3:22.505493 
0.04627875894145261 1:1 2:1 3:63.324885 
0.01083804860032684 1:10 2:18 3:7.645079 
1 1:0 2:1 3:0.493299 
0.01009837359985268 1:2 2:2 3:7.718948 
0.009302075766482232 1:1 2:10 3:6.870092 
0.03255242942290094 1:15 2:12 3:20.645693 
0.01808973785047951 1:0 2:4 3:11.371949 
0.04624039867903479 1:41 2:94 3:1.785546 
0.01867655046543614 1:6 2:28 3:4.894894 
0.04634535912909354 1:8 2:356 3:5.059081 
0.04613466903678093 1:1 2:163 3:2.026377 
0.01251351353522143 1:9 2:22 3:3.635154 
0.03262797697718911 1:11 2:9 3:16.685136 
0.03002187475917006 1:32 2:11 3:39.809524 
0.01393316270862275 1:16 2:2 3:2.756093 
0.004049889479273572 1:13 2:26 3:10.065946 
0.0162259832419707 1:13 2:27 3:6.561714 
1 1:0 2:1 3:0.61736 
0.02196103232485058 1:22 2:14 3:25.370929 
0.01211364225325424 1:22 2:13 3:30.892578 
0.03738004137989899 1:22 2:10 3:37.641649 
0.03473173290637157 1:17 2:50 3:41.761905 
0.04644673426721091 1:20 2:38 3:12.964708 
0.02699298755496814 1:30 2:4 3:29.591598 
0.03952180071472416 1:16 2:44 3:19.382998 
0.04220578012548201 1:26 2:9 3:13.691492 
0.03327103752695341 1:28 2:11 3:40.969366 
0.02621721607225883 1:1 2:11 3:8.045478 
0.04633701799544725 1:7 2:6 3:44.077924 
0.04126925413293964 1:17 2:28 3:7.997952 
0.01764676926745382 1:17 2:25 3:9.663704 
0.02096015756796193 1:24 2:6 3:24.61374 
0.02498618014937708 1:14 2:18 3:4.726419 
0.04403559210804742 1:39 2:11 3:41.664895 
0.03693363067467037 1:23 2:10 3:16.613965 
0.04609567132219777 1:33 2:18 3:36.589015 
0.02264195151534404 1:14 2:3 3:11.50166 
0.02973194267430318 1:10 2:2 3:12.462467 
0.01297842385675843 1:18 2:5 3:5.377789 
0.02365901473322751 1:13 2:24 3:7.030771 
0.001804098201695878 1:0 2:1 3:7.764342 
0.0166160395068673 1:5 2:19 3:5.466027 
0.03601853010143985 1:0 2:4 3:34.98226 
0.01261078832821423 1:0 2:3 3:15.62254 
0.03851281415065513 1:17 2:14 3:4.789548 
1 1:0 2:4 3:0.473525 
0.03237577469218461 1:7 2:19 3:1.045093 
0.5469547388962716 1:0 2:17 3:1.906187 
0.01654005869507162 1:0 2:4 3:9.174424 
0.03918145520074073 1:30 2:8 3:48.2 
1 1:0 2:1 3:0.421042 
0.04620406809477079 1:5 2:18 3:53.141393 
0.0464841018951454 1:13 2:58 3:35.809524 
1 1:0 2:17 3:0.425321 
1 1:0 2:17 3:0.616135 
0.02720428093687827 1:18 2:6 3:38.428571 
0.0103404911812655 1:8 2:6 3:4.167796 
0.03414230257426019 1:12 2:5 3:25.381885 
0.03007916270912914 1:2 2:9 3:14.244774 
0.004106102310619149 1:17 2:3 3:6.662656 
0.02238808465107008 1:8 2:30 3:3.240717 
0.04207782758671891 1:18 2:5 3:32.258738 
0.004243635060716974 1:1 2:3 3:5.971872 
0.03035690222713627 1:12 2:18 3:3.168536 
0.04241987905394284 1:24 2:1 3:30.018323 
0.02600415483467866 1:5 2:2 3:10.919305 
0.0464005336917262 1:7 2:27 3:25.290999 
0.02969045902348142 1:9 2:10 3:1.717634 
0.02433804149825708 1:2 2:1 3:24.582339 
0.02234977744625461 1:6 2:2 3:20.812838 
0.006554638907436017 1:0 2:19 3:3.31517 
0.03907685917734333 1:15 2:27 3:1.738238 
1 1:0 2:1 3:0.549859 
0.04118237030282476 1:12 2:18 3:15.031628 
0.01791279843895451 1:3 2:1 3:5.143776 
0.002891780039908674 1:8 2:27 3:6.246294 
0.03410775788194659 1:2 2:26 3:7.084191 
0.03424966517928546 1:24 2:9 3:41.81844 
0.003789309097465998 1:7 2:19 3:3.527687 
0.04616712781934956 1:21 2:48 3:32.837573 
0.01088442810813112 1:0 2:20 3:5.905136 
1 1:0 2:1 3:0.583517 
0.001336747580602785 1:0 2:2 3:10.436237 
0.0370680944874021 1:0 2:7 3:20.223115 
0.01875247007348269 1:4 2:3 3:4.934673 
1 1:0 2:28 3:1.186334 
0.006382694394563413 1:0 2:1 3:25.418643 
0.02071427829739148 1:0 2:1 3:31.205715 
0.03632465280143421 1:0 2:1 3:108.54007 
0.009530938122077419 1:0 2:1 3:15.460495 
0.0443240158628056 1:3 2:13 3:36.871506 
0.0368788083284583 1:0 2:3 3:108.54007 
0.004825358299475431 1:0 2:6 3:7.754831 
0.001497773311388395 1:0 2:1 3:77.160421 
0.02616884697783984 1:0 2:2 3:77.160421 
0.01473623567355794 1:0 2:1 3:19.373269 
0.02511655775267741 1:0 2:2 3:98.374194 
0.0462299029012288 1:0 2:1 3:142.3635 
0.001176088139026977 1:0 2:1 3:19.01215 
0.03753858615327527 1:0 2:12 3:19.01215 
0.03303818604185133 1:0 2:12 3:5.118329 
0.04574564953104171 1:0 2:1 3:72.2648 
0.02857168193419378 1:0 2:3 3:48.361942 
0.02651270871832719 1:0 2:1 3:37.064459 
0.02021782050579908 1:1 2:4 3:22.783949 
1 1:0 2:1 3:0.655799 
0.08628703813401027 1:8 2:2 3:0.534415 
1 1:0 2:1 3:0.434599 
0.02585898569787287 1:0 2:7 3:10.457192 
0.006973332949460212 1:0 2:1 3:17.270431 
0.03954750010244762 1:15 2:3 3:39.394725 
0.012155227302079 1:1 2:5 3:23.753176 
1 1:0 2:1 3:0.649096 
0.02333348806594865 1:29 2:3 3:44.15 
0.03135304826000242 1:22 2:12 3:35.047619 
1 1:0 2:1 3:0.522076 
1 1:0 2:3 3:0.454212 
1 1:0 2:1 3:0.644217 
0.04096710288494532 1:14 2:51 3:42.75969 
1 1:0 2:4 3:0.73672 
0.01106407553586518 1:10 2:1 3:39 
0.0178204600121627 1:18 2:7 3:5.151198 
0.03578379367740078 1:36 2:5 3:37.80921 
0.03495110902229825 1:20 2:10 3:32.852485 
0.02307454767164249 1:13 2:16 3:7.950088 
0.03602124700097847 1:28 2:1 3:36.825777 
0.03093299138121741 1:28 2:14 3:30.774615 
0.0172584493665584 1:12 2:29 3:4.591153 
0.02135716879894262 1:24 2:13 3:28.82369 
0.04688360975841926 1:17 2:8 3:55.907854 
0.00460330421492053 1:15 2:5 3:5.757509 
0.03753668642143732 1:6 2:35 3:37.2 
0.04275421979434174 1:13 2:8 3:24.386176 
0.03835144921661227 1:24 2:12 3:26.218732 
0.02389663410349385 1:23 2:7 3:28.12089 
0.03757667441335732 1:1 2:18 3:9.872196 
0.03466565735505822 1:24 2:11 3:42.142857 
0.04378712215470332 1:5 2:11 3:17.720078 
0.04502977062398578 1:40 2:4 3:43.8147 
0.04601484421473601 1:23 2:47 3:48.97174 
0.02686487614712929 1:19 2:7 3:37.857143 
0.03031807692494074 1:27 2:3 3:45.428571 
0.01213693739797006 1:24 2:1 3:46.703872 
0.00742591811414273 1:11 2:5 3:4.595824 
0.04245731607184428 1:15 2:37 3:1.185576 
0.0213659198065032 1:14 2:7 3:2.872692 
1 1:0 2:1 3:0.411559 
0.01075594509381772 1:14 2:27 3:3.632829 
0.02937610105930183 1:31 2:16 3:42.247727 
1 1:0 2:3 3:0.501527 
0.02996778331097989 1:24 2:47 3:43.333333 
0.03681106298663156 1:28 2:35 3:45 
0.02776011223227153 1:33 2:5 3:34.770776 
0.04459179934571172 1:26 2:21 3:11.1118 
1 1:0 2:1 3:0.449315 
0.04631553416642864 1:32 2:10 3:3.812912 
0.01133421363134157 1:12 2:1 3:9.439875 
0.007963762412631137 1:15 2:23 3:7.503782 
0.02623907057823271 1:21 2:6 3:2.583441 
0.02071452448704587 1:29 2:1 3:43.227639 
0.04620770643646789 1:13 2:34 3:27.280115 
1 1:0 2:58 3:0.699012 
0.0462164264752557 1:54 2:50958 3:65.138727 
0.04602619351888448 1:1 2:3 3:180.05487 
0.0400701559154098 1:2 2:43 3:4.913387 
0.01379297016841619 1:18 2:23 3:12.507195 
0.04648563832390196 1:55 2:19 3:25.930088 
0.04649114332536408 1:29 2:125 3:43.234305 
0.04565245123510925 1:0 2:40 3:11.418379 
1 1:3 2:1 3:0.607371 
0.02565107563580252 1:0 2:9 3:9.038756 
0.02478009272217464 1:11 2:9 3:10.807755 
0.03589634789948953 1:35 2:10 3:46.48088 
0.03805024505342014 1:20 2:54 3:41.4 
0.0178724910881894 1:0 2:19 3:8.292631 
0.007376457484037868 1:3 2:23 3:6.342742 
0.006774782468171156 1:8 2:29 3:5.367108 
0.0366781944136283 1:26 2:9 3:35.697168 
0.02891918969961567 1:31 2:14 3:43.674563 
0.02092849041970277 1:0 2:3 3:22.019895 
0.02992002556279598 1:7 2:30 3:2.634184 
0.046320616694289 1:28 2:24 3:42.714286 
0.01935152375020951 1:8 2:4 3:5.818025 
0.0156185533855423 1:12 2:6 3:6.709812 
0.02996047546160536 1:16 2:23 3:6.141123 
0.03812537205618671 1:19 2:9 3:5.665321 
0.02783753690625351 1:14 2:22 3:8.647272 
0.03773619814876937 1:15 2:16 3:27.459678 
0.02791832178268394 1:12 2:18 3:10.019704 
0.03507760943166716 1:26 2:45 3:46.65 
0.04619774994940343 1:25 2:42 3:52.7 
0.03375983161717358 1:18 2:9 3:2.751585 
0.04066652162825002 1:29 2:2 3:47.2 
0.02811264153312093 1:16 2:1 3:38.730939 
0.04210065762687759 1:20 2:6 3:44.686299 
0.0341707114537893 1:3 2:1 3:12.503155 
0.04647621790801459 1:29 2:46 3:18.288793 
0.04605444781294893 1:0 2:53 3:22.850656 
0.009092285505705724 1:2 2:1 3:18.941137 
0.006006767510759702 1:0 2:3 3:8.337028 
0.02457559106399239 1:0 2:19 3:5.748343 
0.01730466159315591 1:16 2:21 3:6.714522 
0.01118805244394611 1:7 2:2 3:8.460095 
0.02863260161041629 1:22 2:28 3:9.749003 
0.0439927986494915 1:35 2:14 3:34.403975 
0.02468500859949592 1:30 2:5 3:36.227443 
0.001690236023453306 1:4 2:23 3:3.314285 
0.04648553144167866 1:40 2:45 3:10.708377 
0.0306213301420684 1:20 2:7 3:27.581475 
0.01669359839586707 1:30 2:10 3:40.841859 
0.003541617704844516 1:29 2:11 3:41.304499 
0.01404903474633395 1:25 2:9 3:27.425683 
0.04630633852148053 1:29 2:26 3:0.685877 
0.02925768015984509 1:29 2:7 3:19.457256 
0.007830210959739603 1:0 2:1 3:10.210604 
0.01766233095357562 1:0 2:1 3:13.844578 
0.001845596047029706 1:13 2:5 3:4.355651 
0.009049016822649391 1:5 2:2 3:5.57012 
0.01709542141177531 1:9 2:1 3:5.12868 
0.02988556889831414 1:13 2:14 3:2.828633 
0.03116697801365548 1:10 2:27 3:9.44869 
0.03494525111173052 1:3 2:2 3:30.993346 
0.01883519317487261 1:18 2:6 3:3.600598 
0.01667557462704877 1:9 2:6 3:1.165238 
0.02353797583995981 1:1 2:9 3:38.333333 
0.03198792607895964 1:1 2:6 3:17.152867 
0.04622239330478023 1:40 2:44 3:46.556432 
0.04432977252213172 1:28 2:17 3:42.065203 
0.01680698542718332 1:30 2:12 3:32.842015 
0.01332224185143643 1:23 2:6 3:30.7981 
0.046281843865628 1:12 2:53 3:20.647258 
0.04646773908586904 1:27 2:30 3:32.813482 
0.04390469244003314 1:5 2:2 3:35.002615 
0.01743987196551263 1:16 2:15 3:8.220936 
0.02060214889037966 1:11 2:14 3:5.806701 
0.02444125023123095 1:32 2:9 3:38.758131 
0.04253149335741768 1:17 2:50 3:38.493374 
0.02672058300297494 1:8 2:1 3:9.5308 
0.005841211189944158 1:0 2:4 3:12.31232 
0.04648404886206847 1:7 2:40 3:74.315919 
0.04632165038568803 1:1 2:97 3:4.901322 
0.0340937793437231 1:9 2:2 3:24.989966 
0.03005078379606482 1:5 2:1 3:29.411566 
0.03146290133637841 1:16 2:26 3:4.246446 
0.004725673439059767 1:1 2:1 3:5.453014 
0.04647993885691826 1:44 2:51 3:105.17818 
0.03588954438744268 1:17 2:7 3:1.14801 
0.04561372438741856 1:0 2:32 3:3.510512 
0.03502004360761107 1:15 2:50 3:40.356772 
0.02868951362706507 1:17 2:18 3:7.285689 
0.02225565360341708 1:17 2:1 3:5.968515 
0.04649723413982154 1:48 2:114 3:0.611692 
0.04621771204176137 1:21 2:20 3:47.047619 
0.03278910411927655 1:18 2:1 3:36.641086 
0.04600222433479475 1:33 2:17 3:32.506267 
0.04639374643282862 1:31 2:1 3:63.428571 
0.03286066850899318 1:34 2:14 3:37.150118 
0.04440980734705613 1:17 2:5 3:18.594648 
0.04613556182023631 1:1 2:30 3:37.142857 
0.002542048064766319 1:11 2:25 3:6.108093 
0.003097012568346466 1:10 2:22 3:7.70224 
1 1:0 2:5 3:0.669525 
0.01354569076608686 1:0 2:3 3:5.234942 
0.02182402397689458 1:0 2:1 3:26.975801 
0.02742637374863123 1:0 2:22 3:6.267865 
0.04551505580469406 1:31 2:25 3:38.983329 
0.01845985524378867 1:16 2:1 3:10.729111 
0.01843439598402082 1:0 2:3 3:13.459109 
0.02460819332112263 1:10 2:24 3:9.446444 
0.005851516530841086 1:15 2:14 3:8.616469 
0.0462271254047143 1:0 2:52 3:28.510392 
0.02445669193263998 1:18 2:16 3:11.264498 
1 1:1 2:1 3:0.485412 
0.0323094004850964 1:6 2:13 3:6.807906 
0.01566759476977569 1:8 2:5 3:3.060893 
0.02600264806496761 1:5 2:2 3:17.589699 
0.01498050428972003 1:5 2:5 3:2.843313 
0.004975274290462301 1:0 2:3 3:8.149262 
1 1:0 2:2 3:0.443017 
0.0118357750989076 1:6 2:4 3:4.78051 
0.03237696756939078 1:26 2:5 3:13.387764 
0.00805157749288482 1:18 2:10 3:15.685682 
0.03558670210262897 1:0 2:9 3:11.840753 
0.003684330656613378 1:0 2:1 3:7.882006 
0.01903474621345765 1:0 2:1 3:5.753548 
0.04632795252547102 1:16 2:30 3:31.952381 
1 1:0 2:2 3:0.691401 
0.04636964961103429 1:0 2:43 3:26.183351 
0.02201434009646293 1:0 2:2 3:48.490765 
0.02276058742586795 1:3 2:1 3:6.87909 
0.03035890318724388 1:0 2:4 3:67.139689 
0.01668014470532692 1:16 2:1 3:36.952381 
0.008122304612209471 1:10 2:15 3:3.782855 
0.04598900311092802 1:14 2:35 3:19.279294 
0.01922572734727002 1:30 2:10 3:27.71322 
0.02124476923285794 1:20 2:8 3:32.975811 
0.04549057145811763 1:12 2:31 3:0.773963 
0.02622551805050372 1:12 2:28 3:8.014469 
0.002941554798589864 1:10 2:6 3:3.189863 
0.0153447864739299 1:17 2:9 3:4.110035 
0.04401484670149769 1:6 2:33 3:10.350914 
0.03588584487392838 1:14 2:21 3:1.922529 
0.01474141260125619 1:10 2:18 3:4.155735 
0.03423057968068499 1:1 2:7 3:22.06843 
0.04645873137963615 1:7 2:16 3:21.495474 
0.01104816061385907 1:12 2:1 3:10.25007 
0.01484459409492911 1:12 2:19 3:7.370764 
0.01448862228853041 1:19 2:24 3:10.929205 
0.01622552945319559 1:10 2:23 3:3.744108 
0.03942954790880616 1:28 2:17 3:15.502982 
0.02756322176410009 1:12 2:8 3:18.313654 
0.03526704211000015 1:21 2:12 3:28.084352 
0.01338339719055611 1:12 2:11 3:3.814502 
0.02441169223343205 1:5 2:11 3:6.145104 
0.004633626079881294 1:7 2:20 3:6.167341 
0.04019299762464285 1:15 2:37 3:34.333333 
0.04622241493739754 1:8 2:40 3:42.203666 
0.03931491148442434 1:28 2:19 3:26.20708 
0.003868567525102362 1:31 2:10 3:29.376487 
0.04630050863958596 1:30 2:41 3:44.95 
0.008106157981562275 1:12 2:8 3:4.376598 
0.04474851156966397 1:23 2:37 3:31.273643 
0.04618313771043801 1:14 2:23 3:38.15 
0.01891198995523064 1:6 2:16 3:5.562212 
0.0431523839028537 1:24 2:15 3:21.205971 
0.03381376563263509 1:20 2:45 3:37.714286 
0.04130212505752845 1:19 2:6 3:42.213115 
0.006567940624092184 1:10 2:5 3:2.291285 
0.01919225686659525 1:15 2:8 3:10.228656 
0.04634514808114271 1:29 2:58 3:38.956059 
0.0074365283270535 1:0 2:4 3:7.352464 
0.04128607190217637 1:22 2:44 3:23.596052 
0.04614939663132461 1:11 2:30 3:28.77209 
0.009838561353261666 1:2 2:3 3:7.109935 
0.0437734995874659 1:4 2:5 3:19.415534 
1 1:0 2:4 3:0.475437 
0.0117903502425315 1:0 2:11 3:9.527408 
0.0404565795724437 1:0 2:16 3:7.163996 
0.02014374294340493 1:24 2:14 3:30.081615 
0.04533651471905026 1:13 2:13 3:45.375347 
0.02411568792201269 1:8 2:15 3:5.820824 
0.03595085981896218 1:20 2:1 3:14.840359 
0.03226772545677532 1:9 2:16 3:9.64669 
1 1:0 2:1 3:0.630997 
0.01032895965053965 1:8 2:2 3:6.610306 
0.04230658988295018 1:9 2:12 3:13.324439 
0.01056801533681959 1:1 2:26 3:4.43213 
0.04627746455869408 1:16 2:13 3:43.368101 
0.03332713833152745 1:13 2:30 3:13.73769 
0.04687103357392969 1:9 2:33 3:18.705002 
0.02835571449165175 1:13 2:25 3:10.163072 
0.0184807020446669 1:25 2:44 3:47.615263 
0.01527149645801095 1:2 2:25 3:5.272636 
0.04311759182744568 1:10 2:22 3:0.454093 
0.001367289649938042 1:14 2:4 3:9.626993 
0.03572097486187553 1:17 2:8 3:19.652215 
0.04635464111753052 1:23 2:30 3:28.463449 
0.03789590772461695 1:33 2:1 3:29.838491 
0.007924189746138174 1:10 2:6 3:4.849712 
0.04330750313791899 1:20 2:57 3:40.761905 
1 1:0 2:1 3:0.50443 
0.0299693383346965 1:8 2:7 3:1.143877 
0.01091208140322092 1:12 2:26 3:5.024656 
0.02451807070659362 1:37 2:10 3:46.57811 
0.02924507552396692 1:15 2:16 3:10.510266 
0.008336882775546239 1:15 2:7 3:4.019119 
0.0464195907657322 1:28 2:46 3:40.969366 
0.0409962842009144 1:33 2:8 3:43.149508 
0.0352054913195545 1:36 2:12 3:40.814895 
0.04610900624540742 1:37 2:16 3:52.012409 
0.03716970585060837 1:39 2:3 3:46.768552 
0.04665542238468756 1:21 2:38 3:17.511035 
0.00141918505407482 1:10 2:4 3:3.261007 
0.04483378293410795 1:11 2:21 3:16.547857 
0.04444093540717342 1:17 2:35 3:46.314141 
0.005596557660522772 1:27 2:7 3:36.070972 
0.02808828401523974 1:6 2:25 3:7.719407 
0.004749215950270093 1:8 2:21 3:4.336791 
0.04644623034690121 1:24 2:20 3:16.970045 
0.02087746199955894 1:13 2:29 3:4.686926 
0.004723013892880046 1:13 2:1 3:8.922009 
0.02697330131832543 1:28 2:4 3:33.076452 
0.04449398185513337 1:15 2:40 3:38.95 
0.02064113432566661 1:16 2:7 3:22.606954 
0.03554085206313734 1:19 2:4 3:37.384753 
0.04401070027820442 1:22 2:35 3:42.142857 
0.02278282576227914 1:17 2:3 3:37.333333 
0.02742187466926005 1:24 2:11 3:34.532902 
0.04618236284466548 1:23 2:26 3:33.455277 
0.03825934090926826 1:11 2:7 3:31.869547 
0.01513934465490476 1:4 2:15 3:4.746658 
0.03346882360695427 1:19 2:11 3:18.24388 
0.00856142997203946 1:18 2:3 3:8.486464 
0.03871816526801365 1:10 2:6 3:22.455525 
0.008702827868227632 1:10 2:8 3:4.774326 
0.03965762088152252 1:27 2:43 3:48.047619 
0.02328462102218293 1:28 2:5 3:31.581859 
0.03441684950547302 1:27 2:13 3:33.536631 
0.04114547837488958 1:23 2:7 3:13.560291 
0.01171250116677902 1:13 2:7 3:6.320675 
0.01321227985513773 1:5 2:24 3:5.96413 
0.01933998489542293 1:29 2:4 3:36.844879 
1 1:0 2:1 3:0.596087 
0.04400598838483027 1:12 2:12 3:27.548869 
0.02944267082921635 1:19 2:1 3:6.818018 
0.02961598252363462 1:16 2:11 3:9.373755 
0.02062545122162389 1:11 2:1 3:7.825757 
0.01036116069933833 1:11 2:25 3:5.297004 
0.02148282698158263 1:4 2:23 3:4.49519 
0.01868200203176259 1:11 2:17 3:10.68755 
0.0007748351307323807 1:9 2:22 3:7.112962 
0.0467376904122267 1:26 2:56 3:25.613798 
0.02098035504711759 1:14 2:1 3:6.898667 
0.009252668591423601 1:5 2:26 3:5.79255 
0.01225162622144813 1:6 2:26 3:3.768813 
0.01599079487924114 1:11 2:1 3:5.028539 
0.000988525397434048 1:12 2:2 3:9.840839 
0.007523503210328464 1:9 2:4 3:4.112414 
0.04576545379260464 1:8 2:28 3:29.406739 
0.03123102089640317 1:7 2:35 3:8.450772 
0.02624996307344845 1:22 2:8 3:26.527379 
0.0458919501257925 1:7 2:2 3:50.666667 
0.02533514081622725 1:14 2:2 3:2.014887 
0.01044780656055889 1:9 2:20 3:6.159123 
0.03562385179502815 1:7 2:18 3:11.108787 
0.000120534823271509 1:13 2:4 3:7.408886 
0.008381709939181947 1:26 2:6 3:24.251126 
0.0464724239829043 1:21 2:44 3:14.534756 
1 1:0 2:1 3:0.500736 
0.006838137165285271 1:11 2:23 3:6.409544 
0.02086493234826292 1:23 2:9 3:30.615688 
0.02048725680878266 1:10 2:7 3:24.843986 
0.04609353971646979 1:33 2:52 3:46.636758 
0.03507824484960831 1:28 2:18 3:30.051513 
0.04313980954932112 1:22 2:40 3:44.095238 
0.01205170952135962 1:8 2:24 3:3.916031 
0.03102014615517562 1:29 2:7 3:35.279314 
0.02798852651379025 1:16 2:20 3:5.388186 
1 1:0 2:1 3:0.437306 
0.00809513537026697 1:17 2:4 3:8.901535 
0.009380889813650218 1:7 2:1 3:9.702789 
0.03905618446702069 1:20 2:1 3:49.419157 
0.03154707896323877 1:29 2:18 3:37.715705 
0.03251499240663046 1:32 2:10 3:42 
0.02526281066395958 1:28 2:10 3:26.262371 
0.04155102785081503 1:13 2:7 3:20.67546 
0.03226904231675391 1:24 2:41 3:40.619048 
0.02867019085784811 1:32 2:12 3:36.374815 
0.03819221470515494 1:6 2:37 3:36.485649 
0.0444822246855831 1:16 2:55 3:46.208676 
0.01266926934465346 1:5 2:1 3:5.423085 
0.0369296962642927 1:19 2:20 3:15.065687 
0.01305893903027532 1:4 2:17 3:3.990804 
0.02380536225016877 1:10 2:16 3:7.830173 
1 1:1 2:27 3:1.097974 
0.01580877573927308 1:3 2:9 3:3.807303 
0.04036563729128995 1:30 2:8 3:50.590831 
0.039311004723497 1:12 2:37 3:33.238095 
0.004622450414889642 1:13 2:14 3:5.440805 
0.0193371474624751 1:28 2:9 3:39.714286 
0.04634662873381257 1:20 2:57 3:16.942507 
0.02326788069366568 1:14 2:5 3:10.517883 
0.02907958016030848 1:13 2:6 3:1.041755 
0.01325907098822943 1:37 2:7 3:42.315308 
0.006613332424627472 1:1 2:21 3:4.723527 
0.04635821183391226 1:12 2:21 3:21.455443 
0.04581174368829 1:10 2:36 3:36.336924 
0.04625119766070036 1:17 2:27 3:41.095238 
0.04590309893804575 1:18 2:17 3:42.091707 
0.02124631738607056 1:32 2:10 3:30.211304 
0.001495967249665853 1:7 2:17 3:5.507137 
0.007566555254978153 1:9 2:25 3:4.628229 
0.01955212566372321 1:23 2:2 3:42.190476 
1 1:0 2:1 3:0.662483 
0.04636891097921986 1:32 2:56 3:49.457962 
0.02389035795241901 1:27 2:10 3:32.462129 
0.02611972314685036 1:16 2:25 3:11.00967 
0.0257081537301891 1:24 2:10 3:28.439257 
0.0311160888427271 1:17 2:1 3:42.270577 
0.00445253817307118 1:13 2:6 3:4.142263 
0.02106129749640166 1:13 2:12 3:2.976359 
0.1533811277698638 1:1 2:23 3:2.634087 
0.001603641267869105 1:13 2:7 3:4.297291 
0.005976553831814662 1:0 2:1 3:13.372939 
1 1:0 2:11 3:0.994231 
1 1:0 2:11 3:0.433988 
1 1:0 2:12 3:0.994231 
0.0462398690969103 1:0 2:8 3:106.37977 
0.0237434228216486 1:0 2:1 3:44.189563 
0.03666622312661172 1:0 2:3 3:44.189563 
0.02624536462608656 1:0 2:6 3:12.40702 
0.04580192146904694 1:0 2:22 3:12.327884 
1 1:0 2:29 3:0.799638 
0.04382042682000797 1:0 2:18 3:25.429943 
0.031076722810299 1:0 2:6 3:24.793202 
0.01351631009867554 1:0 2:1 3:24.793202 
0.04376745761489281 1:0 2:14 3:12.40702 
0.04646169606235123 1:15 2:35 3:142.09274 
0.0136296974035141 1:0 2:5 3:5.101127 
1 1:0 2:1 3:0.648325 
0.03290026384720823 1:5 2:36 3:8.146448 
1 1:0 2:2 3:0.757853 
0.04524115143482937 1:12 2:1 3:17.094543 
0.02017613043040451 1:16 2:22 3:10.379672 
0.002598556070517012 1:12 2:7 3:5.541034 
0.02692537138495138 1:30 2:11 3:29.725064 
0.009753795198026822 1:15 2:8 3:6.129721 
0.006156969855759276 1:13 2:5 3:5.567637 
0.01994399274252581 1:17 2:4 3:13.53062 
0.0209942644718093 1:10 2:20 3:3.788438 
0.03206745513759823 1:12 2:12 3:10.232812 
0.04648698566152887 1:43 2:128 3:41.525563 
0.04602807357384765 1:10 2:14 3:43.428571 
0.03501581393332649 1:24 2:37 3:43.186479 
0.04131077077649374 1:24 2:43 3:24.702041 
1 1:1 2:6 3:0.785832 
0.02925647676566923 1:2 2:10 3:18.17847 
0.03573432303752616 1:1 2:5 3:27.351266 
0.04629943591747082 1:18 2:66 3:2.273377 
0.01706749954297538 1:7 2:1 3:5.054553 
0.0464658645901353 1:3 2:445 3:0.570929 
0.04644353375628812 1:61 2:184 3:1.275903 
0.03666260891469744 1:7 2:40 3:2.550318 
1 1:0 2:3 3:0.592882 
0.03025237962875683 1:2 2:8 3:38.164812 
0.0464880072631052 1:6 2:6 3:85.666529 
0.0129728109849356 1:14 2:5 3:2.94968 
0.04646630877235723 1:18 2:28 3:26.536202 
0.04621855522482748 1:17 2:6 3:73.784014 
0.0114885129898142 1:26 2:9 3:27.635241 
0.02070909899993907 1:17 2:16 3:8.66782 
0.04511730963798821 1:35 2:40 3:50.65 
0.0408510362614587 1:22 2:3 3:28.265654 
0.02285646609299021 1:27 2:8 3:11.315547 
0.01096381182232607 1:10 2:4 3:6.29839 
0.01989303846511201 1:26 2:6 3:31.535328 
0.04642869234638081 1:10 2:45 3:29.285714 
0.04625813385504929 1:33 2:28 3:31.543889 
0.003256346430579721 1:18 2:5 3:8.25808 
0.01343184033204923 1:32 2:14 3:41.938822 
1 1:0 2:1 3:0.663647 
0.03151191440182571 1:28 2:5 3:42.972009 
0.02356072643756897 1:17 2:13 3:9.479238 
0.03281801910271925 1:29 2:7 3:27.04879 
0.02665928197139768 1:3 2:6 3:4.488013 
0.03005705535813485 1:14 2:32 3:11.079209 
0.01247056375771517 1:5 2:26 3:4.478643 
0.006491309048352369 1:13 2:1 3:7.358018 
0.02208768998244937 1:16 2:1 3:7.537954 
0.03767865945577054 1:30 2:6 3:18.031325 
0.02469284882094937 1:5 2:8 3:4.579146 
0.006444997574461165 1:13 2:4 3:3.580427 
0.04377605734119605 1:20 2:15 3:33.618501 
0.01413662205463845 1:28 2:18 3:31.569454 
0.01900875853947593 1:26 2:4 3:43.595118 
0.04646256984486175 1:12 2:23 3:26.800384 
0.01602401103863 1:11 2:20 3:8.720907 
0.01473411896008124 1:14 2:17 3:7.588039 
0.04616322819090563 1:27 2:33 3:40.286461 
0.04620035055717303 1:31 2:34 3:36.687218 
0.04288949481360144 1:20 2:14 3:40.488397 
0.04592729290599551 1:24 2:17 3:32.945181 
0.02400825373675261 1:28 2:4 3:35.018941 
0.03990660688805953 1:8 2:3 3:31.914001 
0.04341525456557394 1:44 2:7 3:52.918073 
0.04243493803717596 1:19 2:26 3:7.113948 
0.02512508497609926 1:30 2:1 3:43.285714 
0.02020581527133266 1:11 2:11 3:8.770131 
0.01463427544682134 1:6 2:22 3:3.686953 
0.04648580263695756 1:23 2:4 3:87.987649 
0.0119797122114574 1:8 2:4 3:9.472724 
0.0428186646891579 1:30 2:6 3:45.172405 
0.029396211874688 1:18 2:1 3:10.782348 
0.01044587915929819 1:16 2:4 3:5.342815 
0.04465689960241691 1:42 2:10 3:40.95726 
0.01857093800625264 1:27 2:3 3:42.469491 
0.02026217325387859 1:11 2:1 3:11.284745 
0.02815990168350939 1:35 2:6 3:39.169274 
0.04487735472821897 1:4 2:16 3:11.170322 
0.03043083050328435 1:12 2:28 3:2.509064 
0.04645305054057106 1:29 2:50 3:43.25 
0.01496147879452297 1:0 2:5 3:6.248523 
0.01049740654554016 1:15 2:6 3:5.887874 
0.02535013588591745 1:9 2:28 3:5.582361 
0.04622044756031168 1:0 2:42 3:38.47619 
0.02012113399805042 1:25 2:7 3:35.683737 
0.03813622119426519 1:22 2:55 3:42.05 
0.01837622724420816 1:24 2:12 3:30.204475 
0.03448827881329356 1:25 2:40 3:34.122644 
0.02996770303597746 1:15 2:43 3:33.644141 
0.03098228170872758 1:0 2:5 3:14.511357 
0.03238332207145565 1:4 2:14 3:15.87386 
0.03232035316622273 1:23 2:15 3:24.977515 
0.04069651869523529 1:27 2:10 3:23.212774 
0.01846804237906316 1:11 2:4 3:2.529806 
0.01310198989382468 1:0 2:5 3:10.285455 
0.04624024032836965 1:47 2:121 3:5.598595 
0.007030618545382093 1:0 2:5 3:25.665091 
0.02420978097550381 1:0 2:64 3:1.474004 
0.02600736429921884 1:0 2:64 3:0.750246 
0.04637535390353492 1:0 2:110 3:6.287626 
0.04641334927130086 1:1 2:114 3:50.475452 
1 1:0 2:7 3:0.794574 
0.03067019896452344 1:1 2:9 3:5.879867 
0.03910473232406517 1:16 2:45 3:33.745405 
0.04109016233087762 1:27 2:37 3:53.52381 
0.01483154756483611 1:13 2:20 3:6.421111 
0.01746470072008718 1:16 2:18 3:13.090203 
0.03936021417630814 1:9 2:10 3:15.080313 
0.01423339875657065 1:15 2:3 3:7.9304 
0.009412430482905729 1:23 2:9 3:22.57625 
0.02774483668059749 1:25 2:1 3:45.869234 
0.04624230291167164 1:25 2:46 3:1.225093 
0.03582823613985414 1:18 2:10 3:12.27417 
0.03813212903898208 1:20 2:21 3:4.124662 
1 1:0 2:1 3:0.430645 
0.02251650003178435 1:16 2:6 3:11.621988 
0.01233880175021262 1:11 2:20 3:5.389035 
0.03527457827559809 1:35 2:6 3:41.464858 
0.04596614018181933 1:17 2:33 3:17.612106 
0.03922996248795177 1:31 2:6 3:39.419953 
0.008539667141887808 1:12 2:25 3:6.628024 
0.0462986484278291 1:35 2:4 3:58.666667 
1 1:0 2:1 3:0.481935 
0.01993511410353094 1:23 2:9 3:32.640903 
0.02389653875582346 1:19 2:7 3:12.50908 
0.0435789070627759 1:4 2:12 3:12.577599 
0.001949392135476752 1:9 2:3 3:4.308754 
0.02406862856367538 1:14 2:22 3:4.074789 
0.04370336952087861 1:14 2:42 3:37 
0.01325775403692658 1:18 2:4 3:6.935966 
0.02692825539465393 1:29 2:10 3:36.862083 
0.00231992503956764 1:10 2:15 3:5.278373 
0.02046995028378873 1:19 2:8 3:12.908365 
0.04551678658036884 1:43 2:12 3:46.511594 
0.04203140430801552 1:22 2:9 3:43.735893 
0.03650166480269816 1:20 2:3 3:19.316787 
0.04099023242107264 1:38 2:6 3:40.212509 
0.03736084813586267 1:12 2:4 3:27.208603 
0.03102250602770018 1:8 2:33 3:6.52598 
0.02835401986610292 1:37 2:7 3:43.191733 
0.02741355701777376 1:34 2:13 3:39.809466 
0.004913149105619385 1:14 2:3 3:6.945744 
0.04631078095412183 1:15 2:64 3:44.630935 
0.03208804383757946 1:37 2:9 3:44.741092 
0.03057454077834016 1:29 2:3 3:30.158715 
0.006390273113095484 1:5 2:5 3:4.699518 
0.04621217537737016 1:1 2:27 3:71.354396 
0.01817041630958369 1:14 2:1 3:9.800738 
1 1:0 2:1 3:0.602359 
0.002214953796359349 1:15 2:16 3:5.441453 
0.04204736812860534 1:21 2:16 3:30.679591 
0.04224474362028469 1:23 2:43 3:47.904762 
0.0377799051966427 1:8 2:2 3:21.710593 
0.02053057202119603 1:32 2:15 3:41.318499 
0.02122059969308737 1:15 2:9 3:5.011595 
0.04290749909173636 1:13 2:9 3:13.596594 
0.03947993814063501 1:17 2:16 3:28.549442 
0.04074572571486601 1:41 2:4 3:49.459646 
0.001795955286582374 1:8 2:4 3:3.87543 
0.007342270456673296 1:9 2:24 3:5.904682 
0.02241281519794628 1:26 2:7 3:23.708992 
0.01621936944565888 1:23 2:12 3:33.726026 
0.02165593387675746 1:13 2:32 3:5.847485 
0.04238754338546336 1:31 2:7 3:29.749989 
0.0176465333068241 1:3 2:26 3:4.604476 
0.0007891313377846332 1:11 2:3 3:7.163884 
0.03693532913011907 1:19 2:48 3:42.328632 
0.01570521056992795 1:9 2:3 3:8.999926 
0.04074142988387119 1:28 2:5 3:20.423771 
0.02318022509974029 1:24 2:6 3:30.497999 
0.01349208351790943 1:2 2:16 3:4.946688 
0.02468597857819094 1:14 2:16 3:3.667236 
0.0437341929656308 1:38 2:1 3:33.665804 
0.008912611342853689 1:12 2:27 3:4.627463 
0.01867823346440622 1:6 2:16 3:3.438469 
0.04576304591442092 1:16 2:35 3:37.75 
0.003573379985154788 1:7 2:10 3:3.626313 
0.006391721188586053 1:15 2:4 3:6.927277 
0.01648578782943111 1:18 2:24 3:10.27256 
0.04527702109051375 1:23 2:19 3:28.141615 
0.04640008505096591 1:36 2:8 3:23.730594 
0.03720834048937718 1:14 2:1 3:49.287084 
0.01036983148610926 1:21 2:3 3:10.253292 
0.01150245619480766 1:11 2:16 3:5.868119 
0.009661388388324366 1:15 2:1 3:9.810476 
0.03180553555147658 1:21 2:13 3:31.34594 
0.01036946433408619 1:35 2:13 3:40.70579 
0.03295283203449909 1:14 2:20 3:12.004367 
0.04469465102716713 1:22 2:42 3:36.52381 
0.04616764298234433 1:1 2:13 3:29.999114 
0.01139623565545898 1:21 2:8 3:17.327721 
1 1:0 2:6 3:0.621015 
0.04612422224357549 1:45 2:5 3:48.307904 
0.03059062497435022 1:19 2:40 3:43.328232 
0.01146046855550688 1:12 2:1 3:4.023059 
0.03713734910124113 1:22 2:7 3:9.371627 
0.02387405459612679 1:42 2:9 3:46.541595 
0.009797002795740811 1:3 2:15 3:4.455593 
0.04452454952609408 1:17 2:32 3:47.238095 
0.01511268040442327 1:10 2:6 3:6.471717 
0.008234836126955547 1:13 2:4 3:8.602354 
0.007532753823554451 1:17 2:6 3:9.037169 
0.01536832656132088 1:31 2:8 3:38.094607 
0.04619857770329054 1:31 2:9 3:7.984928 
0.03443028662414958 1:25 2:41 3:39.21416 
0.0435040563079529 1:16 2:39 3:3.452125 
0.02255221741715971 1:15 2:13 3:5.990544 
0.02858260223907589 1:16 2:11 3:5.716733 
0.02209247007509853 1:16 2:19 3:11.604526 
0.01210244034429921 1:9 2:13 3:7.810224 
1 1:0 2:1 3:0.638352 
0.02832970165610071 1:1 2:16 3:23.874608 
0.02052412773563181 1:24 2:9 3:21.254598 
0.02421133402235701 1:29 2:8 3:41.093359 
0.04233147773555805 1:21 2:18 3:24.036309 
0.01356447922294454 1:32 2:12 3:33.521266 
0.0408728335412941 1:30 2:15 3:45.517796 
0.03687575264946191 1:11 2:31 3:13.838483 
0.02446364534766964 1:9 2:23 3:7.380832 
0.04614550152958909 1:17 2:35 3:9.83183 
0.04623646957506583 1:36 2:78 3:26.627245 
0.04648699226046021 1:53 2:93 3:41.514908 
0.04624150638325614 1:15 2:47 3:14.124757 
0.1538149667036866 1:2 2:4 3:0.525389 
0.04694475286265071 1:17 2:1154 3:2.488036 
0.04340410783539189 1:24 2:26 3:9.134864 
0.01596430251125827 1:12 2:22 3:4.399593 
0.008104450781847926 1:7 2:3 3:4.558454 
0.03927574244946086 1:16 2:42 3:18.279629 
0.1831450066103978 1:8 2:1 3:1.744864 
0.006319998327398968 1:18 2:2 3:8.505955 
0.04217784747579945 1:6 2:11 3:10.458925 
0.01621349726027379 1:22 2:8 3:32.272605 
0.008191379737971448 1:12 2:31 3:7.229144 
0.04648028398546578 1:27 2:24 3:18.166017 
0.0455342068645892 1:8 2:13 3:27.8 
0.04348903602420512 1:12 2:23 3:13.397526 
0.04434006371895172 1:29 2:44 3:24.633429 
0.02492875123520696 1:27 2:6 3:38.951912 
0.02910314607907749 1:23 2:3 3:9.164607 
1 1:0 2:1 3:0.508064 
0.04353223826160435 1:42 2:5 3:53.374762 
0.0144225255894762 1:2 2:10 3:16.403609 
0.04360689302958748 1:15 2:1 3:32.5 
0.02671889884635595 1:13 2:32 3:12.692521 
1 1:0 2:3 3:0.686575 
0.04589141736423279 1:2 2:28 3:10.549817 
0.02992182647355832 1:16 2:11 3:15.406993 
0.0462237963451152 1:12 2:47 3:39.380952 
0.04374954704443217 1:29 2:3 3:49.916717 
0.03590076341140441 1:30 2:13 3:40.905871 
0.003445639787569491 1:8 2:24 3:5.026642 
0.002770506276584278 1:12 2:7 3:3.689798 
0.01733309469332873 1:17 2:5 3:13.278641 
0.01623565340224353 1:9 2:1 3:7.078829 
0.04127404807196156 1:24 2:12 3:18.969011 
0.04100717770566098 1:9 2:4 3:28.755155 
0.01770559494395291 1:20 2:7 3:34.289591 
0.03168921963293238 1:8 2:1 3:37.714286 
1 1:0 2:1 3:0.7185 
0.03664679780220237 1:12 2:1 3:13.87618 
0.002803129616737714 1:4 2:24 3:5.646678 
0.01966853508233376 1:8 2:26 3:4.793558 
0.01490776000987167 1:3 2:28 3:6.001687 
0.001914429290910138 1:12 2:3 3:5.45951 
0.02077796351016963 1:16 2:8 3:10.802882 
0.02582293312001854 1:15 2:19 3:7.865927 
0.02119100603552292 1:0 2:10 3:1.727292 
1 1:0 2:1 3:0.430161 
0.04569200581658567 1:36 2:7 3:32.108842 
0.02769537205076428 1:21 2:5 3:3.003239 
0.02063641588068802 1:7 2:4 3:9.717344 
0.04622895200148153 1:0 2:1 3:115.19406 
0.04619826116569092 1:0 2:21 3:35.051488 
0.04235770019250714 1:0 2:10 3:35.051488 
0.02290540616294337 1:0 2:1 3:23.079951 
0.04647697148145535 1:4 2:62 3:23.079951 
0.04646483767626963 1:0 2:1 3:127.29651 
0.00532578006323297 1:0 2:1 3:9.972123 
0.02396986179832621 1:0 2:7 3:7.221181 
1 1:0 2:2 3:0.54506 
0.03813355720575706 1:0 2:2 3:96.478766 
0.03391696312050729 1:0 2:15 3:23.079951 
0.04649471597071864 1:32 2:40 3:36.142427 
0.03869004227590506 1:18 2:7 3:26.472731 
0.04597544996523506 1:24 2:17 3:38.809524 
0.02418568942118364 1:15 2:40 3:32.6 
1 1:0 2:9 3:1.241546 
0.005821237397214926 1:17 2:5 3:6.535648 
0.01992880036437102 1:9 2:9 3:10.378578 
1 1:0 2:1 3:0.572699 
0.04640108104498103 1:21 2:14 3:59.95733 
0.01930626666192631 1:1 2:3 3:27.850765 
0.0403257887032919 1:16 2:1 3:46.465001 
0.04635605011649907 1:3 2:17 3:83.735984 
0.04459927802372333 1:22 2:2 3:38.664593 
0.04328302320146177 1:38 2:3 3:35.794732 
0.04050214121773504 1:17 2:1 3:14.722581 
0.5651793237516128 1:1 2:11 3:1.315397 
0.03656787154224583 1:26 2:37 3:43.985506 
0.04624945844887812 1:0 2:8 3:62.820381 
0.0463639951635258 1:26 2:45 3:33.394852 
0.0206690305906243 1:0 2:1 3:32.666667 
0.04251094202841943 1:17 2:36 3:3.140577 
0.002759262228536176 1:29 2:8 3:38.8 
0.03006755965117695 1:26 2:15 3:29.296243 
1 1:1 2:1 3:0.486235 
0.01170191127161557 1:11 2:28 3:7.281311 
0.0004428669780664673 1:16 2:2 3:8.67871 
0.04622856562673805 1:12 2:60 3:45 
0.02724049991932643 1:39 2:8 3:47.686334 
0.0402985605902747 1:1 2:14 3:9.69037 
0.003202630316308208 1:8 2:22 3:5.309995 
0.02259956019710868 1:15 2:17 3:13.323962 
0.02027502483608296 1:7 2:14 3:4.180158 
0.2457236214836446 1:0 2:52 3:2.224872 
0.03504041006939372 1:3 2:1 3:22.984716 
0.002577191046208406 1:1 2:1 3:30.417867 
0.006574983368309917 1:1 2:7 3:7.849323 
0.01243586329967278 1:4 2:1 3:11.14582 
0.03616507427574503 1:1 2:22 3:8.823278 
1 1:0 2:1 3:0.522775 
0.02975011125251511 1:0 2:1 3:34.586145 
0.01440549375329169 1:1 2:1 3:27.710816 
0.04479488066087778 1:18 2:9 3:40.453608 
0.04497706197754237 1:2 2:38 3:13.833459 
0.02391011700362821 1:20 2:44 3:38.75 
0.04629145923787742 1:9 2:43 3:24.686662 
0.2540052345256578 1:0 2:30 3:2.225165 
0.01234277454589954 1:10 2:3 3:4.622753 
0.01423606172943672 1:2 2:19 3:6.109025 
0.03011222555666645 1:20 2:2 3:8.343445 
0.01994643174816628 1:4 2:17 3:6.129822 
0.01089025001118354 1:24 2:6 3:36.151266 
0.03026700843980398 1:24 2:39 3:33.238095 
0.04649375016051999 1:26 2:22 3:54.398998 
0.02293476463675078 1:17 2:9 3:15.574228 
0.04213444336783723 1:7 2:6 3:28.022369 
0.04435957493785525 1:31 2:46 3:25.711668 
0.01437853947514023 1:1 2:23 3:5.856348 
1 1:0 2:2 3:0.475337 
0.01199359585198764 1:14 2:6 3:7.748486 
0.01529505855428059 1:26 2:9 3:32.285506 
0.04361353737561363 1:20 2:20 3:1.310862 
0.008162072762949977 1:7 2:29 3:5.509246 
0.04664340049303661 1:31 2:37 3:23.709271 
0.02892578676549874 1:42 2:8 3:46.031844 
0.01718489492600162 1:13 2:1 3:3.148928 
0.006755440077265249 1:13 2:5 3:7.751895 
0.02799889067221419 1:23 2:8 3:22.080422 
0.04641025430555767 1:21 2:36 3:37.047619 
0.03755219178053077 1:26 2:8 3:20.019344 
0.01323519746346534 1:12 2:10 3:3.497987 
0.01624350812250613 1:2 2:17 3:6.039212 
0.04621129815182418 1:13 2:15 3:30.339249 
0.02488206182655894 1:12 2:3 3:12.590488 
0.04469175093124844 1:14 2:16 3:24.214473 
0.04509680481480216 1:36 2:2 3:49.017522 
0.04607723704964722 1:14 2:31 3:42.436863 
0.02679317647038032 1:1 2:11 3:10.371573 
0.03136212795582137 1:12 2:9 3:7.690485 
0.03653856087383717 1:15 2:31 3:9.346216 
0.04607773453150593 1:26 2:36 3:34.984833 
1 1:0 2:1 3:0.411562 
0.03388857032578058 1:30 2:39 3:29.267171 
0.04439323533886713 1:24 2:14 3:40.9 
0.01930684955584637 1:4 2:2 3:17.122296 
0.0175709067674347 1:3 2:1 3:19.298758 
1 1:0 2:1 3:0.450569 
0.01872906435082321 1:0 2:1 3:8.314821 
0.0464854736016635 1:33 2:170 3:46.337701 
0.03471168377042446 1:12 2:20 3:1.212851 
0.04648404961059766 1:11 2:1 3:125.03037 
0.03501504017110415 1:14 2:37 3:31.952381 
0.007156449189924197 1:14 2:8 3:4.939578 
0.01864438024753914 1:26 2:10 3:26.886109 
1 1:1 2:1 3:0.456143 
0.03599531957580424 1:25 2:5 3:11.586804 
0.03492325701400741 1:29 2:16 3:25.479329 
0.0159731855753372 1:29 2:9 3:33.482499 
0.008627288958278074 1:10 2:24 3:4.38884 
0.04300466880047682 1:21 2:37 3:44.811727 
0.03230760883589471 1:8 2:8 3:9.694771 
0.0224403617328818 1:18 2:14 3:13.500377 
0.04444812891398409 1:4 2:44 3:36.8 
0.027428978450545 1:16 2:40 3:32.68491 
0.04664053009546598 1:25 2:280 3:1.882709 
1 1:1 2:21 3:1.005402 
0.002840373565584031 1:1 2:2 3:11.751455 
0.1659938204315801 1:2 2:8 3:0.884859 
0.04494684216912204 1:26 2:15 3:44.048292 
0.04441905481222983 1:16 2:4 3:47.972715 
0.005716752512687882 1:16 2:2 3:4.661816 
0.03672748999963944 1:33 2:3 3:29.131545 
0.04643867559725851 1:28 2:1 3:54.666667 
0.0462437540350667 1:44 2:107 3:91.832048 
0.001170247613330622 1:0 2:23 3:3.35294 
0.02736410927533246 1:24 2:1 3:41.855073 
0.01396591368189632 1:10 2:8 3:2.429649 
0.01383022378240487 1:11 2:22 3:5.987472 
1 1:0 2:1 3:0.570747 
0.03138262165742567 1:28 2:19 3:37.25 
0.02267831897602328 1:16 2:17 3:5.907537 
0.04360115065278486 1:34 2:28 3:39.930695 
0.04647386940476794 1:18 2:46 3:48.659494 
0.02856715074910482 1:15 2:27 3:6.006895 
0.0161599113747429 1:15 2:4 3:4.103013 
1 1:0 2:1 3:0.420425 
0.02848961461667004 1:22 2:9 3:34.680672 
0.02979818364778119 1:4 2:28 3:7.150461 
0.007215524266569928 1:8 2:19 3:2.791415 
0.02865368688212078 1:33 2:11 3:29.849904 
0.04623282331802964 1:33 2:7 3:66.92019 
0.03585357899444905 1:8 2:41 3:1.087555 
0.02697190029370122 1:17 2:10 3:19.804036 
0.03084549972719977 1:21 2:15 3:8.777941 
0.04425100414370353 1:4 2:41 3:36.295316 
0.04622446896639573 1:35 2:12 3:22.100483 
0.02231192569696066 1:13 2:14 3:6.229453 
0.02273068741566402 1:28 2:8 3:38.143199 
0.0170983028377191 1:9 2:26 3:8.56968 
0.004112295324156691 1:16 2:4 3:8.370117 
1 1:0 2:1 3:0.436762 
0.02792779647488847 1:19 2:4 3:12.127077 
0.0325985209774337 1:15 2:23 3:12.266763 
0.04264196505933193 1:10 2:10 3:28.26222 
0.02759742739342519 1:19 2:1 3:13.0626 
0.03646196236082239 1:7 2:30 3:7.217301 
0.00730028587428294 1:11 2:3 3:6.42359 
0.01733572922542331 1:21 2:5 3:11.010486 
0.03445189498616247 1:18 2:22 3:4.623554 
0.03243319347605644 1:19 2:39 3:42.1 
0.03405298685611252 1:23 2:11 3:23.002954 
0.04170843380298417 1:26 2:4 3:16.11931 
1 1:0 2:1 3:0.66092 
0.03524167988175109 1:29 2:17 3:32.245695 
1 1:0 2:1 3:0.486897 
0.03557990156507811 1:23 2:1 3:44.8 
0.0208539826792926 1:0 2:3 3:17.315783 
0.01264991760838269 1:29 2:9 3:26.271132 
0.0268050312787611 1:9 2:31 3:6.13564 
1 1:0 2:1 3:0.464255 
0.03445212450222176 1:24 2:5 3:37.343378 
0.008256639827460641 1:25 2:5 3:32.864249 
0.04585788392475038 1:32 2:23 3:36.142119 
0.02922940046824724 1:39 2:3 3:48.837123 
0.04426736014975269 1:6 2:13 3:37.55 
0.02486393712417895 1:8 2:13 3:8.210216 
0.01524948906445407 1:11 2:18 3:5.995844 
0.01316637728378853 1:5 2:25 3:7.349839 
0.0122515060561181 1:24 2:5 3:33.366627 
0.02848994420377003 1:26 2:6 3:25.623012 
0.02331173946718299 1:22 2:7 3:29.876639 
0.0449686591864592 1:13 2:47 3:9.30254 
0.007104109785978989 1:17 2:5 3:11.485132 
0.03501658736404649 1:28 2:15 3:27.058926 
0.04649088756960734 1:6 2:7 3:67.382479 
0.04608216253176528 1:0 2:1 3:91.461639 
1 1:0 2:1 3:0.538491 
0.04479660351803305 1:32 2:39 3:48.761905 
0.005047767753051167 1:10 2:2 3:7.673999 
0.02413654360460338 1:22 2:3 3:10.862259 
0.01841576776296923 1:17 2:17 3:10.686403 
0.01717359868762469 1:28 2:10 3:28.76148 
0.01619490771506507 1:8 2:20 3:3.210375 
0.04620555533438614 1:23 2:35 3:20.250433 
0.002762458645830925 1:15 2:6 3:8.596285 
0.0422121616257215 1:16 2:7 3:32.989069 
0.04624009891073677 1:13 2:50 3:27.627704 
0.01401608673890642 1:1 2:11 3:18.955713 
0.0248745222034118 1:25 2:9 3:30.684183 
0.04502166896364396 1:32 2:42 3:50.428571 
0.0192298240948446 1:8 2:18 3:5.020225 
0.04630283416408937 1:25 2:52 3:35.868783 
0.02022250321034323 1:3 2:19 3:5.261489 
0.04624095669199346 1:38 2:67 3:4.025703 
0.04621114163659226 1:1 2:31 3:14.065303 
0.04590887194136767 1:24 2:48 3:35.936365 
0.03927797375887687 1:18 2:28 3:36.192692 
0.01976880173087676 1:3 2:5 3:6.740679 
0.01626540409655813 1:15 2:1 3:48.25 
0.02256660875268501 1:12 2:10 3:11.327724 
0.03620351187802651 1:30 2:13 3:25.435431 
0.2818171954880381 1:0 2:45 3:2.331619 
0.01671353691338262 1:6 2:22 3:5.492036 
0.01022043451617637 1:16 2:5 3:9.759341 
0.02768331242132721 1:9 2:11 3:8.777777 
0.005411468712454754 1:13 2:16 3:5.155209 
1 1:0 2:1 3:0.612818 
0.0321585316058537 1:23 2:4 3:23.956961 
0.04630357551912535 1:10 2:12 3:19.533142 
0.03990468854818735 1:0 2:1 3:100.16583 
0.02789418724708642 1:19 2:14 3:11.00875 
0.03754238825586914 1:19 2:11 3:9.929854 
0.0464811344952622 1:83 2:240 3:5.246448 
0.01406077215211539 1:11 2:8 3:2.635184 
0.04421321994392791 1:1 2:45 3:6.982137 
0.04686195149219025 1:46 2:12 3:4.093734 
0.3318199196669746 1:3 2:1 3:0.772797 
0.04646801650269211 1:71 2:21 3:7.575637 
0.03973592422180477 1:2 2:40 3:4.11587 
1 1:0 2:8 3:1.286355 
0.03554819848713176 1:0 2:8 3:16.781008 
0.04610838852932142 1:1 2:14 3:93.59672 
0.04647419062774649 1:1 2:49 3:75.547491 
0.04326997522291093 1:2 2:3 3:55.856622 
0.04624692277438508 1:5 2:1 3:148.25824 
0.00381357749221627 1:1 2:1 3:9.588045 
0.02550928120316307 1:2 2:2 3:10.232436 
0.0357890725303993 1:23 2:8 3:37.956939 
0.1740803945893563 1:7 2:2 3:1.148585 
0.04624172266763632 1:29 2:15 3:4.581073 
0.01902779487969014 1:6 2:6 3:5.037969 
0.04647924878612936 1:1 2:385 3:18.519561 
0.04638349374958439 1:5 2:85 3:0.951788 
0.03762815247023421 1:10 2:7 3:17.95001 
0.04638707334625497 1:49 2:23 3:13.186487 
0.7153331119967022 1:1 2:50 3:1.378475 
0.02616100757261963 1:0 2:1 3:77.206476 
0.02449865080848734 1:1 2:3 3:19.683736 
0.04610248779701065 1:6 2:19 3:92.431572 
0.04376806466607963 1:0 2:1 3:68.611505 
0.04563927369559112 1:3 2:11 3:93.392595 
0.03518880417749398 1:5 2:6 3:32.238557 
0.0462229376531319 1:5 2:4 3:108.33928 
0.0325616553079926 1:33 2:3 3:39.814772 
0.04305210387207559 1:21 2:50 3:42.971183 
0.04291652660119805 1:37 2:9 3:49.493188 
0.04622055441135081 1:33 2:70 3:0.564102 
0.04604862835788692 1:26 2:46 3:28.878461 
1 1:0 2:2 3:0.474451 
0.02596712875485679 1:8 2:18 3:7.249513 
0.03942835688331263 1:17 2:30 3:36.6 
0.03801128756285155 1:14 2:10 3:19.68247 
0.04641255702462543 1:23 2:1 3:55.857143 
1 1:0 2:1 3:0.653477 
0.02754768693190783 1:14 2:43 3:14.327971 
0.04565596416583512 1:17 2:29 3:44.75 
0.01480767102337793 1:9 2:6 3:24.534077 
0.03376136431087118 1:31 2:40 3:30.235814 
0.03328638219257662 1:6 2:14 3:1.984924 
0.001438887086602206 1:0 2:1 3:9.588156 
0.02479590280489219 1:0 2:3 3:66.481763 
0.001304271987389129 1:0 2:2 3:10.348675 
0.01060338037179962 1:0 2:1 3:6.375621 
1 1:0 2:20 3:0.469446 
0.04127410974335941 1:21 2:42 3:39.901128 
0.02918261771278172 1:24 2:3 3:14.243918 
0.03492146004212719 1:4 2:24 3:1.615088 
0.04125191894992909 1:25 2:1 3:50.714286 
0.0146211797712136 1:17 2:3 3:9.776669 
0.02256977620309508 1:19 2:23 3:13.254198 
1 1:0 2:16 3:0.642448 
0.03546234214493214 1:22 2:13 3:20.3895 
0.02993108122733962 1:18 2:1 3:41.190476 
0.03732457096970282 1:32 2:9 3:36.018938 
0.02343669882081784 1:20 2:5 3:9.676475 
0.04629085664080596 1:4 2:1 3:71.295696 
0.01748426857560276 1:10 2:11 3:2.666438 
0.04594133156561582 1:13 2:36 3:40.013369 
0.03732051480056525 1:16 2:9 3:23.925548 
0.03928221444709284 1:4 2:38 3:11.212672 
0.02283704325910979 1:7 2:12 3:2.059242 
0.03303932102871037 1:0 2:8 3:36.671431 
0.04354184755480983 1:1 2:1 3:41.667349 
0.03519329079942718 1:5 2:4 3:8.973616 
0.01694831732346461 1:2 2:10 3:15.296273 
0.04335283408443127 1:2 2:3 3:58.664956 
0.04688438087521463 1:11 2:1 3:150.44094 
0.00638506807999979 1:14 2:5 3:8.768836 
0.04643961364242577 1:19 2:106 3:8.768836 
0.04641900608546107 1:14 2:1 3:68.532562 
0.02009235948213436 1:2 2:2 3:29.263477 
-0.1578457083892868 1:4 2:0 3:0.01129 
-1 1:0 2:1 3:0.411085 
-1 1:0 2:27 3:0.151308 
-1 1:0 2:95 3:0.115767 
-1 1:0 2:170 3:0.276684 
-1 1:0 2:4 3:0.38463 
-1 1:0 2:49 3:0.261703 
-0.05476056191308043 1:0 2:7 3:0.387318 
-1 1:0 2:147 3:0.111327 
-0.6825885525395849 1:0 2:10 3:0.347839 
-1 1:0 2:266 3:0.06409 
-0.8110350311745639 1:0 2:29 3:0.295059 
-1 1:0 2:1 3:0.410929 
-0.6622656189253825 1:0 2:3 3:0.379794 
-1 1:0 2:54 3:0.127216 
-1 1:0 2:21 3:0.112964 
-0.9049572622183343 1:6 2:0 3:0.133678 
-1 1:0 2:1 3:0.411216 
-1 1:0 2:1 3:0.410934 
-1 1:0 2:1 3:0.410879 
-0.6118697890681777 1:0 2:11 3:0.366876 
-1 1:0 2:1 3:0.411078 
-1 1:0 2:3 3:0.388253 
-0.7322013221754385 1:0 2:14 3:0.393046 
-1 1:0 2:40 3:0.216619 
-1 1:0 2:2 3:0.402785 
-1 1:0 2:1 3:0.411226 
-0.9191312175122115 1:0 2:12 3:0.389762 
-1 1:0 2:2 3:0.402652 
-1 1:4 2:0 3:0.364236 
-0.9268915283681178 1:0 2:30 3:0.136499 
-1 1:0 2:9 3:0.384601 
-1 1:0 2:1 3:0.411216 
-1 1:0 2:1 3:0.411161 
-1 1:0 2:14 3:0.397196 
-1 1:0 2:4 3:0.370892 
-0.5576903547659011 1:0 2:17 3:0.143767 
-1 1:0 2:4 3:0.403815 
-1 1:0 2:1 3:0.41088 
-1 1:0 2:3 3:0.393602 
-1 1:0 2:11 3:0.380938 
-1 1:0 2:1 3:0.410881 
-1 1:0 2:1 3:0.410929 
-1 1:0 2:24 3:0.266348 
-0.4742822783146416 1:0 2:33 3:0.297226 
-0.3305002899416384 1:0 2:24 3:0.224631 
-1 1:0 2:22 3:0.227231 
-1 1:0 2:914 3:0.05161 
-1 1:0 2:8 3:0.372817 
-1 1:0 2:2 3:0.403755 
-1 1:0 2:17 3:0.368199 
-0.9155913195584993 1:0 2:34 3:0.019695 
-1 1:0 2:13 3:0.408806 
-1 1:0 2:128 3:0.409373 
-0.02806613580802639 1:0 2:8 3:0.349067 
-0.4105696313444799 1:0 2:18 3:0.324131 
-1 1:0 2:1 3:0.411032 
-1 1:0 2:3 3:0.381478 
-1 1:0 2:7 3:0.389135 
-1 1:0 2:28 3:0.343908 
-1 1:0 2:757 3:0.167816 
-1 1:0 2:36 3:0.297503 
-0.2391408565422262 1:0 2:22 3:0.221619 
-1 1:0 2:5 3:0.380281 
-1 1:0 2:1 3:0.411115 
-1 1:0 2:16 3:0.289161 
-0.7356161923396167 1:0 2:4 3:0.355262 
-1 1:0 2:29 3:0.387546 
-1 1:0 2:1 3:0.41104 
-1 1:0 2:20 3:0.101488 
-1 1:0 2:1 3:0.410891 
-1 1:0 2:1 3:0.411081 
-1 1:0 2:6 3:0.404594 
-1 1:0 2:3 3:0.385337 
-1 1:0 2:77 3:0.138336 
-1 1:0 2:1 3:0.410868 
-1 1:0 2:1 3:0.41107 
-1 1:0 2:1 3:0.410972 
-1 1:7 2:0 3:0.045139 
-1 1:0 2:2 3:0.408419 
-1 1:1 2:0 3:0.410742 
-0.2719273925161284 1:3 2:0 3:0.380319 
-1 1:0 2:2 3:0.407618 
-1 1:0 2:1 3:0.411252 
-1 1:0 2:17 3:0.302663 
-0.9753266456396817 1:0 2:16 3:0.242378 
-1 1:0 2:1 3:0.410917 
-1 1:0 2:1 3:0.410955 
-1 1:0 2:19 3:0.383234 
-1 1:0 2:1 3:0.411237 
-1 1:0 2:1 3:0.411088 
-1 1:0 2:1 3:0.411148 
-0.6959069240498721 1:0 2:36 3:0.073476 
-1 1:0 2:86 3:0.355483 
-1 1:0 2:314 3:0.333971 
-0.03034477151786134 1:5 2:0 3:0.119724 
-1 1:0 2:2 3:0.408803 
-1 1:2 2:0 3:0.403939 
-1 1:0 2:2 3:0.405354 
-1 1:0 2:1 3:0.410911 
-1 1:0 2:1 3:0.410955 
-1 1:0 2:3 3:0.386804 
-1 1:0 2:1 3:0.410966 
-0.3006026836982135 1:2 2:0 3:0.401607 
-1 1:0 2:11 3:0.390006 
-1 1:0 2:1 3:0.411235 
-0.04132354729990748 1:0 2:1 3:0.410842 
-1 1:0 2:26 3:0.232218 
-0.9551881596372704 1:0 2:2 3:0.40238 
-1 1:0 2:12 3:0.397391 
-1 1:0 2:1 3:0.411235 
-1 1:0 2:58 3:0.392385 
-1 1:0 2:6 3:0.404287 
-1 1:0 2:6 3:0.386778 
-1 1:0 2:1 3:0.410934 
-1 1:0 2:1 3:0.411216 
-1 1:0 2:1 3:0.410888 
-1 1:0 2:1 3:0.411081 
-1 1:0 2:1 3:0.411215 
-1 1:0 2:1 3:0.411224 
-1 1:0 2:2 3:0.409952 
-1 1:0 2:1 3:0.41106 
-1 1:0 2:1 3:0.411151 
-1 1:0 2:1 3:0.411215 
-1 1:0 2:1 3:0.411246 
-1 1:0 2:1 3:0.410881 
-1 1:0 2:32 3:0.142724 
-1 1:2 2:0 3:0.408541 
-1 1:1 2:0 3:0.41034 
-1 1:0 2:1 3:0.41104 
-1 1:0 2:41 3:0.163506 
-1 1:0 2:1 3:0.411161 
-1 1:0 2:1 3:0.41106 
-1 1:0 2:1 3:0.411252 
-0.708892247748295 1:0 2:5 3:0.36988 
-0.114450456908434 1:0 2:28 3:0.064515 
-1 1:0 2:788 3:0.257843 
-1 1:0 2:1 3:0.411085 
-1 1:0 2:1 3:0.410928 
-1 1:0 2:1 3:0.411253 
-0.2191534548927158 1:0 2:15 3:0.344271 
-1 1:0 2:1 3:0.411252 
-1 1:0 2:1 3:0.410888 
-1 1:0 2:2 3:0.408014 
-1 1:0 2:6 3:0.406614 
-1 1:0 2:45 3:0.257854 
-1 1:0 2:6 3:0.391033 
-1 1:0 2:1 3:0.411037 
-1 1:0 2:1 3:0.411081 
-1 1:0 2:1 3:0.410929 
-0.451801106035785 1:4 2:0 3:0.269661 
-1 1:0 2:4 3:0.411226 
-1 1:0 2:1 3:0.411078 
-0.5743289785393494 1:0 2:9 3:0.33274 
-1 1:0 2:7 3:0.405353 
-0.3864639007194395 1:0 2:19 3:0.371796 
-1 1:0 2:51 3:0.38229 
-1 1:0 2:4 3:0.389354 
-1 1:0 2:6 3:0.381554 
-1 1:0 2:1 3:0.410872 
-0.3034448979656961 1:1 2:0 3:0.409367 
-1 1:0 2:1 3:0.410929 
-1 1:0 2:4 3:0.361291 
