svm_type c_svc
kernel_type rbf
gamma 0.333333
nr_class 2
total_sv 1561
rho -0.953357
label 1 -1
nr_sv 1399 162
SV
0.007031610114644695 1:2 2:1 3:5.010003 
0.02363127680199497 1:31 2:13 3:35.627711 
0.009628237532153534 1:1 2:1 3:15.72927 
0.03326021992219997 1:28 2:9 3:35.290066 
0.02731746526232925 1:8 2:32 3:7.97284 
0.0466957443838879 1:39 2:66 3:48.790735 
0.03030371202499992 1:11 2:33 3:5.278898 
0.03330841117991129 1:39 2:8 3:46.384132 
0.03828645798574007 1:20 2:4 3:34.292353 
0.01882782057168056 1:0 2:3 3:14.873934 
0.04635285950763235 1:27 2:9 3:50.865105 
0.01182782884489794 1:0 2:1 3:8.473155 
0.04643451997228693 1:27 2:10 3:2.808711 
1 1:0 2:1 3:0.580294 
0.02424158079887308 1:20 2:4 3:8.401152 
0.01063445711330147 1:16 2:5 3:6.141372 
0.04427218497131241 1:19 2:44 3:35.126705 
0.04505205037181037 1:19 2:14 3:17.43345 
0.01749427183416796 1:17 2:1 3:4.432446 
1 1:0 2:2 3:0.520456 
0.03695042978652205 1:17 2:21 3:13.381852 
1 1:0 2:13 3:0.458489 
1 1:0 2:5 3:1.096222 
0.02774483536522221 1:29 2:12 3:37.015746 
0.003530461011348018 1:25 2:2 3:30.694474 
0.04169525068023817 1:9 2:1 3:27.513766 
1 1:0 2:3 3:0.81932 
0.04115491727270709 1:3 2:7 3:15.818198 
0.02975266067555576 1:1 2:3 3:33.402655 
0.01037088777829975 1:14 2:1 3:3.347646 
0.04636627522183401 1:29 2:2 3:153.2792 
0.0456852186247686 1:10 2:4 3:50.387554 
1 1:1 2:14 3:1.01783 
0.02980295909251564 1:3 2:8 3:7.584309 
0.0466915072139108 1:1 2:171 3:7.584309 
0.0225299655529282 1:1 2:4 3:16.653968 
0.04698507782702066 1:1 2:363 3:5.046291 
0.04655820104329872 1:43 2:37 3:6.848044 
0.04668747514125776 1:51 2:590 3:0.656205 
0.04661402466787345 1:37 2:186 3:2.147301 
0.01665660094027194 1:15 2:1 3:2.342481 
0.02044456503130362 1:23 2:7 3:21.423022 
0.03205040699185736 1:19 2:9 3:16.002661 
0.01866767822005512 1:14 2:11 3:6.979899 
0.02125287186711172 1:18 2:3 3:4.719955 
0.02046449417148252 1:5 2:21 3:2.196619 
0.04525407038337137 1:6 2:8 3:12.552828 
1 1:0 2:1 3:0.45874 
0.02411227134482898 1:19 2:7 3:40.20277 
0.01470507185911071 1:12 2:6 3:6.051707 
0.02865946332245684 1:24 2:48 3:44.262456 
1 1:0 2:4 3:0.478288 
0.01361945341903107 1:2 2:1 3:10.706112 
0.01262950493481466 1:16 2:3 3:7.522465 
0.02702727664825984 1:25 2:13 3:32.114592 
0.03776273917006125 1:16 2:44 3:42.310254 
0.01570380724350099 1:4 2:19 3:2.470071 
0.04641444193914551 1:31 2:37 3:44.332143 
0.009630026851308537 1:9 2:8 3:4.040809 
0.04515646519451347 1:28 2:42 3:43.809524 
0.04617971328597337 1:27 2:50 3:28.516772 
0.03941555397659192 1:18 2:1 3:22.101536 
0.04663963564659485 1:22 2:31 3:38.52381 
1 1:0 2:1 3:0.725481 
0.001690866021439808 1:11 2:17 3:5.167436 
0.04209513196664999 1:35 2:3 3:28.797785 
0.04643887971073707 1:39 2:19 3:39.749179 
0.02589779637458612 1:20 2:5 3:36.501223 
1 1:0 2:1 3:0.450133 
0.03818823218243671 1:5 2:15 3:13.960712 
0.007923547013717119 1:8 2:18 3:9.81068 
0.03516122288201894 1:27 2:15 3:29.933271 
1 1:1 2:2 3:0.423262 
0.01538285847027177 1:2 2:29 3:3.829671 
0.01406891377949513 1:17 2:30 3:11.35928 
1 1:0 2:20 3:1.408268 
0.0109973653899762 1:2 2:5 3:6.894929 
1 1:0 2:1 3:0.487118 
0.02700075098032573 1:0 2:43 3:14.605387 
0.02746636996903551 1:0 2:15 3:5.520621 
0.03167567352870024 1:15 2:2 3:23.550874 
0.02495715206274741 1:14 2:8 3:2.930116 
0.04393451802427784 1:27 2:9 3:46.792651 
0.04637057462510258 1:27 2:26 3:20.26945 
0.014910993349853 1:10 2:5 3:1.421148 
0.006156616171089652 1:17 2:1 3:9.883686 
0.02471454086824019 1:26 2:8 3:22.168226 
0.04272107399123454 1:26 2:5 3:12.499729 
0.02644992048157154 1:7 2:18 3:8.841151 
0.04396813989487786 1:2 2:8 3:25.613803 
0.04590881947376657 1:20 2:23 3:11.386245 
0.03362497126822728 1:18 2:7 3:11.659925 
0.01965252225670083 1:10 2:7 3:5.168634 
0.008555210251388857 1:7 2:20 3:5.663578 
0.02135751563407182 1:10 2:5 3:6.831098 
0.01616060651129389 1:12 2:7 3:2.172261 
0.04643893920326915 1:22 2:1 3:49.65 
0.0160122943686474 1:9 2:17 3:4.467567 
0.04648150544951984 1:22 2:2 3:57.828329 
1 1:0 2:1 3:0.430807 
0.009400195508800942 1:16 2:3 3:3.789382 
1 1:0 2:1 3:0.567038 
0.02501853130873521 1:18 2:6 3:28.422144 
0.04354295749899417 1:17 2:38 3:36.238095 
0.04626161066034223 1:22 2:61 3:14.887379 
0.04302211756277582 1:13 2:50 3:7.577606 
0.03771878078738266 1:11 2:13 3:0.745606 
1 1:0 2:6 3:0.679348 
0.01643681652322248 1:7 2:11 3:2.297163 
0.00833082376583184 1:12 2:9 3:6.911889 
0.03851021107556082 1:0 2:20 3:9.08391 
0.008186467314990809 1:13 2:21 3:7.559538 
0.006124823075050891 1:13 2:3 3:5.680233 
0.02217764073955569 1:9 2:3 3:9.787287 
0.001145248661937266 1:9 2:21 3:3.436556 
0.03437567750132679 1:0 2:9 3:12.328095 
0.04652279744114662 1:0 2:54 3:45.429424 
0.04629474018410867 1:0 2:22 3:21.756964 
0.02189297333230915 1:29 2:10 3:38.059438 
0.01058038998113579 1:5 2:29 3:4.666817 
0.003982406440627104 1:9 2:7 3:2.724236 
0.01746245899650585 1:11 2:25 3:4.122801 
0.03294108817866587 1:11 2:1 3:39.082402 
0.02771173812160703 1:4 2:11 3:10.91509 
0.04622622882182315 1:7 2:42 3:9.75535 
0.02252105221869165 1:26 2:10 3:25.866908 
0.001275903012766579 1:12 2:3 3:7.402935 
0.03079726306343396 1:27 2:12 3:25.636368 
0.02384370645203949 1:30 2:13 3:33.715426 
0.04667300711528638 1:35 2:48 3:58.238095 
0.04655750760907429 1:21 2:79 3:28.388626 
0.004667801405264213 1:11 2:6 3:3.407017 
0.04667155728806993 1:19 2:48 3:21.654624 
0.01181590492846578 1:16 2:1 3:3.25574 
0.03109687447827552 1:25 2:5 3:38.972986 
0.002740545104619746 1:2 2:3 3:6.267877 
0.0386819421238021 1:31 2:4 3:41.963437 
1 1:0 2:13 3:0.48331 
0.04064145799012166 1:26 2:10 3:10.02256 
0.04665272144458066 1:30 2:41 3:22.361253 
0.03844629785902165 1:13 2:1 3:44.243446 
0.03806426924895751 1:14 2:18 3:13.978583 
0.0026476287678374 1:10 2:26 3:7.084158 
0.04179068583729623 1:18 2:2 3:32.11112 
0.02326188102081847 1:22 2:13 3:23.146477 
0.04642703353319227 1:30 2:50 3:59.022609 
1 1:0 2:1 3:0.478691 
0.04645404081601706 1:1 2:14 3:40.238095 
0.04632841194030052 1:36 2:14 3:26.139312 
0.03336656149665268 1:28 2:9 3:29.939843 
0.02265410704148686 1:16 2:2 3:34.904762 
0.01391360780190748 1:15 2:2 3:34.588169 
0.01384057419708138 1:5 2:21 3:3.756321 
0.04668553662183583 1:28 2:37 3:11.711131 
0.04660332807299877 1:31 2:8 3:59.857143 
0.02881094849887922 1:16 2:19 3:9.083925 
0.04433262618670913 1:22 2:39 3:24.735843 
1 1:0 2:2 3:0.632025 
0.02522673684424764 1:12 2:30 3:8.554588 
0.03310968083911896 1:18 2:11 3:29.649248 
0.04542686460362977 1:12 2:35 3:11.273804 
0.02629558688007583 1:1 2:2 3:37.184753 
0.04498791228479582 1:21 2:31 3:12.53306 
0.02936783978393956 1:18 2:17 3:8.164821 
0.008774351492426131 1:15 2:25 3:8.174083 
0.02535688206585551 1:5 2:7 3:2.468701 
0.03859012440378842 1:18 2:39 3:33.52381 
0.04655891802839385 1:12 2:21 3:86.4056 
0.03800662440198416 1:11 2:21 3:10.606096 
0.04113317488261226 1:18 2:13 3:32.380952 
0.01285040804862729 1:16 2:3 3:9.264214 
0.002529394497020353 1:13 2:15 3:9.180296 
0.03590553581495337 1:10 2:34 3:7.617049 
0.04542466509369636 1:26 2:4 3:21.524806 
0.0464731280184838 1:23 2:20 3:9.726326 
0.002361918237927169 1:13 2:6 3:4.823823 
0.02007598108907872 1:22 2:7 3:21.688094 
1 1:0 2:4 3:0.421242 
1 1:0 2:2 3:0.627087 
1 1:0 2:6 3:0.962944 
1 1:0 2:6 3:0.475061 
0.02144805430963383 1:7 2:9 3:2.615835 
0.02982178556842809 1:21 2:5 3:25.270385 
0.02129838557875169 1:11 2:2 3:2.508453 
0.008979608832929937 1:8 2:8 3:4.910266 
0.02987096501752948 1:17 2:10 3:17.734253 
1 1:0 2:6 3:0.939932 
0.04531824180771593 1:4 2:38 3:5.941224 
0.01625658374953055 1:23 2:5 3:8.285362 
0.01983265846363441 1:3 2:6 3:7.192276 
0.02276293183695405 1:23 2:4 3:13.501851 
0.04132847621848795 1:23 2:5 3:46.136059 
0.04638978198186641 1:3 2:8 3:29.307423 
0.0464921438297024 1:21 2:37 3:50.068868 
0.03411455969731209 1:20 2:11 3:48.67203 
0.01112962706373199 1:7 2:22 3:4.602486 
0.04635967917221588 1:21 2:34 3:15.453742 
0.02091578678543532 1:12 2:3 3:17.821517 
0.0450404242281105 1:35 2:6 3:47.713481 
1 1:1 2:1 3:0.494528 
0.0235166290076649 1:29 2:2 3:36.286184 
0.04474509205467975 1:13 2:44 3:34.1 
1 1:0 2:1 3:0.484345 
0.02700527626731203 1:39 2:10 3:46.78004 
0.02505841402699732 1:27 2:11 3:34.133106 
0.005167231994801421 1:14 2:21 3:7.858797 
0.04650460578963989 1:17 2:22 3:47.85 
0.04646028048781137 1:14 2:6 3:78.098822 
0.03269859703573288 1:24 2:3 3:11.970888 
0.01236877992572679 1:15 2:4 3:5.230269 
0.02840006060331546 1:16 2:3 3:12.083348 
1 1:0 2:1 3:0.569068 
0.03049720472650224 1:18 2:13 3:14.409495 
0.01542771824062503 1:3 2:1 3:5.243275 
0.04355957876723066 1:18 2:3 3:0.500595 
0.04102259506413325 1:32 2:1 3:40.96914 
0.03651541157875299 1:19 2:11 3:20.367195 
0.03312097389566043 1:16 2:6 3:24.586729 
0.001312853954170912 1:16 2:15 3:9.036023 
0.002117611231684413 1:15 2:2 3:6.772095 
0.0466258018146401 1:14 2:52 3:52.554125 
0.03436535906675421 1:32 2:3 3:36.668196 
0.02729960966078898 1:20 2:4 3:27.166969 
0.02201660262573824 1:10 2:10 3:6.82444 
0.02056936606209158 1:14 2:31 3:6.435759 
0.01489224358494429 1:12 2:24 3:7.633987 
0.032040837691262 1:25 2:1 3:32.857143 
0.006178574565111988 1:5 2:1 3:10.495411 
0.02768295373167925 1:18 2:11 3:6.971692 
0.0226807023963747 1:21 2:39 3:42.380952 
0.01284189851023881 1:12 2:21 3:8.122167 
0.02727862622779648 1:17 2:10 3:30.480641 
0.0239857881421176 1:24 2:11 3:10.417317 
0.01650411711270575 1:8 2:18 3:6.997558 
0.01139520148097095 1:17 2:7 3:8.576781 
0.04048178561956267 1:10 2:27 3:1.313229 
0.01996705279413336 1:21 2:7 3:17.783288 
0.03196416035173015 1:34 2:7 3:39.037194 
0.0425787622849923 1:19 2:16 3:24.413318 
0.0135445850391972 1:16 2:18 3:6.848513 
0.0233051098268625 1:14 2:14 3:9.334275 
0.01358670358579237 1:12 2:20 3:5.799533 
0.005320816631560241 1:14 2:10 3:7.612332 
0.0295514495198031 1:2 2:19 3:5.276443 
0.03371159196451216 1:34 2:14 3:34.228399 
0.02105558717640131 1:10 2:20 3:4.105971 
0.03446965487937792 1:7 2:5 3:32.521243 
0.03794710602802057 1:14 2:44 3:41.579476 
0.04280653118009842 1:19 2:47 3:31.247246 
1 1:4 2:1 3:0.573596 
0.04667663522547261 1:30 2:11 3:55.582324 
0.03960241839027269 1:0 2:40 3:5.221148 
0.02488693977847497 1:9 2:7 3:24.607209 
0.02043760936700626 1:4 2:5 3:5.816647 
0.04652835331321215 1:0 2:3 3:83.328946 
0.01793430551900347 1:0 2:5 3:8.069609 
1 1:1 2:1 3:0.460631 
0.04637868526265448 1:7 2:14 3:19.904762 
0.03523741830207185 1:10 2:31 3:3.958124 
0.02134624111008227 1:6 2:13 3:3.148532 
0.0252682241062625 1:22 2:5 3:42.622893 
0.02649256316463759 1:22 2:35 3:28.559836 
0.04640522304373207 1:36 2:12 3:52.428571 
0.04444945162930428 1:10 2:7 3:30 
0.04613237930049646 1:26 2:41 3:40.809524 
0.01761507051962935 1:5 2:8 3:3.689962 
1 1:0 2:1 3:0.604853 
0.01063031423431374 1:5 2:17 3:4.336926 
0.03839015721200456 1:27 2:16 3:17.25914 
0.02155150141108475 1:28 2:7 3:31.635215 
0.04512301058718854 1:30 2:17 3:18.529546 
0.01602476077429659 1:7 2:10 3:4.31821 
0.04487146301823908 1:28 2:31 3:22.78173 
0.04378651707924419 1:22 2:1 3:27.8 
0.006555194355963213 1:11 2:3 3:5.133182 
0.03824444283648595 1:30 2:18 3:27.088366 
0.0005888361084447611 1:10 2:4 3:3.700181 
0.04499768214408917 1:17 2:12 3:35.230707 
0.004700028071577562 1:8 2:3 3:5.312348 
0.04593262168287766 1:23 2:51 3:30.714286 
0.02602073945737714 1:17 2:7 3:29.902966 
0.04712455667005244 1:30 2:20 3:7.817519 
0.007841774131619258 1:14 2:1 3:7.296405 
0.04669082882050879 1:14 2:42 3:14.450911 
0.03502741604088146 1:17 2:31 3:12.280588 
1 1:0 2:1 3:0.490666 
0.04642299690037166 1:17 2:18 3:0.946322 
0.01204055071361454 1:6 2:18 3:5.839411 
0.03817536494047109 1:12 2:5 3:35.253834 
0.04428666295872413 1:12 2:9 3:36.904762 
0.03630976554880316 1:18 2:14 3:11.624134 
0.02223749936885749 1:19 2:8 3:9.32172 
1 1:0 2:1 3:0.62577 
1 1:0 2:1 3:0.463664 
0.01435259145799317 1:10 2:25 3:2.110344 
0.04644524467187272 1:10 2:30 3:94.172892 
0.02826868439047575 1:13 2:6 3:25.650926 
0.02018810092910418 1:13 2:4 3:2.416431 
0.04697956391298003 1:14 2:66 3:9.865699 
0.0368166707823502 1:18 2:49 3:44.426346 
0.02789788905943455 1:27 2:6 3:36.331688 
0.03601438682869394 1:3 2:22 3:6.834397 
1 1:0 2:1 3:0.426209 
0.6326751807939517 1:0 2:24 3:1.832536 
0.01648169326739363 1:0 2:1 3:42.628918 
0.01626234048598695 1:1 2:3 3:22.345455 
1 1:1 2:10 3:0.484857 
0.01359731245277319 1:1 2:3 3:14.115325 
0.02236776698779402 1:0 2:11 3:11.838501 
0.02637504068594326 1:6 2:1 3:19.721501 
0.04651758978313793 1:32 2:73 3:34.142857 
0.02147924633501434 1:25 2:2 3:33.996239 
0.02557415582365611 1:25 2:10 3:36.472558 
0.04669968438602407 1:28 2:69 3:52.47619 
0.01271550249029824 1:10 2:12 3:5.912746 
1 1:0 2:1 3:0.627957 
0.007702140583769087 1:5 2:26 3:5.389449 
0.01415463065911748 1:9 2:2 3:5.432485 
0.02712388643973018 1:17 2:5 3:2.210806 
0.01685603565264678 1:25 2:49 3:52.901626 
0.0008643383753607607 1:5 2:18 3:2.890282 
0.008680764946977951 1:7 2:15 3:1.743816 
0.03823428873005025 1:0 2:26 3:6.632547 
0.0388798748278304 1:28 2:8 3:43.060693 
0.04386146206294078 1:17 2:17 3:14.471315 
1 1:0 2:11 3:0.764226 
1 1:0 2:1 3:0.729693 
0.03712692819311311 1:0 2:15 3:10.725955 
0.0385005689851793 1:3 2:15 3:14.95 
0.01278429592171263 1:1 2:10 3:5.754157 
0.02141192116631224 1:9 2:29 3:6.32233 
0.0219209125180307 1:17 2:12 3:7.390223 
0.006885360584670783 1:17 2:6 3:3.940709 
1 1:0 2:13 3:1.140001 
0.03786444572909109 1:26 2:18 3:24.877326 
0.04225871800685527 1:12 2:6 3:15.098025 
0.04385456830918139 1:28 2:13 3:20.290091 
0.0466852815997984 1:23 2:56 3:31.430142 
0.0348066785365605 1:12 2:15 3:10.956071 
0.04652319852202375 1:26 2:60 3:33.76619 
0.04616723930689803 1:11 2:23 3:24.714286 
0.04668964736063035 1:29 2:79 3:35.990778 
0.02709884914306171 1:8 2:12 3:11.490026 
0.0465452172939238 1:0 2:1 3:115.81881 
0.04217440563673441 1:17 2:20 3:16.106609 
0.01894808706946693 1:15 2:29 3:12.619495 
0.01223117078929328 1:21 2:11 3:34.029312 
0.1787712564147421 1:0 2:36 3:2.97484 
0.04537785691945972 1:22 2:21 3:25.637906 
0.02417868111513277 1:5 2:1 3:8.712853 
0.01059428942149517 1:14 2:3 3:8.712853 
0.006009820747215401 1:14 2:6 3:8.106473 
0.0133267602876554 1:26 2:12 3:31.310584 
0.03432895263762668 1:33 2:2 3:37.809524 
0.03961388708200331 1:16 2:11 3:12.256201 
0.032881770099041 1:5 2:4 3:33.027768 
0.005437897504376018 1:12 2:4 3:4.812282 
0.0177226988930292 1:1 2:10 3:6.870092 
0.04417359222282712 1:15 2:12 3:20.645693 
0.009623408058706078 1:6 2:22 3:2.83064 
0.02685473905962373 1:7 2:25 3:3.628191 
0.009713506524799798 1:12 2:11 3:7.970104 
0.01482583828244214 1:19 2:6 3:7.962454 
0.03755681768376912 1:17 2:28 3:11.800671 
0.04366396041686754 1:0 2:5 3:69.980861 
0.04657348614235785 1:41 2:94 3:1.785546 
0.02541939211291568 1:6 2:28 3:4.894894 
0.00558822297698152 1:3 2:3 3:4.205931 
0.04670926764938865 1:8 2:356 3:5.059081 
0.02493164597505914 1:22 2:8 3:32.486383 
0.02660852488823517 1:6 2:14 3:5.115276 
0.0302969011231962 1:11 2:9 3:16.685136 
0.03859806472539187 1:32 2:11 3:39.809524 
0.007094257506936874 1:16 2:2 3:2.756093 
0.02466203117168297 1:13 2:26 3:10.065946 
0.008649276657070307 1:13 2:27 3:6.561714 
0.04101306871193194 1:9 2:33 3:10.637787 
1 1:0 2:1 3:0.61736 
0.02613098553449915 1:22 2:14 3:25.370929 
0.02038291114045419 1:22 2:13 3:30.892578 
0.04653697674083535 1:33 2:11 3:19.115745 
0.01945527155510007 1:2 2:14 3:6.134426 
0.01966329801387257 1:24 2:12 3:25.207019 
0.02700655841488083 1:17 2:24 3:9.949947 
0.04646954066420471 1:17 2:54 3:33.904762 
0.03403963339540058 1:33 2:9 3:34.636096 
0.02565223350063361 1:28 2:11 3:40.969366 
0.02159639022212373 1:14 2:17 3:7.290891 
1 1:0 2:1 3:0.696265 
0.03019249509544587 1:24 2:6 3:24.61374 
0.0148807569995413 1:15 2:4 3:2.658025 
0.01103656722891266 1:7 2:21 3:2.150174 
0.04528119428557748 1:39 2:11 3:41.664895 
0.04356465896560591 1:23 2:10 3:16.613965 
0.04601204584718532 1:33 2:18 3:36.589015 
0.01749421606883079 1:14 2:3 3:11.50166 
0.03244024471183084 1:10 2:2 3:12.462467 
0.04588831074843874 1:22 2:51 3:52.095238 
0.01816575847515096 1:18 2:5 3:5.377789 
0.005015612901804584 1:0 2:1 3:7.764342 
0.03818531093956185 1:0 2:4 3:34.98226 
0.02953216101289385 1:17 2:14 3:4.789548 
0.04646120612575935 1:0 2:38 3:18.400898 
0.649886379662718 1:0 2:17 3:1.906187 
0.009070962239324069 1:0 2:4 3:9.174424 
0.0421500157965175 1:30 2:8 3:48.2 
0.04282813617932918 1:21 2:1 3:41.571429 
0.01203919029900003 1:8 2:22 3:7.52115 
1 1:0 2:17 3:0.425321 
0.006494044203119738 1:0 2:17 3:6.903528 
0.008517509685081661 1:8 2:6 3:4.167796 
0.0006785771918394429 1:8 2:4 3:8.972489 
0.01105227156550276 1:12 2:5 3:25.381885 
0.001375388547766419 1:0 2:2 3:5.844237 
1 1:0 2:25 3:1.111539 
0.01388710100667097 1:8 2:30 3:3.240717 
0.0345599758363975 1:18 2:5 3:32.258738 
0.02400795694425728 1:12 2:18 3:3.168536 
0.02969229495653372 1:24 2:1 3:30.018323 
0.04653153400254262 1:24 2:42 3:8.395394 
0.04650825027322936 1:1 2:16 3:46.723862 
0.02294555339849219 1:5 2:2 3:10.919305 
0.03308567677064779 1:9 2:10 3:1.717634 
0.03143541311569754 1:2 2:1 3:24.582339 
0.004583071587931867 1:0 2:2 3:20.963441 
0.03858881397641512 1:8 2:33 3:16.799905 
0.02098901709371177 1:5 2:24 3:3.832949 
0.003405527288896686 1:14 2:1 3:7.601509 
0.03324327356032686 1:6 2:2 3:20.812838 
1 1:0 2:1 3:0.549859 
0.004941252117991575 1:7 2:19 3:3.527687 
0.04289797232354103 1:21 2:48 3:32.837573 
0.04704262499377998 1:11 2:37 3:26.868352 
1 1:0 2:1 3:0.583517 
1 1:0 2:1 3:0.583517 
0.02848528821020262 1:0 2:7 3:10.436237 
0.01566554451350999 1:11 2:3 3:7.530483 
0.01996682918570097 1:4 2:3 3:4.934673 
0.04366107222692054 1:0 2:8 3:1.563387 
0.02560527646825522 1:0 2:1 3:16.395609 
0.01722880995372226 1:0 2:1 3:31.205715 
0.03703610838602413 1:0 2:1 3:108.54007 
0.03339500815402239 1:0 2:10 3:15.460495 
0.001068506518701551 1:0 2:1 3:15.460495 
0.03665674082463059 1:0 2:3 3:108.54007 
0.02524208439169874 1:0 2:1 3:36.949266 
0.04706568374289632 1:4 2:131 3:36.949266 
0.04662151733077274 1:0 2:2 3:77.160421 
0.005511489550385007 1:0 2:1 3:11.190415 
0.04661302353421415 1:0 2:14 3:98.374194 
0.04638170438925948 1:0 2:1 3:142.3635 
0.005962869855776969 1:0 2:2 3:10.575653 
0.04281483143174863 1:0 2:12 3:19.01215 
0.005789971840436527 1:0 2:1 3:37.529505 
0.01129478213129548 1:0 2:12 3:5.168381 
0.02763870823105814 1:0 2:3 3:48.361942 
0.04055213155391801 1:0 2:1 3:137.87707 
0.03690400460212871 1:0 2:9 3:19.835793 
0.01565984037988135 1:12 2:4 3:8.946261 
0.05962648742905154 1:2 2:16 3:1.55633 
1 1:0 2:1 3:0.434599 
1 1:0 2:1 3:0.596446 
0.03628789080012107 1:17 2:8 3:0.583347 
1 1:0 2:1 3:0.72652 
0.0317119747024716 1:0 2:13 3:13.331688 
0.04271946908550517 1:15 2:3 3:39.394725 
1 1:0 2:3 3:0.838462 
0.04189737685055614 1:8 2:7 3:16.273104 
0.02251759272716197 1:1 2:5 3:23.753176 
0.02550742072696577 1:29 2:3 3:44.15 
0.04471519604728302 1:33 2:55 3:45.940844 
0.02575853909279597 1:22 2:12 3:35.047619 
0.03521212818248176 1:21 2:8 3:29.621648 
0.3755336985665846 1:1 2:10 3:0.971579 
1 1:0 2:3 3:0.454212 
1 1:0 2:2 3:0.569393 
0.01978177976696316 1:3 2:15 3:6.081393 
1 1:0 2:3 3:0.805721 
0.02607365898509517 1:18 2:7 3:5.151198 
0.04402001308266446 1:22 2:36 3:24.898785 
0.0406698203670784 1:36 2:5 3:37.80921 
0.03399042873901581 1:28 2:1 3:36.825777 
0.02072583017309865 1:28 2:14 3:30.774615 
0.03634487755570402 1:21 2:9 3:9.841868 
1 1:0 2:1 3:0.48528 
0.04328305415043809 1:22 2:43 3:54.142857 
0.03889800837052815 1:13 2:8 3:24.386176 
0.03463831564680148 1:15 2:28 3:6.490084 
0.04685650064145502 1:48 2:47 3:63.113891 
0.02422491362534637 1:23 2:7 3:28.12089 
0.03626219366236896 1:1 2:18 3:9.872196 
0.03695606816722863 1:34 2:3 3:31.118714 
1 1:0 2:1 3:0.514089 
0.04384400214051165 1:23 2:47 3:48.97174 
0.03459541572387298 1:19 2:7 3:37.857143 
0.0123588848793085 1:28 2:12 3:31.700875 
0.03721577082685592 1:27 2:3 3:45.428571 
0.02324492786237939 1:31 2:8 3:29.628489 
0.04619377842405897 1:33 2:31 3:42.54695 
0.04506742462699953 1:15 2:37 3:1.185576 
0.007501691349076759 1:14 2:7 3:2.872692 
1 1:0 2:1 3:0.411559 
0.002466891334965898 1:10 2:4 3:6.123219 
0.008382881373883155 1:16 2:6 3:7.530035 
1 1:0 2:3 3:0.501527 
0.03759676191875649 1:24 2:6 3:43.932674 
0.02992299562210947 1:24 2:47 3:43.333333 
0.01490374295603381 1:12 2:17 3:7.611652 
0.04535092092157983 1:17 2:13 3:23.946988 
0.03816725401488513 1:22 2:14 3:11.512839 
0.03647407770187788 1:13 2:7 3:35.026472 
0.03799744287930128 1:6 2:24 3:13.255906 
0.008918319666312959 1:12 2:25 3:7.955427 
0.0325527390949211 1:21 2:6 3:2.583441 
0.03292447525213418 1:29 2:2 3:41.645604 
0.04666118284096538 1:0 2:58 3:0.699012 
0.04651204068266973 1:1 2:3 3:180.05487 
0.184287134081594 1:2 2:37 3:2.04605 
0.04264865666229822 1:2 2:43 3:4.913387 
0.0464883894607937 1:29 2:125 3:43.234305 
0.02119934026344916 1:0 2:9 3:9.038756 
0.01875103810698929 1:13 2:2 3:18.718004 
0.0084931014771716 1:0 2:5 3:5.123021 
0.04485804803240179 1:27 2:32 3:46.666667 
0.0151933351261257 1:8 2:29 3:5.367108 
0.02937249444530049 1:31 2:14 3:43.674563 
0.04621850408225242 1:26 2:13 3:6.69227 
0.01195959834438683 1:0 2:3 3:22.019895 
0.0323722487166529 1:7 2:30 3:2.634184 
0.02423864446736921 1:22 2:35 3:29.363998 
0.04667197389422795 1:28 2:24 3:42.714286 
0.0451030665057619 1:0 2:19 3:14.280904 
0.0112973569819399 1:0 2:32 3:5.426305 
0.02011107073651913 1:14 2:22 3:8.647272 
0.04535862765235431 1:15 2:16 3:27.459678 
0.02559523717780859 1:12 2:18 3:10.019704 
0.04543121204876568 1:13 2:20 3:0.65898 
0.04567241871363215 1:25 2:42 3:52.7 
0.03774447273037224 1:4 2:24 3:12.575401 
0.03528088266355089 1:29 2:2 3:47.2 
0.04456389749851379 1:20 2:6 3:44.686299 
0.01747158351727908 1:3 2:1 3:12.503155 
0.04642708909875337 1:29 2:46 3:18.288793 
0.04675710260671495 1:25 2:42 3:1.047359 
0.01927002860332737 1:8 2:4 3:7.395375 
0.03307103843514336 1:28 2:29 3:32.019925 
0.03069280114764283 1:0 2:3 3:28.465096 
0.01060407203346707 1:0 2:3 3:8.337028 
0.01400725053306373 1:0 2:3 3:23.430203 
0.03009412137971942 1:0 2:19 3:5.748343 
0.02295711043962493 1:10 2:22 3:3.687997 
0.01438444221524288 1:25 2:2 3:29.223148 
0.001664567354985418 1:11 2:4 3:3.946828 
0.02276824034669883 1:11 2:13 3:5.286855 
0.02802666031230876 1:14 2:51 3:36.127916 
0.0399476515255332 1:13 2:1 3:22.584435 
0.02182691133958563 1:30 2:10 3:40.841859 
0.01254217758374345 1:13 2:16 3:5.642641 
0.000523079148123329 1:29 2:11 3:41.304499 
0.01898159318693394 1:15 2:9 3:8.877836 
0.02254489335371758 1:25 2:9 3:27.425683 
0.005750484844717092 1:17 2:8 3:10.303462 
0.03588095109458794 1:29 2:7 3:19.457256 
0.01550503724645724 1:20 2:5 3:27.482266 
0.03264250393175608 1:23 2:4 3:41.879137 
0.04314887839270759 1:16 2:48 3:48.422274 
0.0169225399619869 1:0 2:1 3:10.210604 
0.01560723943974822 1:0 2:1 3:13.844578 
0.04627883486375761 1:15 2:49 3:21.736365 
0.04650211657337747 1:24 2:16 3:37.298307 
0.03731777850041185 1:14 2:28 3:13.76535 
0.009896101761992404 1:7 2:26 3:6.060009 
0.03829817441556769 1:3 2:2 3:30.993346 
0.0416242327739495 1:32 2:13 3:27.96981 
0.007898696458952071 1:25 2:8 3:28.792565 
0.02242151371909963 1:9 2:6 3:1.165238 
0.04655113939186228 1:14 2:25 3:22.618399 
0.002149910021734425 1:15 2:2 3:9.396404 
0.04570224586691929 1:1 2:9 3:38.333333 
0.03036322142975939 1:1 2:6 3:17.152867 
0.03793403988573046 1:40 2:5 3:51.828614 
0.009770529055826382 1:2 2:26 3:6.497686 
0.04651516048977572 1:40 2:44 3:46.556432 
0.0007167630316460632 1:14 2:17 3:4.951269 
0.03208015171400136 1:27 2:30 3:32.813482 
1 1:0 2:1 3:0.4225 
0.02660956295625008 1:16 2:15 3:8.220936 
0.006821843187360749 1:11 2:14 3:5.806701 
0.03947850372302773 1:24 2:9 3:39.809524 
0.03676738263391385 1:15 2:22 3:14.625736 
0.04483808578534343 1:2 2:13 3:34.521106 
0.03486730909005874 1:19 2:3 3:22.479902 
0.02994986499402141 1:38 2:5 3:47.607016 
0.004791938423765068 1:7 2:24 3:4.446212 
0.04610763603014628 1:17 2:50 3:38.493374 
0.01045729320582334 1:8 2:1 3:9.5308 
0.04418659929468288 1:0 2:9 3:66.112878 
0.03057030863133606 1:0 2:4 3:12.31232 
0.02914834009872387 1:3 2:3 3:12.197742 
0.04635683871989926 1:7 2:40 3:74.315919 
0.04228027452393973 1:9 2:2 3:24.989966 
0.04666639770628611 1:11 2:1 3:32.608367 
0.0002892132251919575 1:0 2:2 3:18.36245 
0.02264255008148411 1:6 2:8 3:5.749485 
0.02432783655589277 1:12 2:13 3:7.704891 
0.0139703637057389 1:17 2:7 3:1.14801 
0.02048091688199979 1:14 2:18 3:3.787064 
0.01381568146540023 1:17 2:18 3:7.285689 
0.01504337037628775 1:17 2:1 3:5.968515 
0.04628661306942233 1:48 2:114 3:0.611692 
0.04507051661015955 1:26 2:12 3:47.061899 
0.03328152188247543 1:18 2:1 3:36.641086 
0.04067104216323592 1:34 2:14 3:37.150118 
0.04385819693977078 1:17 2:5 3:18.594648 
0.01044804503799715 1:11 2:25 3:6.108093 
0.01826276143908306 1:10 2:22 3:7.70224 
1 1:0 2:5 3:0.669525 
0.007814722256166473 1:0 2:3 3:5.234942 
0.02499252841487853 1:0 2:1 3:26.975801 
0.03275038836985222 1:0 2:22 3:6.267865 
1 1:0 2:13 3:0.969546 
0.04661587948622703 1:0 2:52 3:28.510392 
0.03387437279083372 1:0 2:1 3:33.101904 
0.0286217962945629 1:5 2:2 3:17.589699 
0.02271839145808747 1:5 2:5 3:2.843313 
0.004766864903840816 1:0 2:3 3:8.149262 
0.0207351673402294 1:18 2:8 3:30.548336 
0.01327975356022376 1:6 2:4 3:4.78051 
0.01729042904046124 1:18 2:10 3:15.685682 
0.0268843496788595 1:1 2:15 3:7.700091 
0.02876854205890001 1:0 2:1 3:5.753548 
0.04659380714064765 1:16 2:30 3:31.952381 
0.0466438502388089 1:0 2:43 3:26.183351 
0.02652930560151694 1:0 2:2 3:48.490765 
0.0236810298682185 1:3 2:1 3:6.87909 
0.02620509195484694 1:16 2:1 3:36.952381 
0.01768835667084581 1:10 2:15 3:3.782855 
0.03243287826356363 1:30 2:10 3:27.71322 
0.02641262302242015 1:20 2:8 3:32.975811 
0.0008080392143063886 1:6 2:3 3:3.739342 
0.04324832748797131 1:6 2:33 3:10.350914 
0.0447231992058213 1:4 2:7 3:21.829086 
0.01085074532438707 1:10 2:18 3:4.155735 
0.0389288445981858 1:1 2:7 3:22.06843 
0.02355621547407205 1:12 2:1 3:10.25007 
0.01071998591431875 1:12 2:19 3:7.370764 
0.004077236977831649 1:8 2:4 3:4.986707 
0.03867470678949719 1:28 2:17 3:15.502982 
0.02316310290374691 1:11 2:28 3:7.354226 
0.02878690836744558 1:12 2:8 3:18.313654 
0.006937976910105404 1:12 2:11 3:3.814502 
0.03640621914552428 1:5 2:11 3:6.145104 
0.002098886586603408 1:8 2:19 3:3.612248 
0.02383173986025682 1:14 2:1 3:11.837999 
0.01465342289154153 1:23 2:10 3:33.739342 
0.03341784614592067 1:28 2:19 3:26.20708 
0.01409146282489943 1:6 2:19 3:4.712236 
0.001931272932154179 1:7 2:22 3:5.645574 
0.01107930768047923 1:18 2:13 3:13.529078 
0.01588232739055667 1:12 2:8 3:4.376598 
0.04627003006702474 1:20 2:4 3:51.590018 
0.01590153271162536 1:6 2:16 3:5.562212 
0.0292863368422287 1:20 2:45 3:37.714286 
0.02780531949114041 1:20 2:10 3:33.333333 
0.0396602891017717 1:28 2:3 3:48.921788 
0.02751937298914707 1:3 2:3 3:25.74817 
0.01207420787706791 1:15 2:8 3:10.228656 
0.04108685556099123 1:22 2:44 3:23.596052 
0.04653027505999663 1:11 2:27 3:26.828943 
0.02036013526263837 1:2 2:3 3:7.109935 
0.03541109629802008 1:22 2:1 3:6.963395 
0.03458827693761397 1:1 2:1 3:39.751744 
0.03308589353308178 1:0 2:11 3:9.527408 
0.04625681396317599 1:3 2:74 3:25.70706 
0.03748649996327619 1:20 2:1 3:14.840359 
0.007290398985172586 1:12 2:1 3:8.606093 
0.03135641657752785 1:9 2:16 3:9.64669 
0.04668084119405425 1:12 2:49 3:45.125608 
1 1:0 2:1 3:0.630997 
0.00657707837120405 1:10 2:23 3:7.499957 
0.0464509218448349 1:11 2:6 3:42.564945 
0.03361631071784776 1:9 2:12 3:13.324439 
0.01298499207825038 1:15 2:1 3:13.531175 
0.04651343515278067 1:16 2:13 3:43.368101 
0.04644664574617668 1:23 2:50 3:8.247881 
0.03813402667378973 1:9 2:33 3:18.705002 
0.001925053755014227 1:13 2:25 3:10.163072 
0.03011239584268975 1:25 2:44 3:47.615263 
0.043216760630974 1:1 2:30 3:7.007777 
0.00493387123478356 1:2 2:25 3:5.272636 
0.001473556354499291 1:14 2:4 3:9.626993 
0.03947028214110493 1:12 2:4 3:23.633254 
0.02801743725028494 1:28 2:12 3:29.702828 
0.0448993675365916 1:20 2:57 3:40.761905 
1 1:0 2:1 3:0.660082 
0.0262235250744853 1:25 2:3 3:29.892122 
0.03752858955731325 1:37 2:10 3:46.57811 
0.03146224218103941 1:15 2:16 3:10.510266 
0.0163093225373695 1:27 2:6 3:37.966581 
0.01999954990871611 1:33 2:8 3:43.149508 
0.02967688149051456 1:27 2:10 3:39.789921 
0.03460281144054378 1:30 2:12 3:42.612427 
0.04168503781086014 1:16 2:32 3:6.017612 
0.03665378215595828 1:8 2:13 3:7.189415 
0.001041333097131003 1:10 2:4 3:3.261007 
0.04661491698156178 1:11 2:21 3:16.547857 
0.04485032541253714 1:17 2:35 3:46.314141 
0.009630647146505187 1:16 2:6 3:2.709265 
0.009543622668743047 1:8 2:21 3:4.336791 
0.0426661869088229 1:24 2:20 3:16.970045 
0.03273186199943917 1:13 2:29 3:4.686926 
0.03459168436701217 1:21 2:7 3:39.878199 
1 1:1 2:1 3:0.52021 
0.04336179664469162 1:15 2:40 3:38.95 
0.03163581926501691 1:16 2:7 3:22.606954 
0.02709448702763617 1:19 2:4 3:37.384753 
0.04209321822594131 1:22 2:35 3:42.142857 
0.02622041328240365 1:17 2:3 3:37.333333 
0.009913756053519912 1:24 2:11 3:34.532902 
0.04675951361032171 1:23 2:26 3:33.455277 
0.04645743448186501 1:48 2:10 3:46.279856 
0.03325347766072688 1:32 2:4 3:32.287577 
0.0006081497648071088 1:18 2:3 3:8.486464 
0.04179363668744022 1:6 2:32 3:4.607148 
0.04636584041287667 1:29 2:30 3:43.588842 
0.04105783003283166 1:27 2:43 3:48.047619 
0.02335450482173254 1:22 2:9 3:34.761905 
0.01542187290292604 1:28 2:5 3:31.581859 
0.04494407592764099 1:26 2:32 3:27.36869 
0.02942963670737209 1:27 2:13 3:33.536631 
0.04376389335613606 1:25 2:41 3:45.041311 
0.04277469847007626 1:23 2:7 3:13.560291 
0.01910213637532197 1:5 2:24 3:5.96413 
0.01353892978964446 1:1 2:1 3:19.7455 
0.02597159584315332 1:0 2:17 3:7.47117 
0.0132780024630853 1:22 2:4 3:24.135906 
0.04215163218130169 1:12 2:12 3:27.548869 
0.02670761121398635 1:19 2:1 3:6.818018 
0.03892565794003718 1:21 2:50 3:27.726469 
0.004255038572503742 1:14 2:4 3:8.589829 
0.003723377700949916 1:11 2:1 3:7.825757 
1 1:0 2:1 3:0.553904 
0.004087752539182349 1:11 2:25 3:5.297004 
0.01016156673004351 1:4 2:23 3:4.49519 
0.02117325206619569 1:11 2:17 3:10.68755 
0.01409454723205222 1:32 2:43 3:50.308014 
0.004768151686280344 1:10 2:21 3:5.856478 
0.002247206232135488 1:15 2:7 3:7.208479 
0.04664561495764685 1:26 2:56 3:25.613798 
0.01535373641568973 1:9 2:4 3:3.818946 
0.003518215524143576 1:14 2:1 3:6.898667 
0.001913090528005614 1:12 2:2 3:9.840839 
0.01339422690299572 1:13 2:20 3:4.625331 
0.004218038338757427 1:6 2:19 3:3.125227 
0.04618414959159484 1:8 2:28 3:29.406739 
0.02771181821209456 1:38 2:4 3:35.142611 
0.03146400661220593 1:13 2:16 3:2.206067 
1 1:0 2:1 3:0.453851 
0.046023997943268 1:7 2:2 3:50.666667 
0.01699988554301601 1:8 2:7 3:5.847528 
0.02047683582848264 1:14 2:2 3:2.014887 
0.0442587528661279 1:3 2:18 3:12.632446 
0.04661484250734638 1:34 2:36 3:51.85 
0.007517914939876227 1:9 2:20 3:6.159123 
0.03740725006419082 1:7 2:18 3:11.108787 
0.04571821581819779 1:7 2:30 3:11.990589 
0.03817113422115948 1:21 2:3 3:30.447036 
1 1:0 2:1 3:0.500736 
0.0214978577172096 1:23 2:9 3:30.615688 
0.03796926105254383 1:21 2:13 3:14.651777 
0.04501823188282239 1:33 2:52 3:46.636758 
0.00999422271936579 1:8 2:25 3:6.552002 
0.03924410753116374 1:22 2:40 3:44.095238 
0.01509100558156567 1:29 2:7 3:35.279314 
0.02124585009340494 1:15 2:26 3:7.150798 
0.03287400837198313 1:16 2:20 3:5.388186 
0.005519693422597061 1:14 2:5 3:6.146789 
0.03087852404728472 1:15 2:1 3:43.952381 
0.02011791910561488 1:7 2:1 3:9.702789 
0.01898600873427776 1:12 2:5 3:8.287004 
0.04627641081338296 1:29 2:18 3:37.715705 
0.02778587278175848 1:28 2:10 3:26.262371 
0.04300952432366399 1:13 2:7 3:20.67546 
0.02884992880041302 1:32 2:12 3:36.374815 
0.012655282231987 1:28 2:3 3:30.354901 
0.04482936034396862 1:2 2:12 3:31.48912 
0.04647705835202887 1:8 2:39 3:40.7 
0.02593572583153375 1:10 2:25 3:8.754632 
0.005774016326946073 1:18 2:1 3:7.240264 
0.04614493972558387 1:8 2:24 3:28.860227 
0.01370148184085303 1:13 2:26 3:6.150255 
0.02455847923550925 1:10 2:16 3:7.830173 
0.04669175365525052 1:13 2:62 3:30.660448 
0.04667711543997699 1:20 2:57 3:16.942507 
1 1:0 2:1 3:0.521855 
0.02410441959355393 1:14 2:5 3:10.517883 
0.02647483224829485 1:11 2:31 3:8.45676 
0.04653624939724293 1:17 2:27 3:41.095238 
0.009603597187098929 1:7 2:17 3:5.507137 
0.04028498401352139 1:5 2:1 3:44.64966 
0.04357932463661723 1:31 2:45 3:49.619048 
0.008610527528401902 1:9 2:23 3:4.896017 
1 1:0 2:1 3:0.662483 
0.04177757598169102 1:31 2:10 3:44.440275 
0.01631761228937882 1:27 2:10 3:32.462129 
0.01553741856708132 1:11 2:10 3:28.154291 
0.02157774132767462 1:16 2:25 3:11.00967 
0.005154583514436645 1:13 2:4 3:7.274073 
0.02164625725520192 1:17 2:1 3:42.270577 
0.007627633675985595 1:13 2:6 3:4.142263 
0.02918082026364052 1:13 2:12 3:2.976359 
0.01289719524567676 1:9 2:15 3:3.400292 
0.0125979567203213 1:0 2:1 3:20.010158 
1 1:0 2:11 3:0.994231 
1 1:0 2:11 3:0.433988 
1 1:0 2:12 3:0.994231 
1 1:0 2:12 3:0.994231 
0.04637158420446313 1:0 2:8 3:106.37977 
0.02779131924855449 1:0 2:1 3:44.189563 
1 1:0 2:8 3:0.878127 
0.03525146109841515 1:0 2:3 3:44.189563 
0.04669968438602395 1:0 2:1 3:97.438632 
0.04539070408721346 1:0 2:22 3:12.327884 
0.04410556127420845 1:0 2:18 3:25.429943 
0.02695426599950854 1:0 2:6 3:24.793202 
0.0088836014655705 1:0 2:14 3:12.40702 
0.02136324389022504 1:0 2:1 3:12.40702 
0.04662642355740065 1:15 2:35 3:142.09274 
0.0192284029779634 1:8 2:14 3:4.439405 
0.03467000426882994 1:20 2:40 3:41.75 
1 1:0 2:2 3:0.757853 
0.0355105873210616 1:12 2:1 3:17.094543 
0.007598221405398679 1:16 2:5 3:8.646461 
0.0283122805682704 1:16 2:22 3:10.379672 
0.01481197819394637 1:12 2:28 3:5.516548 
0.01928392460656524 1:18 2:9 3:39.61249 
0.02533368767499821 1:14 2:21 3:5.199133 
0.003564042219889691 1:12 2:7 3:5.541034 
0.02704276767581454 1:30 2:11 3:29.725064 
0.003140354718097382 1:15 2:8 3:6.129721 
0.005082207733679628 1:13 2:5 3:5.567637 
0.0245774995482782 1:12 2:12 3:10.232812 
0.04306004340179942 1:31 2:6 3:46.571429 
0.04652940453117405 1:60 2:4 3:44.804197 
0.04559807696349072 1:1 2:40 3:10.752142 
0.03970001614483715 1:31 2:1 3:43.628255 
0.04627673170280744 1:10 2:14 3:43.428571 
0.04365491329062621 1:24 2:37 3:43.186479 
0.01714643479258943 1:22 2:5 3:9.694837 
0.04142978008042858 1:24 2:43 3:24.702041 
1 1:1 2:6 3:0.785832 
0.04572145372618347 1:30 2:16 3:1.320614 
0.04652878450828229 1:18 2:66 3:2.273377 
0.04665568721535207 1:61 2:184 3:1.275903 
0.03724277648841566 1:3 2:2 3:43.957577 
0.04351504279369117 1:1 2:25 3:9.475196 
1 1:0 2:3 3:0.592882 
0.04650880065195101 1:6 2:6 3:85.666529 
0.04540477593390768 1:43 2:2 3:54.45 
0.04668254508753461 1:18 2:28 3:26.536202 
0.03244693757648138 1:16 2:22 3:7.368598 
0.01409657939112816 1:26 2:9 3:27.635241 
0.0032229173930381 1:17 2:16 3:8.66782 
0.01956090602203348 1:26 2:6 3:31.535328 
0.01154997835194424 1:18 2:1 3:42.333333 
0.02916235805322748 1:9 2:27 3:4.452477 
0.02759808577132651 1:30 2:12 3:32.603105 
0.01228448115154007 1:32 2:14 3:41.938822 
1 1:0 2:1 3:0.663647 
0.03303990913417348 1:28 2:5 3:42.972009 
0.008746554388699292 1:25 2:8 3:29.553063 
0.01888885086512128 1:29 2:7 3:27.04879 
0.04516442305682156 1:26 2:9 3:13.496001 
0.04626106851323626 1:24 2:42 3:29.069071 
0.01371829693173897 1:8 2:14 3:1.977429 
0.03732747986259355 1:30 2:6 3:18.031325 
0.01726066035326149 1:34 2:8 3:42.238095 
0.04336572651981713 1:20 2:15 3:33.618501 
0.04641946970458644 1:8 2:20 3:25.45 
0.01272600475121258 1:11 2:20 3:8.720907 
0.03377477847546051 1:27 2:33 3:40.286461 
0.04669104518547951 1:31 2:34 3:36.687218 
0.04673100078157875 1:20 2:14 3:40.488397 
0.03117085387265128 1:28 2:4 3:35.018941 
0.04638999476907302 1:19 2:26 3:7.113948 
0.01271914130407259 1:15 2:24 3:9.260128 
0.01011702162792598 1:11 2:11 3:8.770131 
0.02467259609664188 1:13 2:9 3:10.182343 
0.03677039406699439 1:21 2:6 3:15.994313 
0.01112977115474229 1:12 2:6 3:2.271809 
0.02860043417336911 1:18 2:1 3:10.782348 
0.04506846041820189 1:42 2:10 3:40.95726 
0.03046765795397158 1:27 2:3 3:42.469491 
0.01200307764018584 1:35 2:6 3:39.169274 
0.002666472896364568 1:14 2:5 3:5.345344 
0.02852647893489809 1:25 2:4 3:34.844469 
0.8272569819554363 1:3 2:1 3:0.538738 
0.01616436077147768 1:16 2:7 3:4.226783 
0.03831198142210646 1:28 2:5 3:24.572718 
0.03767946629432978 1:18 2:4 3:24.831618 
0.02072570628943983 1:11 2:23 3:5.862273 
0.01626727953913883 1:14 2:14 3:5.950024 
0.01181429422801625 1:6 2:21 3:5.407432 
0.0312924135470668 1:25 2:14 3:25.101584 
0.003873926010610554 1:14 2:1 3:6.036954 
0.01443113988606095 1:13 2:15 3:8.047173 
0.007296917070406084 1:14 2:19 3:12.933038 
0.02086652712872736 1:17 2:10 3:8.659567 
0.04485331550008984 1:22 2:55 3:42.05 
0.03391989321725464 1:24 2:12 3:30.204475 
0.04631490899147937 1:25 2:40 3:34.122644 
0.01610775612770658 1:29 2:7 3:28.045654 
0.03924069137616828 1:26 2:51 3:53 
0.003378517997829724 1:28 2:7 3:33.386116 
0.02431590005405515 1:0 2:22 3:2.169671 
0.02927472357411987 1:19 2:8 3:27.469097 
0.02484580409457306 1:23 2:15 3:24.977515 
0.01460433081116654 1:0 2:5 3:10.285455 
0.04496279868822822 1:0 2:1 3:55.034338 
0.01918760905034119 1:0 2:1 3:30.16887 
0.003413771264766982 1:0 2:5 3:25.665091 
0.04650633386409225 1:0 2:64 3:0.750246 
0.04619502759193528 1:59 2:38 3:52.429253 
0.04666662428342283 1:1 2:114 3:50.475452 
0.03059037797700847 1:0 2:4 3:25.995592 
1 1:0 2:7 3:0.794574 
0.04421390443854434 1:16 2:45 3:33.745405 
0.01328502351466619 1:1 2:9 3:5.714286 
0.001922190352469766 1:13 2:20 3:6.421111 
0.03936369400358014 1:9 2:10 3:15.080313 
0.02178740687434583 1:28 2:6 3:26.906896 
0.02351957333629762 1:23 2:9 3:22.57625 
0.00235149720247857 1:10 2:11 3:6.137787 
0.0464539467118279 1:20 2:21 3:4.124662 
0.02307559361113861 1:16 2:6 3:11.621988 
0.02406554000075517 1:29 2:12 3:38.691251 
0.008519411291279037 1:11 2:18 3:5.069668 
0.02823175005927936 1:0 2:44 3:14.316974 
0.03841773401651759 1:35 2:6 3:41.464858 
0.04675591537257856 1:17 2:33 3:17.612106 
0.02268937698729717 1:28 2:5 3:30.037521 
0.02340052197819801 1:18 2:4 3:10.104935 
0.03112654695404417 1:12 2:3 3:19.653736 
0.02436637875087134 1:31 2:6 3:39.419953 
0.01447324074736524 1:18 2:7 3:20.160539 
0.0135583243014156 1:12 2:1 3:7.032369 
0.04627046102176458 1:35 2:4 3:58.666667 
1 1:0 2:1 3:0.481935 
0.0351836396812597 1:4 2:12 3:12.577599 
1 1:0 2:1 3:0.437272 
0.003799329307437298 1:9 2:5 3:4.738989 
0.04328020514018188 1:14 2:42 3:37 
0.01316945909750933 1:24 2:8 3:30.905296 
0.03371037015143981 1:16 2:38 3:4.791826 
0.02876756946027292 1:24 2:6 3:28.660465 
0.02428232559708909 1:14 2:51 3:37.047619 
0.003246361224203964 1:14 2:21 3:7.88243 
0.01878364492577866 1:18 2:4 3:6.935966 
0.01009781941348691 1:10 2:15 3:5.278373 
0.01273222819867851 1:6 2:16 3:3.35052 
0.0466375249754622 1:27 2:34 3:54.017101 
0.04462427691631865 1:20 2:3 3:19.316787 
0.002924191326679213 1:6 2:5 3:2.583185 
0.00270372865336478 1:15 2:5 3:5.941776 
0.03983694076965749 1:12 2:4 3:27.208603 
0.0248930162886068 1:8 2:33 3:6.52598 
0.02024904954064891 1:34 2:13 3:39.809466 
0.04584813389113412 1:25 2:33 3:33.16875 
0.04696723645948281 1:15 2:64 3:44.630935 
0.03128794658009709 1:29 2:3 3:30.158715 
0.01245346135106579 1:11 2:3 3:11.109348 
0.004237811287907372 1:5 2:5 3:4.699518 
0.04689618854723138 1:1 2:27 3:71.354396 
0.009014102683916864 1:14 2:1 3:9.800738 
1 1:0 2:1 3:0.602359 
0.02412776521501213 1:5 2:15 3:2.160319 
0.03089991155126159 1:20 2:7 3:20.518597 
0.01912838460439901 1:18 2:7 3:20.633462 
0.0398090604756216 1:23 2:43 3:47.904762 
0.03405201762973655 1:23 2:13 3:13.37501 
0.0113626957998877 1:11 2:5 3:4.624319 
0.006101469069329237 1:8 2:8 3:3.080229 
0.03510989452829033 1:32 2:15 3:41.318499 
0.0250048520451932 1:15 2:9 3:5.011595 
0.01526777459149125 1:10 2:27 3:7.501491 
0.04648231057526558 1:2 2:38 3:39.285714 
0.04675607307965268 1:39 2:16 3:35.050739 
0.0303753426950491 1:0 2:12 3:6.546201 
0.04284161918037938 1:41 2:4 3:49.459646 
0.03020545143079823 1:8 2:18 3:2.150886 
0.01474503808692074 1:14 2:26 3:9.392746 
0.01197165559558169 1:7 2:5 3:2.747327 
0.01341410745624333 1:9 2:24 3:5.904682 
0.02462059951838116 1:26 2:7 3:23.708992 
0.01888567210688613 1:23 2:12 3:33.726026 
0.03684812990861195 1:13 2:26 3:3.727242 
0.02470235000355739 1:8 2:11 3:5.625337 
0.02074565729095294 1:13 2:32 3:5.847485 
0.02187266983808117 1:31 2:7 3:29.749989 
0.02448997373002368 1:3 2:26 3:4.604476 
0.002237147044343564 1:9 2:3 3:8.999926 
0.006102925286696501 1:10 2:21 3:6.345854 
0.03368748654898701 1:26 2:34 3:39.333333 
0.01614312466950546 1:2 2:16 3:4.946688 
0.02064986869517241 1:14 2:16 3:3.667236 
0.02270880363318103 1:5 2:1 3:5.36198 
0.01323640066908322 1:10 2:24 3:2.730395 
0.02277889700348833 1:7 2:14 3:1.100376 
0.001549350621808385 1:17 2:6 3:7.424937 
0.04537305475250225 1:16 2:35 3:37.75 
0.04637878424127534 1:21 2:54 3:49.122572 
0.009141162605597417 1:8 2:6 3:3.142103 
0.04146116194362554 1:36 2:8 3:23.730594 
0.03740972825785048 1:14 2:1 3:49.287084 
0.01025648027360724 1:11 2:16 3:5.868119 
0.02780491950143806 1:21 2:13 3:31.34594 
0.03416822822301444 1:35 2:13 3:40.70579 
0.03494994476914959 1:14 2:20 3:12.004367 
0.02115983651863348 1:21 2:8 3:17.327721 
1 1:0 2:6 3:0.621015 
0.04624130814652216 1:45 2:5 3:48.307904 
0.01075522748739137 1:12 2:16 3:4.623763 
0.02102704434702923 1:12 2:1 3:4.023059 
0.03307654015002943 1:4 2:2 3:26.634894 
0.03038231171783632 1:21 2:10 3:21.531943 
0.02270047516348426 1:27 2:7 3:33.451667 
0.04496963987324237 1:42 2:9 3:46.541595 
0.01732197703613284 1:30 2:6 3:39.930695 
0.04489842217187778 1:17 2:32 3:47.238095 
0.04394066592905722 1:22 2:36 3:39.333333 
0.03956548048083188 1:15 2:1 3:25.50753 
0.009694689838398276 1:17 2:6 3:9.037169 
0.04669016101849682 1:31 2:9 3:7.984928 
0.04368386441664857 1:17 2:43 3:38.830698 
0.03212681648083791 1:16 2:39 3:3.452125 
0.02223694945486138 1:15 2:13 3:5.990544 
0.04667389918353509 1:44 2:5 3:42.484474 
0.00674358455696048 1:19 2:7 3:6.570175 
0.02842645611911027 1:1 2:16 3:23.874608 
0.0223946943856545 1:24 2:9 3:21.254598 
0.02123763539236269 1:8 2:26 3:7.25423 
0.02134154888735358 1:29 2:8 3:41.093359 
0.00937612071012589 1:18 2:2 3:4.510928 
0.03184122022548197 1:14 2:25 3:12.141318 
0.04255293720318482 1:21 2:18 3:24.036309 
0.04648929759256232 1:25 2:29 3:48.904762 
0.04135870759558308 1:30 2:15 3:45.517796 
0.04062096703407382 1:11 2:31 3:13.838483 
0.04512771954722279 1:22 2:34 3:11.492315 
0.0463376416034661 1:17 2:35 3:9.83183 
0.01797793455285328 1:21 2:2 3:7.390734 
0.04656691922475198 1:36 2:78 3:26.627245 
0.04667494663517302 1:15 2:47 3:14.124757 
0.04645468849475154 1:42 2:26 3:2.633514 
0.09889236249926876 1:2 2:4 3:0.525389 
0.04650909347470927 1:2 2:494 3:0.525389 
0.04655855623558491 1:24 2:26 3:9.134864 
0.0261679145456129 1:10 2:11 3:18.823487 
1 1:0 2:1 3:0.519433 
0.009688128075837472 1:7 2:3 3:4.558454 
0.01041769871268732 1:9 2:25 3:2.314367 
0.03092692316527468 1:13 2:30 3:11.859437 
0.04683111940691359 1:3 2:21 3:16.571429 
0.02567735233312083 1:14 2:48 3:8.695794 
0.002801879667289839 1:17 2:2 3:8.387611 
0.295074952433067 1:8 2:1 3:1.744864 
0.01727472197224402 1:18 2:2 3:8.505955 
0.03188346269079567 1:6 2:11 3:10.458925 
0.02668256311706396 1:10 2:12 3:10.912917 
0.04068932427890004 1:42 2:5 3:53.374762 
0.03284082356000428 1:2 2:10 3:16.403609 
0.0367994620999284 1:19 2:49 3:46.142857 
0.04047150577283837 1:15 2:1 3:32.5 
0.03374359131772074 1:13 2:32 3:12.692521 
0.03364900847027559 1:2 2:10 3:19.00494 
0.0454104848163995 1:2 2:28 3:10.549817 
0.04665758169678563 1:29 2:22 3:32.313827 
0.02219500299703866 1:24 2:11 3:36.244338 
0.03683851855150395 1:16 2:11 3:15.406993 
0.04631929735470025 1:12 2:47 3:39.380952 
0.01147606282668966 1:8 2:5 3:1.091422 
1 1:0 2:1 3:0.478595 
0.05346499330904098 1:4 2:28 3:0.685149 
0.02518212825549179 1:9 2:1 3:7.078829 
0.04426564995848874 1:24 2:12 3:18.969011 
0.04078698903163835 1:9 2:4 3:28.755155 
0.03267672634750815 1:32 2:6 3:31.86605 
1 1:0 2:1 3:0.7185 
0.02383815468290368 1:14 2:24 3:6.93927 
0.0124522152350563 1:8 2:5 3:6.679203 
0.01583523781348389 1:10 2:18 3:6.953053 
0.0240110867778881 1:3 2:28 3:6.001687 
0.002986681639106592 1:21 2:6 3:7.297256 
0.02572693876196733 1:26 2:20 3:15.137665 
0.003500247321110105 1:12 2:19 3:4.88067 
0.01310446188092529 1:15 2:19 3:7.865927 
0.04028102015886847 1:23 2:46 3:46.190476 
1 1:0 2:1 3:0.430161 
0.03765235049897464 1:36 2:7 3:32.108842 
0.04640376835718757 1:30 2:41 3:60.333333 
0.04656495292797896 1:23 2:49 3:14.663026 
0.01571420418759132 1:33 2:9 3:42.606942 
0.01765438649234238 1:21 2:5 3:3.003239 
0.03540170792897777 1:7 2:4 3:9.717344 
0.00339833940116007 1:0 2:1 3:7.389876 
0.04669256402793626 1:0 2:21 3:35.051488 
0.04594399948993566 1:0 2:10 3:35.051488 
0.01790479412036589 1:0 2:1 3:18.864941 
0.04651689743097825 1:4 2:62 3:23.079951 
0.04642195543852518 1:0 2:1 3:127.29651 
0.03122053251484871 1:0 2:7 3:7.221181 
1 1:0 2:2 3:0.54506 
0.03497326704315318 1:0 2:15 3:23.079951 
0.02727827171106435 1:11 2:4 3:12.940596 
0.04668755367086452 1:32 2:40 3:36.142427 
0.0193527124153989 1:14 2:1 3:5.323052 
0.02571505796604756 1:18 2:7 3:26.472731 
1 1:0 2:1 3:0.523713 
0.04659899746303192 1:7 2:51 3:45.85 
1 1:0 2:9 3:1.241546 
0.03115041317575819 1:3 2:1 3:17.791331 
1 1:0 2:1 3:0.572699 
0.2200066316429063 1:0 2:28 3:2.791822 
0.03084969834034762 1:19 2:16 3:10.487718 
0.01207160706960995 1:0 2:2 3:66.743691 
0.01078095919663125 1:0 2:8 3:4.797609 
1 1:0 2:1 3:0.46754 
0.03765906412005743 1:16 2:1 3:46.465001 
0.04570825367125263 1:22 2:32 3:31.380285 
0.04663164688605265 1:3 2:17 3:83.735984 
1 1:0 2:1 3:0.41311 
0.04442476560107206 1:22 2:2 3:38.664593 
0.02871826096678093 1:38 2:3 3:35.794732 
0.03711264047789087 1:17 2:1 3:14.722581 
0.008697348671725103 1:15 2:6 3:10.940137 
0.00208078510078874 1:12 2:17 3:9.42564 
0.01016445102206521 1:12 2:32 3:6.445733 
0.01903906949985062 1:14 2:7 3:7.929811 
0.04653866302044934 1:40 2:10 3:54.406011 
0.005461363432478361 1:11 2:1 3:7.036684 
0.0006893948704905635 1:8 2:20 3:3.606837 
0.01487912351568656 1:14 2:18 3:5.595279 
0.005203637136828014 1:4 2:23 3:5.3169 
0.03959136454539303 1:27 2:20 3:23.710968 
0.002990034260995051 1:6 2:4 3:4.133858 
0.01702343806549369 1:26 2:4 3:32.372702 
0.02136341139771862 1:18 2:8 3:7.190731 
0.02794651836822045 1:29 2:8 3:38.8 
1 1:0 2:17 3:0.739275 
0.009853376056169205 1:2 2:21 3:4.568727 
0.02260866373476361 1:1 2:13 3:11.516985 
0.02298233978911128 1:0 2:1 3:24.665008 
0.04172103889380957 1:1 2:7 3:68.106353 
0.01160144431628165 1:4 2:1 3:11.14582 
0.0119778939330642 1:2 2:25 3:5.92526 
0.04311116153150908 1:28 2:33 3:25.055198 
0.03240762469048458 1:23 2:11 3:9.195686 
0.0125317334899771 1:1 2:1 3:27.710816 
0.0258924080598855 1:18 2:9 3:40.453608 
0.04477688871381055 1:2 2:38 3:13.833459 
0.01741583997576415 1:20 2:6 3:31.692294 
0.02985787724948913 1:20 2:44 3:38.75 
0.04166211440217915 1:34 2:9 3:22.530285 
0.007087894684379196 1:10 2:3 3:4.622753 
0.04463660093194326 1:26 2:1 3:14.681025 
0.03129130912101719 1:27 2:6 3:39.785493 
0.0264457090862522 1:24 2:8 3:35.659833 
0.04629884496065562 1:21 2:22 3:29.141112 
0.02934051176343816 1:4 2:17 3:6.129822 
0.02166289875938553 1:24 2:6 3:36.151266 
0.04344627950310147 1:7 2:6 3:28.022369 
0.04670630845028867 1:31 2:46 3:25.711668 
0.02375726367482823 1:6 2:6 3:6.199493 
0.03220013966116296 1:20 2:12 3:50.040901 
0.01680005060370426 1:1 2:23 3:5.856348 
1 1:0 2:1 3:0.518854 
0.04295662571474479 1:10 2:10 3:25.129812 
0.02145629672679622 1:26 2:9 3:32.285506 
0.007858507402439973 1:14 2:3 3:6.523835 
0.02657830402978931 1:23 2:4 3:7.955052 
0.02978616962424441 1:25 2:20 3:14.288644 
0.01776174936772404 1:11 2:4 3:2.09208 
0.04155168101232981 1:14 2:8 3:15.907206 
0.03669185334689343 1:26 2:8 3:20.019344 
0.02075310965510145 1:12 2:10 3:3.497987 
0.01578131251620596 1:12 2:3 3:12.590488 
0.04557886305183406 1:14 2:16 3:24.214473 
0.00968906597096003 1:16 2:2 3:6.429103 
0.04658081922911045 1:14 2:31 3:42.436863 
0.01959642081254438 1:12 2:9 3:7.690485 
0.02422929923608974 1:2 2:1 3:14.077022 
0.04185583885337404 1:15 2:31 3:9.346216 
1 1:0 2:1 3:0.720578 
0.04667647256632013 1:30 2:39 3:29.267171 
0.02582762911647169 1:0 2:1 3:22.630272 
0.01216995010616191 1:4 2:2 3:17.122296 
0.03411821340132532 1:12 2:11 3:0.669724 
1 1:0 2:1 3:0.450569 
1 1:0 2:8 3:0.450569 
0.03644542162592962 1:5 2:18 3:0.765728 
0.04637825145158619 1:33 2:170 3:46.337701 
0.04667612203534671 1:11 2:1 3:125.03037 
0.04596046053779584 1:14 2:37 3:31.952381 
0.007869630922776094 1:0 2:1 3:28.876807 
0.02338563373343483 1:7 2:1 3:4.980634 
0.04654020344505963 1:10 2:43 3:39.15 
0.04641348019202723 1:12 2:2 3:53.657592 
0.04669159426798736 1:1 2:32 3:31.242968 
0.04512296294531598 1:27 2:35 3:45.52381 
0.03285486820516814 1:29 2:16 3:25.479329 
0.01066885470348446 1:32 2:7 3:40.281929 
0.04553970540578356 1:4 2:44 3:36.8 
0.04028088512870324 1:16 2:40 3:32.68491 
0.003244316252407843 1:1 2:1 3:8.363597 
0.02162092700869996 1:24 2:12 3:24.066885 
1 1:1 2:21 3:1.005402 
0.007666465530186814 1:2 2:8 3:0.884859 
0.003012395188571966 1:9 2:20 3:5.568175 
0.04462329338973381 1:16 2:4 3:47.972715 
0.01350261667199568 1:10 2:11 3:7.847633 
0.04669963584786657 1:28 2:1 3:54.666667 
0.04654431457270641 1:44 2:107 3:91.832048 
0.0410548414818214 1:22 2:14 3:21.142182 
0.01522135988366611 1:10 2:8 3:2.429649 
0.03478611733949929 1:21 2:11 3:23.655095 
0.04357288019925139 1:18 2:46 3:48.659494 
0.957154201822612 1:0 2:1 3:0.734699 
0.003703428602670793 1:15 2:4 3:4.103013 
0.03701714710355691 1:35 2:7 3:30.305985 
0.04024664885872409 1:33 2:11 3:29.849904 
0.045271836679894 1:20 2:15 3:49.0964 
0.04664788204474329 1:18 2:34 3:33.75 
0.007411273463929939 1:15 2:11 3:7.10595 
0.008966908996455964 1:13 2:3 3:4.553872 
0.02946225279914527 1:17 2:10 3:19.804036 
0.01103430693520974 1:6 2:10 3:6.06746 
0.007179869241610215 1:21 2:5 3:7.764316 
0.03775294863225503 1:21 2:15 3:8.777941 
0.007031897668382896 1:13 2:14 3:6.229453 
0.04046888695079259 1:13 2:2 3:35.790576 
0.0113028368538375 1:1 2:5 3:5.011531 
0.04204935319654837 1:23 2:4 3:3.787766 
1 1:0 2:1 3:0.436762 
0.03890449202661972 1:19 2:49 3:27.829413 
0.03352842129947148 1:19 2:4 3:12.127077 
0.0248772595367997 1:15 2:23 3:12.266763 
0.03092947610997141 1:10 2:10 3:28.26222 
0.04433985499745591 1:22 2:42 3:56.879632 
0.0280372597175011 1:19 2:1 3:13.0626 
0.03070258205703998 1:21 2:5 3:11.010486 
0.02190443924633858 1:25 2:49 3:53.117895 
0.02941090634746635 1:12 2:2 3:39.661563 
1 1:0 2:1 3:0.66092 
0.001360378135673472 1:1 2:7 3:8.866412 
0.002750479521843166 1:0 2:9 3:10.799942 
0.003157773911788175 1:0 2:1 3:7.451799 
0.04662583615395934 1:14 2:10 3:50.067326 
0.01992221218932148 1:0 2:3 3:17.315783 
0.03578717298691902 1:28 2:2 3:33.654612 
0.01901032600698216 1:9 2:31 3:6.13564 
0.008628040406873134 1:13 2:11 3:3.802561 
1 1:0 2:1 3:0.464255 
0.02226704901287446 1:24 2:5 3:37.343378 
0.002767498001139483 1:12 2:3 3:5.800962 
0.03335359441323214 1:21 2:7 3:7.273766 
0.005515314741407278 1:9 2:25 3:4.641832 
0.0316173441003017 1:39 2:5 3:46.370336 
0.02319752378870803 1:25 2:5 3:32.864249 
0.0466677872646496 1:32 2:23 3:36.142119 
0.01577504913838977 1:14 2:1 3:8.695496 
0.02153271157734726 1:32 2:8 3:41.042635 
0.04312689414618015 1:22 2:15 3:6.318803 
0.001412092062229628 1:14 2:9 3:7.211492 
0.02595545251064324 1:26 2:6 3:25.623012 
0.03551516217025935 1:11 2:24 3:10.489018 
0.03445297560992999 1:13 2:47 3:9.30254 
0.03480664225629293 1:28 2:15 3:27.058926 
0.04642869985734527 1:6 2:7 3:67.382479 
0.07805986047854785 1:0 2:32 3:3.709509 
0.04638746629285306 1:19 2:51 3:4.7969 
0.01882432929002806 1:0 2:4 3:6.043997 
0.0443774818178676 1:2 2:34 3:6.156179 
0.01788123220467409 1:33 2:13 3:33.082107 
0.04649536238006503 1:33 2:4 3:50.75 
0.01296125935035204 1:13 2:8 3:6.237694 
0.02679760845591114 1:17 2:17 3:10.686403 
0.04665425166954196 1:23 2:35 3:20.250433 
0.03275244609631004 1:34 2:13 3:31.884595 
0.04243110286687751 1:16 2:7 3:32.989069 
0.03251960279423755 1:30 2:7 3:34.241269 
0.04662617177488436 1:13 2:50 3:27.627704 
0.04299172204097906 1:8 2:9 3:9.546132 
0.01509680719980238 1:25 2:9 3:30.684183 
0.03586012844713962 1:32 2:42 3:50.428571 
0.03580856689282769 1:14 2:1 3:14.750093 
0.008331702157533453 1:8 2:18 3:5.020225 
0.0207774828411646 1:4 2:29 3:4.874827 
0.01784080548303561 1:11 2:1 3:5.302626 
0.00461206243052119 1:15 2:5 3:7.800072 
0.04634269264780866 1:1 2:31 3:14.065303 
0.03979886579516666 1:18 2:28 3:36.192692 
0.04535866296329111 1:4 2:42 3:34.047619 
0.02920478617512924 1:2 2:8 3:9.64163 
0.00247280865989557 1:3 2:5 3:6.740679 
0.01685183640520149 1:15 2:1 3:48.25 
0.001868466843516816 1:14 2:5 3:8.502547 
0.04237540457708833 1:28 2:11 3:22.414451 
0.03065167767923729 1:12 2:10 3:11.327724 
0.04121182654658766 1:30 2:13 3:25.435431 
0.2843596375799782 1:0 2:45 3:2.331619 
0.002282516566447713 1:6 2:22 3:5.492036 
0.005179168998954566 1:16 2:5 3:9.759341 
0.02788930936865586 1:23 2:4 3:23.956961 
0.03060863370296535 1:10 2:12 3:19.533142 
0.02143169524460528 1:5 2:26 3:7.063941 
0.008638830225746753 1:11 2:19 3:7.924708 
0.01139173273963246 1:5 2:17 3:2.650067 
0.03778348758014505 1:19 2:11 3:9.929854 
0.02545696372257594 1:8 2:20 3:1.77986 
0.04642505819580467 1:1270 2:15961 3:147.9 
0.008463586321773126 1:11 2:8 3:2.635184 
0.03606228283784917 1:18 2:14 3:3.327638 
0.04669479640268115 1:46 2:12 3:4.093734 
0.002846759026439396 1:1 2:1 3:7.642225 
0.03453095756990558 1:2 2:40 3:4.11587 
0.04667006382966377 1:171 2:58 3:3.014361 
0.03146587054889551 1:0 2:8 3:16.781008 
0.04581681069575333 1:1 2:14 3:93.59672 
0.03184085545789189 1:3 2:8 3:4.549449 
0.04653285714323735 1:1 2:49 3:75.547491 
0.0295065045721703 1:0 2:2 3:41.261694 
0.04659004688462803 1:5 2:1 3:148.25824 
0.01278449384853578 1:2 2:2 3:10.232436 
0.0464405737849044 1:1 2:470 3:0.820111 
0.03051705243052445 1:23 2:8 3:37.956939 
0.4323180807494019 1:4 2:1 3:0.875686 
0.04587804658645772 1:29 2:15 3:4.581073 
0.04645179494905788 1:9 2:127 3:3.813954 
0.03283547385756902 1:10 2:7 3:17.95001 
0.04661542842583294 1:1 2:50 3:1.378475 
0.05784492104407118 1:7 2:3 3:0.689113 
0.02884815129287703 1:1 2:3 3:19.683736 
0.04718087467236259 1:6 2:19 3:92.431572 
0.04177791142046837 1:0 2:1 3:68.611505 
0.04570480648389558 1:3 2:11 3:93.392595 
0.03295943514716637 1:5 2:6 3:32.238557 
0.04711168457797676 1:15 2:5 3:138.48933 
0.04678831301232095 1:5 2:4 3:108.33928 
0.006824179682352209 1:15 2:14 3:8.069764 
0.04648422376011146 1:7 2:56 3:21.095238 
1 1:0 2:1 3:0.417953 
0.04648579085817683 1:31 2:3 3:57.8 
0.04669514307121009 1:37 2:46 3:30.650936 
0.01955369807036745 1:8 2:20 3:7.489837 
0.04673257100056372 1:26 2:46 3:28.878461 
0.02577532526813617 1:21 2:5 3:31.367125 
1 1:0 2:2 3:0.474451 
0.006288868272654366 1:1 2:1 3:8.868358 
0.03921560301805289 1:17 2:30 3:36.6 
0.04675952241904779 1:28 2:26 3:14.191776 
0.02516582019173626 1:8 2:23 3:2.490322 
0.01890320886767298 1:16 2:1 3:10.632384 
0.02109690174045142 1:6 2:22 3:7.215143 
0.01616579502935034 1:1 2:4 3:10.690892 
0.045930156507069 1:17 2:29 3:44.75 
0.02768031209840018 1:9 2:6 3:24.534077 
0.06764580031032801 1:5 2:1 3:1.783312 
0.0115626327067993 1:3 2:23 3:3.376075 
0.03549180079691319 1:0 2:3 3:66.481763 
1 1:0 2:4 3:0.595757 
0.04080199047803268 1:0 2:1 3:135.44332 
1 1:0 2:20 3:0.469446 
1 1:0 2:1 3:0.436393 
0.02731096589090726 1:24 2:3 3:14.243918 
1 1:0 2:1 3:0.548405 
0.04652773319498865 1:27 2:17 3:51.621169 
0.02248730324795485 1:16 2:9 3:10.962678 
0.00537271023122613 1:5 2:19 3:2.881626 
0.01142353669262007 1:15 2:10 3:6.169732 
0.01513900443229713 1:4 2:26 3:7.075106 
0.02626408334743995 1:18 2:1 3:41.190476 
0.03058496395897975 1:32 2:9 3:36.018938 
0.04654287920286249 1:4 2:1 3:71.295696 
0.04636105707130161 1:13 2:36 3:40.013369 
0.03867519584515226 1:16 2:9 3:23.925548 
0.04492518482316082 1:4 2:38 3:11.212672 
0.01461877737782014 1:7 2:12 3:2.059242 
0.02506905006310592 1:6 2:2 3:7.414415 
0.008861260390558111 1:14 2:5 3:3.326301 
0.01519242126411024 1:7 2:22 3:7.806446 
0.004690366321292304 1:8 2:27 3:6.188073 
0.005794064229664967 1:8 2:1 3:8.581085 
0.02178923757404234 1:10 2:1 3:9.323584 
0.0465531472214516 1:11 2:1 3:150.44094 
0.01269621388772736 1:15 2:7 3:5.849506 
0.04516941112322492 1:1 2:4 3:54.910309 
0.04683797258780087 1:19 2:106 3:8.768836 
0.04701825738140869 1:2 2:68 3:6.359314 
0.02152214453855445 1:2 2:2 3:29.263477 
-1 1:28 2:0 3:0.128718 
-1 1:0 2:27 3:0.151308 
-1 1:0 2:95 3:0.115767 
-1 1:0 2:170 3:0.276684 
-0.6437279505298836 1:0 2:7 3:0.387318 
-1 1:0 2:6 3:0.384304 
-1 1:0 2:147 3:0.111327 
-1 1:0 2:266 3:0.06409 
-1 1:0 2:12 3:0.386992 
-0.1361708180877947 1:0 2:1 3:0.410839 
-1 1:0 2:1 3:0.41109 
-1 1:0 2:2 3:0.405246 
-1 1:0 2:4 3:0.408661 
-1 1:0 2:21 3:0.112964 
-1 1:0 2:2 3:0.409221 
-0.8000787919376754 1:6 2:0 3:0.133678 
-1 1:0 2:10 3:0.300646 
-0.6114668779291519 1:0 2:2 3:0.401555 
-0.3383026637742732 1:3 2:0 3:0.33855 
-1 1:4 2:0 3:0.253676 
-1 1:0 2:1 3:0.410888 
-1 1:0 2:1 3:0.410879 
-1 1:0 2:11 3:0.366876 
-1 1:0 2:1 3:0.411253 
-1 1:0 2:3 3:0.388253 
-0.839907676890319 1:0 2:14 3:0.393046 
-1 1:0 2:1 3:0.411226 
-1 1:0 2:1 3:0.410934 
-1 1:0 2:1 3:0.411081 
-1 1:0 2:9 3:0.384601 
-0.7751352834642488 1:0 2:6 3:0.377959 
-1 1:0 2:1 3:0.411042 
-1 1:0 2:4 3:0.387688 
-1 1:0 2:1 3:0.411216 
-1 1:0 2:1 3:0.411161 
-1 1:0 2:14 3:0.397196 
-0.2644553223493343 1:0 2:17 3:0.143767 
-1 1:0 2:12 3:0.394904 
-1 1:0 2:2 3:0.401947 
-1 1:0 2:2 3:0.408076 
-1 1:0 2:3 3:0.393602 
-1 1:0 2:13 3:0.40965 
-1 1:0 2:1 3:0.410929 
-1 1:0 2:24 3:0.266348 
-0.6200154899964794 1:0 2:33 3:0.297226 
-0.4457779144558838 1:0 2:24 3:0.224631 
-1 1:0 2:1 3:0.410928 
-1 1:0 2:11 3:0.365007 
-1 1:0 2:914 3:0.05161 
-1 1:0 2:4 3:0.402771 
-1 1:0 2:8 3:0.372817 
-1 1:38 2:722 3:0.372817 
-1 1:0 2:16 3:0.331186 
-1 1:0 2:13 3:0.347718 
-0.9540197948882486 1:0 2:30 3:0.100896 
-1 1:0 2:214 3:0.249559 
-0.9920351550963817 1:0 2:8 3:0.349067 
-1 1:0 2:970 3:0.022105 
-0.7426290732018148 1:0 2:18 3:0.324131 
-1 1:0 2:1 3:0.411032 
-1 1:0 2:1 3:0.410891 
-0.9911229615536455 1:0 2:13 3:0.33923 
-1 1:0 2:9 3:0.393925 
-0.6127908671823894 1:0 2:36 3:0.297503 
-0.9756882252057431 1:0 2:22 3:0.221619 
-0.3266106702126446 1:0 2:16 3:0.289161 
-0.9516107304104559 1:0 2:29 3:0.387546 
-1 1:4 2:0 3:0.163818 
-1 1:0 2:20 3:0.101488 
-0.4480160783774264 1:1 2:0 3:0.409564 
-1 1:0 2:1 3:0.411078 
-1 1:0 2:1 3:0.411246 
-1 1:0 2:77 3:0.138336 
-1 1:0 2:2 3:0.408679 
-1 1:0 2:3 3:0.383743 
-1 1:7 2:0 3:0.045139 
-1 1:0 2:17 3:0.394599 
-1 1:0 2:1 3:0.411252 
-1 1:0 2:17 3:0.302663 
-1 1:0 2:1 3:0.411081 
-1 1:0 2:2 3:0.401901 
-1 1:0 2:13 3:0.340373 
-1 1:0 2:1 3:0.411224 
-1 1:0 2:19 3:0.383234 
-1 1:0 2:1 3:0.411237 
-1 1:0 2:1 3:0.411088 
-1 1:0 2:1 3:0.411148 
-1 1:0 2:1 3:0.411143 
-0.5924605670248313 1:0 2:36 3:0.073476 
-1 1:0 2:86 3:0.355483 
-0.7306111142951497 1:0 2:33 3:0.232612 
-1 1:0 2:92 3:0.352815 
-0.2070401380374736 1:5 2:0 3:0.119724 
-1 1:0 2:2 3:0.408803 
-1 1:0 2:1 3:0.411114 
-1 1:0 2:1 3:0.411016 
-1 1:0 2:91 3:0.021909 
-1 1:0 2:1 3:0.411237 
-1 1:0 2:1 3:0.410911 
-1 1:0 2:1 3:0.410885 
-1 1:0 2:3 3:0.386804 
-1 1:0 2:11 3:0.390006 
-1 1:0 2:1 3:0.411235 
-1 1:0 2:1 3:0.410842 
-1 1:0 2:6 3:0.389675 
-0.1931261418349564 1:4 2:0 3:0.149079 
-1 1:0 2:1 3:0.41091 
-1 1:0 2:1 3:0.411235 
-1 1:0 2:257 3:0.273318 
-0.06690999806810403 1:0 2:29 3:0.054016 
-1 1:0 2:6 3:0.404287 
-1 1:0 2:6 3:0.386778 
-0.9254172473089951 1:0 2:5 3:0.363387 
-1 1:0 2:1 3:0.410891 
-1 1:0 2:1 3:0.410934 
-1 1:0 2:1 3:0.411216 
-1 1:0 2:1 3:0.411081 
-0.7627249342857269 1:0 2:4 3:0.385559 
-0.7397293588112671 1:0 2:0 3:0.410435 
-1 1:0 2:1 3:0.410881 
-1 1:0 2:1 3:0.41106 
-1 1:0 2:1 3:0.411151 
-1 1:0 2:1 3:0.410966 
-1 1:0 2:1 3:0.411226 
-1 1:0 2:1 3:0.411194 
-1 1:0 2:1 3:0.411215 
-1 1:0 2:1 3:0.411215 
-1 1:0 2:1 3:0.410881 
-1 1:2 2:0 3:0.408541 
-1 1:0 2:1 3:0.41104 
-1 1:0 2:1 3:0.410885 
-1 1:0 2:1 3:0.411161 
-1 1:0 2:1 3:0.41106 
-0.3885650034985912 1:0 2:12 3:0.30166 
-1 1:0 2:1 3:0.411253 
-1 1:0 2:1 3:0.411085 
-1 1:0 2:1 3:0.411252 
-1 1:0 2:2 3:0.408014 
-1 1:0 2:2 3:0.408313 
-1 1:0 2:1 3:0.410934 
-1 1:0 2:6 3:0.406614 
-1 1:0 2:24 3:0.287095 
-1 1:0 2:45 3:0.257854 
-1 1:0 2:6 3:0.391033 
-0.6275355198022885 1:0 2:11 3:0.272447 
-1 1:1 2:0 3:0.410042 
-1 1:0 2:71 3:0.397796 
-0.9355229105114101 1:2 2:0 3:0.407609 
-1 1:0 2:1 3:0.411081 
-1 1:0 2:1 3:0.410929 
-1 1:0 2:4 3:0.399331 
-1 1:0 2:4 3:0.411226 
-1 1:0 2:2 3:0.403685 
-1 1:0 2:1 3:0.410934 
-1 1:0 2:7 3:0.405353 
-0.6837404010146859 1:0 2:32 3:0.308887 
-1 1:0 2:20 3:0.402961 
-0.01317337798208144 1:0 2:19 3:0.371796 
-0.1610963026667496 1:0 2:9 3:0.362881 
-1 1:0 2:1 3:0.411018 
-1 1:0 2:1 3:0.410929 
-1 1:0 2:37 3:0.255872 
