svm_type c_svc
kernel_type rbf
gamma 0.333333
nr_class 2
total_sv 1559
rho -0.95272
label 1 -1
nr_sv 1402 157
SV
0.004753593728376304 1:2 2:1 3:5.010003 
0.04644727040254857 1:15 2:51 3:32.846389 
0.01790795466040516 1:28 2:9 3:35.290066 
0.03750657745596227 1:8 2:32 3:7.97284 
0.01009667988175567 1:12 2:19 3:6.478908 
0.04716686548374686 1:28 2:42 3:9.510284 
0.03848127763959934 1:20 2:4 3:34.292353 
0.01038555151481213 1:0 2:4 3:23.73729 
0.04556606390817236 1:27 2:9 3:50.865105 
0.006327412784353559 1:6 2:5 3:3.729947 
1 1:1 2:1 3:0.438763 
0.04566347734490672 1:5 2:42 3:0.435796 
0.006303568803768887 1:20 2:4 3:8.401152 
0.002537825817410799 1:16 2:5 3:6.141372 
0.0468814100723627 1:19 2:44 3:35.126705 
0.001790046382777799 1:5 2:17 3:4.934238 
0.006032755642501386 1:7 2:3 3:9.053269 
0.01259164157701348 1:24 2:4 3:33.24636 
0.02348744813280174 1:17 2:1 3:4.432446 
1 1:0 2:13 3:0.458489 
1 1:0 2:5 3:1.096222 
0.04739670100527787 1:12 2:22 3:32.149799 
0.01558878881836057 1:13 2:23 3:4.126668 
0.04693205661928701 1:47 2:48 3:59.142857 
0.02110150362912586 1:25 2:2 3:30.694474 
0.04602990453169975 1:9 2:1 3:27.513766 
0.02958989920435823 1:1 2:4 3:16.653968 
0.04715945910214975 1:1 2:363 3:5.046291 
0.04732137230912581 1:43 2:37 3:6.848044 
0.3974152543125641 1:2 2:50 3:0.656205 
0.0851313139350478 1:2 2:47 3:1.028549 
0.04730478421041434 1:37 2:186 3:2.147301 
0.04731314150619637 1:42 2:17 3:4.645707 
0.0208539528293872 1:2 2:3 3:17.149698 
0.03463613627324969 1:4 2:29 3:4.645707 
0.03543552954490653 1:15 2:1 3:2.342481 
0.04728848211727138 1:34 2:18 3:27.138162 
0.03201916822195289 1:23 2:14 3:24.939385 
0.04164420587228729 1:6 2:35 3:5.586528 
0.02047947634338543 1:11 2:9 3:5.12667 
0.02114332681961573 1:23 2:7 3:21.423022 
0.02089522504976214 1:14 2:11 3:6.979899 
1 1:0 2:1 3:0.668191 
0.02639070532176618 1:24 2:3 3:41.047619 
0.04763791007807949 1:16 2:20 3:36.10045 
0.0146465139800861 1:19 2:7 3:40.20277 
0.03615287283959445 1:24 2:1 3:48.5 
0.008931228524810321 1:7 2:21 3:4.966172 
0.01293442308955899 1:2 2:1 3:10.706112 
0.00163831270262994 1:16 2:13 3:8.959767 
0.02784794361511148 1:6 2:25 3:2.295923 
0.04062518177167057 1:15 2:13 3:22.705664 
0.0149040622532097 1:10 2:16 3:4.122227 
0.04669959694210629 1:16 2:44 3:42.310254 
0.04718492871573332 1:4 2:54 3:42.65 
0.01709080759025648 1:4 2:19 3:2.470071 
0.01081195362409151 1:12 2:24 3:5.339835 
0.006738900773918751 1:9 2:8 3:4.040809 
0.04077021110372661 1:28 2:42 3:43.809524 
0.01456703453002352 1:12 2:16 3:4.330386 
0.0385381163980477 1:18 2:1 3:22.101536 
0.04341143901345206 1:23 2:15 3:15.497042 
0.03595013443652006 1:35 2:3 3:28.797785 
0.04715309748706459 1:39 2:19 3:39.749179 
0.03302647554557643 1:20 2:5 3:36.501223 
1 1:0 2:1 3:0.450133 
0.03921067569032533 1:5 2:15 3:13.960712 
0.04700868450304624 1:21 2:42 3:0.440413 
0.02745251282239444 1:15 2:15 3:5.331643 
0.02447479093111994 1:14 2:25 3:3.475287 
0.0298155359424766 1:6 2:2 3:28.405479 
1 1:0 2:20 3:1.408268 
1 1:0 2:1 3:0.664884 
0.02289951952598501 1:2 2:31 3:4.305339 
0.004930402552098848 1:1 2:3 3:11.126176 
1 1:0 2:1 3:0.487118 
0.03411813229526933 1:0 2:15 3:5.520621 
0.01640931479327274 1:0 2:3 3:25.519517 
0.03186313646555655 1:15 2:2 3:23.550874 
0.03076214706240736 1:14 2:8 3:2.930116 
0.04496351030890922 1:27 2:26 3:20.26945 
0.01746836935343837 1:10 2:5 3:1.421148 
0.03000164474069439 1:7 2:18 3:8.841151 
0.04429178144951013 1:2 2:8 3:25.613803 
0.04730225728337417 1:17 2:16 3:57.146755 
0.01637958818364966 1:18 2:7 3:11.659925 
0.04043846572984678 1:19 2:12 3:20.925519 
0.022989993693598 1:10 2:5 3:8.64858 
0.01183887163787107 1:11 2:27 3:5.840116 
0.04261454031004869 1:23 2:1 3:16.0886 
0.02053174475757574 1:9 2:17 3:4.467567 
0.04110249922063525 1:22 2:2 3:57.828329 
1 1:0 2:1 3:0.430807 
0.0152427341163156 1:16 2:3 3:3.789382 
0.0456079164541992 1:36 2:14 3:38.151645 
0.001499511100999461 1:8 2:3 3:3.31346 
1 1:0 2:1 3:0.567038 
0.03328742720788713 1:18 2:6 3:28.422144 
0.02055616907846907 1:32 2:11 3:33.521891 
0.04291561569933994 1:17 2:38 3:36.238095 
0.01967663440801281 1:24 2:5 3:42.047619 
0.00570728829224042 1:27 2:9 3:10.915293 
0.04170871949989002 1:13 2:50 3:7.577606 
0.00393917772288383 1:12 2:11 3:1.71183 
0.04675675919420796 1:33 2:51 3:56.714286 
0.02225935231892553 1:12 2:9 3:6.911889 
0.03524474591672391 1:8 2:17 3:1.473219 
0.02142527639259256 1:9 2:19 3:9.919987 
0.04378613454577907 1:5 2:8 3:16.23471 
0.01318504082082689 1:9 2:3 3:9.787287 
0.04716320305339267 1:10 2:48 3:10.166483 
0.002188826828646305 1:9 2:21 3:3.436556 
0.02694778558677285 1:0 2:9 3:12.328095 
0.04731738428277038 1:0 2:54 3:45.429424 
0.0008099959221121325 1:29 2:10 3:38.059438 
0.01695134560067327 1:16 2:7 3:4.825008 
0.007073428290947773 1:9 2:7 3:2.724236 
0.002096028737918559 1:8 2:4 3:4.00303 
0.04747768372395278 1:7 2:45 3:14.159315 
0.0179716262590205 1:11 2:25 3:4.122801 
0.01381349399844049 1:30 2:9 3:38.517892 
0.04577049660767019 1:4 2:11 3:10.91509 
1 1:0 2:1 3:0.581028 
0.02154121547450466 1:26 2:10 3:25.866908 
0.03449314370904139 1:27 2:12 3:25.636368 
0.01476888090902684 1:10 2:12 3:5.947008 
0.04508268505201934 1:20 2:1 3:19.769568 
0.01823128316491394 1:8 2:9 3:4.628909 
0.0473340514295737 1:21 2:79 3:28.388626 
0.04753375423023432 1:25 2:85 3:29.500434 
0.006423787934671299 1:6 2:8 3:2.785845 
1 1:0 2:6 3:1.210757 
0.04712224542767379 1:19 2:48 3:21.654624 
0.03273465879976589 1:25 2:5 3:38.972986 
0.003603619609561744 1:11 2:24 3:6.24447 
0.02447313891221453 1:7 2:19 3:11.246594 
0.01244293614268802 1:11 2:22 3:8.892602 
1 1:0 2:3 3:0.556113 
0.0451467119701256 1:0 2:4 3:34.44191 
1 1:0 2:13 3:0.48331 
0.03969949348755636 1:26 2:10 3:10.02256 
0.04667717820820788 1:30 2:41 3:22.361253 
0.03832648036714881 1:13 2:1 3:44.243446 
0.02223179484068982 1:8 2:6 3:7.32769 
0.006043687969042271 1:11 2:2 3:9.886772 
0.04557929957645772 1:18 2:2 3:32.11112 
0.04681340569841508 1:23 2:9 3:4.662303 
0.04702786583964869 1:30 2:50 3:59.022609 
1 1:0 2:1 3:0.478691 
0.0377758027210905 1:20 2:14 3:27.92048 
0.002761006169186731 1:10 2:7 3:3.574878 
0.04695472489528318 1:36 2:14 3:26.139312 
0.0138879165968443 1:10 2:17 3:7.7459 
0.03676217193678397 1:15 2:2 3:34.588169 
0.0199199947811978 1:5 2:21 3:3.756321 
0.04776798716200609 1:28 2:37 3:11.711131 
0.04741182583086956 1:31 2:8 3:59.857143 
0.03072092842172597 1:34 2:6 3:34.860489 
0.03081109127622167 1:16 2:19 3:9.083925 
0.01599863159405551 1:12 2:30 3:8.554588 
0.02287809870122364 1:30 2:9 3:33.439857 
0.03110108936798996 1:21 2:27 3:9.462361 
0.04666417987103511 1:12 2:35 3:11.273804 
0.0005720813469403119 1:9 2:2 3:9.764022 
0.03014271616226707 1:18 2:17 3:8.164821 
0.04009077225908286 1:21 2:24 3:12.722314 
1 1:0 2:1 3:0.528287 
0.04147719725978998 1:31 2:13 3:21.707362 
0.04357582907911989 1:18 2:39 3:33.52381 
0.04372723715888144 1:6 2:5 3:25.042817 
0.02303126705517922 1:20 2:7 3:35.656651 
0.04267166882781182 1:28 2:38 3:51.459932 
0.005874068852641066 1:21 2:5 3:14.659763 
0.02527901235697353 1:3 2:26 3:5.146743 
0.003346435926908034 1:11 2:21 3:10.606096 
0.04561519033977479 1:18 2:13 3:32.380952 
0.04136015826322387 1:26 2:4 3:21.524806 
0.02305555607325974 1:6 2:5 3:2.525536 
0.004044044230555231 1:11 2:6 3:1.439689 
0.04295489561302235 1:9 2:6 3:12.386364 
0.004524673362233784 1:17 2:10 3:16.999774 
0.02061149484080471 1:10 2:3 3:11.924021 
0.04565695905730816 1:26 2:22 3:8.073388 
0.01313486842414084 1:22 2:7 3:21.688094 
0.02393195074819897 1:0 2:1 3:21.072858 
1 1:0 2:2 3:0.627087 
1 1:0 2:6 3:0.475061 
1 1:0 2:6 3:0.475061 
0.02968987631150388 1:7 2:9 3:2.615835 
0.004804802539402148 1:12 2:1 3:4.883391 
0.007818115633899003 1:8 2:15 3:3.488112 
0.02826467347271533 1:17 2:10 3:17.734253 
0.001135254770755867 1:17 2:3 3:6.41177 
0.04700637912200195 1:4 2:28 3:14.543309 
0.00148223665472752 1:25 2:5 3:34.590093 
0.03514366362418969 1:21 2:5 3:13.251087 
0.01675662490910062 1:23 2:4 3:13.501851 
0.0430211739692134 1:23 2:5 3:46.136059 
0.04726591803644209 1:174 2:76 3:8.982531 
0.04672224981034534 1:3 2:8 3:29.307423 
0.005936307943211093 1:7 2:22 3:4.602486 
0.03279644624073998 1:10 2:1 3:2.003988 
0.03574172031843061 1:17 2:7 3:23.022121 
0.0243534269947111 1:0 2:1 3:17.956783 
0.04706185164199794 1:21 2:34 3:15.453742 
0.0279023210975542 1:12 2:3 3:17.821517 
0.002951319901779849 1:10 2:17 3:5.355342 
1 1:1 2:1 3:0.494528 
0.001270498204108794 1:7 2:6 3:5.169789 
0.009710784775773248 1:8 2:1 3:6.036069 
0.003166964419352049 1:11 2:4 3:9.301134 
0.01543485543463263 1:15 2:8 3:8.111851 
0.03653307908113433 1:39 2:10 3:46.78004 
0.02460055502482069 1:23 2:4 3:15.289638 
0.03853640958244442 1:27 2:11 3:34.133106 
0.04543825325023326 1:25 2:31 3:44.333333 
0.04700963226011035 1:17 2:22 3:47.85 
0.04273327145382513 1:29 2:35 3:43.047619 
0.01723206333653465 1:9 2:20 3:7.815029 
0.0117089110270053 1:19 2:6 3:7.446764 
0.013199611840959 1:14 2:10 3:8.508737 
0.03035581330937426 1:24 2:3 3:11.970888 
0.04297452066207349 1:17 2:16 3:16.781262 
0.04724738551367458 1:39 2:23 3:12.407413 
0.005249576221427967 1:15 2:5 3:10.0841 
0.03390592662612511 1:10 2:20 3:11.966125 
1 1:0 2:1 3:0.569068 
0.02176829177967708 1:3 2:1 3:5.243275 
1 1:1 2:6 3:0.911974 
0.04647539419118302 1:18 2:3 3:0.500595 
0.003483227098737313 1:6 2:1 3:4.317851 
0.03502583356097333 1:16 2:6 3:24.586729 
0.00129397528282934 1:17 2:5 3:4.979277 
0.008834101645269736 1:15 2:2 3:6.772095 
0.02170404972956758 1:10 2:10 3:6.82444 
0.04411533230166731 1:21 2:10 3:16.357584 
0.01501215915238438 1:12 2:24 3:7.633987 
1 1:0 2:1 3:0.502342 
0.03013410136669864 1:5 2:1 3:10.495411 
0.03946777969681436 1:27 2:18 3:24.843894 
0.03255372603509637 1:18 2:11 3:6.971692 
0.03100862919831288 1:21 2:39 3:42.380952 
0.03640259172947882 1:6 2:20 3:12.090681 
0.01996490004667922 1:12 2:21 3:8.122167 
0.01755802641714824 1:11 2:21 3:11.013334 
0.002153654003429761 1:18 2:8 3:5.366103 
0.03007716892916423 1:26 2:2 3:43.285714 
0.01585413459954755 1:11 2:12 3:10.275497 
0.04704053481041737 1:15 2:54 3:51.154788 
0.04000043906667722 1:34 2:7 3:39.037194 
0.04618164121546531 1:8 2:23 3:15.485315 
0.01063202140196424 1:16 2:18 3:6.848513 
0.002144964794173121 1:10 2:2 3:6.626565 
0.01350195165383566 1:34 2:14 3:34.228399 
0.004507197806341466 1:11 2:3 3:5.631909 
0.04694402626798666 1:19 2:47 3:31.247246 
1 1:4 2:1 3:0.573596 
0.03159275803054029 1:13 2:27 3:11.327263 
0.03017443222855731 1:3 2:14 3:6.28531 
0.0276128296957509 1:16 2:10 3:14.497416 
0.02188776005839571 1:4 2:5 3:5.816647 
0.02743285441311322 1:3 2:6 3:7.204376 
0.04429090215723797 1:36 2:30 3:39.158977 
0.04183379474007903 1:1 2:14 3:48.207343 
0.04720526408636588 1:0 2:3 3:83.328946 
0.0471560378060516 1:1 2:9 3:53.111843 
0.04243811555670901 1:7 2:14 3:19.904762 
0.04300458103149093 1:16 2:53 3:43.857143 
0.0428147358981612 1:10 2:31 3:3.958124 
0.01453780823140384 1:9 2:1 3:37.428571 
0.005203890835869857 1:12 2:3 3:7.335953 
0.02361126661156062 1:6 2:13 3:3.148532 
0.2668701295830379 1:0 2:5 3:1.230744 
0.03269343084153389 1:22 2:5 3:42.622893 
0.03043335772473094 1:22 2:35 3:28.559836 
0.01475201405889343 1:24 2:3 3:15.365925 
0.04257778386438543 1:31 2:19 3:9.922167 
0.03605642033971174 1:20 2:16 3:8.547315 
0.03109517905542615 1:26 2:41 3:40.809524 
1 1:0 2:1 3:0.604853 
0.03124988558984845 1:28 2:7 3:31.635215 
0.04715817378371495 1:30 2:17 3:18.529546 
0.04620273436023059 1:34 2:13 3:47.335258 
1 1:0 2:1 3:0.485349 
0.03886103088503456 1:22 2:1 3:27.8 
0.04595546195605177 1:30 2:18 3:27.088366 
0.0003343874794024316 1:10 2:4 3:3.700181 
0.04498037059736532 1:36 2:12 3:30.089827 
0.04663564745653492 1:23 2:51 3:30.714286 
0.01253956681688992 1:14 2:4 3:6.16566 
0.04724751243232378 1:0 2:20 3:30.468394 
0.04111921815056013 1:8 2:3 3:24.428571 
0.04196918725683113 1:30 2:20 3:7.817519 
0.03421530630907954 1:16 2:21 3:10.902098 
0.02098551904596288 1:24 2:5 3:33.412504 
0.04322194274224539 1:17 2:31 3:12.280588 
0.03575566372446676 1:29 2:13 3:23.122778 
0.0249516108488278 1:21 2:4 3:22.966834 
0.04453031600816711 1:12 2:9 3:36.904762 
0.01345915821452081 1:0 2:1 3:23.238095 
1 1:0 2:1 3:0.463664 
0.0163636270023399 1:11 2:16 3:5.84426 
0.02696680772711509 1:10 2:25 3:2.110344 
0.0427153784504844 1:13 2:6 3:25.650926 
0.03292979249236622 1:10 2:14 3:2.578609 
0.006038754672501626 1:13 2:4 3:2.416431 
0.02547062962984921 1:12 2:4 3:10.345937 
0.04273539920383185 1:6 2:37 3:10.479857 
0.01972136156273618 1:19 2:13 3:14.314052 
0.2657182055362374 1:0 2:24 3:1.832536 
0.02568217821327434 1:0 2:1 3:42.628918 
0.004667141352966586 1:1 2:3 3:22.345455 
0.02923008097231583 1:0 2:1 3:5.810522 
0.03884016624838099 1:0 2:1 3:46.164465 
0.04716960809000353 1:1 2:22 3:45.155279 
1 1:1 2:10 3:0.484857 
0.007884518175028702 1:1 2:3 3:14.115325 
0.02201440375708865 1:0 2:11 3:11.838501 
0.04033892410958739 1:21 2:50 3:15.299359 
0.01632813297623165 1:25 2:10 3:36.472558 
0.04708065556424579 1:18 2:15 3:38.65 
0.02338378344395813 1:32 2:12 3:27.581092 
0.00115130491831108 1:5 2:26 3:5.389449 
0.007536232860515302 1:4 2:48 3:0.789427 
0.0173372946180511 1:25 2:49 3:52.901626 
0.03808978138054286 1:0 2:26 3:6.632547 
0.03256949347324304 1:17 2:17 3:14.471315 
0.02573542937438516 1:27 2:6 3:28.067273 
0.007381167279524665 1:2 2:2 3:6.227755 
0.02996279862798729 1:3 2:2 3:20.057522 
1 1:0 2:11 3:0.764226 
1 1:0 2:4 3:1.057134 
0.03356202183583074 1:0 2:15 3:10.725955 
0.01288788521706075 1:1 2:10 3:5.754157 
0.02797807300116512 1:9 2:29 3:6.32233 
0.03365155334750559 1:6 2:10 3:6.785643 
0.0429109563373774 1:12 2:6 3:15.098025 
0.04496492057336948 1:23 2:1 3:32.809524 
0.04705239901666902 1:26 2:60 3:33.76619 
0.004089268507555632 1:27 2:7 3:32.532334 
0.03985155920513522 1:11 2:23 3:24.714286 
0.03938830655055764 1:8 2:12 3:11.490026 
0.003090229143491396 1:13 2:5 3:1.826781 
0.003177605022149102 1:12 2:15 3:5.669061 
0.02445667697065477 1:0 2:1 3:115.81881 
0.01852656180832757 1:15 2:29 3:12.619495 
0.02858058029789601 1:21 2:11 3:34.029312 
0.1714220367583904 1:0 2:36 3:2.97484 
0.03747704140495356 1:5 2:11 3:2.724741 
0.02816668415758028 1:23 2:7 3:25.730178 
0.01726632804618321 1:14 2:3 3:8.712853 
0.002438303468877723 1:14 2:6 3:8.106473 
0.03218971904624723 1:16 2:11 3:12.256201 
0.005491871813124744 1:14 2:18 3:6.499537 
0.0405250619378055 1:31 2:10 3:25.469223 
0.01531665410623233 1:13 2:3 3:2.505076 
0.04706672811125978 1:1 2:31 3:22.505493 
0.04689885368772567 1:1 2:1 3:63.324885 
1 1:0 2:1 3:0.493299 
0.02612731630982043 1:2 2:2 3:7.718948 
0.01320890045728141 1:6 2:22 3:2.83064 
0.01623107354292468 1:12 2:11 3:7.970104 
0.04157725054994638 1:17 2:28 3:11.800671 
0.0428525804418316 1:0 2:5 3:69.980861 
0.02003241650054394 1:6 2:28 3:4.894894 
0.01659309422660115 1:3 2:3 3:4.205931 
0.04733109003056085 1:1 2:163 3:2.026377 
0.01630462649283228 1:6 2:14 3:5.115276 
0.007535101084436958 1:7 2:4 3:3.708261 
0.01204096839070603 1:36 2:10 3:46.476008 
0.0437474899741515 1:9 2:33 3:10.637787 
0.04615136306789144 1:33 2:11 3:19.115745 
0.04015307513815458 1:22 2:10 3:37.641649 
0.005519912682013073 1:2 2:14 3:6.134426 
0.03785094444964071 1:17 2:50 3:41.761905 
0.04701366687709074 1:20 2:38 3:12.964708 
0.03593338957093106 1:30 2:4 3:29.591598 
0.03994621144057681 1:16 2:44 3:19.382998 
0.04671610503129692 1:17 2:54 3:33.904762 
0.04211582184907814 1:33 2:9 3:34.636096 
0.04402544099525502 1:26 2:9 3:13.691492 
0.03045133427836438 1:1 2:11 3:8.045478 
0.04724837385197034 1:7 2:6 3:44.077924 
0.04075842164456918 1:17 2:28 3:7.997952 
0.03207479354410801 1:17 2:25 3:9.663704 
0.00967520610652798 1:9 2:3 3:2.928346 
1 1:0 2:1 3:0.696265 
0.02390077546355913 1:15 2:4 3:2.658025 
0.01649276064870773 1:7 2:21 3:2.150174 
0.04050022830508618 1:17 2:1 3:36.144125 
0.01900865047175736 1:12 2:11 3:10.16514 
0.01946507171304573 1:5 2:23 3:5.537844 
0.04649613296683086 1:22 2:51 3:52.095238 
0.0006984014209982514 1:0 2:1 3:7.764342 
0.002023406181068629 1:0 2:1 3:21.455193 
0.02159130157676903 1:5 2:19 3:5.466027 
1 1:0 2:4 3:0.473525 
0.04746363090525663 1:0 2:38 3:18.400898 
0.02166108396861624 1:7 2:19 3:1.045093 
0.0006791444794375724 1:0 2:1 3:9.84059 
0.04172345955126494 1:21 2:1 3:41.571429 
1 1:0 2:1 3:0.421042 
0.04765838797859195 1:5 2:18 3:53.141393 
0.04705365247964644 1:13 2:58 3:35.809524 
0.006466560108972756 1:0 2:17 3:6.903528 
1 1:0 2:17 3:0.616135 
0.04058902126065261 1:18 2:6 3:38.428571 
0.01189352452755593 1:12 2:3 3:11.671767 
0.002901507943792625 1:8 2:1 3:2.254264 
0.002382790770920278 1:0 2:2 3:5.844237 
1 1:0 2:25 3:1.111539 
0.02963390194735821 1:2 2:9 3:14.244774 
0.04715796081888608 1:24 2:42 3:8.395394 
0.04206299041799 1:1 2:16 3:46.723862 
0.04708576848539675 1:7 2:27 3:25.290999 
0.01977303897429644 1:2 2:1 3:24.582339 
0.04746313746874437 1:8 2:33 3:16.799905 
0.00422624066189885 1:14 2:1 3:7.601509 
0.03948651759646776 1:15 2:27 3:1.738238 
0.04506251569833758 1:12 2:18 3:15.031628 
0.01009129725760993 1:8 2:27 3:6.246294 
0.01841373035717455 1:2 2:26 3:7.084191 
0.02426684759179509 1:24 2:9 3:41.81844 
0.04674404461251108 1:11 2:37 3:26.868352 
0.03391366506941018 1:0 2:20 3:5.905136 
1 1:0 2:1 3:0.583517 
0.01028867273934875 1:0 2:7 3:10.436237 
0.03868127745400089 1:0 2:7 3:20.223115 
0.0120108348751094 1:11 2:3 3:7.530483 
1 1:0 2:28 3:1.186334 
0.0316560139253626 1:0 2:1 3:25.418643 
0.008386235426556348 1:0 2:1 3:16.395609 
0.01764751020409111 1:0 2:4 3:5.788025 
0.006025579038986872 1:0 2:8 3:11.454567 
0.03630760450026214 1:0 2:10 3:15.460495 
0.01987190949561799 1:0 2:1 3:15.460495 
0.04059828054585318 1:3 2:13 3:36.871506 
0.01227500678792096 1:0 2:3 3:22.639857 
0.02680136805280434 1:0 2:6 3:7.754831 
0.04695944025780086 1:4 2:131 3:36.949266 
0.008216252838340821 1:0 2:1 3:77.160421 
0.01884123718765419 1:0 2:1 3:11.190415 
0.003497313380906937 1:0 2:1 3:19.373269 
0.04713773674910171 1:0 2:14 3:98.374194 
0.01833218095266253 1:0 2:2 3:98.374194 
0.001409546593524769 1:0 2:2 3:10.575653 
0.0233349916857426 1:0 2:1 3:37.529505 
0.01669992741621773 1:0 2:12 3:5.168381 
0.04702856827885588 1:0 2:1 3:72.2648 
0.04127595190718469 1:0 2:1 3:137.87707 
0.01856567256027919 1:0 2:1 3:37.064459 
0.03043398394958452 1:0 2:9 3:19.835793 
0.02660968723392415 1:1 2:4 3:22.783949 
1 1:0 2:1 3:0.655799 
0.208874351174766 1:2 2:16 3:1.55633 
0.03549699746247958 1:8 2:2 3:0.534415 
0.0007734676510821604 1:11 2:1 3:6.537025 
1 1:0 2:1 3:0.596446 
0.04175223748786505 1:17 2:8 3:0.583347 
1 1:0 2:1 3:0.72652 
0.03804903187912367 1:0 2:13 3:13.331688 
1 1:0 2:3 3:0.838462 
0.04536492907422904 1:8 2:7 3:16.273104 
1 1:0 2:1 3:0.649096 
0.0469249526058601 1:33 2:55 3:45.940844 
0.03054135835038399 1:21 2:8 3:29.621648 
0.006765746762304138 1:12 2:2 3:2.852911 
0.4702587377279542 1:1 2:10 3:0.971579 
1 1:0 2:1 3:0.522076 
1 1:0 2:2 3:0.569393 
1 1:0 2:1 3:0.644217 
0.0009858655020183482 1:3 2:15 3:6.081393 
0.04085110156274258 1:14 2:51 3:42.75969 
1 1:0 2:4 3:0.73672 
0.03131366498978472 1:10 2:1 3:39 
1 1:0 2:3 3:0.805721 
0.04753816990257509 1:22 2:36 3:24.898785 
0.03207160260147518 1:20 2:10 3:32.852485 
0.002832357006833062 1:11 2:17 3:6.600607 
0.02799897948885562 1:12 2:29 3:4.591153 
0.02681048695645408 1:24 2:13 3:28.82369 
0.03782957094273298 1:21 2:9 3:9.841868 
0.04732248159824776 1:17 2:8 3:55.907854 
1 1:0 2:1 3:0.48528 
0.04439235250786233 1:22 2:43 3:54.142857 
0.03867574094470015 1:6 2:35 3:37.2 
0.02660970776399775 1:24 2:12 3:26.218732 
0.03221413249927002 1:15 2:28 3:6.490084 
0.04697494842643141 1:48 2:47 3:63.113891 
0.03650959650883306 1:24 2:11 3:42.142857 
0.04442030738189617 1:5 2:11 3:17.720078 
0.0303871787975637 1:34 2:3 3:31.118714 
0.04455424479772707 1:40 2:4 3:43.8147 
1 1:0 2:1 3:0.514089 
0.02843780429402387 1:28 2:12 3:31.700875 
0.008799490632051488 1:24 2:1 3:46.703872 
0.03248042262790531 1:31 2:8 3:29.628489 
0.3580646486344555 1:0 2:1 3:0.748939 
0.00837102387779174 1:11 2:5 3:4.595824 
0.04700914457106797 1:33 2:31 3:42.54695 
0.003343934196127218 1:10 2:4 3:6.123219 
0.01203027969743801 1:14 2:27 3:3.632829 
0.01570871584622763 1:14 2:19 3:5.905068 
0.04546976141027831 1:31 2:16 3:42.247727 
0.03186784206106974 1:24 2:6 3:43.932674 
0.005598264459421989 1:12 2:17 3:7.611652 
0.04018433860595721 1:17 2:13 3:23.946988 
0.015795332507593 1:28 2:35 3:45 
0.02750226873828972 1:33 2:5 3:34.770776 
0.04501318984836061 1:26 2:21 3:11.1118 
0.03923947756332513 1:22 2:14 3:11.512839 
1 1:0 2:1 3:0.449315 
0.04426429915500396 1:13 2:7 3:35.026472 
0.04731666953040503 1:32 2:10 3:3.812912 
0.01142505214767615 1:0 2:8 3:9.929838 
0.0005898378455575805 1:15 2:23 3:7.503782 
0.03663503033725649 1:6 2:24 3:13.255906 
0.01497511995151565 1:12 2:25 3:7.955427 
0.03681358873296287 1:29 2:2 3:41.645604 
0.009265509909554381 1:8 2:25 3:4.409383 
0.02496109400996208 1:29 2:1 3:43.227639 
0.04715617070642114 1:13 2:34 3:27.280115 
0.04698021937899516 1:54 2:50958 3:65.138727 
0.1766239812080656 1:2 2:37 3:2.04605 
0.0228056177198953 1:18 2:23 3:12.507195 
0.04686604033655323 1:55 2:19 3:25.930088 
0.0290094704791886 1:0 2:40 3:11.418379 
0.02911852227724741 1:11 2:9 3:10.807755 
0.02538887626247962 1:13 2:2 3:18.718004 
0.03457127117342915 1:35 2:10 3:46.48088 
0.003502114336158741 1:0 2:5 3:5.123021 
0.04720686062800133 1:20 2:54 3:41.4 
0.03567998283759991 1:0 2:19 3:8.292631 
0.04414768810358766 1:27 2:32 3:46.666667 
0.02943239488767771 1:3 2:23 3:6.342742 
0.01685499572316125 1:26 2:9 3:35.697168 
0.04749366324035886 1:26 2:13 3:6.69227 
0.01972301780373031 1:22 2:35 3:29.363998 
0.04635029458585993 1:0 2:19 3:14.280904 
0.01565281088485295 1:8 2:4 3:5.818025 
0.01885589821830256 1:0 2:32 3:5.426305 
0.0161926136902601 1:12 2:6 3:6.709812 
0.02620403937980942 1:16 2:23 3:6.141123 
0.02988701426427515 1:19 2:9 3:5.665321 
0.02060570678367397 1:13 2:20 3:0.65898 
0.04544454831214206 1:26 2:45 3:46.65 
0.0313733410068992 1:18 2:9 3:2.751585 
0.03896412910329461 1:4 2:24 3:12.575401 
0.04378411196558646 1:16 2:1 3:38.730939 
0.2121475558873668 1:1 2:13 3:1.638246 
0.04689154997311001 1:25 2:42 3:1.047359 
0.01255664432996719 1:8 2:4 3:7.395375 
0.04728344670072127 1:28 2:29 3:32.019925 
0.04712938936456923 1:0 2:53 3:22.850656 
0.02367361756875969 1:0 2:3 3:28.465096 
0.00354423292438382 1:2 2:1 3:18.941137 
0.02404174014083205 1:16 2:21 3:6.714522 
0.03161649948908156 1:22 2:28 3:9.749003 
0.02050755987114727 1:10 2:22 3:3.687997 
0.03401400452430908 1:35 2:14 3:34.403975 
0.02771631436442551 1:30 2:5 3:36.227443 
0.0211757456537215 1:4 2:23 3:3.314285 
0.04739638030581428 1:40 2:45 3:10.708377 
0.03243054369726724 1:24 2:6 3:37.187961 
0.02591443437293959 1:25 2:2 3:29.223148 
0.005664659768889547 1:20 2:7 3:27.581475 
0.007068927529938056 1:11 2:4 3:3.946828 
0.02604375753154594 1:11 2:13 3:5.286855 
0.02645166618756921 1:14 2:51 3:36.127916 
0.04040999522778427 1:13 2:1 3:22.584435 
0.008862265822938154 1:18 2:3 3:7.543168 
0.01044314607910371 1:13 2:16 3:5.642641 
0.006415206827198724 1:15 2:9 3:8.877836 
0.02624717746286866 1:15 2:23 3:9.361783 
0.04727303823928913 1:29 2:26 3:0.685877 
0.0195249566595767 1:17 2:8 3:10.303462 
0.03590130291557534 1:20 2:5 3:27.482266 
0.005867481464809855 1:23 2:4 3:41.879137 
0.04686581783792448 1:16 2:48 3:48.422274 
0.01362208153572778 1:13 2:5 3:4.355651 
0.04714617555767298 1:15 2:49 3:21.736365 
0.03533207299234754 1:24 2:16 3:37.298307 
0.02982607759666239 1:14 2:28 3:13.76535 
0.00673216723854821 1:9 2:1 3:5.12868 
0.00801534314425297 1:7 2:26 3:6.060009 
0.03124982328116521 1:13 2:14 3:2.828633 
0.03203267413120351 1:10 2:27 3:9.44869 
0.02719806082590749 1:18 2:6 3:3.600598 
0.03017225740310542 1:32 2:13 3:27.96981 
0.01886625222146095 1:25 2:8 3:28.792565 
0.009986548746687356 1:11 2:21 3:9.750928 
0.003517515000040588 1:11 2:2 3:3.333807 
0.04715787352358641 1:14 2:25 3:22.618399 
0.04690158020493707 1:40 2:5 3:51.828614 
0.02437974987180921 1:5 2:7 3:3.031064 
0.044654768385882 1:28 2:17 3:42.065203 
0.00777204387978081 1:23 2:6 3:30.7981 
0.04730585737895715 1:12 2:53 3:20.647258 
0.04709803691084385 1:5 2:2 3:35.002615 
1 1:0 2:1 3:0.4225 
0.03527236510837051 1:24 2:9 3:39.809524 
0.04523333453115895 1:15 2:22 3:14.625736 
0.04082186409458155 1:2 2:13 3:34.521106 
0.02679624036918237 1:32 2:9 3:38.758131 
0.03144193453470639 1:19 2:3 3:22.479902 
0.02742013058148479 1:38 2:5 3:47.607016 
0.01526485186023524 1:7 2:24 3:4.446212 
0.04432156872769799 1:0 2:9 3:66.112878 
0.03439616109926241 1:3 2:3 3:12.197742 
0.0471603156894424 1:1 2:97 3:4.901322 
0.0349165593532571 1:5 2:1 3:29.411566 
0.03576124680136528 1:16 2:26 3:4.246446 
0.04649522339315021 1:11 2:1 3:32.608367 
0.04683032454384251 1:44 2:51 3:105.17818 
0.01778118085599637 1:6 2:8 3:5.749485 
0.02714003323199828 1:12 2:13 3:7.704891 
0.03349138183329756 1:14 2:18 3:3.787064 
0.06013367010567511 1:0 2:32 3:3.510512 
0.03884251222319896 1:15 2:50 3:40.356772 
0.04776456203644325 1:21 2:20 3:47.047619 
0.04703885825063081 1:26 2:12 3:47.061899 
0.001961856121070545 1:0 2:1 3:12.270163 
0.01216634084813184 1:2 2:20 3:1.978044 
0.04649908165934941 1:33 2:17 3:32.506267 
0.04769658562696749 1:31 2:1 3:63.428571 
0.006611479177655769 1:12 2:6 3:3.721599 
0.04713971265658073 1:1 2:30 3:37.142857 
0.006779912777258482 1:0 2:3 3:5.234942 
0.04707364934632907 1:31 2:25 3:38.983329 
0.02166981457688753 1:0 2:3 3:13.459109 
0.01819119986057566 1:10 2:24 3:9.446444 
1 1:0 2:13 3:0.969546 
0.0256750244466774 1:15 2:14 3:8.616469 
0.0128750035221527 1:2 2:5 3:6.498451 
0.03070969775789968 1:18 2:16 3:11.264498 
1 1:1 2:1 3:0.485412 
0.03246227907630351 1:6 2:13 3:6.807906 
0.02601192109928729 1:9 2:17 3:9.195031 
0.01440701807114299 1:0 2:3 3:8.149262 
0.04170354564629963 1:18 2:8 3:30.548336 
1 1:0 2:2 3:0.443017 
0.03405395092841768 1:26 2:5 3:13.387764 
0.02323257343274777 1:1 2:15 3:7.700091 
0.04209033761243375 1:6 2:1 3:20.064869 
1 1:0 2:2 3:0.691401 
0.04227399803796111 1:0 2:2 3:48.490765 
0.03432324834423445 1:0 2:4 3:67.139689 
0.04733493574384978 1:14 2:35 3:19.279294 
0.04604313477513877 1:12 2:31 3:0.773963 
0.016637198002877 1:6 2:3 3:3.739342 
0.02550014725785649 1:12 2:28 3:8.014469 
0.0005853164535501725 1:10 2:6 3:3.189863 
0.02087666545893516 1:17 2:9 3:4.110035 
0.04540352386446428 1:4 2:7 3:21.829086 
0.03171969483632882 1:14 2:21 3:1.922529 
0.0424182738275552 1:7 2:16 3:21.495474 
0.02430587668699995 1:19 2:24 3:10.929205 
0.004887573670146698 1:8 2:4 3:4.986707 
0.02094475791848248 1:27 2:6 3:37.423036 
0.03627487344988306 1:21 2:12 3:28.084352 
0.02204307508918674 1:8 2:19 3:3.612248 
0.01405006925917404 1:7 2:20 3:6.167341 
0.04200353212878133 1:15 2:37 3:34.333333 
0.03522307867775382 1:8 2:40 3:42.203666 
0.02765659957567994 1:14 2:1 3:11.837999 
0.01930793119337054 1:23 2:10 3:33.739342 
0.004992556456513096 1:6 2:19 3:4.712236 
0.04196088876919046 1:30 2:41 3:44.95 
0.01139579836657768 1:1 2:9 3:9.272136 
0.01416869895870998 1:18 2:13 3:13.529078 
0.04291948687467548 1:23 2:37 3:31.273643 
0.04683707507408291 1:20 2:4 3:51.590018 
0.0471679853634433 1:14 2:23 3:38.15 
0.0415732607627475 1:24 2:15 3:21.205971 
0.04170413533728368 1:19 2:6 3:42.213115 
0.03073009257480208 1:28 2:3 3:48.921788 
0.02731535628232998 1:3 2:3 3:25.74817 
0.04712930741254384 1:29 2:58 3:38.956059 
0.0461778077276403 1:11 2:27 3:26.828943 
0.04658996975635066 1:11 2:30 3:28.77209 
0.04439443568302084 1:4 2:5 3:19.415534 
1 1:0 2:4 3:0.475437 
0.03918526248170476 1:22 2:1 3:6.963395 
0.0332406230379796 1:1 2:1 3:39.751744 
0.002003948917752638 1:0 2:16 3:7.163996 
0.04732316520513546 1:3 2:74 3:25.70706 
0.02744524620854757 1:24 2:14 3:30.081615 
0.04761136698211071 1:13 2:13 3:45.375347 
0.01313262212976063 1:18 2:6 3:4.892476 
0.02498153020606475 1:8 2:15 3:5.820824 
0.04673964445789697 1:12 2:49 3:45.125608 
0.004512162302737099 1:8 2:2 3:6.610306 
0.04694023602507869 1:11 2:6 3:42.564945 
0.0239464508354777 1:15 2:1 3:13.531175 
0.04719806668206361 1:23 2:50 3:8.247881 
0.03084394994169548 1:13 2:30 3:13.73769 
0.04340656823685483 1:1 2:30 3:7.007777 
0.01332847463267195 1:3 2:21 3:2.311093 
0.04211562637623212 1:10 2:22 3:0.454093 
0.03476829946349018 1:17 2:8 3:19.652215 
0.04189439223822933 1:12 2:4 3:23.633254 
0.04617243686325317 1:23 2:30 3:28.463449 
0.03699647437755099 1:33 2:1 3:29.838491 
0.01007736497759004 1:10 2:6 3:4.849712 
0.03092438262254338 1:28 2:12 3:29.702828 
1 1:0 2:1 3:0.50443 
0.02912610443527755 1:8 2:7 3:1.143877 
1 1:0 2:1 3:0.660082 
0.004778239589665049 1:12 2:26 3:5.024656 
0.01315310118641394 1:25 2:3 3:29.892122 
0.01732352992024025 1:16 2:17 3:8.337797 
0.04765085645746958 1:28 2:46 3:40.969366 
0.04645247398684088 1:36 2:12 3:40.814895 
0.03634021012364688 1:27 2:10 3:39.789921 
0.03364135211295022 1:30 2:12 3:42.612427 
0.04716067403676261 1:37 2:16 3:52.012409 
0.02778739318338264 1:39 2:3 3:46.768552 
0.04701124442039895 1:16 2:32 3:6.017612 
0.0469817967339512 1:21 2:38 3:17.511035 
0.02044866972931025 1:27 2:7 3:36.070972 
0.02529756673178957 1:16 2:6 3:2.709265 
0.02581072163568054 1:6 2:25 3:7.719407 
0.03923387757486518 1:21 2:7 3:39.878199 
0.356252452057342 1:1 2:1 3:0.52021 
0.02703223862181646 1:28 2:4 3:33.076452 
0.01963618260133222 1:9 2:1 3:7.121994 
0.0468480475296153 1:11 2:7 3:31.869547 
0.01482443860757714 1:4 2:15 3:4.746658 
0.04779287723290709 1:48 2:10 3:46.279856 
0.03616804143606915 1:19 2:11 3:18.24388 
0.03125870503515904 1:32 2:4 3:32.287577 
0.04143257540176459 1:6 2:32 3:4.607148 
0.04681308727948852 1:29 2:30 3:43.588842 
0.04083233936252 1:10 2:6 3:22.455525 
0.01109016404271879 1:10 2:8 3:4.774326 
0.01977254130866968 1:22 2:9 3:34.761905 
0.04535461201112728 1:26 2:32 3:27.36869 
0.04586605048162998 1:25 2:41 3:45.041311 
0.006625634202303337 1:13 2:7 3:6.320675 
0.03234076910659267 1:29 2:4 3:36.844879 
0.02006839363658779 1:0 2:17 3:7.47117 
1 1:0 2:1 3:0.596087 
0.03391689821289734 1:22 2:4 3:24.135906 
0.03922607053174559 1:21 2:50 3:27.726469 
0.02016366169972794 1:16 2:11 3:9.373755 
1 1:0 2:1 3:0.553904 
0.04060027089944729 1:32 2:43 3:50.308014 
0.003772687077150933 1:15 2:7 3:7.208479 
0.009153359868994911 1:9 2:4 3:3.818946 
0.0143892020955112 1:6 2:26 3:3.768813 
0.02110557357881195 1:11 2:1 3:5.028539 
0.00796543126219254 1:13 2:20 3:4.625331 
0.04604812297138039 1:38 2:4 3:35.142611 
0.03339691678419626 1:13 2:16 3:2.206067 
0.03465104909665595 1:7 2:35 3:8.450772 
0.03042503411239548 1:22 2:8 3:26.527379 
1 1:0 2:1 3:0.453851 
0.01274066704511458 1:8 2:7 3:5.847528 
0.04162523103986332 1:3 2:18 3:12.632446 
0.04727959550974986 1:34 2:36 3:51.85 
0.04670844323408474 1:7 2:30 3:11.990589 
0.0473036828463429 1:21 2:44 3:14.534756 
0.03551610078579798 1:21 2:3 3:30.447036 
0.03218898894800998 1:21 2:13 3:14.651777 
0.03913235220596215 1:10 2:7 3:24.843986 
0.03614188427005488 1:28 2:18 3:30.051513 
0.01019130587269463 1:8 2:25 3:6.552002 
0.02136364241747644 1:15 2:26 3:7.150798 
1 1:0 2:1 3:0.437306 
0.03635192185295083 1:15 2:1 3:43.952381 
0.04664600665947821 1:20 2:1 3:49.419157 
0.01601447905261472 1:12 2:5 3:8.287004 
0.02974217621110036 1:32 2:10 3:42 
0.02736197321851135 1:24 2:41 3:40.619048 
0.03829621576384203 1:6 2:37 3:36.485649 
0.04539769496956373 1:16 2:55 3:46.208676 
0.03030348951341577 1:28 2:3 3:30.354901 
0.03648662085091895 1:2 2:12 3:31.48912 
0.03579004666598606 1:8 2:39 3:40.7 
0.02853862908105841 1:18 2:1 3:7.240264 
0.04665111201284439 1:19 2:20 3:15.065687 
0.04722476939616121 1:8 2:24 3:28.860227 
0.01743546846055833 1:13 2:26 3:6.150255 
0.01543768064168383 1:4 2:17 3:3.990804 
0.5504754261289525 1:1 2:27 3:1.097974 
0.00727624064647898 1:3 2:9 3:3.807303 
0.04568374344425569 1:30 2:8 3:50.590831 
0.04742704100651352 1:13 2:62 3:30.660448 
0.04556858823829329 1:12 2:37 3:33.238095 
0.011822902582068 1:13 2:14 3:5.440805 
0.00191647197423242 1:28 2:9 3:39.714286 
0.01710474518366417 1:6 2:1 3:9.4756 
1 1:0 2:1 3:0.521855 
0.02138928505562432 1:1 2:23 3:5.155748 
0.009392224668970814 1:10 2:26 3:7.415163 
0.02294756466151344 1:11 2:31 3:8.45676 
0.03452634476611681 1:13 2:6 3:1.041755 
0.01942506135266453 1:37 2:7 3:42.315308 
0.0469137497088532 1:12 2:21 3:21.455443 
0.04721707868895431 1:10 2:36 3:36.336924 
0.04690920130312509 1:18 2:17 3:42.091707 
0.03493991514900796 1:32 2:10 3:30.211304 
0.00216441506069656 1:9 2:25 3:4.628229 
0.04115013425452363 1:5 2:1 3:44.64966 
0.04032714076664584 1:31 2:45 3:49.619048 
0.005170875117556941 1:9 2:23 3:4.896017 
0.009160527306069614 1:23 2:2 3:42.190476 
0.04082125259225406 1:31 2:10 3:44.440275 
0.04685890612544696 1:32 2:56 3:49.457962 
0.0455051163447865 1:11 2:10 3:28.154291 
0.03463432500742541 1:24 2:10 3:28.439257 
0.001291087528448847 1:12 2:3 3:4.452006 
0.0007921964091473846 1:9 2:15 3:3.400292 
0.01503479237405898 1:0 2:1 3:13.372939 
1 1:0 2:11 3:0.994231 
1 1:0 2:11 3:0.994231 
1 1:0 2:12 3:0.994231 
1 1:0 2:8 3:0.878127 
0.03897412760923236 1:0 2:3 3:44.189563 
0.01313770501788379 1:0 2:4 3:8.049825 
0.01654418646577926 1:0 2:1 3:97.438632 
0.03030802206814349 1:0 2:6 3:12.40702 
1 1:0 2:29 3:0.799638 
0.03694439542492007 1:0 2:6 3:24.793202 
0.007815082510358054 1:0 2:1 3:12.40702 
1 1:0 2:1 3:0.648325 
0.01577359531600179 1:8 2:14 3:4.439405 
0.02068550533031704 1:3 2:1 3:11.157038 
0.03480378675717871 1:5 2:36 3:8.146448 
0.01108601120129643 1:20 2:40 3:41.75 
0.005684080588769443 1:16 2:5 3:8.646461 
0.007659389610521325 1:12 2:28 3:5.516548 
0.04277230745231153 1:18 2:9 3:39.61249 
0.01609134098299402 1:14 2:21 3:5.199133 
0.02918195345690931 1:17 2:4 3:13.53062 
0.0217584922805539 1:10 2:20 3:3.788438 
0.008255761121123468 1:13 2:1 3:6.704146 
0.03432547272744899 1:31 2:6 3:46.571429 
0.04705117903191663 1:60 2:4 3:44.804197 
0.04701750589378101 1:43 2:128 3:41.525563 
0.02903753130303506 1:1 2:40 3:10.752142 
0.04092944197744397 1:25 2:6 3:24.417266 
0.03893335364260722 1:31 2:1 3:43.628255 
0.01265796111566753 1:22 2:5 3:9.694837 
0.04713839800052294 1:30 2:16 3:1.320614 
0.02251187825877976 1:2 2:10 3:18.17847 
0.03249054444532928 1:1 2:5 3:27.351266 
0.01652192179244945 1:7 2:1 3:5.054553 
0.04725309187452253 1:3 2:445 3:0.570929 
0.03707130928259829 1:7 2:40 3:2.550318 
0.03816348263412273 1:3 2:2 3:43.957577 
0.04265735786032349 1:1 2:25 3:9.475196 
0.04256918048132269 1:2 2:8 3:38.164812 
0.04686243402370061 1:43 2:2 3:54.45 
0.0006710073082821233 1:14 2:5 3:2.94968 
0.04712674856156673 1:17 2:6 3:73.784014 
0.007393586306646123 1:16 2:22 3:7.368598 
0.04693020171056722 1:35 2:40 3:50.65 
0.0287292670079621 1:22 2:3 3:28.265654 
0.03465349335393501 1:27 2:8 3:11.315547 
0.007618260250078859 1:10 2:4 3:6.29839 
0.04458167865500878 1:18 2:1 3:42.333333 
0.0470219155778917 1:10 2:45 3:29.285714 
0.0476949823360463 1:33 2:28 3:31.543889 
0.01023926871786878 1:18 2:5 3:8.25808 
0.02909292957193725 1:9 2:27 3:4.452477 
0.03204079540587572 1:30 2:12 3:32.603105 
0.0144448798621184 1:9 2:1 3:4.074309 
0.009171267021728191 1:25 2:8 3:29.553063 
0.03233542350816673 1:17 2:13 3:9.479238 
0.01790220245313134 1:3 2:6 3:4.488013 
0.04057613648861696 1:14 2:32 3:11.079209 
0.02202488208890745 1:30 2:10 3:29.351982 
0.04718629894321952 1:24 2:42 3:29.069071 
0.01544278225764216 1:5 2:26 3:4.478643 
0.01010860679539636 1:8 2:14 3:1.977429 
0.02023249757554721 1:16 2:1 3:7.537954 
0.03467871207066443 1:34 2:8 3:42.238095 
0.0122613824899292 1:5 2:8 3:4.579146 
0.01350410248369355 1:28 2:18 3:31.569454 
0.03412723620827957 1:26 2:4 3:43.595118 
0.04040795672430747 1:12 2:23 3:26.800384 
0.04705572802567193 1:8 2:20 3:25.45 
0.01962860242297315 1:14 2:17 3:7.588039 
0.04710911967341523 1:24 2:17 3:32.945181 
0.04646404889837435 1:8 2:3 3:31.914001 
0.04747197720805274 1:44 2:7 3:52.918073 
0.009266107177556255 1:15 2:24 3:9.260128 
0.02759643160464676 1:13 2:9 3:10.182343 
0.04120016483229644 1:21 2:6 3:15.994313 
0.04723268241036693 1:23 2:4 3:87.987649 
0.02414738749044504 1:8 2:4 3:9.472724 
0.03447411542172232 1:30 2:6 3:45.172405 
0.01532611559556185 1:16 2:4 3:5.342815 
0.02910679463380782 1:11 2:1 3:11.284745 
0.002760923817797222 1:14 2:5 3:5.345344 
0.03195747046152094 1:25 2:4 3:34.844469 
0.04144461444444747 1:4 2:16 3:11.170322 
0.3211920918720499 1:3 2:1 3:0.538738 
0.0428139120049647 1:28 2:5 3:24.572718 
0.03579539759136408 1:12 2:28 3:2.509064 
0.03971432857490754 1:18 2:4 3:24.831618 
0.04728866474751969 1:29 2:50 3:43.25 
0.01174632082906284 1:0 2:5 3:6.248523 
0.01307329927505457 1:15 2:6 3:5.887874 
0.01263875390935193 1:14 2:14 3:5.950024 
0.0301668234408114 1:25 2:14 3:25.101584 
0.02208914158428427 1:13 2:15 3:8.047173 
0.001651599825618525 1:13 2:7 3:3.96016 
0.03314120003804299 1:14 2:19 3:12.933038 
0.04722789164573366 1:0 2:42 3:38.47619 
0.01934517379123296 1:17 2:10 3:8.659567 
0.01177604489141621 1:25 2:7 3:35.683737 
0.04573792205951499 1:15 2:43 3:33.644141 
0.03266770579680448 1:0 2:5 3:14.511357 
0.04074851757436626 1:4 2:14 3:15.87386 
0.02669593733959316 1:29 2:7 3:28.045654 
0.001032766607399871 1:14 2:5 3:5.752677 
0.03951406733207491 1:26 2:51 3:53 
0.04237762262516115 1:29 2:7 3:19.397065 
0.4077184828251476 1:0 2:22 3:2.169671 
0.03453583225629137 1:19 2:8 3:27.469097 
0.007813143369656748 1:4 2:2 3:5.790205 
0.03145519513136046 1:27 2:10 3:23.212774 
0.02111440209299591 1:0 2:5 3:10.285455 
0.04726780650642792 1:47 2:121 3:5.598595 
0.04435462407320268 1:0 2:1 3:55.034338 
0.02501444345733674 1:0 2:64 3:1.474004 
0.02633166310076555 1:0 2:64 3:0.750246 
0.04732205304350412 1:0 2:110 3:6.287626 
0.04713208238725375 1:59 2:38 3:52.429253 
0.01198703718305034 1:0 2:4 3:25.995592 
0.02930773376717105 1:1 2:9 3:5.714286 
0.0397795529419826 1:27 2:37 3:53.52381 
0.007004911332499641 1:16 2:18 3:13.090203 
0.0191649684413749 1:28 2:6 3:26.906896 
0.0004133812869397495 1:15 2:3 3:7.9304 
0.03141149021661621 1:25 2:1 3:45.869234 
0.0469713100397528 1:25 2:46 3:1.225093 
0.02944010006971045 1:18 2:10 3:12.27417 
1 1:0 2:1 3:0.430645 
0.03855213609368802 1:29 2:12 3:38.691251 
0.04728259180199573 1:0 2:44 3:14.316974 
0.007122524847069493 1:11 2:20 3:5.389035 
0.021997897299665 1:28 2:5 3:30.037521 
0.02124088764637092 1:18 2:4 3:10.104935 
0.02750398944042201 1:12 2:3 3:19.653736 
0.0005263402047800778 1:11 2:5 3:5.989796 
0.003761617465932673 1:18 2:7 3:20.160539 
0.0240870402834577 1:6 2:17 3:5.666772 
0.01608315050335892 1:23 2:9 3:32.640903 
0.01402442414081709 1:19 2:7 3:12.50908 
1 1:0 2:1 3:0.437272 
0.0008245156339734457 1:11 2:1 3:6.153843 
0.0167843368578036 1:14 2:22 3:4.074789 
0.02179096630929635 1:24 2:8 3:30.905296 
0.04353071882085358 1:16 2:38 3:4.791826 
0.03137165496758504 1:24 2:6 3:28.660465 
0.02674188415788096 1:14 2:51 3:37.047619 
0.02588489602420463 1:14 2:21 3:7.88243 
0.03012335618258611 1:29 2:10 3:36.862083 
0.02483971678502308 1:19 2:8 3:12.908365 
0.04706516537502731 1:43 2:12 3:46.511594 
0.04539448703082849 1:27 2:34 3:54.017101 
0.04358401821341978 1:22 2:9 3:43.735893 
0.04422608152876945 1:38 2:6 3:40.212509 
0.02514880759065151 1:37 2:7 3:43.191733 
0.04597491790129588 1:25 2:33 3:33.16875 
0.03668650384105965 1:37 2:9 3:44.741092 
0.009963320462032545 1:12 2:7 3:5.036203 
0.01506198902588566 1:5 2:15 3:2.160319 
0.03637883569267392 1:20 2:7 3:20.518597 
0.04427486821268517 1:21 2:16 3:30.679591 
0.01683139197266932 1:18 2:7 3:20.633462 
0.04120946460988362 1:8 2:2 3:21.710593 
0.03293497420534162 1:23 2:13 3:13.37501 
0.04714413097553022 1:2 2:38 3:39.285714 
0.04748153071266364 1:39 2:16 3:35.050739 
0.02579905048293046 1:0 2:12 3:6.546201 
0.040500550518326 1:13 2:9 3:13.596594 
0.04688252795684233 1:17 2:16 3:28.549442 
0.007310708588212075 1:14 2:6 3:3.959686 
0.02874592000533339 1:14 2:26 3:9.392746 
0.007571305704386479 1:13 2:26 3:3.727242 
0.02747674826603476 1:8 2:11 3:5.625337 
0.001565229394161538 1:16 2:3 3:9.068893 
0.02646615884595138 1:16 2:3 3:11.235105 
0.04166912742958201 1:19 2:48 3:42.328632 
0.03629679921965967 1:28 2:5 3:20.423771 
0.02380365286233538 1:18 2:4 3:6.16138 
0.008642282439919434 1:11 2:1 3:7.323911 
0.00528510965435222 1:10 2:21 3:6.345854 
0.04716786284505464 1:26 2:34 3:39.333333 
0.01901558105563926 1:5 2:1 3:5.36198 
0.046218446412712 1:38 2:1 3:33.665804 
0.004111750297170591 1:10 2:24 3:2.730395 
0.002885307331587726 1:12 2:27 3:4.627463 
0.03239726422061036 1:7 2:14 3:1.100376 
0.02000398492361653 1:6 2:16 3:3.438469 
0.01005219581240787 1:17 2:6 3:7.424937 
0.0469307748060549 1:21 2:54 3:49.122572 
0.02149946094925803 1:24 2:6 3:31.05279 
0.008375017026375331 1:8 2:6 3:3.142103 
0.005114238870724664 1:15 2:4 3:6.927277 
0.01203753470545315 1:18 2:24 3:10.27256 
0.04662378734503869 1:23 2:19 3:28.141615 
0.01724586948726729 1:21 2:3 3:10.253292 
0.02386604480520672 1:15 2:1 3:9.810476 
0.1161339689955113 1:0 2:19 3:2.169236 
0.0458504271671169 1:22 2:42 3:36.52381 
0.03785719665473419 1:1 2:13 3:29.999114 
0.03055686371600425 1:19 2:40 3:43.328232 
0.03058042762493879 1:4 2:2 3:26.634894 
0.03302265974401087 1:21 2:10 3:21.531943 
0.00270317028165936 1:9 2:4 3:2.293816 
0.02848801061352318 1:22 2:7 3:9.371627 
0.0266947237683497 1:27 2:7 3:33.451667 
0.03761735800819638 1:30 2:6 3:39.930695 
0.01087910478561793 1:3 2:15 3:4.455593 
0.01576916290051983 1:10 2:6 3:6.471717 
0.04217302348380741 1:22 2:36 3:39.333333 
0.03972452960840822 1:15 2:1 3:25.50753 
0.01936583571852892 1:31 2:8 3:38.094607 
0.04662286060719395 1:17 2:43 3:38.830698 
0.02766619470520322 1:25 2:41 3:39.21416 
0.02774281552615852 1:16 2:11 3:5.716733 
0.02515356605508347 1:16 2:19 3:11.604526 
0.01652233925937616 1:9 2:13 3:7.810224 
1 1:0 2:1 3:0.638352 
0.01072976225617434 1:4 2:14 3:2.244517 
0.04721178272304832 1:44 2:5 3:42.484474 
0.007566296832919459 1:19 2:7 3:6.570175 
0.01053810326337203 1:8 2:26 3:7.25423 
0.02555175098861674 1:18 2:2 3:4.510928 
0.03681879573878329 1:14 2:25 3:12.141318 
0.04702167507064314 1:25 2:29 3:48.904762 
0.01525360762294685 1:32 2:12 3:33.521266 
0.02155142860138308 1:9 2:23 3:7.380832 
0.04712439335579749 1:22 2:34 3:11.492315 
0.00729502671553146 1:21 2:2 3:7.390734 
0.04714121083153405 1:53 2:93 3:41.514908 
0.04720776819505212 1:42 2:26 3:2.633514 
0.04715922764181041 1:2 2:494 3:0.525389 
0.04777607756387658 1:17 2:1154 3:2.488036 
0.04700880580175806 1:10 2:11 3:18.823487 
1 1:0 2:1 3:0.519433 
0.01201508581041184 1:12 2:22 3:4.399593 
0.04027588310613989 1:16 2:42 3:18.279629 
0.01243947301884499 1:9 2:25 3:2.314367 
0.02486707449595527 1:13 2:30 3:11.859437 
0.0471420409930724 1:3 2:21 3:16.571429 
0.04159847387915405 1:14 2:48 3:8.695794 
0.008726760208773015 1:17 2:2 3:8.387611 
0.02115667078385572 1:22 2:8 3:32.272605 
0.02779988833851179 1:12 2:31 3:7.229144 
0.04433197584262344 1:27 2:24 3:18.166017 
0.04715623748458914 1:8 2:13 3:27.8 
0.0200374888210867 1:10 2:12 3:10.912917 
0.0430513175692151 1:12 2:23 3:13.397526 
0.04692887033764082 1:29 2:44 3:24.633429 
0.01787672023484484 1:23 2:3 3:9.164607 
1 1:0 2:1 3:0.508064 
0.007207260714905942 1:8 2:7 3:4.372742 
0.04627397284692092 1:19 2:49 3:46.142857 
1 1:0 2:3 3:0.686575 
0.008029617772376374 1:2 2:10 3:19.00494 
0.04683487819929244 1:29 2:22 3:32.313827 
0.03001835357865339 1:24 2:11 3:36.244338 
0.03167925347103207 1:29 2:3 3:49.916717 
0.02331501614288419 1:8 2:5 3:1.091422 
0.03285872712801385 1:30 2:13 3:40.905871 
1 1:0 2:1 3:0.478595 
0.03441030528827621 1:4 2:28 3:0.685149 
0.003860002362193296 1:8 2:24 3:5.026642 
0.01658062273657063 1:17 2:5 3:13.278641 
0.03445892129232413 1:32 2:6 3:31.86605 
0.02555993047206412 1:20 2:7 3:34.289591 
0.03195706706300858 1:8 2:1 3:37.714286 
0.03435158805520164 1:12 2:1 3:13.87618 
0.02100848439345232 1:14 2:24 3:6.93927 
0.005196375672773176 1:4 2:24 3:5.646678 
0.005078252712122448 1:10 2:18 3:6.953053 
0.001398514213733548 1:21 2:6 3:7.297256 
0.03094753635979652 1:26 2:20 3:15.137665 
0.01568359766851388 1:12 2:19 3:4.88067 
0.007953675726960244 1:16 2:8 3:10.802882 
0.04616174439732096 1:23 2:46 3:46.190476 
0.00981990348839777 1:16 2:6 3:7.999991 
0.04706722273091385 1:30 2:41 3:60.333333 
0.02604902577989801 1:7 2:1 3:2.826393 
0.04108115353740205 1:23 2:49 3:14.663026 
0.009973831571347909 1:33 2:9 3:42.606942 
0.02584707418431111 1:0 2:1 3:115.19406 
0.002681543034268818 1:0 2:1 3:7.389876 
0.03328034735714913 1:0 2:1 3:32.336999 
0.04230141166387175 1:0 2:10 3:35.051488 
0.04707013427639412 1:0 2:1 3:127.29651 
0.03319555953721743 1:0 2:2 3:96.478766 
0.02804850085995435 1:11 2:4 3:12.940596 
0.02612563651392997 1:14 2:1 3:5.323052 
0.03511299082942369 1:24 2:17 3:38.809524 
1 1:0 2:1 3:0.523713 
0.04345358290986301 1:15 2:40 3:32.6 
0.04732869306515164 1:7 2:51 3:45.85 
0.004154285664312462 1:0 2:28 3:4.526656 
0.03161436893522668 1:3 2:1 3:17.791331 
0.01584196389868462 1:9 2:9 3:10.378578 
0.01095101851204573 1:19 2:16 3:10.487718 
0.03816467380114508 1:0 2:2 3:66.743691 
0.04764364930744969 1:21 2:14 3:59.95733 
1 1:0 2:1 3:0.46754 
0.01302519870804349 1:1 2:3 3:27.850765 
0.04580969721705158 1:22 2:32 3:31.380285 
1 1:0 2:1 3:0.41311 
0.03207368945895252 1:15 2:6 3:10.940137 
0.03580938700388819 1:12 2:17 3:9.42564 
0.04334177286025231 1:26 2:37 3:43.985506 
0.01405814674003288 1:14 2:7 3:7.929811 
0.04729986053437107 1:40 2:10 3:54.406011 
0.04089752062290219 1:7 2:30 3:2.811389 
0.04659090083482559 1:0 2:8 3:62.820381 
0.0473302575898692 1:26 2:45 3:33.394852 
0.04034642581651937 1:27 2:20 3:23.710968 
0.02390954830841528 1:26 2:4 3:32.372702 
0.02245205388396126 1:18 2:8 3:7.190731 
0.04361131190762957 1:17 2:36 3:3.140577 
0.04017663525207033 1:26 2:15 3:29.296243 
1 1:1 2:1 3:0.486235 
0.006248303137492537 1:11 2:28 3:7.281311 
0.04723222772699037 1:12 2:60 3:45 
0.03394396255698053 1:39 2:8 3:47.686334 
0.02364315178582355 1:1 2:14 3:9.69037 
0.01158563477149247 1:8 2:22 3:5.309995 
0.02970819061275087 1:15 2:17 3:13.323962 
0.3411583530912479 1:0 2:52 3:2.224872 
1 1:0 2:17 3:0.739275 
0.009698977008861531 1:2 2:21 3:4.568727 
0.01867982846578716 1:1 2:13 3:11.516985 
0.03627727012032247 1:3 2:1 3:22.984716 
0.0416540092811043 1:1 2:7 3:68.106353 
0.02924005814240918 1:1 2:1 3:30.417867 
0.007522229668901748 1:0 2:2 3:18.993558 
0.00896101761620488 1:2 2:25 3:5.92526 
0.0429018980115134 1:1 2:22 3:8.823278 
1 1:0 2:1 3:0.522775 
0.04607400642143128 1:28 2:33 3:25.055198 
0.03559989867423191 1:0 2:1 3:34.586145 
0.04342522710968316 1:23 2:11 3:9.195686 
0.02692568027311865 1:20 2:6 3:31.692294 
0.04712760513982772 1:9 2:43 3:24.686662 
0.179990313497775 1:0 2:30 3:2.225165 
0.04544878227905957 1:34 2:9 3:22.530285 
0.04427869285160813 1:26 2:1 3:14.681025 
0.01636694950745254 1:2 2:19 3:6.109025 
0.0329091175689125 1:27 2:6 3:39.785493 
0.02358351777387169 1:24 2:8 3:35.659833 
0.04671008119176084 1:21 2:22 3:29.141112 
0.02601472876081143 1:20 2:2 3:8.343445 
0.04465895900137362 1:24 2:39 3:33.238095 
0.04760212144463266 1:26 2:22 3:54.398998 
0.02875621037153019 1:17 2:9 3:15.574228 
0.0229182615590296 1:6 2:6 3:6.199493 
0.04561694214764683 1:20 2:12 3:50.040901 
1 1:0 2:2 3:0.475337 
1 1:0 2:1 3:0.518854 
0.04388607531476364 1:10 2:10 3:25.129812 
0.003850328452759152 1:14 2:3 3:6.523835 
0.02953649329972815 1:23 2:4 3:7.955052 
0.04794679877506536 1:0 2:40 3:4.874544 
0.04707535985120626 1:20 2:20 3:1.310862 
0.01376649954975845 1:7 2:29 3:5.509246 
0.04692007650001589 1:31 2:37 3:23.709271 
0.04575040136795117 1:42 2:8 3:46.031844 
0.02142107053004455 1:13 2:1 3:3.148928 
0.002748060357061057 1:18 2:6 3:7.788853 
0.02878051509867009 1:25 2:20 3:14.288644 
0.01848002024653426 1:11 2:4 3:2.09208 
0.0231353684986807 1:23 2:8 3:22.080422 
0.04182221451962714 1:21 2:36 3:37.047619 
0.01432567294101354 1:10 2:24 3:5.595909 
0.03962233461517528 1:14 2:8 3:15.907206 
0.02571167386544888 1:2 2:17 3:6.039212 
0.04737071169391527 1:13 2:15 3:30.339249 
0.04541350532100041 1:36 2:2 3:49.017522 
0.02193476329608801 1:1 2:11 3:10.371573 
0.03254391206120177 1:2 2:1 3:14.077022 
0.01183532437809703 1:0 2:1 3:9.022504 
0.04625879702593239 1:26 2:36 3:34.984833 
1 1:0 2:1 3:0.720578 
1 1:0 2:1 3:0.411562 
0.04574334880463649 1:24 2:14 3:40.9 
0.04025481547389061 1:12 2:11 3:0.669724 
0.006971701999369695 1:3 2:1 3:19.298758 
1 1:0 2:8 3:0.450569 
0.03272665975936237 1:5 2:18 3:0.765728 
0.0083362738674112 1:0 2:2 3:16.148312 
0.01121259089780908 1:0 2:1 3:22.93766 
0.02459318688084869 1:12 2:20 3:1.212851 
0.0286122797055618 1:0 2:1 3:28.876807 
0.04714460916720031 1:10 2:43 3:39.15 
0.01770303096544256 1:14 2:8 3:4.939578 
0.0168870307651726 1:26 2:10 3:26.886109 
1 1:1 2:1 3:0.456143 
0.03087208981732334 1:25 2:5 3:11.586804 
0.0473269407261217 1:12 2:2 3:53.657592 
0.04733937925669424 1:1 2:32 3:31.242968 
0.03082734544674837 1:27 2:35 3:45.52381 
0.02463702298271802 1:8 2:1 3:9.101734 
0.01225325925183813 1:29 2:9 3:33.482499 
0.04565845839131538 1:21 2:37 3:44.811727 
0.02820932984042081 1:8 2:8 3:9.694771 
0.01744628917217694 1:32 2:7 3:40.281929 
0.02186687411450117 1:18 2:14 3:13.500377 
0.01900225366086346 1:12 2:1 3:7.817519 
0.02061210137237928 1:24 2:12 3:24.066885 
0.04729946099270743 1:25 2:280 3:1.882709 
0.007033885645217117 1:1 2:1 3:8.986625 
0.04573293558057911 1:26 2:15 3:44.048292 
0.01269149563800152 1:9 2:20 3:5.568175 
0.002340728443003654 1:16 2:2 3:4.661816 
0.002943882383137972 1:10 2:11 3:7.847633 
0.0224485689099207 1:33 2:3 3:29.131545 
0.01965493140175417 1:22 2:14 3:21.142182 
0.03023732894177325 1:24 2:1 3:41.855073 
0.01513175609698431 1:11 2:22 3:5.987472 
1 1:0 2:1 3:0.570747 
0.04711087132745917 1:28 2:19 3:37.25 
0.02641921185934926 1:16 2:17 3:5.907537 
0.03355167786625795 1:21 2:11 3:23.655095 
0.04452956990390022 1:34 2:28 3:39.930695 
1 1:0 2:1 3:0.734699 
0.002628814070397026 1:9 2:3 3:4.562354 
1 1:0 2:1 3:0.420425 
0.04618459043454276 1:35 2:7 3:30.305985 
0.03483641549307569 1:4 2:28 3:7.150461 
0.04566474429276385 1:20 2:15 3:49.0964 
0.0471632291219779 1:33 2:7 3:66.92019 
0.03649353265515047 1:8 2:41 3:1.087555 
0.04709289463869964 1:18 2:34 3:33.75 
0.02564661136700285 1:11 2:7 3:2.312335 
0.009896575825525214 1:13 2:3 3:4.553872 
0.003517194266750102 1:6 2:10 3:6.06746 
0.0148617885423486 1:21 2:5 3:7.764316 
0.04139783132892955 1:4 2:41 3:36.295316 
0.04536475818186925 1:35 2:12 3:22.100483 
0.04102299901669978 1:13 2:2 3:35.790576 
0.01081294624904051 1:7 2:18 3:5.864674 
0.02515038741367 1:28 2:8 3:38.143199 
0.002076234539664903 1:1 2:5 3:5.011531 
0.04709167524131584 1:23 2:4 3:3.787766 
0.01600954753565307 1:9 2:26 3:8.56968 
0.01038056256038825 1:16 2:4 3:8.370117 
0.006532592461134051 1:10 2:3 3:4.654348 
0.03967459912133214 1:19 2:49 3:27.829413 
0.04470483709208256 1:22 2:42 3:56.879632 
0.0307730592710647 1:7 2:30 3:7.217301 
0.04395333653268879 1:18 2:22 3:4.623554 
0.02025210728189936 1:19 2:39 3:42.1 
0.02629154493096247 1:23 2:11 3:23.002954 
0.02193660420173184 1:25 2:49 3:53.117895 
0.0406734833797017 1:26 2:4 3:16.11931 
0.0414375741067081 1:12 2:2 3:39.661563 
0.009731735266415291 1:1 2:7 3:8.866412 
0.004897963421702524 1:0 2:9 3:10.799942 
0.03736278028373563 1:29 2:17 3:32.245695 
0.002269673691807662 1:0 2:1 3:7.451799 
1 1:0 2:1 3:0.486897 
0.03686013429458057 1:23 2:1 3:44.8 
0.04715895150762195 1:14 2:10 3:50.067326 
0.0386155979090276 1:28 2:2 3:33.654612 
0.03296561758165609 1:29 2:9 3:26.271132 
0.03757168895138596 1:13 2:11 3:3.802561 
0.006403752879752851 1:10 2:22 3:7.330131 
0.007900867892536106 1:12 2:3 3:5.800962 
0.02894301260555082 1:21 2:7 3:7.273766 
0.0236079948752303 1:39 2:5 3:46.370336 
0.001121669705909578 1:9 2:7 3:3.554458 
0.01387937720509312 1:14 2:1 3:8.695496 
0.03432354686790123 1:39 2:3 3:48.837123 
0.04558433114045934 1:6 2:13 3:37.55 
0.02312477269197319 1:8 2:13 3:8.210216 
0.0138763609494607 1:32 2:8 3:41.042635 
0.0457006105632986 1:22 2:15 3:6.318803 
0.007937561228950875 1:11 2:18 3:5.995844 
0.003274187686172561 1:7 2:6 3:3.644017 
0.004158513128512203 1:14 2:9 3:7.211492 
0.00960740148927574 1:5 2:25 3:7.349839 
0.0296924731830092 1:11 2:24 3:10.489018 
0.01149148697489305 1:22 2:7 3:29.876639 
0.01272313723276865 1:17 2:5 3:11.485132 
0.04733119879127762 1:0 2:1 3:91.461639 
0.04703469320909842 1:19 2:51 3:4.7969 
1 1:0 2:1 3:0.538491 
0.04635733573401809 1:32 2:39 3:48.761905 
0.04461464599376832 1:2 2:34 3:6.156179 
0.01229840428653339 1:33 2:13 3:33.082107 
0.04700390944075716 1:33 2:4 3:50.75 
0.01868471936857565 1:22 2:3 3:10.862259 
0.003778987532129881 1:13 2:8 3:6.237694 
0.02934990418096626 1:28 2:10 3:28.76148 
0.03274467833208722 1:34 2:13 3:31.884595 
0.03298335769839922 1:30 2:7 3:34.241269 
0.01124456548706818 1:8 2:9 3:9.546132 
0.02912066311337515 1:1 2:11 3:18.955713 
0.02837872203101779 1:14 2:1 3:14.750093 
0.04706263229649449 1:25 2:52 3:35.868783 
0.02017406479582992 1:3 2:19 3:5.261489 
0.04733383462267027 1:38 2:67 3:4.025703 
0.03348292059023432 1:28 2:8 3:42.047619 
0.04703415683569534 1:24 2:48 3:35.936365 
0.04173712403696916 1:4 2:42 3:34.047619 
0.0281052125284115 1:2 2:8 3:9.64163 
0.02728229327315069 1:28 2:11 3:22.414451 
0.02360452575483427 1:29 2:9 3:41.281846 
0.02239871625776058 1:9 2:11 3:8.777777 
1 1:0 2:1 3:0.612818 
0.0390300221153787 1:21 2:13 3:30.836651 
0.006445801805031647 1:5 2:26 3:7.063941 
0.01715549476720308 1:11 2:19 3:7.924708 
0.00472681573580332 1:5 2:17 3:2.650067 
0.01788514911777934 1:0 2:2 3:19.808395 
0.04110679266025019 1:0 2:1 3:100.16583 
0.03021760031486581 1:19 2:14 3:11.00875 
0.01571053275025047 1:8 2:20 3:1.77986 
0.04694989751837175 1:83 2:240 3:5.246448 
0.04731369042773792 1:1270 2:15961 3:147.9 
0.04720326949819104 1:18 2:14 3:3.327638 
0.04716071864976062 1:1 2:45 3:6.982137 
0.006956558399156428 1:5 2:2 3:5.867296 
0.04732240465771437 1:71 2:21 3:7.575637 
0.04737897286121628 1:171 2:58 3:3.014361 
1 1:0 2:8 3:1.286355 
0.001033998802013208 1:3 2:14 3:1.444854 
0.02291070993761646 1:3 2:8 3:4.549449 
0.02192785826334723 1:0 2:2 3:41.261694 
0.02817476350081011 1:2 2:3 3:55.856622 
0.04738062829442902 1:1 2:470 3:0.820111 
0.8354421253427853 1:4 2:1 3:0.875686 
0.01738739792847194 1:7 2:2 3:1.148585 
0.002782779166740967 1:6 2:6 3:5.037969 
0.04684583083350907 1:9 2:127 3:3.813954 
0.04729578343219987 1:1 2:385 3:18.519561 
0.04732249500062108 1:5 2:85 3:0.951788 
0.04706045192910185 1:49 2:23 3:13.186487 
0.03900499788696477 1:0 2:1 3:77.206476 
0.0472898638466821 1:15 2:5 3:138.48933 
0.009652683251543472 1:0 2:1 3:7.840851 
0.008116163103519657 1:15 2:14 3:8.069764 
0.04702737950406605 1:33 2:3 3:39.814772 
0.04395724470987789 1:21 2:50 3:42.971183 
0.04383525356217671 1:37 2:9 3:49.493188 
0.04713791254049554 1:33 2:70 3:0.564102 
0.04718871016830245 1:7 2:56 3:21.095238 
1 1:0 2:1 3:0.417953 
0.04731749829467458 1:31 2:3 3:57.8 
0.0471598809492112 1:37 2:46 3:30.650936 
0.007246317515472445 1:8 2:20 3:7.489837 
0.02001075087673743 1:21 2:5 3:31.367125 
0.01218468502471035 1:8 2:18 3:7.249513 
0.04725613930365835 1:28 2:26 3:14.191776 
0.02333558869089401 1:8 2:23 3:2.490322 
0.02028908088232525 1:6 2:22 3:7.215143 
0.04585604980801145 1:14 2:10 3:19.68247 
0.04150367739561545 1:23 2:1 3:55.857143 
0.02071687959647285 1:1 2:4 3:10.690892 
1 1:0 2:1 3:0.653477 
0.0470115652889716 1:14 2:43 3:14.327971 
0.0470525859825023 1:31 2:40 3:30.235814 
0.00495637102505722 1:0 2:1 3:9.588156 
1 1:0 2:4 3:0.595757 
0.007389465072764022 1:0 2:2 3:10.348675 
0.04147447849042096 1:0 2:1 3:135.44332 
1 1:0 2:1 3:0.436393 
0.04465294614641058 1:21 2:42 3:39.901128 
0.03405591212500489 1:4 2:24 3:1.615088 
1 1:0 2:1 3:0.548405 
0.04189934808397394 1:25 2:1 3:50.714286 
0.0474115996086179 1:27 2:17 3:51.621169 
0.004789815136770246 1:13 2:4 3:7.236166 
0.009900937699266296 1:17 2:3 3:9.776669 
0.01437345651253006 1:16 2:9 3:10.962678 
0.02274774594877872 1:19 2:23 3:13.254198 
0.01093476060637888 1:5 2:19 3:2.881626 
0.0124652050256578 1:15 2:10 3:6.169732 
0.007901308370341498 1:4 2:26 3:7.075106 
1 1:0 2:16 3:0.642448 
0.03040173687589293 1:22 2:13 3:20.3895 
0.02218866155600559 1:20 2:5 3:9.676475 
0.03749014780215026 1:10 2:11 3:2.666438 
0.02518503764253083 1:6 2:2 3:7.414415 
0.004655414285590093 1:10 2:27 3:6.767322 
0.02179245356810057 1:7 2:22 3:7.806446 
0.03701374525859685 1:0 2:8 3:36.671431 
0.01096394603902741 1:1 2:1 3:41.667349 
0.03896782692991857 1:5 2:4 3:8.973616 
0.02025107451560717 1:2 2:10 3:15.296273 
0.0449039725629497 1:2 2:3 3:58.664956 
0.01969509937725633 1:10 2:1 3:9.323584 
0.03528345102476121 1:1 2:4 3:54.910309 
0.01482962180698409 1:14 2:5 3:8.768836 
0.04730648858752862 1:2 2:68 3:6.359314 
0.04734061866722572 1:14 2:1 3:68.532562 
-1 1:28 2:0 3:0.128718 
-1 1:0 2:1 3:0.411085 
-0.9037583085646594 1:0 2:36 3:0.183795 
-1 1:0 2:49 3:0.261703 
-1 1:0 2:6 3:0.384304 
-1 1:0 2:10 3:0.347839 
-1 1:0 2:1 3:0.41109 
-1 1:0 2:1 3:0.410929 
-1 1:0 2:54 3:0.127216 
-0.4599792350773591 1:0 2:20 3:0.054644 
-1 1:0 2:4 3:0.408661 
-1 1:0 2:2 3:0.409221 
-0.4030644620494201 1:0 2:15 3:0.321895 
-0.1927989662632182 1:0 2:10 3:0.300646 
-1 1:0 2:1 3:0.411216 
-1 1:0 2:1 3:0.410934 
-1 1:0 2:1 3:0.410888 
-1 1:0 2:1 3:0.411253 
-1 1:0 2:1 3:0.411078 
-1 1:0 2:40 3:0.216619 
-1 1:0 2:1 3:0.410934 
-0.571721916703941 1:0 2:12 3:0.389762 
-1 1:0 2:1 3:0.411081 
-1 1:4 2:0 3:0.364236 
-1 1:0 2:1 3:0.411042 
-1 1:0 2:4 3:0.387688 
-1 1:0 2:12 3:0.394904 
-1 1:0 2:2 3:0.408076 
-1 1:0 2:4 3:0.403815 
-1 1:0 2:1 3:0.41088 
-0.2131589144426682 1:0 2:14 3:0.338872 
-1 1:0 2:11 3:0.380938 
-1 1:0 2:1 3:0.410881 
-1 1:0 2:13 3:0.40965 
-1 1:0 2:1 3:0.410928 
-0.5855235044983703 1:0 2:16 3:0.240645 
-1 1:0 2:22 3:0.227231 
-1 1:0 2:4 3:0.402771 
-1 1:38 2:722 3:0.372817 
-1 1:0 2:16 3:0.331186 
-1 1:0 2:17 3:0.368199 
-1 1:5 2:0 3:0.011646 
-1 1:0 2:30 3:0.136062 
-1 1:0 2:34 3:0.019695 
-0.5609265183038973 1:0 2:8 3:0.256984 
-1 1:0 2:13 3:0.408806 
-1 1:0 2:214 3:0.249559 
-1 1:0 2:128 3:0.409373 
-1 1:0 2:970 3:0.022105 
-1 1:0 2:1 3:0.410891 
-0.3906909101994855 1:0 2:3 3:0.381478 
-1 1:0 2:7 3:0.389135 
-1 1:0 2:14 3:0.381555 
-1 1:0 2:9 3:0.393925 
-1 1:0 2:28 3:0.343908 
-1 1:0 2:757 3:0.167816 
-1 1:0 2:5 3:0.380281 
-1 1:0 2:1 3:0.411115 
-1 1:0 2:29 3:0.387546 
-0.8183299641755265 1:0 2:23 3:0.299886 
-1 1:0 2:1 3:0.41104 
-1 1:0 2:1 3:0.410891 
-1 1:0 2:1 3:0.411078 
-1 1:0 2:1 3:0.411246 
-1 1:0 2:1 3:0.411081 
-1 1:0 2:6 3:0.404594 
-1 1:0 2:3 3:0.385337 
-1 1:0 2:1 3:0.410868 
-1 1:0 2:1 3:0.41107 
-1 1:0 2:2 3:0.408679 
-1 1:0 2:1 3:0.410972 
-1 1:0 2:3 3:0.383743 
-1 1:0 2:2 3:0.408419 
-1 1:1 2:0 3:0.410742 
-0.08758563211837236 1:3 2:0 3:0.380319 
-1 1:0 2:2 3:0.407618 
-1 1:0 2:17 3:0.394599 
-1 1:0 2:19 3:0.344435 
-1 1:0 2:11 3:0.361782 
-1 1:0 2:1 3:0.411081 
-1 1:0 2:1 3:0.410917 
-1 1:0 2:1 3:0.410955 
-1 1:0 2:1 3:0.411224 
-0.08997009496088625 1:4 2:0 3:0.249445 
-1 1:0 2:1 3:0.411143 
-1 1:0 2:92 3:0.352815 
-1 1:0 2:314 3:0.333971 
-0.8913767861269513 1:0 2:7 3:0.369778 
-1 1:0 2:1 3:0.411114 
-1 1:0 2:1 3:0.411016 
-0.6744579145478632 1:0 2:13 3:0.366643 
-0.9108716466071081 1:0 2:2 3:0.405354 
-1 1:0 2:91 3:0.021909 
-1 1:0 2:1 3:0.411237 
-1 1:0 2:1 3:0.410955 
-1 1:0 2:1 3:0.410885 
-1 1:0 2:1 3:0.410966 
-1 1:0 2:1 3:0.410839 
-1 1:0 2:26 3:0.232218 
-1 1:0 2:6 3:0.389675 
-1 1:0 2:12 3:0.397391 
-0.06516788284389904 1:0 2:1 3:0.410828 
-1 1:0 2:1 3:0.41091 
-1 1:0 2:257 3:0.273318 
-0.08930322859708117 1:0 2:19 3:0.270339 
-1 1:0 2:58 3:0.392385 
-1 1:0 2:1 3:0.410891 
-1 1:0 2:1 3:0.410888 
-0.9219775766163569 1:0 2:4 3:0.385559 
-1 1:0 2:1 3:0.411215 
-1 1:0 2:1 3:0.411224 
-1 1:0 2:2 3:0.409952 
-1 1:0 2:1 3:0.410881 
-1 1:0 2:1 3:0.410966 
-1 1:0 2:1 3:0.411226 
-1 1:0 2:1 3:0.411194 
-1 1:0 2:1 3:0.411215 
-0.7296987216293184 1:0 2:11 3:0.287473 
-1 1:0 2:1 3:0.411246 
-0.3486123036584813 1:0 2:32 3:0.142724 
-1 1:1 2:0 3:0.41034 
-1 1:0 2:1 3:0.410885 
-1 1:0 2:41 3:0.163506 
-1 1:0 2:1 3:0.411252 
-1 1:0 2:1 3:0.411253 
-0.02350182460464092 1:0 2:5 3:0.36988 
-1 1:0 2:28 3:0.064515 
-1 1:0 2:788 3:0.257843 
-1 1:0 2:1 3:0.410928 
-1 1:0 2:1 3:0.411253 
-0.9877677262818509 1:2 2:0 3:0.406792 
-1 1:0 2:1 3:0.410888 
-1 1:0 2:2 3:0.408313 
-1 1:0 2:1 3:0.410934 
-1 1:0 2:24 3:0.287095 
-1 1:0 2:1 3:0.411037 
-0.7105080086172566 1:1 2:0 3:0.410042 
-1 1:0 2:71 3:0.397796 
-1 1:2 2:0 3:0.407609 
-1 1:0 2:4 3:0.399331 
-1 1:4 2:0 3:0.269661 
-1 1:0 2:1 3:0.411078 
-1 1:0 2:1 3:0.410833 
-1 1:0 2:1 3:0.410934 
-1 1:0 2:32 3:0.308887 
-1 1:0 2:20 3:0.402961 
-1 1:0 2:51 3:0.38229 
-1 1:0 2:4 3:0.389354 
-0.7550728193491563 1:0 2:6 3:0.381554 
-0.8557881409574043 1:0 2:17 3:0.087084 
-1 1:0 2:9 3:0.362881 
-1 1:0 2:1 3:0.411018 
-1 1:0 2:1 3:0.410872 
-0.3183284850110286 1:0 2:34 3:0.170573 
-1 1:0 2:1 3:0.410839 
-1 1:0 2:8 3:0.266036 
-1 1:0 2:37 3:0.255872 
